solver_type L2R_LR_DUAL
nr_class 2
label 1 -1
nr_feature 5000
bias -1
w
0.279243058482076 
-1.568135569655202 
0.8510856642661897 
-0.7783350093545185 
-3.673133593926835 
-2.57208776066282 
-1.473219188140493 
8.921941193090317 
-0.7744781400431111 
-1.334095892368421 
-0.7399291866406382 
-1.350966037506709 
-1.056895962424695 
-0.6766112630199685 
-1.325755710430202 
-1.892181133095393 
-1.602705072925714 
1.715311200329779 
4.234071130547156 
-2.425153978406599 
1.253594684267274 
1.349830082907805 
-2.152484098781035 
-7.681161816098603 
-0.5788527780765904 
-1.556063844409828 
-1.198058525648392 
-1.751845414004703 
-3.715735577921136 
-0.7429333587849081 
0.02251744828549153 
-0.8770757192766193 
1.242836049224962 
-1.345267210370533 
-0.06111642420111885 
0.439355410783588 
0.6044566239289995 
0.2790325300223713 
-0.226572100858199 
-0.5700874986204582 
1.122734748753399 
-0.5501882261131867 
-0.9563239487308512 
0.03342818066218834 
-0.7295715763172262 
0.6000774786966732 
2.539677267190467 
-1.145751631186497 
-0.3807573393784638 
3.409086192706534 
-0.91148323499104 
7.07210995360069 
0.8947502666431549 
-0.4663752575993906 
0.2687753065986505 
-0.6037688633977054 
-0.9954944318930876 
-2.531610652815139 
0.2186489712423963 
-0.6423441466791189 
2.495556726671281 
0.06272603180707741 
1.108091375260094 
-0.04492817857942954 
-1.33575039231034 
-2.412143152762878 
-0.7589718698192693 
5.010865479681339 
-4.905883913445941 
-0.4503766190225597 
-0.3919179132046416 
-0.03198803648377369 
1.06644877893358 
-0.4613903657338027 
-3.975346674944792 
-0.8485279117467871 
-2.375555191788838 
-1.012451665855637 
0.3107075353362851 
-0.4929130685004636 
-0.9376697535109685 
-2.011629580592117 
-0.744457784984111 
3.922908380692594 
-1.315323737521793 
-1.168624001250878 
-0.325306430540342 
-0.8255007027933304 
-0.3630220991867211 
-0.002019637718855826 
0.5138729339702022 
-2.523809949848292 
-0.1902981123917768 
-1.82911376511064 
-0.2437752523047766 
-2.020905565107647 
-1.306565524327704 
0.1609029796895282 
-2.564148560928225 
-0.7641960232183257 
-0.9781710393205459 
-0.7805893248117169 
-1.425986049980714 
-2.921025625341465 
-0.3121939443376718 
0.4437108727723011 
-0.6058608639938617 
-0.4427792033302487 
-0.395024530984702 
-0.3431680753910925 
-0.6420130684391323 
-1.241709083866572 
0.1090183488082943 
-0.2519173357788702 
-0.8313886406318522 
-0.8355000171775928 
-0.1006939357598901 
-0.06432619469028464 
2.672780273653773 
-0.209907530762074 
-0.1065253115900722 
-0.2555658463213152 
-0.5493267906289886 
-0.3391689802269867 
0.1080856232812542 
-1.945837460404545 
0.3157938874706604 
0.1561015987446669 
-1.899544318364965 
-0.03399936013498023 
0.1588794305476098 
-1.796876712104781 
-2.652888876478369 
-0.3370300869938575 
-2.887738087030775 
-0.6015465555059418 
0.5579580236371214 
3.885241992760228 
-0.1636704302140691 
-0.9555393357984251 
0.2250825797136707 
-3.500604956646721 
-1.016228387883026 
-0.4187549378513702 
-0.3869465942338701 
-0.7319033525103442 
-0.4129067229566388 
-0.973468302815787 
-0.6357669188271905 
-0.7562492183950604 
-0.772339387980683 
0.1178291121852201 
-1.879682607320152 
1.380167415656685 
-0.6367234318572804 
-1.303494599267557 
-0.4680435869224083 
1.234814481367214 
-0.5609059510299694 
0.7717393672638054 
-0.5954090516663898 
-0.6537857256861325 
-0.4116011382949581 
-1.527234059858895 
-2.602005277466163 
-0.1859576680116022 
0.08239417813171174 
0.2814628094908688 
-0.4361087126996437 
-0.4732075676963334 
3.99188238536542 
-0.1874879384614354 
0.1584444129514363 
-0.09743601531839551 
-0.8790617004813074 
-2.070084428977194 
2.731436217268389 
0.40497491468927 
2.785520217890292 
-2.235616620482924 
-0.7282805473800359 
1.273377923671375 
-0.2908049599250989 
-0.4684709870638737 
-2.127953551096481 
-0.2745984269351001 
-0.7780152827843222 
0.1974006664528707 
-5.529492225148918 
-0.813017157842386 
0.8807772782835848 
3.350496010496159 
-0.4338153637367148 
0.2775932654817838 
-0.7490121499206117 
-1.24955054664038 
0.2052091582519605 
0.8645434280885645 
-0.9200573833295447 
-0.01288152049504133 
-0.5648375835283131 
-2.529849633590813 
-0.7784748498273552 
-0.1591548771291495 
-0.01523191099384779 
-0.7364529094088975 
-0.137198767132214 
-1.151327038538289 
-1.121219117297004 
-3.613023088782219 
-0.8884446656470308 
3.714260209398258 
-0.6685462352168003 
-0.6059376011265634 
-0.09815491997075682 
-0.2568700825888289 
1.850476836775211 
-0.4044113085958613 
-0.1034641389505113 
-0.5713149106989814 
-2.681728981087766 
0.0603828926738392 
-0.09895956180279565 
0.1775642534231303 
0.259870690345272 
1.341141562395071 
0.5916702946764458 
-1.142647147981186 
-0.4098990367047606 
-1.503884947296318 
-0.5099235836040917 
-0.1386210983189279 
-1.053839498985017 
2.309904400570074 
-1.50163445290619 
-1.303981358235975 
0.04548150110185541 
1.897440892575967 
0.9968424166577651 
-0.4987861779831032 
-0.9726335636778236 
-0.2579199479652001 
-0.5959823059638444 
0.3298092493869463 
0.0809081565977917 
0.2335436529267115 
0.2279302136358214 
-0.6191615789951787 
-0.3742312517692667 
-1.51396853965637 
0.4643893437111511 
-0.5102118759682597 
-0.9386357587224554 
-0.907164412895281 
-0.6304897378477008 
0.06783079832319661 
-0.04416468282384489 
-1.161253426409298 
-2.171812003159116 
-0.7929328743421041 
-0.1264161364037658 
-0.6653472641591981 
-1.279229831128983 
0.09389989130523292 
-0.5537726320707831 
-0.7916126788153568 
0.9028735430944428 
1.282421325990917 
0.3943466700841041 
-0.5966709602119433 
-2.431056452143747 
0.2294833388722989 
-0.4682353484685803 
0.4979629118791698 
0.08788005274794609 
-0.7064548617673051 
-0.1364153046048281 
-0.7597336696382081 
-0.4059318432848186 
-0.2662724956549085 
-1.168226238495703 
0.5058251748545498 
-0.5214127030108201 
-1.522595098189594 
-1.270522165644479 
1.42051796842931 
-1.839981356063341 
0.01544362566986383 
-0.5582905257619414 
0.215010178425899 
1.071486340711905 
-0.8128800556248498 
1.54427722069734 
0.5171289406136543 
1.952969530631904 
0.2887753676419788 
-0.2818122554741069 
1.816255835102986 
2.699011152735504 
-0.3751216348747907 
1.835766661470545 
-0.07684742650660166 
-0.6009915469141527 
1.510955767895208 
0.4641727101040002 
-1.530659050369729 
-0.6097585996500328 
-0.1444903723156172 
-0.6422395076017384 
-0.9625757384086036 
0.2021430113017006 
-0.7491984055779433 
1.645130701144883 
-2.927773386890429 
-0.08779822538081451 
2.454046196359505 
-1.164123164222208 
-1.276564043044335 
-0.4853641643663147 
-1.100922882290456 
-0.3610326051815952 
-0.6232913007756883 
0.5643670742646864 
0.5776393464310305 
0.503963578485363 
0.5901671259764982 
-0.3213393712685767 
2.307195208733287 
0.3759793941293068 
0.200901642293935 
-0.391213828948921 
-0.1156320756271835 
0.6779467059547039 
0.8083612571867622 
-0.07800294252767628 
0.2230975227041783 
0.3422471987271569 
0.9219344189006288 
-1.907796281512828 
1.531828561831667 
-2.679223768412715 
-1.725949335972363 
-0.7779968905389691 
-0.6506984681612195 
-1.092540804220648 
-0.9453245214313922 
-1.13137668486039 
-0.3069641987654332 
-0.3228280329465876 
-0.2510783895804881 
-0.6226499950215444 
2.243738262953081 
-0.4726721090558193 
-0.4640141588250604 
-0.8195523219094007 
-0.2885738647523847 
-0.678322341285876 
-0.3041811522949845 
-0.102019955636429 
-0.05844836758897345 
-0.4550070183227133 
-2.559337579286047 
0.159335088274092 
3.994755048156489 
1.828055191961193 
0.05469569654579432 
-0.4178319843620769 
-1.620995138854408 
0.3223511411187492 
-0.7309018789377547 
-2.490725870964676 
0.5283939041890734 
0.8038500048864419 
-0.3922949746938356 
-2.988350240416606 
-0.6111877500521392 
-0.04708673908411053 
-0.01302933932095137 
0.7239212490896404 
0.2113173581411117 
-0.4201343483584208 
-0.1051922397689938 
-1.062934013766895 
-0.4442977746218418 
-0.9557876992042126 
-0.268485530696878 
-0.1600788162421815 
2.987672562504099 
-0.6490132920485909 
-1.481399850747305 
-0.2751951746350919 
0.04152691420474547 
-0.08470089504069715 
-0.157867559196144 
0.9622579044266555 
-0.3699366581751805 
3.29273370030881 
-0.1506825214057873 
-1.567312474733251 
-0.2040523986514434 
-0.8818226864115515 
1.739683911425198 
-0.05598829074084633 
-0.9400510785093557 
-0.1272905504299801 
-1.399879652789918 
-0.4088185261686791 
-0.2991219362140426 
-0.6019952476949769 
-0.01060950938777885 
3.14854350100601 
-1.206205282599527 
3.803945584797508 
1.017256639401679 
-2.100835804871451 
0.9526012983348718 
-0.9646956361083647 
0.0451724461987776 
0.0850718278731646 
-0.2696251268432417 
-0.6032697426206887 
-1.695373154757184 
0.3705368446269535 
3.381418090776228 
-0.5938575905961212 
-1.440008291540236 
-1.639997011061741 
-0.1371418705732649 
2.204779974117561 
1.037647945641889 
-0.04469960721507761 
-0.3694533519621412 
-2.857139228692469 
1.549959307218329 
-0.6030775627721854 
1.220435552884705 
1.29252488447437 
-0.2517325107743336 
0.2320521252055116 
-3.209129566090191 
-0.7313856510622526 
0.6658684768900672 
-0.6141546248169081 
-0.3311334947046192 
-0.007098717954661064 
-0.7448489986512911 
-0.2400888799986341 
-0.03734137787790062 
1.69120029243753 
-1.80045986668545 
0.7836770498125561 
-1.684078456434557 
-2.567131209906979 
0.1395452450532505 
-0.8980165883292991 
0.0363069228531901 
-0.2481253592123805 
2.807418237228638 
0.9604712007100763 
-3.300030490218048 
0.7151530591413152 
-0.7407278453663316 
0.1783879978766426 
1.92622049365306 
0.431301891955984 
-1.294394956293728 
-0.1138476627791426 
-0.7701445704719448 
0.6076371151099297 
-0.4669064392395288 
-0.769571351237358 
1.747115664732273 
-0.4858903459481466 
-1.686470285523756 
-2.948699800079857 
-0.512006379693991 
0.3711772426396204 
-0.004197272343561089 
-0.180110155776807 
-0.3161030417838362 
-1.470893716653128 
4.516243976223793 
0.857272707005293 
-0.8169406346901673 
-0.1125982504737029 
1.157411700311078 
3.540639385539272 
-0.1721760096962656 
-1.626954904485991 
0.1202413856003254 
2.124384934807563 
-1.575457468064822 
-2.668162668992935 
-0.03751042831045577 
-0.1201287581979415 
-0.7564473847073871 
2.98518131706548 
-0.534394642639075 
-0.9071633848447547 
-0.08470776594898974 
-0.4197743733381912 
2.033672819804754 
-0.2623989382229917 
0.3901320311859682 
-0.5887126389024732 
-0.3626215224456036 
-0.512269706341934 
2.693252160577754 
0.3313764559686666 
-0.7537993720877502 
0.6419207763415553 
1.695844732537193 
-2.098647167510024 
-0.9510147460401183 
0.8617213234671067 
0.1763779310873524 
-0.709282054527582 
-1.612135074501424 
0.6687502399008133 
0.3032421478384051 
3.401369205221064 
-0.4600364570579537 
-0.4447579141940881 
-1.530928123219899 
-0.8595086677125862 
-0.06723153970862496 
-0.3803250925518139 
-0.6156566823536903 
-0.5532287796117948 
1.029808948324567 
-0.1522883259061056 
1.031293653733438 
0.1692816082322544 
-0.6879498263169628 
-0.2309577489421421 
1.8956249975102 
0.4779908141339236 
1.138431173645323 
-1.762949624912603 
-0.2984268727626274 
-0.01669260937635343 
1.590447700133443 
-1.179514139682075 
0.08984419109346795 
-0.004404052559857381 
0.05642449420566447 
-0.7271464236443396 
0.7708115670106955 
-1.300543783965181 
-0.3917873235570304 
-2.97632948182339 
-0.5597650333460487 
2.145669176991868 
0.07374619339361024 
-0.4389984271402099 
-0.1586306562852841 
0.533098203852362 
2.509970918815509 
-0.1839560902675406 
2.23835723510094 
0.05760007253547295 
-0.8728000499898512 
0.7669207090069958 
1.531748498437668 
-3.34974684310879 
-0.3317567402476458 
-0.8753957893371115 
-0.717598822070131 
-0.2731254845815926 
-0.1455280549651495 
1.192272090584094 
3.245299682847561 
3.675760541753559 
-0.6099266846233816 
0.3361150805519308 
1.584959104733831 
0.7231962374495868 
0.7352897938802976 
-0.08871011580676269 
0.03221747707391734 
0.5320348419427551 
-0.08566666665537546 
1.370550706260568 
-0.7542128087949349 
0.8229614179617768 
0.4460023838955259 
0.7642915429083703 
-0.5446596188770112 
-0.261425059214327 
-0.6006820546715814 
-0.2925590010931434 
0.8419169125407582 
0.01436638252770813 
-1.198973371295657 
0.9503226964995335 
-0.02161035824312622 
-1.384106648779651 
-0.3826548364190255 
-0.9155934412477246 
-0.3073105538202432 
-0.2562013973958182 
-0.8243241355392443 
-1.684026634222306 
-0.09698574700223439 
1.16977260667705 
-0.1262709710099327 
-0.06689299853657694 
-0.244707239476815 
-0.2571267351761564 
-0.705988732862999 
-0.4467208883377123 
-0.1876022919259276 
-0.7399154200503988 
0.1598938951394147 
0.02447393303789754 
-1.069694928425435 
-0.7492810933794624 
0.03119773491340227 
-0.1498780147234187 
0.9255480982209792 
-0.4015681055453457 
-1.382346950059484 
-0.06969807445204894 
-0.6542669880747006 
-0.3500293150113058 
1.083234419184709 
0.5761693109499511 
-0.1795409467339014 
3.875879387198535 
0.5838990318823566 
0.07541816601351596 
0.2502841536213218 
0.7992771544871978 
0.08279538549365924 
-0.7754167990208102 
-0.5616223999705069 
0.4796027133530081 
-0.396166160651935 
0.04446239991044945 
0.08644754997746151 
0.07528694984997572 
-0.003797087639489394 
0.4726988291582214 
-0.6102383099472241 
0.5057664617881502 
0.880988803267959 
1.642809652959703 
-0.2183005337241934 
3.540250040590772 
0.2888659136470106 
0.2863325329864623 
0.7394232077344784 
-0.1253023307811148 
0.5800750220715793 
1.264428384869236 
-0.3962100957320029 
-0.2745184708805903 
-0.2382821904003958 
-0.02018372167487751 
-0.968531603276904 
0.6152487904425498 
-0.8426125121802261 
-0.8917760244577514 
-0.732402405053338 
-0.7574026078997199 
-0.2461667774274776 
-1.836221192836854 
-0.4109275848297242 
-0.7733631175636703 
-0.3748462478489371 
0.8206095910110141 
-0.0454864978336935 
0.6946372890575302 
0.961436726627066 
0.1610505460395271 
-0.4069897165178315 
0.0377170413289964 
-0.2130552741613326 
-0.0105696814032486 
-0.2985135910653737 
1.57558280196157 
-0.07581173727205787 
-0.5799120421231151 
1.057452118301838 
-0.5145908351680171 
2.568779145800278 
-0.9453784338158847 
-0.1803628763778513 
-0.4128468803088999 
0.547962192163892 
-0.07531337527233387 
-0.9769487013461037 
-2.008715073185787 
3.192884370900936 
2.001259592476751 
-0.5694960074722367 
-0.9610544122281947 
0.02154806543564382 
-0.1067446896799928 
0.5150510410646612 
1.108170248398106 
2.142708612054566 
-0.6675420608670354 
4.010936241825041 
1.062065092919274 
1.104945529787926 
-0.1757444825231669 
-0.6005011305775946 
-0.301767971728254 
-0.009280828659235388 
0.07262299811107556 
0.5016186853063982 
-0.4638014545633815 
2.646491925469038 
-0.1154568112076049 
-0.5567823323367866 
-0.3516415846061318 
0.2317961821796796 
-0.7093550004943676 
-2.87451072007867 
0.01721191568736379 
-3.011866172943205 
1.188008737453973 
-0.4462208010857243 
0.1501698360035981 
-1.214389313757972 
-0.02759837152453107 
1.295345413145466 
1.421211985431271 
0.980591008605925 
-0.4381792658624092 
-0.6253180485231498 
0.2353087856181834 
0.04313305036145949 
-0.9656757673828489 
-0.6085335770296121 
-0.7497392131704376 
2.19493298015492 
0.7170437852503575 
-1.208780729802421 
0.6507924535895003 
0.3101472447082297 
0.3811457785593788 
0.377359802603283 
-1.027872730208709 
-1.137670501462477 
1.636336765813985 
-0.7003246482918842 
0.2409218396939685 
0.3311928240736003 
0.7286155920993581 
-0.5145549907195585 
-0.5959663923601685 
-0.09145931265278398 
-0.4517442548480986 
-0.8926360076737017 
-1.02814708188305 
-0.01329374736843391 
-1.015727692868147 
0.04171658168449472 
-0.08045722269756664 
-1.097042526181799 
0.6673466800768137 
-1.272784130281098 
-0.1967010542077271 
-0.6048214566005613 
0.2760796130514108 
-0.500561446967382 
1.179609779164041 
-0.4504192747880844 
0.2627243247365219 
0.7841251509242602 
-0.07373732584017793 
-0.05629227807483615 
-1.935640143930198 
-1.698109869950563 
-0.7550888097695111 
-0.479197580392432 
-1.401122393676947 
-0.02954076665731192 
-0.2702802855061925 
0.7288339199332088 
1.752637312015824 
-0.260211036337962 
0.8286527439557239 
3.163079620884371 
0.4611571236194826 
0.03650618724136957 
0.4397923773789978 
1.210889759921457 
1.393494973177389 
-0.231267098469303 
2.298782877763434 
0.2607934362053109 
0.3744781360355412 
2.088026545571645 
1.850259587691239 
-1.09800947731265 
0.2751588958968704 
1.46150852277127 
-0.3131245775426862 
1.385097730549749 
-0.2949163125596905 
-0.5936564889789533 
0.9513433354781826 
-0.2896621163007964 
-0.1779491421779866 
2.066163993157187 
-2.049655869521077 
-0.01350174911645097 
-0.05801862284772131 
-0.4164214625590923 
1.96419120714133 
-0.1612161984998383 
-0.7760575719361692 
1.58868689515798 
-0.350263299222581 
0.006518048730596366 
-0.5439464939425209 
0.08586733991928289 
1.955409808150544 
1.561425356823387 
-0.05548735326049033 
-0.2979381328059054 
-0.2567340859227865 
0.1574221171396581 
-0.1160685661593425 
-0.5865436837210061 
0.1416274056273673 
-1.295374659161299 
-0.1484239828338767 
-0.04778766534162683 
-0.6502837336035743 
0.1242971164003736 
0.008503726984220248 
-0.3274073095918188 
-0.7584612397599679 
-0.2281284303022324 
3.62296426223618 
2.26893387054207 
0.556295451832799 
-0.5152165913303715 
-1.921234419221134 
-0.896784880287014 
-0.9442380736259596 
0.52852413273701 
-0.2099334174045112 
0.303530340098573 
0.1686038131514296 
0.1247348759038435 
0.4043624984141487 
-0.3760152543872038 
-0.4334120250846188 
1.147839168043141 
-0.3851808624680904 
0.7056159534783051 
1.896223433135428 
1.203210367627942 
-0.751779800532977 
-0.5144631615591295 
-0.07592540095463378 
-1.262908042418225 
0.2059587071425955 
4.777590267570262 
1.003801767320463 
0.7928823780743329 
0.1835525848355261 
-1.782862569416572 
-0.1953410277125927 
0.08639801511238078 
2.883506526663614 
1.303602841235722 
-2.730980527905675 
-0.5487681857450649 
-0.3253129249173892 
0.5387949253616521 
-1.460138368033381 
-1.57852642944262 
2.044582946731222 
-0.001571123062240371 
2.446344513663223 
-0.7872966472228776 
0.5145264636004158 
3.125808571293997 
-1.169408654820669 
-1.328349267758518 
-0.3123276116133756 
0.8270714568282305 
-1.626203279400412 
-0.5576548959508013 
0.3292657797569947 
-0.3252192573452751 
-1.06256809005388 
-0.330538096028671 
-0.3317031282031283 
-0.1709322102794066 
-0.383230212364186 
0.04871175922410682 
0.0635203253664266 
0.08504593015502554 
-0.3327633586414264 
0.816603713347159 
-1.515184697615264 
-1.543869554827658 
-0.7266278898173685 
0.1881464432936118 
-0.440779925344016 
0.9223780427751286 
0.4100845851164405 
-0.9319030795747841 
-0.2475805635559833 
-0.1950670415080963 
-0.2856214086468025 
4.403949823455146 
2.178709070110222 
-0.8402718965552276 
-0.1866557266765034 
-1.670943789453089 
1.811429414540393 
0.3982074210698202 
-0.1986152445962731 
-0.4592044551344186 
-0.06733213686973778 
0.3321139231655893 
-1.591617573152725 
-0.1185226440589955 
-0.872498825593365 
-0.2544049664669288 
-0.9723853083511816 
-1.256093189695386 
-0.07856361971762986 
-0.1408116943234103 
0.4078238779292216 
-1.322310776910164 
-0.1949884233914408 
0.003790553722116808 
0.01692249464065933 
-2.205044886160151 
2.140802245034623 
-2.431484086134931 
2.2226856305294 
0.09923047792758764 
0.18426423737639 
0.3923335375147987 
-0.3916313633272878 
2.091909534573285 
-0.4219056606111471 
-0.8615787564573194 
-0.8584858304488012 
0.5706678448484109 
0.3895603873411373 
0.9379763995929823 
-0.1687502143988557 
0.5394058669351156 
0.8707299105919352 
-1.323927363198224 
-0.7064141498550754 
-0.6226135058537768 
0.1231363730552419 
-1.526419969583228 
-0.1578868216664013 
-0.3921888080769783 
-0.7254840572946896 
-0.2422696521338311 
0.005044131153236207 
0.3867018126738337 
-0.130535059866568 
0.163708129604888 
1.575180757767997 
-0.3636500050094899 
-0.6792824562385522 
0.4144260750130985 
0.3434476918760159 
-0.8252461111751822 
0.2225123121665439 
0.5727916523700245 
0.1687747726660971 
-0.1084239742354874 
-0.7963497422527898 
-1.162893255620771 
-0.02071991424805697 
-0.07572508471714787 
-1.190074460915512 
-0.2045446813732692 
0.09162574355397883 
-0.9463414366253411 
0.1784598233861267 
-0.2489871001206674 
2.087345231632855 
1.211393763455946 
-0.0008403209209114515 
0.1803384340982639 
-0.2733017651361908 
-0.281852740539372 
2.573553460915784 
0.3410171072731357 
-0.1906612278608513 
1.518876674862725 
0.1594879813547895 
0.420802553842309 
0.2454500602680827 
0.02516981365760234 
-0.2123750163492213 
0.2173505752911161 
0.8916896730253618 
-0.1530044682420013 
-0.7747637964507551 
1.505703201105779 
3.931935779490146 
-0.4122732926317898 
0.5176681072664318 
1.293361267843806 
0.05745691626767015 
0.4063578602770502 
0.0318151950056861 
-0.0362176558693772 
-0.02487830417772414 
-0.4675421074028177 
0.772494155426923 
0.2093806952906967 
-1.221147700710814 
0.1761092655727052 
-0.9812620766320388 
-0.4932988392895764 
0.01748226961446919 
0.3379142356738615 
-0.2433003183240481 
-0.144589478628728 
-0.3534818013618241 
-0.08911031739508821 
-0.1416239404443287 
-0.01151829912462526 
-0.156712279161427 
4.363355605917962 
-0.3134135617866089 
-0.2522736169544911 
-0.351821311629522 
1.665861555002277 
0.02912826814281 
-0.07463566636892746 
-0.4223123706896179 
-0.1876687157787865 
3.433290624025788 
-0.8602535450761951 
0.08947837333183109 
-1.450983060049905 
2.533691427384532 
-1.335895566621116 
2.324925367238006 
-0.4995538468663261 
-0.05848710278782285 
-0.03886911992982743 
-0.92474267808666 
-0.3387363573293515 
-0.6995671980232094 
-0.9293689916147293 
-1.732858434015861 
-2.138393718298182 
2.268485045131162 
0.1837016394455751 
-0.1999103728354606 
-0.7515832009846574 
0.222553852340389 
-0.2286873403908902 
0.360713425310257 
0.01080501953791544 
-1.000840123724138 
-0.8334684162645091 
-0.8517027547983372 
0.3029212234541141 
0.05338343934461404 
0.07489086927024727 
-0.1238848949383736 
0.7182224610441935 
-0.8798286799405081 
-1.727941706338466 
-0.05269353769304409 
1.354541837880076 
-0.3089612132892827 
-0.9792501968831732 
-0.08771430232956809 
0.2199874371416274 
1.709094494447835 
0.879567853816983 
0.715107341907315 
-0.03739154575388298 
0.09874881544433044 
1.872244180493587 
-0.4977400584412297 
-2.321100588186994 
0.5607732403638142 
2.953854739161344 
1.553179134511359 
-0.1982617918133484 
0.6599104497765522 
1.014409376965201 
0.4582357370276789 
1.117553178720238 
-0.31693856087859 
-0.4676048224332089 
-1.850150290460321 
-0.4200036442752784 
0.6806954011596227 
-0.06188309798277437 
1.470476077651407 
0.2831060976945707 
-1.17154895003684 
-1.59652763987016 
-0.08927116523268568 
-0.06286826045343731 
2.354286166821792 
0.2683135574435307 
0.5645999959564763 
-0.04831615831351972 
-0.05485327137280348 
2.15892312284481 
-1.544865696290026 
-0.3732801332858889 
0.4215447135143746 
-1.832628767721746 
0.2522992350596704 
0.5939045763603741 
-0.965217197024806 
-0.4082933279504282 
-0.1178618425529805 
0.08751746010014537 
0.4428942771551357 
-0.2245215430728241 
-1.18696697332913 
-0.06779612142435806 
-1.314952368526498 
0.7983922087622499 
0.4859771066857504 
-0.3693133117900731 
-0.352282191137579 
-0.05998150981708399 
-0.9682428276572244 
0.8012365556825493 
0.6096279176183236 
-0.5884896609045868 
0.6976094241095869 
-0.1653717405392194 
0.5097602804483858 
-0.9093950672783864 
-0.9504556701782073 
-0.6655151935016292 
0.410298181185754 
-1.297764364711866 
-0.4862041358452248 
-1.078085609477423 
-0.4495031140387011 
-0.9760046436492982 
1.144971124553352 
0.4019250599711319 
1.069650604999913 
-0.001099234685612406 
-2.756255354804912 
0.5609920674774951 
0.5621308076639201 
-0.186557787733332 
-0.1055265681711176 
0.4785284648303869 
0.2972215481934747 
-0.1563327357002385 
-0.1538758399451169 
-0.3495935467821946 
0.1974466910421878 
-0.03934407823306951 
0.3811052674594747 
-0.07976902507433417 
-1.536382796080224 
1.298021667287226 
-0.2532961920201116 
0.8133883254337357 
-0.3547160189752909 
0.4566297273632007 
-0.2960875586632696 
-0.06395758620674695 
-0.3296288903617777 
0.3988196089812306 
0.4611604991095259 
0.7831035593518703 
-1.046054588192791 
0.8557070923844816 
-0.3562937228224241 
0.9729810542915706 
1.324356261542987 
0.3865967979911981 
-0.6557632084054679 
-0.6474183449416201 
0.3952604296535197 
0.4304847417425545 
0.5473129763915449 
1.012940737177342 
-1.795921875690895 
0.9913974435618761 
0.00672512818141096 
0.3829432534471706 
-1.026471019393274 
-0.3372455726387683 
-0.9304821333298062 
0.5220723489558521 
-0.947493981021392 
-1.258150669026187 
-0.7465433507912619 
-0.117174785736172 
-0.585320606448352 
0.6823295894252858 
-1.261330599595793 
0.05742401996520255 
0.4550293107204751 
0.7370247622396813 
-1.147313855534459 
-0.3564632019233746 
-0.7336909290498993 
-2.210311091082622 
0.007737814938295554 
-2.024647740933894 
-0.1110518356976632 
-0.1731251198164191 
0.07940803797872127 
-1.159400835359361 
-0.1579936253137564 
2.184420590529066 
-1.523750577979647 
0.194781296660433 
-0.07658984666842884 
0.6649764923359189 
1.787264647687228 
0.2984436906346841 
1.236720985400991 
0.2360290805143507 
-0.2438515511254645 
-0.2280152512001743 
-0.2288356559062649 
1.555849707491301 
0.2102305205790027 
1.818354009666654 
0.9391125564954301 
-0.8228315325659752 
-0.4112890622265886 
0.2071049019024466 
-0.3571578044944359 
0.777522412936557 
-0.01573042327888888 
-0.1581165467012675 
0.03215917769575424 
0.846808874184321 
2.280334231588651 
2.542897328471083 
1.065512841357948 
-1.518517532827252 
0.5537333928419027 
-0.7022575890887002 
-1.343206676525444 
0.4621911394535283 
-0.9292923146755065 
-0.308367736034603 
-0.419067629593901 
0.5136576293210268 
-0.06020509220720276 
-0.5903391099832989 
1.390153724122144 
0.3842322451628146 
-0.1628039983491824 
-0.7184047992613197 
-3.026255192298159 
-0.7495727094126855 
0.611542224260611 
0.6937696652741143 
0.8119632754128542 
-0.9241707379208687 
1.991117316315612 
3.503071964465602 
0.1981638696732677 
-0.109350777586115 
-0.6883571056891281 
0.1921075489734319 
-0.6583590258378073 
0.4367641350581599 
-0.19611757364683 
-0.08508756662238644 
-0.02465912281530299 
2.043456690983729 
-0.1414721502639372 
1.944857976875085 
-0.4021821322556323 
-0.3027660412374482 
0.5489890192184925 
-0.237414334985552 
-1.227865544253923 
-0.1487971053727336 
-0.03877837239531637 
-0.143612067006901 
2.131424214082545 
0.2986787485691247 
0.2515256717421204 
0.3471359267394075 
0.4333992412216043 
0.09744085549313346 
-0.731357443558268 
-1.678207615762397 
-0.1143333366548391 
1.668637329817493 
0.7476718842795897 
0.5185650473383848 
-0.3897667588330259 
0.3884333221266609 
0.0514075142327538 
-0.3851693812268416 
-0.3165585643389996 
-0.3996342953517175 
0.6396282298533394 
-0.1798502333573435 
-0.7369126444822497 
0.05637745317537654 
-2.054877571449084 
0.5564620822487115 
-0.5212648790239947 
-0.4174535417820715 
-0.8158390402998638 
0.8550451637450769 
-0.9706365744202544 
0.62099494245025 
0.2808672922009555 
-0.0358631863869468 
-0.09823310647779368 
-0.005359754543039712 
0.5909246633775966 
0.8663525167902775 
-0.5526554862672641 
0.4368974559461888 
-0.1058750917145917 
2.323171743384512 
0.5300042514882062 
-0.4432265576311832 
-0.380943562530302 
0.7390772574481486 
0.5601117352918349 
-0.3222546826445414 
-1.147126940883774 
-0.8245347287750192 
-0.1078970668112639 
-0.2322867049845783 
-0.2657539902475184 
0.08672486688590336 
-0.4942567160278924 
0.2409311823187378 
0.4861382708590122 
0.1745850231101204 
0.5322959736953693 
1.943690858329242 
-1.244988670332514 
-0.4793084391717432 
-1.755895176680569 
0.4589698482222972 
1.452145393609623 
-1.448360503020798 
0.1644061271843868 
0.2743126101260404 
-0.2184341858553205 
-0.4161796450423612 
2.75622042469797 
-0.3670182370530471 
0.2282331611499804 
-0.5229489164707364 
-0.2515050489661209 
-0.1436751273212986 
-0.299140699478974 
-0.5160010811769066 
-2.779286078492227 
-0.2200927651631671 
-0.2790335439497606 
-0.2653421117891077 
-0.1993151882590955 
0.6273604587906441 
0.8112158646179488 
-2.085029867971574 
-0.06170031848297201 
0.1510661625178687 
-1.07148726165083 
-0.3585339568187871 
-0.00628291182667679 
-0.06795017506657478 
-1.539737785603941 
-0.07612502423244712 
0.9585975876493545 
-0.1499924826423133 
-0.2227210081731406 
-0.6074199265992479 
1.278710924603808 
0.008787576615486136 
1.771768867413646 
-0.2130639593402576 
-0.1674336141921263 
-0.06658143331589003 
-0.5015624317447002 
-0.05247311136761866 
-0.1912316535659598 
-0.5475649646775942 
-0.1491522081405357 
-2.557218758842633 
0.8073287233360716 
-0.03019196560639661 
0.3969819689449525 
-0.9460726709094709 
-0.2907183698279385 
0.50579764231604 
-0.2870985233201018 
-0.434050302237711 
0.3099722162560801 
-0.7694238428609759 
0.322591618126726 
0.3436904856397933 
0.03532076297199933 
-1.111791730034457 
-0.6297508836953024 
-1.141874412962558 
-0.8789832294345054 
-0.8025087477573163 
0.1957097509862913 
0.4243418457335845 
-0.6525359177965135 
0.002578180130813166 
0.1514616160875672 
0.5335368862317138 
1.406498843114238 
-0.1857831313825911 
-0.4180812542977564 
1.107572187126342 
0.3017585767385485 
-0.93552183937453 
-1.028413496072503 
-0.4090350212188817 
-0.304175853243748 
0.9695262954097007 
0.2052497621047371 
-0.08296668417687343 
-0.2633910008548486 
-0.1485663552812011 
1.109935883053161 
0.04768995017473643 
0.4880454884095995 
-0.3571027300567603 
-1.142376898154738 
-0.3690909644178477 
-0.632754608678191 
-1.141028697225739 
0.3015476155937573 
-0.6268901617803746 
-1.217757764768556 
-0.4052970275946566 
0.6662595579774822 
-0.3212014473147182 
-0.7601602768960269 
-0.4840979046058015 
-0.2104296409319629 
0.06363756956028831 
0.2339356664519117 
-0.3822334432880091 
0.9213602489267492 
0.1543498322170357 
-0.1953649394269167 
-0.5280545731484443 
0.7404965409081146 
-0.4260992109546771 
-0.5875220565092567 
0.1486971040369421 
2.403511680310601 
0.1790867765370339 
0.6344101022998185 
-0.135478157732525 
0.1562688596630783 
0.03808033662212613 
-0.4465231084034381 
-0.1988508555692526 
-0.03235261026843616 
-1.164387033119401 
0.6959527559284563 
-0.3403135446388576 
0.008914923770432497 
0.2869998085577619 
0.03904159313176189 
-0.3125941689081926 
-0.4361366950504426 
2.039424659626567 
-0.2688115907205422 
-0.3997889141641534 
-1.04508607904337 
-0.1196762058880309 
0.1971390331989873 
-1.110098235208115 
0.234447559205834 
0.08463715144223996 
0.0120778308744348 
-0.2715226717879206 
1.281531964423797 
0.2845654416338912 
0.9815418980182993 
-0.07635429123939515 
0.9426820851571427 
1.809647954617479 
-0.5109602460236282 
0.2810294811374671 
-0.2712214055194419 
-0.03395716459454643 
0.9981304413536998 
0.102159225610483 
0.2568424145230112 
-1.267804645164704 
-0.1423169995980523 
-0.135702355434131 
0.4818659912450296 
0.9981016670782427 
-0.5334290760867858 
0.0806868118993094 
-1.327644581994914 
-0.9085167011873855 
-0.05405265715946102 
0.4545206765847947 
0.3169589850420566 
-0.1312733795339798 
0.7839598708286759 
-0.3136010795236165 
0.5533255275751661 
0.4357569286313562 
-0.07647374873077165 
-0.4318348590759647 
-1.15386747775398 
0.0262439824664358 
-1.947825073606776 
-0.3126903164612099 
-0.05140060275191299 
2.093305955982535 
0.6022405156191409 
0.1823036163558014 
-0.3355041432723611 
0.1568446851758543 
-0.6577343670480644 
0.1974537785205041 
0.4999106735204493 
-0.1979090789958027 
-0.1112892273086682 
0.5896091274761605 
0.2165838269645227 
1.811644649158694 
-0.05365029627859953 
-0.1667625444982637 
-0.3422237264340599 
0.3768009106525512 
0.07503404126773214 
-1.565301548893673 
0.9601240551146933 
0.2550910938181428 
0.3521737232347601 
1.267831075890164 
0.007438391573284207 
-0.09038774991189759 
0.1440818583970807 
-0.5491777275612661 
1.000818695260552 
-0.4011354975419012 
1.309061644346219 
-0.3034064048455943 
-0.2168676414421649 
-0.1429685736286344 
0.2773252229135191 
0.9573525740979308 
-2.256849057188004 
-0.5617324863603752 
-0.1979325343077513 
-0.05643761991294368 
0.9736745368982866 
0.2112691354725625 
-0.5338138768993621 
0.7137669875549935 
-1.375176100695123 
1.089454387578937 
-0.2897252332789502 
-0.1009080187382247 
-1.102153518371273 
-0.5126128708640681 
-0.3142498627841937 
-0.08801573986036536 
0.3469158018098124 
-0.7718757349913677 
0.6101383356904561 
-0.5846007412898069 
-0.3704268615064127 
-0.6242343611470703 
-0.1615461612929024 
-0.3716519281411138 
0.3067696721983803 
1.534957637400676 
-1.435413563278984 
-0.1938830052928286 
0.2006778631128288 
0.5662432398948299 
1.527526891575594 
0.2919704379839381 
-0.3256455430206727 
-0.3602986339310508 
0.1815380880514247 
0.3673351425238083 
-0.2630306252628839 
0.01073285912238487 
0.008216133345258449 
0.007615629686132166 
0.476434066905681 
-0.1175699757423366 
-0.4601189332414927 
0.4298456314679542 
-0.1132733965666203 
-1.468354081387191 
0.1343346422384143 
1.06319939952788 
-0.1357976247364459 
0.4413661585340299 
0.1583854776635609 
-1.756295975332707 
-0.3440629859754488 
-0.6451269032069255 
3.116094508562641 
-0.4743318486016391 
1.768569822803489 
-0.31536363508753 
0.4268728947745705 
0.05948584666853172 
-0.1240260428485496 
-1.280707165677538 
0.7563019990638359 
-0.6724580694286469 
-0.9663549139902017 
0.4175063826523046 
1.079388454327258 
-0.8042789005817212 
-0.1988666974019659 
0.3205728497799246 
-1.560140601095357 
0.8470563691129313 
0.3590175073729084 
0.03274551981148877 
0.4817283984082463 
-0.1754269479682883 
-0.3072622967726005 
-0.4317551366896951 
-2.335289694530455 
-0.4413844046558726 
-1.503600407772872 
1.90082819536951 
0.07652637617771986 
-0.1229738366663712 
1.29699151266373 
-1.065240514884762 
-0.07807854566180907 
-2.51329767858879 
0.09296034813575033 
-0.2139156792253389 
-0.5159565040198959 
-0.1603953660137403 
0.3150686825149313 
0.3485290124449505 
0.4073584471143927 
-0.6829414654759518 
-0.04348142961101379 
-0.05150417823018408 
0.260590519058616 
1.449391792499573 
-0.1369050859726488 
-0.1282272669058827 
0.4513497908974033 
0.1895307507002757 
-0.002356686111237216 
-0.8600327360731493 
-0.2650236872093985 
-0.9285702293752006 
0.3770178939453677 
1.258906990193074 
-0.02311135106320348 
0.9084478570114148 
0.1939585473142728 
0.1353988048240911 
-0.6669834963727214 
1.579897455665485 
-1.555682808483307 
-1.267613482964016 
0.1831153107581953 
-1.849789134111871 
-0.1521913937041842 
0.3579339981641102 
-0.3446350699690625 
-0.4885268137021228 
-0.447836633218591 
0.01120257926929193 
1.125895899161627 
-0.8352181010154586 
0.3532947238897702 
1.586301931465408 
0.4221123367207232 
0.2073786361502586 
-0.2506859550155854 
1.021155832917555 
-0.1306051968683053 
-0.3310333527845034 
-0.6298039848001354 
-1.671788139151932 
-0.5111354535181453 
0.0459074048443804 
0.6343323505589489 
-0.09350838155700238 
-0.5290256892497727 
0.9440969930169696 
-0.7762566751432074 
-0.03228919601509513 
-0.1903157278198595 
2.396039245325849 
0.04488952627845084 
-0.9473663120616829 
-0.08946551540150656 
2.845369865976915 
0.6296633448941065 
0.4272345134214371 
0.1486204537289493 
-0.1494457792620633 
-0.7996325430208495 
0.6237417788454958 
-0.2354252701261649 
2.111549065061285 
2.147616678402316 
-0.07336210176048336 
-2.451748191919273 
0.1738848624268267 
-0.6710903710297925 
1.105693621695273 
0.1002805395547439 
-0.4214187343433837 
1.082233332261432 
-0.1454645488886855 
0.5250088873237293 
-0.3057508841176023 
0.06120221263114652 
-0.2366162908866706 
-0.5150065804238337 
-0.3226850793651064 
0.05213240788626942 
0.2541050741817904 
0.2329938232576562 
-0.9187771091172835 
0.6550829636338813 
0.2248438644734042 
0.07297734647524588 
-0.5466469787708451 
0.4437624398483599 
0.2237725720364207 
1.144175912545831 
0.2649862950410689 
-0.129769378068513 
0.2024710510700746 
-0.35192336452849 
-0.1963700646964873 
-0.4146818394523745 
0.4479742235436106 
-0.4426527987153375 
0.8957887029608893 
0.8140950151101141 
-0.1338971407793677 
-0.2965725660509402 
1.466170427801134 
-1.049966150362259 
0.1349208149046315 
-1.198355055535467 
2.758350257440649 
-0.6883356812680251 
-0.462590895135313 
0.3244566642038223 
-0.1201849371852019 
0.4466967568069328 
0.4404056890147354 
0.3552807230855113 
0.3237422416760395 
-1.041556632829219 
-0.402555705606923 
-0.8246889635485818 
0.5235665002003115 
-0.1273662668983697 
0.02272781351909739 
-0.3112220236076317 
0.2689644029405641 
0.6786118933242936 
-0.7371268601010283 
-0.8143497112723135 
1.855440452261441 
-0.2283778942323026 
2.476541856384525 
-0.181593917712313 
-0.109814769823009 
0.3081387414438336 
-0.465689025848825 
-0.0330796843265334 
0.5436876902256037 
0.6310058112083068 
-0.2972560899512843 
-0.9616591400613913 
0.06358162308553947 
1.578776158078142 
-0.149970059723088 
1.06444372063456 
0.04757396184080598 
-0.3390891337335646 
-0.1167290212175737 
0.002359927969480829 
1.827758104968809 
-0.07242709807314091 
-0.578671752638649 
-1.608975503661594 
0.5245214777546516 
-0.6081574313676649 
0.8663422694976479 
-0.3147640274274242 
-0.3204879067702712 
2.409171718782664 
0.3527277639119326 
-0.09692497263728025 
0.2332949452993679 
0.499890554080391 
2.136002011347648 
-0.7399201057183805 
-0.1442883012448897 
0.03207871609998098 
-0.1123896719269511 
0.07280226293613161 
1.459116596624642 
-0.1662178367608319 
1.175288921257784 
0.7794201581956541 
-0.599918266431409 
-0.1253061179196127 
1.100995669454757 
-0.1640776022531875 
-0.2045634245713639 
0.2133327368781319 
-0.3493733185962572 
0.4256876060984702 
0.7447824880401568 
0.1448602484807853 
1.284058634739268 
-0.2131121660449398 
0.5480399318848274 
-0.02655784448671348 
-0.04353303781323344 
0.4418268860325979 
-0.9169922269557778 
-2.124037788922937 
0.2901401283344612 
1.192454289846238 
0.1969660604073654 
-0.1611492320323711 
0.1104449637045521 
2.894116548448113 
-1.009783708523931 
0.2261606085468473 
-0.2443602549189943 
0.8686331117467772 
1.681634993923576 
-0.3057098408500926 
0.2796005361553688 
-0.1459169272399427 
0.1639952915012554 
-0.3298068129810529 
0.2768456269465943 
0.1980004183034131 
-0.08939862960572843 
0.7506656008729081 
0.8384199173747762 
1.745873224210003 
-0.4897660408320792 
0.7899373218811627 
-0.05639995471262615 
-0.3108142889957232 
-0.7366076001346 
-0.2667863528321485 
-0.2516857146727485 
-0.474905391124288 
1.239016534542074 
-0.1482083523392249 
0.2499885342430361 
-0.1263286665183553 
0.9440995861841385 
-0.03331092129115717 
0.2959786439638147 
-0.03540775434667435 
0.2399902784335263 
-0.2974352587961118 
0.3467728224978515 
-0.04868881910194909 
-0.146421563070181 
-0.5106730731849873 
-0.1003846647097606 
0.05374980220496847 
1.269486303269964 
0.4692129514751021 
-0.3028547931842576 
-0.7513301766978255 
0.3493870727077846 
0.0727444092947985 
-0.4560710232624698 
-0.01218341839981096 
-0.2727906736844759 
1.121197494461934 
-1.125613407103425 
-1.036476965993539 
-0.2390385635265069 
-0.05526412461154933 
-0.304887137685719 
-0.05198065032587459 
-0.2657570422797758 
1.508506825773978 
-0.9966444741547961 
-0.08536188558823998 
-0.04796960109068821 
-0.3709853042637659 
-0.3545690948898201 
-0.2143435351421799 
0.1070299275375839 
0.1542342930578816 
-0.04708050284613769 
0.5460203271021081 
0.7693300402340653 
0.1014873379941668 
-0.0264135546826141 
-0.0715374502340264 
-0.2652773178344791 
0.7464531520022376 
-0.3267327005825709 
0.6090700276734674 
-0.9626697849490167 
-0.2581892222212989 
-0.165050696729131 
-1.313973289204954 
-0.3450612017911696 
0.07855088351553415 
-0.3156791442955598 
0.3701395830335059 
0.5279664656226564 
-0.1105164363785027 
-0.1583922856204694 
-0.1987645190761409 
-0.234841714851902 
0.1128328225148965 
-0.1373446335005215 
-0.4136544778446349 
1.934053367438577 
1.349659751806991 
0.5623975713530168 
1.399670978364632 
-0.1570953325932507 
0.4674739009588876 
-1.823071209143425 
0.09337705999533126 
-0.5282071504036809 
-0.5800538454954736 
-0.1497998513976176 
0.5017744411720492 
0.1942586718664358 
0.3613503548595317 
-0.4743723665254116 
0.02292505877921616 
-0.4358551315541281 
0.5503636842564748 
-1.010978932551863 
-1.042201774520381 
0.7361396862195637 
-0.7281831867095812 
0.1876352549272189 
-0.2121693756353035 
-0.2568709535592852 
-0.7398235371289208 
0.7856528867290979 
-0.4926043219773818 
-0.222425128635414 
0.6900470458976403 
-0.9500102070121221 
1.123517269677428 
1.222495395803612 
-1.052871588479874 
-0.4889000408871068 
0.721214400852826 
0.29703362139615 
-0.3664105136524685 
0.2495095069572324 
0.07225868444734655 
0.9730775121372122 
0.1920750559608559 
-0.2291822807196301 
0.1281197771615661 
-0.2002283356372529 
-0.590264543354397 
-0.6889306386610667 
1.773819934606069 
0.0397881733212282 
1.440134361520433 
0.1972188906224728 
0.2034149755274308 
0.2679861942982119 
-0.4349391676384085 
-0.1275935813911798 
-0.854879688135893 
1.319913443398868 
-0.8799676565459975 
0.6625780366801439 
-0.3392663947074364 
-0.1824192708567782 
-0.1921907000812503 
1.143926579404686 
-0.1920574574100226 
0.04156071049734684 
-0.5172214259757596 
-1.110305157005758 
-1.755883306433764 
0.1387899119611741 
0.3570545871022837 
-0.1629788854790934 
0.4403385926750546 
-0.08187553206454057 
0.2049799083372005 
1.381882226725627 
-0.02276697669513197 
-0.4468505628473176 
0.1885979593736767 
0.1191586830659113 
2.374996122026547 
-0.02432032406127177 
1.215123257963874 
0.02691077924839128 
1.488660416360576 
-0.09224604829743326 
-0.2534903381038472 
1.717872217560497 
0.8471429164282607 
0.4880026714859155 
-0.5604058312192066 
0.510655792577373 
-0.6151671288220273 
-0.5124163494783951 
0.2689889709617659 
-0.1159793705739189 
-0.1273554802426091 
-1.177624094336911 
-0.8551568298945881 
0.07915208645929941 
-0.6531378626865507 
0.4707029724390872 
-1.507969319200044 
-0.198734911578742 
-0.7832683083259638 
0.4674055375593689 
-0.5713838331614165 
-0.745160737812729 
-0.2170839727341649 
0.9724015216276585 
0.2400708612645009 
1.394916405707836 
0.1844582066082746 
1.201855398440556 
-0.586700462656106 
-0.1953731622346715 
0.8563752053868543 
-0.2337784844694304 
0.03446386154747588 
0.890741241688295 
1.609170528408624 
0.04336388960587273 
0.9968072012478423 
1.546233625718519 
-0.4906311562105404 
1.578274934264064 
-0.4325557316608473 
0.1535799773040368 
-0.3243599290192946 
-0.2313021292946713 
-0.01071692388049904 
-0.2123595740876264 
-0.2528802258994321 
-0.3559881457578533 
1.075506893787522 
-0.1079131046378022 
0.5870798061600894 
-0.01467256276490033 
-0.5337388406296883 
1.296916747613336 
-0.1061233569972939 
0.5258371131041117 
-0.2061258244602652 
-0.05202214164565644 
1.175738755200718 
-0.7024778410889667 
0.6030998198457792 
-1.028872337141939 
0.1551198676720439 
-0.739362883140612 
-0.02404052627028721 
0.1234862599581024 
0.2768822522812156 
2.802969204767096 
-0.0724928598752799 
0.1074836016977923 
-0.1636659888302274 
0.6291609797455046 
-0.1109694547330466 
-0.4588367514451045 
-0.2320101986288338 
-0.3388850886243875 
-1.226509055287705 
0.4611428038160274 
-0.4081060888405961 
0.4680551448201394 
-0.05899511382291505 
-0.1763039507117372 
-0.0004498831982597351 
-0.06626619411728969 
0.1413191958577225 
0.2454221413015873 
0.7636757535280041 
0.0704104882375957 
-2.066269287117122 
0.1390552935153336 
0.1145237836208803 
-0.6824777494453741 
-2.328890325944369 
0.3533541241933672 
0.2432737280658205 
-1.298032924016048 
-0.0502297631431454 
1.364324987123708 
0.9149420017960134 
-0.1063295802415447 
1.044631486152386 
-0.07089809321813118 
0.07160348454082804 
-0.04213317539909137 
2.062642458829507 
-0.6520917720069455 
-0.04042428811379315 
0.9184021468678787 
-0.5117111535450715 
-0.04051119765007249 
0.08338994088254742 
1.621958875253448 
0.1169411659811509 
-0.0414005681862301 
1.186550860758526 
1.550748431523403 
-1.46989719556127 
0.1342688202966664 
-0.3248957485512629 
0.667425461545734 
0.37536214469146 
-0.4594512041963522 
0.8920612921527391 
0.7857648703335998 
1.102087639066241 
0.3510749710338666 
-0.1731754814896247 
-0.2897639568395921 
0.4278124462689335 
0.6408912560420713 
-1.112002096982428 
0.2347866878423682 
-0.5420024281098554 
0.3107068820667327 
0.03095130184219889 
-0.01880390504629134 
0.08070764803527361 
0.07999600585771033 
-0.180305445554099 
-0.0726871258752754 
-0.03570546782925148 
0.2957979026506001 
0.06926282384421641 
-0.7991750987403917 
1.066052931492971 
0.6907103900115887 
0.3406860114812809 
-1.399842287256343 
0.05476493314352165 
-0.1900161642158443 
0.1302110260235936 
0.2613124462015844 
0.02638098124062726 
0.3752115834493958 
-0.560209660134091 
0.1635283355985879 
-0.1378745588767367 
0.2061401455844079 
-0.7210555327089063 
2.949394489797093 
-0.0719101011652693 
-0.1866530321522166 
0.3959966545422745 
-1.375815796397108 
0.4515041384745775 
0.05574123629247021 
-0.1590786260766743 
-0.3389506952698227 
-0.1247859816499715 
-0.165220214488527 
0.2214227760411289 
-0.8811925256079322 
0.1535076065980104 
-0.8848141028205746 
1.225818339743081 
0.4103578577876655 
-0.5932231342800344 
1.339386594466921 
-0.2512877542878562 
-0.6648641941109087 
0.1805759522750266 
0.02892066408299815 
-0.2127800862778017 
-0.3969023515478516 
-0.1580754801819377 
-0.01959973948570581 
0.2543472690689191 
0.2386828913935418 
0.4365108989695641 
0.005450854992619175 
0.09172422799651904 
0.3449165831293707 
0.03190199267693094 
-0.8842166475434027 
-0.03561455390373173 
-0.7156456702329068 
0.03418501866809909 
-0.1461956809264313 
-0.07696649814969873 
0.5808118722111463 
0.02022263990030587 
0.03804346014847967 
1.158453586265927 
2.317503993867507 
-0.08596005027472688 
0.8284081943280366 
-0.3298034825685389 
-0.07566613098159915 
1.173632289469055 
2.615268985827716 
-0.1634567787000445 
0.183177458520037 
-0.1275941500795114 
-0.2344019535560233 
0.353515156833211 
-0.1549145897507888 
2.058583838617194 
0.2527351832039607 
1.179008914382297 
0.01672613015813272 
1.014662636034192 
-0.2078295096582943 
0.0307292895652861 
0.2134388852812478 
0.991720003402862 
-0.03256624023645208 
1.118728805233256 
-0.3110773562845942 
-0.4704541113482485 
-0.481704628687418 
-0.1115897446436332 
-1.296652222663186 
0.02981573965439595 
-0.3331252107848782 
1.105541030649361 
-0.2215205624648681 
-0.0474892998116025 
-1.103822997862676 
0.9817840670611552 
-2.274653903527505 
-0.2659208660980376 
-0.774029417250594 
-0.6642904037664293 
0.4097277556380806 
-1.068335829814494 
1.349943840609178 
-0.749353004760264 
-0.3144660221295055 
0.2429810697215649 
0.09460506749842047 
1.069234021946257 
-0.6097542498290681 
0.6730080875063182 
0.9844084594593462 
0.4359839921719932 
-0.2132717138567112 
-0.07452724847130457 
-0.204710262044592 
1.300101519332093 
0.09305194001530807 
0.6380227665615057 
1.08135422610277 
0.07137743505221328 
0.2752917751301102 
-0.3676968334160242 
-0.1446402149710032 
-1.054266874544276 
1.703604577451724 
-0.642845793633707 
-0.5827648141806064 
0.3646870754478069 
-0.1729056926994613 
2.272974701072697 
0.812471781305387 
-1.153993754615082 
0.6872838377105996 
-0.3518397965607667 
-0.2637043810612042 
0.2178902567790276 
-0.1225921096887202 
0.1613030903780036 
-0.1823259459375945 
-0.1486506312080063 
-0.6284567515904096 
0.2401138738899782 
-0.6565262440035545 
0.1030083684693267 
0.1010452436367148 
0.8672412616688886 
0.4178561430767185 
-0.2277407243004112 
-0.3742921024915856 
-0.3679799767040009 
-0.5346116729965038 
-0.6788491436458398 
-0.08384456376927338 
-0.170765112375932 
-0.1368564303525745 
0.5550819587721284 
0.1551641583774719 
0.2445980594452094 
0.4990012108230174 
-0.05030082503243144 
-0.6535879985510249 
-0.01720502974981114 
0.1101658872270475 
0.604919709953583 
0.7059166212967853 
0.7435384541822836 
0.1469385710507764 
0.04932909156288896 
0.6290009898919934 
0.3301500193611192 
0.4733952232805453 
-0.07025777206466395 
-0.01768294599616939 
-0.0222540292343193 
-1.136506203093269 
0.7810316840814351 
0.2252256667601431 
-0.295851007840185 
0.8770173203554041 
-0.1927993744362243 
-0.5244779173386686 
-0.362109105860254 
1.781960728887209 
-0.764816342558825 
-0.02604841066981025 
0.6759584066605556 
-0.1617714106340384 
-0.005688607013155489 
0.1298115219637474 
-0.07388578802873132 
0.3072390319310362 
0.8827763725048644 
-0.0619239177485723 
0.1884795243737573 
-0.3080370597632241 
-0.9284271148137316 
0.2952748087897549 
-1.88520158182476 
-0.4593908044899641 
0.182741974925465 
0.3901649696951234 
-0.03770693407183409 
-0.1000315931772494 
-0.1154930948808895 
0.1073566711177658 
1.059999079029825 
-0.1812811132038061 
-0.8413035773474494 
-0.2455633147136766 
0.615993612164379 
-0.2314880572599845 
-0.3290579260915976 
-0.1368495388785296 
-0.04764171125483327 
0.3056707586695452 
-0.697483578407819 
-0.3041281535770488 
-1.751367844761124 
0.2493513156717277 
0.8967926840402762 
-0.01202822995550028 
-1.348570238525677 
0.80960590329126 
-0.04171018031076301 
-0.2496621202958191 
0.2609147711804502 
-0.4600393140486971 
-0.8787423251698729 
0.06950199877591082 
0.007134338083069789 
-0.1229241735426962 
-0.07876875131916997 
0.8286668977199123 
0.8414968007451562 
-0.2046776439016403 
-0.0664438466764764 
-0.02148619897466029 
1.145795517933168 
-0.1471762025873691 
-0.428224581612416 
0.5510697910763985 
-0.8266274734126098 
-0.8619420125312565 
0.1353066452551843 
0.5233851950049935 
-0.1907737555255357 
-1.284512004458269 
2.658022518779318 
-0.1075658623487823 
-0.2885683269808192 
0.4242840280234786 
0.9781524942046469 
0.8675735198504235 
-0.0373471521880616 
1.366175278857467 
0.01094901565579721 
-0.1105158669951585 
0.9162920830198724 
-0.6110340819972145 
-1.683193454339332 
0.1561783950148271 
-1.305008316592288 
0.1929074845734654 
0.05639708519867048 
0.03325256452334887 
-0.02308198294315675 
-0.1546088390313562 
-0.2177847952589692 
-0.7945015660306471 
0.2443503984620316 
0.7124728990843322 
-0.1478122820281559 
-1.366202670616532 
0.689381834083205 
-0.7414183285582104 
-0.1490563961600638 
0.5256301457079475 
-0.1363433801162716 
-1.715255592852367 
-0.7025234011513702 
-0.6151442489003186 
0.7677867292999453 
-0.0937716022537383 
0.21779597557608 
0.3879654032337895 
1.182176966753046 
-1.0068264404325 
-0.1414301619416892 
0.382956945818914 
1.853977993775148 
0.2129435959520674 
-0.05190032017881721 
-0.189345292750498 
0.03413800890724419 
-0.7768558287725876 
-0.1568990176029612 
-1.775383776462427 
-0.262441919487654 
0.3034734155548526 
-1.429704939875227 
-0.06835636315946195 
0.472676184751435 
0.7295983361000812 
0.03522222707952627 
-0.1809863488365562 
0.2661269377595856 
-0.1330030541119737 
-0.2128899658638417 
-0.8285445583356976 
-1.180187953669789 
0.1171747403453978 
-0.04061133685430673 
0.6781044390880495 
1.258184728977551 
1.09910907524486 
1.845674875378157 
-0.4243796963649749 
-0.007661935306356591 
0.8082097154614821 
0.3789096719232229 
0.49946235903636 
-0.9346910767314728 
0.3508611678298032 
0.6111189537534228 
-0.1810197648469878 
0.4396370493959258 
-0.05354213082706534 
1.9980099121561 
2.912086218623218 
-1.010516054567512 
-0.1713061924676478 
0.5217275544924279 
-0.5739347782701379 
0.6073593616081151 
0.3813588632429674 
1.236759040581969 
0.270976286334042 
-0.267480011516655 
0.4167209353040395 
-0.03034554996417931 
0.007632381193696993 
-0.1394525718385225 
0.04876264627328822 
0.1395469463059851 
-0.04075603383556527 
1.866273293275014 
-0.02949886447517611 
-0.1854176722237317 
-0.2695982945112984 
-0.1555819097559135 
0.004055352942101726 
-0.09600027332987519 
0.7606797964126826 
0.115846455749447 
-1.509064019464793 
-0.6840577375313113 
-0.02830304476992984 
-0.8495542127891532 
0.01774465030698316 
0.1247592876288956 
0.466052619435423 
-0.09323282271068878 
-0.1711368332317088 
0.1816285493948859 
0.7407722132125056 
0.6920826595705259 
1.666099563699988 
-1.086513724246993 
-0.06669203398084009 
0.6801942960368365 
0.3905133288174803 
0.5955128961626814 
-0.4554993416645724 
0.8032410543701919 
0.18334540940622 
0.6650264273776065 
1.93506814169184 
-0.03146588770729779 
0.8208510124005939 
-0.6973473818712819 
-0.1834201141128744 
-0.9889057903547315 
-0.02984534200515154 
0.555412495326895 
0.1256328982149701 
0.1521312429656221 
1.245765723408908 
-0.1345584530701836 
-0.2785620651207235 
0.4049009408311636 
0.5562385471660977 
-0.08173244875159401 
-0.1561357521420926 
0.05809359445294254 
0.03421442599771762 
-0.08520973347678917 
-0.9482247679352115 
1.831628331804751 
-0.1132669341882842 
0.07680576848205889 
-0.4157513697297774 
-0.3730555022343897 
-0.06772375708419377 
0.0318361462747257 
0.1213444249323922 
-0.02816358329592211 
-0.1435398483255663 
-0.1618726270923728 
-0.259038104000287 
1.282045248412152 
0.1229715400183651 
-0.08480173931119038 
-0.06790649453383324 
-1.239344045431932 
-0.01261763458463538 
0.4932698581033364 
0.1364892452592658 
0.4221992552435457 
-0.05727077308486851 
1.045672603084694 
0.2000692068315368 
-0.6844029011399667 
-0.1390925964510412 
0.09619522601185598 
-0.7008724836030101 
-0.2726336052525686 
0.1088358740591725 
-0.3427157339665969 
1.225232088712945 
-0.6634376393432491 
0.5321572555317231 
0.01679759173011916 
-0.07719552587824935 
-0.9761763911984481 
0.4258785391104284 
-0.08047436701047976 
0.1100877612320555 
0.2158454995192531 
0.169193256015326 
-0.1317511423556487 
0.08883757701161532 
-0.03130652072616945 
0.4745600082211011 
-0.04941823238615076 
-0.04962777461184724 
0.919401479591437 
0.002149124535007536 
0.1358375244142284 
0.3366535458258093 
1.193246837639107 
0.3012491253346068 
-0.4395223808085086 
0.7604720845432202 
-0.1640474781040066 
-0.1808560523632322 
0.2823675239194833 
-0.09385825187579357 
-0.07705910746376096 
0.2744971714364744 
0.5439209900649 
0.5902486334334872 
-0.06787237026532991 
-0.5059525606111409 
0.244680945131257 
-0.2582801914743459 
0.0371671336970992 
-0.4740156590253398 
-0.2461902127818706 
0.2029481327132711 
0.1052617798979492 
-1.645621928937602 
0.08708996944780084 
-0.2855131535130626 
0.3222678142732443 
0.3919620619734547 
-0.5781317373939734 
-0.8086370679119926 
0.9262265969826886 
0.02613959964568384 
-0.6759807900834287 
0.03162400007830855 
0.9347856645706616 
-0.239028312263641 
-0.08595063822575627 
-0.4489548830750997 
-0.5578196235735687 
0.3386134763716184 
0.02895422749591279 
-0.8306786675514605 
0.2129554020054913 
-0.4806272352006347 
0.7805035189169224 
0.120476132394971 
-1.255428650390759 
-0.7353121828690292 
0.09938032412266889 
-0.06094143239322077 
-0.09475608894779225 
0.1955136285402694 
-0.1016411550678535 
-0.2270457021129189 
-0.06768321464495623 
0.1718293378301866 
-0.219888354788083 
0.1799012146730464 
0.3629872738668187 
1.473328411148516 
0.1298069924671057 
0.2888893802079004 
-0.1240233152717386 
0.5834143131661392 
0.006176751272532994 
-1.281308784639086 
-0.413644309202129 
-0.1437238562655157 
1.19769824386264 
-0.06478308867118308 
-0.2192849509023568 
0.1257431208865809 
-0.02674243947147254 
-0.02235513264506689 
0.1108069440537671 
0.4217407796735828 
1.158180111741615 
-0.27114946964559 
0.3136930319679579 
0.3838925187205171 
0.7251224559428505 
-0.1167770482868268 
-0.07382642027612621 
0.4612263460125912 
-0.119287993031255 
-0.2328386764446747 
-0.2954688018252836 
-0.02556001943971345 
-0.0462867783616788 
1.102546554237026 
-0.07545199584237838 
0.02044945924879585 
0.1477985050089539 
0.4428017272423539 
-0.1439627291180107 
1.818251966005195 
-0.2923137343208356 
0.8545763504740439 
0.3528519692576456 
-1.150343930088593 
-0.06389481370373262 
-0.08363898029264251 
-0.02099163015672842 
0.4198628845867374 
-0.04773706323831832 
-0.5600897408757108 
-0.2152587150797714 
1.225410563632919 
-0.0942353253166843 
-0.4496657703124073 
-0.1261289050001518 
0.8295981021562344 
0.06306228088827595 
0.151784245328031 
-1.459913458527485 
0.3439190666952517 
0.404382111364574 
-0.2498824541039767 
0.05844792540544667 
-0.698501340912375 
-0.2488085436466061 
-2.36835127020308 
0.4411142208350649 
0.3317340408204297 
0.07431183336109845 
1.261727460038543 
-0.6952420087874455 
-0.2639808866261059 
1.02942702941869 
0.2257966885560207 
0.6546198327083287 
-0.4003696411940871 
-0.06309419577213261 
-0.4629126854958879 
-2.370889098358707 
1.456048019532052 
0.153467967425835 
0.2470768936354029 
1.890621149839037 
-0.07667117581707167 
1.189316549600578 
1.254843612929759 
1.15918881787442 
0.0440938590856209 
0.08316821875151245 
0.7167178705281928 
0.5418698812478675 
-0.7319867677291635 
0.0311693323771616 
0.0229158798492175 
1.417132587534651 
-0.08107333875680775 
0.4694183757401739 
0.3034172998732438 
0.05212606628973442 
0.5658264707203674 
0.534981845787493 
0.05927641783989263 
0.3512667361887362 
-0.208571522154939 
0.03589527329817166 
-0.09314642378688713 
-0.549591918151808 
0.1306435132983755 
0.6175150905653369 
-0.0260665493107404 
-0.1672747421957317 
-0.3974335737858264 
1.199223484125276 
-0.2897477810835914 
0.4787293079160851 
-0.03210594068422966 
-0.05284218392645213 
-0.1064491998295896 
0.1595422201940382 
-0.9327145262115799 
-0.03086255730998228 
0.1301140218058158 
-1.778904059939465 
0.3464107374327803 
0.304157691445641 
-0.5708187767745408 
0.8500728158322111 
0.1027190552156471 
0.8799491034650623 
-0.7188453027437974 
-0.222684930991582 
-0.5438161301301448 
0.6215134534820316 
0.8875882106518497 
0.3546867032443167 
-0.05230850852853892 
-1.380432267288518 
-0.1354721122304225 
-0.02384108650402037 
-0.1475948670776741 
-0.4186332585429036 
0.1867859478907772 
0.1039322823070172 
-0.1858356711859492 
0.7260920314182638 
-0.1153311847718918 
-1.274062447397103 
-0.5717693310816764 
1.983341072749058 
0.7808244594976584 
0.5947876001852342 
-0.7484441001767169 
-0.4046390288480815 
0.4345972996526662 
0.8103128898437507 
0.2814235302047813 
0.3613175462538494 
0.1442252840044651 
0.2131796419285542 
0.9467982921485101 
0.04169922936409091 
0.8890850198951512 
-0.1170156066504794 
-0.001105491144725796 
0.5535422281650768 
0.4399715587048205 
-0.5155800873153068 
-0.247225183931359 
-0.04022499161335338 
0.1172346887717899 
0.2372762946058128 
-0.1729856455324113 
0.4949155156035277 
-0.5383943059184422 
-0.1854811087115545 
0.03068986812444272 
-0.4853991500094189 
-0.2482971872847113 
-0.03676818015355249 
0.4954921420181501 
-0.3965768909195143 
0.3222965697169593 
-0.6806647579948258 
-0.0200623430563372 
-0.5376793204401455 
-0.2453253182565121 
0.01472218879564497 
0.6421437415801526 
1.404956729795368 
0.203000725867206 
1.499044957319182 
1.119974780881154 
-0.05053972685974602 
0.2655084286269468 
-0.1962311590590238 
-0.3373234997065817 
2.015587017852252 
0.1477698561979918 
-0.2792003556871134 
-0.6333549711409405 
0.5386989913748645 
-0.008202309606445924 
-0.04628501602325494 
0.5794632347055373 
0.1838909888144106 
-0.1291264084112848 
-0.1600042031161937 
0.1577371082108548 
-0.1342944581787457 
0.09930594592161895 
-1.067140931440855 
0.3030916768594293 
-0.1101739863734403 
-0.08638891103122012 
-1.115083613966734 
0.2428271172798771 
0.5987916119325659 
0.04192201545967912 
1.002979334336275 
-0.8150775727720115 
-0.05285873675135956 
-0.3179027455864151 
-0.1998049255168777 
1.273922544047297 
0.4211021726731069 
-0.6654138771806321 
-0.006807582143081702 
2.171982173730436 
-0.009597501062618851 
-0.2228746686759877 
0.4815831337007597 
0.4502698661046558 
-1.739885746726217 
0.2592299389397583 
-0.6591339635453929 
0.2048147583726318 
-0.132763704468536 
0.6519948766752489 
0.003255356313973325 
0.08363081956341874 
1.297478696890043 
1.22391250850386 
0.03754351803055787 
-0.006579329341731779 
0.6647981328660352 
-0.001326652548845901 
0.0538428403831242 
-0.2967624534832524 
-0.4184031206625214 
-0.1051936809012364 
-0.04702502241352965 
-0.2448172438915613 
-0.007661238818592802 
-0.7188298995059229 
-0.2798789209521751 
0.7348838335270497 
0.8216419934743133 
-0.01550472517465528 
0.005161597116290288 
0.8174452709291425 
0.07450426463699755 
-0.09518519865469514 
-0.5196608474988033 
-0.148717234765673 
0.01306694871819418 
0.06552688376713969 
-0.7184745717124552 
-0.01013074266162173 
0.1196353341870521 
-0.02791493188566413 
0.004559017247486888 
-0.06063727637607173 
0.2443290573386071 
-1.06900480715831 
-0.3181109638045894 
-0.1163144147232662 
0.06503832461240812 
0.1890338771035318 
-0.6000583424653884 
0.1295017882471737 
-0.1271284936209959 
0.3532516558978014 
-0.04420583202400476 
0.4527009623003577 
-1.155560248759266 
0.2962544985103132 
-0.3521953233506679 
2.671864738620326 
-0.402957226393988 
-0.1698156267726122 
0.2708307495573969 
-0.1001587693320514 
-0.7345692231113097 
-1.334384677202967 
-0.1331722738792483 
0.535064813178119 
-0.03180670767022977 
-0.3823470444420183 
-0.2064666069189509 
0.8478465257028148 
0.4840605846008404 
0.4253046905774476 
-0.1818780332808154 
0.2634527076277136 
-0.05796881741463511 
0.5574759567721177 
0.005253216406399706 
0.06328436398336347 
0.3969328581735507 
-0.1904533552308233 
-0.3946258856128183 
-0.4020468230465503 
-0.5426792677810574 
-0.09104545334695414 
-0.07661556139439202 
-0.173325266364779 
1.01740642858994 
-0.02325319007579262 
-0.01731912821675972 
-0.0943172086479598 
-0.2690420792029642 
-0.08583873256849155 
-0.9250342412778066 
0.1847868255812039 
-0.08967475679586176 
0.1119354067753452 
-0.07355003598703438 
-0.04921582425883039 
-0.05897641486346065 
-0.03586758846737869 
0.7806789365929184 
0.01613262316866959 
-0.02994310813017908 
1.400725926185132 
-0.1689667965135701 
-0.3067414162060878 
-0.06896868275984339 
0.02936644271737955 
0.2716242067759212 
-0.7022444448428763 
0.3853379154788661 
-0.1357143541822031 
-0.442001307407954 
0.1380507839569848 
-0.4889952686586289 
0.5210698046547452 
0.3175509267990904 
-0.1486754350543945 
-0.8664867937896967 
0.2776468120700881 
0.4574089414425681 
0.7276652540755122 
0.7336430671688624 
-0.1922072132921158 
0.341277517614556 
1.086319142175226 
-0.1712447853006282 
-0.1526975298058659 
1.374482432450027 
-1.338386645795691 
0.5573275525552026 
-0.1933095351601933 
0.02775945747898333 
0.359793352410526 
1.565443771202775 
-0.4299370863048176 
0.2560095288391169 
0.1297090133203214 
0.2571027842773752 
-0.1738043704501698 
-0.2564838378423291 
0.356085884824187 
-0.658486106745132 
0.5703049428110367 
-0.1823370667269114 
0.7483459560716176 
0.12846583067791 
0.04977948321817621 
-0.5717569193609846 
-0.607098376558741 
-0.1736211690269852 
0.1129228737468619 
-0.5081695535308268 
-0.09314442649419426 
1.160579768696457 
-0.6227691433223137 
0.1741890031108222 
1.354448954681814 
0.1705235829225674 
0.2219900635951481 
-0.6105268038905352 
0.5743809575771271 
-0.0643328519030804 
-0.273394029734248 
-0.27182495103953 
0.1547911080818468 
-1.122785183328158 
-0.1911225407576584 
0.376124917854907 
-0.0699372454155068 
-0.1064353657507967 
-0.05920841539869502 
0.1412619708015198 
1.105833031712572 
0.9217132789623778 
0.1216810177013625 
0.01573897109228854 
-0.4836410456574161 
0.1117286930144963 
0.04945007487313403 
-0.9484816453989415 
-1.245249165612079 
-0.06068096464953296 
2.310735573079832 
0.2902648125120842 
-1.301810032168533 
0.04812765819671756 
-0.4014975529204002 
0.6879252344222949 
-0.2495646332683052 
-0.08080144440873434 
0.09026183489267588 
-0.3293677081687478 
-0.083815796550382 
1.374777522965923 
0.120004957417148 
-1.020910455028122 
-0.1768586117981349 
-0.07153780779887184 
0.6952250954586007 
-0.6236297361294895 
0.7383045968138898 
-0.5549796833992199 
0.3837113362300978 
0.4339343088338172 
-0.2916131863683273 
-0.05415974118060116 
-0.4537472710145792 
0.06916982365687797 
-0.06011398139295353 
-0.08793714829249213 
-0.2177542422237847 
0.9597438591099358 
0.4555627415735661 
-0.1776501632875034 
-0.52137171718583 
-0.4046170217019039 
1.590444473463185 
0.1077720541506841 
0.1345141764307378 
0.3971257205184386 
0.08188896775488864 
0.2599603080375373 
-0.02831199856639758 
-0.6451556726663231 
-0.09601512211899768 
-0.02433262944575267 
-0.3566294651906771 
-0.2569043858999375 
-0.06805385421952614 
-0.07201932247065281 
-0.3003758974432006 
-0.2829918595963167 
-1.04464470297879 
0.3877253577590345 
0.4526832558715477 
0.1840664252537134 
0.7240288911586037 
-1.015646154862001 
0.07998401197807402 
-0.1048557343916779 
-0.1646135763757924 
-0.3748526636040472 
-0.08255294138460915 
-0.4086418513721523 
1.1893362354639 
-0.6052683171448446 
-0.106479351732462 
-0.04221448644495944 
0.04022895125586705 
0.5626174870526794 
-0.1856473124658162 
0.004345694599814264 
1.611387287668543 
0.1435219512015688 
0.4649634690732193 
0.04614025326609961 
-0.03496394831484921 
0.1168418162567248 
0.1739733609667713 
0.001868668489082596 
0.6526389751715105 
-0.02719219659021568 
-0.1639315119844901 
0.01272802252730059 
0.2833395713343081 
0.1348899083744293 
-0.07391908883677016 
-0.1008057298350975 
1.01639751378569 
-0.03280283826003555 
0.1251905787184618 
-0.02946205330271493 
-0.3736325835236671 
0.0565577682716827 
-0.03227467516090924 
1.224266968861305 
-0.1270333640238124 
-0.06250113646000086 
-0.1682814683002055 
0.1557360465286126 
2.310445645763316 
-0.009133154269253312 
-0.1390904557129598 
0.4344258509252599 
-0.04788295221138265 
0.5719014237858001 
0.08161638933493462 
1.640942447568732 
-0.1258693366164902 
1.002535721099379 
-0.07297819206365806 
1.12870823477791 
0.3623623093983853 
0.2355542498240024 
-0.07990397796884666 
-1.203879145552715 
-0.1604166985725203 
-0.01856379893938368 
-0.9379529331687987 
0.2181724068231585 
0.3539808125939786 
0.2309494109052151 
-0.1521639017011649 
-1.797183280219959 
0.1110100638295657 
0.04230183046915053 
0.6262155111505344 
0.02960188298606379 
-0.661126851614981 
2.123633316358648 
-0.7472174293985128 
0.3038638641419162 
-0.05875112173486444 
0.970044686287773 
-0.1150777956484554 
-1.499553294595048 
0.4815969816183811 
-0.02475225517464637 
0.2323060248462188 
0.08456519521578279 
0.4694286536140642 
-0.01043225159184858 
0.5178007169136626 
-0.1029021132354078 
1.128292751241132 
-1.004559628193965 
-0.6131426254264568 
-0.7197213618325081 
0.03177093994902157 
-0.09993324461718345 
-0.1223454196369357 
0.8284110163116291 
-0.2548470170956417 
0.1402798854064237 
0.151106663386126 
0.4408521029150446 
-0.3057248002435691 
-1.36494385859361 
0.05070306673493819 
-0.5065260012808273 
-0.6151074340972488 
0.4491349739859856 
-0.5786696653663926 
0.8023011104799541 
-0.2325512400698059 
-0.8106632351396302 
0.7195029587304235 
-1.133478041958638 
-0.07223723086639974 
0.4273460221919368 
-0.2185094802113968 
0.007246355041171349 
0.06852655303605822 
-0.03894788889496176 
0.7358341213583511 
-0.1001496589606561 
0.4800683093357067 
-0.04175840069747951 
-0.02349675718447884 
0.1211186289743051 
-0.1293233849057675 
-0.5831926858323847 
-0.01759941236844619 
-0.4852076264349509 
0.7110478319649204 
0.2494784013464768 
0.3291184040911692 
-0.8257627291101602 
-0.2589807986887463 
0.1498928357957325 
0.138324898538337 
0.1587253597195265 
0.1325560748554488 
0.6847479934938209 
-0.4318966857919321 
0.2256973208280504 
1.550154357478156 
0.07747652976352699 
0.09993235381505636 
0.08601397046150824 
0.3540063204684906 
0.8444978212204681 
1.866642325459812 
0.7102789818433926 
0.468819009482743 
-0.03329488264234728 
0.1844740849382406 
-0.1030799054105784 
0.184068076709709 
0.5397544955264242 
0.004712126181978415 
-0.2636734010020053 
-0.08465918052264244 
2.116201828388999 
0.03791117064139158 
-0.4361053623025472 
-0.4581736778037844 
-0.06660005779016136 
-0.5072046793451891 
0.2575413083052486 
-0.4431719369578747 
-0.7853161926867523 
0.1724187663151918 
-1.57754076329035 
0.2993076122332456 
-0.09239831246950532 
0.2574075005193845 
0.6727471081634424 
-0.09488498275866793 
-0.9141056493826872 
0.5596720576451047 
-0.7883506442087647 
0.04723807935245213 
0.1007401183199247 
-0.942660602971909 
0.07558614171058738 
-0.01588697239774173 
-0.2903845836208537 
-2.187338678344494 
-0.4482198923899112 
-0.2744187794773092 
-0.03053663895995663 
1.140507397349322 
0.604899537995233 
0.1436879169270048 
0.4130540619937708 
0.3780164649419392 
-0.1014887711286525 
1.713044357660614 
-0.1484911290699351 
0.5326557209049199 
2.364423865115949 
-1.184133418479016 
-0.8714940694733271 
-0.02119038961137173 
-0.4721204174133979 
0.4188576290305999 
0.1252406419046886 
0.7943009323405446 
-0.2590873293512971 
-0.08042335055031974 
-0.1734396886685206 
-0.1256596225186634 
0.5239928186121082 
0.02875930102810608 
-0.06694770053703665 
0.108263549313241 
0.8503295929002999 
0.5015812144250266 
-0.02342229459000562 
0.06067512837171556 
0.1322573494119504 
0.1762848474234756 
0.07345261729835502 
-0.5371770659106456 
-0.6069370243970293 
-0.14947734001117 
-0.5074293313241633 
1.067826899140787 
0.09654854509365622 
0.3647110549544459 
-0.13464814979124 
0.1645539889416565 
-0.2337634197122796 
0.3753612427303422 
0.70867546150854 
0.23820819505253 
-0.2491908304453102 
-0.1928077130941834 
0.2587344081235846 
-0.0640485363905063 
0.06166738749878744 
0.2777424618959353 
-0.2222885887385473 
0.02745252747246632 
-0.1762652188910296 
0.6790505576371527 
0.1363136060062914 
1.906838245328811 
0.02350330307369549 
0.05939142380827547 
-1.588824525285748 
-0.04590248567257908 
0.0105284911571382 
-0.9673392397448781 
-0.05999821300160472 
-0.1726308863147637 
0.1182258020150113 
-0.2281692145029837 
0.01762456292504401 
-0.213710978851376 
-0.04770818762474038 
-0.1189657870900645 
0.3225834915779846 
-0.1969592884613952 
-0.8813973270907612 
1.327983215648078 
-0.09586649739129872 
-1.241455196293491 
0.06204647391318455 
0.2158078397741196 
-0.4521755397609663 
-0.1059118812229733 
0.2589399669182212 
0.2590237173301236 
-0.00393534055422072 
-0.2381081780145157 
-0.4639403971797051 
-0.009579285236481093 
-0.7050095225608034 
0.5549911888972726 
-0.02259998466170493 
0.4999541570303684 
-0.2478500959674307 
0.2962813851336337 
0.2081135245869033 
0.2459824808134866 
0.114992727242151 
0.25493540069849 
0.4469234081109582 
-0.08741506557312193 
0.2198891146022764 
-0.5917896002281405 
0.06284358347190051 
-0.2255143551781298 
0.2978957583409054 
-0.1176721217164308 
-0.1005841649360001 
-0.04008551306870967 
-0.0240397111876888 
-0.4259278050633207 
-0.2007109172537408 
-0.02355223118864026 
-0.2229851814697123 
-0.01138585813146876 
0.1241023800447502 
-0.4277568858212963 
0.04709720556664058 
-0.6178840154416837 
-1.066147017949864 
0.1664326408556119 
0.07124185269539815 
0.08571743202108842 
-0.01790548491478832 
-0.2590109170836196 
0.2301511160847166 
0.2296200846540255 
-0.4387198386433853 
0.3505428894194813 
-0.1124707455427519 
-0.03442151924283923 
0.1567767507264336 
0.2859992744398352 
0.3272967349824615 
-0.4045790990346465 
-0.9257981735772408 
0.0146493689061967 
-0.3084550474174928 
1.021422446073649 
0.07323827816964297 
-0.04663484418012743 
0.207689804718143 
-1.343682986638003 
0.0782677162831331 
0.1947507549082607 
-0.5043655599651529 
-0.3307806930008099 
1.124176718652645 
-0.07012038512002988 
0.05456576795465056 
-0.3271407377304806 
0.3939600114247512 
-0.5784118714573553 
0.6154249672009285 
0.07357203750950382 
-0.3769071632485966 
0.09212414891063395 
0.2250804403046729 
0.09059848753779617 
0.5672712187795484 
0.005347494934643465 
0.1424276784237766 
1.354750470096883 
0.5794075234229153 
0.482102534897195 
0.3549885567535441 
0.1836164062994658 
-0.3150710809230411 
-0.77937703874122 
-1.025441646363179 
0.3921456574610168 
-0.8427009580671467 
0.09052548299954312 
-0.2035823881286108 
-0.2994111917311475 
1.172551827167085 
-0.1335776918375517 
-0.1900490081356614 
-0.07598799812124657 
0.2396268437311994 
0.06153418030471942 
0.1695658719542429 
0.7278492760598065 
-0.0634914256052297 
0.1965804204006876 
0.06958239425801166 
0.04948785001518313 
-0.8722405890478898 
-0.01969726713788217 
0.9893672193423664 
-0.1900062567716067 
0.5217493142614054 
-0.1321347639208603 
0.6963218714012804 
0.1754116147151408 
0.252834550281776 
0.0155048928914816 
0.5118053414788719 
0.2524635274825223 
0.08596616449954624 
-0.03580348282740838 
0.08049634904508662 
0.3794851252808329 
-0.05346933567296927 
-1.466385322688395 
0.01135593041088041 
-0.1020968131962613 
0.1494518362715767 
-0.03084458324114765 
1.774456116978511 
0.2879154793237501 
0.2687474605024615 
0.1812420413899605 
0.9352737900541935 
-0.7709866928974183 
-0.49401613461499 
0.1109685216771416 
0.1776780834218889 
-0.3588137997919243 
0.4995979685373418 
-0.3170497127990582 
0.2594020933420511 
-0.9738989376444961 
0.7485081432460812 
-0.02595943942097759 
0.2156714110229505 
0.03870047781860062 
-0.4695435033014163 
-0.06093682335983541 
0.2730775041471443 
-0.1153615429429719 
-0.01685151486246204 
0.4071638042131433 
-0.4437802078246417 
-0.06534486302093177 
-0.2076105587860712 
1.616971176257705 
0.2748748677997538 
0.4457344517469971 
1.089351924870085 
0.487694673431543 
0.2882431063798583 
0.1373858800609165 
-0.03079557729447575 
-0.03226929741231375 
0.0993827512119965 
-0.4698907385152328 
0.09859171153564711 
0.03747097115887182 
-0.7812246491710106 
0.4116129980032726 
-0.3892748250169384 
0.3162900005407922 
0.6641586131952015 
0.4289652354833863 
0.10583156866359 
-0.09827897574849233 
0.07018847390391326 
-0.3440831138246437 
0.02495354650283004 
-0.1530731783582774 
0.255768930140759 
1.10611687414185 
-0.2397155772597818 
-0.3098270982818094 
0.02896183832261786 
-0.01753723832365803 
0.01111946893791341 
0.2992208356368639 
0.003385632458182812 
-0.1186447361973676 
0.2476340517038972 
0.3316984905547438 
-0.2448016755717485 
1.191532966342356 
-0.005334675194787473 
0.2210653438324917 
0.9320255397465825 
0.02607133452812554 
0.1143726563805281 
-0.5059636884132139 
0.1388364137001421 
0.2075012298810194 
-0.06906834786313459 
0.03498860566585257 
-0.01166932682926522 
-0.2134948489885782 
-0.7140376112995599 
0.306535222844166 
-0.1863053955954913 
-0.1611211299795338 
-0.4412452266856758 
0.05983861018869251 
0.02323614241634572 
-0.1139135125064257 
0.1938174178863207 
0.2914519284983202 
-0.2188965835566721 
0.01185609588392486 
0.07049290345169421 
-0.04853907591915475 
0.08920428596286568 
-0.1985537878860529 
0.6827744798457561 
1.024275600252993 
1.636925659286992 
-0.4263911832422209 
0.2832768928767742 
-1.969867803921249 
0.2765913888414075 
-0.2509567753733795 
0.009711939163720096 
-0.6320351209784807 
-0.07403346051320978 
0.07728097120189711 
0.5565783168893439 
-0.02723161887355276 
0.7860573494857355 
0.6871240501058486 
-0.04927884535364691 
0.139297510220249 
-0.4362342197975783 
0.2123391168374106 
0.2889677505651969 
-0.09796028320888436 
0.3091461883030877 
-0.4345375492691134 
0.01518999567254854 
0.531331942427045 
0.2002140019581882 
-0.1003452261002442 
-0.02893820639364026 
-0.3283597298467999 
2.231314063999987 
0.2832092844729013 
-0.1000200738153908 
0.4290894185574148 
0.4071065545239878 
-0.04314532892423008 
-0.1218112962257712 
0.02605096508368483 
-0.08287069958420415 
0.7954484719157022 
-0.0430582324823526 
0.5479106199578321 
0.3510911823573988 
-0.1530719548087593 
0.06111964081721093 
0.5935287894062744 
-0.499192544388567 
-0.9069252600958786 
0.218421506745958 
-0.3762123366106571 
-0.009469438358120015 
-1.062264972056001 
0.261627241899474 
-0.01632039367802164 
0.8536443344551526 
1.590680351769148 
-0.1471777692777588 
-0.2255382873610117 
-0.1277121046569868 
0.0915100390040445 
-0.2604869289369428 
-0.08035035749816402 
-0.02586755360239781 
-0.8580679116518859 
0.7444533782841426 
-0.00953428563138581 
0.01510179535322164 
-0.2632529412196618 
0.2620700959146871 
0.373714356333688 
-0.2159336760124035 
-0.07976350563793141 
0.2487350251951426 
0.2458923766823701 
0.2224225475680481 
-1.338156160922338 
-0.004874968212526891 
-0.925258546074948 
-0.2851215014408921 
0.1961319570651298 
0.4010605634382927 
-0.03815819406718478 
0.03247939288020291 
0.3099782553977854 
0.03241703348572096 
0.03791979003977764 
0.2492268675545516 
-0.2627079931344138 
0.07697866918429913 
-0.2237138808330598 
0.2733259704620309 
-0.1512927322344705 
-0.4443090528947524 
-0.04694165153357019 
-0.1914122400307712 
-0.0009185459865404597 
1.052023630843036 
0.170476849635575 
0.2464941497572974 
-0.2925013337259819 
0.07428762990037684 
0.8813712679080425 
-1.271035570917968 
-0.9810384974211099 
-0.5685956011489902 
0.02831989214475658 
0.2287027529177122 
0.3211654019941124 
-0.4743576358077281 
0.7939166386258248 
-0.9754718092175423 
0.2107742464499621 
-0.1675743975270031 
-0.383473819622117 
-0.6940713208188767 
0.767178912172229 
-0.2131336700400604 
1.089115220422923 
0.2628229632745078 
0.06601278617711835 
0.01618579267666966 
-0.005520887314966678 
0.02964928853923012 
0.8666636869722897 
0.04143667274068923 
0.5641561108169805 
0.4359844165721665 
-0.03618547997823631 
-0.008177110472339575 
-0.02825558350306809 
-0.01477648829208507 
0.01568891300086813 
0.1456755376100718 
0.299485287972484 
-0.0735992233072939 
-1.020639000687284 
-0.474798268146302 
0.01281307386552124 
-0.003680090822190666 
-0.0006574264723266226 
-0.7353026701543928 
0.03456903615398533 
-0.03594066137171498 
-0.225810609803949 
-0.03991936457669885 
-0.3705022696824312 
-0.2228524961309577 
0.4683146216570482 
-0.2637887552911126 
1.050082232699837 
0.00877817650898814 
-0.2067166444236199 
0.04138771500069108 
-0.777329423892038 
-0.6040544297556906 
-0.2568883908053994 
0.9137037621258776 
-0.1494344002775856 
0.2560937855647347 
0.4759992222906794 
-1.169135711164646 
0.01433318457224118 
2.398593470557712 
-0.1868099172478803 
0.01497206267778264 
-0.006529941858189029 
-0.6939013535702288 
0.02069350563003595 
0.3512757542128303 
-2.25562608033304 
0.05241578552512043 
-0.5422628344347943 
0.7526444346267912 
0.004330205637306335 
0.08751517452305028 
1.198074231044861 
0.1594575906287213 
0.5199356390539024 
1.074647206362655 
-0.05076379961979593 
0.1215935809240242 
0.02326699701167533 
0.07654580396882502 
-0.1377010949773718 
-0.07607613662320983 
0.8193138598869195 
0.4054702777282483 
-0.1225010357526327 
-0.06042966946508155 
0.5469557411568643 
0.08360741818816113 
0.06754140758497817 
0.2818517319376234 
0.131527223095333 
-1.851893426395645 
-0.1917670897615404 
0.09593956222048046 
-1.969479834643133 
-0.4028158019185892 
0.1041402115564507 
-0.9646418120675413 
0.4444578791307618 
0.08028303030859574 
0.345081402403608 
0.7855010398946167 
0.4244351723091009 
-0.1880650779965923 
0.282970450634668 
0.3941965984700178 
-0.1674975844848435 
0.6332065780112568 
0.2680579824843513 
0.3728519197575371 
0.5731113507964934 
1.110510916787669 
-0.1364258327554083 
-0.02553572927606103 
0.2679188491101338 
-0.2135664026129975 
-0.1248117857532566 
-0.008228892076505748 
-0.5724277538236161 
0.1449727201623389 
-0.5827117501837749 
0.3963283863084747 
-0.7913293211944796 
-0.09597458335290121 
-0.7763098053262238 
-0.3342444591989431 
0.06641464963429992 
-0.6648655684941984 
-0.08026681805255474 
0.1063954361347677 
0.2195514374266317 
0.2199482677532872 
-0.07860878957015102 
0.03126847911044686 
0.07542477012230524 
-0.01372547001830633 
0.260035421444286 
-0.4451340060627137 
0.7761375194731565 
-0.206959728200042 
0.3634771027984511 
-0.00156490591025752 
0.2208773112342181 
-0.09017150287271279 
-0.3636578344809039 
0.01693313106960403 
0.2316166855931832 
0.344137761814966 
0.5359449989431312 
0.02541512636966504 
-0.04267055047224998 
0.2264126593767857 
0.1283737548201249 
-0.2765775200288228 
0.2487390615718064 
-0.05594284295016158 
-0.2122126881990826 
0.2069443972288087 
0.33615306331964 
0.1073914712629586 
-0.05034140116508436 
0.2602525637376983 
0.627855597323403 
0.3577118171815305 
-0.08775018100990588 
-0.01349811838873452 
-0.1847999414235379 
0.7262530919830389 
0.1732302092243199 
0.1970279315048443 
-0.08669518856594111 
0.0260307845652376 
0.3611881413207508 
0.1399528249103215 
-0.1736375030877739 
-0.2100671815530107 
0.04971819887234857 
0.01273809333933089 
0.7958573266581391 
-1.095803419947488 
-0.3340626116239671 
-0.04223515182725466 
0.01741844198671071 
0.1085269894166161 
-0.2817791310791586 
0.1123227367464351 
0.3501551784965112 
-0.02251567287298084 
1.550642713276925 
0.04092928474161563 
0.5397683619601095 
-0.08128328287313721 
0.06792784027944612 
-2.288676734585397 
-0.06418400208301756 
-0.03530918764929026 
-0.05864232383394578 
0.09718404426665181 
0.009483337314923427 
0.01295289913112259 
0.02856136231584643 
-0.3358634225574531 
0.1511583517312598 
-0.2887780842708223 
-0.04020178555453122 
0.7495085846418581 
1.060780255605011 
0.3311077769351269 
-0.4817807663348953 
-0.03614845363738128 
-0.6282612147499652 
-0.03660127960500244 
-0.01309071415000201 
0.07160262277703104 
0.2820273126562448 
0.02932917273641569 
-1.17081884373251 
-0.02437228590971342 
-0.5022737710176974 
-0.7809707746425255 
0.1866440536099552 
0.4879574129673529 
-0.1123909703323912 
0.4650322698981061 
1.188261426506955 
-0.0234117352632966 
0.1111249545744751 
0.3876691858480957 
-0.5373898842334442 
-0.9671717850698677 
0.6177552395045 
0.2093895823991451 
1.942194451057058 
-0.1910185474862983 
-0.535014661289991 
-0.07222908180299698 
-0.07760074959782036 
-0.02580864959892264 
0.0281090941091994 
0.03193140922074966 
0.08924935925220574 
-0.1796101263533225 
-0.6003378812273943 
0.1014750294333599 
1.240344280454202 
-0.05535804501891213 
0.1915834205785629 
-0.3279526729551144 
-0.3118196868201784 
0.0568547410278238 
0.08347541519311837 
-0.1587428740568926 
0.0192012784459886 
0.00607359270452756 
0.03960897853935475 
0.4472212658134637 
0.3734060762729267 
0.004505426309625573 
-0.3048465544706461 
-1.135340659797728 
1.031991801241992 
0.2088496722106615 
-0.8633142561638671 
-0.5908146901906075 
-0.1861352487549473 
0.5628262119035021 
0.4268109845191123 
-0.02340628904322481 
0.5070975071583619 
-0.1434192898567875 
0.4722845821423405 
-0.03780952944728475 
0.09358580721539767 
-0.8152224331633016 
-1.005524760536965 
1.197908430271924 
-0.5617369009273214 
0.2230946736524518 
0.114598955661149 
0.01267795675199766 
-0.4163821720044696 
0.7980862710837381 
-0.08195489254202029 
0.008576227019731968 
0.0705926390114628 
-0.04398450342370863 
0.06283096679457642 
0.1815936748499068 
-0.2182957304067624 
-0.01093643835518324 
-0.047794154620675 
-1.221504379937363 
0.02036831605948203 
-0.3743676576549816 
0.1207995245687702 
-0.1643312391778275 
0.7963960763257667 
0.06065799143107194 
0.2971382904728858 
-0.6071526485328127 
0.5077407057256764 
0.002940833939244927 
0.1821143855371223 
-0.2514407638330908 
0.2980222352446087 
0.08611979343774026 
0.07644749269632128 
-0.3433953559343 
-0.0926007492431809 
0.01511142271076902 
0.0754213745083011 
0.08758800029642429 
0.1271636046812552 
-0.005413328244299972 
-0.04952523465826104 
0.6371805091839905 
1.413384243937451 
0.6346758072803355 
-0.09060983933911781 
0.9345552244630198 
-0.6847797986525939 
-0.01500149441031322 
0.05360737351295113 
0.4418573714740965 
-0.1063190313493916 
-1.469877164384336 
-0.7217083673491762 
-0.03883256506968995 
0.2868682298196809 
0.2885294915158019 
0.1676407912722959 
-0.1526467772106963 
0.153516166827274 
0.2723912283396953 
0.6026006958849265 
-0.4404809789766781 
0.1842488603083174 
0.6080773908497262 
0.1787521818582683 
-1.029106808361025 
0.07373648990278218 
0.4089064018799423 
-0.4962540973827491 
0.05319378478615151 
-0.1896675791211061 
0.002494733941099047 
0.2577258872863203 
-0.2694393930314365 
-0.2817692807494256 
0.6220830020489713 
-0.01100216603151286 
-0.1304479244554218 
0.05248044622896872 
0.3878201473200724 
-0.8734220322642628 
0.4922967646229706 
0.05236042926886771 
1.00079822403565 
1.449043688172581 
-0.09226477634213927 
-0.5762022259659961 
-0.6471847685024363 
0.07182057385404059 
-0.5819400775203957 
-0.3401827722870779 
-0.251652946252792 
0.1300923930588889 
-0.2153988812484448 
0.1818215298368161 
-0.000455703962715697 
-0.02415584408658187 
-0.1075943423623734 
0.3559082976783567 
-1.79120048588698 
-0.3659819946302899 
-0.009927043220378223 
1.28469710800024 
-0.202629865890249 
-0.258237319520436 
0.1700597458379656 
-0.3288116781784093 
1.146501200465028 
-0.02502257002289533 
-0.2219344805119339 
-0.8945801030832018 
-0.4223526399509707 
-0.03918471420854026 
-0.8654458696959181 
0.06170700014943654 
0.02966722704584097 
0.03372216673734991 
-0.4292978019864711 
-0.04595128423367102 
-0.5342255585018856 
-0.02017207005215855 
-0.5144051177392314 
-0.5089859389763188 
0.5855459369107044 
-0.07608008782110844 
0.1505800357900054 
0.6993047717811465 
-0.06371099305922061 
0.734731954628961 
-1.043832226419588 
-0.435187901209053 
-0.215952152626716 
0.3873843983567415 
-0.4151574526504697 
-0.4234477987535664 
0.5165438801514813 
-0.0231131217308448 
-1.185177736907888 
0.2650317850387295 
0.05085002516571154 
0.01379239013928149 
0.2757929683435081 
0.1806811256734036 
-0.5296101642715109 
0.5298746536985875 
0.06680220537322615 
0.9422036497092124 
-0.3218878835488585 
0.2315543659342865 
0.1009389039768613 
0.145953591222705 
0.1475722215554643 
-0.03486571805680077 
1.239766095700766 
-0.255994332616582 
-0.02481103200265688 
-0.5040118630584367 
-0.04235231588181501 
0.32656836472708 
-0.05925022890113155 
0.024303346506952 
-0.391757993727035 
-0.03433863337730441 
-0.1911988232316439 
0.09721807968155823 
0.1859477053592603 
0.1663712461364168 
0.02735816156930085 
0.446631676452507 
0.4895740539325729 
-0.08110762889806016 
0.0816340069300506 
0.4457067599817665 
-0.1781468576765489 
0.02350625600567733 
0.06454480580785354 
-0.06484009152398343 
0.3031193475191844 
-0.8987348891222078 
-0.3133244603414914 
-0.3185047931423844 
-0.1312638585635707 
0.05446939731657938 
0.3421657256653483 
1.019874911445128 
-0.526294621771902 
0.07062809348807354 
-2.020490332831905 
-0.05698148556721674 
-0.03389831737626672 
0.03908160588062399 
0.02793915732912624 
-0.1192634597493661 
-0.06149298258803246 
-0.5349273291109095 
-0.2274198619657868 
-0.08244948524069994 
-0.07436709999414604 
-0.009840427227430552 
0.07181174536666254 
-0.2529544864348878 
0.7758309724806796 
-0.04083789649948218 
0.00228765204249596 
0.1486381208309592 
-0.7721616630118717 
-0.1179837522043709 
-1.464109884556178 
0.06264156866702851 
-0.1215642399143569 
0.09460225848434221 
1.33521183354112 
0.8564047400512911 
-0.4193136189678964 
-0.05670994703622337 
1.044192091266924 
0.05708399833946174 
-0.09013522858179727 
-0.149833312977888 
0.1040216507340452 
-0.2201925621341068 
0.0742444931734996 
0.5683770341125137 
-0.01369954445523323 
-0.1153883715039686 
0.1535339056977058 
-0.0486911711956825 
0.406442069622945 
-0.1446668558324638 
0.09511612051156003 
-0.09618815532002155 
0.2665048516138511 
-0.3281406571116448 
0.2720297584392456 
0.226372607415077 
0.01407201618859622 
-0.5819612511475166 
0.4692845142308649 
-0.1749085854757516 
0.005984060461115812 
0.2047720839034635 
-0.2295563518212048 
0.2381851254139689 
-0.5215019409285029 
0.1263216314093074 
0.2754880499130447 
-0.5677090261986355 
-0.2424062379515406 
0.8551894256799335 
-0.1477047501540859 
-0.1582122600286903 
-0.006889248060481235 
-0.01662107459884229 
0.966027225806985 
0.4272922762333486 
-0.3024037700978009 
0.09029712387577948 
0.4485675498813214 
-0.03897037344937571 
1.061257198804643 
0.09164387274237173 
0.09530136829597527 
-0.005833990266596808 
-0.04037613709216666 
0.04267257471422817 
-0.06665892697835914 
0.3126320396396202 
-0.03851942848854678 
0.1328390930145356 
0.09283108018834081 
0.1388927955132146 
0.3265603293572042 
-0.06128891414703393 
0.2675910177037346 
-0.2054413926003789 
0.09280808836558128 
1.564563382816504 
0.0559130611776927 
-0.7154201381590664 
-0.4341027915261169 
-0.08923007954231507 
-0.9819959308300658 
-0.2362641390147734 
0.0581094920995481 
-0.0848884167138489 
0.1810085094262269 
0.1590609665401989 
0.06536129993402807 
-0.1525247206783778 
0.08429549397469345 
0.2019690962771445 
-0.4223977550378167 
0.4329948072198764 
0.2370152684136077 
-0.1315253369764384 
-0.0269574951305337 
0.319656954201524 
-0.1776607746256639 
1.333960864321489 
0.1752742023893452 
-0.08110106109414718 
0.6951973840756929 
0.09558944690787932 
-0.2889734113996609 
0.117859983714583 
-0.1163607290761562 
0.1722422985043964 
0.277441462555891 
-0.2515091574935859 
0.2077228823561842 
-0.199856465853955 
0.15694942579567 
0.0910007827404038 
0.2035336045309554 
-0.02752114118342606 
0.4739680529000526 
0.07892187418656617 
0.056327208890133 
0.005557272148463163 
0.165799224897578 
0.2434641563205088 
0.1228438587930042 
-0.8494956729546586 
-0.1247566555924379 
0.3360892922474797 
-0.1236092998510154 
-0.02285323416513317 
-0.1420235914864771 
0.0002515169929443594 
0.6466479726958078 
-0.03948295239759492 
-0.04229433146721921 
0.3676361746118135 
-0.06422471292927692 
-0.1842556726923325 
-0.7310034321757707 
0.145925199033523 
-0.1254719958567393 
0.2554790459170504 
0.1002185898547579 
-0.2496008011169042 
-0.3492430774193455 
0.2321057171290772 
0.3161163988875695 
-0.3782521975178921 
-0.2315127394747698 
-0.04478121884983769 
0.1718099347840509 
-0.1135632790561152 
-0.08181705552326958 
0.4112568743647813 
0.2292954581840543 
0.6430363211662969 
-0.4278593905927475 
0.03511488338554202 
-0.04550044217506424 
-0.01523669681822258 
0.07416218940790953 
0.016421381310899 
-0.1370246041954598 
0.1933191561348112 
-0.1737053056996573 
-0.3599463400286604 
0.2517088113424122 
-0.0981400591012845 
0.1429691344000696 
0.2463179945234242 
-0.122558093918739 
0.08849431839876504 
-0.005736623852775465 
-1.004215406889325 
0.08789031779026578 
0.6553946017313242 
-0.02092573405822864 
-0.7199070508067807 
-0.04923621725670957 
-0.01716359533386452 
0.2423200115257134 
-0.1191543841678898 
-0.06731932275614376 
2.268720756868931 
0.2455506096172496 
-0.248937433830107 
0.04249124009284018 
-0.6598494337414514 
0.03615559770186801 
0.1936019455755404 
-0.7252668958367003 
-0.1122101164370107 
1.018630409915387 
0.1775665533138841 
0.2301516761221672 
-0.06017407013331744 
0.2878632837890052 
0.4073680323767421 
0.3477031417789407 
0.08685025946040691 
0.6548959575260059 
0.02098935908623374 
0.1236862845099226 
0.05694981795991647 
2.414631219318535 
-0.04665442264826902 
0.7930367472274373 
-0.08533118762648262 
0.1915646729635025 
0.2217952887826871 
-0.04419338931857691 
-0.9224979302112553 
-0.005618235419639655 
-0.05288488906280919 
0.0577370987083535 
0.2104381230653018 
0.1063010728194771 
-0.05353390809160782 
-0.28577304431113 
-0.2210742425590458 
0.1395941060601675 
-0.4317268294029247 
0.3025081381254463 
-0.7995662299676619 
-0.01007760117264277 
-0.1118780722132103 
-0.2113943637246331 
-0.0247140687140277 
-0.05362764705287339 
0.4175899660908498 
-0.07549274571612838 
-0.01305395801803876 
-0.8935459346878561 
0.03958174768837678 
0.06162942218014823 
0.4612182658191764 
0.1825554232447572 
-0.6993231397865569 
0.06992687461302467 
0.9036299108007696 
0.0651741839160144 
-0.002128713146573345 
0.024281657052924 
0.4430311142452232 
0.1264194284406654 
0.002961321406247476 
0.1380865078655996 
0.2702571543818709 
0.1687591687929667 
1.267452242360737 
0.05195810607618092 
0.01526016816689958 
0.1292397058811092 
0.2468862250169562 
0.3430895418402439 
0.2201252559817694 
0.1597520708949495 
0.1466235042761307 
0.07443669797797337 
0.7037408768239306 
-0.01320806678860584 
0.3816489099012399 
0.1496709387868376 
-0.6449005485489051 
-0.219108838080952 
0.2110762541282694 
-0.3783404485142348 
-0.1774249888346607 
0.119586150917467 
0.1019159410298489 
0.2345868363564944 
0.1515192356297322 
-0.02274617782910876 
-0.5947224600953859 
-0.6191097557740995 
0.2915488334390239 
0.244180583531791 
0.3997643688251737 
-0.05637593480911815 
0.2903349753339159 
-0.4074889372307475 
0.1098900756076987 
-0.180309777375368 
-1.055369114244842 
0.1209748658606769 
0.05116603819836629 
0.4665172888724367 
-0.3170188678453743 
0.3077307641259397 
2.410746084564507 
-0.2071266380443847 
0.177338628923729 
0.02960224001430849 
-0.06660930479724851 
0.2258686516678111 
-0.3052061986450866 
0.2723209528030652 
0.08530893140490597 
-0.006608006013720291 
-0.02147036272096441 
0.299262213262651 
0.1890665331838883 
0.1869549513733292 
0.08823956728314791 
0.2984027908713988 
0.09566251806527283 
0.2548424635460034 
0.7353096572772695 
-0.1055925707035048 
0.14961062584561 
0.02593299614876457 
0.0677923840414023 
-0.3160126526527811 
0.1500784244868508 
-0.9553137828095548 
-0.02329331884092858 
-0.1670341136811412 
0.08563462219109599 
0.9793812596896566 
0.3396245865619852 
0.194053631575919 
1.019102736242338 
0.2072813110009065 
0.0660965608585778 
0.198761959054397 
1.368501364628647 
-0.1373345590566083 
0.1517126062948356 
0.09224254537265401 
0.06913921385937334 
0.7447323315125935 
-0.8705402137698186 
0.6810503985096232 
0.002736386260702198 
-0.4604768283230493 
0.3977152009784838 
0.9806930568519927 
0.08134431597701268 
0.0173868265153387 
-0.08566115013101135 
0.1971930725177811 
0.5678927162621907 
-0.5615880215559967 
0.7573919342948955 
0.2841913423763575 
-0.1304925446701918 
0.7767312154688443 
-0.4474940785111026 
-0.433095700393071 
-0.1555946542259972 
-0.02864479428718227 
-0.2853344059683309 
-0.4784197496095522 
-0.02965484295115904 
0.5718429075988394 
-0.1992865031291548 
-0.05660675986837795 
0.1820193463829027 
0.09549038635623018 
-0.08219788304176069 
0.4840698065140063 
0.5894281045982243 
-0.6716664061339641 
-0.04476424202870583 
-0.0159929647179172 
0.3091617611251242 
0.310237345315725 
-0.03224239227895923 
-0.02099315445421092 
-0.03450999407465883 
0.1374529387775881 
0.1436453243339663 
0.01954368301886137 
0.07439263435628703 
-0.0883327392409852 
0.167085198813115 
-0.4093726343327163 
-0.05222843358197034 
0.5014126964219361 
-0.2857519621704811 
-1.033753626418149 
0.3722192393572759 
-0.46223392343001 
0.1633960242027574 
-0.3386948858600481 
0.776432114400426 
-0.003078422213536657 
0.2571469770460929 
-0.2646876887779389 
-0.2002785659166107 
0.5798675694627129 
0.05039784819675441 
-0.01488876356134733 
-0.6418168059826103 
0.003121375037796501 
0.8660369731028774 
-0.2560155013526107 
0.2451142097156871 
0.1512006350576083 
-0.2080548590765909 
0.08235342487274257 
-0.1533911990029597 
0.1302448622870178 
-0.7907250754367512 
0.346452073000631 
-0.5508815593207333 
-0.7108136464992557 
-0.6557103395194208 
0.2208545170556672 
0.6373671657882846 
0.5602681746413505 
-0.4807759834921909 
0.03815662142159477 
-0.03879299527142999 
0.1658942608784926 
0.1415205096401764 
0.093509024150285 
0.1013325361638967 
-0.2348831421182963 
-0.104302045941418 
1.124613646989637 
0.04721332240116469 
-0.07863688207493685 
0.05475610540343518 
0.920806733169746 
1.183633493077087 
-0.08242117405136451 
0.1638813061022719 
0.09984750127678821 
0.3700550583756855 
0.6316038046532929 
-0.6192745116661343 
-0.01629713409661955 
0.3520815432673131 
0.06953546007460812 
-0.05477636075039657 
0.1496719873685562 
-0.723747365244673 
0.5781343272739173 
-0.2103758170700634 
0.7600429420988919 
0.1381352406032089 
0.5666426510677812 
-0.6519239847542412 
-0.06043149727267516 
-0.04183478725177996 
-0.9996928313007651 
0.2329709816316974 
-0.08848856520123337 
-0.01337457334227152 
0.169670638952988 
0.001635091846734342 
0.2020381593874869 
-0.1331375770802433 
-0.3763771623871138 
-0.1550076211309698 
0.1706329474279444 
0.05850289186652062 
-0.1723286614195601 
-0.0503419438787406 
0.3530179204055193 
-0.1588564561547967 
1.157675861721357 
-0.1085807847094906 
0.9346647872995937 
0.3415511892993759 
0.1889713276345086 
-0.1032499300317133 
-0.2006223678053872 
-0.07241695042390787 
0.2010025906444848 
0.1074143705346855 
0.2787326572884471 
0.06510849020455162 
0.2587672835563075 
0.07366550032131389 
0.1548572904069001 
-0.07150814117918913 
-0.1302260717864973 
-0.1386821334470748 
0.518416565839408 
0.4480109648042831 
-0.1657261759310036 
0.1216585501980827 
-0.1207636405305954 
0.3716436371365405 
0.3721370124140793 
-0.03349826929949749 
-0.1505602152239028 
-0.243582925718983 
0.07346552355301875 
0.05830291092835598 
0.0709123118984218 
0.1051966109029022 
0.0857543742587227 
-0.08740702967017772 
-1.526939048044322 
0.201121646697469 
-0.528204335062833 
0.02770031755354002 
-0.01716802360316904 
-0.5085643291253754 
-0.02807352020844024 
-0.1484608195585223 
-0.1742453879152183 
0.2453995925792932 
0.7555468553074376 
1.904670007727471 
-0.00530071833438959 
-0.04316393745175964 
0.09617398221409404 
-0.1420696239413513 
-0.004673417379303553 
-0.8990756967838063 
-0.5996379461752482 
-0.4619133178945209 
-0.1870045325324396 
0.3100468623388322 
0.03810297532179071 
0.4265218505687057 
-0.02126266035846005 
0.1380525580479151 
-0.9492495289061712 
-0.05925581244304075 
0.158979000874473 
-0.05934960996982847 
-0.01273373025189444 
0.1345519172271856 
0.1853629697713716 
0.7642055058648066 
0.6721020766772143 
0.09204869596952317 
-0.4739653612621377 
-0.07365690387650904 
0.04987465812413541 
0.01241728523804663 
-0.0331806929280825 
-1.156864137525412 
0.2067158245905011 
-0.01644976901074183 
-0.6405645198878427 
-0.1780544597580916 
0.3785178864684792 
-0.07109788281520177 
-0.245593306953865 
-0.02689938073243422 
-0.742524173100728 
0.986701831989646 
-0.1014793205563232 
-0.1763689809143663 
0.1854712580723683 
0.111174470470721 
-0.06122299776457229 
-0.001654474336023944 
0.04121456246560674 
-0.03296959889266997 
-0.2949330160984913 
-1.136049334710816 
-0.01063975445378985 
-0.05522045938058937 
-0.1866051579199056 
-0.1692036681174734 
0.07220282150992366 
-0.08076484501838034 
-0.2553374115111358 
-0.119333423993605 
-0.2156619583694795 
-1.044480539254909 
-0.05645349243966519 
-0.6118445414582655 
-0.01195430184067319 
-0.565419760322981 
-0.08435790886971868 
0.007894294373851651 
0.2595556239402778 
0.4242931203705264 
0.03874328072852871 
0.6009994523206609 
-0.3923929185579176 
0.06687648549780094 
0.08936915717807623 
-0.1378930264942657 
-0.2711728704525242 
0.1791873462037286 
0.5543796612246512 
-0.011757078867587 
0.5926884691664056 
-0.7161915828390516 
0.2008883775967116 
-0.03498513805951222 
0.04905868395881863 
-0.2563779341013499 
-0.004485177882508527 
0.0893072132365567 
-0.2895097895671951 
0.09984261728070834 
0.08068442571748849 
0.04811111861592829 
0.06219015523862567 
-0.2095828544677656 
-0.1471347364610515 
0.0118248893229868 
0.2773623800420775 
0.07535653615659853 
-1.691378732693702 
0.3437352609148444 
-0.2157496168233453 
-0.001002348779966403 
-0.1898231975866985 
-0.02132666898076701 
0.9931650753946567 
2.093920040778789 
0.003914822819101746 
-0.01198633182841978 
0.443021484431757 
0.4225896073440878 
0.09116714100009482 
-0.01332324457534356 
-0.4767117772401845 
-0.03494725303657702 
0.06921783833995648 
-0.1856994377162438 
0.003940872765535093 
-0.0190281323090314 
-0.2000603522589104 
0.5217407623456014 
-0.003624476789279459 
0.09337014168128736 
-0.212337231225341 
0.3584483972671904 
0.3897145473719087 
0.06483568666447521 
-0.242787377597723 
-0.03933202874786941 
-0.187131020105063 
0.2389955315650609 
0.05607914201110385 
0.04281891340671746 
0.1813075593078548 
1.201078251882294 
-0.1727433745798597 
0.4705260100923024 
0.7603824129677179 
0.001217722595666675 
-0.6147427832434954 
-1.19538070161538 
-0.5542380728352092 
0.04915366544091507 
-0.05261225010677074 
-0.0691512441131986 
0.0696103332475678 
0.7081419187184498 
1.371895307985252 
0.4865596491644326 
0.9254747068690843 
0.0667876448349375 
0.3326682534277511 
0.4952640700052455 
1.216424260856001 
0.116348325105747 
-0.2605660809681442 
-0.1559590138107814 
0.1890532825173822 
-0.09139781722319408 
0.6629240448216459 
-0.1127522801697439 
0.1833252342115012 
0.0824963209668996 
