solver_type L2R_LR_DUAL
nr_class 2
label 1 -1
nr_feature 5000
bias -1
w
0.06252084379571411 
-1.667376331941073 
0.6140252519805206 
-0.5913905748249048 
-3.753266156362122 
-2.199344829735941 
-1.255735039190804 
8.820934859780392 
-0.5371277478169748 
-1.717951524403513 
-0.8681013796807157 
-1.250840784736335 
-0.667091453444122 
-0.8353924656233207 
-1.485897552077998 
-1.622366436449629 
-1.357704211604021 
1.132768802077225 
4.003092570550001 
-2.431090092425239 
1.323854801535847 
0.8746652432005114 
-1.911763948747684 
-7.84015788495294 
-0.424145811299059 
-1.870573383978924 
-1.368945944509362 
-1.949674003464283 
-3.639806673308632 
-0.67224339703863 
-0.1566527030210182 
-1.378893107851065 
1.489892310653894 
-1.499936372543803 
-0.101575856387326 
0.3261797901854491 
0.2227881650675364 
0.002039866185369288 
0.05370820760862464 
-0.7032825104020803 
1.086611432839531 
-0.5053938173222265 
-0.705151821642792 
-0.02012946035476879 
-0.9892203038278833 
0.4207914013625329 
2.721436102439839 
-1.334652543363212 
-0.4965455795768178 
2.731015497527312 
-0.9809769768057952 
6.961508278616521 
0.4525964525911652 
-0.6567468977319941 
0.3519579387313893 
-0.7346540220597989 
-0.9683949248137849 
-2.734785890781684 
-0.4939077513324867 
-0.6784742820936107 
2.413234802346763 
0.2249998760876223 
0.5644719909162355 
-0.003363332827721362 
-1.864472864229969 
-2.463325420623828 
-0.06562109283070898 
4.453127635019738 
-5.21855490605676 
-0.9080167637385068 
-0.06339409594590426 
0.6741782101121404 
1.442509143144923 
-0.06243764627836502 
-3.927954716963208 
-0.8508038080248339 
-2.386459807121224 
-1.140483937610511 
0.3099629254541741 
-0.3125921912482096 
-1.113482564901838 
-1.811889010355642 
-0.7094168342488589 
3.994470391805126 
-1.129622625559924 
-1.197732692620584 
-0.1885043122781141 
-0.815093539180832 
-0.4802070747585687 
-0.1941325694965906 
0.3528451073653549 
-2.222233277749797 
-0.1805513486130622 
-1.965621664582854 
-0.3323812409523527 
-1.760614140548721 
-1.179703402826263 
0.1618824048610157 
-2.922488621723965 
-0.8471662003319292 
-1.39278289731798 
-0.9313802264076603 
-1.179087236974805 
-2.834801124952843 
-0.4881971005588261 
0.4228437940768405 
-0.2903403965408496 
-0.4066412997594968 
-0.3830254638744266 
-0.08901896893807036 
-0.6192421823183499 
-1.150580538837114 
-0.1900268092953984 
-0.6569951970455354 
-1.005425995064738 
-0.7812719349467968 
-0.5749459504045502 
-0.06405501121084202 
2.851567043763467 
0.2829173643640273 
-0.6974601255959715 
-0.1698835972972784 
0.1363452114254121 
-0.5803397105762343 
-0.08600588225242499 
-1.885985779203987 
0.07754293747095388 
-0.05295354832387493 
-1.996395269981668 
-0.3615697365726119 
0.1031078874378384 
-1.695523734237507 
-2.85833996511619 
0.1585780963105912 
-2.316124736535672 
-0.2971850284332395 
0.6604403250806234 
3.957420253720802 
-0.2148053056415289 
-0.7793437335526731 
0.01172491144281721 
-3.538945781311204 
-1.11783158325506 
-0.6333165868576767 
-0.1505455571636579 
-0.6959195729413978 
-0.397153506283081 
-0.9476321149502619 
-0.9419645115437466 
-0.5582841926262978 
-0.7613411023874199 
0.1746453280173113 
-1.659425212491822 
1.256780846907791 
-0.2322852188853007 
-0.8026986645470883 
-0.3979119123708538 
1.077008594178295 
-0.499958980015405 
0.6781059451196426 
-0.3871087093330136 
-0.4568429887130251 
-0.5232686405651501 
-1.785256882161503 
-2.583780934095985 
-0.2869342517962279 
0.1097374813922557 
0.2625106468887635 
-0.4402961701627068 
-0.308302113580817 
3.606123697449157 
-0.3552316233756128 
0.3543309542385535 
-0.09591421274325128 
-1.18778407624799 
-1.85657561057221 
2.211173816041414 
0.2865282663716814 
3.292164019174312 
-2.09871129478356 
-0.710939446779397 
1.235573611813258 
-0.4263927900680025 
-0.6874751442416801 
-1.900441309185479 
-0.3670453073326444 
-0.9754335997556062 
0.1173517819978595 
-5.0080579940937 
-0.5498802295998596 
0.8236527576409735 
3.110056026311223 
-0.04352025883303801 
0.1568625505313764 
-0.5547089252723791 
-1.742574372990083 
-0.044392776058846 
0.7513671627131262 
-0.6997413279941417 
-0.1272651807230729 
-0.4708619285095542 
-2.232596998982962 
-0.8266476436281303 
-0.02239418092129612 
0.02192075472128453 
-0.958041730201837 
-0.2811266689186393 
-1.070213947180091 
-1.05959595989962 
-3.249417552816149 
-1.481140229079652 
4.153580370407245 
-0.6376218080989728 
-0.6780036327229187 
0.2301758007370271 
-0.03601162390108122 
2.007636907550543 
-0.5192962527188173 
-0.1598893500615723 
-0.770255876465383 
-2.558989299108773 
-0.1229034192866479 
-0.1507735068795527 
0.2131871101117912 
0.5443476511333929 
1.896346007784513 
0.9825698086084592 
-0.8544268777688111 
0.0795632289239047 
-1.455827766499088 
-0.513431593269888 
0.01055504949339262 
-0.2964201473623323 
2.087487855165888 
-1.729346739641825 
-1.520144506219897 
0.228693833648811 
1.901494887307011 
0.7467002643821453 
-0.7330020610684497 
-0.6963046624012977 
-0.2922372798959647 
-0.4549451326001458 
0.1307716712239395 
-0.2143584640947629 
0.4579858104307873 
0.23392392984428 
-0.747385439218987 
-0.06177456912028125 
-1.068998392623988 
1.026046029566847 
-0.5865868394116952 
-1.593265604831429 
-1.002847887769265 
-0.6381111683926547 
-0.1682440536403605 
-0.268435289608848 
-1.321568130170713 
-2.981092527417539 
-0.6842676325242237 
-0.2690793433050156 
-0.3645081915546842 
-0.7215693006417681 
-0.01710254595338353 
-0.8201515986319597 
-0.535291716035319 
0.8023655488343927 
0.9595130910223137 
-0.1076209621576504 
-0.6468350034414893 
-2.135298109236791 
0.1711672264294883 
-0.5872626500722858 
0.4767667432728397 
-0.01154943081236666 
-0.6262081855803399 
-0.2997658899492859 
-0.5928004073828824 
0.02480882538847294 
-0.2020616682647702 
-1.059677843810926 
0.4808072747448549 
-0.5914064331182077 
-1.983557484584157 
-1.196362869980301 
1.172028584619112 
-1.864570032092433 
-0.113149318756532 
-0.4390598305874852 
-0.01605553464953005 
0.7860410342038476 
-0.6725351936343839 
1.625583391710496 
0.6649531399280824 
1.668423970644275 
-0.04456917406047684 
-0.6860831151137831 
1.600755806712328 
2.677588337452551 
-0.4174175396160156 
1.823440374098659 
-0.03723180701483648 
-0.4220796328022451 
1.448822535193094 
0.5087561862791442 
-1.441167145050402 
-0.4778961590061626 
-0.6088876788702159 
-0.5097346878366117 
-0.901562904568291 
0.1960953979385356 
-0.7166589840855665 
1.837584724465524 
-2.358916466680448 
-0.1971185922763911 
2.601236476173065 
-0.914577883330864 
-1.307383302801787 
-0.01788072377758831 
-1.091685839556702 
-0.03264876866132278 
-1.225791016305479 
0.02379133292878467 
0.4948296092767827 
0.2647017353521465 
0.1937222167021802 
-0.2696359991546124 
3.1252516569777 
0.6897277145268434 
0.2295787368552111 
-0.5138772839877701 
-0.5439306227705992 
0.7201243294873033 
0.9350506839417705 
-0.1714123455194252 
-0.03318190048579939 
0.08083806072489487 
1.40254682479868 
-2.621126185940482 
2.034747116964613 
-2.20880647456539 
-1.860053401462524 
-0.7079302767591894 
-0.6143097029837156 
-1.177928665754134 
-0.6972438347710116 
-1.337168760996481 
-0.3262486417017518 
-0.3214675408173024 
-0.3452719994493122 
-0.7060093690988318 
2.29310497452887 
-0.3533286299968592 
-0.616892981848452 
-0.1645542868582655 
-0.3000175675510222 
-0.4977987983360347 
0.1881450453576931 
-0.05931501113793296 
0.2720442572686375 
-0.6939659612623887 
-2.62316075590124 
0.1298093139610183 
3.600851627386189 
1.820935771227338 
0.518481707607705 
-0.3132963046101048 
-1.813654778607789 
0.08919287441926485 
-0.5482029188505373 
-2.489914580716484 
0.6543489533680737 
0.5479592017344647 
-0.5502257403029484 
-3.0913004868766 
-0.5381606793008326 
-0.7112755980482527 
0.1844929440629443 
0.4711363752468711 
-0.1162751682196501 
-0.5210276253745636 
-0.4046481152821229 
-0.5533183110044583 
-0.3453854103482651 
-0.4524790240883389 
-0.1470917736066041 
-0.7041285784504522 
2.49941988430286 
-0.7025352997485891 
-1.345157668119916 
-0.3757001930385744 
0.0420979292846478 
0.1168331049132223 
-0.4488899333609421 
0.9036440037057623 
-0.192397537920928 
3.393035800721625 
-0.2500124436305076 
-1.323171746167959 
-0.2116732388529044 
-0.9849874030088086 
1.991663193150917 
0.2653119405464768 
-1.046172323844986 
-0.01011103460757229 
-1.228021645116483 
-0.3695320936465338 
-0.3816013812546428 
-0.5058039438486551 
0.1206683998592537 
2.629490938466846 
-1.211900635231676 
3.569283688347994 
0.8714582114691289 
-2.358120932335426 
1.251248969016312 
-0.09456634618553131 
0.3113839486011055 
0.1035138277494754 
-0.04101835275331472 
-0.6403916386115118 
-1.605362900210742 
0.42530766023046 
3.442238667805441 
-0.06850332588914357 
-1.036301925162986 
-1.713277782293477 
-0.1573890756388262 
2.838227550726959 
0.5061331561055362 
0.1125012236668772 
-0.7096775223004189 
-2.555640849881047 
0.6705950375532291 
-0.8001631960109347 
0.6009242511448302 
0.6501209038951899 
-0.2807244066757168 
-0.05262635737363668 
-3.5403096272065 
-0.6405873122862779 
0.5881298695278431 
-0.789119040491445 
-0.3395895412148378 
-0.3975029488235438 
-0.4492807790556863 
-0.2882806490648213 
0.5856033861610659 
1.98676039898471 
-1.904041350915437 
1.005396382663353 
-1.695741204782802 
-2.889813288864807 
-0.5383517246684408 
-1.340446721342899 
0.1312967879859279 
-0.3761400282493906 
2.526612614347008 
0.6109859639947413 
-2.923204057900575 
0.8111596472844198 
-1.015531067769 
0.2119774354443089 
1.549548925912731 
0.2608608475650567 
-1.35611770984918 
0.06895870393736593 
-0.8286822433054448 
0.3180317290863657 
-0.6239737588025615 
-0.727649387419725 
1.838880409448549 
-0.6225356195528067 
-1.749641665513013 
-2.800659642944953 
-0.2749087704925033 
0.3945880685185262 
0.07642415219015432 
-0.3888225037438527 
0.2788336960772826 
-1.414455826480393 
4.091854459214076 
1.184544451743603 
-1.021514076249619 
-0.40482507010763 
1.007299028782652 
3.473809462275457 
-0.2431578578272654 
-1.922076854525837 
-0.4406904249374466 
2.014322842003061 
-1.796195069688396 
-2.458265184712727 
-0.07419258534674672 
-0.33080565014057 
-0.9482869052304002 
3.154363349259707 
-0.5039939154939947 
-1.117287643193687 
0.9083666163942099 
-0.598415928764182 
1.957094432428608 
-0.1679090449720991 
0.4929618931588304 
-0.4931535743823029 
-0.7790581824442516 
-0.7071147870514807 
2.274882204059617 
0.1859741632537266 
-0.4841303613639076 
-0.07054361300894017 
1.746263658851816 
-1.736907473006946 
-0.8430688812978844 
0.6295824474900555 
-0.6840910631223326 
-1.400680844332535 
-1.525835147307741 
0.8607533348284344 
0.3456376628863179 
2.935820736305172 
-0.3266261028679743 
-0.3536063085010928 
-1.573198920956793 
-1.056655431337041 
0.1889519968826064 
-0.5235820777777965 
-0.5566394271024685 
-0.361438191302533 
0.9112835741760988 
-0.0978598130372883 
0.8985451594022785 
-0.4876638270583137 
-1.040770054715749 
0.05497112978505922 
1.937675689606584 
0.3550439627937295 
1.154826330439425 
-1.645498818179382 
-0.6810438881602281 
-0.0127214224488429 
1.080526584055451 
-1.217809067560705 
0.010657905387293 
0.1349470163104722 
-0.2543036230998221 
-0.5298395507345902 
0.8889081227347491 
-1.570913511872632 
-0.0875015903012524 
-2.819424587957508 
-0.7381115334155837 
1.685018359357193 
0.06829220749830553 
-0.4857808493356778 
0.09005341604872781 
0.5685376104316381 
2.342129330834184 
-0.2692882733756468 
1.625036464074149 
0.07547035479387759 
-0.9144702089854734 
0.9017736919489208 
1.89057889448324 
-3.644150413259012 
-0.4606114974698211 
-0.9936890470901062 
-1.279086591129504 
-0.2948005100332107 
-0.3105668313319426 
1.620769453694913 
3.213675796231364 
3.110017236194111 
-0.8545205819907629 
0.3153339848880427 
1.527664315576108 
0.1322663972995194 
0.4130418779660794 
-0.03255743730558187 
0.02023128574109939 
0.6241701186561682 
-0.3321897782339401 
1.5426138919633 
-0.7079864064588151 
0.8617452036500283 
0.6520434937109104 
0.9523376967527251 
-0.6777175964583799 
-0.3718897093464844 
-0.3760121006299961 
-0.2993393798385112 
0.7773093061089058 
0.05039788198907379 
-1.130130628881094 
0.4407601113582119 
0.05064391608554546 
-2.137432811096979 
-0.6545751956136437 
-0.9820237137724278 
-0.3356358052431314 
-0.2202941604719704 
-0.9534909137116442 
-1.11958546011613 
-0.130076559709588 
1.051693216139326 
-0.1843468339776211 
-0.07531186954472614 
-0.1960079119299909 
0.2120585661555994 
-0.8416696823169453 
-1.006254802429046 
-0.3882626061607938 
-0.9036360540625109 
0.05774832091703644 
0.4658858743849597 
-0.5996517157978722 
-0.8298925239419415 
-0.1474281473622617 
-0.5753924818313441 
1.411050799161523 
-0.7933131578366156 
-1.802897639745087 
-0.325878130876109 
-0.3355681224037164 
-0.4103098281479199 
0.5902067959653853 
0.2630295525853726 
-0.3090722268809512 
3.569589410622865 
0.683648064723522 
0.2226947389650235 
0.1484189555891209 
0.9614204199869456 
0.08224953952573276 
-1.270178091461511 
-0.3756452590819874 
0.4687093032227334 
-0.7798189454054149 
0.4322362326648172 
0.2066725091524625 
0.3901777993386742 
-0.008552809756873869 
0.6223249591633641 
-0.5139648097109888 
0.3706592421622101 
0.07344219566816167 
1.655373631681127 
-0.240012107677815 
3.567508185063527 
0.2984554530779969 
0.3513343526493111 
0.7953369798294363 
-0.07571679292092236 
0.6431224689300777 
1.551962313108522 
-0.5820074614282121 
-0.4525639044195695 
0.6361472720082382 
-0.05385497469492343 
-0.005574286901611656 
0.7163416249023351 
-0.8091605974775289 
-0.8686347020154844 
-0.6570030826046847 
-0.8164990771993329 
-0.2779541020141911 
-2.090344073044278 
-0.5216335464801788 
-0.3786427603446386 
-0.3300872861532764 
0.8742860774921084 
-0.1259291416967812 
1.015975951810746 
0.8863887189799393 
0.6233351211178455 
-0.5897742323951646 
-0.08217486392428988 
0.004270177356519209 
0.09149174431869553 
0.03687122053582011 
1.759148252514449 
-0.0924413923038935 
-0.963539140832434 
0.6351474901573074 
-0.4022672458722751 
2.991897506254141 
-0.5886851125883424 
-0.07791472545511147 
-0.9162125707759383 
0.8328480788159075 
0.07415162430872108 
-1.066227656296476 
-1.770558346636109 
3.178523068598477 
2.062441887187775 
-0.6968169349866337 
-0.4735968856607584 
0.1313586332764988 
-0.1176408943489931 
0.3178696320087422 
1.148859447369686 
2.069643230036387 
-0.7797542197487141 
3.993376888401192 
1.16215208333196 
0.9182951227229691 
-0.231048129155655 
-0.2258917943685128 
-0.1619281215704392 
0.2135570939640305 
0.4937588598252095 
-0.1218949700088796 
-0.7174782058420908 
2.501961522768552 
0.07441777520822605 
-0.7565257945997469 
-0.263788807452573 
0.02959000559484639 
-0.122182061087498 
-3.257307429269792 
-0.008724303786826261 
-3.219820304892981 
0.9104592148604124 
-0.3480178730327441 
0.1495520630807993 
-1.205041499298648 
-0.5556826073911244 
1.138029976771601 
1.335109584023408 
0.9590044063441029 
-0.4466941507750418 
-0.6646321526644303 
0.2120770670857879 
-0.2202646244561187 
-0.9141211029300439 
-0.5083209378373463 
-0.5780097186016315 
2.214569064605371 
0.5716409509581983 
-0.6532972607761514 
0.5385038387086256 
0.1733142195612681 
0.2646191575153114 
-0.02263833173412855 
-0.6669145988442825 
-0.8884284647395952 
1.545858188312371 
-1.356180139256429 
0.3159101290196696 
0.1249257508558042 
0.5856438721858197 
-0.8267702847361104 
-0.614766079601673 
-0.23066964731064 
-0.2847471420860336 
-0.8746190770358612 
-0.9551091266655707 
-0.008779977892283462 
-0.8267824492399628 
-0.109475962589317 
-0.01602122328859864 
-1.346974050499248 
1.112803987728178 
-1.42155869583258 
-0.2353621373138365 
0.1179845967509688 
0.3337558288365418 
-0.4078142237921445 
1.264931861375624 
-0.2836311261415551 
0.3765155203472277 
0.8262368309926189 
-0.5424775041359607 
0.007549433608436804 
-2.042795633616067 
-2.349702514116032 
-0.5959135090159454 
-0.3982584112041367 
-1.404325242560473 
0.2255233285921931 
-0.3037398711912404 
0.6976001756305064 
1.821976749065813 
-0.06510977126292256 
0.8318437002333241 
2.92972859126729 
0.5726168204099124 
0.3835410245436852 
0.5127979135997864 
1.15398057802512 
1.566650512314475 
-0.1674527574120287 
2.439214109180804 
0.1452652204319548 
0.2459939933251545 
2.459737774342338 
1.904922530807233 
-0.7744384966015382 
0.2789935797146323 
1.63907014558616 
0.01356637977029201 
0.8601834962011964 
-0.1706800257845369 
-0.3424646249277271 
1.420695438901623 
-0.2656922713455365 
0.02569418263234781 
2.020594072462632 
-1.893636082576842 
0.03134163861658772 
-0.1088556332583364 
-0.3788584376982961 
2.596374327004602 
-0.1029355361052507 
-0.4897345851295619 
1.576107482356427 
-0.912614836331736 
-0.2120848990560834 
-0.1236607628236872 
0.01592630085746698 
2.057389855494344 
1.628346503336345 
-0.01459953684948691 
-0.2667148530884665 
-0.3411802498191725 
0.4019139922525052 
-0.08282870497365145 
-0.8291554101174986 
0.03623391197261628 
-1.135669685155791 
-0.2191653024572168 
-0.1642866510534702 
-0.2902131845805743 
-0.006162946732674902 
0.2670352387728275 
-0.2054029002666151 
-1.362029530340314 
-0.1972936301983338 
3.745131342439305 
2.323806577385171 
0.5274266199439841 
-0.5008179424116191 
-2.254887445756824 
-1.360990459336539 
-1.475017614384107 
0.6892162474089717 
-0.1277848432097035 
0.351201575311024 
1.041149685155975 
0.5231936942729544 
0.0278259439851106 
-0.728305166805977 
-0.5602885967952282 
0.9985476126019789 
-0.4282250489727044 
0.5938349933838651 
1.924112321919767 
0.9853302051946533 
-0.3636931454234454 
-0.4842257320136764 
0.8127063187972999 
-1.50992223842134 
0.2899868970185618 
4.478928606296497 
0.9439459242517206 
0.9571845662385361 
0.1457279249445073 
-1.59342215175646 
-0.2383452467675511 
-0.05927525355738528 
2.752924378257169 
1.26205917637488 
-2.256927379053228 
-0.7437548008871994 
-0.21032016683167 
0.4634706548505368 
-1.760122782352311 
-1.784492292294763 
1.687048697840277 
-0.6834212834435932 
2.457173290177742 
-1.098111935833301 
0.4298121705601289 
2.777179514144769 
-0.9801671286494449 
-1.680358825726789 
0.239510266533899 
1.309177313924922 
-2.068769872811771 
-0.2754826722242858 
0.3974395490966935 
-0.2785405700762352 
-1.398611064455894 
-0.1704404300426721 
-0.2649841113069187 
-0.1946761136091804 
-0.137271127688056 
0.01435987946582185 
-0.002027027630903983 
0.08161983890287787 
-0.0642607191430188 
0.7894489035506317 
-1.523217639749721 
-0.897240306484285 
-0.7119683247550345 
0.4064946490166083 
-0.4593145356633062 
1.140944221698156 
0.09939297415507314 
-1.003883642147923 
-0.01573796549366966 
-0.03129954030156828 
-0.4361969039051856 
4.53622150408846 
2.055318691104953 
-0.03771155517937792 
0.07073472435351989 
-1.523808086400446 
2.28823188488638 
0.5883982919254227 
-0.4277556074847815 
-0.5385340305098667 
-0.2327465958121964 
0.9668792205360669 
-1.633724972987682 
-0.3669006821222166 
-0.7162647310846638 
-0.2073492516659086 
-0.6487534130114941 
-1.535934641612907 
0.4576527682542105 
-0.3212169744229209 
1.129086029509845 
-1.608857046364802 
0.2242812220394235 
-0.4324922014338061 
0.3110050796907606 
-2.401026909715851 
2.033239541975949 
-2.571081115145183 
2.022076597583454 
-0.02227341939643094 
0.04540447459556786 
-0.04214484426726735 
-0.8269566804920566 
1.567937334515487 
0.1315794933523291 
-0.08313343671881088 
-0.3740472581820882 
0.3893820738112121 
0.4842700932361588 
0.9374025160905546 
-0.03838360042131393 
0.8297845789983236 
0.6092451641216907 
-1.159653989491015 
-0.8205745700350682 
-0.7482934588698839 
0.09655455662916183 
-1.322120473580212 
-0.03370810058379474 
-0.3926776516094985 
-0.6859521610535956 
-0.2125974503709171 
-0.1419690798026323 
0.4731054094092511 
0.2385815163117798 
0.001415054040809434 
1.571390396907345 
-0.9705154747482942 
-0.7288908404424588 
0.3326960841565245 
0.3787577667302995 
-1.342166490327358 
0.2738803907672642 
0.6566512907082854 
-0.253119378571622 
-0.2734275548144807 
-1.114534340591719 
-1.098564228760772 
0.3015488663961958 
0.2885461943251023 
-0.7817092979651004 
0.01937261032075175 
0.07595824873035315 
-0.7366538027613326 
0.1127296317727014 
-0.3144568669123079 
2.571123284246569 
1.995594045834468 
0.1133874048484492 
0.3074377248698108 
-0.08635115612271367 
-0.2605154037671518 
2.685071289090938 
0.1231392236558408 
-0.447368285667941 
0.3035422774764331 
-0.006857209163095291 
0.1564567885752656 
0.502527013937612 
-0.5187294592298155 
-0.05604947215035935 
0.1522337338461856 
0.8091177490241457 
-0.2475896168428368 
-0.5833690100501882 
1.405841982606367 
4.015232606539968 
-0.5185130047834401 
0.6360531003106725 
0.8741483339122711 
0.0247598693992025 
0.26843699839998 
-0.3884316234548615 
-0.07696889470863774 
-0.04595768931870561 
-0.5591496475110942 
0.9225106382812763 
0.3071872418999487 
-1.081440463500323 
0.2133091538307831 
-1.255472172549897 
-0.2638433633751481 
-0.1767055457543025 
-0.3039466961508072 
0.082984424995628 
-0.7174267497591725 
-0.477665028422075 
-0.07384065492655208 
-0.3644070243881737 
-0.09985021602563306 
-0.2069345011441769 
4.313809876896004 
-0.02819429215318898 
-0.27749614476434 
-0.2102546997509847 
0.8595659551660032 
0.4655812245011384 
-0.09163034692482069 
0.3373810466172238 
-0.2394559160770109 
3.330484760661593 
-0.5414716684996241 
0.2692500371633624 
-0.7726631696127297 
2.609830026817813 
-1.624094343009867 
1.88726247087351 
-0.5470167262018601 
-0.1796765455385352 
-0.02457125853250469 
-0.8717736760879038 
-0.2940510930370425 
-0.9165988810632886 
-1.049946685804626 
-1.548038672099838 
-2.015783894364235 
2.037328314360286 
0.290952594057443 
-0.2514432812284865 
-0.7419522937707087 
0.4733633169551055 
0.07128595684054831 
0.3585970310167045 
0.2503573249544014 
-1.294710392015632 
-1.35977716473413 
-1.129945038232726 
0.1793653552774921 
0.09408770429535035 
-0.07673222725804414 
-0.2808554595328862 
0.7538032240870248 
-0.8108520104688183 
-1.587778254187263 
-0.6317581935604362 
1.092773814470449 
-0.172398339624671 
-1.134004312372864 
-0.02876300690978164 
-0.1061987103373083 
2.826329560545904 
0.8372025275602845 
-0.1158177049626937 
-0.167955776783704 
-0.02782003246650101 
1.920149567965327 
-0.478783002149298 
-1.88850672385395 
0.8194692580982921 
3.07852755472577 
0.4501697383975974 
-0.0925646233743837 
0.8039392277938953 
1.125603291033764 
0.5122979895374065 
1.450684022784888 
-0.3626496594034161 
-0.5141400730129639 
-1.532077410695788 
-0.3666534500549561 
0.2904273726842145 
0.2550819404167236 
1.456908635383977 
0.306774408229061 
-0.4018493957571731 
-1.534918341473147 
0.03906313572980027 
-0.1434223150860757 
1.916968354376509 
0.2486820800344446 
0.577664755130128 
-0.06779691878923079 
0.1057458924539126 
1.874267251542992 
-1.37026341372396 
-0.5360897046885776 
0.2633701412061468 
-1.679897745516996 
0.1873073913446463 
-0.1673808886208157 
-0.6435712123322059 
-0.4892179544512864 
-0.08308887545109557 
0.02752933498000263 
0.45373791216524 
-0.07889845224977657 
-0.8472114168437824 
0.0167796030793115 
-1.373910704521078 
0.7599241562335434 
0.3995944095646451 
-0.3061375935583196 
-0.152197146833084 
-0.1628434017142075 
-1.207355483587921 
0.5870324570445228 
0.4701643090442862 
-0.6086604761600576 
0.3648792612288996 
-0.511703815520858 
0.07344842486029933 
-0.7750401040271171 
-0.6514963198920819 
-0.5431848324194161 
-0.08149903202536501 
-1.187023154275826 
-0.4408862370010772 
-1.525252491355828 
-0.4869818460112418 
-0.9595835627616169 
0.7739948812277819 
0.230498599591736 
1.013671637276419 
-0.7885349899125087 
-2.689206633697791 
0.4476377691997968 
0.3849794254635026 
-0.1583916401569646 
-0.1719939639060912 
0.3506490213760393 
0.3774062878014564 
0.4915781389186251 
-0.04625254777671915 
-0.1466671320512449 
-0.09063614066303914 
0.2364654839884809 
0.2535507298937505 
0.1316702038053139 
-1.57648859224884 
1.171832266680832 
-0.1235088369712928 
0.4711530868476817 
-0.1526494868168161 
0.3053527514354704 
-0.3246149620648242 
-0.2789752594998637 
-0.5071152698884216 
0.5589939390254094 
0.3547945965084613 
0.8917518958620917 
-0.5453268344420473 
1.147891564305237 
-0.5007003705924046 
0.818965483639668 
1.506420766587102 
0.1749614226988122 
-0.3816264086313594 
-0.4017041107868109 
0.3390769522364356 
0.4940871114873545 
1.084759703592945 
0.6074252762653152 
-1.942811050259776 
1.37163957560152 
-0.1703432616223015 
-0.1751455176273775 
-1.352295404973272 
-0.8462495950536651 
-0.4385349742405583 
-0.1258593398977256 
-0.2222155420934371 
-0.8931105333735784 
-0.6474719624713693 
0.1578751509175892 
-0.2183306965976304 
0.3889213164447774 
-1.499457169818176 
0.2846657771160436 
0.3179436543300219 
0.7273730420208853 
-0.566769609342837 
-0.3077691786365273 
-0.7187452164528108 
-1.590675800996204 
0.01472704419545039 
-2.153625024140632 
-0.6062546154424377 
-0.3392930023469726 
0.05477369437881095 
-0.7229859260382187 
-0.1470162658920445 
2.091680437671868 
-1.084370563595822 
0.5987009257134628 
-0.6284624160067803 
0.07629787774843892 
1.428101091652127 
0.3037429968186339 
1.398680862207703 
0.2031113154980377 
-0.163306633267891 
-0.2930124362466943 
-0.5127495747089732 
1.190421023128613 
0.2383771464412798 
0.8909799454664272 
1.44594718550401 
-0.7391183987748037 
-0.5759973381438824 
0.4220850502267425 
-0.1677672936897159 
0.673174584457506 
-0.3498449801543428 
-0.0902053675570274 
0.02457283521620234 
0.8985204103521225 
2.069444109862878 
2.439913142947669 
1.063738073402702 
-1.361695422984154 
0.6011137970855779 
-0.9996672016302456 
-0.8253666511628189 
0.4394327995561408 
-1.032988972919106 
-0.6274402690553844 
-0.3161525794521337 
0.3749962311401 
-0.4027293247201491 
-0.3323126638983916 
1.623892556152847 
0.2576846741901488 
-0.2154873692343371 
-0.5450420526331645 
-2.587981063593978 
-0.4781029024316214 
0.6339926253972739 
0.6068667871577441 
0.8708023116392412 
-0.5526126622923371 
2.041702399700909 
4.141679604344473 
-0.08537312964816081 
-0.2083479131456827 
-0.7520988226064785 
0.1646319296787458 
-0.4506068686835717 
0.6177890511587891 
-0.05131370467606716 
-0.4627817310066853 
-0.07314484950249404 
2.109413906743755 
-0.2954851939933185 
2.012455156269196 
-0.5304095369114533 
-0.2077080745917089 
0.360808954563805 
-0.1834944199031319 
-0.7209892365674437 
-0.2071648861113329 
0.186718575831659 
-0.007087653715160752 
2.137798541022787 
-0.6220150817518436 
0.2530150515643422 
0.3290902364634854 
-0.2342689469623802 
-0.0125756162768556 
-0.5843961649983487 
-1.947792784298672 
-0.6537283235187419 
1.813439869702482 
0.7529757625103495 
0.1837222218039704 
-0.8451532199211295 
0.5263150159717135 
-0.197197789292823 
-0.7229264368387084 
-0.1148165595037349 
-0.5045311159208516 
0.6830047165509946 
-0.1987577744345261 
-0.200944543417894 
-0.08596282044116203 
-2.061122132708994 
0.5242774480754607 
-0.8725344819694978 
-0.3243166075621289 
-0.653116068534487 
1.007933842771795 
-1.098135601144101 
0.9702972023585343 
0.1232884684917589 
-0.0389120581984383 
-0.07470567396524869 
-0.2081847181426153 
0.1839225777141859 
0.9235768500426668 
-0.5613266026750335 
0.7187998272452482 
-0.08976255515746223 
2.231480936142461 
-0.009227048583726895 
-0.3069566244141794 
-0.4015615162571947 
0.6993804427097481 
0.6260713498494966 
-0.05829977517468161 
-0.9090355182050068 
-0.5344618029276363 
-0.2859781285713166 
-0.2132311978862177 
-0.1708256321166297 
-0.1938848150582836 
-0.2471908011890315 
0.243867587197905 
0.2460820789778246 
0.05026063393986315 
-0.6749605151356042 
2.554293995669203 
-1.865146671660879 
-0.07551043486216287 
-1.434618775218443 
0.07503042766775381 
1.424548540322204 
-1.157851903708162 
0.0980398330400972 
-0.001345614264780167 
-0.1293000055149623 
-0.04144884453355325 
2.871010947452294 
-0.2360601204207051 
0.2479243327091741 
-0.7368681996063264 
-0.2124134768122916 
-0.08418374111895083 
-0.4327867461332671 
-0.3715050759909652 
-2.897628781760717 
-0.127511665635548 
-0.4248984268365157 
0.03863433149027188 
-0.4216474109389973 
0.610204722620276 
1.054967426949603 
-2.301495424027602 
-0.1493218714279304 
0.2271902789886295 
-0.8428527221785108 
-0.1724641903221595 
-0.2403041084324234 
0.2865539025587799 
-1.424399734991751 
-0.0750580245454627 
0.7261287565896481 
-0.01443946628002783 
-0.4359061923594976 
-0.232894987488579 
1.186376284883653 
-0.3998633323291488 
1.75070027521455 
-0.4384109185943185 
-0.09637804547708925 
-0.04712143682600312 
-0.7466503573761911 
-0.06146748385529193 
-0.09006509819043595 
-0.1006065469168416 
-0.1082517610876469 
-2.011326639428974 
1.414457652660609 
-0.3109421894452723 
0.3126766158837693 
-0.7156631651252551 
-0.4330038654710068 
0.5014630313655464 
-0.04982559819439099 
0.07489807688555135 
-0.202370431959121 
-1.015155187077482 
0.2100313897178461 
0.247728539191046 
-0.2676959241483682 
-1.388238432058036 
-1.181105533921142 
-1.409713004968851 
-0.771783493419988 
-0.5953002932884204 
0.1939416896319828 
0.4787003177497639 
-0.3899648648702226 
0.0364691281780208 
0.1514234557555828 
0.8303603368393108 
1.065860266211452 
-0.4936523370454038 
-0.6832545784152867 
1.205543068812093 
0.3195246951614177 
-0.3019458891610171 
-1.538389524427251 
-0.4008980952105917 
-0.4967438919989694 
0.9716031899700284 
0.1405276289329968 
-0.2006413574052524 
0.1472556242657207 
-0.2991198776734753 
1.050486028502193 
0.1036593109323981 
0.507727910412101 
-0.742502201031158 
-1.705353400213252 
-0.3046918759249378 
-0.8326510891590296 
-0.8471971157132224 
0.3422430703070328 
-0.3760092394187621 
-0.7422381074350937 
-0.2976407833071407 
0.6103025072894939 
0.2158247657150737 
-0.6513231551377826 
-0.06248087284590927 
-0.3530395422723827 
-0.01738174363098316 
-0.02537006777829511 
0.2047799179781625 
0.8979192966527255 
0.1536169145959889 
-0.2585630382966341 
-0.7718459574919974 
0.8096266431247117 
-0.3908826403655501 
-0.4906245613892653 
0.01138224646744692 
2.082814695470987 
0.3467277113727956 
0.686996762922479 
-0.1668339350354071 
0.1472552219440496 
-0.04905306858817036 
-0.7325272496337173 
-0.6383694525892555 
-0.03741690884899818 
-0.8644289345387494 
0.5436842006538621 
-0.6172436254376795 
-0.288013469895526 
0.3379480775019073 
-0.5678511160638376 
-0.08080238951113025 
-0.7000153974267059 
1.811262598481455 
-0.04202780625555633 
-0.2292465635521916 
-0.947065549832952 
-0.099339875143251 
-0.1190941260500793 
-0.7527154557496313 
0.3292956525713276 
0.06241548256985248 
0.06095340347105596 
-0.194981267864808 
1.277312584154647 
0.405437087109397 
1.041063467673711 
0.3597098981795305 
1.027141854724735 
1.292642062140632 
-0.5084947193461442 
0.1405792288498369 
-0.05303687650554131 
0.149737348895913 
0.9086873456159331 
-0.05298899629689056 
0.4067321523719267 
-0.9540359156253325 
-0.4050726194163959 
-0.5416466501816526 
0.9109554919360175 
0.9579351166652391 
-0.6893749289444887 
0.03512240485785038 
-1.324135021976646 
-1.041058280575604 
-0.02650523218382456 
0.4201040135614617 
0.1158409023979576 
0.227935327166976 
0.8326775862474293 
-0.5137831409757014 
0.1319698843187355 
0.5167665101981572 
0.08302369028970814 
-0.3224711110883856 
-1.405778743692868 
-0.1034969569961129 
-2.087075069134794 
-0.1761656852752104 
0.00659967754579583 
2.2317775078925 
0.03096386650379596 
0.1234171397063549 
-0.3721239898951844 
0.1506380746723995 
-0.2521948297950666 
0.03889495904114659 
0.1609754545679517 
-0.0419980548845118 
-0.2056894995755468 
0.6124789179315152 
-0.6923893418135265 
1.788647910519326 
-0.07511987980079779 
-0.1836711611785886 
-0.2945699560987405 
0.3788249661746702 
-0.2448959962468005 
-1.631397869303226 
0.8116424154082692 
0.226106101156161 
0.3864337451352944 
1.151134603915912 
-0.2587032391015983 
-0.09637357194833797 
0.1467308517485169 
-0.4537170962444894 
1.042543137954216 
-0.4238079439021476 
1.449639511568362 
-0.2447535017564265 
-0.2360812928061639 
-0.2049194762559912 
0.1237551677880909 
1.73820106375932 
-1.192970065777367 
-1.42813435141381 
0.1414805920840948 
-0.01641289072346959 
1.056749006821706 
-0.08871566427949441 
-0.4748769617765429 
0.6790048553536153 
-1.161929336735401 
0.9294717539298355 
0.2601365040132314 
0.3310833832034306 
-0.5397915050705681 
-0.271178013084463 
-0.1436447668483504 
-0.08595677859676089 
0.306644739699068 
-0.4188984262945792 
0.5245557082591912 
-0.4023097821658309 
0.04360027934664247 
-0.06452007436746254 
-0.1119692917348406 
-0.3376946185362601 
0.3368534258859733 
1.393254413733751 
-1.617610514368202 
-0.05774335941592275 
0.1032648587016225 
0.04253713222735089 
1.392539815854984 
0.2288851572924833 
-0.4814592586810769 
-0.2563470032000579 
1.067357245884161 
0.3218639594902597 
-0.09138922892333534 
-0.02073882835682656 
0.1788875102849202 
-0.4004249655581535 
0.5190599827028138 
-0.07011529198024945 
-0.3287991808924024 
0.4838460199795155 
-0.04299770414918638 
-1.168680664904704 
-0.1125979627779937 
1.079023157049271 
-0.318894082269611 
0.3322751524020726 
-0.6621572818944319 
-1.601009592056267 
-0.2417901426437448 
-0.144167731679272 
3.149465701709201 
-0.4704073843912883 
1.883888500139946 
0.07614994729884871 
-0.1210244618350116 
-0.2166543439690985 
-0.3093443113328414 
-1.094724150844112 
0.6196641155899874 
-0.5105912816983078 
-0.9161319142256173 
0.509366840558924 
1.310486823587456 
-0.2751242447306374 
-0.1100153758499221 
0.7335741015535144 
-2.210226672005936 
0.8567417553846217 
0.6022031860782824 
-0.1485841752802441 
0.1753103692210705 
-0.1319860512644287 
-0.9374819514829928 
-0.1817161014784056 
-1.866705393550764 
-0.2916378422546805 
-1.505789390253064 
1.021628100021787 
-0.4767621747923514 
0.067605832057996 
1.051437530022746 
-0.9130271954229277 
-0.1336725367799999 
-2.840416140233916 
-0.03059484879845448 
0.008784161219974664 
0.01349352381859247 
-0.0529278551176733 
0.315796180356179 
0.2931759729109601 
0.1070942540122155 
-0.1011246957717678 
-0.02302492870141023 
-0.3400702977086154 
0.7450286732199316 
1.459135255497775 
-0.2801846569018198 
-0.08868372057273113 
0.473825817575913 
0.1812546186403083 
-0.1483295621552023 
-0.3878364155043578 
0.04389569276761255 
-0.6147041936713808 
0.41398544518987 
1.271034763550765 
0.03118930865816334 
0.3790075616054783 
-0.3998476913087813 
0.2358355911615916 
-0.9688162482524388 
1.627133269037611 
-2.249919236217076 
-1.192495386369198 
0.259040717608498 
-1.718130213342224 
-0.548225581277171 
0.8481391235279059 
-0.4937331796072588 
-0.1347957848742757 
-0.3917088132884584 
0.08189528361750036 
1.49411276493228 
-0.5752182332654098 
0.0231523043755675 
1.670744016456412 
0.2074945031521335 
0.1075717518778732 
-0.1326725870099369 
1.004622035063218 
-0.2296875198570337 
-0.2676953920882647 
-1.095113273873658 
-1.737354434890957 
-0.778714110993231 
-0.01244533141136302 
0.6589384838915874 
-0.06553930518232078 
-0.5384609995603188 
0.9386299558598027 
-0.6323451204936735 
-0.0752200482918904 
-0.2128875302081554 
2.504567556712474 
0.04664068490710623 
-0.6332346531205585 
-0.1028231368638932 
2.829776293613065 
0.6918626876264606 
0.08224952949866927 
0.1677075929300226 
-0.09839814502731087 
-0.6672104194716373 
0.5359675287320271 
-0.4397516739722948 
1.998636370646879 
2.181213541733473 
-0.1726238697958215 
-2.558026522773548 
0.241286092841253 
-0.6809579571025957 
2.018825993672391 
0.4948688676643292 
-0.401430394659173 
0.9719675284673743 
-0.09269246210854573 
0.3822101752981394 
-0.1466946488798147 
0.2493073383905896 
-0.3684683659004072 
-0.4340216056468239 
-0.6082425013030062 
0.2232041727473725 
0.1589995225944993 
0.010140500572144 
-0.4375797740850322 
0.7281399677953746 
0.2461286928776819 
0.1622544623586016 
-0.2417095944225942 
0.5019678380651733 
0.2219713112453481 
0.876769950747463 
0.1292508353890746 
-0.1378040057165817 
0.2504116977613579 
-0.4640108502478792 
-0.1455410822596734 
0.04518953787048922 
0.6733152359854679 
-0.4707539428975282 
0.9839714568711954 
0.7421380479808188 
-0.1359584694059067 
-0.1010082402332059 
1.389538344212153 
-1.304679209289876 
0.04632908180100147 
-0.9357304910885351 
2.442993877345826 
-0.8780517478175773 
-0.2851429238866575 
0.2423064755146273 
-0.3491760872048285 
0.3131129570076578 
-0.1983620972561253 
0.06091475452303281 
0.08967561298957719 
-0.8028970202065449 
-0.3470253814042573 
-1.225155355115051 
1.285080168605982 
-0.09710870134709519 
0.08347116971317312 
-0.3275920161118244 
0.2841568243808744 
0.6647627474812093 
-0.6532000380360927 
-0.9170020432681171 
1.914251083666368 
0.1697491710917231 
2.246687529743312 
-0.7101526606506501 
-0.2210108701117583 
0.382941972025417 
-0.6156739668188556 
-0.05855746002023527 
0.3945745485278728 
0.5614997984845091 
-0.2696441266088884 
-0.6866183168868983 
-0.3135153817723397 
1.519638484413551 
-0.2685953900394717 
0.962806851092304 
0.04685448440477391 
-0.332593399135504 
-0.05083176704735447 
0.1277086480866542 
1.921466611117244 
0.005680092098202172 
-0.4804648844107268 
-1.636706858129044 
-0.429111589462755 
-0.4821264531683853 
0.7718052494580914 
-0.1623161467764384 
-0.1880024586754913 
1.847093153804126 
0.5323815043303759 
0.06574317407272443 
0.546538897750064 
0.6241963281996736 
2.058098188506951 
-0.6767845342517794 
0.1347833973357785 
-0.1870487954819938 
-0.09019416402670884 
0.08485377328278566 
1.612591689805367 
-0.09413100150196368 
1.11552472567666 
0.181324485674906 
-0.5465838617906551 
-0.2799494944018052 
1.240687595059865 
-0.3052688168204826 
-0.2411037296090104 
0.2043590271303436 
-0.187159917558426 
0.4966374948123417 
0.9248396445599547 
-0.07397302403737177 
1.524749243803775 
-0.3199299019487041 
0.6075925601441335 
-0.1420366738947288 
-0.07129797277234283 
0.4564531227069407 
-1.003976347134517 
-1.112426776228652 
0.3340046409782507 
1.137570634741581 
0.3399504314012869 
-0.2030932351271723 
0.005064097372377544 
2.689787351329705 
-0.7991196988267927 
0.2524843058444247 
0.01486803348179719 
0.8995984635469894 
1.276796191262567 
-0.2707809033304551 
0.136548493569571 
-0.8860679332362177 
0.2445041481608068 
-0.0816017891092557 
0.1494901391557426 
0.1750888470991244 
-0.1302719248133304 
0.6780097937883507 
0.8377143913262032 
1.878352630410598 
-0.7335695752141098 
1.062310913460806 
-0.1171705253774604 
-0.8302991510834261 
-0.7502868896164234 
-0.1634157049232513 
0.01295158645090158 
-0.2443324625647513 
1.723143287621328 
-0.07233392564278451 
0.06277104810077992 
0.04471487208438146 
0.9619591187529122 
0.03999329278784327 
0.5611678219672569 
-0.02013509242482699 
0.216488712800116 
0.07562783515975384 
0.6132253822275258 
-0.0993335818527397 
-0.2706460239840578 
-0.6682760365396166 
-0.1937995206563884 
0.02423660215476945 
1.308261513541989 
0.3524586255768435 
-0.7136317325158854 
-1.073995714647538 
0.3370503621128675 
0.2286056978025576 
-0.3215654224666599 
0.0106989132695538 
-0.1591645025420423 
1.322132646099988 
-1.740993630158077 
-1.266719798990446 
-0.4202602873119117 
-0.04551762786723836 
0.1599995779488222 
-0.2015519049581745 
-0.1738421964203718 
0.819199730944439 
-0.8337664271981207 
-0.940836102010442 
0.2152400964207704 
-0.1425583285886501 
-0.9843674824763108 
0.2443937138542887 
0.1704786674656904 
-0.0691884592933228 
-0.06147437982614904 
0.5115323872190669 
0.8678918614980635 
0.1907192674955159 
-0.07108597453319664 
-0.3040479977384289 
0.1857299882115713 
0.7850543208561807 
-0.02287514200926978 
0.2495991819345315 
-0.1957480481662603 
-0.4928662186993308 
-0.205228101869307 
-0.6022892593959963 
-0.08770249748177823 
0.5123059999168595 
-0.2431225261562675 
0.2681501856491004 
0.6562741144408816 
-0.1472910575611834 
-0.2457268180446537 
-0.2538387007553583 
-0.2744174884311378 
0.2770961750211454 
-0.09143124363306476 
-0.4914933847121729 
1.883788743341502 
0.6752949209113021 
0.527408292143796 
1.424937179619671 
-0.413400274783016 
0.1521788868054724 
-2.47464453153749 
0.2095311761743377 
-0.4667153112946133 
-0.4617357308762529 
-0.1607583203409781 
0.4140138605403799 
0.5248097108093335 
0.3406062590708467 
-0.1771918641169317 
-0.2581726780642399 
-0.2330099278556106 
0.5683510815841971 
-1.23049293714301 
-0.5792172971784988 
0.5713945508506878 
-1.002771095510341 
0.1414268539567383 
-0.3371140013884383 
-0.08828301704206236 
-0.8650430798837405 
0.7209717944869485 
-0.07320409684102783 
-0.2246970965106795 
0.9037683704015823 
-1.421677393910003 
0.8092667068146634 
1.194463014371735 
-1.143243421466505 
-0.5210823125578304 
0.6070315672857999 
0.2592711203728841 
-0.267910138200189 
0.2333710703486378 
0.07465871224080128 
1.289431685527537 
0.1713458846586615 
-0.2956288656959762 
0.1049409858937087 
-0.1778355700946299 
-0.2847759652828836 
-0.9794192438274681 
1.735321704691229 
-0.04329358887129611 
1.51424299672644 
0.02504648805960816 
-0.2615419508374385 
0.04383040527388165 
-0.1945228652055047 
-0.1508544648853881 
-0.7024235142684986 
1.295567080107517 
-0.5017498024658036 
0.2044502614016449 
-0.39178638366564 
-0.2150085366201468 
-0.1747311438628946 
1.079252712933152 
-0.2158419188413876 
-0.4436848263174152 
-0.8906017823120808 
-1.1532272647585 
-1.969272357215232 
0.1400746510381986 
0.4346846489060509 
-0.04289210674049777 
0.4791011205084129 
-0.03372316577961818 
0.09948557988981817 
0.9088528753753045 
-0.3859339950022778 
-0.8191384269588203 
0.1597770505303207 
0.03682871006637952 
2.296754497317782 
0.006605690401169183 
1.174917344962657 
0.1093973795760055 
1.310423888145524 
-0.1365855852952172 
-0.1173753896146089 
1.57548811794331 
0.561114023424661 
0.4962792132589185 
0.01483063901072345 
0.529620189964052 
-0.1306647117657128 
0.006533548711302532 
0.08766440512983213 
-0.03540352135644507 
-0.2235186392312939 
-0.9581295808000468 
-1.146148332326777 
-0.03676620503216012 
-0.8500016198188327 
0.6047022199055202 
-1.965693155603424 
-0.9871125800957214 
-0.2325223758442214 
0.7180734064292966 
-1.270353954707222 
0.09360396756410555 
-0.05539684039243921 
0.853465341653984 
0.2015795811330435 
1.346525644117039 
0.4852875061825689 
1.375028433449602 
-0.5122011487247176 
-0.1123877073206913 
0.8945019522472839 
-0.5941135830657693 
0.3203223781505998 
0.9267308114462033 
1.745761487910959 
0.149543296265343 
0.9658925145675487 
1.556056093207953 
-0.3035260664893966 
1.824002191989034 
-0.404722817411956 
0.2859349064495957 
-0.4597728704837084 
-0.3521169459858033 
-0.1303725398230287 
-0.2669711419803776 
-0.1103397335051932 
-0.3925104807471602 
0.7528695769259617 
-0.03818701224873983 
0.2324635036599642 
0.4291139537465673 
0.2956987188703495 
1.269605938084323 
-0.1166082639173108 
0.8086810022374299 
-0.5128204222474645 
-0.1083685670113211 
1.059624466979005 
-0.3818168933667943 
0.7676288112137851 
-1.663064718986463 
0.3338406553798405 
-0.6005534401823095 
-0.006755566302704741 
0.1264748284557371 
0.1067974978676008 
3.062616315461492 
-0.05247504772603435 
-0.001774822966580237 
-0.09296822075163715 
0.5920332049249492 
-0.03606109953392616 
-0.6151419954128604 
-0.3606221097286067 
-0.2034779871565929 
-1.040865719180637 
0.6753372121462367 
-0.04531640936217987 
0.7644373664229921 
-0.002098131407752667 
-0.8912631595615429 
-0.05029113981155685 
-0.07023336674669693 
0.2131246507983321 
0.4183185097457205 
0.4516741833007132 
0.3598848172292861 
-2.203185487199614 
-0.047310262011856 
-0.1573155780624639 
-0.7840618123110359 
-1.882643420069539 
0.437770680279622 
-0.1340660384750154 
-1.024148896825726 
-0.04399260576564588 
1.043701706211819 
1.050724878716374 
0.2426910239673163 
1.0316069591343 
-0.1485748865250378 
-0.216669375457205 
0.001480420262278258 
1.940101077989598 
-0.7412439332639614 
-0.003041799363286916 
0.7305896692082638 
-0.2683070677825561 
-0.1093284066112389 
-0.1269919245737532 
1.674955230074155 
-0.003752183625182223 
-0.07991921591369021 
1.005019918407089 
1.16605537939105 
-1.615023345020123 
0.3082586302452845 
-0.341629301814819 
0.8055325432417784 
0.2891478121961875 
-0.3894006525002371 
0.9288607314668098 
0.7832557384923061 
1.689553225336397 
0.324788161877625 
-0.2910257864061385 
-0.13979298853689 
0.2745220678105144 
0.6832245173262481 
-0.4781745005313535 
0.2043307759409171 
-0.3920726294618433 
0.2635511657486466 
-0.3489326119149001 
-0.04987891212288297 
0.08945447174358766 
0.2990058563883545 
-0.1455449519029222 
-0.2238886805402669 
0.002609923201896756 
0.04150106404485975 
0.05835519627889144 
-0.7396490747877186 
1.20014801698956 
0.8747396944425317 
0.4375430619538521 
-1.174797367158775 
0.0230399154903805 
-0.2982426579460088 
0.04553187429240006 
0.0769840842020713 
-0.1139938353698285 
0.3956284832522372 
-0.2138155792184289 
0.1637202986368413 
-0.9847924718066307 
0.4670901835898569 
-1.036654871273654 
3.153875893277689 
-0.2687298811303309 
-0.263838347446926 
-0.2452163414012823 
-1.25443012842323 
0.5469196615102111 
-0.0813135011797546 
-0.5967348726493956 
-0.3551913100892145 
0.5599901912111085 
0.002123577638191799 
0.1050198014960248 
-0.6017678158035741 
0.7520827614962421 
-0.6552242587746668 
1.193720156987697 
0.1029269346855925 
-0.5681851817504538 
1.292182208870392 
-0.2667529058582382 
-0.09776719246225606 
0.1227938233142465 
-0.03001264453096024 
-0.4832686465806058 
-0.3102417149567517 
-0.1600197756735346 
-0.06375465819108939 
0.233387358280798 
0.3270266136423679 
0.6267836036955097 
0.0248576256445802 
-0.1454491974347988 
0.381835402711775 
0.04121548942515287 
-0.9530242208481847 
0.0001952207579578658 
-0.4412232388700715 
0.02378156685821118 
-0.3100427616528494 
-0.1005976735795849 
0.5354988028227565 
-0.0584295861444572 
0.03781082148029184 
1.145665837071394 
2.32184869486354 
-0.2241894576217755 
1.236492561434829 
-0.6973726140270613 
-0.0900554289290692 
1.309423943678018 
2.552962262813578 
-0.3190461807528897 
0.275302025960256 
-0.2456462910429076 
-0.2091725035729899 
0.5992693710997216 
-0.1288517037162813 
2.027333834345233 
0.2669829167611326 
1.397324031894918 
-0.05686915640867341 
0.7167059117058371 
-0.7607247757267056 
-0.5289738522874126 
0.2073917287420354 
0.830111831903566 
0.4381922812464706 
1.190914203211682 
0.155825668886322 
-0.2326595893291276 
-0.06480157800140796 
-0.03265683141811324 
-0.8156589119089204 
-0.1134018594746571 
0.1931376447429062 
1.040439622718095 
0.2037175649245768 
0.1270622144952576 
-0.04598131816640291 
0.8663987321785339 
-2.255774760369681 
-0.04934654455369816 
-0.3594771518051172 
-0.5753358819709784 
0.3023970142894473 
-0.5700740571569327 
1.331331851777286 
-0.9641384591934683 
-0.3132290875958391 
0.252108695305179 
0.262750602646326 
0.8981130697729894 
-0.6697127073521159 
1.046774086358027 
1.377616098565117 
0.3815282508382088 
0.01321654520904247 
0.04823991420104584 
-0.1441061306401147 
1.370908548552428 
-0.2132054252360756 
0.6344993193446385 
1.076278086731351 
0.2005701162606006 
0.3245755135247154 
-0.8148102037473931 
-0.1523131712670733 
-0.7753307192732719 
0.7016045915734759 
-0.1605660232172247 
-0.3633494801200999 
0.3866905783824152 
-0.09107244797104423 
2.270513462154064 
0.7543141186190745 
-0.9283095668716668 
0.6781589991112204 
-0.1407349685286173 
-0.4169641948100223 
0.4591800613795959 
-0.1132472376559337 
0.1612152963751597 
-0.04730370306475279 
-0.06004764774840649 
-0.1715788611834238 
0.251807006212859 
-0.5320985735990179 
0.001517577291120122 
0.05893881146167324 
0.5736989608891285 
0.4117302497942036 
-0.09779241390269007 
-0.2703153263083718 
-0.04098748067292109 
-0.9894085412261042 
0.003088448344036663 
-0.08345079052452295 
-0.4681395193657099 
-0.08666007608916688 
-0.0234159169251186 
0.007429805372952675 
0.2681261425853657 
0.4291640804906749 
-0.03721429849093257 
-0.5906547718997514 
0.1109156937406708 
0.08127365871975195 
0.5692675197507887 
0.2711868624161659 
0.7957623992234927 
0.1574443518848796 
0.07645890017989532 
0.7420803857308576 
0.3114672813874243 
0.9202932952479996 
-0.03150722907432497 
-0.05377602394638192 
-0.324767667022674 
-0.9986986594278436 
0.8570558641085654 
0.7200534798800736 
-0.2007624526794693 
0.8030951521895736 
-0.02174203113472077 
-0.2214480632855809 
-0.7411260572398749 
1.694016339244959 
-0.4374549605865305 
-0.4681575482456172 
0.6495926731601885 
0.08107431001995401 
0.08507754973874285 
0.1606153155244323 
-0.0192490972001343 
0.01335640073520019 
0.8745559102156414 
-0.1107126825949432 
0.3011181090515145 
-0.4688043080894722 
-0.2593189527223778 
0.3584067270086444 
-1.496061179121971 
-0.6922783548932566 
0.02552684452825164 
0.1919643898348531 
0.01041300913756948 
-0.143546614385109 
-0.362559589728393 
0.08771291410114319 
1.065594842850699 
-0.1682313527399161 
-0.5634699607951841 
0.113338423505484 
-0.1845209189442637 
-0.1199464158989594 
-0.7973922462074876 
0.2297014061088179 
-0.140848351896847 
0.5168440191301806 
-0.9098037655419597 
0.1676425676954706 
-1.923095078187893 
0.298314475990747 
1.006860381788604 
-0.01711514680517679 
-1.393661051376917 
0.4308324493219479 
-0.04008467976323032 
-0.0854960324259081 
0.5671367211116527 
-0.365261555544013 
-0.6885039493317102 
0.08999450499465173 
-0.0833399360249464 
-0.2183082430951391 
-0.04263874634478201 
0.664158972119601 
0.653220226495019 
-0.06669146465085866 
-0.1062182790134838 
-0.02639332631624832 
0.5085957162646837 
-0.07383067345078266 
-0.8008476076986217 
0.3029200244412729 
-0.5136734830455439 
-0.6267426295862045 
0.1501281613564091 
0.5011516640253814 
-0.2317077539863383 
-0.9014141005231829 
2.590938055247035 
-0.4913549837543658 
-0.2197068847486766 
0.4842575420696244 
0.395273845875049 
0.6426049492251898 
-0.120738108787227 
1.43200429021454 
-0.02781334132463385 
-0.03613274169604927 
1.10686478981495 
-0.5846411308010159 
-1.533486475656872 
0.002518945622019183 
-1.475827999014331 
0.2616304774760531 
-0.04236976896924806 
0.297286523309682 
-0.01175050614462035 
-0.2041904038160863 
-0.1677616167210727 
-0.8167021294224435 
0.339575276067079 
0.6776749155940246 
-0.2884225693743729 
-1.0382063594353 
0.7991207243762307 
-0.4412004414571753 
-0.353813012836333 
0.7194715256262647 
-0.04848475180709137 
-0.954826324305571 
-0.7875528469551673 
-0.09380151659737686 
0.7541441124597341 
-0.1051559450457699 
-0.1530577077848727 
0.3708268413114621 
1.062921960597247 
-0.9538720561025614 
-0.1493764729243738 
0.3637630353997169 
1.718121244377633 
0.1297538377852418 
-0.005256578677422493 
-0.2062393746937234 
0.0167995926917721 
-1.352489843866398 
-0.1041597776192408 
-1.454514511558938 
-0.1132382807157901 
0.3149277630044117 
-1.671446717185561 
-0.08635406926853913 
0.5905308656792241 
0.2974715728525797 
0.02395263090570851 
-0.08910391133539132 
-0.2800247846863574 
-0.142999538489784 
0.007506614510270326 
-1.043321291174817 
-0.9526923595210529 
0.3569281640425498 
-0.04771651046655363 
0.4523543344478044 
1.510336044862113 
1.051715142061231 
1.933845247465142 
-0.1190631809017162 
0.6278718211113188 
0.8573220787736461 
0.1821072189477926 
0.4666721197731304 
-1.062055511134085 
0.3933360040402692 
0.6014274055316458 
-0.1540227127382327 
0.09587829177733299 
0.1395450283885183 
2.220178959168912 
2.538835099763325 
-0.9557231498863583 
-0.04830278853270455 
-0.009687954232494736 
-0.872259902730084 
0.6844119805369647 
0.4140956500196678 
1.13060114901604 
0.4247551711210591 
-0.306517541037824 
0.02304516821801982 
0.04933525193707715 
-0.002688366202423721 
-0.0896214889207772 
-0.09622145978555474 
0.1597372734805579 
-0.1181154607049275 
2.51291915943007 
-0.03372399400237303 
-0.6030211323113391 
0.401134328391981 
-0.2342352230201448 
-0.1091118174766848 
-0.2667736830622355 
0.4754265682405998 
0.003070258809821568 
-1.567378800662313 
-0.3983882139382454 
-0.03336715553029066 
-0.7302747556037337 
0.07860836011195357 
0.0703126795217118 
0.252173004285483 
0.1962718398005413 
-0.06617821250004215 
0.2868821247514812 
0.6550153445052865 
0.6543734564248466 
1.705160838094112 
-1.134834730988172 
-0.07739256347793816 
0.6192597627403184 
0.4132463645083569 
0.471301383631469 
-0.7627822521702408 
0.6832709468478158 
-0.07652475627776686 
0.6631692186417234 
1.761445620409711 
0.03911454086177461 
0.7729318262097085 
-1.046224362525187 
-0.4217421223089332 
-1.092296702218101 
-0.04212052019487537 
0.7658505074298316 
0.03949856140017596 
-0.2078159559474525 
1.51243939528824 
-0.2074025956792039 
-0.130552988217002 
0.4213033248620047 
0.7566820931793625 
-0.2710812555080909 
-0.1084436933647513 
0.04675519786154094 
0.02354267546580628 
0.2790255155658102 
-0.4738623757097905 
1.769183706837716 
-0.4115870968586919 
0.329830091424242 
-0.06343832325432426 
-0.2572284981918974 
0.3144825753472478 
0.01825548122956552 
0.1032090900895968 
-0.0532304049774012 
-0.2534545388475787 
0.02410967763497153 
-0.07062077072119141 
1.29234127005908 
-0.2968696570973704 
0.06598483340554118 
-0.04065177859110403 
-1.018216821342151 
-0.01455782083625121 
0.5108287343965124 
0.1398312065197616 
0.4506635131619095 
-0.03919663967329626 
1.113956185702644 
0.2082008520113307 
-0.0914904082908093 
-0.1167543044337566 
0.2460267234915234 
-0.441646313237494 
-0.09423953222119928 
-0.07471847221560138 
-0.4087342760218835 
0.3916284997887275 
-1.094531394292207 
0.3335244327024701 
0.4810567386819371 
-0.03375850214519552 
-0.8329254373835508 
0.7831212551885416 
-0.07079059710862198 
0.3748072407734455 
0.2034279627138673 
0.2199592737213517 
-0.05759464849548172 
0.1370634410092615 
-0.03907384571574648 
0.2605576887792416 
-0.05720719753351726 
-0.0766247085188282 
1.004842283159391 
0.02914686330280016 
0.4023620863475382 
0.01095397922951278 
0.6364694542088033 
0.2670215734039911 
-0.2926743798659189 
0.6955985170289645 
-0.08821347134221415 
-0.2351450668667521 
0.4734831502602133 
-0.1229352313315262 
-0.03501913226292881 
0.2325247386669776 
-0.05032678990908707 
0.5105568590567204 
0.1830225159033398 
-0.2225172192665053 
0.5179242699501502 
-0.09642092786583807 
0.2708967129105851 
-0.5512739693441406 
-0.3474185451197231 
0.07588026167779921 
0.2089509732304218 
-1.88945702866433 
0.01355976023247756 
-0.1918978362795552 
0.7766251092837091 
0.4120782091315773 
-0.3770744380415741 
-0.7489373606016763 
0.9742229647531676 
-0.02943319433671645 
-0.8029320438092581 
0.03782407504422519 
0.8475590813884233 
-0.6444070308173199 
-0.1103171501481573 
-0.4164432918792261 
-0.1978821125422981 
0.3691926243904963 
-0.2569886257002626 
-1.308702010757955 
0.1765133405135741 
-0.363700187566096 
0.6575245368743031 
0.5193537106959686 
-0.7205082714197754 
-0.5672082028893525 
-0.04479656934306876 
-0.1874136906578514 
-0.1367918328943925 
0.22254755618544 
0.01604963796417075 
-0.135125498433104 
-0.07819924553946024 
0.1003213719179679 
-0.291648837076914 
0.2015849504789219 
0.110174720528052 
1.145121982164818 
0.2203879744345331 
0.3521410310435762 
-0.08745728326814413 
0.5699837460014306 
-0.008977802359004621 
-0.865093000457166 
-0.7721550532488862 
-0.01853129041513172 
0.7152452117510812 
-0.1130327736310223 
-0.01330145569174407 
0.1208925265341419 
-0.04199589185052492 
-0.08320224975439963 
0.3605259840767206 
0.3122228129679995 
0.8295666099990996 
-0.3821314878409238 
0.3819094582802808 
0.2780994692234717 
0.6807631512144109 
-0.05833282860391314 
0.04497792489986778 
0.41329743953498 
-0.09293076746653166 
-0.1498543835015081 
-0.06829688460010601 
-0.212633132048382 
-0.1788932115232345 
1.102894800696554 
-0.1828127018664767 
0.07017298790118801 
0.1459860855308098 
0.8940489206002323 
-0.207144586539345 
1.585358887866795 
-0.2715788797375686 
0.939509138556877 
-0.5503481280488749 
-0.9505250044739488 
-0.03744106357178702 
-0.1397749888941188 
0.1457639825047467 
0.4822173076337914 
-0.1312512214697538 
-0.8399954847620404 
-0.3490875156556384 
0.9283870499483807 
-0.0346978920299213 
0.04068440898784653 
-0.06490224918612966 
0.2528075661282761 
0.1271203128796504 
0.1580349533451714 
-1.660683099816107 
0.2902393560596794 
0.2330564340771891 
-0.1403346586691666 
0.2219464292873504 
-0.1343153349982475 
-0.2838347863468248 
-2.50312661916899 
0.5370124048411379 
0.5037553741945999 
0.1399443435494539 
1.469992516412423 
-1.013913903117816 
-0.3999540916907664 
0.8687717596978113 
0.2103710104264936 
0.6946538255798478 
-0.386529633325995 
-0.02822043403724724 
-0.6570045013965206 
-2.330233074647024 
1.784527729383751 
0.1674229630180048 
0.1731613169447487 
2.251277488929664 
-0.09529181404746873 
1.101415163083773 
1.237136263974491 
1.543140838161644 
0.08909418418544746 
-0.003270033914167576 
0.986404947469514 
0.2872172028275754 
-1.116221996365244 
0.03427427452871621 
0.02433509556297424 
1.444162454908879 
0.02076954412079654 
0.2355000882540737 
0.4437293651822846 
0.07659289687044743 
0.9979108747567491 
0.5109922361485647 
-0.4015611151354627 
0.4731891530174145 
-0.117862184429416 
0.01527092539744808 
-0.1376516975226523 
-0.5772474771014559 
0.1321570274586454 
0.2301473043980855 
-0.0167324421227062 
-0.08090332506988038 
-0.6330444044712339 
0.8926077148002809 
-0.2461042280202489 
0.333555823866348 
-0.1090683539692241 
0.07231586737104093 
0.2642599209132203 
-0.01912083054969793 
-0.2241482594966924 
-0.02268776377283355 
0.02395649866544025 
-1.83821083065787 
0.3630319712161122 
0.2845074653831255 
-0.7398547834503274 
0.6026333937983943 
0.1514136669674439 
1.051764230086212 
-0.4923348845410807 
-0.09184765256987072 
-0.7968052594251925 
0.6055329934378775 
0.5457503234248477 
0.3107359008227372 
0.01208793800257014 
-0.8254277615003158 
-0.2428598578766467 
-0.02156789791348821 
-0.2035094921037208 
-0.5246079664533303 
0.06444002415390203 
0.08254148689027083 
-0.06939105260602085 
1.003026039798472 
0.1663715389865497 
-1.699751051066157 
-0.8221638308087847 
1.975933476319182 
0.8428085660049534 
0.639141046730574 
-0.9626902198041287 
-0.5257227442785988 
0.7542558292116858 
0.391611288193675 
0.4773639937239073 
0.4134115248470879 
0.1907235642685432 
0.4609028293714085 
1.019626962753174 
0.04842298284784143 
0.2763344790591802 
-0.1256236602499416 
0.05104824057020177 
0.5246905493146355 
0.403565857153963 
-0.8046868269525917 
-0.1042650905158253 
-0.1007929602542158 
0.07999443735665546 
0.2097554459336093 
-0.1509539165092141 
0.9050693839443854 
-0.06954857353430448 
-0.1002249643294638 
-0.1434192927727095 
-0.1184532873485107 
-0.04784803682387238 
-0.006050680653572 
0.3797453907033567 
-0.1218998601134014 
0.2242356087586185 
-0.3108714708412426 
-0.05844435919763815 
-0.3256234882366926 
-0.2216352671745187 
0.000287124107878708 
0.6904566454475118 
1.430020663822568 
0.3419540804869692 
1.330283751549121 
1.108800969811124 
-0.08868670567222223 
0.2771856987149525 
-0.7052146130555262 
-0.5640943547301052 
1.90949447348017 
0.1541339032443755 
-0.03709307194602753 
-0.3770496444990629 
-0.1595984344633182 
-0.4632231043978006 
0.1056957236488578 
0.5781194349909967 
0.01816429855709057 
-0.04686170248691762 
-0.1012885101964401 
0.9306854728294068 
-0.3798698655669634 
0.06372091927132528 
-1.133177238867996 
0.2679590828264387 
-0.1260266832081719 
-0.18694474590578 
-0.7726024724824705 
0.2113247504280941 
0.6118215383603468 
0.003541339299308703 
1.039245595919619 
-0.07848525370474975 
-0.176119052825243 
-0.3719396126141131 
-0.206746587240009 
1.347912938051079 
0.1188872419822902 
-0.6499286567468913 
0.0009469923501784819 
2.268454003886711 
-0.01734514970002893 
-0.1402589396559794 
0.3672210026142722 
0.3880524884539552 
-1.587257172517341 
0.309278010110165 
-0.6133417839535628 
0.190490669508518 
-0.3011232800697553 
0.7107063329612821 
-0.04580919985041868 
0.03590254150439048 
0.5706765874077226 
0.7186477070680768 
-0.1366578335953222 
-0.1291248961144472 
0.9182671791242092 
0.032894011530341 
-0.06819047233338096 
-0.3615464429874179 
0.1453728447724791 
-0.02745774096198133 
-0.2049525240677674 
-0.1908576060350725 
0.009007642118572065 
-0.7558312911819528 
-0.01036451435727104 
0.7807485831725767 
0.7035059997529365 
-0.09413744321041828 
-0.5337008897773771 
0.9544175199315869 
0.09660896858763184 
-0.04502644510983651 
0.001656864765335134 
-0.3257601470058504 
0.067993784248749 
0.01364275972275286 
-0.442566182097125 
0.3217425527369736 
0.1682931391356943 
0.02307379291904574 
0.06447397411072989 
-0.06240235236151483 
0.1158885120263646 
-0.6357242363606008 
-0.1805925998068798 
0.2817155970284007 
-0.1075741526483486 
0.3002830359205894 
-0.207454952270678 
0.1447860392000567 
-0.09511099623102003 
0.9987628130450602 
-0.01545959066351123 
0.1294812165896072 
-1.301715242604289 
-0.4531963242164299 
-0.406099508351098 
2.709895453249186 
-0.3971793010707443 
-0.05847852224316111 
0.2647841728319479 
0.7446932099664183 
-0.03317807428980169 
-1.230258860460203 
-0.2576061848153373 
0.5548695840813729 
-0.06951446494902716 
-0.2449658342210977 
-0.09483897623606929 
0.7643193383354787 
0.1032766542870513 
0.3518423805990129 
-0.05133520861734332 
0.2756927136154299 
-0.0351519926470573 
0.4162528923710038 
0.005551240047894385 
0.05922736891092638 
-0.02587613486908218 
-0.03878005052575516 
-0.3996043122585349 
-0.3498385092223349 
-0.4619016374418941 
-0.2087260237236276 
0.02245216171303316 
-0.3594036324899292 
0.6678387617805226 
0.05385803285096255 
-0.07033051079853886 
-0.04058076473924137 
-0.2971197254193947 
-0.1739826319546565 
-0.9448520573626492 
0.1085128509525716 
-0.1148478602346884 
0.1549053023226511 
-0.0423726384276044 
0.0001211177514816997 
-0.0212800985511629 
-0.1291094982905979 
0.8340259216687365 
0.3110394853087631 
-0.1219997901443201 
1.470617485740914 
-0.06139132297115617 
-0.2102332499154632 
-0.2322545040664402 
-0.07954987763904291 
-0.2246366199561385 
-0.1857917184319705 
0.3956842724371735 
0.00937719291998642 
-0.4320626441876187 
0.1720879564891969 
-0.4171854669299723 
-0.2323615910733773 
0.7202424620929649 
-0.1294537404384563 
-1.340803755733838 
0.2842312402522196 
0.397758331256404 
0.7309885602793911 
0.6846158889300724 
0.02784517967694328 
0.4149760638554035 
1.341926164798573 
0.09208954569304072 
-0.3747968315858831 
1.309645660256231 
-0.951562284815761 
0.6483641276679462 
-0.1991836463705488 
0.1444616786946307 
0.3882320986265727 
1.57471720590364 
-0.07475905451865755 
-0.06556828820551303 
0.05825087874000456 
0.1783920249299818 
-0.2008917983387942 
-0.1723252631966269 
0.3909871859396022 
-0.4473661873156556 
0.5442982865271025 
0.09687776511312055 
1.564903484260818 
0.2499923151457777 
0.1318138782194605 
-0.5531501447978946 
-1.26085713049003 
-0.05417246299554 
0.104791456237558 
-0.3053010227403554 
-0.3120214881850092 
1.478061875083442 
-0.6608565716452933 
0.1847187885062423 
1.484869990299332 
0.1334474652519014 
0.5388902713309361 
-0.6747554666477136 
0.2720547952873361 
0.1583757317671428 
0.07749129090160529 
-0.1050618625317234 
0.2335098722507418 
-0.09834481204697886 
-0.1058553364255178 
0.3788109776169283 
-0.07630774897351626 
0.0926702345442543 
-0.1468369065761244 
0.1138888024881859 
1.169725650209119 
0.8423246620110838 
0.1267397986891001 
0.01750328640668854 
-0.7778786496214709 
0.3548295767158359 
0.3656734556512158 
-0.8530883129910878 
-1.948651955079236 
-0.8843966255981496 
2.180008910111808 
0.2314599130962743 
-1.334431695355323 
0.02663567126304487 
0.1922462967346595 
0.547622442324325 
-0.02903877143084196 
-0.1270709482315908 
-0.09876145138964661 
-0.2421125738619674 
-0.2868955636785308 
1.258347173160377 
0.2326940150408582 
-0.7440018183815555 
-0.3139639969204323 
-0.1276398481474149 
0.701211851508884 
-0.7305040579032265 
0.6874240662304739 
-0.09922023874269101 
0.3658134624876608 
0.6132700254362132 
-0.2500423298448193 
-0.07707236048431639 
-0.2894512879187726 
0.02732334805708118 
-0.07662631644932648 
-0.1052721366978535 
-0.2726845359074694 
1.031756351126548 
0.4467941880918849 
-0.3656416131554638 
-0.5038421054716039 
-0.5278427993032532 
1.039412784026009 
0.05105133722601358 
0.1094927467619131 
0.2736945991842744 
0.06534744525706696 
0.2539958006824577 
-0.03692552670827497 
-0.3347650699140535 
-0.141121594897219 
-0.39156137513876 
-0.1897732318043721 
-0.3315001485358379 
-0.05861047010128376 
-0.1732259511896493 
0.07658662849426526 
-0.3411143766435499 
-0.6384307468516377 
0.5237147952473388 
0.1721634277586522 
0.1674424499369381 
0.749635291327037 
-1.037106706513081 
0.1067107031982014 
0.1310725767112135 
0.43928489423156 
-0.4679681738014651 
-0.3467401971582916 
-0.1388796844950114 
0.9970067731682289 
-0.5162590104063713 
-0.1174178488547863 
0.058930054719941 
0.1139051042907991 
0.3578535788760132 
-0.1135572490047069 
-0.04622110280418257 
1.532007702919036 
0.1500364535090772 
1.014214717756092 
0.04546402607604524 
-0.05306319616942468 
0.02940008747786011 
0.1982276451788768 
-0.414988451756628 
0.6001284624662399 
-0.07526968232259476 
-0.3344853536922683 
0.01127906610426509 
0.3338901719802917 
0.1011819911301644 
-0.07713435697656652 
-0.126043162699266 
1.075637641821442 
-0.04570912214686634 
0.2627978845226596 
-0.05190775069182964 
-0.7162272910535578 
0.1577794894918163 
0.3609152221850363 
1.161084181424153 
-0.1571449499497193 
-0.055295364095664 
-0.288835363435554 
0.2106298801788411 
2.328169520140667 
-0.04562252753729112 
-0.3567414772177794 
0.45076043717564 
-0.04846997843496875 
0.8221180115499784 
-0.03076731664338148 
1.248741182648618 
-0.04410292174820393 
1.42392416925773 
-0.6034441870123007 
1.29705589768392 
0.3845179008690958 
0.2079611166569778 
-0.2324592385847196 
-0.6149601172471731 
0.3969645754569056 
-0.0574584543226058 
-0.734627522628205 
0.2431667256967791 
0.3179270448332941 
-0.08615844070925459 
-0.04104824860733371 
-2.588023101327818 
0.2713942627442382 
-0.01527615279729725 
0.8788695502176406 
0.01348544904358139 
-0.8723332664156175 
2.096499689965384 
-0.3465351311128117 
0.300849857349369 
-0.01034790867487206 
0.3001829585725335 
0.0553146182607779 
-1.006707561377926 
0.4109437288757384 
-0.5880187580443227 
0.2815393542383483 
0.07240829567167491 
0.3815057181201906 
0.02599090502572493 
0.9039475620784034 
-0.03319734659800677 
1.116578459139046 
-1.06578394472892 
-0.487424476303614 
-0.245502536195922 
0.1015353657981182 
0.05340361083236306 
-0.4688821001274647 
1.03240077234248 
-0.2111100586397346 
0.2200627459414743 
0.3973458144799129 
0.3869023114474819 
0.1382493755712687 
-1.275670754396884 
0.08560728060092745 
-0.8914759999417023 
-0.7821325201542704 
0.4243314686246805 
-0.746200513769005 
0.808715234331596 
0.0773545850667044 
-0.5663302291202503 
0.3344503679260126 
-0.2124168668120022 
-0.009235061227831683 
0.2415324341060138 
-0.3940756318717807 
0.007672168266523856 
0.0678320295408984 
0.1376481270771705 
0.8823833676912169 
-0.07152019332193192 
0.6685830162015244 
-0.01430888754302593 
0.5708268585222653 
0.1242845067766492 
-0.1532362111716629 
-0.8363516054110161 
-0.02157047978839097 
-0.7234617068996609 
0.5991867686131643 
0.2440598393511035 
0.0808788250342159 
-0.8760699119455095 
-0.3960338056755738 
0.2213578583378675 
0.2929958462026692 
0.1335609589692428 
0.116843092464456 
0.6115726303328262 
0.1091115422004421 
0.1780716687798954 
1.607368883068416 
0.6658239257196349 
0.0708406021528365 
-0.5634063971899642 
0.4694468537360363 
0.9423974326845851 
1.729679661551486 
0.7656485757289516 
0.3054235807868563 
-0.04701512457969136 
-0.05904551551872722 
-0.1052835311944196 
0.3346197941720201 
0.5363904713179808 
0.006016549380258124 
-0.3935271743025299 
-0.2823696302406759 
1.019073384771309 
-0.1858545416270501 
-0.1124190258346123 
-0.4468562793755222 
-0.04727362783684851 
-0.7698656464494495 
0.03798398542560569 
-0.2335218729535203 
-0.8792141182301112 
-0.7757072199284285 
-1.543593607611913 
0.2268491585961389 
-0.2372838735226584 
0.1546470546339229 
0.8669459121199623 
0.3307527196180519 
-0.7151624039413288 
0.5060546953208777 
-0.8616110449687772 
0.2380254993938309 
0.1582885025320694 
-0.7100176692145743 
0.2205289325162254 
-0.0310668986750583 
-0.2266462938672821 
-1.970681436982609 
-0.80001617812481 
0.01033916656116758 
-0.01924850972551454 
0.9400531925355766 
0.6033150179068777 
0.1531022714892208 
0.4425518003090575 
0.2407459688904416 
-0.06211465633921309 
1.750360633536241 
-0.0582843152326182 
0.4318301501074122 
1.770057579908287 
-1.679736969366387 
-0.7325492136757283 
-0.01470240074072102 
-0.4881798566737593 
0.3803508119476381 
-0.199615937879686 
0.8238132603873363 
-0.1777581038512781 
0.1547017900062914 
0.0009553021659829472 
0.01072692931700073 
0.5573838181337099 
0.03769600278994082 
0.1115700255429945 
0.2033259409542774 
1.295307798110137 
0.387993343531116 
-0.0935597315412124 
0.09074841734263941 
0.1246786390437726 
0.5038501307502984 
-0.0004293263238440311 
-0.3500661926418648 
-0.608514459563123 
-0.5241243616576868 
-0.4653092716307752 
1.326895514496334 
0.1680217411400588 
0.3958449170788369 
-0.1955195816878211 
-0.02227557741358503 
-0.3252584655131269 
0.08232113125932443 
0.6666463336988886 
0.2697097969530939 
-0.2085002062021871 
-0.04995310348313038 
-0.1304681943029791 
-0.1472493080902952 
-0.08407215904064717 
0.2484286761849442 
-0.3195574831707805 
-0.1106816921725 
-0.21251972844456 
0.1411780638924154 
0.1344995748834698 
1.907364106041193 
-0.06895613955944924 
0.1058254510680561 
-1.86537318814543 
-0.03711291007602077 
-0.01514226305309573 
-1.432334713344119 
0.2120829998451562 
-0.152466698135325 
0.1288679471642447 
-0.08400868003432937 
0.004174264430416067 
0.05393566563178685 
-0.07377461483294824 
-0.04585564192669599 
0.3644011253252444 
-0.2057703826395038 
-1.223552083042925 
1.720420576727609 
0.216242525809601 
-1.049747884084377 
-0.187819546231047 
0.24970815965132 
-0.8407564563243713 
-0.4340615412953244 
0.2214610966301657 
0.04002367276193767 
-0.01004730542330657 
-0.06194590024842792 
-0.0721401294377112 
-0.02755548148000722 
-0.5469689062523401 
0.4047190048242097 
-0.03685480347768873 
0.4966458967338893 
-0.03757224262725013 
0.5134944470715267 
-0.08084099783335016 
0.1706429909920423 
0.137197619907624 
0.1611496634303227 
0.5067720883416674 
-0.1909899453401545 
0.102606751853618 
-0.5533824918348228 
-0.4635910502046232 
-0.399159073511802 
0.3402756109826241 
-0.1410953057161284 
-0.2819913282619702 
-0.01805488188630085 
-0.3804777585919409 
-0.08510587780809606 
-0.081511073786614 
-0.121825767215291 
-0.09704762800249644 
-0.1362129079580058 
0.0126444102479508 
-1.01109801036907 
0.049074689781952 
-0.5518675058529274 
-0.3852359080347585 
-0.002451056588513343 
0.1277009271756607 
0.0409141398198883 
-0.5093879737173669 
0.1191719080163626 
-0.09021775795713097 
0.0521828386827761 
-0.6474265331919562 
0.428800454734013 
0.5806858754070752 
-0.01467036930211965 
0.1740107984686583 
0.08332770260232102 
-0.04995633509105784 
-0.3385056814369753 
-0.2053419540844753 
0.273984553196116 
-0.291019007458561 
0.9815840732277971 
-0.107463820281063 
-0.006544665172264087 
0.2506165485629117 
-1.237392149544595 
0.04948580204386652 
0.07529473957628428 
-0.1972044780956254 
-0.2327225455849927 
1.074961941079512 
-0.05345840733463018 
-0.5890600794551326 
-0.4076541085313971 
0.414774268888437 
-0.4804262349567054 
0.6598486609476195 
0.1375242326566543 
-0.4394998709351638 
0.104373922425435 
0.1973794391899971 
0.07633450428070934 
0.9135037471062664 
0.005889634464369655 
0.1188443016891054 
1.211049749957027 
0.8567078253003563 
0.8030321266443027 
0.3446909313589462 
0.1981681376480792 
-0.1691090636512598 
-0.8259301072748352 
-1.535133414367187 
0.2030400872658137 
-0.4636340044411162 
0.05835524461102004 
-0.05913045438988016 
-0.1570231330747464 
1.203274132089628 
-0.1355177054566806 
-0.1327760854688953 
-0.08408681650683544 
0.3161751858755126 
-0.08241005486747324 
0.1629649240453787 
1.373778929655096 
-0.2583587424312909 
0.1875863155048525 
0.07450593240213615 
0.1178228818492923 
-0.09389413173619561 
-0.1175067613463903 
1.022640987983968 
-0.4900275245985069 
0.5447794884462341 
0.290509405169506 
0.6572528018760007 
-0.06981741839683682 
-0.09513317724185685 
0.3586720721438116 
0.3915635745796091 
0.4800744948713672 
0.223734367181864 
-0.3159014645207629 
0.07908265437127571 
0.1216987461843446 
-0.1080483376647268 
-1.425005356091297 
-0.001304655169875563 
-0.02778024475827787 
0.01391125881130029 
-0.1452546483809506 
1.911980724430152 
0.2342395039697176 
0.8644131505773667 
0.2982731732920234 
0.8586622462929557 
-0.4964879780296349 
-0.5871048455669431 
0.1382844857053416 
0.1291117602922215 
-0.1873498638224571 
0.5210414961679217 
-0.01575285222557336 
0.3751951465821591 
-1.204022459022836 
0.8915120747120951 
-0.0780254983062465 
0.2318059136731932 
0.03773974174640152 
-0.5826929137094771 
-0.4344497518935113 
0.3398746919845865 
-0.2167780233133058 
-0.2446883541053475 
0.5596624194209425 
-0.342948950121603 
-0.01846638728621255 
-0.1807255157829749 
1.521223723929529 
0.2366702549606604 
0.8820499445662767 
1.249320852447751 
0.4175842530849536 
0.4841430683717255 
-0.1101624088380674 
-0.2704147974352559 
-0.0005545225264363816 
0.002912396155245372 
-0.4188800584499542 
-0.6977183304031259 
0.07633403425425385 
-0.4656554150243808 
0.9142880600597798 
0.06365134587173135 
0.4007619243843403 
0.758845984790408 
0.380900228334108 
0.4663309671338771 
-0.07162589966944696 
0.00570169162301188 
-0.1890489158734799 
0.1094974772737406 
0.01461641787198774 
0.2862192581324822 
1.161898144352893 
-0.2082634435355298 
-0.1642766610689049 
0.0126489243382928 
-0.2805460984183006 
-0.006857757811097936 
0.395338046154869 
0.03312610337132672 
-0.03334543601342949 
0.1026904114502714 
0.2802252319612596 
-0.6294279158968811 
1.203076622722081 
-0.01124264398822014 
0.2659169893604289 
-0.1409385233340263 
0.002479395358141906 
-0.1210265882011577 
-0.3699274866200532 
0.00874457333910114 
0.2590537869537096 
-0.1826937349352919 
0.01915204695618974 
-0.05061381750282062 
-0.2069523126911704 
-0.755163268860861 
0.1892147891261487 
-0.2410475392912956 
-0.1301773356625694 
-0.3081140593594596 
0.1989143130815326 
0.1041348783482053 
0.1773089863817875 
0.1551603631190773 
0.2842808208939926 
-0.03370899712675609 
0.01222232648445228 
0.06410954727923598 
-0.01899026313749195 
0.0005788543388600052 
-0.3208714574019149 
0.3935745451509173 
0.9357440601121261 
1.669641585269372 
-0.728927143551152 
0.2963025754264882 
-1.924609929304086 
0.09736653193344381 
-0.07589126837906714 
-0.09198375157022645 
-0.2602315203236091 
-0.006923581222125668 
-0.006286170759950558 
0.3791651726668102 
-0.1203510205223359 
0.7066208372197409 
0.8137770153100344 
-0.09005547224204749 
0.1587075411699204 
-0.1714526597850543 
0.2108288018979989 
0.2940840405062353 
-0.04934283490392592 
0.3524268934173714 
-0.1764680643652349 
-0.009389795651331386 
0.02001324875785673 
0.09896344822938864 
-0.4200535519006572 
-0.1285885415476047 
-0.2995418182366623 
2.410803333743934 
0.2458931760718 
-0.07223572897938009 
0.5664182419225542 
0.4023976105884401 
-0.01373555958362001 
-0.1147180533687414 
-0.1233364573168866 
-0.1132571502562611 
0.517665616109581 
0.05317366730334813 
0.5226745632167358 
0.0677968167067633 
-0.1034526101087903 
0.0671188370531771 
0.6187511103004736 
-0.2521315326525898 
-0.843917471579761 
0.1035492110446596 
-0.03670088588487334 
-0.08956330636670891 
-0.3375557188115756 
-0.2352010271880699 
-0.02869952093886306 
0.8851665896086781 
1.779972417741707 
-0.2819443230564226 
-0.1559130747824308 
-0.3449732069316881 
0.08537076554140896 
-0.239952087723683 
-0.02423255424058026 
-0.01993015438853559 
-0.664686551828925 
0.4271825451867363 
-0.03601110697523091 
-0.08346495111650676 
0.1962534829096732 
0.6531115995509124 
0.3878826379971117 
-0.6744000292598425 
-0.1353235828856086 
0.1432217369807936 
0.6715118943905021 
0.4836760006820141 
-0.956565977301796 
-0.008837478475960878 
-0.7041757094945749 
-0.0716072244953328 
0.2043491811721376 
0.399143294141456 
-0.0666014081295806 
0.007809993871836504 
0.5527025155412015 
0.1627190549144578 
0.03432916278726045 
0.8811296572359418 
-0.2926207970801348 
0.5095844268842119 
0.05755579814052534 
0.1260428647699326 
-0.05317645509319845 
-0.3309097143076007 
-0.05196668991906017 
-0.5778198147017833 
-0.006156090373838899 
0.8487481125926668 
0.1743774205642786 
-0.1802540736546037 
-0.4019803769462642 
0.09285817213709117 
0.8459802274657744 
-1.206139619339787 
-1.263659889560356 
-0.2224003878923152 
0.0158376945162916 
0.1936956919803601 
0.4558484420086878 
-0.3437774945389155 
0.7386555074249539 
-0.8272145234459095 
0.2823700856929375 
-0.09283158531671953 
-0.5492021352906443 
-0.5089350645938904 
0.8219332948358553 
-0.2967139745247713 
1.070179697040501 
0.2321023237900156 
0.0619254052849871 
0.01894558515757212 
-0.04126057229666466 
-0.2393070752270193 
1.484775362744014 
0.06014714956307652 
0.6135033874144186 
0.3236243640891094 
-0.03560785621933187 
-0.01439520838051735 
-0.002825165547904302 
-0.007437209600400955 
0.01697845271325018 
0.1655219544359444 
0.03642949569997638 
-0.04679649961974406 
-1.213804305939398 
-0.6265180979544486 
0.3509931160474057 
-0.07841482969105629 
-0.373019321259998 
-0.8386854706792968 
0.1920058555959118 
-0.02178990070812189 
-0.3691338542014918 
0.07900009478036255 
-0.35024481459838 
-0.3205229378943885 
0.4674044006957613 
-0.4052332736198624 
0.9731339747840406 
-0.03509680733539225 
-0.08035392549441041 
0.07074528955845368 
-0.9359395993097031 
-0.5716308826577576 
0.5178544760323283 
0.7600962675403566 
-0.004283392025221386 
0.2411555555965155 
0.4109676252918042 
-0.7603203915069968 
0.01263205780799586 
2.353507649089438 
0.3569252359126599 
-0.01029085951468066 
0.01832012884478192 
-0.05488791830001194 
0.01689337779529602 
0.3489616605962347 
-1.591126855157102 
0.01952079067266354 
-0.5496645251587143 
0.7297378438524308 
0.004197513786439611 
-0.1229112402036974 
1.034573334930655 
-0.1272197162277994 
0.4730925580188678 
0.9845128967918036 
-0.1167550215457278 
0.1412711272942608 
-0.104981985359874 
0.2045786029240218 
-0.04873455404103882 
-0.04554016387394568 
0.7712960012320959 
-0.01532297157670517 
0.1498914390459868 
-0.01086842292892906 
0.6088389098127586 
-0.0520186529913792 
0.001487774307995831 
0.3161512351569892 
0.0194537934159754 
-1.36363365820544 
-0.1664984361133268 
0.1096791121091189 
-1.15833640894816 
-0.1225746992856408 
0.160616649235905 
-0.4072609715800062 
0.4662278200675302 
-0.08489827290576032 
0.457459772912813 
1.149937105599502 
0.1121407720279905 
0.1043698839996842 
0.2958127894950802 
0.3405529885060114 
-0.3749512738845688 
0.7987082395165844 
0.2757475755235478 
0.3514211232911509 
0.6018707004722891 
1.179834409946441 
-0.03170380407526104 
-0.001433746379050561 
0.2514405583333377 
-0.253639987944396 
-0.281094051725846 
-0.03117512550063161 
-0.5379380729171643 
0.4588325417647733 
-0.975537814026347 
0.3950911785602879 
-0.6677829243548804 
-0.1171552498159188 
-0.3569334234403928 
0.08208513447983214 
0.2608986044867529 
-0.7870299168674235 
-0.1730639730396147 
0.1215076080181556 
0.2111773497007373 
0.4385991765572517 
-0.1834361659063989 
-0.1842555730920354 
-0.1211934571838316 
-0.3040828821335985 
0.2786425552397161 
-0.3217360272708876 
0.9135418156980504 
-0.2514825603361081 
0.5508386268573361 
-0.008153174130465325 
0.2278263588273613 
-0.06746726408152504 
-0.3268446193080647 
0.2017823870436693 
0.5146792170373773 
0.448136281763152 
0.7154407141909991 
0.1372984164291402 
-0.06014305861190025 
-0.1409452983515878 
0.1464410031295829 
-0.03413084266273646 
0.4275942277499467 
-0.173562034358956 
-0.2960055467792689 
0.2520460925916295 
0.322328215216316 
-0.3679886537748451 
-0.1663538351024206 
0.03384397864467093 
1.154796860341073 
0.3996697309295108 
-0.2215505125680146 
-0.1308538277072187 
0.1677217349105345 
0.612510233368571 
0.1315941432200017 
0.2174273386796486 
0.007041522227124977 
0.2709453073649468 
0.261748650347961 
0.1405630702574662 
-0.4470652707800535 
-0.0977481211361655 
0.09500986541759709 
0.02744978796518646 
1.016396968131066 
-0.6292734825835852 
-0.3624949986584746 
-0.06561767912102232 
-0.06113342936856967 
0.1292520968533934 
-0.3786220206434125 
0.06856907414374486 
0.2747020099864315 
-0.01437892099982012 
1.192996896918784 
0.03244052470280689 
0.3009350593873528 
-0.2833609899250996 
0.07626335902588766 
-1.015001370815122 
-0.06223781699559872 
-0.001363254128583636 
-0.06013843837004518 
0.08964523777300068 
0.01036583683713543 
0.01430538555188009 
0.03046475982806332 
-0.3831907188961623 
0.1994479661716122 
-0.2654105650583281 
-0.01003137084225301 
1.197932649206235 
0.8215818193850006 
0.2554941647363017 
-0.5792099665082281 
-0.05212799981377089 
0.01041473029967418 
0.4427422886046991 
0.06214789613551845 
-0.03832113214550412 
0.1266557006984798 
-0.03708614314898264 
-0.9308862368433312 
-0.06636566033953999 
-0.0863187013688297 
-0.8922305827072149 
0.2678415626969088 
0.00785280150398552 
-0.2389385835311736 
0.5064356407837072 
1.271937737386625 
-0.01068105336041124 
0.05838529206436308 
0.443015865145834 
-0.5910006806044715 
-1.194024074764187 
1.009963178925195 
-0.07852789460833004 
1.977248858632388 
-0.2070728557815841 
-0.6512045007185411 
-0.04156722000632424 
-0.09938750702895516 
-0.01306330181938924 
0.03847322834351139 
0.08985467042216706 
0.03013441839260101 
-0.2827078110548226 
-0.5157315924393725 
0.1083643959250363 
1.141274320089006 
-0.06333194115702923 
0.1656654929765284 
-0.4156851041125317 
-0.07495013363356035 
-0.4332612117510425 
0.09234154899266268 
0.2233014430215621 
0.02131917082865374 
0.007031456592508939 
0.03166665626849946 
0.7230203431692687 
0.2837295649684857 
0.02036681524947555 
-0.6540823084872867 
-1.056204725896728 
1.099975328101966 
0.2749268645681389 
-1.076048220354167 
-0.2631774164347701 
-0.05198111770287397 
0.8424328717064101 
0.4664387072264188 
-0.07694415556636991 
0.5888295978478932 
-0.07814527211810919 
0.4344187494996659 
-1.047880118154852 
-0.1865401896179383 
-0.5452614260561559 
-0.4998711869488032 
1.214280434293757 
-0.7126477565090236 
-0.07314866037216639 
0.09169984852394532 
0.8663281594937462 
-0.3414966832703457 
0.8085587608629544 
-0.1466661683822322 
0.2831007980075542 
-0.5097791677687764 
-0.08207356803669649 
0.0165765354277763 
0.2086273129283163 
-0.5315667838447123 
-0.05434019650954674 
-0.04704366943656722 
-0.9138991343629078 
0.001575530824617578 
-0.2492952310621924 
0.1429136757804939 
0.1480773853782981 
0.9395917993220377 
-0.3972242694098082 
0.3014393880438614 
-0.7401473696902776 
0.6408359390814596 
0.003005716140860819 
0.1742347790433092 
-0.8829144413671957 
0.4403444800940263 
-0.3134918879686308 
0.0806334192321756 
-0.0995346980969183 
-0.02752823194864661 
0.01358366426777817 
0.1627386289838568 
0.07114577962703107 
-0.3430567426729614 
-0.03453965927617984 
-0.1015068268903644 
0.6900186528026804 
1.320348394397242 
0.6533731352991543 
-0.05461267329827537 
0.8097415408573262 
0.1026414020664064 
-0.1164023902625671 
-0.04098296739045672 
0.06039558315628861 
-0.1495919513918001 
-0.8616449238437309 
-0.3792579150364794 
-0.188872084886308 
0.2222946273909452 
0.3004119185132543 
0.2829036519859361 
-0.2857200036069531 
0.06904226925343553 
0.1016925961312099 
0.8208518281272813 
-0.4259777059607405 
0.1591133345324467 
0.6482539535613513 
-0.1936319521653782 
-0.2868651745245484 
0.1867469727744085 
0.5168579607595751 
-0.6611615976419299 
0.05528127137052157 
-0.1180458868491136 
0.002855499194747153 
-0.1380470625565764 
0.1631411780695295 
0.1137628171637421 
0.2163142398714458 
-0.03353452237654427 
-0.4846142403694479 
0.1558946728499638 
0.1810110272737765 
-1.078943652484657 
0.3476783120227824 
0.05673123324832178 
0.9730240036876966 
1.714948434146177 
-0.1308620818009194 
-0.103294137926951 
-0.6217793118768851 
-0.1087997777208801 
-0.1240334579522639 
-0.4877139173323404 
-0.5954678515978254 
0.106687805715348 
0.1196617867040967 
0.1600456093884331 
-0.04154077813304373 
-0.01795740833637709 
-0.1264979214744813 
0.5208216874115601 
-1.099942648207568 
-0.2158039154917671 
-0.07040029603065238 
1.011391459163277 
-0.1538780646605875 
-0.04433257649478437 
0.3289355438546723 
-0.3780919638436371 
1.063788210757658 
-0.06193431261119908 
-0.1167911906887412 
-0.4581153654539477 
-0.1194325659027113 
-0.02127767193760198 
-0.7003603055481936 
0.09189850839710971 
0.01465530280512665 
0.006610868757538188 
-0.6643522783517062 
-0.01873264692068802 
-0.5589564673370329 
0.09951674974163019 
-0.7696125169183873 
-0.5250618559140314 
0.7009434162217477 
0.1650558985961258 
-0.05475645170330425 
0.6618333209239994 
-0.1665918155005496 
0.895455572688825 
-1.041243205499963 
-0.2206823539241076 
-0.5433135081149747 
0.1935364912285996 
-0.1549616141806545 
0.3149528637533807 
0.3578228887615399 
0.04821619240938962 
-1.158560219701917 
0.5086018705866422 
-0.04180033824777307 
0.01155860998162361 
0.2837121265945481 
0.1648211989517069 
-0.3886801792574109 
0.7131538914630069 
-0.582747337112116 
0.9894978056137944 
0.009797475212311085 
0.1260125092665103 
0.02879733328539261 
0.207142550885348 
-0.05614678252711124 
-0.1407087530614964 
0.9399092226925703 
0.2555152756777008 
-0.04079300787175542 
-0.6095309919185276 
-0.6735055406525393 
0.2917173439305127 
-0.18627887890793 
0.06800259244289442 
-0.6165426443285933 
-0.1876211187101754 
-0.1983678221580988 
0.08491140124375607 
-0.08274990417999122 
0.1271121444678985 
0.04318816999313255 
0.817490136039449 
0.6127945973172751 
0.004883369204143405 
0.05747104101720228 
0.4236389755454494 
-0.08345617053437961 
0.02299297475134318 
0.06936940153937707 
-0.02885298742356538 
-0.3640607263635047 
-1.085547201804649 
-0.6843144920297374 
-0.06850535132327418 
-0.09785007972391012 
0.1656510575805611 
0.2962934979424593 
0.9547487308922618 
-0.2897224416873834 
0.07235934069155085 
-1.343737028433728 
-0.1294769288049588 
0.06295848790007459 
-0.04593059698587791 
0.220468309692648 
-0.1252162862388876 
0.0368567197590722 
-0.4353106426205292 
0.07607519131877147 
-0.02364293494852942 
-0.08622072273323145 
0.2114686497666573 
0.07258797404378918 
-0.1783024338478003 
0.7822334099288937 
-0.23167732980543 
0.002409438651434002 
0.1548976334955446 
-0.7321774261666354 
-0.1473576496098018 
-1.193746295927003 
-0.07591612197311286 
-0.03819792054187945 
0.1028549501228414 
1.065812052125249 
0.9211810370218468 
-0.1173196009919789 
-0.1207045063841186 
1.000763185568754 
0.1140718617436753 
-0.04317627555286328 
0.2485113264259777 
0.5505983776849861 
-0.3690315732636019 
0.08157728080537661 
0.629958619872615 
-0.04673891493760765 
-0.2149528444703115 
0.1986447636861937 
-0.05142849741370939 
0.3745828815495622 
-0.2971532612515746 
0.2860576229744591 
-0.08250311237582285 
0.1583609422198803 
0.04531991612882943 
0.486664600697667 
0.2358743979409102 
0.01695009271625987 
-0.4472137748004343 
0.6654143871318615 
-0.1078934638338888 
-0.004269144936847571 
0.20659338614666 
-0.6429223957321243 
0.5139275039607878 
-0.06369094971720238 
-0.08694346514475899 
0.2896373226183175 
-0.5967634838578508 
0.182047889080213 
0.7839574181594589 
-0.3878828510440266 
-0.03402100385192815 
-0.01416671508649882 
-0.03171345650269954 
1.004262561732801 
0.4861477787816556 
-0.4917668950105994 
0.0297140253168824 
0.3961060449291067 
-0.21630836472556 
1.09345829563997 
0.1059984478262845 
0.08178120564506797 
-0.02040235328799117 
-0.147913929587641 
0.03208627455476312 
-0.001093438360125763 
0.2978772778757208 
-0.03779509592803629 
0.1175350541163366 
0.1523856200313744 
-0.04245168781688558 
0.520113440699891 
0.002513177423889186 
0.7674723625972889 
0.7487562716978968 
0.2393718269086138 
1.914677886780239 
-0.1516774329908476 
-0.005158773489314358 
-0.8296858955401289 
-0.1263542273222938 
-0.5909699305340637 
-0.3427494238191953 
0.0925211521367133 
0.4071576958914473 
0.1754755646623576 
0.1920468750551624 
0.03391080919272135 
-0.1944857675826562 
0.0737355172973142 
-0.05993417781177351 
-0.71472272184048 
0.4624752477028723 
0.3558887757091342 
-0.01822797977262149 
-0.05980962426672178 
0.6715144642850009 
-0.1363006170379802 
1.192909793170644 
0.2358576620052375 
-0.02519007814259121 
0.1408263413175908 
0.09478490502776363 
-0.7175725787259086 
0.05137669754423818 
0.3331436252405657 
0.2012152074372171 
0.41301076213353 
-0.3484046084565615 
0.2424066253912762 
0.04454291413489646 
0.09975818463505441 
0.179463282119353 
0.2241619614791259 
-0.06529742394675382 
0.05489988200332772 
0.06491517378492838 
0.05854129111199766 
0.005393000806590298 
0.1725358424916374 
0.1487178285439119 
0.008720890241365062 
-0.3919157650383381 
-0.7461587374315298 
0.1459976618577822 
-0.06522599606667025 
-0.01583030372782124 
0.08864757718077342 
-0.3859294001338917 
0.512342061619334 
-0.04199749067123913 
-0.07889809657622551 
0.4466986453846933 
-0.05610933795322088 
-0.3469126145027747 
-0.2485887632923423 
0.2140094261974024 
-0.1030207331142883 
0.3325455185940992 
0.005990815595081059 
-0.01244348207631499 
-0.4558516921930379 
0.2178679754863265 
0.3320137445626595 
-0.6003008062686792 
-0.4914230868648558 
0.02096521016898721 
-0.144888191291988 
-0.1115271308440563 
-0.02530151574013037 
0.444690343635371 
0.2332154856748736 
0.1161575761644976 
-0.05722253951754637 
0.04780581369358494 
-0.09488695144273335 
-0.01459821355640726 
0.5079854802752354 
0.07575948083445345 
0.02221234399117168 
0.0627323859376156 
-0.04617965237614451 
0.2616733677532174 
0.3050167528977856 
0.171065599160177 
0.03844385278177046 
0.2457653491975766 
-0.01335585232547911 
0.01820040514483998 
-0.0109482232179997 
-0.7100639124302556 
0.02861693216332867 
-0.4437096116534602 
-0.141198719977369 
-0.1133359280067438 
-0.1043022815043593 
-0.02808043497996805 
0.1476484559018047 
-0.06068438026046689 
-0.06479096717179705 
2.265043498183218 
0.1708465040311063 
-0.3992570668744088 
0.05363676440442253 
-0.9016002320333797 
0.03464760844046824 
0.208004059875709 
-1.312167362996985 
-0.0296006435910353 
0.6662369023501508 
0.198750972878981 
0.09985058877764852 
-0.03152985849753812 
0.03561934350698553 
0.1086080871781194 
0.4523094139329651 
0.05642378022365069 
0.7290660661200442 
-0.1032689149153233 
0.2989668824242704 
0.0552970094257512 
2.079525175161447 
0.009770347219046304 
0.7128095466814212 
-0.281756456136137 
0.239114359523538 
0.02817565305225598 
-0.0306065272497919 
-0.8861558188523945 
-0.01141217929420285 
-0.01074405331253205 
0.0007475770959481292 
0.245683346671436 
-0.08887039791879346 
0.02767572662262977 
-0.06224718617561985 
-0.130139657114709 
0.0912090591723529 
-0.2427193090461472 
0.2181354121094153 
-0.8752422266772489 
-0.003578185082785006 
-0.1781794024066584 
-0.1098946611159366 
-0.0832785288387206 
-0.2151943870972373 
-0.02694470509029719 
-0.1790868121403816 
0.01094011673162153 
-0.6278159929453717 
0.0820580050669048 
0.06031018222540092 
0.4568019225243113 
0.165482963139111 
-0.4354371839512832 
0.06799165097770209 
0.6556610107035954 
0.04431551632881693 
-0.06097471271613879 
0.09794506193562663 
0.3600720339570942 
0.1271951674608711 
-0.02175866612955876 
0.2170843066196742 
-0.003280401459085901 
0.2636459202317779 
1.656577682624088 
-0.1368325024351638 
0.07840746631589393 
0.2548503356261507 
0.2080398145432058 
0.3210299780896488 
0.05294246484420589 
0.149482432542339 
-0.005040721540679937 
0.3386103317341769 
0.4609262546611482 
-0.02567069414270651 
0.4144438231210509 
0.1842640010928363 
-0.2945400240883339 
-0.8205027067234092 
0.2072703160095153 
-0.2050108580213287 
-0.1130713615325573 
0.236163479586573 
0.0979028022649273 
0.2170248593838413 
0.146962565792154 
0.06130676479736113 
-0.2195655526832465 
-0.5803999749635763 
0.0661486813515718 
0.3901672786798188 
0.4538827888142686 
-0.03152381392004512 
0.2735725532197469 
-0.07558356146751605 
0.02380561442853969 
0.04472902957952243 
-1.538985568080666 
0.119886315129016 
0.02764240305155621 
0.4657338615531939 
-0.1401519899934144 
0.3154412320462227 
1.838555750248293 
-0.6120959522737018 
0.1351353761506838 
0.07253285638932677 
0.3355251743104951 
0.1376294907322592 
-0.3263720740713367 
0.2832662024828699 
0.08632376481889588 
-0.06115258912452239 
-0.04101042826101718 
0.3643562788020964 
0.1608183398130984 
0.2194407856651268 
0.1280840433689138 
0.7593855443027592 
0.06929246840673096 
0.2504438103978534 
0.8879119654850864 
-0.1450494972708596 
0.03021456282041173 
-0.07454682477231693 
0.0881073287528244 
-0.3384756801335436 
0.298123844351848 
-0.9459206468445586 
-0.004835009244999291 
-0.4871139795853691 
0.09293889542735845 
0.6201581834241009 
0.4906651749935483 
0.1104499261351355 
0.2725159636436959 
0.164173983907984 
0.006585966260051932 
0.08536271073479242 
1.659770775938407 
-0.1162352868901498 
0.07920965306678091 
0.1003037330260232 
0.07339198194879973 
0.5689400209030697 
-0.4677234370100721 
0.5611333523798584 
0.003477765373158311 
-0.2754689026069809 
0.3324182844671995 
0.844835960858817 
-0.2427619887285957 
-0.0182570103238816 
-0.01779595058917151 
0.1917484799516344 
0.5039690150329336 
-0.1488588842821266 
0.8270404125684494 
0.2486462742102522 
0.03525317792644564 
0.9536319041782184 
-0.7442565346908417 
-0.569395919694808 
-0.01074764791359641 
-0.0360197750737834 
-0.2059720559437269 
-0.1291105093707725 
0.06979524502952851 
0.5635354805326962 
0.2498933346069211 
-0.1470553949125559 
0.4562319990431107 
-0.6127111879950206 
-0.1151410045641017 
0.7212839112846234 
0.4257231931622493 
0.01844473361973925 
-0.06836155274768678 
-0.02721931466962114 
0.3084652807421117 
0.3768649042155515 
-0.01476055134723202 
-0.003967580586857553 
-0.08508425134768262 
0.0697595618296368 
0.2165942224469419 
-0.06143762530038507 
-0.09770708863857629 
-0.01973287913084124 
-0.0003934762659981412 
-0.8031179907795514 
-0.3462155899460531 
0.4999220135357205 
-0.3350278389474485 
-1.561641654514465 
0.3921557542156521 
-0.1282823787843862 
0.2553400541234301 
-0.2699158999245068 
0.8464675872554132 
-0.004380963770916749 
0.2458456289018661 
-0.6040598831727011 
-0.1007298733369463 
0.6418354667756495 
-0.4604835792716595 
-0.0145426598777287 
-0.1536022149622787 
-0.05038769454228152 
0.9202279298051953 
-0.2819513179666563 
0.2978661693440569 
0.1519653324277477 
-0.3070574340125765 
0.3012334478228821 
-0.03807399863978674 
0.3474049356747866 
-1.188830711863119 
0.4028731932275824 
-1.2704595106173 
-0.4203004768232679 
-0.8410318738346666 
0.2475875332346215 
0.2246852607726395 
0.5983794900243732 
-0.1364331159093941 
0.1175599004538931 
-0.05126035531258298 
0.3725384329367979 
0.1331118112564496 
0.09135365558276758 
0.08939245479686268 
-0.250380579995776 
0.01478959476970668 
1.218913401432713 
0.04156718751809008 
-0.1144694122437793 
0.02927574393240038 
0.87349004928285 
0.3764996182579343 
-0.04261279316615164 
0.173364848647463 
0.2603140027757512 
0.4833787019459064 
0.7396720427455639 
-0.1843400548701533 
-0.0128822434219516 
0.2492994498768887 
-0.2181484423189003 
-0.1290870145636709 
0.2422148514043431 
-0.9390392575688732 
0.3392210978383154 
-0.511238043350202 
0.8587781243517888 
-0.3358490094524306 
0.4466354311086088 
-0.8747173906654933 
-0.03380813908330401 
-0.03814597064237821 
-0.4847503790782984 
0.2396293650713545 
-0.09601481990625062 
-0.1347425422095092 
0.1304371614893632 
-0.2808178046029627 
0.2266475915115292 
-0.1139576420802606 
-0.289257068385717 
-0.1192962500689468 
0.165802462966473 
0.04719801227165762 
-0.05521301969328161 
-0.09338041924994489 
0.4543724406258036 
-0.1195607663204179 
0.7752138094271893 
0.03192009143322072 
0.5742883708219183 
0.08362803547845246 
-0.02249818645767759 
-0.2927240735577104 
-0.02058778348967817 
-0.2834820410766793 
0.1565361636725978 
0.1439658171423854 
0.3622077164137923 
0.0002067574920382521 
0.1413890906904716 
0.07629025312360768 
0.1650146068753954 
-0.1296757421815648 
-0.06992674815365468 
-0.07681513010538049 
0.4086312840413449 
-0.1336214499462951 
-0.2719052084944406 
-0.04669892572094277 
-0.03161756182319054 
0.2003578006584509 
0.6392291316567181 
-0.2353906880196013 
-0.01454492965631613 
-0.3352496624440664 
0.02122398800475005 
0.06486581238834267 
0.1067447734867688 
0.09814839175645267 
0.1182816462105853 
0.05884220812055982 
-2.019492952525983 
0.4232686224905188 
-1.45303449701995 
0.2551975557926003 
-0.08375518886117397 
-0.2717359525074997 
-0.01783327502019168 
-0.2408199605376336 
-0.6363895534190912 
0.2037294695111796 
0.7889095580722718 
2.050331872840205 
-0.2341422867258705 
-0.2995232469494212 
0.1362604917800617 
-0.2496167162557129 
0.1789724463993463 
-0.5384794968267579 
-0.6905368258598938 
-0.1588102952677516 
-0.08719517705216907 
0.2566000441409338 
-0.06366939879059044 
0.602842416827887 
-0.0362876225659278 
0.06966127627189227 
-1.224844604855831 
-0.009823428284847689 
0.2910574657760838 
0.004935179615351106 
0.2575741444154797 
-0.06435658278642246 
-0.2301585249357042 
0.4893446356123268 
0.759308067896042 
0.09110617535983513 
-0.3819630237594489 
-0.05068611682997212 
0.09849953115516998 
-0.05748759748185069 
-0.1153684854318547 
-1.385272215757208 
0.3674945765121418 
-0.04961029695552467 
-0.1071762543777868 
-0.1932208355428006 
0.04106254961567701 
-0.1194778614815384 
-0.2126976256878839 
-0.01203453770045416 
-0.7037642157584061 
0.8432484562017043 
-0.01152022495002367 
-0.05448080567635156 
-0.3886480668075439 
0.1095765182493116 
-0.2216010818023487 
0.08540893400578183 
0.1119493421011564 
-0.06830466206871133 
-0.399557552244632 
-1.628519579066167 
-0.02934440027005202 
-0.1872235074751763 
-0.3646676704791971 
-0.2732721456139062 
0.08602665760213596 
0.01545617357011549 
-0.3206138148228648 
-0.08649448393835864 
-0.3482487055515583 
-1.001146042028741 
-0.4970962247299067 
-0.5837254781222115 
-0.3689913794200263 
-0.4240123631735374 
-0.3045245954381617 
-0.02450224457101577 
0.3071035225887956 
0.4435461723441351 
-0.09166929042677358 
0.5875720907470682 
-0.01141353740502794 
0.129158003502667 
0.1801457036588701 
-0.135352488077717 
-0.06599442840366027 
0.2432692388499269 
0.08130403622360498 
-0.02824375712461765 
0.7845324804787684 
-0.5582399706563388 
0.2463204505775303 
0.02267276300746435 
-0.4002250206736212 
-0.2161345258455181 
-0.03885486091551858 
-0.1042884080906907 
-0.3745946761017879 
-0.05976553335005564 
0.07796806924772387 
0.07650924950759899 
0.1115357847799742 
-0.1667438637550612 
-0.08936002712224893 
0.02632620938463434 
0.2731131768406709 
0.07527866138764215 
-1.656759939995218 
0.2874857036880882 
0.144436593660365 
0.1417753752614362 
-0.1256730315219088 
-0.0151405381011293 
0.003686771958575642 
1.594791260447862 
0.02107472069709901 
-0.06968176875733545 
0.4900618079016214 
0.07730895546913147 
0.1040364451338798 
-0.08226078801623864 
-0.3096234485482348 
-0.02259222930586458 
0.0727527654343052 
0.2527792618677911 
0.05787568185036487 
-0.1131052435803714 
-0.09880125755666326 
0.2865743607806535 
-0.01060859452205848 
0.3954114525341121 
-0.2090430175434428 
0.3744423212780032 
0.3836353475050863 
0.09469688040057223 
-0.07447641855789375 
-0.1012072671341521 
0.1389959241242272 
0.2396525443298986 
0.0566400874607321 
0.04921158350659786 
0.1561987010419306 
1.171797553722521 
-0.1489082172376177 
0.4775790812239467 
0.7642369708126395 
0.001228622831500348 
-0.6426348961091235 
-1.398438027826978 
-0.2914568521517751 
0.08933930543867528 
-0.01523349656790805 
0.001482684470482348 
0.08540583142285445 
0.3617315056393745 
1.440536453088619 
0.1270856341769691 
0.9172179683728774 
0.1134310884545823 
0.351185951788264 
0.4953546423406396 
0.7467641217578093 
0.1394027162299085 
0.05152036532751832 
-0.5846318576537933 
0.1963821639131265 
0.0006508676101675932 
0.648861748449865 
