solver_type L2R_LR_DUAL
nr_class 2
label 1 -1
nr_feature 5000
bias -1
w
-0.08587705500634536 
-2.403340164554739 
0.7916683811836782 
-1.241929028521307 
-3.479014017505587 
-2.352641759567244 
-1.562885998840082 
9.049586852088495 
-0.3828267389080783 
-1.692819192003322 
-0.4250417771187929 
-1.087241825571956 
-0.4075933174278048 
-0.2234624311934112 
-1.674001089304089 
-2.267820812145017 
-1.398389932703648 
1.410194279519301 
3.850434573730258 
-2.57949240300968 
1.116306600086796 
0.593002452754322 
-2.587782674694939 
-7.650435976649751 
-0.1292879168350974 
-1.321751426869076 
-1.009326761295597 
-1.462831995607748 
-3.904369097094379 
-0.8822479908985844 
-0.4188538071156457 
-1.305965020097441 
0.5129266059744904 
-1.601779517195706 
-0.03206524319671446 
0.7966985317455699 
-0.6588163639803266 
0.1098299868601441 
-0.5602434929780352 
-0.5254437065543796 
1.348531063335146 
-0.5143372519029329 
-0.672514091241412 
0.4081916903151193 
-0.8646794860536673 
0.5317617230912995 
2.886156764627597 
-1.513489404845064 
-0.4920817445323665 
3.30553871622453 
-1.450624311890469 
6.891247608960756 
0.9961152031257435 
-0.6228253928156874 
-0.4210905031328936 
-1.250230551019719 
-0.9100899936251419 
-2.761317789393235 
-0.4268744159563564 
-1.460021316887043 
2.481506359271326 
0.145909937421799 
0.7008525013607741 
0.08631161542643548 
-1.081537077708475 
-2.052049640294041 
0.2167524603186917 
4.119714812090624 
-5.51245821561338 
-0.8981358351211427 
-0.1461170370269657 
0.4531932196940416 
0.5545108273694426 
-0.2884618141244422 
-4.402027003461749 
0.04010985487009906 
-1.990516651967244 
-1.209135438167328 
0.161630956457653 
-0.2714303354841255 
-1.064667704577624 
-1.771866063493792 
-1.317523607058062 
4.317955450898986 
-1.537399602084766 
-0.8363319569993696 
-0.57309047643392 
-0.7844801999734369 
-1.769610574264401 
-0.8394055759854285 
0.5322069262769104 
-2.70988062917065 
-0.3915096931936236 
-1.907395446337444 
-0.09645606324217221 
-1.630024542894759 
-0.2512211999876072 
0.347687930631094 
-2.949740432366989 
-0.2328707064267798 
-1.366663390820407 
-0.7064394580159409 
-1.701072185722952 
-3.161678125106319 
-0.3282469758403375 
0.8071826732509213 
-0.8340705054762132 
-0.3496141035341411 
-0.522841500947624 
0.1507826185039683 
-0.3102167903065799 
-1.116665209614954 
0.09434604346435191 
-0.419391161287382 
-0.94443110338003 
-0.835832680836449 
-0.8863281251320381 
-0.06941543114537942 
2.416013181601126 
0.5210562664191799 
-0.3763066902053506 
-0.3453518430549209 
-0.2724981388279609 
-0.5020490819356417 
-0.02144322799427903 
-3.197268433238387 
0.1531925772286859 
0.6162915126149713 
-1.640102400071493 
-0.40928907145869 
0.05918685078934678 
-1.799616653819573 
-2.887054504117725 
-0.07860306788001696 
-2.116729618931906 
-0.6813674832496796 
0.7692331564484579 
4.402675446497327 
-0.1251955338418436 
-1.158664766476678 
-0.002706324549228907 
-3.639289966622943 
-0.9559214407082784 
-0.4897819471942589 
-0.1123389267029589 
-0.6944129178358559 
-0.7749311771524131 
-1.088588766938653 
-0.1107614078513258 
-0.8979532471770636 
-0.2508223346396454 
-0.2825606548133539 
-2.446027630766919 
1.257791398159516 
-0.5571179970544545 
-0.3216158958183688 
-0.3524325530255136 
1.715830486386086 
-0.5064566700437291 
0.4481317437994311 
-0.009792361227385591 
-0.2922063868886123 
-0.8896107290722808 
-2.096183199447929 
-2.512622510356686 
0.1249762034151669 
0.4653110363049693 
0.2739799134840004 
-0.6696514210343758 
-0.663390409167655 
4.208780732997815 
-0.4598386884260304 
0.3831820572093309 
0.4012983093945325 
-1.397030991082587 
-2.404944443242601 
2.801585930253922 
0.5381184314024654 
3.283516337062598 
-2.904546138699415 
-0.7362411665488936 
1.080580705876317 
-0.1579693294002015 
-0.362348076520824 
-1.889242977548601 
-0.6597208775688406 
-1.641628954161968 
-0.08269275243649428 
-4.23540315080386 
-0.4212600872380971 
0.3212448750831092 
2.566804660962727 
0.5025829240827819 
-0.2569427837280498 
-0.5139923103869631 
-1.013586193057218 
0.2834225125867353 
0.6504315702919018 
-1.442088152365266 
-0.02361223500590813 
-0.763702009677673 
-2.409470450999767 
-0.7003792246817252 
-0.3337834825207867 
0.03409037527268717 
-0.9543878623820348 
-0.3195811355875556 
-0.4918402389418483 
-0.7941094139928524 
-2.984114694311938 
-0.9100835488196823 
4.323872777739387 
-0.4382381882216207 
-0.2708376952855334 
0.4924176855164611 
-0.1655154779918939 
1.405306692524698 
-0.3455712972821914 
-0.2091702051462619 
-0.8927794852509433 
-2.535264149359687 
-0.8564635671290166 
-0.2926801561443608 
0.1840997835184412 
0.8803132254202047 
1.862084414058411 
1.350254095914642 
-1.466611639923181 
-1.092167754520949 
-0.7363335511661369 
-0.2524781199339355 
-0.2699861858927761 
-0.8876826140661801 
2.530110256445931 
-1.737279444226895 
-0.9518317718031573 
-0.2750527927403978 
2.160492662504958 
1.150616443487962 
-0.766228834743017 
-0.7039473589027668 
-0.3240936173317984 
-0.2798205308648022 
1.003508913940683 
-0.2472145601528252 
-0.01664565878905359 
0.02961304976178437 
-0.6953628240467974 
-0.6243249616212478 
-1.318772789331216 
0.8150252293825417 
-0.8823345998156102 
-0.752873059342866 
-1.299754799607344 
-0.3194578820903786 
-0.2113136784077901 
-0.07481700146787901 
-0.9679564908290066 
-2.514870450753269 
-0.2142549199830311 
0.07951991350756835 
-0.5283724945439542 
-0.7113147344971512 
-0.06353428959374198 
-0.6958947445928527 
-0.1709637570427664 
1.228406585234096 
1.041085918393127 
-0.6901132651675541 
-0.2702091292293469 
-2.262213965277828 
0.4923824100944849 
-0.4450488685514516 
0.3813030198392316 
-0.2514373140716202 
-0.7171568004173315 
0.08685183834312919 
-0.1446785781818573 
-0.6262000063718397 
-0.0636276195679245 
-1.336601463391538 
0.1070028803204942 
-0.4402883211859641 
-1.797188055931038 
-1.020926604508793 
1.042152950613568 
-1.320434521823781 
0.1644314717871149 
-0.8405071703672827 
-0.1570916017897337 
1.139194354060876 
-1.428887708626757 
1.490019487987248 
0.3739390477225093 
1.926735663831414 
0.9412242644120505 
-0.1656401235300124 
2.052701701982655 
2.428862231269667 
-0.2419312113443542 
1.934068488303059 
-0.1868495371425581 
-0.5541854902400964 
1.701502612202632 
0.3066317902249359 
-0.9486544148555058 
-0.473893814455896 
-0.6133069776141574 
-0.2772023261679262 
-0.8419807815023939 
0.3629647111843922 
-0.8773589875393347 
1.947961505037509 
-2.126637967684778 
-0.1809279159803597 
2.195022636291403 
-0.7921906774914504 
-1.374414697901544 
-0.116018249428008 
-1.086866335812022 
-0.203577244085846 
-0.9390241307158597 
0.5368733412619793 
0.5842952290675517 
0.4870714957349515 
0.06851704017980854 
0.2542866950890288 
3.418166770622637 
0.5022035906187592 
0.03177264202727728 
-0.7938272737343451 
-0.2934039549986202 
0.8138338791530634 
0.7745555162283202 
-0.0009799000624027587 
-0.06682662408609751 
0.2042168975124238 
0.9364834818771238 
-1.869371524203553 
1.202726374677577 
-2.388373724169178 
-1.762055371991984 
-0.3500719834940796 
-1.240303888511902 
-1.334618559763719 
-0.5937059859207072 
-1.605852890864612 
-0.4941672889492431 
-0.4839108085087654 
-1.142020886436954 
-0.5742690344459102 
2.2153134304725 
-0.621686112398689 
-0.133204629361118 
-0.122426548212936 
-0.1792184593876712 
-0.7232783412496948 
0.08239033118886641 
-0.2812397598659317 
0.2459788594376071 
-0.4974930236749304 
-2.928974962780889 
0.7410933910127857 
3.883907687051512 
1.773443550329749 
0.08385738643126214 
-0.2639730565967749 
-1.417303644682598 
1.04600537312142 
-0.4376703190359114 
-1.662799674675671 
0.6607717803680461 
0.3957396476067743 
-0.1200538799148601 
-2.603487428634362 
-0.3708201574565261 
0.1708015206619227 
0.3406377581579802 
0.1676134852986308 
-0.116309983579314 
-0.2192234686159279 
-0.3118416228810588 
-0.6102417416461829 
-0.5058959665360064 
-0.8748855468436816 
-0.2062094887210985 
0.06435222414271448 
2.941339622983762 
-0.6908494262393193 
-1.714464868839975 
-0.5623007686961423 
0.03099545646121731 
-0.06724195471648697 
-0.3888285556503372 
1.426215553041552 
-0.8208470033468862 
2.672310701479731 
-0.4762388165788509 
-1.65834661454737 
0.1328521272279219 
-0.712269484268654 
1.867895910972977 
0.1497801073510232 
-1.165334768071207 
-0.6345658619002152 
-0.980736968759585 
-0.2063447270181637 
-0.8411865831066313 
-0.5797533213057672 
-0.1436632357673409 
2.657252978029105 
-1.446088844002977 
3.711166535971862 
0.9798013051988733 
-2.10453842418448 
0.3812652314907723 
-0.4605727628313501 
0.2422159350595985 
0.1000422510567095 
-0.1694762989741915 
0.1741897483540328 
-1.535967879236607 
0.6718208453874283 
3.309566260288349 
-0.06725315545206147 
-1.236611632629186 
-1.70478461113402 
-0.07807189504297508 
1.990417771171799 
0.4350845099540634 
-0.210168258290533 
-0.7150249922929475 
-1.969022121479154 
1.62179549888707 
-0.4166501386388213 
0.8561866864865483 
1.384273246207794 
-0.2112423874738156 
0.5774831940793232 
-3.466256012129278 
-0.1696994795104103 
0.60565515054593 
-0.5286951243444752 
-0.195856826209617 
0.04076761918439691 
-1.348354471562781 
-0.03443881765510067 
-0.282066238113109 
2.230809270548628 
-1.947291060633917 
1.183413140269311 
-1.820853462253648 
-2.658145867819901 
0.1399728452667092 
-0.6315301609823779 
0.2290236677444455 
0.2568041125071848 
2.806925766562895 
1.029932068758437 
-3.579436128966838 
1.050098006563414 
-0.01089350612314523 
0.1542977322603461 
1.117735636463749 
-9.72692128446715e-05 
-1.541678816379237 
0.02680407846061523 
-0.2868268577515211 
0.5798101347046664 
-0.5632287498742797 
-1.023382999173899 
2.175302078986145 
-1.103207016972632 
-1.073059672967943 
-2.759693827247397 
-0.1812088563537279 
0.1126487684578445 
0.2877816390523557 
-1.091807559505316 
-0.6100529875443909 
-1.518006319758436 
3.640130341125303 
0.7449298600841019 
-1.240673690318925 
-0.2609937815417935 
0.9647477509823563 
3.06246745281986 
-0.3436088819839317 
-2.013825380247602 
-0.606487632509636 
1.475473792066866 
-0.9890603437941313 
-2.435136617096234 
0.2184757233520467 
-0.1972419582570013 
-0.9601766071686545 
3.077271457612157 
-0.7438875545374219 
-1.218114474225793 
0.1153597468458212 
-0.800049303075502 
1.677010264179028 
0.4507197435870872 
0.4200418267967666 
-0.1486943654994137 
0.07639619980213594 
-0.8760958681985346 
2.559732486432969 
0.118014424962604 
-0.7278084320406165 
-0.1566598917152757 
1.647499512409125 
-1.828375151645263 
-0.9248193344494853 
0.8038701030889994 
0.00859268016113837 
-0.3162728533694133 
-0.7912843980825013 
0.4793639579095218 
0.06577054756267658 
3.530369120973984 
-0.1531567568782327 
-0.3435077269473838 
-0.7272613439621074 
-0.5415474440064567 
-0.2129245390706597 
-0.27680790002246 
-0.7855680915477565 
-0.5549412480167701 
0.3685213485769319 
-0.1076546979598349 
0.2160636804341949 
-0.2218872564603 
-1.242698432858986 
-0.5891464012850065 
1.465176541197695 
0.4087897626531426 
0.3833471910659995 
-1.905520736152354 
-0.8795039640804256 
-0.2035312602821838 
2.043275000669109 
-1.15362086586823 
0.1167516600015229 
-0.4851549810541022 
0.4773790424492327 
-0.7152613363220064 
0.6354226138751493 
-1.431760320981909 
-0.2325623004126741 
-2.916640921200935 
0.2847288146774304 
2.085264321501742 
0.08458535807635477 
-0.5717771554478186 
0.08363689755019461 
-0.243612920168019 
3.045988759458979 
-0.1037913795677627 
2.226650395931782 
0.1118193944035536 
-0.9703263761663822 
0.8318661806537017 
2.050502602920259 
-3.537565620480163 
-0.4821955665232247 
-0.6337425946427817 
-1.082537265519428 
-0.06557570375115629 
-0.07314790858324678 
1.500243794401535 
3.225275926421218 
2.64021513721287 
-0.7871240744416813 
0.2803699161490542 
1.811837363818409 
-0.6103711135908109 
0.8085088820967107 
-0.01069854827111075 
0.1592952112702433 
0.3465673735582962 
0.1675465987878098 
0.8179759588346052 
-0.5669806541258047 
0.8984403496320987 
0.9236781895669219 
-0.05823932043959138 
-0.5159620324405723 
-0.5236135163633767 
-0.7712546163152053 
-0.2718913292548024 
0.4981505703046949 
-0.0936783238246468 
-0.7556633941669509 
0.4835435957087488 
-0.1636859565760266 
-1.862895915297478 
-0.4108584401052013 
-1.611612908226856 
-0.2925322918918665 
-0.252291692306686 
-0.5964075807183624 
-1.42145343582343 
0.1019530795496369 
1.070232191763976 
-0.1211264328183526 
0.1367645859822795 
-0.1653797039225587 
-0.6842996110514419 
-0.5250169614936774 
-0.7019569117114525 
-0.513908295560454 
-0.3096976549881074 
-0.1274341954636427 
0.5645691831321753 
-0.8881146306067348 
-0.9711504486018901 
-0.1788955466937258 
-0.06952819099542953 
2.212293435373635 
-0.1703730943185314 
-1.494931274027309 
0.06479118093171399 
-0.573195661180952 
-0.3227874073753 
0.9978815088738536 
-0.1789565797706789 
-0.3790175540336651 
2.36342121812374 
0.6905315768528962 
-0.1879423763121707 
0.3849383149405394 
1.594780577224738 
0.04397636835917283 
-0.9236500341965196 
-0.9760341630155728 
0.009300431210552837 
0.2137034545814988 
-0.6707678770675096 
-0.2180659133550942 
0.2595293716620369 
0.1528318489394835 
0.7007515223280991 
-0.5802212120300537 
-0.121979419301384 
0.07252777644122756 
1.139992569191078 
0.04049949265220711 
3.158416279714089 
0.2745667593037922 
0.356583029517147 
0.8503498787136829 
-0.04941824085243361 
0.6498726391122027 
2.187574231411789 
-0.6505990449824087 
-0.061299069607034 
0.1478588923280212 
0.1854599177150303 
-0.6297846091975202 
-0.06751706935473892 
-0.8351249525980851 
-0.6766571764295704 
-0.526582808605883 
-0.9158807079341958 
-0.8470379405495622 
-1.955741225567474 
-0.5626194562627986 
0.04679222856931592 
-0.3685495508702936 
0.8002606842046488 
0.0645535426887332 
-0.1487103911891188 
0.7265006770832317 
-0.08650761585400867 
-0.0671417225214874 
-0.1989619778169125 
-0.276355736236027 
-0.01077327274734837 
0.4876986265784161 
1.133146375437175 
-0.6261295984542727 
-0.4400784595348904 
0.3931162693911417 
-0.3079785878385826 
3.232855262403064 
-0.9765230755182985 
-0.02188964277509486 
-0.3053085786106869 
0.5850852040646006 
-0.1507358591172763 
-0.4148351219914672 
-1.902827910836885 
3.379673232231152 
3.199586723989432 
-0.319476490278933 
-0.04209802491325768 
0.110676502051229 
-0.0811483311607593 
0.8285037269122246 
1.054687535425157 
1.039754354279171 
-0.9261944612787545 
4.061939272970888 
1.21389164433834 
0.04628739248163384 
-0.1811578307250104 
-0.5309168565014061 
-0.2126123384519737 
-0.2329841974744306 
0.8191066533866104 
-0.478760139397597 
-0.9547520238106999 
2.815609074487588 
-0.368595286213624 
0.08925913174199658 
0.3582419640601938 
-0.8180657247206227 
-0.9561589470440663 
-3.355686594522671 
-0.3896815423911523 
-3.23610574916735 
0.9986329240795928 
-0.2068804301387046 
0.0445205957987319 
-0.9739951067966657 
0.5085052329218716 
1.191767339234245 
1.121068100677659 
1.459429548030722 
0.000543481810730256 
-0.5367622441769939 
0.2860650863488945 
-0.04728188489382103 
-1.268361160000531 
-0.8508338347384777 
-0.9817118572994014 
2.135190555987466 
1.232750768264231 
-0.6313630774416316 
0.5447178328386778 
0.1621222500370847 
0.198728201108818 
-0.08576963878339085 
-1.02167696154032 
-0.7475466196825082 
1.515601116517715 
-0.7114721782404401 
-0.2158376324414943 
-0.3972539219343224 
1.717431594019409 
-0.2763485295883072 
-0.2958298654558618 
0.2723129618754754 
-0.8484350187259143 
-0.8772072627550562 
-0.2861687296264307 
0.02665319696358178 
-0.9271670169225917 
-0.009324578058383184 
0.6443911226144305 
-2.362012102763209 
0.8433433446488114 
-1.273422495218137 
-0.2573072509558377 
-0.4598635798979192 
0.14366368613872 
-0.8565630338011821 
1.447414142958391 
0.1733233318283639 
-0.08080868824354075 
0.1108393905463141 
-0.02783763740560961 
0.08310897274470383 
-1.744975761299189 
-1.617267938218113 
-0.5765610960502887 
-0.1954138692716562 
-0.5330782140679515 
0.431989504641484 
-1.79343731984005 
1.075347574864456 
2.162860009121495 
-0.2465516442602634 
0.5880869543996236 
2.334639767773149 
0.8482512304279881 
0.3492688171663328 
0.2768608799896716 
1.120537612058153 
1.507413261190343 
-0.2588250016809419 
2.641438942883166 
-0.05974388574539438 
-0.5334491596687796 
2.137832529197188 
2.092493117577154 
-0.7729561117423664 
0.06252057005372229 
1.167855821122165 
0.3979427968802323 
1.307774170983682 
-0.1233773824578496 
-0.03331640051461066 
1.02136309702866 
-0.2764444917238235 
-0.1672481253702602 
2.956542962357549 
-2.59007978785263 
0.02298849576825838 
-0.2813737872478171 
-1.224069863226899 
2.007937429921441 
-0.09825278597079151 
-1.039577631566204 
1.355482543176067 
-0.4790184568483027 
-0.1310933356042423 
-0.3314431176747222 
0.2498461967397403 
1.110443099736308 
1.764330240733571 
0.04828234954620811 
-0.1719569470495593 
0.2200963744297674 
-0.2286893536858775 
-0.1785546340240195 
-0.9857780358081157 
0.09467669362625157 
-0.6934148606611215 
-0.1278707928423729 
-0.2637551419487475 
-0.46159125404372 
-0.1397585159227515 
-0.1172606429764353 
-0.2955979237448165 
-1.563925682271507 
-0.3479029372225342 
4.5198888690536 
2.714083419011807 
0.5553785960323905 
-0.6617300973837432 
-2.043283277888138 
-1.717478428002317 
-1.681092024571904 
0.9360706475811457 
-0.606442034530244 
0.2794265655408368 
0.2383846791338735 
0.08569095623794371 
0.544275999182729 
-0.486611290451806 
-0.4190133693480977 
0.1009675613757024 
-0.2377494886846925 
0.8585356920095361 
1.95266344932555 
1.282515511675436 
-0.6409280511703185 
-0.498740741960392 
0.1501829959853572 
-0.8344001006883948 
0.1168006385754345 
4.480840082256237 
1.645705677314602 
-0.1295931407783572 
0.1450491963945903 
-1.724463348953623 
-0.5386769389382443 
-0.05464367282036919 
2.40573279413413 
1.667415535759805 
-1.951291533872561 
-0.03311204892368512 
-0.3456915339100147 
-0.2308075115200265 
-1.858298191075298 
-1.178241429156871 
2.130032284116727 
-0.4997013868790841 
2.238786386700351 
-1.119331146139803 
-0.03719189206433892 
3.393811286274299 
-1.745397290837682 
-0.7885814609003984 
0.1182071283129032 
1.321490508570719 
-1.503625879720844 
-0.2749239873520592 
-0.2356225645752238 
-0.4012894972657544 
-1.074395324122401 
-0.1277140856087833 
-0.6276718956253381 
-0.2160928123752482 
-0.006253971943580075 
0.03570387084549408 
0.3702456984083221 
0.02465385892622382 
0.1237198704308226 
0.9738832687232912 
-1.247477774306626 
-0.6051152640740423 
-0.8746325930499986 
-0.02625887657816699 
-1.268110028106012 
1.16880874320159 
0.2161053428777206 
-1.15855163231424 
0.05105345460273151 
-0.6833599702382631 
-0.3981766233938304 
3.735390908921125 
1.28971582005685 
-0.6016105469371035 
-0.3186725676960557 
-1.508410516927587 
2.356319232345381 
0.5825311634075447 
-0.2753628369539455 
-0.6906187492561157 
0.03890522230280169 
0.2228499186909094 
-1.857383991647386 
-1.114415083410844 
-0.1144792519871928 
0.008276662864647387 
-1.193029083582002 
-1.46790267843793 
0.2902435480948437 
-0.1480327326927441 
0.04925925131121094 
-1.704813775780571 
-0.04766970216594328 
-0.3172852540122079 
-0.1738408835927851 
-1.477781216523386 
1.941372291185523 
-2.023840872666438 
2.433924553870669 
0.01103042371744269 
-0.3332385773826518 
0.1476054148225203 
-0.7937620669826765 
1.969238089017468 
-0.2605367502232904 
-0.1541448152427117 
-0.4802447180442461 
0.8641528456802338 
0.8820567587535894 
1.204426682803422 
-0.1623741709529166 
0.8675534755989374 
1.145271561285291 
-1.229661214684458 
-0.6051125232119051 
-1.089352740986842 
0.0333643021035426 
-0.7636111063675017 
-0.5688077849594911 
-0.5379444018153583 
-1.051017324276285 
-0.0689834915287918 
0.1098891225344281 
0.225448819117065 
-0.07089401384905562 
0.09768102592379017 
1.698427228950784 
-0.6491137850871255 
-0.5772122298131704 
0.535330249534553 
-0.07053551081872961 
-1.880873573429112 
-0.03314775443000265 
0.2945393950375457 
-0.1980013832197029 
-0.1566151785294371 
-0.8052467965078182 
-1.035553070118012 
0.2094445349150663 
0.3394745423000203 
-1.039896418212719 
0.0335229433141216 
0.2895536191316341 
-0.1951285523814792 
-0.1432490801704216 
-0.1960653096407422 
2.49987552458917 
1.313054437509872 
-0.1485481626950078 
0.3039945148333122 
-0.4860159903447029 
-0.1090880994035131 
2.429213596887773 
-0.5059688164410256 
-0.2377965475828909 
1.685824019358514 
0.1669290075468239 
0.4738274816604069 
0.05406144153731461 
-0.03226973240362941 
-0.9190794242218491 
0.6442572731112678 
1.113307005980732 
-0.3272316900352335 
-0.9892448731708006 
1.149894942236942 
4.326476168164139 
-1.517232561721193 
0.5848308183175127 
0.9406484555091241 
0.07378745597075205 
0.3695871716330791 
-0.4396125505667483 
-0.4303588332709757 
-0.3817472701344268 
-0.5800166161378241 
0.9644446680351342 
0.1857860217440268 
-0.289085739614389 
-0.1172265833754946 
0.1864939283296126 
-0.1128259942921185 
0.02559313650254011 
0.1752728724853049 
0.07889076057196101 
-0.3281726173910358 
-0.4235536711992299 
-0.09470374164571548 
-0.04621231394182979 
-0.02673303879017535 
0.1708748069281044 
3.997551612168547 
-0.1621515387568706 
-0.398855117237181 
0.0778289604776104 
1.61245812023276 
0.5058225715221794 
-0.166179832229384 
-0.4651424692327553 
0.2729946386439551 
3.398917737423261 
-0.7013576461237567 
-0.1285665844099967 
-0.6605678014889436 
2.465754874076833 
-1.688714281671734 
1.475571410375415 
-0.3615468101352068 
-0.2623825338373184 
-0.1081724188336946 
-0.162503703169626 
-0.4665544518901125 
-0.02120669240351531 
-0.7314227007662959 
-0.8090575892722569 
-1.807074090950103 
1.60088873976005 
0.01513321247902421 
-0.1853052297782517 
-0.571091329130494 
0.452395247072256 
0.07270668580174613 
0.1473959705125004 
0.9449827480494719 
-0.5511237024865648 
-1.045452851438961 
-1.038411271382321 
0.6109089448369576 
-0.1086134962755386 
-0.002070494158830233 
-0.3246259101219879 
1.338808178876216 
-0.7619676021941075 
-1.406631603898264 
-0.42480596484126 
1.144284757160003 
-0.793672267597383 
-1.060911796457445 
-0.3321692028865456 
0.4623870942126079 
0.9436130099189223 
0.6205386553450745 
0.1417680933992692 
-0.2091440867620679 
0.06593401168427897 
2.281476071833027 
-0.5711667997790791 
-1.609522056984984 
0.1805273584895949 
2.092899726994793 
1.098812099755059 
-0.2638580310229445 
0.5561878058712341 
0.349479120862788 
0.4750833679387014 
1.754270925941352 
-0.4461515903976034 
-0.6324367751515989 
-1.989956766773783 
-0.1680806302919529 
1.250003463715275 
0.8085475336988603 
1.462091320031398 
0.158336302355938 
-0.7647427933291877 
-1.657126313569604 
-0.03067308552228575 
-0.1915647113827428 
2.54945703637901 
0.2326763052467413 
0.5910776539359406 
-0.1297731577994036 
-0.1691369162275529 
1.687852792102264 
-1.653509657208866 
-0.3100053746775795 
0.04828749221545182 
-1.075910769954328 
-0.1792700098011465 
-0.1705678234292982 
-0.2670191962607475 
-0.4077513977053684 
-0.06215250237812326 
-0.04875312552519713 
0.4767837665702107 
0.05879567645257378 
-1.213608191964067 
-0.003572982634165021 
-0.6411699640152601 
0.5096294258143887 
-0.01500518561393342 
-0.02336185263939405 
-0.3979513605076275 
-0.1612815547749474 
-1.197409179212473 
1.00965518394182 
0.4520738561642397 
-1.084793787688102 
0.1408749030963387 
0.3846143799291524 
-0.6072580677592194 
-0.6071924058994248 
-0.437868565110239 
-1.06135474131926 
-0.3489168949648946 
-0.9941899220224433 
-0.8679186745433474 
-1.263254282647722 
-0.5846902426121622 
0.27240091753855 
0.7451010618985979 
0.1316474880430062 
0.800677779891742 
-0.2363548718050159 
-2.89611046320974 
0.7811452651484233 
0.2126217640127642 
-0.1987085999581634 
0.1599767562815925 
-0.276555848994424 
0.3201381410809423 
0.3615677739634396 
-0.4381226642245842 
-0.1395580403916636 
0.1714502576510595 
0.1978976067591254 
0.9871519517890446 
0.3365266771323113 
-1.505169139606397 
0.1588211394483303 
-0.3190666438810258 
0.4182810920245446 
-0.3130978997845777 
0.9003389916900921 
-0.02448860852364297 
-0.14868119491377 
-0.1649685312473057 
0.5572265564165552 
0.3632207729223442 
0.656759824992764 
-0.8686126551700234 
1.537869655956871 
-0.8428955388348435 
0.2825810410331141 
1.087786461173582 
0.4688706795663951 
-0.5997503879929216 
-0.6051167580583134 
0.4621407678608969 
0.407624090557516 
0.9585441333082678 
1.137812433792797 
-1.916114323631755 
1.304153147494012 
-0.1507424490157797 
0.6422738313623126 
-1.168601261703921 
-0.4431510546049355 
-0.8372014552993864 
-0.1737121122004834 
0.06107262551756412 
-0.8506503224077012 
-0.7884643772680343 
-0.1706063260857185 
-0.5681587040051088 
0.6257293132306611 
-1.118422495262356 
0.001952323685860022 
0.9663700780967185 
1.276530543274902 
-0.746052007807846 
-0.7697296612895007 
-0.6617020649828482 
-2.242886081405397 
0.01283831316963818 
-2.693898550219931 
-0.5149085351321591 
-0.1138022505521121 
-0.01617622351126245 
-0.9693236319744402 
-0.2269192494687005 
2.575839552919466 
-1.154340594465031 
-0.03322289959171455 
-0.6651356517910711 
0.9226712229590325 
0.6079979393265139 
0.4037411906342233 
0.4332484377150416 
-0.208049963271631 
-0.3618503156457552 
-0.1187775909819261 
0.05070314810351229 
1.587008287314409 
0.1040383993782421 
1.434310525643844 
0.5157266725411738 
-0.3034430615905083 
-0.5660752167826563 
0.2328080803564649 
0.33354262495027 
0.2704164168343477 
-0.3850234760082683 
-0.1527959588923456 
0.008949572618569792 
0.8200385579407979 
1.978738806887631 
3.117056413131133 
0.9076707096836262 
-1.439741627458296 
1.032508587054281 
0.217798122631892 
-1.007439410459561 
0.514076009120341 
-1.161863015874101 
-0.5448867246991959 
-0.3248724018816903 
0.8879420900103504 
0.3878303926353205 
-0.9585816710067043 
0.2316925154081614 
0.1243665669619807 
-0.231695568243779 
-1.042014521613187 
-3.472357074677681 
-0.4923434668062632 
0.40182703435977 
1.731838648608024 
0.549909417552831 
-0.722326794376328 
2.155112725499208 
4.446277916100339 
0.2927694476563371 
-0.1117058681533521 
-0.3467808006538463 
-0.002939267814394885 
-0.5212471442913933 
0.04026081718501621 
0.1379737317014609 
-0.1171485407953797 
-0.03201582693081152 
1.851372099391655 
0.5970278221554892 
0.9576589144505051 
-0.4775583385837698 
0.01201174677544689 
0.5140470392181714 
-0.1180975602995493 
-0.615968871307648 
0.004910989693593939 
0.2255688918586532 
0.04346840222677331 
1.409737026011914 
-0.09455117223939365 
0.1865938351246369 
0.3723621409704885 
-0.05415255996820331 
-0.04613464213124434 
-0.6047548357630423 
-1.667604307636946 
-0.1965614273864801 
1.65484669699898 
0.7345112833451736 
0.7064234475473595 
-0.2672756592899747 
0.5251255584529896 
-0.256851264830068 
0.2773480959787531 
-0.2437301558790747 
-0.1975814482076119 
0.4704079175649198 
-0.2237079068473637 
-0.4311076236096714 
-0.02012322946619963 
-1.66529743968159 
0.3503146309136506 
-0.5194897140556247 
-0.3214204959340392 
-0.2293569780068485 
0.4182250637721763 
-0.9645946794953048 
0.3896835891790262 
-0.07671539642645418 
-0.04234320923822436 
-0.06864182366800595 
-0.03449248506972206 
0.229438597835854 
0.4020522364328344 
-0.1712421385694017 
0.09232491180643729 
-0.1739889891561117 
2.086359593234969 
0.3549441600665453 
-0.2062317022337517 
-0.4719522173110733 
0.3092727276442566 
0.5246759742345534 
-0.3270956617391281 
-0.9181587931299678 
-0.4654593197543758 
-0.1581525866459577 
-0.2393651657848175 
-0.3773607801681303 
-0.2382536744242419 
-0.3169735479895669 
-0.08385372951073858 
0.0193717623471981 
-0.03541366160779329 
0.7163577231020278 
1.273012000539119 
-2.026474435814828 
-0.3544794446690067 
-1.324132215695578 
-0.3314070745755109 
1.644196183986571 
-1.150296838682658 
1.051891274204082 
0.409283162967375 
-0.07652981584757623 
0.02465482061943395 
2.321962713594091 
-0.08682247600933475 
0.3461534345877818 
-0.639818997385489 
-0.3425223622978249 
-0.1114946181462661 
-0.1165811430000553 
-0.03659175261413198 
-2.532248067086409 
-0.1038786383293121 
-0.2607152709967493 
0.2396153892258769 
-0.237442645655824 
0.8210380944414586 
1.087249769948206 
-1.902112530632396 
-0.1480919072855395 
0.06102239218623905 
-0.6560309489327623 
-0.2765251578005032 
0.08059266239308738 
0.3242863935958459 
-1.673336852539098 
0.000151463367308374 
0.5129659856972019 
-0.1466025316671317 
-1.10396329112276 
-0.4911688072264198 
1.379509807349473 
-0.3672545376701827 
1.588229959416896 
-0.4335518916730718 
-0.06873884609157797 
-0.05028353406711111 
-0.541402783879762 
0.1392990232530461 
-0.2485655922283766 
-0.05871283442794912 
0.3092472849743976 
-2.14883735713498 
0.3266184335522814 
-0.567168396592943 
0.3970901404688797 
-1.73171656858327 
-0.4934022860880681 
-0.4819434163190385 
-0.3060791092090706 
-0.2841981534145121 
0.7192235226456123 
-0.6419778060653289 
-0.01390354749971952 
0.2853670231584768 
-0.4906720608204124 
-1.393072444856665 
-0.6909406213991827 
-1.155928935230748 
-0.2027942958745489 
-0.9866033387918274 
0.1719698214573211 
0.2718306418542401 
-0.937742356347776 
0.08612281470005125 
0.2028807383511313 
0.9549278887909288 
0.5713623093206237 
0.2361590297689314 
-0.2924790683992083 
1.618671626255041 
0.2913116224095056 
-0.01687134380039122 
-0.60150707186088 
-0.4090970288320668 
-0.5041010984899699 
0.9004134504471425 
0.05721351790648149 
-0.1504215185210804 
-0.6552164298158681 
-0.3064095660092139 
0.5358122096224119 
0.7089376085899177 
0.2511674083652815 
-0.8330090640267869 
-0.7275235099001255 
-0.3725414266512131 
-0.6375565707862577 
-1.084300389046164 
0.2786941437106817 
-0.491881102315092 
-0.3372990988371977 
0.2238914399347175 
0.7143064488695313 
-0.6817665610278687 
-0.557569456865203 
-0.1503673982446363 
-0.3037897016406805 
-0.09728917442823753 
-0.03845237931719096 
0.5417207148667658 
0.8519284643561779 
0.1195102254959096 
-0.2899936696631934 
0.07725483390654866 
0.5868424596942671 
-0.03106429706210103 
-0.9485297485681348 
0.5179293570910208 
2.252230199957092 
0.3643076363577392 
0.4527469549863305 
-0.6166173192946472 
0.1584806288741064 
-0.2252278950573242 
-0.6161849260542949 
-0.02091417003334542 
-0.02553941255738039 
-0.6839512222784037 
0.4584950273700922 
-0.6389098864367538 
0.065122727477002 
0.2222098400899357 
-0.4212202166724671 
-0.3179164028866129 
-0.712815317301516 
1.959387397296524 
-0.4242878339603867 
-0.6162074444840966 
-0.4154002427800607 
0.06061810262136043 
-0.8147094930498797 
-0.3088974296304914 
0.5176344913413893 
0.2661182932558127 
-0.3629028695642948 
-0.1868944979013489 
0.9814913334490269 
0.4637444100328904 
0.7577243851811097 
0.04972484066108974 
0.6888823988591357 
2.695032340983253 
-0.8060967944771921 
0.3974808351621361 
-0.2342262021570821 
-0.1107558598737813 
1.768317890205853 
0.6186957771040221 
-0.06338336105539832 
-0.6422186616026129 
-1.097097095292926 
0.2030533830480365 
0.8667617781374808 
0.7738111189769366 
-0.5193408774719903 
0.07969188233715266 
-1.295360794948556 
-0.9261361814538858 
-0.2938970959003265 
0.3461829442084924 
0.160398778035154 
0.4480135065333358 
0.6406540682140871 
-0.5104498311155404 
-0.1003261075720038 
0.4024437343732744 
0.419245115603829 
-0.3046074986125678 
-0.7279819053201775 
0.4174330023169928 
-1.870202168361602 
-0.2138308296261331 
-0.06137851700399508 
1.972564745996219 
0.442381061647981 
-0.02272751926280271 
-0.1589453736325117 
-0.05093906919098662 
-0.2210758656998858 
-0.4185991517924842 
0.02685788473370105 
-0.196303249065039 
-0.006687227428003478 
0.8645446832073774 
-0.389409791082851 
1.360808886176442 
-0.02594946311013332 
0.08540270539256947 
-0.2674370844073164 
0.4883569536288337 
-0.7279636871110858 
-1.463429947726113 
0.1394284379460811 
0.2688661281813972 
0.2163616844155906 
1.729729139718056 
-0.6822184743671604 
0.137917664451048 
0.1097395956315107 
-0.3091029807216468 
0.6990566654811835 
-0.1084383898448702 
1.535234838919343 
-0.07260549988068513 
-0.02322000257705568 
-0.1850971101458075 
0.1607010559433981 
1.005952580065956 
-1.909860547542961 
-1.461357981617809 
-0.3843408161830281 
0.01041535027487067 
1.322154983283718 
-0.1612298588377239 
-0.9995324496657084 
0.7940785878562236 
-1.826177524915037 
0.4034951180814971 
-0.5311164928649152 
0.2189848487026851 
-1.401954613786123 
0.07790257621006381 
0.2824737752033767 
0.0154963792703634 
-0.5098855275856874 
-0.8484785948919354 
0.2204438097760993 
0.2565938070467715 
-1.145300475695482 
-0.1984451958803998 
-0.1441004603533362 
-0.2754333048992074 
0.1677083729929145 
0.5377109916944398 
-0.9123098841912149 
-0.5651052965200106 
0.06676048143520659 
0.4702060489014641 
1.235805982424503 
0.7728671197689559 
-0.2918946313823759 
-0.3782319028387188 
0.975312450132088 
0.2428452754300161 
-0.02088416050477881 
-0.02161867353743725 
0.2170968307759232 
0.03971688499839107 
-0.07200371292895365 
-0.2533528993431176 
0.02692545627430649 
0.28337406637324 
-0.1025738978920565 
-1.321144302475267 
-0.3061219719526403 
1.3659129242696 
0.0296774768814133 
0.8220290033381337 
0.7017125745427659 
-1.680877817753355 
-0.196054871930349 
-0.3054232847393724 
3.264450185827787 
-0.4747599882009229 
1.320264899483056 
-0.5602711505794198 
-0.4280609190938112 
0.19050044954133 
-0.2771887296978615 
-0.2182767457487254 
0.4891657950441358 
-0.3019478580585194 
-1.368519505748638 
0.7774906755894393 
1.026439973831605 
-0.1625821712148128 
0.1383861124575018 
0.8591772640783533 
-1.102625579258441 
0.4490113388923948 
0.2193238032399086 
-0.2402233582787238 
0.7295761044510217 
-0.08355693505994122 
-1.460845780515538 
-0.3934095312833453 
-1.956346150443135 
-0.1360866935172693 
-1.265565672578761 
2.97731089443609 
0.187352311427468 
-0.4115919349184441 
1.288704026543277 
-0.4361191560584702 
0.1106810394575914 
-2.214443294839648 
-0.06302971438094657 
-0.1516115218603482 
-0.2087508204405388 
-0.1578319657081695 
0.372233853005329 
-0.463839384711565 
0.5256740896976395 
-0.1377077481324989 
-0.1074078858375245 
0.4079350901097171 
0.7639936031368249 
1.381676353724307 
-0.3313664301041362 
-0.2218264606388908 
0.4177569166243552 
0.138761824685266 
0.05199646247385986 
-0.4196448184428919 
-0.5879962190807019 
-0.2604754865641659 
0.7005274973577266 
0.7308567432524857 
0.07147083570082206 
0.697530273700357 
0.5817583517018949 
0.4193490576532803 
-1.262228729364544 
1.80042647732698 
-2.131410247373893 
-0.8437619813140116 
-0.1382262289898192 
-2.006719895947968 
-0.6026235604969582 
0.4477320757072042 
-0.4311686998761005 
0.1549894579932202 
-0.8979936215522564 
0.06443130109103845 
0.09115166259062804 
-0.662409081296314 
0.02517204430704236 
1.608223655274374 
0.5966545059406618 
0.2970741318193205 
-0.3235183746118276 
1.167019063561302 
-0.2621668799675558 
-0.4381292686301079 
-0.066026677167782 
-1.765970278188454 
-0.4157843317789841 
-0.1380078442003495 
0.4282577933596467 
-0.1632339215162122 
-0.4514632149489513 
0.8003654382352589 
-1.395757205883161 
0.1953855082510476 
-0.418826781648221 
2.316963618846789 
0.09286795159125359 
-0.9857537843464633 
-0.1228958158810276 
2.619894173901012 
0.6472416750273617 
0.7369282947388315 
0.2245780138376137 
-0.09918967206000516 
-0.8887120572785878 
0.1434309318249861 
-0.1555417987716529 
1.839420687504962 
2.266775497546872 
0.02986927323820901 
-2.270581098356286 
0.4997949655069769 
0.08221378384127714 
1.184690612821395 
0.4514207915409566 
-0.06962554634400997 
1.007619313686957 
-0.1514439575870909 
0.5143491027991267 
0.1162889807542475 
-0.1157696407143597 
-0.4772246623698866 
-0.7686340510163042 
-0.8215003790648875 
0.001825350528842273 
-0.1038338770990157 
-0.3523195248142955 
-0.1024543217153801 
0.8912937216135096 
0.02265026318967672 
0.150524483546295 
0.09265433008853879 
0.3463714170157779 
0.3328778736220838 
0.5478348627532528 
0.250771469550343 
-0.2053616535992893 
-0.1150520388431466 
-0.6315862542470941 
-0.3590141623569763 
-0.07609856014632851 
1.482719806750477 
-0.7872225112161235 
0.6597083808183426 
0.7155906829427044 
-0.1205334831508177 
-0.5088530635573644 
1.642451876341785 
-0.8155708379023872 
0.3187530661496964 
0.582281543735258 
1.944918761988647 
-0.312160482200608 
-0.5306748780922683 
0.1371864893149342 
-0.3043694548882854 
0.299544511974849 
-0.04042601247321552 
-0.1019900899063443 
0.1820252008166784 
-0.7650713536169989 
-0.1574806741963775 
-1.085970197550922 
1.425053765781823 
-0.1935557901393497 
0.2515089401829804 
-0.2814754545039352 
-0.2588169030488919 
0.4910346464209112 
-1.147836354904428 
-1.43499598902681 
2.022397098001064 
-0.6917208057365273 
1.149623304258251 
-0.4445173160098808 
-0.08279149043397209 
-0.2262713220406223 
-0.174348476045858 
-0.02977493068276815 
0.6978796021587975 
1.153424319903777 
-0.229269457892617 
-0.646660650218801 
-0.1656772807007831 
1.348771382747462 
-0.2572108723606397 
1.192909880656875 
0.04767140492995244 
-0.9031359644703272 
0.2666582664574413 
-0.06345215986260602 
1.637903427248776 
0.2186827901178599 
-0.4188388001250605 
-1.541168654938656 
0.2595719221325777 
-0.5811697136061624 
0.2462113871010728 
-0.1391568156155756 
-0.1808595826253892 
1.313923967004234 
0.8066501369005561 
0.6771357746110623 
-0.02977996468006409 
0.9505893349627451 
1.513627481153603 
-0.895656598314444 
0.6816100978798973 
-0.126791408819549 
-0.2156435541055801 
-0.02018283146312643 
1.107926898662492 
-0.03477286576245191 
0.3035149502982273 
0.5188805662587358 
-0.7828331059443246 
-0.1002081238132741 
1.224958145832395 
-0.1182312828875238 
-0.3692402673199815 
-0.1365634271983849 
0.6126613240898466 
-0.1620277920314815 
-0.1025991144133495 
0.739671724224049 
0.4721923018886287 
-0.3188067473904878 
0.6279179289267197 
-0.1952381215488516 
-0.03152413045294279 
0.9612324694122505 
-0.8549552250502118 
-1.778829852850675 
0.2010415152384827 
0.9429649831333916 
0.429030630576426 
0.06238370774589694 
0.7554363953274017 
2.380566866194957 
-0.02566500159692406 
0.2243905546931967 
-0.7447635220856013 
0.6428055564425874 
0.613055438033424 
-0.04944911052084081 
-0.2001093879310398 
-1.313586172263329 
-0.01860514561522636 
-0.05852250037388279 
0.0761131759280496 
0.1490982523452753 
-0.1471821372615869 
0.9265824062118992 
1.07323404581999 
1.612383118051874 
-0.2491226990097153 
1.374360648554949 
-0.06675178153967941 
-0.1664454851731759 
-1.058523394858219 
-0.197677070470244 
-0.09379019938698707 
-0.7800054414854746 
1.58656139990868 
-0.2735996421464184 
0.1754212477830268 
-0.0729457175684739 
0.7067947842814991 
-0.001863391869394731 
-0.240258128194357 
-0.06656027602129767 
-0.001689371236158766 
-0.6170900429511648 
0.2811568151986601 
-0.01964462954582973 
-0.1054319111061794 
-0.6113512218281186 
-0.1166989070306226 
0.01580227505747797 
1.117360375706423 
0.5045058715408454 
0.3938707035019432 
-1.26561340229562 
0.6943542042609293 
0.1718129840204495 
-0.4770744350060481 
-0.03591871852948204 
-0.2430691979905253 
1.328429850555941 
-0.990815444900656 
-0.6056861049054491 
-0.37660875251612 
-0.04652536146117012 
0.8628548883084727 
-0.1834616261842451 
-0.02490691821948372 
0.6918659223021226 
-0.6696267716777032 
-0.7966119500538866 
-0.2481087158509206 
-0.3419678041531459 
-0.8106815856253412 
-0.02127975882549162 
-0.1461952107232182 
-0.06982986467718331 
-0.1924179191763666 
0.9363681449620902 
0.609154264380565 
-0.3846620418612953 
-0.04992977282875632 
-0.1014059470373685 
0.2194713433861485 
0.6997266544106067 
-0.08123508553650934 
0.6219356995555955 
-0.01461851869724022 
-0.436000207528844 
-0.07717099093698247 
-0.8023270801751532 
-0.2604489659992155 
0.5135262894920724 
-0.5332495644662288 
0.2945759862582757 
0.1411048973821825 
-0.1517286963845409 
-0.2072690275164414 
-0.1476904608380262 
-0.4252090362069305 
-0.7129447841090977 
-0.100045484908176 
-0.1570812878170061 
2.299931531465395 
0.8602843963084713 
0.530036798522583 
1.784430066940404 
-0.1722132363242179 
-0.2906168211180441 
-1.283425739638591 
-0.4194879842090065 
0.06261008694286047 
-0.3198711971374401 
-0.3225660469983194 
0.1520790683819315 
-0.3679890232927703 
-0.474007271292395 
-0.4670968205176272 
-0.163361845154643 
-0.3239640995589113 
1.001359697988675 
-1.443124228824764 
-1.021949401306591 
0.1305026181996411 
-0.8257476147947539 
-0.2445960476520108 
-0.5210376721663866 
-0.06871441875062932 
-0.1351914304424745 
0.6450492058925742 
-0.5306137093442497 
0.1281461097863369 
0.4792235885602616 
-0.6226926767619572 
0.9067311436962255 
1.042238834735853 
-0.6067223746395702 
-0.5802117867648756 
0.3584039468810541 
0.2511960361482538 
-0.5072548746009821 
0.227282953717995 
-0.0878491721832179 
1.297862755275647 
-0.03079810704970311 
-0.3310272359759976 
-0.02477207515605707 
-0.2306389088929675 
-0.457908205070312 
-0.3977890056108714 
1.384864365187866 
-0.1305112339233356 
1.667163053681375 
0.5369093225794584 
0.4377602886620156 
0.17387860704079 
-0.1821850655120151 
-0.05995421756810296 
-0.5397701103290566 
1.066450645723765 
-0.09531340641606745 
-0.1352909490438516 
-0.3957774695326673 
-0.02141164261757905 
-0.1991847695599486 
0.5020372774037559 
0.1322608695525752 
0.08273636497521715 
-0.8029049118041418 
-0.8939874305251722 
-1.137250249968063 
0.1779377804285087 
0.0624896293330481 
-0.2178777407262149 
0.154033475353824 
-0.1243173446803151 
0.245201920632287 
1.890403102524141 
0.1435387665351274 
-0.9848701841162841 
0.1008694051973632 
0.3260211018629209 
2.764345403986211 
-0.2171174792589132 
1.338396714982933 
-0.1205246090455224 
1.661422118099572 
-0.1246361249977148 
-0.1042381715800127 
1.039153784958225 
0.9291207772761094 
0.525101122006747 
0.01142581525194235 
0.4033666236018111 
-0.5850238388167115 
0.06934875421627729 
0.3974262730735633 
-0.2150277359282766 
-0.2556200849070762 
-1.357794718593785 
-0.6947294622018266 
0.2531607328886743 
-0.1468676395759142 
1.307482444437304 
-1.025991213595081 
0.1455196565355872 
-0.122404456702867 
0.8298883490280355 
-0.7720502448471449 
-0.0349682076309531 
-0.1262329122896211 
1.044123610569788 
0.3228364484225778 
1.018256311822183 
0.3391497327505923 
1.221886487466745 
-0.9429690184910842 
-0.2265152014095046 
0.9307236318930444 
-0.9631950750572177 
0.6878188412807226 
0.6190407028505329 
2.359305132515821 
0.1117671897377261 
-0.1843093635642472 
1.317470967959585 
-0.07087684510844595 
1.104437052810004 
0.8576929150615102 
0.6785823998694005 
-0.321093801816951 
-0.3373925712874437 
0.1725177678148984 
0.01000937856375771 
-0.005113037596777978 
-0.2957914856496097 
1.046554143117317 
-0.05813581256751925 
0.09787324555207345 
-0.2967059647180266 
0.1442339218658881 
1.237958375705031 
-0.04510740342913221 
0.06162831262510526 
-0.674553136977119 
-0.1752512926222052 
0.904817312187069 
-0.1421149082331134 
1.304312395400753 
-0.9625331083108827 
-0.1681742063505629 
-0.7656653992538442 
-0.07212953745932073 
0.3555801657409846 
-0.085529725491828 
2.291711702050671 
-0.1352702604597931 
0.09402369143278662 
-0.03504434728670728 
0.3351498420186664 
-0.08288157450045322 
-0.396207788576533 
-0.2040192096581784 
-1.110987183966182 
-0.745028767027184 
1.583542684270441 
-0.6575826126628269 
0.2134037627350799 
-0.03794423256694375 
-0.8577858700059299 
-0.142167136929474 
-0.01445733311630182 
-0.08901018334151821 
0.4833413259675466 
0.2675504466746831 
-0.07285697111222281 
-2.113113149080219 
0.04297758189175426 
-0.1072343593451662 
-1.054549304369722 
-2.153623146877296 
0.4300022139617026 
-0.3065201432229614 
-2.221740586251073 
0.06461058593318472 
1.466107415258932 
0.9915206898529934 
0.7968420828655327 
1.206712784623666 
-0.1632936176865116 
-0.2762610331526481 
0.01662731734796979 
1.912183419250759 
-0.7690412521706126 
0.1418449566320742 
0.6343531782577393 
-0.3988213704503179 
-0.06074096734553847 
-0.05636442366940698 
1.570710288976594 
0.1894415356632088 
-0.02619567904152991 
1.361695480036435 
1.354486664134191 
-1.567569302979684 
0.2318661074528683 
-0.446908266349537 
1.59656601841122 
0.5238760649753422 
-0.5482827540521628 
1.422819969931308 
1.133936557487146 
1.371998452057262 
0.190416086001935 
-0.1552795225572111 
0.06077743427297241 
0.91958940120801 
0.2997465107735961 
-1.09667150313426 
0.1023024029114418 
-0.3233339238561532 
0.2780881942393709 
-0.3045099039604079 
-0.06976467262923633 
0.1228491507258612 
0.3113839985742581 
-0.07484505056835482 
0.1875167696037949 
-0.2430998499304177 
0.3454932210594625 
-0.009727454520604374 
-0.4879841864754225 
0.01005983482388221 
0.3646503662550357 
-0.1884508010813865 
-1.533213481896215 
-0.1952987455054359 
-0.1162943469352916 
0.1159372324388234 
-0.1949612490539449 
-0.3663778363513809 
0.5035093655223579 
-0.9320289164798546 
-0.09933953451834879 
0.8572344690456427 
0.3940496842092277 
-0.8711735775579138 
3.140634949552972 
-0.5479187076090173 
-0.5531337476324348 
0.7477773325456256 
-1.174248815555998 
0.01482671099551101 
0.2370737779008126 
-0.4205512204874923 
-0.08120514895524944 
0.7060882287905215 
0.729756460092789 
0.7518203242597939 
-0.01007794887174025 
0.01069428388023939 
-0.8691494957372072 
1.130440617635782 
-0.02926840286051583 
-0.1417323012569233 
1.112767873783024 
-0.3962023012161572 
-0.8539818292616828 
0.119751937902267 
-0.08169894861320637 
-0.5961029806318604 
-0.4176819056535051 
-0.2247839273664577 
-0.1315294669217965 
0.2100262086648812 
0.1031048044593913 
0.8399649227317432 
0.1415778107384696 
0.1655260158035369 
-0.3692947134667974 
0.02556879648475111 
-0.9176938482304042 
0.1142705334614522 
0.1013462278682462 
0.08226994268925325 
-0.03138361443207145 
-0.06537702497588785 
-0.08548085395585985 
-0.02953832058917313 
0.3124038036052761 
1.499120939512329 
1.871453537653938 
-0.1816194384305422 
1.10446078878548 
-0.5651053512994487 
-0.0415491419834526 
1.04724908372524 
2.165313026986321 
0.1347000803600328 
0.1381188220879137 
-0.02081171987583729 
-0.03689083596771838 
1.480377867058357 
-0.08526857590515351 
1.840463544820282 
0.4537585065493106 
0.8541125687981863 
-0.2081274049242613 
1.075517474839393 
0.5003265732212594 
0.2022632685606831 
0.1180337412051018 
0.8026242621872425 
0.1570285602083157 
0.9345399088098413 
-0.1082385730692728 
0.2241033732026769 
0.8500456712758581 
-0.1077163631169534 
-1.533475070103372 
-0.1857192340998587 
0.2818915289584299 
0.7833574112166811 
0.5735226170056059 
0.8103731016784731 
-0.5136253623993755 
0.954908333560518 
-1.879593787474764 
-0.1307955345651832 
-0.6942762565525521 
-0.007493434491840637 
0.06890918737490238 
0.3613206718832723 
0.8077325700348115 
-1.243962813989994 
-0.1263759482722507 
0.1823455138766331 
0.1100035230919691 
0.2951124735015464 
-0.739912256503647 
0.5785821335617097 
1.191279056697828 
0.2373194370831702 
-0.2553824519037249 
0.1809231522565589 
-0.2826268860113781 
1.071596333011995 
-0.1998486434017263 
0.6080963488830841 
1.774669544931768 
0.2450714778804498 
0.3784338504689455 
-0.2252975823431577 
-0.2214023568356348 
-1.180780876355747 
1.390264307464457 
0.3112275167008645 
-0.4737713807871503 
0.3074504572471382 
-0.1402830270140903 
2.61210167540847 
1.239018480316376 
-1.708473443406284 
0.4996155357394083 
0.08037159213154711 
-0.3354936415270313 
0.2751175092502519 
-0.08578006708788896 
0.1723211913927815 
0.1167153620532873 
-0.1320292410152778 
-1.266908226226796 
0.5770795859794883 
-0.4394595615301769 
-0.06494018403797043 
0.1864326634101327 
1.207200637575657 
0.7731988433700614 
-0.09932391858685172 
-0.2698486259376894 
0.3678548017509167 
-0.9325026821612638 
-0.1033271738956933 
-0.003382238919590635 
-0.3428437433057182 
-0.07771354001917136 
0.5888293259386608 
0.1430501560696349 
0.4549351543359363 
0.6552336023971591 
-0.01328328265598349 
-0.638633971932123 
0.2591127777180965 
0.4358923572181519 
0.842598107308048 
0.848069342039813 
0.8511005369068428 
0.01443580598791051 
-0.08776081919594507 
0.7188091129752918 
-0.2147798352717478 
0.1423731597166913 
-0.03329320242746528 
-0.04531276051010794 
-0.03282935724953783 
-1.064200324818621 
1.401314691397569 
0.4503889122585474 
-0.03924332704283902 
0.6819433380542391 
-0.07076773848275096 
-0.4175287953931386 
-0.8680335383484556 
1.321696918474761 
0.1481256378490013 
-0.04557116236939411 
0.7387108985776791 
0.1625221766956376 
-0.0675081395944776 
0.7679178251756126 
-0.08044914293335363 
-0.3042819876612988 
0.5219483357344947 
-0.1453736793702087 
0.2650029707976801 
-0.3921628956224352 
-0.9948243673543922 
0.3748039912838522 
-1.609914559348288 
-0.396756372020112 
0.4608039472334823 
-0.05105972213075833 
0.06412518526055719 
-0.004232546320917159 
-0.2911160459675904 
-0.01734546097227185 
0.6740052446701393 
-0.08290053621621038 
-0.6841332248399333 
-0.02925627420054184 
0.1036628409008095 
-0.4913777988788702 
-0.9491136743599381 
0.02455486625079003 
-0.08016995002355685 
-0.03906447920917695 
-1.670973718405416 
0.6712826614062486 
-1.702062592895959 
0.3458692270727797 
0.6119276982609195 
-0.002722284870801526 
-1.0438769815614 
1.240813614214062 
-0.1400195891425956 
-0.2272788995376225 
0.2124735320616416 
-0.4748698613677004 
-0.5878775076423081 
0.2711888636353146 
0.479907358929293 
-0.7626719690753221 
-0.1426928618497008 
0.9825406940088448 
0.3633983165914668 
-0.1530147100664796 
-0.1304041893249703 
-0.01261753544986883 
0.4090297046555197 
0.5766223505756624 
-0.2924232400041347 
-0.0813566610146932 
-0.3589201521706727 
-0.2072926581740867 
0.6069553849772429 
0.1685208768286168 
-0.2086004217644097 
-0.7968266968252583 
2.200032432245583 
0.4559874963697927 
-0.5836388115789157 
0.5033017673641406 
0.8894155044315799 
0.3975006482877885 
-0.5287960313429301 
1.322572909069313 
-0.1007166762934644 
-0.03618302081684419 
1.250966908371896 
-0.3647439579017539 
-1.577022547091921 
0.08664802782119714 
-0.5701995197277598 
0.1192225172864956 
0.1674413697862315 
0.06627649693640762 
-0.009715180445150087 
0.1248015587202413 
-0.1688510810245588 
-0.1854556086311744 
0.6204024941325103 
0.506289941560069 
-0.2677741263161131 
-1.257610952414046 
1.145237964776809 
0.01224643684303203 
-1.161313041452191 
0.9953676721184876 
-0.02317043398443685 
0.0155162921463907 
-0.6220966965893434 
-0.04521551702153832 
0.9737593715457684 
-0.02484252854028568 
0.1158147450351561 
0.3866901418770488 
1.486975913858353 
-1.328305570234844 
-0.1317608572234355 
0.02407257835744329 
1.930222202265535 
-0.2819094459207125 
-0.2374501051860152 
0.1644368679515395 
-0.2638909951427857 
-0.8700166225526119 
-0.09177738243917867 
-1.606047253491267 
0.06191017402557501 
1.372624160519127 
-0.4398827458382176 
-0.07622720792716049 
0.6240014418360076 
-0.3475078143580626 
0.03352730083826005 
-0.1878424680096361 
-0.8330738065268903 
-0.09625311412773492 
-0.08240717178823777 
-1.345004972879913 
-0.8356522042250044 
0.1313755101429094 
-0.08330302828733413 
0.5209017249907208 
1.701378905023473 
0.7582757908437368 
2.416225409447796 
-0.4103167393623344 
-0.02361565747000923 
0.3558192453325613 
-0.07864910784946982 
0.3863553251158822 
-0.8337083844967801 
0.1559082868281681 
0.5229834543851709 
-0.5250141632310121 
0.5603910645988153 
0.5792500912193485 
1.906201217011019 
3.401867028210999 
-0.9107107265745416 
-0.1168838435788238 
0.6447000173365046 
-0.3971629190452212 
0.591392413335556 
0.2354821405012613 
1.214672169289937 
0.2238922619750232 
0.5029485972053085 
0.05006042475389402 
0.78883152819101 
0.0768870586146454 
-0.4102942010180342 
-0.0003427023928095536 
0.2866789969166371 
-0.005229435374928555 
1.655582101215317 
0.0673552238811415 
-0.8615340261941773 
-0.1062817276984116 
0.05379987596753311 
0.02778594155845322 
-0.6183595069257819 
0.6991687960157669 
0.1359590880543131 
-1.257929629991497 
-0.2451102859993827 
0.01028390609419575 
-0.5551895001961638 
-0.05834488289134379 
-0.1857566648432304 
0.3728222934647324 
0.774566658611158 
1.14033013349019 
0.5297600721106012 
0.7523786979758035 
0.6160934262227568 
1.968763568065742 
-0.4298557662795032 
-0.1573441254165432 
0.5999837398867766 
0.6250659673560429 
-0.2258411700573089 
-0.259173111825672 
0.3719651362357267 
0.176958782564636 
0.5883639966968129 
1.213835835554284 
-0.1586577840957949 
0.4967996492250531 
0.04595165732837423 
-0.008766042738069361 
-0.5939995560881977 
-0.06002982462582249 
0.4348695007212301 
-0.1428375224485836 
-0.2743507541524851 
1.066229048282946 
-0.2086096457648561 
-0.1276930569214332 
0.7216556508302577 
-0.0993918113919471 
-0.1251287770440287 
-0.1907038801389127 
0.02565472233490084 
0.01058915596005538 
0.01618860832568771 
-0.4231892580124966 
1.303359051457871 
0.3787757947203061 
0.2900806850928116 
-0.2192459044813835 
-0.9849774948525708 
-0.2410002859296286 
0.05493858617569236 
0.6447119126451784 
-0.02057956801602273 
-0.0821605753835085 
-0.1253358717307339 
-0.07392275186117456 
1.105390550901989 
0.006103339428020672 
-0.05986608230177726 
-0.01303733903869859 
-1.431226660629388 
0.000388994868816389 
0.4323159036217094 
-0.1724747306942074 
0.2275958055843197 
-0.04974270058217008 
0.6417315410560251 
0.3414948773369821 
-0.1280489570668948 
-0.1533543700185838 
-0.0384488818596369 
-0.08837813713235716 
-0.07921128347457251 
-0.03530202122031892 
-0.04672514748410381 
1.548560285381719 
-0.5487821232484384 
0.6343138225562777 
-0.1775836930284375 
-0.05810878762815808 
-0.506451800500569 
0.643559901234256 
-0.2288964008087797 
0.05535233781983039 
0.1379478378687685 
0.1123911106760526 
-0.02646469695176161 
0.3769047376102968 
-0.04518342648291288 
0.6118440636135953 
-0.007235596304674081 
-0.02882181384330874 
1.270106695502633 
0.05323763311358366 
-0.3360244984959305 
0.7805624252179127 
0.8754490444019104 
0.2900789558608344 
0.156707679446283 
0.6457137497145043 
-0.1331988296166376 
-0.05373018787045659 
0.2752824254369438 
-0.00890537671852493 
-0.3194699593560059 
0.1580937953744657 
0.823974154917239 
0.9569136424669998 
-0.01347861636695705 
-0.3624698995294 
0.1269965851873751 
-0.255513845515783 
0.5908515778116578 
-0.3176710953170687 
-0.007393538528055452 
0.08595854373982796 
0.01017669994905685 
-1.956049402936297 
0.06139568571485457 
-0.3247529430308321 
0.4065714876399625 
0.309701645165034 
-0.5387782088983879 
-0.6997295108474763 
0.838907869206438 
0.06345922609271297 
-1.070242305738794 
0.1079733145046968 
0.9784911802233537 
-0.5661752455764749 
-0.1093597097156084 
-0.5407966818949804 
-0.442497473676612 
-0.4117569220360595 
0.2018979335172165 
-0.3128845742572995 
0.1686512985256835 
-0.4579356581891915 
0.4541481188990049 
0.0009157933916979426 
-0.5064052075065717 
-0.7148418524137884 
0.1215742582411835 
0.06071954015263532 
-0.194712859881066 
0.1353711326095001 
-0.03364243587635002 
-0.9320641933176873 
-0.05389567744068143 
0.09946728589045711 
0.06466024658850549 
0.267520955407392 
0.1645971231035055 
1.395594030373128 
0.03064728434564484 
0.3196814847496974 
-0.02568451600500134 
0.4830186849975964 
-0.08855160975612723 
-0.4043767218657984 
-0.3973408026981652 
-0.2022697257220518 
0.3955414251504621 
-0.1003475242516029 
-0.1756017814253431 
0.1758599601465841 
-0.03071618935255847 
0.08696285627081804 
0.8221405458937728 
0.2249141118088289 
2.043302706682342 
0.07635517805448398 
0.5478304679855509 
-0.65753730498008 
0.6895340782934087 
-0.1064721555258413 
-0.04716381620632577 
0.05439904394442275 
-0.06864156460481875 
-0.110948543748056 
-0.2339039584918051 
-0.003307051936431067 
-0.1621538551942715 
0.6554693098614076 
0.02591960025746126 
-0.3595699182157631 
0.1133144477665104 
0.2134547329896419 
-0.03964461288565811 
1.236777942191616 
-0.1208708931767836 
0.7172019374390153 
-0.47316411450103 
-0.6513826260729123 
-0.08030733554203508 
-0.07641680861230365 
0.4133762445459903 
0.274703456612708 
-0.07012039794518161 
-0.7226619174546985 
-0.1673469926232986 
0.8961917640300682 
-0.1908147641623957 
-0.5358486550190296 
-0.09878281274228663 
0.1443417058052076 
0.125856989248936 
0.1608372823806939 
-0.3488782579657461 
0.1374404452669755 
-0.3647177796429878 
0.05914407273788595 
-0.1097232008319022 
-1.15242579392876 
-0.3712717465477708 
-2.331911708117052 
0.6177685013503741 
0.189896327781304 
0.1179388819744223 
0.5661500876841965 
-1.33732598910377 
0.2026594060899564 
0.7290615562670087 
0.2195997662813951 
0.3420931451502424 
-0.4194656975922043 
-0.08112355673661806 
-0.2978074759318936 
-1.969722155331102 
1.078509156144595 
0.01876756604248901 
0.4897481160828714 
2.404608505351187 
-0.3313938037168848 
1.30439773234288 
0.8106710695637634 
1.57632369688873 
0.2921981253440754 
-0.03697912996313264 
1.176987837753517 
0.1578141881693763 
-0.6475981652401575 
0.05439093044714976 
0.04604937980698029 
1.890907399195867 
-0.07629334203509405 
-0.4159826444570145 
0.7789587296932187 
-0.1741810042865166 
0.7530269338175676 
0.2778154241769183 
-0.4251747284200152 
0.2978106479488438 
-0.3591338120150498 
-0.03644284894890121 
0.05557874617923629 
-0.497667448004154 
0.1253804711603482 
-0.01119416634781838 
-0.08896208055142255 
-0.1219954163068439 
0.01009984322144561 
2.175417594859514 
-0.3656938212672501 
0.4266506787677404 
0.06611741747624757 
0.01919737141385508 
0.2477065996707399 
0.2442081136006668 
-0.3790543906716534 
-0.02868327531957467 
0.04021371914418925 
-2.277042532572158 
0.3166675708631452 
0.675202010456192 
-0.1381196944207517 
0.5811687794264643 
0.03832049791273658 
0.8764179263373172 
-0.3528220928793804 
-0.1905279316809413 
-1.107032229806694 
1.400343870240731 
1.001482436941347 
0.2924475473797581 
-0.02085910807459222 
-1.383461444187361 
-0.3533033605135463 
-0.06332583309881211 
-0.1665369194184821 
-0.1860957429428516 
-0.4008223111865414 
0.05988881038892231 
-0.1013765099342728 
1.153713176288223 
-0.1204084097430835 
-1.10831836511384 
-0.1285854197893754 
2.631247748279358 
0.2288547299616182 
0.4087894941028296 
-0.981544043839681 
-0.3097451174310968 
-0.7186632105744912 
0.997932766093073 
0.4591685098558241 
0.4362024684542577 
0.6369161591187706 
0.3670583450240743 
1.27058526055189 
-0.1246225435809432 
0.778088911231726 
-0.08169909268435913 
0.2459271580016107 
1.330532463582013 
0.1615683512566902 
-0.3292959891690121 
-0.1245572391320402 
-0.08034170745547418 
0.1359910768272833 
0.07741412477235851 
0.3619692925582031 
0.5171695888384623 
-0.1334034012847279 
-0.3383723013538892 
0.01546732119726223 
-0.06178682005522254 
0.05059534398545799 
-0.04025659178827771 
-0.1592266640496301 
-0.4161167786897972 
-0.3498404140608668 
-0.5464273122862298 
-0.07727378947124651 
-0.2033096115760184 
-0.1485455663968607 
0.05124219233145839 
0.2132043678579053 
1.954643712068249 
0.2649601036818177 
0.9324800120384987 
1.463952620314426 
-0.1393977860461367 
0.849573581923764 
-0.654349014761931 
-0.03271841071397383 
1.934366105160515 
0.1459118236168379 
-0.04457163217560339 
-0.4844674555353671 
0.8265135119483461 
-0.09629064044604427 
-0.1303937960457 
0.3032272182409369 
-0.3118425794216527 
-0.1868662295223991 
-0.1859064118289531 
0.8156381340839902 
-0.0631460504846295 
0.09832678464605531 
-0.7837009589392382 
0.001759794319633733 
-0.03961599596674435 
-0.4827300510799125 
-0.8491250316823914 
0.06020621391403767 
0.5045345702714636 
0.2197014157361057 
1.576851744355857 
-0.4562943870592822 
-0.003695720967867452 
0.2724236382060711 
-0.2313616317722297 
0.9593876444215852 
0.4204894187901308 
-0.8108482903099425 
-0.003713125915278898 
1.58029352906048 
-0.001592758228697558 
-0.2019527714701988 
0.1112360970624532 
0.9872098671201766 
-1.728047487880925 
0.4287843602386641 
-0.4169923450233639 
0.8613064262004222 
0.4527979946229683 
0.5535083250810441 
0.06801715672173339 
-0.01626663668603899 
1.488103472949958 
1.277319427735145 
0.04586676057370274 
-0.02982209753658848 
1.006065635772376 
0.4674757622873945 
-0.5433144096251232 
0.2822689548778671 
-0.3194549094715944 
0.1460679285185492 
0.08757635803165695 
0.03537720134113221 
-0.03718679477929757 
-0.7984549630232204 
-0.06828757001929119 
1.431060816951713 
0.9188648347202415 
-0.02841122235001154 
-0.1842799783896337 
0.8848060676373927 
0.3272890417797931 
-0.1153212550473981 
0.2707042499656922 
0.04328598956845176 
0.1085694580076669 
0.09224251544099657 
-0.7083242813437384 
0.3452580426924804 
0.0529239748952036 
-0.0114985833559621 
-0.2151498689072174 
-0.03343343952624251 
0.06912382051512798 
-0.267966751296933 
0.003849033822440297 
0.03547283691088483 
0.09023769004046932 
0.3703744345159 
0.575205366170718 
-0.0600466014772444 
-0.1507308385221828 
0.03791560865485487 
-0.06087923273591284 
0.3087554375622996 
-1.69945658179886 
-0.4071659642412792 
-0.8664025037915685 
2.058132651671746 
-0.453612077086815 
-0.1782432325305139 
0.2697522355025462 
0.2749091959108655 
-0.1918000635245771 
-1.398643168442313 
-0.05976995135372126 
-0.00430081401877334 
-0.02573948437595492 
-0.6062063697266358 
-0.2719777595087505 
0.5279978368982031 
-0.3868550171349551 
-1.037832777224261 
0.041235408850819 
0.2615732343193625 
0.005584597783775966 
0.500260336785496 
0.008919609160428213 
0.07673659187345415 
0.05959568913339314 
0.4079385586769169 
-0.8203637919783897 
-0.5058492857990484 
-0.6143071244290916 
-0.1958410639492253 
-4.154030106482383e-05 
-0.1824605216561243 
0.8829476152372159 
-0.1566513739344279 
-0.08802913709784738 
-0.08008764554216148 
-0.1422086187984631 
0.2651817866273034 
-0.9175278528038444 
-0.11396623875679 
-0.04781593000901242 
0.1334830003325467 
-0.1434604744760106 
-0.1013917120512412 
-0.02433507806672298 
-0.08925897698125027 
0.5513966001328656 
-0.3086915449846823 
-0.3085763806216951 
1.325152216648086 
-0.182120515942321 
-0.265101526302883 
-0.1745883938236549 
-0.07480611307753957 
0.2305316765410627 
-0.07848240359674988 
0.4414452980011058 
0.1030489413935357 
-0.07471673435032701 
0.1103502070887035 
0.1364001610652026 
-0.03558047020913065 
-0.8223887831416294 
-0.4700227300684641 
-0.888351492864433 
0.3232936104345726 
0.4555559464596061 
0.6158354884477978 
0.6871239731517267 
0.08383888288089476 
0.4623956747673276 
0.8957757765939979 
0.3058364194018046 
-0.360223582034469 
0.952062020304731 
-0.9565270855802694 
0.3493908747837018 
-0.5571798515349125 
0.01050529533546972 
0.2322020211842745 
1.727744962287624 
-0.4206170602676134 
0.5424016372322571 
0.126522998163679 
0.2629200668409853 
-0.47323694941068 
-0.06590948192396098 
0.344202366240079 
-0.09287962743061422 
0.3037641808941439 
-0.004301579832019306 
2.232905502159489 
0.01350382253483536 
0.8721403858153388 
-0.5512332278112259 
-0.5540308837236269 
0.2707855257926326 
0.1090562518666486 
-0.3874707646277719 
-0.570040359295103 
1.246866326407708 
-0.5423295559824297 
0.0974892100056209 
1.495401925955717 
-0.08580655245997465 
0.3491861275226218 
-0.5125752419777908 
0.9758238371124907 
-0.3687021903422087 
0.1491198815776802 
-0.1236015484048198 
0.3653639195644411 
-0.5458764376210935 
-0.1159861657619436 
0.3589601291001718 
-0.4247537817818058 
-0.3333328626774184 
0.3629279120567995 
0.2273454853972802 
1.36418562088205 
0.6641119331577351 
0.113101868352347 
0.0208809470935303 
-0.4303264812857215 
-0.1656682791914471 
-0.03954286993180194 
-0.6051398051721473 
-1.793092118257045 
-0.7612348429767933 
1.882797901133207 
0.2380136451160253 
-0.8224980635107022 
-0.07935562149822158 
0.2029533453807914 
0.2106412341534114 
-0.2307376899689909 
0.3694097048195827 
-0.03694990905665021 
-0.1001725259370923 
-0.1084440837829859 
1.889701253818486 
0.618183865525632 
-1.566293923789945 
0.6289144829784259 
-0.08425708852010914 
0.5251953158914512 
-0.4919545243931238 
0.6828751271506388 
-0.1067662618107854 
0.07509350104544991 
0.9359779466226978 
-1.314753838708997 
-0.04346149446753008 
-0.2255274427803606 
0.2088798428699207 
-0.05388483365853622 
-0.1601314634767856 
-0.1065938188275793 
0.8175823651771337 
0.6956490555184617 
0.03643614553015218 
-0.4800395765744237 
-0.4591004665028586 
0.9122268276591049 
0.2552237583788718 
0.1119569499690779 
0.09352543707542757 
0.3742779779702062 
-0.137334532447329 
-0.0296183995900446 
-0.6481030340279287 
0.02032466385515687 
-0.5474838357207663 
0.01760847308054065 
-0.2723064829050983 
-0.01642844337823703 
-0.009251159021330876 
-0.2751650567128817 
-0.3089080634204742 
-0.4398301510009693 
0.5503015626145982 
0.4911170916209531 
0.2183311740883378 
0.06295173204905223 
-0.7394606053685457 
0.1759076424604512 
-0.06737652402172574 
-0.4546640100722554 
-0.6282597529738037 
-0.07006553226747311 
-0.3515387293382535 
1.110124042767025 
-0.2916968669562335 
-0.03545450228805764 
0.03784665821265137 
0.111587522746298 
0.5919731346847682 
0.008971309954345325 
-0.06898256041352302 
1.964404515038737 
0.3763381350815405 
0.6664410823570898 
0.02885579389966266 
-0.04263107416244914 
-0.04565333262292074 
0.9573248828062734 
-1.72797588852888 
0.1998862846844402 
-0.04546281500711093 
-0.1032362899522446 
0.01060489906455236 
0.2914061141250731 
0.1355567953180891 
-0.2142627867304731 
0.04041030692539266 
0.504667149687415 
0.5191525383244716 
-0.2011963373477234 
0.006990652282385005 
-0.4951247711527241 
-0.2649393074844635 
0.3530536762119773 
1.270260740200506 
-0.07306544249709887 
-0.0476981248697143 
-0.2813201481886253 
0.5093678763666684 
1.456702115171086 
0.0835038568615294 
0.286563505132145 
0.395466811419641 
-0.05270627653337041 
-0.1095361851545841 
0.303470062315253 
1.315092541271307 
-0.1185234748312638 
1.172963912423656 
-0.7675110037100213 
0.5789430073875595 
0.3931790193171587 
0.1023503878914636 
-0.07665872666960495 
-1.034918642288251 
-0.2320691318822552 
-0.01258140660638805 
-0.5882616105573435 
0.0542550364843611 
0.4389460259234172 
0.1122726351734157 
-0.049465555859369 
-2.13203059699417 
0.0397156278117209 
-0.04233875188358673 
0.1729806420602523 
-0.1297790057196676 
-1.081729963733117 
2.987778900647206 
-1.071531200865928 
0.8569619399807592 
-0.02723495785983294 
0.7016801444523336 
-0.1635554888118701 
-0.7490892839284711 
0.1631945758623924 
0.1950305821858651 
0.3351431425171438 
0.2385413137156304 
0.1474671275628358 
0.4749622543889548 
0.4298343857883022 
-0.3282770069257966 
0.4413549788994918 
-0.7450346100432461 
-0.7136577670375663 
-0.5059602944054981 
-0.06012130749818259 
-0.2861613781706979 
-0.04349560046363762 
0.5648005999282993 
-0.2676820713159378 
0.1318395467257066 
-0.5987856904355926 
0.4120701326738079 
-0.8770794869527602 
-1.13502423459956 
0.1908476926176976 
-0.3380698677885802 
-0.8330308953189487 
0.4580690930343077 
0.08648570025100681 
0.7353788874408792 
0.1806489393635276 
-0.6204571566675141 
-0.00716733066082792 
-0.2090780720250345 
-0.03543634225687725 
0.2678313263613281 
-0.1746231273506747 
0.01408889528555053 
-0.2291407575537798 
-0.1486648539205091 
0.1736952611697699 
-0.09557405106258594 
1.105297257243831 
-0.01846278485844644 
0.4152653219206298 
0.1357966562790494 
-0.0642177567137194 
-1.035550098827472 
-0.01069061668003994 
-1.196851029560544 
0.8424334895260868 
0.2584688668822248 
-0.2318373280742103 
-1.255676953055586 
-0.3333490743976487 
0.1296312725716369 
-0.07649431122939843 
0.1931849549163292 
0.120887328407498 
0.308927863980168 
-0.5648037642583266 
0.3044640195103976 
0.8609513420928571 
0.7512727155803102 
-0.1940214446329578 
-0.7695266444644508 
0.05666154948115999 
0.9042922702873334 
1.727636615322499 
0.8421372033694063 
1.397133635360625 
-0.04099983626123854 
0.5232969963812765 
-0.06950099625243325 
0.2066386798507769 
0.5387156558806998 
0.02793825153297646 
-0.5862130325380294 
0.05178970010976386 
1.302180286960719 
-0.08294244174567947 
-0.8514580096572417 
-1.073220468772233 
0.004293131712835273 
-0.4946262292346965 
0.1978786418537824 
-0.2516210821701579 
-0.8092921969503304 
-0.4724438570311162 
-0.7585043325438845 
-0.2390921231281789 
-0.07732535945367951 
0.2851215385090415 
0.2291911664509408 
-0.0004506619158156958 
-0.01076455950047124 
0.433044954289045 
-0.6281072740738406 
-0.2321343590096098 
0.2610211387895662 
-0.6474633496678301 
0.2043470689315385 
-0.05248600153467037 
-0.1762889373909738 
-2.177950999472575 
-0.4580656998402062 
-0.04329880817421856 
-0.07332344153875273 
0.678122791308682 
0.9114302972815674 
0.03595190195608785 
0.4642153275339095 
0.4473957104162141 
-0.1042691474825077 
1.189116954166806 
-0.02117100314504268 
0.3023074047819786 
2.410227945499376 
-0.6628625450764551 
0.6145124384801953 
-0.03444309446270895 
-0.1599552908032542 
0.5130420466566277 
0.944591872870718 
0.4835449997879519 
-0.3091564154509739 
0.2154004819326112 
-0.4147550940351144 
0.08212690320153275 
0.1641181983895274 
0.0335845910611107 
-0.06780392045254974 
0.2219235660549665 
0.919925399347041 
0.3670854131407185 
-0.03588564983936512 
0.2389183974491297 
0.2026643996074453 
0.5661858063908396 
-0.0008907684653185846 
0.05908122269694645 
-0.6347390753456417 
0.06273488585618513 
-0.5508317109386697 
0.8089711990934774 
0.2592929094252156 
0.3906948168960473 
-0.3715620973489952 
0.428776918609757 
0.5232587896783946 
-0.01067149063390792 
0.8962080716501776 
0.3720754306020564 
0.07416333586255718 
-0.2576456182470582 
-0.1246884480782125 
0.008475916261545353 
-0.1603623463262803 
0.04551546650347538 
-0.1559981278826275 
-0.04773945302139505 
-0.07319000981422945 
-0.8526062730645009 
0.04861796721453522 
2.079440607296956 
-0.1502974152138064 
0.02714974373347875 
-1.837471000210843 
-0.04833021369002383 
0.03272544293552127 
-0.7682922490623105 
-0.04963110484979807 
-0.1015067901121837 
-0.0162464924771537 
-0.1095682912755702 
-0.05893314294738147 
0.161243103020662 
-0.004458339964454081 
-0.1211705174587014 
0.2312498780769681 
-0.07551678676515233 
-1.228738268676106 
2.183175983579028 
0.4355828147558995 
-1.098316743704214 
0.1736641416247869 
0.2749029450971592 
-0.6041868585658207 
-0.6114737804024206 
0.1818563653265052 
0.1917817463533081 
0.01300981281325668 
-0.2077543987378845 
0.1097116890452341 
0.01675993812951758 
-0.1540786232910633 
0.4446220887935481 
-0.1695870934847393 
0.4854214358585015 
-0.2921534868785585 
-0.0215440071142525 
-0.06688505545596861 
0.2641892462631661 
-0.08457371533016601 
0.08046043117519504 
-0.2868686458280298 
-0.1039240081538173 
-0.2818564003463209 
-0.3263066736855043 
-0.152983640179605 
-0.5595133702859966 
0.1804991008002798 
-0.1184167040425057 
-0.1061525027827201 
-0.0175376951888268 
0.385077518905985 
0.07601289946152145 
0.06918801507596564 
0.07075062556940497 
0.2238332236882653 
-0.4134554763519239 
0.2025136468065868 
-0.5195269224660689 
-0.01742760091836019 
-0.4957199219591014 
-0.4469563950951313 
-0.1472737407324196 
0.08756526944937248 
0.09364006125677798 
-0.1213575342098882 
-0.5459940738899122 
-0.3169707628260227 
0.4179776948634946 
-0.7320156388141621 
0.1454116005648093 
0.7593008939973895 
-0.02117481806021387 
0.02737248436312524 
0.5081220069253187 
0.1862220856397737 
-0.01172905713027821 
-0.4076301311245362 
0.6503952979090402 
0.4154528747511348 
0.2366929968055813 
0.01354554993432714 
-0.0710916590828618 
0.09661091535394042 
-0.9652833666276016 
0.391831838846514 
0.1124872476018502 
-0.1302231423806222 
-0.1915316580761222 
0.788406974777725 
0.2026637021938541 
-0.1080946705183002 
-0.1141696012342823 
0.1395794511440555 
-0.6887807228705346 
-0.3153600532702895 
0.1653822420475294 
-0.2899769943854062 
-0.07471542836036042 
0.2172114387725196 
0.1578143696828503 
0.9756116910280171 
0.009223530007390464 
0.3670947552515139 
1.275989785920359 
0.1719075825054745 
0.2476345286534789 
0.2234713735553852 
-0.2775880527655039 
-0.1953229078952825 
-0.7320638128386843 
-0.6503226127551673 
0.2519091398599791 
-0.01485100577174567 
0.00502937030194294 
-0.4588298068740521 
-0.0882335948419211 
1.241737234365532 
-0.1262809757822243 
-0.05713005513262338 
-0.04305968432720966 
0.8656873737866362 
0.1063688157517655 
0.1918145808280432 
1.016086925806303 
-0.4963053021567529 
0.244151042373703 
0.1093241979342707 
0.09912749850699794 
-0.4843297541976337 
-0.1817476566528563 
1.382151892896455 
0.5335500545268272 
0.4107697344174193 
0.4583890989758225 
0.5781440131562183 
0.04605657983037767 
-0.03095408328738307 
0.6325171431898213 
0.392724337429548 
0.7401215508078022 
0.4049640039840697 
0.108980919263536 
0.1467860917794453 
-0.04569248836411952 
-0.01570037942731348 
-1.490358215541479 
-0.1064031492996088 
-0.03424817939616294 
0.1768756526677669 
-0.04285572045086627 
1.539372958799993 
0.1377533343134951 
0.1909064556156387 
-0.5138472578257978 
0.8688700580517867 
-0.5538658659758805 
-0.575924885022614 
-0.05882861750778934 
0.02662293978136157 
-0.2481178217609186 
0.5783338784792182 
-0.5251506907230354 
0.151631290746562 
-0.6351811029039469 
1.204195820047396 
-0.05409070812141623 
0.0818737487560081 
0.1439931891021102 
-0.1650857724268575 
-0.4846893291699699 
-0.01630941282559429 
0.05491088985453434 
-0.5924632673165272 
0.4847055890190768 
-0.250085536765133 
0.001416228024508327 
0.01937120779128762 
1.511520231670969 
-0.2570032690165168 
0.5621629970435535 
0.5980522080085355 
-0.150339232883167 
0.1633538289129616 
-0.1052695464339464 
0.2740744859600062 
-0.01490242701880353 
0.08567576197795816 
-0.6590291738822327 
-0.1791469844422097 
-0.3377081012246425 
-0.4460312889365216 
0.4889421391948067 
-0.1580163541384959 
0.1248080117943485 
1.270273357579892 
0.9849814419623951 
0.1517098748238148 
-0.1971782323814671 
-0.1591175328770473 
-0.1734447978280053 
-0.1521911353712698 
-0.03343742965641806 
0.3569725624750207 
1.495036370309836 
-0.175120256591575 
0.08412147745360429 
-0.1457195485854203 
-0.0905048699712141 
-0.006096672968417612 
0.4032048412358676 
0.03023686459146264 
-0.105211439068488 
0.05338255661543777 
0.5512847647892848 
-0.6716929775122173 
1.460004411202302 
-0.01156190285047972 
-0.03411156580706808 
-0.06401691174815624 
0.006778494710618459 
-0.4263333721229705 
-0.523588133364425 
0.3094259629465497 
0.3523933645255129 
0.03971514988203469 
-0.1054236013649443 
-0.0269425892929724 
0.2533963690791912 
-0.6301253030812378 
0.2319006101747148 
-0.4233108830956938 
-0.1439070981864551 
-0.1063416890054489 
-0.1598780239877151 
0.1212368703186023 
0.04679897926934785 
0.2084310487115621 
0.3126546708213764 
0.04794597746437446 
0.004072568498007911 
0.00649306449969396 
-0.02941751268503986 
-0.3428338683101317 
-0.03938919787696718 
1.010460917100948 
1.456830039797951 
1.436827391341555 
-0.2337961349306593 
0.4966101368366631 
-1.434013654863965 
0.06268707667729088 
-0.1557907195366693 
0.04002164905463992 
-0.3658409646036805 
0.008560761510390228 
-0.08826565340715668 
0.460360966895661 
-0.135746895676631 
0.6701357865910033 
0.6093304723733463 
-0.04958600939020893 
-0.1299099939925812 
-0.2196098967871559 
0.04301144351612514 
0.2402508134503536 
-0.1866170154310207 
0.1228088464768225 
0.04024102387256878 
0.1093173155392663 
1.761334443204661 
0.2514982828587994 
-0.1808742685174156 
-0.1016673944288483 
-0.2318308186168196 
2.46699118722392 
0.07422141783867556 
-0.02368773728628439 
0.5600275292084737 
0.02816344385411853 
-0.01355325732240663 
-0.5212326692281788 
-0.7623372454742157 
-0.01458837011402385 
0.2217819000983252 
-0.07914491735249755 
0.4065038848598188 
0.1628822437962999 
-0.0006305862440536693 
0.05593297711504646 
0.1491859147277982 
-0.6780782713496752 
-0.1503378444913588 
0.09718196700527892 
-1.216510361306296 
0.03188834048235673 
0.2502083215030106 
0.8671813680502614 
-0.01435785842702247 
0.7061728978366517 
2.169122830720256 
-0.1764025716951059 
-0.2505361848590348 
0.08323880186817327 
0.07574092741362137 
-0.4163629037332005 
-0.05059007695395975 
0.006118864438977555 
-0.01564818117254024 
1.027462047760643 
-0.1416250896025096 
-0.01710658621586822 
0.1857538250445229 
0.293626621539904 
0.3800398517898637 
-0.5501284490023264 
-0.04744921940817338 
-0.4461062575721863 
0.5289110187474727 
0.8081315415228079 
-0.5469362361222587 
0.4473537057484955 
-0.659963369733139 
0.1897084119870223 
0.3121036661263551 
0.3197665381710165 
-0.1225480896285095 
0.06281586306962575 
0.3470557539070323 
-0.03231794546819833 
0.0009950594557676866 
0.6021913368880618 
-0.6291034616284751 
0.05554356548144666 
-0.46183467159967 
0.4096342667674712 
-0.1192408225568279 
-0.01625416762292618 
-0.02424150994916905 
-0.3458995941057239 
0.103613406795097 
0.6352212215504868 
0.1338927429811402 
-0.02479691496279783 
-0.5795562698536221 
0.1218292166611284 
1.704129234950347 
-0.8230312932596545 
-0.4506264707643538 
-0.05566378780503142 
-0.03206583846728162 
0.1072257683256136 
0.4016152384421879 
-0.2472210013265956 
0.9279290914094849 
-0.4166009007870112 
-0.2807923663809263 
-0.02368435949740789 
-0.4133520110561565 
-1.026880220285871 
0.4054932122397278 
-0.01159728350789471 
1.030032804626801 
0.4456554206985693 
0.1880010225521138 
-0.002918975968578064 
-0.07184897606333615 
0.376969172084398 
1.461083253400226 
0.7410691229844296 
0.1504994672366605 
-0.3464502401685557 
-0.03048689612809849 
-0.007314512061129103 
-0.007210074005702443 
-0.003397838919891566 
0.005891067907408055 
0.07982825930943847 
0.08321669494211259 
0.01558830324247311 
-0.1780856162152004 
-0.2229303239416997 
0.1652401122515172 
-0.02045824002874274 
-0.3963099522408056 
-0.5545621643709218 
-0.1654850269624061 
-0.02791910562181355 
0.08353590381045058 
0.1489660952663642 
0.09063428981107242 
-0.5154890626416627 
1.249074986393867 
0.06429760330576365 
0.4994943160951172 
-0.06548286296646107 
0.1369640410823275 
0.03578799217141181 
-0.7574176688033213 
-0.5018603816220734 
0.01245039993083472 
0.9251905137734437 
0.01934343565218376 
-0.03739123260706639 
0.5103345357238592 
-0.8018575979096306 
-0.02613335891186414 
1.805346961082591 
0.3850161987060773 
0.03215393096273365 
0.08603490302487725 
-0.7738359341214894 
0.05078519093082964 
0.2494449805688637 
-1.182058113044035 
0.03613355099296054 
-0.04136481125392683 
0.01972976962519319 
0.006146618838552074 
0.3768920208917116 
2.073207993322387 
0.1980357883865702 
0.2869257568400501 
1.235629013777696 
-0.05054633228249142 
0.08380898832706932 
0.1181217339912036 
0.2826021121703953 
-0.1119931392373627 
-0.0475744377214916 
1.427819975285979 
0.4494993258548534 
-0.3755278017916029 
0.004158168074007917 
0.6858946370809008 
0.07041404720978124 
0.09355886726380749 
0.1025811709735163 
0.7428433181399348 
-2.034819608811493 
0.02379280710560263 
0.06256249361998048 
-0.8958176774632013 
-0.5085267691622952 
0.137114532564612 
0.04971972249549166 
0.6995584866223917 
0.948066810909643 
0.8359037489963543 
0.3411167437059975 
0.2537771702295126 
-0.2689487232042201 
0.5760507413431691 
-0.2686145927968251 
-0.2346075567583081 
0.8785331808951875 
0.1504322812591845 
0.6019640235210902 
0.7042380155737391 
1.798127386173466 
0.02975316291178419 
0.02836714709771544 
-0.306443176391938 
-0.2700125606988695 
0.2409127962790533 
-0.009787730828616337 
-0.3692023916161701 
-0.5520271485407983 
-0.3247196247749607 
0.2432729066249435 
-0.7928914010930778 
-0.2346963617250517 
0.2115566228449892 
-0.1656680663253434 
0.03653682175016991 
-0.229101654567324 
-0.2836654528950343 
0.1099843732854706 
0.8985047444073884 
1.057991201220665 
-0.07560223227069586 
-0.08428994669176977 
-0.2043678962225733 
-0.121392116240413 
0.01491879457710914 
-0.2975392507944603 
0.8485758356223747 
-0.01313827882074193 
0.2733485096464436 
0.04419961463298652 
0.3561317431108359 
-0.02926208311320256 
0.1745841646776046 
0.3155262632652559 
0.125876567555785 
0.2148575460365278 
0.2539349753342603 
0.03092848293604455 
-0.04877198174768789 
0.364398010267566 
0.06936072898813302 
-0.1636248779354292 
-0.08789803515957273 
-0.08416717159176279 
-0.1789195845226678 
0.1868802444866147 
0.3274319505010774 
-0.2930323713097036 
-0.2354457905378525 
0.1971820573072116 
1.073748682158789 
0.08910213169224081 
-0.2946267869531795 
-0.01972798888557499 
-0.01135902309404355 
0.3428875698438325 
0.01847877427390953 
0.6927723316100843 
0.5959709905152374 
1.049074666059706 
0.05246371561692711 
0.1440261775709805 
-0.6401824539087319 
-0.1879937374543314 
0.2498481498291854 
-0.004584719205110781 
1.211597365333831 
-1.060349881999584 
-0.1876214451320249 
-0.008333336710617766 
-0.2642522577191881 
-0.1083174450822988 
-0.1424686927927006 
0.1697600986414047 
0.3235582506099788 
-0.01239974709851709 
0.844203911404197 
-0.0197378324211727 
-0.08353136881665399 
-0.1852234850831587 
0.02463727331705165 
-2.208519083864091 
0.02941781935787895 
-0.1117537958351243 
-0.05625584033058051 
0.1862554114748471 
0.007289638702694886 
0.02344713538063324 
0.02650086236995555 
-0.4869263660582827 
0.09580588406610267 
-0.09461970850288645 
-0.007600778781165645 
0.6522855369761718 
1.588106440622558 
0.2923429772844975 
-0.6978850365851115 
-0.03659395092840392 
-0.1781225091521586 
0.2098057488475889 
0.3504133105705918 
-0.03501910241515045 
0.249894151541853 
-0.1888972749485728 
-0.7012571864494294 
0.1006498948708876 
-0.1492951628367904 
-0.4943877830077086 
0.3349413645392406 
0.5373816457787548 
-0.2090527742968258 
0.2208229972895567 
1.654291238582636 
-0.0168829900542041 
0.1356848477609645 
0.04250804669057528 
-0.325860044364065 
-0.9167753767203356 
0.815101200026455 
0.1452213143577765 
2.344618646359052 
-0.1305886365440476 
-0.532640071636827 
-0.09101278334327167 
-0.03390827574500708 
-0.08204482452266468 
-0.04022777322172541 
0.1756174151734899 
-0.06520893605718246 
-0.04313882621100443 
-0.4726124404374099 
0.09137437527065204 
1.669830579536971 
-0.04961525191592302 
0.2892164511448844 
-0.4284187822640761 
-0.1153873917961734 
0.7167058096429383 
0.04021764546904162 
0.02066371167271571 
0.01611949555133465 
0.01593658485972773 
-0.001421430778150234 
0.3777219646238173 
0.3219410832074776 
-0.04370223325019724 
-0.6229945207200307 
-0.1865766750139855 
0.8657068137505621 
0.2511354132349891 
-0.2597993555513134 
-1.322316901377947 
-0.1195158549941283 
0.5996389439395401 
0.7106133320710047 
-0.02347915124805185 
0.3254285139686092 
-0.1218771276844821 
0.500023724304047 
-0.432031633263265 
-0.1213125426929727 
-0.6286129023849755 
-0.645275441882148 
1.244437512997816 
-0.1449575811791792 
-0.07529890251875852 
0.2583493732480528 
0.9796762594604302 
-0.4541646487089226 
0.433473498911198 
-0.5476993153278378 
-0.06761141302257939 
-0.05024595700898835 
0.03028216537229241 
-0.09983960774084101 
0.09709504221389005 
-0.6541059600059681 
-0.07299020867011652 
-0.04895830728116173 
-0.7081591366585868 
-0.03831703511970018 
-0.1906291316575667 
0.1763931409168474 
0.4327400329415751 
0.9961344912292043 
-0.02184864261386174 
0.1383389330764027 
-0.498956869465721 
0.392273031878913 
0.01586362404522287 
0.1413188672680785 
-0.5298974993467641 
0.3069222510919701 
0.1788994413884273 
0.03203635311590009 
-0.1895569411384588 
-0.05088443444025793 
-0.04355184867755348 
-0.07128204913260194 
-0.01848752289291964 
-0.5818215867806128 
-0.04768723170004857 
-0.1105602139010223 
0.9780985879630872 
0.7654568266158877 
0.953438084593404 
-0.1566350314101358 
0.5942877115112515 
0.04989169529898296 
0.02079675050341546 
-0.1129365502390808 
0.1088710833941236 
-0.0641611363237433 
-0.5519599489187196 
-0.3329503867258728 
0.3807275742066478 
0.4519644190076108 
0.0419801025332466 
0.3175429878554349 
-0.7162355631030253 
-0.005345087572618258 
0.2348975587948639 
1.072883936960216 
-1.39946820510675 
0.1526796549038729 
0.6974431616864641 
-0.4580284274802752 
-0.1746215656644393 
-0.07843285780417834 
0.5924435753909791 
-0.2753821067540413 
0.2240105068572421 
0.04608598002754476 
0.002959483427586226 
0.2979208314565928 
0.08347726569655591 
-0.1081490874127488 
0.8145818107103988 
-0.6165774906347875 
-0.5180073180010691 
0.03962142175341818 
0.4302530884134859 
-0.6431565968864263 
0.08728317698806985 
0.05881060241261792 
1.1978457149646 
0.9740276499121494 
-0.06907021851098147 
-0.7193775479427001 
0.1355035411001705 
0.9175592370451631 
-0.2025177654471499 
0.04796283020947294 
-0.1416159500865321 
0.1527321298721515 
0.4896108666241206 
0.5910476799148306 
-0.1313859126349474 
-0.02272747044553791 
0.06219715363338045 
0.4994889895601538 
-0.7079046924548373 
-0.06286990721170163 
0.2710016918516716 
0.5113815780019447 
0.1309373345261966 
-0.1867204339227172 
0.3710934836973394 
-0.2054450028373671 
0.0921077884289347 
0.1750326150240822 
-0.007159445895716524 
-0.7414838251134761 
-0.1304414840924838 
-0.03710283026804314 
-0.6329063859684803 
0.1391585425965837 
-0.06550645068490427 
0.06409963598289389 
-0.528624413668495 
0.02347062068587061 
-0.6600006922688726 
0.1675578027471696 
-0.01794923680164996 
-0.6802633186031605 
1.033775521704802 
0.0939580052114624 
0.04361937864376501 
0.9876250979212075 
-0.1519779047514675 
0.595298871374468 
-0.8780569653901771 
-0.451338131276186 
-0.7471915731679042 
0.2534926333649469 
-0.2295388120013815 
-0.4777801227179755 
0.6798808844663694 
-0.3571184810929702 
-0.8727850303752209 
0.5292169982105959 
-0.2640656511007035 
0.005395760526454857 
0.4832351308688591 
0.1352611848733548 
-0.2686915183254757 
0.626350175824152 
-0.4949450690668928 
0.304287483264223 
0.0307479807865909 
-0.02577484557129178 
0.1027566951588482 
0.1351053704553822 
-0.3196935476722012 
-0.02486538034651851 
0.7335305031727811 
-0.2190519821107986 
-0.01363194699605657 
-0.9570887689901426 
-1.045068627189643 
0.8315360644678679 
-0.08630848363895344 
0.1345448304939595 
-0.2412950273080363 
0.04316565826837736 
-0.1103125493881659 
0.1397580859604142 
-0.5154969142716489 
-0.1024129681834139 
0.1929053554505928 
0.7158672336605297 
0.1454616273987311 
-0.2078676021114466 
0.1259156803517063 
0.3689659222632861 
0.1168813882535727 
0.004179766753259273 
0.117302337436336 
-0.1213564469850346 
0.6714452833048454 
-0.6412414955488627 
0.05844085942216843 
-0.07212936151243506 
-0.3191635522297667 
0.5562312611549407 
-0.09092617581459631 
1.140818890635284 
-0.2647899657117051 
0.0526553662547197 
-1.273498897628305 
0.2163999239676166 
-0.2027860828535948 
0.2335892602534877 
0.6021738742838965 
-0.05115847519982816 
-0.02236432632134881 
-0.3684765553725063 
-0.02262236630549059 
-0.04065960323240451 
-0.07097356795554964 
0.08401738298397908 
0.1011448421500128 
-0.2533478914266896 
0.1552035520320095 
-0.1124288436267819 
0.002748184041441479 
0.027244778625332 
-0.8730687146239221 
-0.3248694709848893 
-0.6129186026234741 
-0.164410192839559 
-0.0516511116414826 
0.2716574150441173 
0.9679451504180452 
0.05998059633364342 
-0.6208874829756102 
0.09116789451629689 
0.7852314130055836 
0.1492945934667389 
-0.07341731136065004 
-0.2089302551682528 
0.05568436223241163 
-0.00635978938792829 
0.1794514206415349 
0.9349501542659122 
0.1027054380804518 
-0.2675063110150163 
0.05857052888022412 
0.0129933987004288 
0.2015675969445972 
-0.2444738687838 
0.2687214169055167 
-0.05017917348930597 
0.152685394915007 
-0.6960925189071233 
0.3928955945230454 
0.3798308104421376 
-0.06627335044409612 
-0.5221843602878189 
-0.02378181298390215 
0.168981017953494 
-0.08553188044208208 
0.3606673832006457 
-0.02968792480202381 
0.8641026629070995 
-0.02052732068258171 
-0.3177065378183889 
0.3074023886760089 
-0.7025024772166557 
-0.06705954021275838 
1.217431469418042 
-0.1575264271115366 
-0.06465706658107984 
-0.01351750867468837 
-0.05911629158950275 
1.089875327489083 
0.3295449716185349 
-0.1900761880899682 
-0.0644428678449466 
-0.03786318049484474 
-0.09234047280691593 
0.2921701382271567 
0.1385942834072377 
0.1291875422233755 
-0.01197600801499242 
-0.201800052701331 
0.02454112332066171 
-0.03110021553086796 
0.2135267268975591 
-0.03482369820455092 
0.3203706603364719 
0.09767114886934952 
-0.03422919686350612 
-0.663133925302699 
-0.06935301841558253 
0.9360419097455192 
-0.003459168140051869 
0.129951598334849 
1.946889704205331 
-0.05814635043082762 
0.3034333974597304 
-0.4973062433825181 
-0.06635953660570762 
0.3140268582161442 
-0.3028690945519198 
0.4731447068509151 
0.590094653194385 
0.4630096712294207 
0.1811373954227762 
-0.02679716291011657 
0.156383285475263 
0.09396261817826133 
-0.4185647310922448 
-0.2172253996706985 
-0.01296135179285698 
0.2562656032180416 
0.05374946532208905 
-0.1610844931573563 
-0.456275575951155 
0.07674431247647938 
1.130553032702476 
0.3473812139154021 
-0.0181589588221036 
0.5477965370368455 
0.1406545641007667 
-0.6019356971897203 
0.108205641284567 
0.2459519728476871 
0.02915863345369532 
0.05632486750539119 
-0.7330617257876059 
0.3242272507087274 
-0.6014638596162388 
0.1878907073971989 
0.1617324619635505 
0.2548282347879172 
-0.04224934172357726 
0.5598273252443771 
0.09735721188379159 
0.1196074582026023 
0.01120253535269764 
0.07532325163228448 
0.2888427763319347 
-0.1667649819025197 
-0.4989487431963034 
-0.384540379561499 
0.110064588793517 
0.1864120768972489 
-0.02056972791199381 
0.2639179964924974 
0.01254378534332785 
0.1038587391952512 
-0.03886979546634395 
-0.08151882794014262 
0.4789499924387524 
-0.2432211813856951 
-0.1782191577608198 
0.2855195970211619 
0.0996029264267079 
-0.08821448245399986 
-0.06369792127082238 
-0.1681945086280316 
-0.1854628992556931 
-0.345332467011891 
0.5097183276421172 
0.2276187067439681 
-0.6060915041072754 
-0.5543767386480244 
0.2065584043910916 
0.1633678627387682 
-0.03686308582485996 
-0.03919141575584247 
0.2776337890410444 
0.1774606013719677 
0.3632929972784414 
0.1418937327573517 
0.05622246971346944 
-0.1187253790280478 
-0.02039546665526078 
-0.2097011986959472 
-0.2466951071588346 
-0.2655599546325194 
0.1552199017006639 
0.2721751788926335 
-0.4642422567491296 
-0.005250676585828231 
0.1626481292522461 
0.2167940466491166 
0.2203472355632327 
0.01801891867701608 
-0.003155948401600795 
-0.02859572975667612 
-0.7334334811042097 
0.08221722452330951 
-0.5640522873403787 
-0.1052613374500971 
-1.010649016779293 
-0.0495361602710491 
0.03600232500663316 
0.1214798769525199 
-0.06456162709367166 
-0.306625561085646 
1.645836726072952 
-0.320376111220203 
-0.5935670873607918 
0.04217266134252091 
-0.1783507519221854 
0.09804244408361339 
0.2709085942232372 
-0.2676826532634956 
-0.06152625397254696 
0.9311228475083128 
0.2450175738003093 
-0.7487606285374517 
-0.0200538834307298 
0.2475649739362296 
0.7705075757451335 
0.06865715876752088 
-0.02477246552148429 
0.8174006930189649 
-0.01269931502486624 
0.02874912214468089 
0.1276765389242648 
1.753898891319269 
-0.036643306688921 
1.607789601396368 
-0.1812194594275944 
0.1155483310234088 
0.2626448471645062 
-0.03748901280322584 
-0.9561239928011668 
-0.01286641306938316 
-0.05016811614842508 
0.1420847178000821 
0.2146092157121925 
-0.02998087092576013 
0.1138686282109022 
-0.9178515480995305 
-0.2477738367911593 
0.163192707619877 
-0.166539782088513 
0.24857445693886 
-0.611951358285038 
-0.09744498362948942 
-0.1389538217692073 
0.2535899644911256 
-0.00772521377995449 
-0.031202067782606 
0.5595926044192345 
-0.1364257237022195 
0.6126174082607038 
-0.3995776196723596 
-0.1740152187563903 
0.0301797943090734 
0.2173176239526228 
0.07979129424079982 
-0.551797643943667 
0.09997035000417352 
0.9723900192674276 
-0.3868710863071804 
-0.1317926559572152 
0.1435279845545001 
0.2885600536508545 
0.06683059683845949 
0.08527959710274625 
0.3071683877058199 
-0.1378280886725942 
0.2271155425158482 
0.8058907677142054 
-0.07110072822562638 
0.05554249312394609 
0.1207068682968226 
0.5798588053526565 
0.4894796175365888 
-0.09627083645316561 
0.3681796515082831 
0.3617603498469149 
-0.4684228012285708 
0.6844487540295542 
-0.0050570438006382 
0.09916309283244129 
0.1607255674008188 
-0.303918587722233 
-0.3595883839355579 
0.2285049256138191 
-0.1312718060154205 
-0.07411121547916646 
0.1201325690398844 
0.04978241016612745 
0.1781189001922613 
0.3157975608038501 
0.03992792681478115 
-0.2214176770245083 
-0.2867695548123593 
0.08213239588658759 
0.5136013601528356 
0.5696710915887493 
-0.02388957253188189 
0.3384503512423664 
-0.2658679735290012 
-0.8319828876838302 
0.05326766318325372 
-1.972247422067218 
0.0242834539556138 
-0.05704524476699354 
0.3142854323478136 
-0.0317274137292616 
0.2961861967987332 
1.68602959299861 
0.3111377878191602 
-0.1814392359623578 
0.06778894774786418 
-0.7759470536560384 
0.1134962954956683 
0.3614900647595267 
0.07344665561664748 
0.2770108257314925 
-0.5642771438379491 
-0.0265367363915471 
0.1211654325183361 
0.127625441099149 
1.176363356041321 
0.2292889800874758 
-0.05198339280636152 
-0.07175411779230206 
0.2692494737163455 
0.359040276600931 
-0.0628928844198379 
-0.205407455101295 
-0.09917910175807218 
0.9330159280444354 
-0.2663800285693529 
0.2163210546335111 
-0.7367273016383035 
-0.02194402079188928 
-0.1599111904049869 
0.1517188008481404 
0.05732121943037446 
0.3888142945934699 
0.0004688525005388707 
0.2663737502497581 
0.09856235492578816 
-0.08447489646598279 
-0.09246815753371042 
0.9891039093000427 
-0.1224928749476025 
-0.01475162209890569 
0.09456735773608481 
0.0806907811682719 
0.7022105127305092 
-0.4622997519566378 
0.4440039215725989 
0.0624461358823245 
-0.4456426568368315 
0.3528803895168471 
1.043238723241448 
0.1170538323409885 
0.04540305412625534 
-0.07132281064147268 
0.1488778404399006 
0.6559033938340247 
-0.0261466138422239 
0.2374450206875139 
0.07254414016380983 
0.001210327508004339 
-0.2777670980693693 
-0.2217479979470573 
-0.6663282875828331 
-0.1747392772748187 
-0.02495544537367859 
-0.1900447962967442 
-0.2675271146437418 
-0.01664498137510991 
0.7998804784979885 
-0.4847364575988266 
-0.1961381166409988 
0.6013544827087965 
-0.1441266521760113 
-0.06269148904147245 
0.4952811215472023 
0.7540287339145831 
-0.181385468341879 
-0.03404271428883003 
-0.02451014929060721 
0.3851797082400435 
0.1247413062464874 
-0.04395845545911643 
-0.02170238811992763 
-0.02632152236851204 
0.03272552777323078 
0.06696384536314946 
-0.05052684201585207 
0.1176473622769145 
-0.04303701427307024 
-0.1333468510603634 
-0.3421179867670115 
-0.1226701525867279 
0.4627540244678729 
-0.3001356314621692 
-0.8051279818478422 
0.7719319286130503 
-0.06839262976982785 
0.4101147988844552 
-0.4340783649713229 
0.1923537940637682 
-0.007878488425320429 
0.07566065262810993 
-0.5029573864922509 
-0.07780984157135 
0.5331583801147747 
-0.4152201876540825 
-0.02188196745689911 
-0.3179201660139886 
-0.02473243197579451 
0.5737606417904509 
-0.2080982832363564 
0.436617345089597 
0.1575961774297749 
0.1900818476699258 
0.2199284932888282 
0.06222124227644339 
0.5075823580094758 
-0.6996654250682404 
0.2720225919934631 
-0.1260388105942364 
-0.471189240646693 
-0.4415944793339194 
-0.05962135635197714 
0.4939652402549103 
0.4702905826004622 
-0.2154841404126117 
0.6044615662118573 
-0.01373140186705772 
0.1594448906070911 
0.4445703628744906 
0.02214572784927223 
0.07861782539756783 
0.00822255414876283 
-0.2230995731517255 
1.479918583191502 
0.03686418484999202 
0.3141535608974347 
-0.001751539245170846 
0.9691057221543375 
1.404533326563734 
0.1515271594117928 
0.2178041626537956 
-1.261958382418333 
0.1033398198865763 
0.9175442740115251 
-0.3594361897671284 
-0.006322464247445299 
0.0833406099126596 
-0.1819466863355532 
0.005615101200050752 
0.1968548781683039 
-0.7355472784503194 
1.044896197625527 
-0.3848483793939118 
0.6513454225725716 
-0.5372520714148583 
0.5447103080042049 
-0.365291354544753 
-0.01834876359898804 
-0.03797759167598098 
-0.7881994429692788 
0.1965323115894011 
-0.10187152798879 
0.01423719287998391 
0.1314062841415583 
-0.6948480031186842 
-0.03206240119068161 
-0.003591495986496452 
-0.09169217801894228 
-0.009562007559197502 
0.1547740924522423 
0.3750021651811302 
-0.1380449768561148 
-0.1391599294508805 
0.9614677572068043 
-0.2105150303740925 
1.115877749860428 
-0.4108279715768342 
1.078718521567788 
-0.09377227801100316 
0.5808233671299532 
-0.1219022531546616 
0.118839153819337 
-0.06972898178573593 
0.04689353245954588 
0.2406264581951673 
0.2014711552052293 
0.01989801873993856 
0.3286426152306818 
0.07150168044265214 
0.1419039518107823 
-0.02049966769393394 
-0.07342961308828796 
-0.5156101684179691 
0.29981851935071 
0.7218495668766213 
-0.2408466154141706 
-0.05594454832822503 
0.08582454840162539 
-0.01479643134129304 
0.7945018438642315 
-0.1787550027054784 
-0.08269740192613412 
-0.4412315910217827 
0.9290038714495628 
0.05327560493971977 
0.1012988241531329 
0.2730708157777611 
0.09335164827457677 
0.1124295790102586 
-1.259412694029102 
-0.06807530339987285 
-0.3853293465076939 
0.3381589790144464 
-0.02177541544096986 
-0.6922807145637481 
-0.04292110623426096 
-0.4328376584955092 
-0.7572916278284086 
0.2512247611598451 
0.673011520807078 
2.280608820904374 
0.02054857278859161 
-0.01022600680624165 
0.1718430855422588 
-0.3910625116909977 
-0.2015071499916535 
-0.8790635051105358 
-0.565184561250915 
-0.1760517784173765 
-0.06629719253333748 
0.1652573668252716 
0.06573034863874015 
0.2480220803327939 
-0.01496329108629882 
0.2180776618823513 
-0.6197355428527505 
-0.01812948461285569 
0.2962866344545949 
-0.03851585935606704 
-0.2179557953664786 
0.3537177416935223 
0.174982096266513 
1.046321034052859 
0.4666471679233464 
0.2550449915737659 
-0.6587571876618917 
-0.0740108405713117 
-0.02496119277019226 
0.09937692589571104 
-0.09383890175340383 
-1.359898828091922 
-0.06784465332448975 
-0.03606368023331475 
-0.5051092495155616 
-0.2787621592294783 
0.5742472363265243 
-0.07746471634158633 
-0.2985578516610504 
-0.0680919238704962 
-1.078264198924965 
0.5543840138429409 
-0.008645300244649316 
-0.0335163715181677 
-0.4815648511685163 
-0.03332858796507963 
-0.2041293255743445 
-0.2163081622231631 
0.3709461442438802 
-0.03722141215928527 
0.5414460046286056 
-0.7510655436014365 
-0.001703968071658344 
-0.2721067963529508 
-0.08155595782309165 
0.08155491223799659 
-0.06405508759940864 
0.03277482062874165 
-0.2882752974786331 
-0.2850761848567799 
0.08224007195484385 
-0.9880738989756795 
-0.177090198462072 
-0.5137986304326915 
-0.04893278261061328 
-0.3856184615224109 
0.0581125801777127 
-0.008523471604625719 
0.4771031628092284 
0.3439826888472144 
-0.2249811111829753 
-0.2593926350798388 
-0.1067647564326165 
0.1459783258592088 
0.4101819845196461 
-0.1764348359313671 
0.04943245574447269 
0.110985597993548 
0.1797142570103635 
-0.004387174405048145 
0.6538475601895375 
-0.2036868247937855 
0.2224624111577321 
-0.03273824783474841 
0.2786760662039511 
-0.618841394493484 
-0.05797242410980598 
-0.1407486666703279 
0.1919551299254599 
-0.1141140055254106 
0.1824341612350409 
-0.0305426727309429 
0.210189693207012 
0.2520041007168766 
-0.2480618135204777 
-0.06072372446310206 
0.2971642989654297 
0.09577435841775372 
-1.974595196064253 
0.2994523285142625 
0.5058371782580918 
0.06551988108777861 
-0.2915474251013837 
-0.01290219137957646 
0.542236715253453 
1.364676913225425 
-0.2889501865320137 
0.08715306388229527 
0.0409108662514512 
0.1092991756744225 
0.2820866320183059 
-0.106198735582685 
-0.1773180123617643 
-0.02761107338788572 
0.162715350216038 
0.03220869167418206 
-0.01105069855298648 
-0.03427890546604494 
-0.2358449476500172 
0.1666343332535764 
-0.005956225613809734 
0.6337071180455288 
-0.1671253803334763 
0.2401666183229214 
0.843960194053584 
0.04517174838133432 
-0.09713438844214073 
-0.03065565062878535 
-0.1412363986264054 
-0.02536772001550145 
0.1777956873663449 
0.1339765378637523 
0.3121581345602493 
0.396734485018692 
0.3636845298645204 
0.4042940141236745 
0.5001944968818088 
0.01171807060134871 
-0.5341073833883322 
-1.016794619301989 
-0.6292811376197787 
0.2737658963765049 
-0.04343048414916227 
0.0825494562030957 
0.04770405458525757 
0.3225189230747376 
0.6325206897553248 
-0.6781991639019473 
0.5446438556528349 
0.1363060234387109 
0.1119096098730627 
-0.009512053964593405 
1.143008776969901 
0.02548551603304721 
-0.08835655462450048 
-0.01039664652503337 
