solver_type L2R_LR_DUAL
nr_class 2
label 1 -1
nr_feature 5000
bias -1
w
0.5523620133044946 
-2.36782936308349 
-0.2178013010124016 
-0.9094493215196513 
-3.442898055273646 
-2.178245715743522 
-1.598990986759913 
9.251948915742318 
-0.2785208492213086 
-1.772941442143987 
-0.5434130005382573 
-0.7367854217865352 
-0.6831836400604914 
-1.149211604537286 
-1.51042741094606 
-2.793224983319253 
-1.330836192784062 
1.157734021049748 
3.827330897034863 
-2.784744166627934 
0.9474234838752426 
0.9164096468124332 
-2.569925209162225 
-7.76988326542712 
-0.03080875743246518 
-1.981543233781186 
-1.494504587776571 
-1.550217783245968 
-3.764895921726317 
-0.8568388189111615 
-0.7305393369868928 
-1.070152080830231 
1.032964869082913 
-1.387103192010188 
0.2119905157412774 
0.5786128667337744 
-0.1549532696819707 
-0.03333037285590058 
-0.3100327477575797 
-0.2868208998254242 
1.246502746921924 
-0.08507703142249294 
-0.7982254293446718 
0.2367919631816057 
-0.2314749532919528 
0.6670263346308439 
2.261209593894473 
-1.156733135051081 
-0.5364304734389698 
3.575578218056951 
-0.8443604548495793 
6.825887562614737 
1.323374209967739 
-0.7385484226951768 
0.670424443898357 
-0.7824034266478128 
-1.338295241482188 
-2.768673384973813 
-0.3831257056345538 
-0.7486208859536994 
2.486492585068611 
0.5112015303447938 
0.7049873633694815 
-0.0004721912885881059 
-1.720869380181109 
-1.836061906111308 
-0.2445412753967528 
4.646561592535882 
-5.48284163195402 
-0.5116517295567506 
-0.1212838988075308 
0.530140835250968 
0.9885434985936961 
0.3126513384568171 
-4.153052580086302 
-0.5062396402069836 
-2.655837574297584 
-1.213384125202928 
0.1052200291567116 
-0.2051437494118857 
-1.172770680839521 
-1.976106856938077 
-1.239873948996392 
4.617672392570127 
-1.638334625577471 
-1.41709231104334 
-0.4224874498701351 
-0.8060797444746782 
-0.3923913770195647 
-0.4996237493057333 
0.5119115848555682 
-2.367884811294596 
-0.20400334446707 
-2.280183121260934 
-0.3092809132382073 
-2.306251965790379 
-1.011900641815559 
-0.4836453141856659 
-2.764984491029762 
-1.301421754388777 
-1.72983392166979 
-0.674852279953069 
-0.8866821221146104 
-3.242301331130516 
0.2092997244370563 
0.5180900627818884 
-0.2570605767561024 
-0.6044137772641524 
-0.3654210310831076 
0.01598473792709513 
-0.2815020799212396 
-1.071237187348114 
0.1482830023290232 
-0.6003299654997359 
-0.832306306923555 
-0.6282098654889011 
0.0716383096240651 
-0.3062529545156061 
2.899161684516717 
0.1893949552549911 
-0.3840226604599394 
0.04754909822259753 
-0.226160609332854 
-0.8317003985437842 
-0.1096200112447888 
-2.47421308898486 
0.2647544671376863 
-0.06560876826669575 
-1.565349982552604 
-0.5254159940805948 
0.2880440188579327 
-2.216115632462132 
-3.124236592660036 
0.02099035082059649 
-1.571696074212072 
-0.9539265714513988 
0.3125015137295549 
4.148319402421529 
-0.148011189331837 
-1.061858375248202 
0.2282810237606359 
-3.033108398929885 
-0.9886345045386595 
-0.4632831802701652 
-0.411291175686298 
-0.3473560970684785 
-0.9620255784196466 
-0.8441394276369963 
-0.6664377733309497 
-0.9493243682409684 
-0.5338839018217548 
0.09309399985918093 
-1.364820154546141 
1.256623271314162 
-0.7997026307053852 
-0.4729377044100382 
-0.3995723945710314 
1.433630949246725 
-0.07848435292680195 
0.6376465112291773 
-0.06635933048279004 
-0.2382474916693587 
-0.799357078849887 
-1.926603694324702 
-2.468089007717 
-0.9111642347860789 
-0.1898569630529225 
0.2469983162930053 
-0.3822478077783633 
-0.7668134618882111 
4.400621635774587 
-0.2228277740487443 
-0.1837808039076709 
0.3525847813432399 
-1.55208711957862 
-2.069463617005558 
2.812441180577865 
0.4863203475238713 
2.857886455571661 
-2.65489643782511 
-0.6982567088715905 
0.956351941168034 
0.02621418720527961 
-0.4931809841492889 
-2.52483757142031 
-0.7538342135910953 
-0.7440008706724864 
-0.6850654076017388 
-4.993118388001934 
0.2766370667232396 
0.6698896090548516 
3.322531772604932 
-0.2465322732367914 
-0.138382294229589 
-0.6368014593780112 
-1.518295497529579 
0.06756067873359914 
0.9995203571056305 
-1.63012938296201 
-0.1848699211704266 
-0.5819184911207235 
-2.066203694928004 
-0.8881033147501497 
-0.05610348037662677 
0.01187563279578617 
-0.6432977213623821 
-0.2164498441872255 
-1.079061003509304 
-0.93862896498361 
-3.061553611082019 
-0.7222024576148305 
4.463112534158172 
-0.5303354419784392 
-0.7623930847092251 
-0.06647376426804642 
-0.2013152982674632 
1.421453652510696 
-0.5036210106869896 
-0.07857766400382313 
-1.038194633191814 
-2.723769457929268 
-0.9843847971347982 
0.0986890247653238 
0.2884025448604346 
0.6623450855564252 
1.231710255720155 
0.8901636658079585 
-1.40405741910116 
-1.080735548266946 
-0.7430995472144638 
-0.4445381378486091 
-0.4448281819722915 
-0.3386365025633759 
2.49435354744917 
-1.869820590844917 
-1.08975832344909 
0.2414350224671782 
1.015443017533141 
1.142220227602412 
-0.6584175125611759 
-0.6864043325583538 
-0.6629717746796706 
-0.1775072445498767 
-0.04601233718567583 
0.09006516006605883 
0.191768126808313 
-0.1523296108922673 
-0.4508734575242489 
-0.05605187030484179 
-0.8150265349226382 
1.560236283374949 
0.04033088221228222 
-0.9521973870321575 
-0.8432944331455893 
-0.6139921825724635 
-0.08688227174573647 
-0.4113157273075932 
-1.377982554315755 
-2.413057667009531 
-0.5161738643514916 
0.1741855042164896 
-0.6365863216270852 
-0.6272843137086206 
0.3955189716045762 
-0.7529743089776268 
-0.4952210497478639 
1.112251486005456 
0.8198100037926305 
-0.02510917952454353 
-0.5506404815973694 
-2.05818773335669 
0.3043140933863753 
-0.1946980953501989 
0.3294237274858787 
-0.2854338834091499 
-0.5943365017255938 
-0.1002239355808034 
-0.09143353090682811 
0.272040616008872 
0.1183277027450336 
-1.342732799513334 
0.2592151914234416 
-0.4433418471903451 
-2.028281948970693 
-1.321038813336526 
1.438504803702828 
-0.8461275311598058 
-0.02170563179310225 
-0.5540928850800863 
-0.3024841697944318 
1.066042502489654 
-1.576152137382873 
1.473027394093333 
0.7922587412320619 
2.165106616750936 
0.1135867963687505 
-0.3344554901874036 
1.759488530759263 
2.666276062559354 
-0.3893117605397284 
1.70822853029834 
-0.0451405569269458 
-0.5058210084647325 
1.508783026850726 
0.4272719816446493 
-0.524137032731104 
-0.6450261446440448 
-0.7365244842703287 
-1.00238384720333 
-0.5323668175514821 
0.2335262042293755 
-0.6101139850665649 
1.852204264032097 
-2.153652302254495 
-0.1977744130182902 
2.093185934654703 
-1.199952763194965 
-1.075806726155872 
-0.09860411478071072 
-1.338570817316502 
0.718670478946401 
-1.07897066501837 
0.6782798065017789 
0.4132610114561217 
0.3949413784327951 
-0.04003685010230105 
-0.2554385174312342 
2.359656859132588 
0.5177504787778412 
0.2336525027701203 
-0.5266946518044832 
-0.8384285505278292 
0.6681507872965642 
0.8790596143025236 
-0.2360522668280028 
0.1966054052237521 
0.227353338627878 
1.108616799781307 
-2.079779218992465 
1.593970940537673 
-2.676827767627944 
-1.643487052500582 
-0.8662013196058352 
-1.175848111824094 
-1.132101661529214 
-0.7407166396396517 
-1.520588744792246 
-0.5949071259139146 
-0.3968746110029178 
-0.5835628528910576 
-0.6544772171659682 
2.177415498851366 
-0.4612258696040555 
-0.491457360517844 
-0.3423438961029796 
-0.2525734980000044 
-0.7495345695323106 
-0.3290461299357622 
-0.3043397603794825 
0.08509147018183792 
-0.7323983619306286 
-3.091116444119895 
0.01755863020699456 
3.94173310398248 
2.042776388585658 
-0.4062690894147096 
-0.1419975835110759 
-1.31260363410879 
0.195317839737208 
-0.4713826895608668 
-1.77463154635374 
0.3630770520938588 
0.3853299463816068 
-0.2184302555585233 
-2.784148666085358 
-0.43315258127842 
-0.2105828067304803 
0.1331435034579009 
0.2068313029258724 
-0.02217066995319046 
-0.8143267945104349 
-0.2907950767490656 
-0.6887364598180975 
-0.4094766241158383 
-1.841154723716211 
-0.02292685830757514 
-0.5109444526527782 
2.987961206708578 
-0.7212229878395261 
-1.59767416132195 
-0.02437979549192866 
0.03495156668794411 
0.01267391906395944 
-0.7718403955462554 
1.645614595637017 
-0.5719415754824507 
2.784191527705535 
-0.6320318341155242 
-1.411509712803257 
-0.1454995007572818 
-1.077077289192285 
2.039194271703261 
-0.05985763558263483 
-0.8957127103012652 
-0.4458919484359126 
-1.760846516528295 
-0.4782591257268752 
-0.4127096925052497 
-0.748967179147796 
-0.1261359753273835 
2.738287069765422 
-1.011904271973061 
3.45789782301231 
0.9438561325418892 
-2.388576257873234 
1.022155856056522 
-0.5805388917695851 
0.003456780780942863 
0.1246707277045803 
0.003357422002805635 
-0.1527853824851005 
-1.995794525519805 
0.4158184507593688 
3.20449197045242 
-0.521291305669681 
-1.205258379255451 
-1.563763903197629 
-0.1062914358931975 
2.389956570033449 
0.5446357944383061 
-0.4562936566060087 
-0.5889955614670815 
-2.508861340897263 
1.399975415358774 
-0.5415772161990772 
0.5836558720995735 
0.5602621598375654 
-0.3042268038309957 
0.1842708720653294 
-3.156097163015324 
-0.2703369788393936 
0.8233796322079706 
-0.9985224574293942 
-0.1707848615631191 
-0.2156960581252894 
-0.8996612702943214 
-0.0697966945951403 
-0.6870855270364946 
1.822947595594616 
-2.130868177720763 
1.640714539258455 
-1.553946398172839 
-2.690322062993797 
0.2002817583566667 
-0.6271081592013177 
0.3407508683458599 
-0.6143368100974381 
3.421956951670136 
0.8215589669481895 
-2.870457199362481 
1.263587935801779 
-0.9360157298162344 
0.01884857978922324 
1.297989385378864 
0.8219734364381363 
-1.100217922359917 
-0.2770041212709203 
-0.1636339821468089 
0.73231149746998 
-0.5313606744980187 
-0.921131937452402 
1.808037162248479 
-0.5385756617562693 
-1.77543276941629 
-2.983203408849331 
-0.3181143802464695 
-0.1590232099076657 
0.9251362186819501 
-0.845671945240753 
-0.8609979280528969 
-1.459190459160847 
4.638958636760607 
0.1353264440521487 
-1.084313812147675 
-0.2212439532777168 
1.668486533902916 
2.770966991613679 
-0.4195258386781727 
-1.964373013451525 
0.08678845890775061 
1.778777013466942 
-1.301627246560625 
-2.279355491124659 
-0.1082579190521361 
-0.1453923290265238 
-0.9225545398905963 
2.851050139006833 
-0.5188616388966553 
-1.4283511627727 
0.5056416632062334 
-0.1735068267088421 
2.117922306337367 
0.28506325604633 
0.2422264193558104 
-0.5869200261911175 
-0.287603609796738 
-0.4993940854749082 
1.931904728293601 
0.2131515555196316 
-0.3595998346471089 
0.2830670585301702 
1.965177233193881 
-1.925022233597875 
-0.7471211382362777 
0.9051897175606463 
-0.6272544037333327 
-0.8047994805513896 
-1.353245408316002 
0.7376443052762075 
0.0502111849589434 
3.528406499541272 
-0.2675241620683649 
-0.2490418385496024 
-0.499443151759483 
-0.2006595055576315 
-0.1205073814983687 
-0.437119406526309 
0.02844739280695641 
-0.3653682279761513 
1.04945031973144 
-0.1183292573620011 
0.324829414621497 
-0.3667791907176873 
-1.334760474778346 
-0.4613132632109169 
1.21621217703981 
0.4761661447892587 
0.3023710931659367 
-1.468804989581999 
-0.5370178225417924 
-0.7059219359394483 
1.683126139512984 
-1.030636661451258 
0.2408510870015066 
-0.1291757921461097 
0.1598862193664317 
-0.6103837659488521 
0.8881387153206187 
-1.630470892517926 
-0.2083389694955537 
-2.820687800548324 
-0.103130327000434 
2.052918909831018 
0.1042774094632611 
-0.5611630167238679 
-0.2317614353839439 
0.1502883660410057 
3.109672289595204 
-0.2397010781676198 
2.836784609636744 
0.02095192026054817 
-0.8172514772582703 
0.9326077133766084 
1.601571104746165 
-3.20066118596542 
-0.553276948873393 
-0.4549295133170482 
-0.9694264223076908 
-0.366958111294409 
-0.06006852856823097 
1.131895192971718 
3.243058272467744 
3.33501205178254 
-0.7125248032467744 
0.2766664215501319 
2.015112576537432 
-0.5122841206519572 
0.7591524700859114 
-0.3033334817273448 
0.1098150050637626 
0.2813711953091162 
-0.4713866734579166 
1.385111727146473 
-0.8849947620848485 
0.9807546138677031 
0.9956399212105718 
0.2082211051082972 
-0.5027088490866544 
-0.3857207465342868 
-0.5704351839928461 
-0.2105859222970093 
0.7329485708543111 
-0.1253007770627873 
-1.464627563694648 
0.5858332213210041 
0.04233979382642279 
-1.697896318647825 
-0.3452605667806551 
-1.260355665135489 
-0.3148272273763452 
-0.4098930796155163 
-0.8300329469603621 
-1.647149012446873 
-0.08307837974450391 
0.8568601157312576 
0.1042191351686169 
-0.2741043423972326 
-0.1190159447995163 
-0.8438578968378915 
-0.1876877481878339 
-0.8425181059574189 
-0.7250024224925238 
-0.3095569519678845 
-0.08434886640810103 
0.8273322739638541 
-0.8886618717016148 
-1.006027694664887 
-0.09797927993938979 
-0.152230956711022 
1.948722377608098 
-0.1179929125986568 
-1.589618617332184 
0.1110069634807469 
-0.5726006852207012 
-0.1091487892175566 
0.763337066341724 
0.3778255623315485 
-0.3173511988501627 
3.51401293764947 
0.7887571461146217 
0.2267667038593373 
0.227048952118781 
1.523871594539879 
0.06518211586030517 
-0.5647768768603638 
-0.4333469893562167 
0.5110150538484204 
-0.3004171779207653 
0.1800652028939677 
0.01869749846395487 
0.4435207138156971 
-0.1847287617862575 
0.7758670829447988 
-0.6964944607136586 
-0.3452913724652621 
-0.3013470504308068 
1.183596108735454 
-0.2106334235721681 
3.798284145481508 
0.2863664397394464 
0.09218059295054852 
1.225662608257589 
0.01214321708836825 
0.8136432918966809 
1.589036115369863 
-0.5304021108829391 
-0.2016531772846729 
-0.1325383966079993 
0.3805863446984997 
-0.5071194776435197 
0.4665387508080495 
-0.7393441145130761 
-0.7728704366207614 
-0.7397068003145995 
-0.5167386240109475 
-0.5719944678615526 
-2.215143426174844 
-0.5587430867199242 
0.00534368950389676 
-0.4355283333538609 
0.6518686569910283 
0.1157384023103564 
0.7551427721449639 
0.9637606044458672 
0.1796005728005972 
-0.2869091047230632 
0.0308733366600027 
-0.2616598645243994 
0.01855992150759267 
1.05712894874772 
1.002889004958748 
-0.005696404578092519 
-1.041798796979968 
0.7049218119492534 
-0.3169140585997174 
2.254508162302597 
-0.9662321968593724 
-0.03054256099463019 
-0.8578167639499825 
0.4990944268772542 
0.01696297436498211 
-1.407500808163654 
-2.021000643869937 
3.481827486215354 
2.424595825869492 
-0.3865361254235365 
0.4329172139492878 
0.344688246235369 
-0.1496272909317149 
0.2806981126732937 
1.09633726370816 
1.378211080717121 
-1.327257377009963 
4.043365069413985 
1.103039850194506 
1.291735021565788 
-0.2564512171475364 
-0.6748373083238731 
-0.1433042115772832 
0.09276148828210394 
0.2013143171342277 
-0.3437542839220887 
-0.3879177961157645 
2.981264544208348 
-0.5724977422204924 
0.6027106457249058 
0.1696927853122341 
-0.09903096454175871 
-0.673861437215531 
-3.133580168895366 
-0.1865732219443792 
-3.205342096161021 
1.019221666732991 
-0.3691023956503333 
-0.03352132608770007 
-1.870866803579247 
-0.4091087233634247 
1.72573699307561 
1.311687981282132 
1.008994650671483 
-0.3991243489290799 
-0.4474360293631446 
0.1961288092428683 
0.148582294419204 
-0.7758933573739242 
-0.8603770144344712 
-0.4636404659821181 
2.001019305968282 
0.4850299447407679 
-0.5936519500360654 
0.9331040016827846 
0.2310811067433886 
-0.04831509553133584 
0.06778691957518064 
-1.119238270901163 
-1.042774721014649 
1.087789606840635 
-1.087398213797942 
-0.06898606275524562 
0.2715257781924842 
1.33351635573486 
-0.2530605970281546 
-0.3342638929824869 
0.2852817336330846 
-0.258899569481586 
-0.4056305548386823 
-0.2945539806670451 
0.3421272296559224 
-0.9413775367936073 
-0.2465914404574237 
0.1949106307616064 
-1.635441533622733 
1.213374618929137 
-0.8471615586019094 
-0.1849282641119971 
-0.2988788476609791 
0.2625330588447677 
-0.6765462513864328 
1.359035638790911 
0.02571960628675901 
0.04362571692175177 
0.8923867595806682 
-0.1874037345712346 
-0.1397845802188449 
-1.271812311529174 
-1.780568864460345 
-0.6942928838489477 
-0.2145433661672227 
-0.8269934895748072 
-0.009738442362211885 
-1.51990897328734 
1.041788050740919 
2.512787706300126 
0.1368238992765946 
0.6919656422598854 
2.260892014307081 
0.3484057185177022 
0.2695223917535869 
0.3467128376099372 
1.348087453653737 
1.459176471932959 
-0.1460844092601896 
2.21828540380622 
0.1583215674009785 
-0.192577211383415 
2.790445629005791 
2.142907939830883 
-0.6442983603744722 
0.06796031187940016 
1.558137849578295 
-0.6626767173294462 
1.359373523386147 
-0.1082558180986729 
-0.2766736353282646 
1.554615916976284 
-0.1859811214019049 
-0.1460715431552984 
2.703065908973298 
-1.76621268967019 
0.1069729353757483 
-0.1308577971727868 
-0.7381219456768365 
1.657082223766847 
-0.02932295159603041 
-1.110003991430814 
1.906473917842958 
-0.7390567315361425 
0.4820762840068539 
0.3055165074085324 
0.2446374405679995 
1.439771434236142 
1.646896820760832 
-0.06391971766635653 
-0.2783623100333685 
0.1562011603123016 
0.091063801962299 
-0.365245438460952 
-0.3240256430255587 
0.1753644984454567 
-1.049042330018262 
-0.2826788529043133 
0.1692259583374156 
-0.7777568951427218 
-0.04902811888613175 
-0.01109225136914987 
-0.2930734194762161 
-1.631533145222445 
-0.6600046063792402 
3.770384025832692 
2.372996954727696 
0.272233213058876 
-0.4123638164702599 
-2.335656536035018 
-1.009645750474619 
-1.647781752669137 
0.9476943737911673 
-0.2092858901345136 
0.2940513670718348 
1.247967580667297 
-0.4240323682685954 
0.7893542677274804 
-0.632997495242807 
-0.5938056841627607 
0.3081167321312052 
-0.3537704293976197 
0.1922078999795064 
1.915605300961518 
1.621943506032423 
-0.3711799097856667 
-0.5261542080119186 
0.2999132991886767 
-1.254303572272267 
0.8944594571124342 
4.325865134952808 
1.059139794168532 
0.3597434013310329 
-0.2331718945782746 
-1.495233352395419 
-0.07090953765322419 
-0.07715442231931918 
2.554876985538806 
1.437340897967513 
-1.948860885207641 
-0.1949299297727371 
-0.3866602579538171 
-0.1313429580085838 
-1.963546159654157 
-1.065267617418663 
1.872091090907864 
-0.9466065295405223 
1.829849246585819 
-1.272603732723723 
0.5011501192274929 
3.288334147830851 
-0.9877100143482914 
-1.652370293605897 
-0.03560327882294553 
1.4272578546998 
-1.537089746053894 
-0.1705440799020268 
0.01932211700517179 
-0.526847159195622 
-1.002871131768379 
-0.1040660111357253 
-0.4496463876210557 
-0.2071925590937069 
-0.3467061021957751 
-0.008239023226861682 
0.006231659911226601 
0.03493655819780758 
-0.2479924158435075 
0.9118294705647725 
-2.155111507075449 
-0.6833928700760236 
-0.9357753844412243 
-0.09953580297839293 
-0.648057453079234 
0.8533240719446595 
0.2033556334474322 
-1.030937442215168 
-0.1844105537078464 
-0.1414980801013043 
-0.4745462578436486 
4.239462824256047 
2.199087725439433 
0.2172934744583163 
0.06877338001075819 
-1.286619118567521 
2.10339493139744 
0.8100556136685371 
-0.5407296999344166 
-0.4985633552895057 
0.03966457841158812 
0.2764173001168254 
-1.76395261010331 
-0.3927798306665817 
-0.3320205909393592 
-0.2450519625309968 
-1.0148937230549 
-1.268523692222329 
0.070817814140509 
-0.3392630847482925 
-0.1733497382097604 
-1.502477775189589 
-0.2808667138866744 
-0.4253231257245517 
-0.2985567631997865 
-1.826286373419699 
2.05958188054801 
-2.937776779707583 
2.471012679658809 
0.1546374686035046 
-0.03872717634046989 
0.3725226768934228 
-1.148876401356579 
1.255715459280926 
-0.2190536856505397 
0.04860374701638528 
-0.2890669836844574 
0.7870631847185718 
0.9488162967035194 
0.974112452823097 
-0.22114755885168 
0.7821637203296908 
0.6264324290909957 
-1.547125572391532 
-0.659382784231749 
-0.7591606291780306 
0.02404774717542349 
-1.223054764430865 
-0.1367658618432782 
-0.5542746019308531 
-0.6777335432323257 
0.1203698038826591 
0.2559936145578014 
0.447899132684171 
0.04658809752307033 
-0.135501852619669 
1.73181203456596 
-0.4590282431486541 
-0.7045857330858426 
0.5086212164103399 
0.1879750972091394 
-2.330958382796368 
0.5995450922699104 
0.5593287427490854 
-0.00351746598556612 
-0.1222300480656814 
-1.006991226991261 
-1.193867918594115 
0.2861945839618065 
0.07437622307383694 
-1.090277960841749 
0.2837291795052262 
-0.0148315790807878 
-0.1708054650714704 
-0.2211783013174168 
-0.1988216713900005 
2.338673096486779 
2.259299202353284 
0.0846858149482379 
0.2851365586815204 
-0.4535127794014585 
-0.2701184348873606 
2.470746607970808 
-0.3384644042359522 
-0.2480129935765661 
0.80928735601658 
0.1620109329260561 
0.6650001434572907 
0.3077032051138657 
0.8144013883029264 
-0.6097808826435401 
0.8765225174180407 
1.253471391510385 
-0.3434176468668021 
-0.6323199821710374 
1.142094473043085 
3.817199849630635 
-0.1760569503467687 
0.4966353670179284 
1.157128500426006 
-0.3502840671081651 
0.4375444729363749 
-0.2170622173418622 
-0.3931841299734698 
0.1747823365210345 
-0.682152553975402 
1.093670723018326 
0.3842735941322782 
-0.9558576268911424 
-0.07809934827635835 
-0.8481552080516922 
0.1686370805251344 
0.1530724938879551 
0.1139766067506374 
0.1909014063977203 
-0.9847552813531362 
-0.602581455490881 
-0.1062125834620914 
-0.2881367130291362 
-0.03727451685587353 
0.2337205398673325 
4.135317452248843 
-0.200426421567643 
-0.3774235694091985 
-0.4996243071322757 
2.353773928227883 
0.04494950657267344 
-0.174538022421222 
-0.1033644671155871 
-0.01781997510157047 
3.423529665596703 
-0.9521944190823765 
0.01297631612969192 
-1.392518520111913 
2.80095793492474 
-1.992199804121186 
2.16506144599272 
-0.3304914453967303 
-0.08554842429888977 
-0.1648087678180911 
-0.9878362509315475 
-0.2944301124214796 
-0.5296359585363091 
-1.039212620727015 
-1.283373366153869 
-2.280071008026019 
1.833776174181814 
0.09972873844399482 
-0.1657103882576718 
-0.8369512032040972 
0.05267591571669771 
0.03499383783926622 
0.2235665184734782 
-0.1736734968943512 
-0.2998059729721566 
-1.329489687329898 
-0.3188770069021148 
0.6582220357528503 
-0.09143869377346281 
-0.0589828414111672 
-0.8986999946929697 
0.9225350551079085 
-0.8713208316858428 
-1.890218041090021 
-0.1750634335961261 
1.39962230491379 
-0.3662586796607579 
-1.6220486695025 
-0.3859593386893314 
0.6342012696897278 
1.915851987442053 
0.686022591408493 
0.8439547783443924 
-0.05621067808359716 
0.09030063809117343 
1.846422336182545 
-0.6333856037154201 
-1.934388561275436 
0.9139722168870921 
2.123267502369311 
0.4752705565185961 
-0.3967656438501077 
0.4540257357439882 
0.7943865738911178 
0.5110451416447177 
2.041655921213427 
-0.5518396013182988 
-0.4372118012940145 
-2.100687152859127 
-0.2334940412138691 
0.8873824935982975 
0.5617509199353879 
1.342698090225547 
0.5512786202971823 
-0.3498030206862945 
-0.7209509883004187 
-0.03330886138168641 
-0.06881283307803857 
1.856671865904837 
0.403647090023201 
0.739854629545219 
0.392097222808852 
-0.06269486339775897 
2.086181435481983 
-1.447308941913059 
-0.8497834473506387 
-0.4507291122746975 
-1.24944706440355 
-0.07619963331963001 
0.3177429617345163 
-0.6114746818556397 
-0.1327918291809727 
-0.134147928706051 
0.08257378514980067 
0.4515352006959928 
-0.2206707983668813 
-1.407671142008775 
-0.1493912696326759 
-0.8912127073427403 
0.8993693550006455 
0.2913887101887963 
-0.05947099595249251 
-0.467263053162364 
-0.1013377832708903 
-1.176412467689424 
1.062689228135288 
0.2913249029239802 
-1.049190675735155 
0.3457131561137754 
-0.4267999375313098 
0.15117255599548 
-0.9313647157817689 
-0.8785759033101044 
-0.8340387143537051 
-0.06361577987571441 
-0.8708835174443941 
-1.044256348078472 
-1.23484654459823 
-0.9396801105604174 
-0.02594058144520536 
1.038452891694517 
-0.01686898328595189 
1.106253316012994 
-0.4527121008309494 
-2.933938765189776 
0.741663748922059 
0.357874097202816 
-0.2120228423281398 
0.008722602690877764 
0.6074133749286994 
0.4329175469847354 
0.05087298720384782 
-0.3161878018016449 
-0.2313409000662676 
-0.135913880168476 
0.2961092774233963 
0.5610544223002042 
-0.3463666144471673 
-2.0300418065961 
1.204965388908944 
-0.2261503572135098 
0.208546125562992 
-0.200408420362937 
0.4080309465299433 
-0.2275005296384022 
0.06492703954659804 
-0.4263964055317832 
0.7183816261245025 
0.4039918887605422 
0.4138974507469574 
-0.8761994961013769 
1.144090617527598 
-0.2971147874202687 
0.9148652868418723 
1.218571578376984 
0.1734453817145423 
-0.6113274926267528 
-0.5998853406991871 
0.4449722960433822 
0.3031005631357562 
1.341958082241974 
0.7090717988920541 
-1.535545860715043 
1.015414830028132 
-0.08883564958982128 
0.6769464366807921 
-0.9049100285026512 
-0.6012380676749971 
-1.120359889278161 
0.07398389365307494 
-0.4965774790384485 
-1.018049170624216 
-0.5193156871689265 
0.1343373306485636 
-0.6576541938065703 
0.4498721185121378 
-1.212846841915933 
0.1174533618590113 
1.173506683199317 
1.280952547054605 
-0.7755635065969221 
-0.4789447256889409 
-0.8877018516052273 
-2.186970426589893 
0.01675705198838146 
-2.220263759719656 
-0.2281036191939776 
-0.5789749944481408 
-0.02959474899438611 
-0.6215643619375986 
-0.0855053294933885 
2.597707047612896 
-1.480221845776021 
0.287337176419117 
-0.7993528559006082 
0.9872993464841621 
0.8041700550111955 
0.2207402681245552 
0.9827505341127682 
0.2930169526554105 
0.1334745066719091 
-0.1996497654932555 
-0.1394777663303787 
1.931966225934866 
0.5784648451288786 
1.726558787074695 
1.129897754505662 
-0.6182578038666935 
-0.04939368716275496 
0.3101029668404314 
0.3315153439659405 
0.6288384962580013 
-0.4730836683864206 
-0.07744416743258227 
-0.0007319112985168359 
1.098763392435361 
2.559294511069992 
3.083530880770244 
0.6038943905837988 
-1.792014235025677 
0.3117065196623259 
-0.1806098767859591 
-1.036444118801259 
0.2792150986298987 
-1.137109204506509 
-0.5371435382673476 
-0.4945539801961199 
-0.1914763807342423 
0.09773596160672883 
-0.8049002523190327 
0.7942406969180236 
0.09995726887680016 
-0.1485990881744569 
-0.9052526593539597 
-2.852996797258708 
-0.789887952665795 
0.5544712478480937 
1.862599506456349 
0.6220414149903879 
-0.7753251337489054 
1.828931123248068 
3.544732791115128 
0.07290290525456185 
-0.221488991463388 
-0.7396070176623977 
-0.03547884386997335 
-0.3792672456230746 
0.5444818469147004 
-0.2870581762210484 
-0.6735012774766204 
-0.05154447248642323 
1.432674811491492 
0.06474801763093278 
1.561377707690283 
-0.5071804887125065 
-0.133480191362882 
0.4427085257771595 
-0.199755459040888 
-1.38512027293012 
-0.07759332787166393 
0.04531990956022253 
-0.1326077487374221 
1.963392083550161 
-0.826925308702042 
0.7638558392537335 
0.2540903362129946 
-0.1651008150081415 
-0.03552300145998943 
-0.5368148349624597 
-1.69749846276731 
0.3283382799615305 
1.73136782374028 
0.9010059858079199 
0.5879214381336426 
-0.373493000135226 
0.4499564237010906 
-0.5174565084806079 
-0.09603855646896473 
-0.2895876060856712 
-0.5809039308941878 
0.3953015836449645 
-0.142820046768794 
-0.1172704834663691 
-0.006221451068534326 
-2.071863285034818 
0.3999294660696306 
-0.3896374441554342 
-0.9344885315314241 
-0.5654710940928758 
0.6208362941456435 
-0.9411017203759365 
0.6244507511005007 
0.0647246430211454 
-0.05695403079403638 
-0.05751484840531994 
-0.5985789168038266 
0.3898998979728496 
1.086963713924437 
-0.08862027168235 
0.2613495586312287 
-0.2310979695609007 
2.387285005458166 
0.2861197074572408 
-0.0761686891702455 
-0.3390233960062302 
0.5663274340557318 
0.7255473185636921 
-0.04116334651642407 
-1.045119636735658 
-0.4200104069388712 
-0.0637730937780789 
-0.3064456381633472 
-0.05197263671490449 
0.1527564646971971 
-0.08330255245587892 
-0.0623711740801519 
0.1079435835000216 
-0.1723631455873049 
0.03469017505864975 
1.491510992607028 
-2.03266298324956 
0.1053472433422766 
-1.377337828768613 
0.06288370947760889 
1.94766775946849 
-1.243225540000656 
0.3844895803848983 
0.1741916153992951 
0.08046441612728911 
-0.2498923426560598 
2.483567116743564 
-0.2371719335435651 
0.131019715137003 
-0.7459276416313918 
-0.2839386379943211 
-0.06104979349245888 
-0.2953841875010473 
-0.2647549074390542 
-3.060908824616629 
-0.2414839116258989 
-0.3085467285840856 
-0.0646410022011223 
-0.3731762084723376 
1.00413563867314 
0.7073609987735052 
-1.602243638715108 
-0.2037656069678449 
0.2875026032404445 
-0.3042810180781094 
-0.1639783656840174 
0.2621181428930508 
0.9291713419984534 
-1.723047438225455 
0.0009570375474951068 
0.685124708138667 
-0.1021995636278105 
-0.21491397275261 
-0.8923639066410477 
0.9539398229995228 
-0.5217899063824545 
1.670284952110726 
-0.5001191392281217 
0.1689229618695624 
-0.05874546242707763 
-0.4695647210982283 
-0.1346577839109206 
-0.3571277422899758 
-0.07055292568917594 
0.1379652732819062 
-2.620286884536516 
0.7524506186748937 
-0.5581500744990961 
0.5138896401072786 
-0.8056375008938731 
-0.4148514682834898 
0.567819432098369 
-0.0376995362495411 
0.01997513006542673 
0.3150591340984644 
-0.6148985745939511 
-0.6162882763100602 
0.3998431944756677 
-1.060797775639228 
-1.289430860688537 
-0.4002246261132786 
-1.30833880003323 
-0.9330311569650429 
-0.7255632495907016 
0.2558530722833618 
0.5429127931222988 
-0.643649694832072 
-0.05308331244729482 
0.1600422212836561 
0.7526462867045689 
0.7627139142585824 
0.3340959555850244 
-0.3088005330762399 
1.404371666751958 
0.1960307259546037 
-0.09823330546786763 
-1.216731371543399 
-0.4023340326386493 
-0.05684235367791736 
0.9602357012306337 
0.1274107034017339 
-0.0777061653358266 
-0.2099142130933983 
-0.425924077293283 
0.97405389097849 
0.6960740814421202 
0.3038671299418817 
-0.8695845901424468 
-0.8567844190384895 
-0.3353335970909943 
-0.3310793880115001 
-0.5785351114022165 
0.6729209034397821 
-0.5779606671241821 
-0.8150477326345007 
0.09116096608342421 
1.060790702581365 
-0.4822623943576741 
-0.7247758716372626 
-0.4044879258564449 
-0.3107028706261241 
-0.0171642742318829 
0.3155904612556084 
0.5741917735071588 
0.898393967830202 
0.1271021215821096 
-0.2282652478776033 
0.3331633618647167 
0.9203675905169856 
-0.1051296375056038 
-0.4913709416895813 
-0.09349676208039938 
1.82428408101954 
0.2813312133459807 
0.5790369281521075 
0.01494503170100454 
0.09367953728975888 
-0.01210888611189881 
-0.9289749302754575 
0.2519904492699755 
0.01140790138873631 
-0.9056853035119468 
0.4871711612972665 
-0.6576413064887566 
0.2935329956527649 
0.3026055746474597 
-0.6712093671495952 
-0.1711414632830356 
-0.3458021979556699 
2.198795993893321 
-0.2640954885667691 
-0.6666040868175237 
-0.2743754074648506 
0.1665265804128692 
0.1817320884007758 
-1.121800253319738 
0.3964088950755044 
0.1936206767624396 
-0.264069005209902 
-0.1309441828059222 
1.004335418371668 
0.1980265699091593 
1.027474075653169 
0.2022178156629977 
0.7444686249695573 
2.69329691230594 
-0.8566040836949133 
0.3755227762251322 
-0.08070071185404717 
-0.6117063515573192 
1.375276686269048 
-0.02303346770497896 
-0.4152255031093402 
-0.9515143617533209 
-1.146202344129569 
-0.3493347759234425 
0.5597730340072027 
0.838568110081228 
-0.7435653638010067 
0.08259084998290597 
-1.542790584795835 
-1.197981591974396 
-0.255292923713688 
0.425075010775679 
0.5401149737272344 
0.6481512593257481 
0.4844551602896028 
-0.3756859386817963 
0.01787763563648579 
0.4607803495702092 
0.4532142115486748 
-0.8270388120752636 
-1.242158517061949 
0.3009593993104698 
-1.1357112731401 
-0.1670291360596259 
0.3526525262121673 
1.689967400701797 
0.6159436105880997 
-0.1932887456422235 
-0.6033848184846391 
0.2898721935264066 
-0.1136376190395583 
-0.3461076562573567 
0.6331084802726127 
0.2237546916510664 
-0.07877518960471343 
0.3060338584367251 
-0.2442650846606285 
1.879734013601206 
0.02663407752189455 
-0.421882671226224 
-0.2600577893117417 
0.4004180696864941 
-0.1328216314392266 
-1.199183127156501 
0.6239193417049069 
0.1964802282114395 
0.2488521661460291 
1.153908549375522 
-0.186187437694763 
-0.1541110593275463 
0.1758458125321584 
-0.5916575596064031 
0.904267670312683 
-0.5797121683067437 
1.280197091070835 
-0.3904049227521576 
-0.2101478406986412 
-0.1539685861834063 
0.1173768424174262 
0.7039927784481983 
-1.519662889802241 
-1.163027703229091 
-0.7366100545901936 
0.00567140006348889 
1.281869961617228 
-0.2893283333167837 
-0.8692521882569605 
0.5841521000299938 
-1.914531233725683 
0.5744088311169853 
-0.5117463783812375 
0.3600025398723461 
-0.8986997684735378 
0.4341887943189898 
0.2013191957056123 
-0.1806314004174097 
-0.1034148210422197 
-0.684131662878446 
0.4780767158259601 
-1.157680185533961 
-0.3025249003985006 
-0.0949702404290777 
-0.1651367313808207 
-0.1997847947030938 
0.2448757202171122 
0.8073710555634332 
-1.011399335044331 
-0.1808358421453027 
0.008081134400000247 
-0.6384612714862371 
1.412465631263449 
0.1079703851507162 
0.1449034573999252 
0.02942789520523275 
0.1690058868847166 
0.2932087803860001 
-0.1907008310810769 
-0.3631805830265116 
0.01785887044300535 
0.02511655391668166 
0.3721662227045561 
-0.3251904616244599 
-0.1951466525287482 
0.3847081713104557 
-0.1454543515549035 
-1.118497669407369 
-0.1066293149482589 
1.169507104097254 
0.1853404874738454 
0.5821508005127169 
0.1722501848237833 
-1.625074794503782 
-0.2977126970773561 
-0.7005080914354147 
2.67064989015652 
-0.1774617863011938 
1.968440735546532 
-0.3519391855457272 
0.04610497008849185 
0.01003714486696374 
-0.2690259228937405 
0.002847800111461277 
0.8200107898994352 
-0.4224981789329343 
-0.8210234063616362 
0.6877185455730236 
0.7441355130705246 
-0.5652471190210139 
-0.4497236761123667 
0.3021405116349008 
-1.508582684901422 
0.8581550411198157 
0.437574047349381 
-0.07219049164146606 
0.7084130892281846 
0.01526268238430967 
-1.209194680625621 
-0.4353516312279057 
-2.435976025544608 
0.05593974512568022 
-1.701120649629777 
2.433605984423476 
0.1587160129860677 
-0.1863856360920827 
1.607647979238851 
-0.4499502369325764 
-0.1152341053194353 
-2.462468245556723 
-0.1348202255398309 
-0.177689439765266 
-0.4556978894190704 
-0.08700202849027129 
0.2484586389978266 
-0.2581860984732028 
0.7667045311845955 
-0.1501930579221984 
0.009559251619258574 
-0.2429458764180877 
0.6052311223350347 
1.246242183440264 
0.06061387165563122 
-0.1173290241459678 
0.4197388497304219 
0.1461334806359969 
0.1878227766549526 
-0.5054067238268706 
-0.1214781021653279 
-0.1184602246477783 
0.6437176834378124 
0.8619312560377195 
0.0397931817201095 
0.5205467647224759 
0.4859048534288914 
0.2202932204905597 
-1.273954301573293 
1.533077360430516 
-2.480751235145436 
-1.206300353987506 
0.1447088354014638 
-1.849370664940748 
-0.1652485948265614 
0.8797759782617719 
-0.380053204739811 
-0.1519955281289451 
-0.7128895754182644 
0.04378379581716889 
0.8246750580836916 
-0.8463579222501942 
-0.1896769546579097 
1.53614707785297 
0.05892735906346091 
0.03579322575919453 
-0.1476629500841966 
1.544905287476577 
-0.3687912640980535 
-0.1723519121528042 
-0.4975759337177948 
-1.671962772621849 
-0.5585892606665106 
-0.3696445315446973 
0.5711512627405637 
0.005801783690782041 
-0.5887742098134949 
0.6598878202058749 
-1.282637400133374 
0.03381135764174336 
-0.08280126386273982 
3.029199747171214 
0.1242165548182236 
-1.242040622334757 
-0.2387167828620947 
2.390151933179809 
1.041180498870495 
0.7300532676375477 
0.2221150871279304 
-0.07322072211625875 
-0.5782472179544295 
0.1089200418809237 
-0.2257861363808049 
1.308763452750371 
2.123385487993369 
-0.01454266712562751 
-1.917040004622857 
0.3869734568464872 
-0.6288962082493896 
1.362484377855199 
0.4391107781182421 
-0.3822384293477195 
1.03527981605321 
-0.1632459393305634 
0.3284354031024195 
0.009288684463728835 
0.0650426404534579 
-0.2560393312047208 
-0.9876586332415527 
-1.061115472070307 
0.4780612657289735 
0.7168441891206151 
0.01319767855207164 
-1.100979924878314 
0.9582873909311684 
-0.1047304205750914 
-0.0309950506878523 
0.5157959625042762 
-0.05391025813783314 
0.4601532336456917 
1.065044002745141 
0.3366727529889006 
-0.2177867991396982 
0.0003015322239827475 
-0.6146755268315831 
-0.293350591636015 
-0.09469954884072884 
0.599419131052514 
-0.5946928978339263 
0.795231302420609 
0.4052303127136021 
-0.1687486144108447 
-0.2030556284501595 
1.773661118575674 
-0.9974074677689687 
0.4823020226727694 
-0.1493805725037868 
1.98824359692337 
-0.9252905930941171 
-0.4281566869285742 
0.1975743997743618 
-0.2788792002805367 
0.4826440130182625 
-0.3817927240838409 
0.04720368622166311 
-0.07729533631474426 
-1.036729153402577 
-0.1324780632007865 
-0.8216473152442691 
0.736412055208396 
-0.06815844409904194 
0.1139063262849593 
-0.3286420764367546 
0.2403328500596828 
0.4570258648665792 
-0.46721664741153 
-1.086559357034661 
1.630346399866019 
-0.4408513730111027 
1.249360998834696 
-0.441457180342764 
-0.02330045226155878 
-0.251859887118124 
-0.241807708058645 
-0.04645889808021508 
-0.08002584633367807 
1.264225088006351 
-0.3144864725153146 
-0.6318168126672877 
-0.2820456467114424 
1.396080964052592 
-0.03998340788956389 
1.082721268325966 
0.05377265313415796 
-1.377530015353263 
-0.8260623084680629 
-0.0969107396064408 
2.089496871671739 
0.2810080562998046 
-0.6286791551767007 
-1.020004988060804 
-0.01250216250955237 
-0.5468428076923099 
0.9924168247639469 
-0.2953888784901947 
-0.3235250865616804 
1.358072933644601 
-0.03926944106507942 
0.3755358639025445 
0.2675218875584546 
0.3654462433399608 
2.727480440944325 
-0.4204879290920373 
0.06881979274844958 
-0.2643474983488814 
-0.1782892164320719 
-0.02310169547856997 
1.001502817006055 
-0.1285871193442159 
1.003295618275005 
0.9505184726344905 
-0.9911895233523649 
-0.3146101222737788 
0.6687735162615125 
-0.1790629072357204 
-0.2421291334258839 
-0.1947058957473366 
0.8396904100050837 
-0.09163833698917373 
0.7958027110556355 
0.2855388575136225 
0.5046581297565508 
-0.334185013095409 
1.022186539759756 
-0.1137889173987218 
0.02282524484739559 
0.5442425189026818 
-1.112079729045618 
-2.130848617101165 
-0.03267673530308426 
0.8176497700873454 
0.2274343794555173 
-0.2387983742601771 
0.3271592416645431 
2.527194810120538 
0.1699725044677143 
0.1659206906667956 
-0.5192741269391227 
0.5341257151311445 
1.170915516082646 
-0.5613944990430516 
0.3483294128152271 
-0.5048484062499582 
0.1773596687624474 
-0.09164022970085468 
0.1721099381197303 
0.2549838827971071 
-0.04561817082817122 
0.7105730164753322 
0.6581348756667085 
1.874581884477258 
-0.1725599679123182 
0.9685114651683946 
-0.02743571800269165 
-0.3437613584255948 
-0.9610234140775035 
-0.1329755808940726 
-0.2083886858368255 
-0.5885253138329576 
1.15034587584727 
-0.04058070023344149 
0.1894655998559088 
0.03189939127061672 
1.033301414959967 
-0.2062616490938705 
0.2022506827685004 
-0.01349375621979042 
0.1508215666616384 
-0.6294576350473057 
0.881854056888604 
-0.1398492285777658 
-0.2149737770597307 
-0.6287202534959847 
-0.1304431645912275 
-0.01898865406700572 
1.259168977844896 
0.3003731844492012 
-0.6498804556680808 
-0.5671397572273926 
0.7146705072684676 
0.2243197916041118 
-0.3398510033599695 
0.05923265297872259 
-0.1228079379974164 
1.417250898314303 
-2.299117283038619 
-0.7679046141595985 
-0.1752809354342067 
-0.07981657020663192 
-0.04015182903462532 
0.1259207064711942 
-0.1116073975480036 
1.148789741510393 
-0.8145310735458254 
-0.3688102865727811 
-0.2129801469394654 
-0.4704863459106901 
-0.9101204430583092 
0.01050671785511664 
-0.04546558715131927 
-0.01150279316062935 
-0.06906858012763629 
0.7306857292435719 
0.2259733114385488 
-0.5335688580952369 
-0.02961627204927554 
-0.2364650594458892 
-0.1000763708317773 
0.7260063743690823 
-0.3080749937343516 
0.4858684201452765 
0.4106301161465619 
-0.5962562442072962 
-0.3080203576322088 
-0.544109727184624 
-0.1250521465915999 
0.3204755749554294 
-0.7416441372775638 
-0.01875162273018637 
0.5494315132693901 
-0.02894969590639348 
-0.1823985947964352 
-0.2500371429426411 
-0.3088990372993435 
-0.300108109784883 
-0.1029693989516241 
-0.5169830739597149 
2.111693337443397 
0.2889286187383018 
0.4246920427286315 
1.270337926441067 
-0.4479064424048352 
-0.2069307068024653 
-2.067552796148185 
-0.1384384189280488 
-0.1991383039919897 
-0.5219793813421501 
-0.2816045191180194 
-0.03648727933239811 
0.5311271399586368 
0.04560334645802315 
-0.4413514839013634 
-0.130473144742473 
-0.3559869004004688 
0.8622088790372385 
-0.8143525850684558 
-0.5625377168886936 
0.5678517735173197 
-0.8797076535251592 
0.2044669082566088 
-0.5230291375626483 
-0.1340324462912467 
-0.5351082758665888 
0.671467812320855 
-0.2899761803973732 
-0.05461963409157601 
0.453963392945805 
-0.6278746202265205 
1.420340832465142 
0.815735028473268 
-1.181335865476149 
-0.5140451265064974 
0.3587327809369468 
0.3424987328469365 
-1.465510977225172 
0.03202762963311825 
-0.03121216766444367 
0.8647554500732323 
0.03467714296180183 
-0.382515689784872 
-0.2145669184163242 
-0.2470416055389797 
-0.6941288880067957 
-0.09987496458011079 
1.440607393665755 
-0.3955768393356345 
1.320479657978893 
0.2475869587013743 
0.03160057773835719 
0.0635482645813818 
-0.3709624387711352 
-0.03512034582189649 
-0.6132342555722246 
1.380662712371752 
-0.4977875480339238 
0.2434962977523857 
0.0810725882099784 
-0.1177957873503307 
-0.2331144443555799 
1.071904422206772 
0.1687207381417885 
-0.2439394924013233 
-0.782160419865439 
-1.191600614761507 
-1.268789178339278 
0.1180419973881893 
-0.1650132644581979 
-0.06092239047266908 
0.2601251558627961 
-0.06499289540903903 
0.09417324139962119 
1.571698235685137 
-0.1276564004476904 
-0.269898060523949 
0.09808700486214501 
0.1476450939731645 
2.493104392164562 
-0.03365886225934264 
1.218838107456568 
0.339769818138847 
1.270600845042781 
-0.1914822418479669 
-0.1369645330942907 
1.206438916713614 
0.5627808361346793 
0.5284655459398052 
-0.5500825255107828 
0.3512524813857908 
-0.1801095260860501 
-0.01030820958707541 
0.4161993901020755 
-0.252449930594488 
-0.04075810448731184 
-0.5702917205493336 
-0.7476845852189675 
0.2716683131968491 
-0.9683833420349649 
0.2769714218803745 
-2.264787027113003 
0.1728756898936893 
-0.5454769771101233 
0.5912589220105405 
-0.460609185634944 
0.1304172362217996 
-0.07519345816145714 
0.5348868591212493 
0.261870653036099 
1.106104543884408 
0.359095904327737 
0.9465695434436155 
-0.765119578185172 
-0.1416151507917673 
0.7282092286192579 
-0.624644175187295 
0.05112322336054714 
0.7238473204403303 
1.678618617374381 
0.09616728789577575 
0.7232693426277585 
1.154509163261852 
-0.4461966823861372 
1.231063797701795 
0.1640879105003025 
0.1956494038632564 
-0.5353267063290323 
-0.1120400287114635 
-0.229486709532831 
-0.2994742888176223 
-0.01387630799590218 
-0.4417581059974938 
1.117243215399714 
-0.03339821564087383 
-0.4538406900928876 
-0.04375605834627579 
-0.6539306831392935 
1.107428648228021 
-0.1358184952474767 
0.06680056453206068 
-0.4387157119081467 
-0.132759292855546 
0.8218708908908021 
-0.4252231044318266 
1.019784006688405 
-1.403373945068828 
0.1819351875928177 
-0.7251356790095576 
-0.1766858906090198 
0.3328642916828194 
0.1870741109014802 
3.071474719635007 
-0.1113146664226445 
-0.1593160334772642 
-0.2241040153215489 
0.8301622315020549 
-0.02865547629702443 
-0.6014469473576094 
0.2787109983939331 
-0.3549015885623856 
-0.6629638480624446 
0.7093722887731168 
-0.2147270011094896 
0.5659229733817641 
-0.05450279174479589 
-0.4794926524959748 
-0.2090481933147483 
-0.06229700687948708 
0.3259492356170372 
0.2913721151931235 
0.6954450912715422 
0.04413298936806074 
-1.974134596612596 
0.261081909327962 
0.2497188488471563 
-0.2205560343279412 
-1.632401984679498 
0.3963192590488785 
-0.004442612997657991 
-1.300790192239176 
0.05506845662479691 
1.156609861404284 
0.8519528244247579 
-0.263336312432616 
0.9774341407100189 
-0.1143124014335192 
-0.228593008999379 
0.1516402148134708 
1.774523645289346 
-0.7554540708995795 
0.1870331392590509 
0.8308266020422073 
-0.9627452653681666 
-0.02509139048173102 
-0.05690083160812921 
1.394620257837303 
0.06874800331436752 
-0.07772319235940139 
1.883481873683885 
1.51462930534511 
-1.766035065783989 
0.140715961887488 
-0.6077171171938592 
1.128130200319492 
0.4861751370286675 
-0.810389938369056 
1.072590253505238 
1.103595899865649 
1.41939388200447 
-0.1627990955552332 
0.2842765320652709 
-0.1198412164292527 
0.6315160210887878 
0.5696950463927956 
-0.6265432176671444 
0.3062605917848327 
-0.4413154437443237 
0.4315053450920532 
-0.5101903533786049 
-0.06463551083040978 
0.07288956809837663 
0.2911658576406454 
-0.1313168321163954 
0.2001892206474485 
-0.1462645658039688 
0.3784238480616176 
-0.02103394388868893 
-0.8077987306442171 
0.7535121953396979 
0.7670319199548208 
0.3520216888311092 
-1.191674559224416 
0.01409882559868846 
-0.1022313334680454 
0.0593353593903136 
0.06440311603981297 
-0.1324723563946433 
0.4604884857320086 
-0.3243882083893441 
-0.03081389982974484 
-0.4069453518595512 
-0.004196097144419689 
-0.8812644702276873 
2.839467937118703 
0.044759177823062 
-0.4576605590882857 
0.2519041727290163 
-0.8944906147322367 
0.2620545351297439 
0.06759238765382347 
-0.7357571944723531 
-0.2794130005922733 
-0.352499506309195 
0.2476778305414298 
0.4710417010515433 
0.1794351738088079 
0.2331533712558775 
-1.014660268052439 
1.646781421891391 
-0.1108659214024359 
-0.01042216447043851 
1.16443670672876 
-0.545587755719031 
-0.5115998077664657 
0.2134612800931661 
0.002601536812791611 
-0.4830356929940389 
-0.427021684743189 
-0.1593088417961806 
-0.01709236273929732 
0.2299986554504247 
0.3003508052778569 
0.549939547607497 
-0.149736173605145 
-0.1088085612487245 
0.2084777543484668 
0.01433521732732779 
-0.6987501734184557 
-0.06345593287608643 
-0.379699085892283 
0.03932712278590766 
-0.1033258056196288 
-0.0771561748407063 
0.1710376940335102 
-0.02064929452928885 
-0.07310682726782088 
1.343968105544334 
2.08804889578829 
-0.06915061648812239 
1.241683709426077 
-0.3295402100107387 
-0.4334971742250136 
0.9359636869258535 
2.404926318314976 
-0.4861972787197132 
0.1144076664694976 
-0.1025191872064571 
-0.1145233147429701 
0.6953001848998411 
-0.08108450124259879 
1.500783563361346 
0.4199904445231596 
1.352759214367902 
-0.06526810616863121 
0.7516065557764209 
0.05728462169159883 
0.2685461863031868 
0.3901359803358655 
1.214404477315055 
0.2968609931227567 
1.439565496658215 
0.2272338442350043 
-0.1513765874436594 
0.8841938705604272 
-0.1634998830985785 
-1.825574434215333 
-0.176224214767405 
0.2859792781467748 
1.543822072586794 
0.5342371070142387 
1.468813498954191 
-0.3840224994671751 
1.01110207702936 
-2.341556366578794 
-0.1097747707856388 
-0.4640146775252433 
-0.5969028103030093 
0.006934878714064359 
-0.1079496346614353 
1.097768738697306 
-1.127647258083197 
-0.3751330046580255 
0.2778936699444819 
0.2606243927227199 
0.4759713360794588 
-0.6460578234350171 
0.5637278287490158 
1.792318080537619 
0.4577212536957347 
-0.4330956688964631 
0.1708202381608843 
-0.2026367699102217 
1.318440264133628 
-0.2966138636981843 
0.431628332231861 
1.177540224369202 
0.06665544229116559 
0.6891036597017648 
-0.1607232473614602 
-0.1577140402365238 
-0.9769250545540751 
0.8921166339591687 
0.3082902398787235 
-0.5807208291262115 
0.348582480755115 
-0.1180252652225185 
2.538932870902717 
1.100972807338931 
-1.545380564882305 
0.5599792362619536 
-0.1515131398904802 
-0.6156721154609442 
0.3638585112214026 
-0.088711126446753 
0.2053080529919192 
-0.1397643650208941 
-0.2239994389958363 
-0.6990988214662323 
0.5487370841940905 
-0.3468506957812637 
0.06688022273375044 
0.2610443636971958 
0.8208900061715324 
0.3668228533917438 
-0.2922144800918879 
-0.2391959210001889 
0.07118795944468753 
-0.7328246047434683 
0.003697355373720433 
-0.04721474695815268 
-0.2479659879076642 
-0.116919909768815 
0.9210261079315357 
-0.09682059557861446 
0.3976415857270449 
0.9488151613878255 
-0.01231515442979477 
-0.6178412041310761 
-0.04065717627215056 
0.4106207519457516 
0.7440129204803814 
0.5873341424715391 
0.7756778686939567 
0.08147219439701731 
0.04086286919873566 
0.2015550198773826 
0.02761750877641721 
0.5439215074866425 
-0.01893393467876843 
-0.04532875170390489 
0.2696647996094677 
-0.8168409901852315 
1.096197635121084 
0.3525601429660228 
-0.1716786244748136 
0.8337102324114044 
-0.08082878305373124 
-0.5646237377063322 
-1.002579914965688 
1.608270642786673 
0.02926691605411352 
0.003702973176336524 
0.7207355491581681 
0.2060939514230519 
-0.0002800869786301485 
0.9286468771825579 
-0.006399196134159726 
-0.0644438812317793 
0.5849210655322021 
-0.1678846284873732 
0.5332313960645251 
-0.3320757790152756 
-1.080123221470907 
0.3612850843575424 
-1.726691591768455 
-0.6545955981690275 
0.5948961959938048 
0.5220950320931835 
-0.280766639286857 
-0.05579191046056973 
-0.3044786811046876 
0.05644186649477125 
1.079240009185336 
-0.1731972389398086 
-0.4446795497228106 
0.1853652270964928 
0.6157645949345233 
-0.221203610609566 
-0.1224093154489259 
-0.03904945938437922 
-0.06212989576870902 
0.006192443389900119 
-0.6241425431585254 
0.8328565723735813 
-2.52383021600523 
0.2353743895528858 
0.9869941188650213 
-0.04329295149591422 
-0.7234832165453742 
1.096231935942307 
-0.06581859050248688 
0.0525602041857015 
0.4815447779925184 
-0.1382293772116643 
-0.5106204779359497 
0.217369370956552 
-0.1776590328236645 
-0.3997443303276555 
-0.02098988129033914 
0.9812815685698706 
0.6700180452396955 
-0.0790344156288852 
-0.1565615942990058 
-0.002298554065563181 
1.111348569084252 
0.6791585344557964 
-0.2902600957580248 
-0.2925424347215251 
-0.8917355640746107 
-0.3604729805726599 
0.8908668430582438 
0.418254619652029 
-0.1504025123325382 
-0.5317966783359805 
2.456367805259665 
-0.0737538552334624 
-0.2612088923988073 
0.4189364862465753 
1.023965463889716 
0.648152914982316 
-0.4804610950455493 
1.571835190317498 
-0.2293579042829968 
-0.03647951217183226 
1.12098059387417 
-0.236388312395591 
-1.534045733015855 
0.1667496645432136 
-0.776980438864095 
0.1648814298881458 
0.04374556604969539 
0.02796348469176979 
-0.01344945871658203 
-0.1720977247775891 
-0.1697202258260671 
-0.8471159425392283 
0.2975195818830653 
0.7655155724679341 
-0.6252303250665984 
-0.9393097101389085 
0.8392504220004618 
-0.113267875275058 
-0.755471633222962 
0.4036740019311871 
0.1011288198346121 
-0.8773435279418115 
-0.6421141200367878 
-0.1145475961536489 
0.557960889266804 
0.04903564976833558 
0.1593677894076047 
0.2696766221188036 
0.6199425667426833 
-1.135951858072417 
-0.1217949616614317 
0.3251663231345386 
1.879287864273184 
0.07022689773915113 
-0.189300717046059 
-0.1035614978765143 
0.06531388907009494 
-0.7867743935411475 
-0.07934755979147583 
-1.350081284132971 
0.07009517621170468 
0.3809882970660061 
-0.7669177266400308 
-0.05251784907046933 
0.6247966145287378 
-0.3041453457241267 
0.0275040355684998 
-0.2426921990899732 
-0.6566877055979622 
-0.0374774071362191 
0.2552038903424794 
-0.7786916773340263 
-0.812314696757608 
0.3128976225600087 
-0.05235901460456022 
0.7944195243494442 
0.9933304828697755 
0.7642115429175488 
2.372953577126889 
-0.5142327444218112 
0.1469720578604518 
0.7301686515520149 
-0.09093733879738276 
0.4466599968889574 
-0.8605268548448214 
-0.0945311766956777 
0.3192784206866926 
-0.01728723128660326 
0.7762816608769151 
0.1857173584856804 
2.48605534246781 
2.781986278070296 
-0.1226824746938491 
-0.142700370120888 
0.5038394537790686 
-0.3987003543245479 
0.7752453011407477 
0.2304141196632616 
1.2660543669241 
-0.07809593029726607 
0.02081576005182539 
0.2614743455885903 
0.7179250485682032 
0.005438061295332862 
-0.7261007944624258 
-0.04903923582646479 
0.01951599340912429 
0.01537152116641374 
1.468270851711187 
0.06148407012157554 
-1.342417334175295 
0.02058107622355783 
-0.07841875763797146 
-0.1179726461805308 
-0.5674717632997857 
0.795128224956601 
-0.2600597488327322 
-1.793713229949371 
-0.5945663668953465 
-0.04310185798405634 
-0.497491022600582 
-0.02366057259776834 
-0.3123747619039802 
0.6272001696730142 
0.2620107585902174 
0.03429503372681468 
-0.06068553583034813 
0.9794291367434844 
0.4588622231123176 
1.995335683501789 
-0.7329691112872659 
0.08222372363440496 
0.8191563774484957 
0.8018979636064891 
-0.412905878472222 
-0.3946308844357478 
0.6196628152570671 
0.1737996406525743 
0.7873073325342662 
1.746295100242995 
0.1531937139624942 
0.8118014064004752 
-0.5735553717338835 
-0.5659995442400163 
-0.8001918962211523 
-0.02109838077257848 
1.070541384656885 
0.2978788058820486 
-0.1776238326567547 
1.195859490040869 
0.1826637534283463 
-0.2319422516163244 
0.5003316210727443 
-0.0007664591513182439 
-0.0677848755554584 
-0.2349419983191584 
0.02336306912386914 
-0.09720668688500662 
0.3910621483437808 
-0.5866045604244911 
1.882088798442934 
0.3534640311136428 
0.2165343808863873 
-1.082734228711018 
-0.5441814777861936 
0.4745308875992058 
0.06935186580720763 
-0.2760739386536793 
-0.04975135278332833 
-0.3986758602706347 
-0.2393612402040001 
-0.1031384542582533 
1.152192046124389 
0.2507056472156529 
0.02013922698299671 
-0.04595428414444591 
-0.964340125196925 
0.04348156617395677 
0.3344730967659744 
0.5426984145412265 
0.4640875905966358 
-0.02014154600922698 
1.281254290155524 
0.2298301297309323 
-0.003702539465119582 
-0.06242678659167342 
-0.1057291588687759 
-0.4508316552497887 
-0.01648125500999198 
0.2188011449319002 
-0.717182413311885 
0.9349683971744791 
-0.7777215121474991 
0.4491871242608005 
0.1807938401111182 
-0.03627154518768114 
-0.9550811278053254 
0.6276519509511013 
-0.1475147083709713 
0.4447711600541458 
0.1257388585251546 
0.08122705585627146 
-0.07361716702247635 
0.2581649977421558 
-0.01359187737321371 
0.2961713444179561 
-0.02002992798746802 
-0.01479081480965703 
0.7280077444594732 
0.1657072502359474 
0.04066435777118822 
0.1507346463866345 
0.8564795084919982 
0.1971817386898215 
-0.4544377615006524 
0.3286798208937055 
-0.2269276989145192 
-0.2259079455099997 
0.3775658240657373 
-0.443873369338405 
-0.04739433906553616 
0.1746827960961082 
0.4520752620444184 
0.7302322327107619 
-0.01046113982689732 
-0.1854315861744702 
0.2670089461743216 
-0.1726158787244337 
0.3413367087696271 
-0.4551598519126602 
-0.1182134559975056 
0.1470180316503241 
0.1073550625131339 
-2.235580873888547 
0.01786118888884936 
-0.2821783221005351 
0.2527200592010762 
0.4775182635769599 
0.03305549675519209 
-0.5180423599215624 
1.035242009358186 
-0.02486290864020585 
-0.8006125684421911 
0.07352049741161994 
0.6885204502036265 
-0.6688524613402461 
-0.1067993253304457 
-0.9415566018386412 
-0.6362204921087761 
0.2435852572858093 
0.3430848741232243 
-0.9410825030151322 
-0.01569295293118254 
-0.609544988333917 
0.2645620675927445 
-0.2008310120450054 
-0.7115871195927945 
-0.8736003886621672 
0.1086489131083539 
-0.08837644005354364 
-0.01910765178907302 
0.1672921134792529 
-0.1066769887772534 
-0.06304232549815494 
-0.06866980879568346 
0.2722059300056068 
-0.5207465882148677 
0.2772660155080207 
0.2754558621843907 
1.350656594928224 
0.09447801184692127 
0.265206516984749 
-0.1903561616386079 
0.875518791584652 
-0.1461066115757625 
-1.162243514294539 
-0.5709686402621285 
0.4246711396668821 
0.5647703108284681 
-0.08404409015915092 
-0.1142327683820807 
0.08987027066550236 
-0.005317298537532388 
-0.01356871415318241 
0.664257497034392 
0.3299712805212627 
1.237527728696129 
-0.136610189835827 
0.5140517861472899 
-0.7683073273379458 
1.131975158393 
-0.08901776756746448 
-0.1217856989754352 
0.3850042382153059 
-0.06235900048900923 
-0.1595604076956797 
-0.2961808467830646 
-0.1529502085953057 
-0.06704982949393792 
1.448584927564353 
0.1051060765691698 
0.2578288807322723 
0.1493613048586241 
0.2526620038708368 
0.1527442558905162 
1.276778646647947 
-0.1110393736978215 
0.8683389462001928 
-0.6871928559909358 
-1.062587881366853 
-0.04163945905295958 
-0.1126411146202485 
0.3683734979305707 
0.1716080855945451 
-0.01296047220069051 
-0.5520126515823464 
-0.2176933862677391 
0.6733791749210338 
-0.05685701718199642 
-0.4156328902178816 
-0.05505018508021745 
1.046250487269317 
0.226913537758024 
0.07837541869463382 
-1.010245586133364 
-0.3070841524637514 
-0.03637962085104489 
0.1165602782394293 
-0.0418836082565362 
-0.7098404464784184 
-0.5638830663628005 
-2.018176932821727 
0.2978100181438719 
0.3031591659320108 
0.1485778131500237 
0.4232054981207761 
-0.5505421395743251 
0.4127120477735257 
0.9139593647084936 
0.2513206353053722 
0.4832794987550748 
-0.1353900271639925 
-0.06513275416918024 
0.1035236032325482 
-1.510002574819057 
1.142877708818706 
0.04358756720376986 
0.1122627417531601 
2.315382252550253 
-0.2208788946945935 
0.8110178200073743 
0.6862588417768543 
0.685593477395275 
0.5257416450219935 
0.06934156851553135 
0.5408028037477163 
0.1446924251964349 
-0.469270341149032 
0.02429346297490726 
0.02163259137999072 
1.539433265517807 
0.02783918596248 
0.124738836122249 
0.4928481886184197 
-0.2079963306176107 
0.9073302908029518 
0.8822691569613089 
-0.6456255058911815 
0.3405120064748505 
-0.1290953266753943 
-0.0387526588056636 
-0.1085449597325657 
-0.4815521707849158 
0.167772032741643 
-0.2567674296467328 
-0.03358370109725888 
-0.5367591160531752 
0.2452675720698617 
1.746022660959342 
-0.06761338730151292 
0.3653954457924614 
0.3296312081524183 
-0.03716148954170303 
-0.05902777527378256 
0.2427085124158153 
-0.4886977077112286 
-0.0160115326413958 
0.1897093065440828 
-1.770386444707715 
0.2436559401295506 
0.1536492790514261 
-0.2759544644722355 
1.145815175745641 
0.1106877697638565 
0.9726169771023188 
-0.3084940910646005 
-0.1165526366387976 
-1.147514919900009 
1.074758390472806 
0.8989471740009852 
0.3648137838304329 
-0.04611176457726519 
-1.502509901649711 
-0.353068410397487 
-0.1159740850611836 
0.05267085959023523 
-0.4156973882962264 
-0.0441787330240065 
0.09718788151978945 
-0.1927050332193333 
0.8557628297427852 
-0.1752608041799463 
-1.026436016606942 
-0.0934992697031154 
1.833276601678986 
0.3633772061344216 
0.2585605186346271 
-0.5651514341263625 
-0.4460597638881334 
-0.5348038335010303 
0.5991267794919998 
0.5648068722043932 
0.165587196200688 
0.4482469783503342 
0.4645588390674346 
1.407467811982071 
-0.03611232273901218 
0.2826609967226424 
-0.1903988153496011 
0.1310648724810564 
0.7586517776136493 
0.3699021938395018 
-0.7973682776569605 
-0.2297053433725457 
-0.08048409840083753 
0.1299334632858182 
0.2756870138272807 
0.1601982074881224 
0.5779962704309837 
-0.0824375325540309 
-0.3570725951027388 
-0.6526964252553246 
-0.1586978787801276 
0.04968876183088892 
-0.01192993542920401 
-0.231560164872277 
-0.2281956370958147 
-0.1396218780923429 
-0.5645991226596137 
-0.04757484977743643 
-0.3371990165721075 
0.0001901864889750934 
0.167386871167428 
0.6194980879155443 
1.45026175280329 
-0.1434068592335853 
1.022388612257362 
1.14468364831077 
-0.08572737056513287 
0.2019653657856217 
-1.222291100045233 
0.2181308131467197 
1.790634305725858 
0.165427185469146 
-0.4048799316716702 
-0.8437665509036808 
0.5958539566094351 
-0.06863555876910395 
-0.1001853981127225 
0.5200444643480654 
-1.01116943478481 
-0.1169858611380926 
-0.1477707627043715 
0.8156331752351467 
-0.3829888754764933 
0.05820879711672085 
-1.03598388766456 
0.2672169945665217 
-0.1666178642063499 
-0.5222340165029453 
-0.4096963209159379 
0.07941047983037902 
0.3503694394394465 
0.1744402771521799 
1.643260389626173 
-0.3215827248400971 
0.001311780873790786 
0.5331870322006647 
-0.06634851341642128 
1.04709026644676 
0.3776308534783785 
-0.7394399263395377 
0.01869117622734255 
1.534594290077693 
-0.003086800539875946 
-0.07359433427679665 
0.3220521029506995 
0.4581734866835353 
-1.046915453609065 
0.2634784035654395 
-0.5135915908876277 
0.08919308441838869 
0.2916949102447661 
0.1483840163256772 
0.1089303215407695 
-0.1593363026065317 
1.636859962744642 
0.9042569394264561 
0.0606468248374615 
-0.1116679003038732 
0.8626456652505403 
0.2440328469330372 
-0.400545429682835 
0.6328100743667022 
-1.157245364414509 
-0.09703164970890783 
-0.1577654370218599 
-0.2231126132076974 
-0.03419548631210615 
-0.5711034800256948 
-0.08092008844026802 
0.9484584050892273 
0.8563294863189888 
-0.001466902387677633 
-0.1049506102237335 
0.5549038901186689 
0.2399523835114765 
-0.1801060819863558 
-0.08680642917982501 
0.03228805213720391 
-0.1030852120909235 
0.065712765826288 
-0.6653579987324487 
0.2121712301569778 
0.1989755549334337 
-0.005833707507102547 
0.0842511520088871 
-0.04909580008810817 
-0.0346383444246017 
-1.10133107616446 
-0.0975350775509953 
0.07278821549073687 
-0.09768651078496085 
0.2636437362204784 
-0.4027668293401243 
-0.02509612426393769 
-0.08293329693655818 
0.7596722098068236 
-0.04805922680423291 
0.773824005274915 
-1.233742833277406 
0.1711558199502871 
-0.7807376588497348 
2.248630264446737 
-0.4432122810859642 
-0.1532376460534159 
0.2213797580728207 
0.6400868017417727 
-0.1733686658496136 
-1.227425185791635 
-0.07127235782803595 
-0.0840803253048807 
-0.04370540210548069 
-0.5776991147119294 
-0.133267390664415 
1.149311320882103 
0.08948639707296795 
0.1770184667747317 
-0.09907604374419771 
0.3089679233378049 
-0.0739164452768425 
0.3985754103930564 
0.004719898682542603 
0.05227267186097449 
0.6496938313983406 
0.3396420719369321 
-0.7445199977060745 
-0.5218886900942656 
0.1429615472714792 
-0.1749098896159506 
-0.07973949339375216 
-0.1009167210692829 
1.167800161326393 
-0.05526107179255102 
-0.05233764153614789 
-0.04470893139252853 
-0.1762301299766557 
-0.2468737401403032 
-0.7457301827581254 
-0.1180068415688327 
-0.1004405912425158 
0.003180490122357178 
-0.08786464912648745 
-0.01858970551784929 
-0.08425003214960358 
-0.1069239167148546 
0.8721243257909456 
0.05075570107673247 
0.007597690470513899 
1.460502958921849 
-0.2344521486566124 
-0.3129801290246226 
-0.03767021325608933 
-0.1480824394159259 
0.3673246284115866 
-0.4121857062489013 
0.7692819889474147 
0.1539751256162367 
0.1066799533714544 
0.1601564791781375 
0.1953501744974248 
-0.2699063664265064 
0.1287387471470629 
-0.1549533427861899 
-0.7379998223617455 
0.1403418495004182 
0.3413159875446956 
0.8503850951284504 
0.8131450633344727 
-0.1106919623603074 
0.5143960070818977 
0.5601258674674121 
0.05476087761794677 
-0.1493731571714841 
0.7371463594212931 
-0.948005460541944 
0.6141944132586042 
-0.5471350309510942 
0.0712238451084577 
0.3013176430212035 
1.743522135977873 
-0.5947390732153308 
0.2072925718181252 
0.2298252022536444 
0.202505748861215 
0.2550193664004269 
-0.2104168225286635 
0.4159990622548186 
0.1773436167494673 
0.3970783954678172 
-0.268181287128084 
1.57462855463886 
0.1800359937533984 
0.4194005638461861 
-0.5313019817531985 
-0.9484008880059914 
-0.007176713066563979 
0.3576399633787833 
-0.48965277271658 
-0.2695547095073582 
1.571614250627231 
-0.9966014918120558 
0.09862375092645292 
1.311311966230464 
-0.1078068581467481 
0.07111259832727229 
-0.7617841014501942 
0.2471814409513932 
-0.1085206623292464 
-0.227835677654736 
-0.4094676941852982 
0.1173318072978577 
-0.9274622912844996 
-0.307032466204631 
0.3619735828125246 
-0.1044632636869156 
-0.2407900470390008 
-0.09089655770477113 
0.2063197753986492 
1.352022153407127 
0.9208856733549288 
0.06847069788057125 
0.01876624183411252 
-0.2953166991254654 
-0.7170285500025421 
0.2838567646445107 
-0.6634616657341593 
-1.460651663224021 
-0.7688557582811595 
2.436588102709523 
0.2097845799566615 
-1.576271809293776 
-0.05162082829713786 
0.2161251328869011 
0.5217646729309988 
0.07291989022517124 
0.5103379472477609 
-0.1563330929014881 
-0.1951491329993423 
-0.1408687367750255 
2.680834583890088 
0.2635250461946285 
-1.652235610928423 
-0.04228930938836744 
-0.05303071144812507 
0.4727429451991339 
-0.9425631194327517 
0.3095440344703969 
-0.3402456826789694 
0.07468889046501895 
0.5395558410572535 
-0.9628170275366714 
-0.08099249841194207 
-0.3739612721131576 
0.2105978647147347 
-0.05117913095901763 
-0.1058142518371076 
0.3945578682142972 
0.04620528893880663 
0.1135958752815889 
-0.2315535227000194 
-0.5328565091202785 
-0.3781344341887536 
1.02674989328298 
0.1278010302459525 
0.1139421552587879 
0.112525624441712 
0.3292719321760724 
-0.04009501449160865 
-0.0197357242704191 
-1.018343939645735 
-0.03798611715620782 
0.2579647679610648 
-0.1669947976936061 
-0.3168129976075447 
-0.04365077109885841 
-0.09788800215460282 
-0.2614271747765726 
-0.4822601613771824 
-0.4408679137285508 
0.5672281481193729 
0.1868152563091541 
0.5759889348196248 
0.111973857457274 
-0.4802283431660599 
0.1759302668313589 
-0.1334868744323455 
-0.2408774596016404 
-0.7373733176394055 
-0.0184864570341829 
-0.2360980436496097 
1.247607346352105 
-0.51296533236123 
-0.08461323800185105 
0.3261101405821999 
0.1221483767152559 
0.7370135055829234 
-0.1126807839538062 
-0.00994383268839927 
1.798703341326443 
0.2560150864542893 
0.9210321875777447 
0.0241571453966824 
-0.04958522124007078 
-0.03636260306289524 
0.8227997776385692 
-1.572413480871921 
0.5719063978393827 
-0.04187035432067809 
-0.4005602143958377 
0.01583142678499579 
0.1342502050755255 
0.08380505588740424 
-0.0495412260264665 
-0.0515364892062001 
0.3720382142073077 
0.06042249941308017 
-0.09937650478799455 
0.006811423247357187 
-0.5589463285497133 
0.009615146475285668 
0.684754993412057 
1.284086912509035 
-0.08167509471227843 
-0.009416239029310563 
-0.07169543151842675 
0.2371297410779186 
2.218974600457478 
0.05497489314214555 
0.341387494953554 
0.6611557827117646 
-0.03072444162897529 
0.1610572208605206 
0.3278842637575256 
1.608745336847166 
-0.04573221283731101 
0.8951109847868216 
-0.1784371420598456 
1.623469004818213 
0.5810066412780226 
0.1586419114308923 
-0.1130918178825087 
-0.6878234727275464 
-0.6329953670593547 
-0.01307917721436433 
-0.8324624697151567 
0.1941958438933593 
0.1439573280740735 
0.008769606829673097 
-0.0505540065604169 
-2.923091323909142 
0.05849446876704353 
0.08779003047404131 
0.8838399221156844 
-0.07136428389449591 
-0.5531356935549346 
2.77307751741203 
-0.07238915046639238 
0.6377070926076503 
0.03640555071857337 
0.9626561523020125 
-0.03384381778816505 
-1.036243283309845 
0.4157119021216673 
-0.1312563450001306 
0.05913520890355471 
0.1734913857901514 
0.1306691345505434 
0.1110656038748632 
0.3371640351868432 
-0.0854744709318285 
0.9656572838039809 
-0.6166543045233304 
-0.3457088572096889 
-0.8129789077675983 
0.05798277418148972 
-0.06460827870021867 
-0.1063779444447588 
0.302409662187706 
-0.09090822056304657 
0.1902574800733144 
0.1253287138482222 
0.4438162060820779 
-0.07486540536040194 
-1.264981648139176 
0.1294794438994073 
-0.5680032006713868 
-0.4302073455450235 
0.3426822043070364 
-0.9705990857401289 
0.8003505085597109 
-0.04639866008728267 
-0.3519809966515425 
0.7716486361820265 
-0.7808750093451648 
0.00399584356312008 
0.4848116287150914 
-0.3524616100602041 
0.01759103516187445 
0.313949104010543 
-0.2487143612016003 
0.8873026401466073 
-0.07999093971623428 
1.042233354601504 
0.02760542427010998 
-0.149365030428459 
0.06944202094675515 
-0.09273820728037216 
-0.7512777164018216 
-0.01342903395357034 
-1.250204802134167 
1.092959894842502 
0.1721886755755735 
-0.1250611523857137 
-0.913117282354153 
-0.210761368093316 
0.2809450898325973 
0.232229735538876 
0.338744092705227 
0.1181375542655336 
0.4664668864320187 
-0.1303326567193219 
0.1439349091500703 
1.543206452413029 
0.6032652667939469 
0.117866132377123 
-0.6610568397981159 
0.41375438699429 
0.7397884316430078 
1.361606477345061 
1.085451351893349 
1.237927673282589 
-0.02979360440740973 
0.2168328990176859 
-0.1262757995478989 
0.287774624845202 
0.2320021041948677 
0.006746724439203336 
-0.5087947213109765 
-0.215798347306126 
1.702597441498638 
-0.1821004060099919 
-0.6013198877301648 
-0.7502717615169199 
-0.02894638924261646 
-0.7038959828387926 
0.08838958163966235 
-0.04655683645843939 
-0.5518590948724358 
-0.08674513470771157 
-1.476941487349295 
-0.3262347791591248 
-0.04431842098969021 
0.4702765709736433 
0.2250301164289283 
0.08226094970330272 
-0.7037169120579517 
0.3294459721856771 
-0.9584144631204501 
-0.09002402476171899 
0.3131117360180058 
-0.6675700168419443 
0.04395190358561843 
-0.04402128138594438 
-0.133344770144931 
-1.798554704160322 
-0.7066603330165769 
0.0926918643238975 
-0.03020408118490731 
0.1267175889335909 
0.6875469043043421 
0.2044764578081001 
0.4331098420482067 
0.2187964593596966 
-0.1202628182219805 
1.617423721048411 
-0.179453299207999 
0.1963854115688597 
2.458697366161197 
-0.7273821268261205 
1.006694298899675 
-0.01948939392986807 
-0.4895072799954909 
0.3609929321002329 
-0.09922508537016374 
0.3903971759202602 
-0.1824236040327573 
0.2970532088135086 
-0.1281314074298361 
-0.1922119511997297 
0.3144080256511059 
0.02959242774140413 
0.1489962106475181 
0.1982747481415274 
1.168548137980905 
0.344589426226115 
-0.1216959712979177 
0.178308769177895 
0.1354480091257969 
0.2706695909192063 
0.04958536980224518 
-0.309316039772931 
-0.6788082519140414 
0.1339420538909799 
-0.3587823493827935 
0.9818285888818239 
-0.1260798807092877 
0.4479629184351158 
-0.4332574501669526 
-0.2562184649416552 
0.01668486549091351 
-0.04892792536770559 
1.127176299388571 
0.4235098554982332 
0.1144840962623525 
-0.2653640431052638 
-0.09752058827417485 
-0.1727271787212857 
-0.1289826197347092 
0.05734264609068015 
-0.4748289474396467 
-0.08217935110416234 
-0.03494065284831916 
-0.09149614641798288 
0.02328812695310292 
1.517734678542586 
-0.0934546285751464 
-0.18702745598733 
-1.713197283957072 
-0.07476443769968817 
-0.01277706831698097 
-0.4669945990298766 
0.07780269353761067 
-0.08854020469601738 
0.230555577452559 
-0.07790423479077623 
-0.05087822545345056 
0.2096675280511338 
-0.024063239897509 
-0.1156262194572917 
0.3558190221476129 
-0.09968430403362946 
-0.7551485900044421 
1.842949229882489 
0.3423822476905607 
-0.8411630231216461 
0.1508502571285112 
0.252637978773425 
-0.3817534706471364 
-0.2638157364628805 
0.06321642355173572 
-0.09599061382316879 
0.003575471613066214 
-0.2138745606359607 
-0.005628413123783483 
0.01429164967685616 
-0.4123297330691313 
0.4066977107099196 
-0.024451988101752 
0.3320017392254971 
-0.3735892183291863 
0.4737843572448671 
-0.2304231465509916 
0.1669199537391632 
0.2578127171092731 
0.1326053318216456 
0.3711803304021619 
-0.146048572815813 
-0.2207050233782247 
-0.2272736674185433 
-0.1674811283982036 
-0.1717731281334767 
0.02877462342979166 
-0.1082899445901896 
-0.110197704977812 
-0.03715695364088289 
0.2066617121262757 
-0.3709744693822912 
-0.2947755954544026 
-0.07984698673911186 
-0.08938738050698204 
-0.0841389200708534 
0.2609591474717896 
-0.4276942502693045 
0.01060578929825696 
-0.7905380118407146 
-0.6257344023324849 
0.005131701771713172 
0.16789466592309 
0.1121872497548521 
0.1947313743271822 
-0.4218781608159624 
-0.03169734053328512 
0.04261759862256064 
-0.9512100293893835 
0.2421148758514195 
0.6809495169980192 
-0.01808407885422409 
0.1055215477141098 
0.54712619721775 
-0.1759757688471236 
-0.3899632576093243 
-0.3600318187113658 
0.09238328261889943 
-0.1418972752591406 
0.319645172182579 
0.04032659206787949 
-0.0632342626753664 
0.1660879309511651 
-1.450422571196044 
0.2871831496875283 
0.1388015951770363 
0.1480316723261975 
0.001215483363040391 
0.7070691141757638 
0.01979910691525988 
-0.196607852620003 
-0.2497945129326278 
0.3463603022924213 
-0.3983299545362173 
0.2986238905414902 
0.1466939758175486 
-0.2971047658969061 
0.05334453548755714 
0.1107892550833247 
0.08807701300756755 
0.8599344437996211 
0.005943141669957378 
0.3628098134171092 
1.058423099313913 
0.3864445808844437 
0.5654077196677678 
0.7243111450652557 
0.6305988363280014 
-0.2905159580329183 
-0.7663066134145 
-0.6474344417536052 
0.0385886688713541 
-0.1666640083415775 
0.1344591830714081 
-0.1851113010577762 
-0.1270725576848862 
0.865068550068409 
-0.04010707832709944 
-0.2014076675358448 
-0.01748307596498692 
0.9438786499656485 
0.0506585011976781 
0.126292570341865 
1.489306783416279 
-0.5989540856013386 
0.5887885893329537 
0.1546866994057729 
0.07136522893004228 
-0.7364845276719503 
-0.04588108101890401 
1.521183662213357 
0.3326837234018313 
0.2680181291968221 
0.2478370437886985 
1.205118514829044 
0.1467418602157826 
-0.3531351017712827 
-0.142934714902199 
0.6626675156906388 
0.4728070824916196 
0.4830575030395381 
-0.1650577082528219 
0.1180842566512737 
-0.1747383350807012 
0.02175047233281352 
-1.257023540646555 
0.09960151461227475 
-0.0543251563476831 
0.2906694259018038 
-0.05477350397600493 
1.839302334703474 
0.1093531345316764 
0.3265346067556834 
-0.2985282744335319 
0.7875560009347331 
-0.3947229736295157 
-0.9030490618669902 
-0.008477675918687633 
0.09033620120127307 
-0.2509826452489943 
0.3985500557746679 
0.3380565748790308 
0.3794370375716939 
-1.022997501798632 
0.9178592774831928 
-0.05390835508024172 
0.2064031189253602 
-0.07526418592945379 
-1.028338820252146 
-0.42405650190441 
0.07559519237662798 
0.4835523522367049 
0.1150921841628617 
0.3522509621211022 
-0.478364254766204 
-0.03340400810250016 
-0.219941524213561 
1.770271434970957 
0.177561991920975 
0.8930550876410187 
1.51009315047568 
0.169004684310598 
0.3164956654654075 
-0.2766504543869086 
0.4477656040360887 
-0.0291218476447008 
0.1361181407060118 
-0.4144124772869133 
-0.3479443655906991 
-0.08337072320242141 
-0.4482313570484167 
-0.2766694731146588 
0.08533431351565648 
0.2093368884797651 
0.4915389186021713 
0.7988699637558905 
0.4070307563259831 
0.05357157379765612 
-0.09163775154629175 
-0.1677477153877802 
-0.05387685678707132 
-0.1071778050056771 
0.4387642573542426 
1.041332524336201 
-0.1884411732301265 
-0.3766994379755512 
0.06587557270976645 
-0.1508842590201531 
0.003071137708846173 
0.1069362250290269 
0.05809973212919291 
-0.03791905787048271 
0.2521591384767459 
0.6436229161371591 
0.2414197666175642 
1.454359292805904 
-0.004741410833625643 
0.1558821183741147 
-0.4058347528627737 
0.00889832427985318 
-0.8492154055373116 
-0.02720795840457883 
0.01383676645760316 
0.1905950421105663 
-0.08310248030273495 
-0.09559165493325247 
-0.02353875958300423 
-0.09220676632250419 
-0.5085342095265351 
0.1028700655792231 
-0.3732832616144722 
-0.1361153498021213 
-0.2308102826122256 
0.04054930118750335 
0.1888749940086536 
0.04345433974148986 
0.4501590355428639 
0.1352713104395409 
-0.07329507926951941 
0.008155623328132411 
0.004556595451414664 
-0.02208839697525236 
-0.2628456908175001 
-0.05103751808383913 
0.8007359987198842 
0.7809023694369768 
0.9253972059324513 
-0.6454308571375565 
0.5512617100808477 
-1.906081120264873 
0.2024958081665387 
-0.229803073099684 
0.02800127128963662 
-0.4144380768294791 
0.04716064154779679 
-0.3232032691309533 
0.5784863429995839 
-0.3648396415973422 
0.7587639260007314 
0.4459455347584122 
-0.02297229282164955 
-0.1318085947918199 
0.3518468919662294 
0.07948705314986568 
0.2015977635374286 
-0.05725511546091967 
0.2468975177758582 
0.01711136385285878 
0.116896967756134 
0.3497553078134534 
0.3339303515520986 
-0.7645257495173495 
-0.002325336298982786 
0.1589352875302415 
2.406805534576741 
0.1552957939384069 
-0.08265386684753995 
0.3723554505632908 
0.5202241652869362 
-0.01702868211331451 
-0.504208670505442 
-0.4017902292830111 
-0.05109422255601337 
0.7288046920870914 
0.01150770925138981 
0.5589466509585127 
-0.1955841926506636 
-0.250620194446419 
0.07965805389617864 
0.2743599067507551 
-0.8047094493531034 
-1.062804144489641 
-0.2391689920989897 
-0.7262692077825595 
-0.02948538180040976 
-0.03941474518775095 
0.08728939584923188 
-0.006843793370139808 
0.8284387989508722 
2.215067381816126 
-0.03936955790663739 
-0.03783200417563149 
-0.1170763870214522 
0.1205533279508738 
-0.08213048784424674 
-0.01889612201002897 
-0.007713702486614164 
-0.343363114332384 
0.6333279078025609 
-0.1387861317573275 
-0.04289170546650958 
0.241950247713931 
0.4786574676790856 
0.4169149186518034 
-0.6903438033950967 
-0.2422171007326541 
-0.1282494120159852 
0.8513046530970586 
0.3790841585414672 
-0.7119673847371228 
0.2419748782551342 
-0.2500547553066518 
-0.2011516129057936 
0.5156744373014792 
0.3567022683785008 
-0.08244916471388736 
0.09636063507635419 
0.8404423210716181 
0.2071901777106578 
0.01936659282667234 
1.534397476682034 
-0.6222185603167353 
0.05238876505814415 
0.02850820810292038 
0.3984183209306135 
-0.2458527873334234 
0.006979401869689522 
0.003438422118327415 
-0.2097760934894665 
-0.0580899396742558 
0.2477679445596125 
0.216518675028814 
0.0004376793624542074 
-0.06160262565578495 
0.1032258216977366 
1.323682224168805 
-1.207967045485774 
-0.7101996398192344 
-0.388577316113541 
-0.02331055914655604 
0.07331026964945604 
0.02582994024250672 
-0.2547841482692717 
0.7901507008048957 
-0.5020193624174364 
0.01710495696011952 
-0.06467272278882358 
-0.3476098629388053 
-0.5291235857738981 
0.6663209287231865 
0.02120725664293575 
1.028611055950144 
0.4411731222551653 
-0.1643110104172783 
-0.003623398558608715 
-0.05368362059862252 
0.3135275712064772 
1.372753255724461 
0.5083769693806292 
0.2027240227694288 
0.1920431706221312 
-0.06485883412986015 
-0.06370443144880432 
-0.01573401342269624 
-0.007276010672946568 
0.009324565034951427 
0.07848693970795557 
0.436523409062299 
0.04707807741774633 
-1.345292573423045 
-0.1185807711332329 
-0.2732566321250407 
-0.02022394659490229 
-0.196935832708463 
-0.9139247330018129 
-0.1681713136540896 
-0.01514940559668285 
0.193886698384645 
0.254589261568376 
0.002930919455834166 
-0.7827213950374946 
0.5829443092913771 
-0.01827660560939337 
0.8867662048320171 
0.01591849941842134 
-0.06235680967836284 
0.09610809567962887 
-0.2964608067447327 
-0.6708845016625589 
-0.2881382446278162 
1.243248880425565 
0.01092463163107914 
0.5118342775015333 
0.3784503867046066 
-1.447745233078671 
-0.01991327410047205 
2.008682152869925 
0.0335849602500479 
0.066455376304399 
0.008762041975153656 
-0.6767034177351658 
0.003136617215596329 
0.1678496526748781 
-2.044289438165969 
0.09570671437960751 
0.3827590248459582 
1.291685252128028 
0.01783721136163181 
0.2961168793307892 
0.6268835048111459 
0.352642542245922 
0.2499059412701086 
0.7766641814759969 
-0.06814949016101453 
0.09848504327309024 
0.01254353512013443 
0.2561948642835739 
-0.07712768351926426 
-0.035525137961768 
0.8635050853884713 
-0.1237347586242152 
-0.4559516187085411 
-0.0335902959422324 
0.7203538105503567 
-0.1878793191791363 
0.08746354287585187 
0.0727957611879394 
0.686986218111925 
-1.672922620671437 
0.03619297469816097 
0.2414346945749328 
-0.4369730145386697 
-0.4050990794739533 
0.3630774967085601 
-0.4722433013743501 
0.5126628198959954 
0.7695977332657461 
0.9370080154591183 
0.2504272970798407 
0.01164573161028747 
-0.02766589425133447 
0.3434200941196324 
0.2809159146766638 
-0.5594780552496808 
0.1486872042289679 
0.2147616212827135 
0.2842713405986028 
0.826057882364032 
0.5849737719102425 
-0.2513631212364276 
0.06899399736570445 
0.01219493408458719 
-0.2227706018145733 
0.1811784508283644 
-0.02219857530359677 
-0.1635291372821229 
-0.2997126291297417 
-0.5875547307014541 
0.3553267371096797 
-0.6556816118450565 
-0.07966544397421851 
-0.8110806750360942 
-0.2401747638421349 
-0.1195188841787272 
-0.3276082004685884 
-0.2325702988221576 
0.09582078124117298 
0.495336614771 
0.6817401635783455 
-0.02054378164222301 
-0.1625181915857407 
-0.3782759171425717 
-0.8436583267858347 
-0.07972011586473729 
-0.02048581058871673 
0.747998988826066 
-0.3467354459779161 
0.4617584450744678 
0.01074851783574659 
0.3343909592369143 
-0.1835487151275001 
0.4584342824830739 
0.1781387462110876 
0.3117555644183923 
0.342176004003361 
0.3098352119647482 
0.1354259196254997 
-0.03121876668674133 
0.4340041046516333 
0.08482978122131216 
-0.1617065018024963 
0.6343447610783999 
-0.3270112106079324 
-0.1931624216996053 
0.07895416062645501 
0.5151402019686564 
-0.05126223663628789 
-0.1104742765547977 
0.120860891019837 
1.16711288804592 
0.1839822712302397 
-0.1933500648953287 
-0.09277743151991179 
0.3468391277803891 
1.18945612064329 
0.07528393330523332 
0.3676253235705644 
0.1912245320242169 
0.3810508996880662 
0.1817600149251612 
0.104403560301088 
-0.559726953571399 
-0.1242036828360733 
0.09432796294653237 
-0.03278562881821882 
0.8540480051922026 
-0.7977099224752796 
-0.1715394824575941 
-0.1548415458280809 
0.01534523768585552 
-0.09617597504885073 
-0.2549499281865431 
0.3687147741313308 
0.4946023231276986 
-0.01727090098487632 
1.170446558010105 
-0.001947775048840595 
-0.2444535182959105 
-0.4720175143207486 
0.03018730645304573 
-1.506226739148327 
-0.06464085517262948 
0.1271814057617499 
-0.04636822185834134 
0.267836755123828 
0.009062672399182729 
0.02024133976878051 
0.05496559078199862 
-0.3457638664771586 
0.2530656027262279 
0.06939924913266139 
-0.0508654972469209 
0.4144562666441324 
1.022096441769785 
0.5557717247322025 
-0.6529215470128965 
-0.01981109132169642 
-0.477760591586063 
0.7959571937183352 
0.3214397660992924 
0.0371474356561948 
0.1564115170252435 
-0.01812541897703123 
-0.3381720000048574 
0.1218009163406111 
-0.4486863816896628 
-1.027296580156017 
0.08519223375593023 
0.4746292070212323 
-0.3420072490891723 
0.4072669737370138 
1.49613911304243 
-0.0220221685515851 
0.06964753944083003 
0.5541560901901478 
-0.3277470237452596 
-0.6303601832560343 
0.7845639894703487 
0.2343238658925449 
2.16814439816399 
-0.2488160915268874 
-0.477571486064567 
-0.1791989321803902 
0.04595887468126968 
-0.04210657323769476 
-0.0478569178040802 
0.09879466633643426 
-0.01919576816414876 
-0.1968947147566618 
-0.343418137332485 
0.08456653250318845 
2.08280741583984 
-0.06549745529447119 
0.2917587653864069 
-0.3247014515445215 
-0.05184665367262149 
-0.04947891625131929 
0.0615554016259055 
0.02711560304160024 
0.006943442653766509 
0.01015613505001603 
0.01301637191823699 
0.744611112764622 
0.4386628517509276 
0.002730025382302682 
-0.4658303416135962 
-0.7686895136520889 
1.113242145069235 
0.2880548683286376 
-0.3231923701575384 
-1.262425749401813 
-0.04557969230952333 
0.6670893124825771 
0.4095410728768898 
0.0397775685328917 
0.8155905607349849 
-0.02296755576759262 
0.6054739276872881 
-0.8076009940379002 
-0.3349454300414987 
-0.6359282726465441 
-0.8551517905972397 
1.224298091939414 
-0.2912038055568561 
0.3728377742638052 
0.2085221026456953 
0.2593438533246554 
-0.9093670913636969 
0.6202543589528489 
-0.3330962267878375 
-0.3701312599859918 
0.006425211861032937 
-0.116733356774436 
-0.08206229074199059 
0.09114367384735773 
-0.1872756849232467 
-0.07590289276649939 
-0.06146927998632135 
-0.7663037835288781 
-0.005910585650813642 
-0.01300755732607494 
-0.1003522186143088 
0.1240555433790623 
0.45378878376036 
0.3606206802241813 
0.2510130155391914 
-0.3183966168425117 
0.4058261771592899 
0.01477698939752865 
0.1718747750041646 
-0.2419679837527415 
0.2486123986256536 
-0.2665485037371359 
-0.03560121793743395 
0.05831417029639239 
0.04390187108681041 
0.01787225726509477 
0.1186216981422232 
-0.02926655253011447 
-0.5651107806610366 
0.009814874313254618 
-0.02688454562154503 
0.8617430598716671 
1.721981781042318 
0.5045414870672482 
-0.04726548161359048 
0.7930261701831183 
0.3602206955115701 
-0.03344301245395152 
0.251531692554551 
0.1643376374101538 
-0.05659371185669364 
-1.112526128149144 
-0.5672011939774625 
0.2011866192431671 
0.4100487136609147 
0.08761498290416853 
0.03115313072083045 
-0.3350335653077238 
0.1045026253179912 
0.1072008718144721 
0.9135101543447918 
-0.7273668791199603 
0.3587434373188875 
0.5142606579597816 
-0.1236470938852461 
-0.2817512254191542 
-0.129717150656647 
0.7978558234626711 
-0.8577785123950318 
0.07558481287319087 
-0.1646323168641902 
0.006958034211946107 
0.3854680615664802 
-0.02707929544227145 
-0.1115997549864935 
0.3638890014156395 
-0.0381546062898399 
-0.1579544722717757 
0.02925688285275153 
0.3550008635098061 
-0.8453018370778485 
0.3798916100106641 
0.08858566732241574 
0.9802815237400786 
1.543316153752502 
-0.1168183914011315 
-0.7800566613902166 
-0.1925374608048935 
0.6193741529514841 
-0.3194695032032968 
-0.1088667418144741 
-0.09605773843595361 
0.0132012854750476 
0.2650100224395037 
0.5974741425288153 
0.02724783829922045 
-0.03467167482374373 
-0.1684360122557782 
-0.01993256920175355 
-0.4232429376183187 
-0.2364338258909151 
-0.1795039314547812 
1.315564909008714 
0.2722986420935171 
-0.3599260763629231 
0.4924722662817338 
-0.220904478103968 
-0.1439327617824976 
-0.0316415141360549 
-0.3653622807805562 
-0.6085660002557025 
-0.02836190675631386 
-0.1902958673812772 
-0.4181278489880262 
0.07772567833012833 
-0.06224194551706767 
-0.0002612460330598055 
-0.3233121717203883 
0.02958437579654188 
-0.7283780485857508 
0.04141982290934743 
-0.555324074229639 
-0.7355297020978527 
0.857243443329589 
-0.3235223234437687 
0.8586757310687757 
0.7036971072944369 
-0.1689234341197013 
0.6189190043477739 
-0.6648163315891599 
-0.6598103842796018 
-0.5292385936631679 
0.280397314122774 
0.05057970911686509 
-0.2279078381224703 
0.7727539861124327 
0.08817750508007792 
-0.5817495645060018 
1.18858590786097 
-0.1242665730675173 
0.008472787838279322 
0.6594905783129431 
0.2204075731556165 
-0.1377102552323417 
0.244690883700792 
0.1552601319927728 
0.4575206201700313 
0.1813718354349475 
-0.03295461414139761 
-0.02160942362002847 
0.02905772566860425 
0.006933021802097226 
-0.01891126799465589 
1.504927735766635 
-0.2780083164437536 
-0.02322112447054139 
-0.5497598473868868 
-0.6962121941527222 
0.4560102010632394 
-0.08204529378426684 
0.09360171042500728 
-0.3181690338327046 
0.2148856548640717 
-0.2472268698190098 
0.09033181875707925 
0.09888291524749813 
-0.4666642099779551 
0.2513595869030338 
0.671768537188754 
0.1586302816934876 
-0.2158868741323318 
0.139316961951341 
0.2470951137347558 
-0.3411444090022238 
0.02007805966345516 
0.0755569864392889 
-0.04998114825728045 
0.4982715675498152 
-0.9378830280704711 
-0.09410162022567102 
-0.2357661349012649 
-0.238853767848944 
-0.08133899342634753 
-0.02395032822788931 
1.311985116315003 
-0.3185574320586926 
0.1510738169688859 
-2.171185296862132 
-0.1073848262437368 
-0.07870150518905192 
0.2306070796900158 
0.6158730999841098 
-0.1034365205062091 
-0.069912965031126 
-0.3523996337136092 
0.02051850763481521 
-0.03243003694047348 
-0.08273633677080568 
-0.08319270703148489 
0.1085375115063043 
-0.05131479649847478 
-0.1204606643070345 
-0.04152203208311842 
0.003722471588816086 
0.138905277546655 
-1.022760566555402 
-0.2120266436204651 
-1.226301497949492 
0.07219973994832035 
-0.05923099234494449 
0.3614188125472468 
0.8572610545451141 
0.8055865035649028 
-0.1020150637716504 
-0.05640778609185337 
0.3249923252319732 
0.2271710135239426 
-0.05123043750619384 
0.2139172457215975 
0.3506186408873586 
-0.3768017412342234 
0.09982706146217918 
1.002613910592018 
-0.01367277117293127 
-0.01772076204515639 
0.116386001003763 
-0.1030154610780039 
0.32785458448589 
-0.1652496609883469 
0.5462169651594443 
-0.07396535138232632 
0.3304407734694434 
0.1897688125171456 
0.7766805183468198 
0.2952839816325829 
0.1766986008850659 
-0.1477681448824632 
0.3084061290399981 
-0.04553294961490924 
-0.008478969353893234 
0.4108058728552426 
-0.4306087762174965 
0.2009739809787297 
-0.08134676095861902 
-0.09593756388945755 
0.356746439530693 
-0.2154046765864639 
0.05177224821255636 
1.137385050142583 
-0.254712086420134 
-0.05540460588587093 
-0.01743113298772018 
-0.0264893414211435 
0.4787926703264584 
0.3931796143386913 
-0.6282083239386633 
0.1073685283769623 
0.4159942788261576 
-0.2902689126141506 
0.2668854043405504 
0.1567815645491833 
0.1309165397132368 
-0.03811615634809545 
-0.1066069214645149 
0.05457305167118899 
0.004051407472705041 
0.06323504169519929 
-0.06481377020993556 
0.2376078792631544 
0.09755339128292699 
-0.001120392925963226 
0.888099068967346 
-0.2290128543603967 
0.2479449805822309 
0.6418778250678719 
0.1116774122849608 
1.204809682320314 
-0.03139963123427904 
0.04201797520825972 
-0.478546839426341 
-0.07025497405501256 
-0.5211751753126185 
-0.2629303364509041 
0.058359411119204 
0.6542217925353374 
0.4107664871341138 
-0.05766568323871818 
0.05365350649278471 
-0.7828784911748994 
0.1006251954953064 
0.1096979535631101 
-0.4883140557115703 
0.07910431674208696 
0.3477980350599054 
-0.1112875694205827 
-0.05719190217450386 
0.5965947458566535 
-0.01497081131272237 
0.9528026369835808 
0.1584078518889237 
-0.02656600116023905 
0.128211093405293 
0.06636306550197149 
-0.4498508426732571 
-0.006678630300918385 
-0.194271116577339 
0.1756090881456059 
0.378717359038764 
-0.7677587808489714 
0.452943493992026 
-0.08417913516332182 
0.1628087013028186 
0.1897164080703433 
0.1828930659403385 
-0.05472395072879781 
0.4761781050683159 
0.1159777535851927 
0.05274843568150932 
0.00761386569601828 
0.1397249491537058 
0.114335427765014 
0.01391362994160763 
-0.5869308539053466 
-0.6915750692356286 
0.06388230047023216 
0.09741998548959546 
-0.02126823219081474 
-0.1184970678367748 
-0.05440500229611414 
0.1382601543890969 
-0.005374477429792548 
-0.09149346897537901 
0.53446405998105 
-0.02147911617597875 
-0.2698472858722107 
-0.2891019788323304 
0.07564425076888563 
-0.008908987096863594 
0.1647537648457762 
0.1252729158829391 
-0.1632417476192778 
-0.1999075460420507 
0.3985129914083711 
0.2038015875086164 
-0.09684687752348507 
-0.5380275664913696 
-0.3273962821877583 
-0.2597815822172986 
-0.09357300299810681 
-0.04071898129311053 
0.05570607818547056 
0.2436631254419727 
0.4368565510365464 
-0.03956503592804992 
-0.002254912271981482 
-0.02327020167105256 
-0.01343431728990305 
-0.3442430395589811 
-0.1258948070695597 
0.1693715296371231 
0.3301326170276228 
-0.2348184115688243 
0.1227924148827339 
-0.1081415665171755 
0.1280732874307617 
0.268744827234179 
0.2448506610042526 
0.02054154659955476 
0.2506722431839401 
-0.004834763953909879 
-1.126434975933147 
0.1570918888699436 
-0.3232384921602278 
-0.07492761960733463 
-0.9604786113475083 
-0.01006343944183494 
-0.01230344229009388 
0.0951319154149026 
-0.08022014482938093 
-0.1000325360583566 
1.373340020580369 
0.3036454456196142 
-0.7295618030827973 
0.02629526457602972 
-0.4049127138443989 
0.06612118885585005 
0.1458206615486535 
-0.6702989370695915 
-0.06685806125410322 
0.7465262028548049 
0.1436082565573988 
-0.5596693946581741 
-0.0198907840244302 
0.2367747484972202 
0.8544395111384747 
0.3872785015570202 
-0.03845358994299729 
1.046102700926134 
-0.06006116308883776 
-0.02318773612942586 
0.05607719571392821 
2.632425684148462 
-0.003611946108701802 
1.169236142799706 
-0.2167208221474128 
-0.01259526113190501 
-0.009463239670245743 
-0.03920643871959904 
-1.025023300445707 
-0.009692261313429458 
-0.04402892664972762 
0.1006184590732983 
0.4767288217958406 
-0.4136756952982297 
0.01450063135154684 
0.4228301186685027 
-0.448382109870408 
0.07695793016715965 
0.08533211566304416 
0.1325932078288753 
-0.8083346487004356 
-0.05654224851533689 
-0.1822517557363184 
-0.5024877929814636 
-0.102124428339738 
0.03411983539632672 
0.6461947399786652 
-0.1328957371815487 
0.2507942614785938 
-0.3295321891674695 
0.0856387886870275 
0.09703413792305071 
0.2924820051042298 
-0.2912209064660711 
-0.8443799200895156 
0.1012674375251156 
0.3534602598329746 
-0.0952258151427522 
0.06728841254520633 
0.1155814583330613 
0.1436719202489467 
0.1249535983495619 
0.03542325778654806 
0.2417190311377744 
0.1325981459383178 
0.3013885393180766 
1.18767041144312 
-0.07977660321886737 
-0.1423927509526808 
0.08678005576178081 
0.3272353866772711 
0.5894986868505504 
0.1180815447452811 
0.1847241861714426 
-0.1777017514073198 
0.03125353622776412 
0.6461299875166912 
-0.0158419031775026 
0.3706842189507617 
0.2277308574922696 
-0.3403090140743941 
-0.1324132098830023 
0.3361411231196492 
-0.1778080826386707 
-0.1318083501844098 
0.05405248566830648 
0.07935163185799927 
0.1246015262134144 
0.3394094565787732 
0.06053945751310794 
-0.1882145408376551 
-0.4066418928114757 
0.2988820109363341 
0.6647917795178891 
0.1968393569872971 
-0.02235965487163186 
0.2024302667496023 
-0.06929692548098258 
-0.2124641458264334 
0.06510171930622563 
-1.621270119821929 
0.1540384218155609 
0.4075982928748378 
0.359568214902635 
0.02288239311405458 
0.3225200555296615 
2.347599264460254 
0.1628465686507091 
0.2347396106608963 
0.06165790132829854 
-0.7526597901546943 
0.1389536077490237 
0.2779855571422052 
0.05982124380873841 
0.277009676974609 
-0.09079324084401746 
-0.00107735777976735 
0.2448427262615381 
0.131294733374005 
0.8244890248000537 
0.2435089195294709 
-0.007088697406057797 
-0.2551394521906427 
0.1995622537252657 
0.6499951678719351 
-0.03309395484425429 
0.06604317132540775 
0.09478651062920787 
0.1995880605623392 
-0.187280422707014 
0.3736980066230204 
-1.184171268693966 
-0.01061737687521576 
-0.2171743150827081 
0.08790040591356917 
0.2699907198071462 
0.4817316770696152 
0.05107692371353875 
1.443727863661727 
0.2508149008338338 
0.04627356003888296 
-0.01937647605672815 
1.995269934108255 
-0.07035242223794906 
0.2732888531755881 
0.05684731803950908 
0.07234609660064244 
0.9089178961291609 
0.1748614165601208 
0.2858040823143723 
0.01111040142863495 
-0.1775607051236757 
0.1759626609563795 
0.8336482896458253 
0.107196519284452 
-0.00294311229495219 
-0.007778273929657661 
0.1698306564486906 
1.052274605169651 
-0.0417048267941987 
0.8011899066132981 
-0.003938201909516257 
0.3048983940801836 
0.2415676825384049 
-0.7449530369725382 
-0.4561487976426714 
-0.3481505301857692 
-0.05787913195160821 
-0.4093055742835226 
-0.1205732059959762 
0.1349646544850752 
0.9826328485028403 
-0.4142813242566701 
-0.117100884165153 
0.5326705358327974 
-0.1582506480508357 
-0.07875540305780426 
0.5301362027154657 
0.6370015192199949 
-0.4524163926667222 
-0.07863729020431995 
-0.007871432586362161 
0.3497319494751284 
0.2537636589090527 
-0.06345322478841428 
-0.02464479486608735 
-0.07289144745357216 
0.6343070099067939 
0.1399051580813256 
-0.1002592779747766 
0.1102486733549179 
-0.02287760701400017 
0.04669567762780041 
-1.35848812405278 
-0.1362324231339505 
0.5804033527889442 
-0.3311391668817469 
-1.408455382296977 
0.4561101627313258 
-0.233239501257038 
0.3301168397587691 
-0.4254857132094371 
0.2618906105771675 
-0.01110584465831359 
0.2604844926275268 
-0.6851470470261969 
-0.0440492129496639 
0.7118213816457463 
-0.1122647926215308 
0.03516364327726381 
-0.06615331233172131 
-0.01182260731781857 
0.6824835672178767 
-0.2557410102991855 
0.1212820228940219 
0.2342031146468597 
0.1882697385765257 
-0.1267670959774905 
0.02380221199124215 
-0.04837166171756337 
-0.6262308327255773 
0.6795515477422098 
-0.6071279249212459 
-0.6489339550622084 
-0.5846816211820838 
0.1468555207684301 
0.280311486390958 
0.123609772478532 
-0.1417327531662102 
0.5012620518685599 
-0.01054632708479858 
0.2520035441078307 
0.3773017559923908 
0.04039782056843381 
0.08989755510566705 
-0.2968432405598425 
-0.2369526941920587 
0.8774429951896229 
-0.004463619148550864 
0.1969537191070822 
0.07901480478635578 
1.003833576351784 
0.9896086365857252 
0.0137640765793819 
0.2658799288298031 
-0.6802860018614251 
0.5699634697045243 
0.7127605589352907 
-0.4645669496916229 
-0.004366931588293307 
0.2236246077388767 
-0.05870034183250832 
-0.06048712314206835 
-0.05021552914918277 
-0.7683499567502325 
0.3461973085342024 
-0.3586089097209032 
0.4595228180169527 
-0.3788527312591174 
0.6583543884526982 
-0.7745757025990565 
-0.0527882545768725 
-0.03839122482394279 
-0.4824224440660135 
0.1825310394568448 
-0.1496899187771893 
-0.05645195578300185 
0.06984270963730597 
-0.5311042208474109 
0.1895069485887158 
-0.1433662165283115 
-0.7706837853625872 
-0.1243511967171391 
0.2013646211850864 
0.5032786839366589 
-0.01875164568267477 
-0.01940985020001459 
0.4324892076272074 
0.0725435420874873 
1.438371178817958 
-0.3909699850966371 
0.3933252614289841 
0.3046404100597657 
0.06707220929945722 
-0.309956953065767 
0.2944683831097414 
-0.3577754075682418 
-0.01721945528993775 
0.2240127240663725 
0.2331674583615479 
-0.2643182678690928 
-0.135503723763731 
0.05471162799108506 
0.1296484051877941 
-0.05483812048469135 
-0.1433826304328655 
-0.1900915478859591 
0.2792272007450902 
0.5778487218423616 
-0.2836123227856994 
0.0350584533223004 
-0.04996809829033521 
0.5743117053678578 
0.8857935567139154 
-0.2353908982829963 
-0.01655178298163731 
-0.2201507408314116 
0.363336153627578 
-0.05337902290925291 
-0.03927229721920235 
0.1121662345655021 
0.09496900118437879 
-0.03952249797586144 
-1.122525301949637 
0.1814277363106217 
-0.6703417027845463 
0.04593691902666135 
0.05246429663494459 
-0.734325991591688 
-0.07466907831345612 
-0.4328277324940377 
-0.4098200245586555 
0.09743011711175148 
0.6088363467633356 
1.977941252228782 
-0.009432176438164252 
-0.182684920155929 
0.1125344652558259 
-0.09294447821202766 
0.2012082220215795 
-0.3759669743724649 
-0.6183585495068721 
-0.3585126495296065 
-0.07928099828676895 
0.07196938230457511 
-0.1307555044039513 
0.365481346061504 
-0.0544143955248399 
0.2222060694903716 
-0.551763236669609 
0.008771100458570623 
0.277461179844459 
-0.003326714574636861 
-0.01548898184340102 
0.05158546144712707 
0.1635059995160457 
1.003940810918456 
0.431298545649803 
0.06979835223881643 
-0.3832807427407637 
-0.3007886062236768 
0.06095799786731517 
-0.1866149219630337 
-0.3514198598829387 
-1.279537863721518 
0.1299903500160626 
-0.01318599792095441 
0.2558724435913944 
-0.2068920341686594 
0.4971786495257139 
-0.04118796545476589 
-0.3266505108360656 
-0.02839381728437821 
-0.6242111657356246 
1.54308146319119 
-0.01825380440539611 
-0.01246234975805505 
-0.2846043670207422 
0.08641457413250239 
-0.2747974750543539 
0.0187104664040907 
0.4307376439436947 
-0.1014828813203653 
-0.5018258739187412 
-1.252804734882424 
-0.00591659278674038 
-0.05635415883133132 
0.06214983360653453 
-0.0904149160609522 
0.05998464982105223 
0.01913386761832398 
-0.3594844116057964 
-0.1178499147388097 
-0.03057112796151654 
-0.9174017666583604 
0.002411656835806042 
-0.2473705482958852 
-0.1009305385104332 
-0.2562857123148697 
0.479325716794598 
-0.004535377962439678 
0.4323052659620772 
0.5556482555684271 
0.08856028506004997 
-0.1588226573822172 
-0.4172077566337634 
0.1246206609290219 
0.2121481346180875 
-0.1548684392432106 
-0.1036182347182602 
0.1556598916838299 
-0.09604679352417253 
-0.007571192836721174 
0.4790883890164281 
-0.3632319573777437 
0.3379075097591095 
-0.01767527559205196 
0.6711469196362522 
-0.3324654847060578 
-0.01451666365359186 
-0.07697700133641766 
-0.8315027702228637 
0.08269302768903332 
0.0699120285948414 
-0.03400106233874497 
0.114675075040361 
0.0702320283035021 
-0.06798331797663654 
-0.0638127996391766 
0.1372921459677429 
0.1446046017174362 
-2.129455838042355 
0.6356975373286019 
0.7542910093111809 
0.08924268007331332 
0.09508722984535484 
-0.007603302466427181 
0.3277676874234896 
1.285865991862776 
-0.08426277250739533 
-0.02410801112893445 
0.0256453808661045 
0.1944313243761715 
0.3614548176906101 
-0.05173174332968893 
-0.3185556986822274 
0.02036878879429631 
0.07793011910189665 
-0.43219862133676 
0.07855286709161323 
-0.02258421056168439 
0.234150188365148 
-0.1443327266894464 
-0.001562214980541006 
0.3918867808646607 
-0.002278306255225742 
0.3133868332652496 
0.7834354773185471 
-0.01219456414664455 
0.187635262898201 
-0.08610059913887252 
-0.0894094741287621 
-0.07196593609708164 
0.1522001990148696 
0.1488606424347837 
0.2850252596914856 
1.143618048029252 
-0.3798490291845099 
0.5501974045919189 
0.7079440543131126 
0.003278013797059761 
-0.5466610421431531 
-0.7424953130387374 
-0.5327953839422768 
0.1706920251956571 
0.01147384606267563 
0.0340614913540485 
0.02979700358564843 
-0.1044504438403081 
1.59250755694407 
-0.3179490801807208 
0.6881379885182169 
0.06743967913236991 
0.2786224995803469 
0.03348147449083318 
0.5063060285211175 
0.03499211118772502 
-0.1961002861402033 
0.2797637995968715 
0.1502548407485737 
-0.02764302734754152 
0.2904563457665512 
-0.01517208082624435 
