solver_type L2R_LR_DUAL
nr_class 2
label 1 -1
nr_feature 5000
bias -1
w
0.3972304508016843 
-2.419411044323335 
0.333549318457251 
-0.7051433246286076 
-3.569970758414219 
-2.732822032788934 
-1.646185723032328 
8.93656203898181 
-0.4219632235778329 
-1.576811957120904 
-0.6114574738838364 
-1.246146929820922 
-0.2798416113092378 
-0.08302648988068886 
-1.422435609880399 
-2.482685516621159 
-1.608672055949202 
1.85566522279658 
4.173985079534265 
-2.785083957452218 
1.112999921402349 
1.637700066968391 
-2.236877892445156 
-7.435235828383377 
-0.3483071257554593 
-1.876747461812616 
-1.593515625295331 
-1.297488011688361 
-3.512276621661754 
-0.9310893946990757 
-0.6887282056896039 
-0.937686961117259 
0.7535323201746982 
-1.233305652150487 
-0.1739074231144299 
0.1316927182670032 
-0.4385604987227776 
0.1099233812309943 
-0.8392805923989423 
-0.2770318781865778 
1.350287726368358 
0.1025851814642295 
-1.369476668212213 
0.4227232968510007 
-1.142364522716212 
-0.04783429708349528 
2.676146969122856 
-1.492798561078538 
-0.5025366681375448 
2.144480167395725 
-0.9642735842762445 
6.924190673410909 
1.076303216126837 
-0.4075230243699112 
0.5160777006672032 
-1.56757525295848 
-1.14594148843267 
-3.053390580252481 
-0.9175177697860419 
-1.431116328170281 
2.39964511587455 
-0.09282582674249845 
0.2188268440835612 
0.008846474150040445 
-1.260730757188923 
-2.202841783286908 
-0.1960814750787918 
4.61185440308307 
-5.163525309653852 
-0.4895672555045791 
-0.1462274156636643 
0.4324833359026484 
0.03665364019342829 
-0.4283315049311555 
-3.421845144657556 
-0.4728286716442257 
-1.962978379197948 
-0.9486416783827611 
0.003320995276608453 
-0.4509084832084981 
-1.140011130963644 
-1.698079796631944 
-1.118329206515158 
4.170822236609617 
-1.124038852404923 
-1.077113894837397 
-0.1942087195676293 
-1.293120190714293 
-1.531988675498784 
-0.4408260502721709 
0.4424308679174774 
-2.257019965873881 
-0.2391827748231114 
-1.370235901430977 
-0.5426116542227823 
-1.578757741179651 
-1.355319281655671 
0.01168370322338518 
-2.65796913915093 
0.3535461669177309 
-1.003433983845187 
-0.9052171879923639 
-1.948609347283263 
-2.705036424711802 
-0.1182429205910843 
0.7984341398776562 
-0.7015260560294356 
-0.7562586454489231 
-0.4624715864332983 
-0.3243199880994234 
-0.06012361583922493 
-1.438271001446096 
0.08875932122144058 
-0.1649322060439144 
-1.0576534943124 
-0.6410668577223853 
-0.04928430622676205 
-0.3608489273594831 
2.024736692516876 
0.2042082011356316 
0.1477205677895679 
-0.1144225917541351 
-0.1213691573918254 
-0.4478080760484148 
-0.08179976585207512 
-2.634151770960664 
0.1600251962843789 
0.1279943890330539 
-1.911385130819876 
0.04949312840304429 
0.05558935042578872 
-1.769179331551556 
-2.928466150975254 
-0.344813539239819 
-2.160430977408125 
-0.2295396229560215 
0.6157476448984428 
4.073320063113526 
0.005131657990173676 
-1.218542763619586 
-0.3297693225021599 
-4.101832611344535 
-0.8616168774782722 
-0.4182351347946646 
-0.08037301604439417 
-0.9666790907815513 
-0.2112303411098493 
-1.169768346660799 
-0.3260583094461159 
-0.6614418023418202 
-0.5266732360497177 
0.159234705328206 
-2.032627382674614 
1.512310144144114 
-0.4550780032026817 
-1.157939090884293 
-0.4194205240224621 
1.562419697797842 
-0.7474282168035931 
0.6718028109613752 
0.1995829550176778 
-0.3426373518681347 
-0.2635588833218307 
-1.60001037955798 
-2.460678532158968 
-0.02525722797638804 
0.1774038676719764 
0.3406640580013505 
-0.5705076701890146 
-0.3403653115221389 
4.311784717526997 
-0.2393575471528451 
0.1627561987590908 
-0.09166130623709869 
-1.275784047069744 
-2.011968022699761 
2.667824899334785 
0.05856074535975939 
3.628351313121675 
-2.476544528724724 
-0.6744456326750825 
1.691734299493277 
-0.08617615927201085 
-0.3650353260891188 
-2.150465210371903 
-0.3876770454082045 
-1.436745928689952 
-0.5328888542953035 
-5.046546169691202 
-0.4360496122152725 
0.7502968925781591 
3.002424230355875 
0.5184696013886436 
-0.07509290054812197 
-0.5125491754376037 
-1.682472244087727 
0.2968586475144696 
0.5274168238152946 
-0.6763273404001212 
0.1891837850361077 
-0.6304560407240564 
-2.348316259920872 
-0.8992872282906758 
-0.2544913723735673 
0.1813039186456964 
-1.533083413440245 
-0.1847146863905029 
-0.7965875721956733 
-0.6202034494564316 
-3.126880621785639 
-1.321859630912449 
3.952811703191392 
-0.0008168550927047103 
-0.1763000973709757 
0.5105367891215929 
-0.1013497053291473 
1.941305786223548 
-0.7072950975785927 
-0.2321530337762711 
-0.8758360333410269 
-2.774422073371517 
0.08922987542090755 
-0.5092906269713454 
0.2215740286873889 
0.8382026373953388 
1.329539739550661 
0.97248068625282 
-1.829233455642913 
-0.1156232320601438 
-1.332796866304107 
-0.238269374634951 
-0.145187740318396 
-0.7866089063326986 
2.29600413593273 
-1.4867334986669 
-1.482222550606008 
-0.6179781405977869 
2.073812256380234 
0.6110257718998258 
-0.5561280808167565 
-0.8263286021069414 
-0.2255335934390003 
-0.3400295998595805 
0.6152337710532311 
-0.3918887445661886 
0.230389478911365 
0.3247738603266966 
-0.3621876437772969 
-0.2507281214293012 
-1.298641734701092 
1.046679103754429 
-0.6055831341935162 
-1.303436729542048 
-1.790287797868355 
-0.755791707082742 
0.4536240999143858 
-0.3361942562792726 
-1.464032849083094 
-2.132507264364906 
-0.4260278322174224 
0.2258541548950728 
-0.5226686070566059 
-1.013662294423687 
-0.3636763620389309 
-0.7523955327287722 
-0.7228907978116921 
0.4977557938692658 
1.856190070019396 
-0.2847839521861443 
-0.3655599702382759 
-2.212846064719154 
0.388874767517988 
-0.4966359650777705 
0.3771082599513432 
-0.08579750544649187 
-0.8068438135838224 
0.3545909104968235 
-0.1149730556970106 
-0.6364027102925165 
-0.4813150416432698 
-1.970180270298253 
0.4478480326135651 
-0.5197901667623444 
-1.799296910369796 
-1.013208558588455 
1.216068060019715 
-0.9775026181778709 
0.301203167141448 
-0.776459059421711 
-0.03972664024441751 
1.234763345608833 
-1.029045707686987 
1.717877049776861 
0.711241203973355 
1.540506107417602 
0.1766349163513561 
0.01562766682275068 
1.765179612426477 
2.396425094920116 
-0.2190980943533806 
1.54808752188241 
-0.4351998191914328 
-0.7021625047939469 
1.501954134878489 
0.4064907662414494 
-0.5506742953512999 
-0.4376208507350651 
-0.6819590056935013 
-0.5589542467432541 
-0.8488243702859886 
0.3022079785771875 
-0.4632714887203566 
2.20598987130094 
-2.262389021178736 
-0.122019636829023 
2.74119463343804 
-0.2747711417942452 
-1.210682856527469 
-0.2043326525920718 
-1.101560652542404 
-0.194981810527154 
-0.9005879919291023 
0.3607746055861962 
0.6043422750815006 
0.2675290534085139 
0.1538592891991881 
-0.2313338271519349 
3.517759950740162 
0.8858542969246108 
0.1820076524065271 
-0.7434300185508486 
-0.3424060727277137 
0.3523947099911958 
0.9442612775217626 
-0.1804695632973374 
0.1214254140562818 
0.07475391671746712 
1.275728468548387 
-1.787443594057357 
2.121925834924636 
-2.145344994047546 
-1.467776824338379 
-0.5015168922146763 
-0.7489494689789066 
-1.178244952717044 
-0.6489420311953039 
-1.302779496677558 
-0.142364394152719 
-0.3925460631476858 
-0.7352863105531485 
-0.4128230958944567 
2.450323338940187 
-0.4046455718539158 
-0.4492167897896941 
-0.1371600596683574 
-0.220581889041372 
-0.9685209707604484 
-0.2409586424784669 
-0.2982582775774127 
0.2232049117972346 
-0.4507833032657806 
-2.98612326912075 
0.3170497906901374 
3.882389098048533 
2.1024878075475 
0.5108417521135274 
-0.1708827977323294 
-1.796758370452151 
1.111179304934143 
-0.495487300901032 
-2.261371626566353 
0.854239901102379 
0.8994498442745846 
-0.4454959315233488 
-2.565955933551051 
-0.5531859120788024 
-0.4941487148159338 
0.05339545275064222 
0.7312989900414241 
-0.01222085432619408 
-0.1553861116441634 
-0.3801077364841736 
-0.8471094160528215 
-0.4396654563215924 
-1.330312440925011 
-0.335210557517368 
-0.2471582945451949 
2.481597094415079 
-0.816597125493988 
-1.706566100907184 
-0.2835072345851889 
0.03374780967025177 
-0.1434690880693583 
-0.5323258627205631 
0.9863246421175041 
-0.7612060241180582 
3.029180538636687 
-0.2082881841151648 
-1.337877526327437 
0.313893246029635 
-0.8792621258352533 
1.470460596439545 
-0.03008607701262909 
-0.7974505079873679 
-0.4027996412423557 
-0.6706900992601605 
-0.576467993534902 
0.08088085452192885 
-1.005062816297703 
0.142228503853468 
2.371196644486958 
-1.329843250376887 
3.537124363749416 
0.747974632311089 
-1.836719339383692 
0.4954722948048718 
-0.8436968038145736 
-0.331839841494654 
-0.05399198867445761 
0.09901336182659845 
-0.5469722068554769 
-2.108664816440351 
0.5210241382118554 
3.128566490165396 
-0.5162838406789276 
-1.43408901918384 
-1.821817955037201 
-0.1528018586025441 
2.760464209173685 
0.541031279657937 
0.1248156110468916 
-0.3490039988046982 
-2.201301417550198 
1.188194939860894 
-0.3137721640569203 
1.337110312329834 
1.158708345289382 
-0.04199449886146023 
-0.08808537322478779 
-3.363401471828999 
-0.9322185839383305 
0.4998039965564188 
-0.7901581530793873 
-0.2963074468419853 
0.3795249016692467 
-0.8648051352173687 
-0.2581905595569658 
0.05046814265273779 
2.514915738942386 
-1.272153932444117 
0.8158627548515115 
-1.53927909338108 
-2.613726907137117 
0.05163616088074047 
-0.8553078515188846 
-0.1060719067971909 
-0.02577120340832001 
2.213214644685001 
0.2494312762335849 
-3.108858824332603 
1.111335876618496 
-0.04521137159669515 
-0.2861064826091144 
1.654217745609377 
-0.0880912739220346 
-1.313638868145339 
0.1522152798789609 
-0.5882603214464245 
0.03844444617759839 
-0.3855409819821994 
-0.8918659005963178 
1.809727385421707 
-0.4806946767437414 
-0.654597137306143 
-2.840603304266834 
-0.2226443008909173 
0.3375757609883459 
0.2474162227506481 
-1.662307032333795 
0.4431804760513859 
-1.627007434574804 
3.295003781406251 
0.9908124008806124 
-0.7850919922902203 
-0.3117699906479816 
1.21905457329507 
3.975731798161424 
-0.4041059946680345 
-1.988628829208022 
-0.6971586762387395 
2.311048825092152 
-1.37537757014308 
-2.784733516916076 
0.1061163346793452 
-0.1036361276428203 
-1.174448852353687 
4.054425800077578 
-0.7167617472581845 
-1.395756004917809 
1.382232765647442 
-0.6777291593921658 
1.826560512701393 
-0.2145253393884941 
0.3180027158832693 
-0.423498014475303 
-0.0819914666404313 
-0.4676045528203506 
2.738241352447118 
0.1373911789201974 
-0.613591740439459 
0.3551353404330851 
1.662357892233481 
-1.921972672881258 
-0.7817460411851411 
0.7250770249692136 
-0.02139928230386181 
-1.316325723184616 
-1.641822046190566 
0.4010871435744691 
0.1782483247966462 
3.894079580845233 
-0.2917871655573449 
-0.2376916915883444 
-0.842574539579377 
-0.9920588570973831 
-0.002904129695233155 
-0.8025300479097061 
-0.7263944699234911 
-0.5078038115202964 
0.4181701324176065 
-0.2327040233986019 
0.569920569926864 
-0.5133157688119134 
-1.236209315281141 
-0.3284647607027056 
1.27178673404312 
0.3256306433116865 
0.4309961859105438 
-1.886363904032919 
-0.8764223028869081 
-0.3261897419017292 
1.547778410522774 
-1.331246643856882 
-0.2685460105048272 
-0.1115585410030389 
0.4915131875586856 
-0.5967993642674096 
0.6080807244087989 
-1.45828158950859 
-0.1486702589288053 
-2.654286334300909 
-0.2963507458766397 
1.862704937976131 
0.1568134114698769 
-0.3405479786958749 
-0.08921061937411592 
0.04536416460943152 
2.277211339774211 
-0.25240068685443 
2.164010144909735 
0.1632576135415548 
-1.33718707525328 
0.5712732713656136 
1.881698686129342 
-2.596202904878666 
-0.3974259212680246 
-0.625970311493892 
-1.555229708749817 
-0.1562275162618983 
0.1045391524449702 
1.325419076882266 
3.209779776356354 
3.73252352116012 
-0.4800897894423071 
0.3103585059062127 
1.87065937078446 
-0.09309323792850714 
0.7436370071716762 
-0.4338985189755496 
0.219765957874706 
0.240110799371803 
-0.3029813091081592 
1.398075777418397 
-0.7305502352484446 
0.7558563922046013 
0.7717465411595938 
0.3301661661716824 
-0.2780956590175441 
-0.4473831980789137 
-0.6186808092866666 
-0.2962641944481165 
0.7083097080361523 
-0.1061758448255303 
-1.029374786467101 
0.05511818026524886 
-0.2802746186641439 
-1.723078904786631 
-0.481512338196042 
-1.522034443141684 
-0.3447937222431984 
-0.1878556056986702 
-0.1743299481784232 
-1.323566761560351 
-0.00468613124543335 
1.024392018499877 
-0.2375370843694861 
-0.01008480541286988 
-0.1692986142330371 
0.02042035614524679 
-0.9141810883323249 
-0.5728946493845489 
-0.5539342076578648 
-0.5050152609069193 
-0.04770668851955474 
-0.3365183563560095 
-0.5949993645047805 
-1.025613152001371 
0.03127746302778481 
-0.4471300832534625 
1.725194268784989 
-0.395648894825025 
-1.405931958814311 
-0.02628607072436495 
0.1755179280577727 
-0.5565922012474978 
0.6959371620817101 
-0.2373552831611976 
-0.3067646631180156 
3.619772000048131 
0.7256810277581063 
-0.3990672155407736 
0.03726248745522134 
1.311625717110239 
0.05826480241393953 
-0.3701426484717098 
-0.8547399768256898 
-0.01080781112545935 
0.1013950212239508 
0.7530803435267054 
-0.323645311616709 
0.7106076952408058 
0.2950407862603547 
0.4011312834189365 
-0.3912894232508128 
0.4033198950225394 
0.7020328428413823 
1.549092936397329 
0.05313675941460822 
3.323386278860748 
0.2203379339529875 
0.380933307457012 
0.6318715448273027 
0.07610390359991188 
0.9357582644585537 
2.291264184664853 
-0.2872792922207263 
-0.2628606132973831 
0.2490058511780396 
0.1351726961728084 
-0.6782092719091252 
-0.2441459189697885 
-1.036438379318948 
-0.6568275544022953 
-0.7280467541725583 
-0.9545723091981142 
-0.8237656260135027 
-2.192460853140338 
-0.4368225672253058 
0.8251174706884189 
-0.4833768094950957 
0.7978140760706158 
-0.0399486275820071 
0.904209297965096 
0.9635106914237992 
-0.1128668136882994 
-0.05495655194554618 
-0.1117969993468617 
0.1798797420055896 
0.1645906832769887 
0.02914907482337692 
0.7256933191588734 
0.007702695031172374 
-0.4320444864124873 
0.8451543862998484 
-0.3335229412224538 
2.831996856982341 
-0.6239068912599921 
-0.0413002486229016 
-0.6182921875692607 
0.9019551302675258 
-0.2291884088553848 
-0.5822730818133978 
-1.540073602309134 
3.2155699811954 
2.208003648919031 
-0.3841043140417515 
-0.6980373007067386 
0.1212759529628048 
-0.07642954885239944 
0.6211323851951002 
1.048127368387814 
1.821008916168044 
-0.3258534417210305 
4.305951188535492 
0.9505513379362003 
1.238389728457266 
-0.1890070699251682 
-0.2999877337364926 
-0.2357305629266689 
0.2224372087348163 
0.9135108342826215 
-0.4867690944055162 
-0.8456989143496151 
2.524122896682501 
-0.2023026808867906 
-0.5462956280929687 
0.1997273176184222 
0.06251487322982302 
-0.4829173094673536 
-3.076396627704625 
-0.6296071681051462 
-3.368396227073809 
1.704634770138958 
-0.1885531683776415 
0.2294327462995173 
-0.8386927817484163 
0.2114293598475091 
1.525899768719948 
1.015447890128814 
1.366386374176265 
-0.1945785151603329 
-0.7626785785964943 
0.2751554232025606 
0.05319056866799624 
-1.106123275397665 
-0.8173633994195739 
-0.5531743259816048 
2.250187834708562 
0.9045986389875958 
-0.6174086649401553 
0.5909619479394657 
0.4254054773576358 
0.3759114136531756 
0.1135139114844076 
-0.943655799783806 
-1.322698179331492 
1.651874478391764 
-0.2504090651199318 
0.026761696773706 
-0.08893305462984663 
1.214523960388354 
-0.6905209267537383 
-0.2467286656470958 
0.3686702204770869 
0.04912457251906422 
-1.198255242262215 
-0.4686673848985033 
-0.07248197286555268 
-0.5451705265989319 
0.07226813582980535 
0.7036157505517776 
-2.08535979583872 
0.5155436692347427 
-1.575825572124644 
-0.1517159762477167 
-0.8632415807360189 
0.3296485146549279 
-0.5954280334878048 
1.121898372921899 
-0.2557620033571605 
-0.02238974005019501 
-0.2411405470704163 
-0.02116204056052081 
0.06913080538323163 
-1.486291701334364 
-1.972647675830904 
-0.7077187661166967 
-0.332518282069004 
-1.288844964976967 
0.4105827409584513 
-1.081677951867789 
1.034627052864932 
1.849376674722482 
-0.1123927172130495 
1.017307372360991 
2.294050382582223 
0.6011128410693557 
0.6058681532845963 
0.8242541108842308 
0.9255846134990676 
1.635050742530517 
-0.3145641732415486 
2.531630320798234 
0.06150285954245661 
-0.0312204107563939 
2.2454185943283 
1.81476166490429 
-0.5794673344592066 
0.1992743927510942 
1.21361435283661 
0.1700098466115322 
1.596005036884496 
-0.06214315911506298 
-0.5337689524255471 
0.8484747127574396 
-0.3839029369614161 
-0.1080068476119837 
2.462599810566054 
-2.146953387251888 
0.01084945181888582 
-0.02838723538608348 
-1.113518674835196 
1.919979850691792 
-0.08511232709338376 
-0.5192647414059303 
1.103623134084373 
0.6089461984855917 
-0.4481711326753553 
-0.2223649057832326 
0.1790689473910898 
1.111977464090562 
1.713263545153602 
0.2121299466793126 
0.04922573732785591 
-0.3003034623287716 
-0.1761287846591303 
-0.09497046674902801 
-1.149168709829371 
0.2024056757541292 
-0.9179068253279918 
-0.1690113234145659 
-0.1827566591202164 
-0.4874641002813876 
-0.004881850743095456 
-0.1028738770990756 
-0.3762931732651589 
-1.231661782178964 
-0.8297978354232229 
3.599131676437675 
2.899076010973149 
0.8021999085672137 
-0.5058312824883255 
-1.936518506157826 
-1.234679339419501 
-1.770967504193457 
0.8401514627092371 
-0.4745000405580077 
0.2679930060295054 
0.5009440145408243 
-0.02421237671787549 
-0.2083542822829929 
-0.7588716164092775 
0.003316470701456769 
0.4429635756700079 
-0.3278500674815694 
1.031560429018338 
1.896902451165195 
0.7604019526311357 
-0.5005653539474595 
-0.4673952896123977 
0.1961669607829659 
-0.6244109355897737 
0.002327545151872496 
4.512083472087854 
1.156698699810221 
0.621474367623626 
-0.02526835632068134 
-1.00664873665228 
-0.5095370723301514 
-0.09974193174438729 
3.015898715325044 
1.390149775252006 
-1.63778314191411 
0.2317985198072195 
-0.1791861119187202 
0.5116208386007723 
-1.471115802955712 
-1.385296533168444 
1.556669601934684 
-0.797276966313046 
2.43022479436981 
-0.6937323857507524 
0.632481884847062 
3.025917694441682 
-1.402647030997244 
-0.9578293335491024 
-0.02831123014254451 
1.566738360659286 
-1.310791674562797 
-0.2706678884335704 
0.06288752610921457 
-0.3629545743960174 
-1.114452694204241 
-0.3564619539462206 
-0.3287569146956487 
0.1035066048881406 
-0.3063591063520531 
0.02033253338595809 
0.3022114906724577 
0.06861553275995215 
0.188999974260581 
0.6836728301274042 
-1.015485514699649 
-0.4744248376190394 
-1.244885650158019 
0.06057808084175128 
-0.549938344595337 
1.037804391590407 
-0.2462806536130105 
-0.7323553988854211 
-0.1440031709129233 
-0.2562194214003656 
-0.5656740428055067 
4.11370344887683 
2.308863437681601 
-1.310329606271546 
0.1851095242360508 
-1.65710237251363 
2.351299880736651 
0.8435883079178007 
-0.3078802530777978 
-0.7597163281595618 
-0.1958457172654278 
0.2739559538639184 
-1.952520193091593 
-1.308127676754749 
-0.3994747585034715 
-0.03697919632902531 
-1.16930646245701 
-1.40991862660023 
-0.09547485969948032 
-0.1693812301037759 
0.323861154350571 
-1.297955342486321 
0.135645345898596 
-0.1378574848341247 
-0.1126468292052058 
-2.215847297893077 
1.897080334715771 
-2.387976577956703 
2.002620464055458 
0.02290847817366556 
-0.1154370317881138 
-0.04745135181312248 
-1.180949666081365 
0.9535897506105336 
-0.2243013582852115 
0.4612442491458565 
-0.1512356715051822 
0.3273351742407724 
0.6451799013818442 
1.360358626695543 
0.04084920460629882 
0.7010400636653871 
0.9656978776071209 
-1.378471581008844 
-0.5790896755383792 
-0.6714922174441742 
0.04187785912738803 
-1.023301010102549 
0.05264124007812645 
-0.5540050027297985 
-0.1827780457349183 
-0.2738632557602675 
-0.09963263690142549 
0.5412686795350158 
0.2907926164964627 
0.1366704513326882 
1.517547943901865 
-0.3689219991662042 
-0.758612026813816 
-0.1676555460752404 
0.09947610597837013 
-1.536631284342663 
0.4523754998902967 
0.4502551928333693 
0.2048339936916141 
-0.2262665933194377 
-0.3097951185835833 
-1.404514934893748 
0.05812338466915053 
0.1036019630648553 
-0.7691269625163365 
0.1581632186318631 
0.5307399222240741 
0.04448320484245327 
-0.06304540246471632 
-0.3197892628575587 
2.238956827666912 
1.047573053435125 
0.35931055931223 
0.3855547058476069 
0.0974158116387971 
-0.2402086888885562 
2.877168023945706 
-0.008864339196167142 
-0.3759239588797105 
1.846425510997073 
0.1237118003591712 
0.3693682605256764 
-0.04061970413132639 
-0.564074001314954 
-0.5654631316644203 
0.4281512360691071 
1.179355729749388 
-0.2175018841721281 
-0.884403259034993 
0.9502430502490081 
3.844629546446793 
-1.080506803754479 
0.4099319586803924 
1.371882308349676 
-0.01982935138327682 
0.4213813902094467 
0.0546620272016116 
-0.1390066505823593 
-0.360827689801999 
-0.7125546335609368 
0.621176095443051 
0.4045297260668975 
-1.176232407697298 
0.2246857151679963 
-0.6155440978275214 
-0.3128987505351512 
-0.8536633433042348 
-0.1286468084221108 
0.1500981380765232 
0.01718814008663406 
-0.5439214922493752 
-0.06057355575365789 
-0.1733064270527334 
-0.004249475546477637 
-0.1054219616569287 
3.845034042771384 
-0.2196483460381764 
-0.3461790962223357 
0.3571018045597056 
0.9175193524628521 
0.2947597752548424 
-0.2011245404702001 
0.7150609702824025 
0.05638498543594055 
3.114665291974406 
-0.799348898005411 
0.2256200861568195 
-0.5405827143300317 
2.704077033030984 
-1.846040200865983 
1.671611719052056 
-0.3961663621046103 
-0.1022501989765152 
-0.1937133033663107 
-0.267016735461279 
-0.2287947521699382 
-0.1244893110510447 
-0.9274962677598666 
-1.497360077146709 
-2.100613328651901 
2.475996323606075 
0.1493400411275979 
-0.2298070839091042 
-1.087973970406224 
-0.1600245969855411 
-0.05037172297148799 
0.3033576582081893 
0.2220671761353715 
-0.5115037036516055 
-0.9267322729448902 
-1.102330312985457 
0.6811361690165045 
-0.0921259726427299 
-0.03534786314838426 
-0.6492138540395389 
0.9792906787335314 
-1.299935046556966 
-1.12541296705032 
-0.1614999776105734 
1.87207082943541 
-0.9502962773668523 
-0.5762516658145029 
-0.3494075839708252 
0.5937694754190791 
1.88074239543133 
0.8086086998656569 
0.05152860716147012 
-0.2954430647697729 
0.1836476404880153 
2.118474894219563 
-0.6697129882842515 
-2.629396863948317 
0.9635995313666208 
2.595344503776813 
0.4988331183337534 
-0.2551311812047763 
0.3279743387712052 
0.6719374089014962 
0.1758424881394967 
1.197640925148535 
-0.1693324646272553 
-0.02803698950742958 
-1.778157335209849 
-0.2356324057330091 
0.8982500534404564 
0.6495341284263004 
1.328445308847116 
0.284689709736607 
-0.6319517981389005 
-1.4177251528207 
-0.1321382713542899 
-0.07960906687973088 
2.798146076766209 
0.08416280605809383 
0.5683547845951035 
0.326345549430421 
-0.1214759932583032 
1.913596171428953 
-1.820594589662595 
-0.1988867785580313 
0.1805066217698114 
-1.449607456817683 
0.06200003507386243 
0.1820229896136623 
0.2770547643246266 
-0.1837091089065813 
-0.0677316495119125 
0.2613897592994393 
0.3609417665249506 
-0.07709765129759849 
-0.7722827521101534 
-0.09727420363948387 
-1.370755482045836 
0.3403323880248336 
-0.3799744590038038 
-0.2129809247081445 
-0.2321617675198143 
-0.1473149268845376 
-1.386137719051909 
0.8781234050601179 
0.08052423788476377 
-1.185200717417129 
0.5891066299005818 
0.2772091840387158 
-0.3458183306407526 
-0.6168283553936398 
-0.5355680042827939 
-0.7069081474692592 
-0.3143277166947512 
-0.6993170642835856 
-0.7834026331293589 
-1.024729685788123 
-0.6869484864538591 
-0.6830327292873392 
0.8633125775403125 
0.1987669897760929 
0.7455095269977299 
-0.3184902230633408 
-3.101046534916843 
0.6401410710543874 
0.4541872853203893 
-0.2044210623065193 
0.06089412090946382 
0.08170986707010566 
-0.06978166087297438 
-0.2393189775837621 
-0.1484735793200572 
0.01021857211563944 
0.02887855675512106 
0.3040675961593315 
0.6695655800591981 
0.1897602145145727 
-1.009303302185601 
0.5615646112875866 
-0.1856445087232674 
0.3545166954280962 
-0.193140203657558 
0.6098311626255178 
-0.09770100177914517 
-0.1845163912186813 
-0.2049353875190637 
0.3495141876542729 
0.3355014574812203 
0.1740917563387413 
-0.7835873558749935 
1.338534056528052 
-0.2724256987366089 
0.6491675301315211 
0.9711137229053252 
0.7433019866338277 
-0.5238622518998414 
-0.7104670052945785 
0.3549877434580588 
0.4669218182606515 
0.9253055119910764 
0.9689869368777847 
-1.524563966563255 
1.650262170647277 
0.04132440434238241 
0.681695908594215 
-1.406306771907506 
-0.5877735239896171 
-1.005944933212273 
-0.03269394714842645 
0.1765096188587207 
-0.9776950892752266 
-0.861944443173043 
-0.0859167087268065 
-0.4840911761669906 
0.3053509843993181 
-0.9853894103813152 
0.256622468064588 
0.2453406065842445 
1.155931069270849 
-0.451856283174863 
-0.2130068950283159 
-1.035386124350945 
-1.198676595013088 
0.008218297886733388 
-2.1811157493401 
-0.9705762550264073 
-0.3737327368493438 
0.1318921897452668 
-0.9332107438262598 
-0.290363010707838 
2.727120128695419 
-1.581157311534261 
-0.01571724801894464 
-0.6590893648504977 
1.155529444711569 
1.451491010672556 
0.3788501350783752 
0.9679263699012117 
0.1221158671357123 
-0.3709866654977385 
-0.2821702787980097 
-0.145562499355901 
1.343962272551545 
0.3620980197186433 
1.154176377179896 
1.602231916793989 
-0.3936049232713342 
-0.7917920136611435 
0.2940420580217966 
-0.1684783750633194 
0.3570209798388903 
-0.2412849934514956 
-0.09250116711976301 
0.01062687162234583 
0.4817051497458467 
2.038478962609167 
2.429266080697496 
1.126722652899821 
-0.8837470385957386 
1.614661505916826 
0.2096492466936005 
-1.087346745142324 
0.3374389232738677 
-0.5263727298075502 
-1.209504036997475 
-0.4717737300481664 
0.4701793900193802 
-0.4852950839317476 
-0.7901542568190505 
1.236590099969566 
0.9619215599666315 
-0.1382097030847211 
-0.7546086504744604 
-2.911795006835353 
-1.001760759025486 
0.2287552615248226 
2.249667303355741 
0.7531048847888111 
-0.5451159145763063 
1.474845787521196 
4.458537752509939 
-0.0353502224597113 
0.1724841711711651 
-0.9012996958812761 
0.04689655017387947 
-0.508898302172622 
0.2970443433295732 
-0.079607284084156 
-0.3919497571283365 
-0.0686696813691189 
2.060268574430052 
0.1519020285945118 
1.048174938110243 
-0.6326414367583587 
-0.1971099538008492 
0.3914671477818015 
-0.1654985908484964 
-0.4819799140716803 
-0.05984888886151189 
-0.716702737216894 
-0.09811993850526705 
2.048063743935536 
-0.2626831809613288 
0.1784955764673671 
0.5124545998367162 
0.08145980356817208 
-0.09734112832303037 
-0.5649230023626357 
-2.00590665288129 
-0.5662229626290479 
1.569346530227498 
0.621704949386558 
0.652266188379214 
-0.4309800123965807 
0.5098577109619963 
-0.427256509289844 
-0.04281738699803186 
-0.2395851056648445 
-0.3493529294678644 
0.5847538119287958 
-0.2746788440861152 
-0.6883255241348093 
-0.019131463344064 
-2.176330707427397 
0.4420307409041367 
-0.7349482145811536 
0.05585540192163863 
0.05573109483762042 
0.3230144731596609 
-0.85252903052304 
0.9238035883278647 
0.03966933438300168 
-0.04740273304872731 
-0.08194264236163634 
0.07186828230882175 
0.4295997818396887 
0.801767332769594 
-0.5353601873322589 
0.4080316275470989 
-0.2886599418616581 
2.430608636435663 
0.3720941147575772 
-0.3629141902820042 
-0.4321994557545815 
0.4026548033770304 
0.6356338413189243 
0.1875429524814211 
-1.339605589886158 
-0.5606506277802081 
-0.1484360709349621 
-0.06653226560915693 
0.07235664665955616 
0.0395673763191598 
-0.3571979037103784 
0.1189731677954388 
0.1888305080284807 
-0.3260413070402088 
0.4578431722487314 
1.394051355116213 
-1.687210045484572 
-0.3237638630788977 
-1.321840974336626 
0.1558732936378787 
1.227600439714323 
-1.004076590322306 
0.4833486208950342 
-0.01372321995695171 
-0.6483484983329759 
-0.4618378108313409 
2.734149333912456 
0.4377798250393035 
0.1165232038181369 
-0.6499294125861242 
-0.5357200056865306 
-0.05718867797950302 
-0.2295832066633596 
-0.3939641809230512 
-2.764662781215273 
-0.1429030218143926 
-0.2716276262737788 
0.2551927709709844 
-0.3028943321638265 
0.7782544964614583 
1.008241076716448 
-2.159404573947798 
-0.1700368389956822 
0.3988766241772612 
-1.09736461848313 
-0.4882241696379671 
-0.185313823548148 
0.4048807378908079 
-1.322005977252076 
-0.06141214338799434 
0.6073164500189735 
-0.1650621455500212 
-0.5774228356814458 
-0.6261027777040796 
0.9910638645908653 
-0.4940595872085087 
1.660388270785349 
-0.623191557352643 
-0.1322649099945966 
-0.05782317269048015 
-0.393980515414062 
-0.3264611750705813 
-0.1216413223048873 
-0.1135644388240676 
0.02121349492999556 
-1.663676368760628 
0.5783916571114243 
-0.4837422626734854 
0.5724789514655773 
-1.29707401520847 
-0.6289135602980146 
-0.3532594870574595 
0.1772772994618822 
-0.5880281541835757 
0.456009123944733 
-0.6889889205933011 
-0.0454244613943063 
0.3981600431523918 
-0.1849585255731684 
-1.355496552558095 
-0.491815842395629 
-1.30993859358832 
-1.136025880607219 
-0.8590418333165712 
0.1340522049708513 
0.3276492578741824 
-1.149321073990533 
0.2576317431980979 
0.1572076997932406 
0.9749554088277697 
0.3860741035983665 
-0.2384342417058682 
-0.5102649043028612 
1.683843188187128 
0.2266548268641777 
-0.3178996058880352 
-0.422247696801605 
-0.464466457646614 
-0.4597422816635947 
0.8505006992990697 
-0.05177341813048293 
-0.1325438830485038 
-0.5467421884569931 
-0.2993360869140374 
1.042500495910017 
0.25614320473056 
0.1561677845386392 
-0.5906827456030432 
-0.8542853987939391 
-0.2324863771865992 
-0.9346343430807541 
-1.210083390362301 
0.8889541483973873 
-0.5631011207621859 
-0.7011055987452367 
0.6064663818373049 
0.8141722216766005 
-0.522314111175106 
-0.6079898554459159 
-0.36732185810444 
-0.2253435764280169 
-0.1338936510469598 
-0.1768761369858699 
0.1278156584025774 
0.8188101467785925 
0.1463449490285187 
-0.1882397027773116 
-0.08295868859868302 
0.9052268591714009 
-0.2889591633753736 
-0.3322604731574734 
-0.3711229241593946 
1.968831493537064 
0.4612922409172766 
0.7273904671479039 
-0.1486964638793346 
0.2007633224159368 
0.05605648119101649 
-1.005908042555791 
-0.5002021539172795 
-0.01822992342737988 
-1.06134514073031 
0.7636998792556552 
-0.6938723161630597 
-0.1393483635252555 
0.1301568780177522 
-0.5258720235394261 
-0.2085653440263328 
-0.6139664755506123 
1.61333763384653 
-0.1580153641355108 
-0.3901520544616356 
-0.7265455625390783 
0.03264776010597194 
-1.536531025731453 
-0.5459200923779827 
0.2998374675370644 
0.05227568264343433 
-0.1387998684166928 
-0.3600998095981397 
1.269052018854816 
0.2950993666702497 
0.4930358251619868 
-0.09889334576229385 
0.8033202294821246 
2.319676203290766 
-0.9498807883162177 
0.2243398903914223 
0.008002911353476307 
0.2362741725826946 
1.545470224558836 
0.4949303671666884 
0.03795336149757728 
-0.6430335491137181 
-0.7962155437323358 
0.2196254869264184 
0.428046028979679 
0.4285540622254584 
-0.9701053007096889 
0.05874043429865102 
-1.389629502090166 
-0.845284267026259 
0.05449599257869402 
0.4947905156522487 
0.2047270565365778 
0.2753862332399302 
0.872757428846072 
-0.4772648712017114 
-0.2416791456113657 
0.5767791226772592 
0.1162455695822703 
-0.0272225709489519 
-0.9021881605830565 
0.348085459639699 
-1.727699442584048 
-0.3516062709756915 
0.1144072019839251 
2.175908924936911 
0.5324511103093617 
0.1708569611657718 
-0.4499657380723991 
0.2390616494463489 
-0.1410229143539551 
-0.05275077350446081 
-0.1138706900528837 
0.06647080675179649 
-0.05946474854959417 
0.7761505348611497 
-0.5149964413521878 
1.426894192548779 
-0.01389744972262671 
0.2272139928975977 
-0.1100799438742624 
0.3217258240486292 
-0.2568140084825948 
-1.910741313926352 
0.1646545393977005 
0.3118674493517867 
0.3582357789665136 
1.302011579528433 
-0.8908278899572263 
-0.1092632530725856 
0.3161208614751211 
-0.604534744157844 
0.8496144502624492 
-0.1884629132381591 
1.666567859058998 
-0.07040178980036924 
-0.1425211933558148 
-0.08745293841856565 
0.0004576642900390282 
1.018627330978652 
-1.515457891531673 
-1.511604999869127 
-0.56640560515336 
-0.04027936493017285 
1.005209544018472 
-0.2507911773524443 
-0.9668290575768387 
0.5880172248530886 
-1.540815383582657 
0.6308821249493803 
-0.4139870748478773 
-0.2171845733142048 
-0.9857582223793806 
-0.1523747417058745 
0.244353621907922 
0.1031038063574204 
0.222827413413986 
-0.6273996527556798 
0.3671400542042661 
-0.2246572126606498 
-0.7610827674974689 
-0.007047876267064506 
-0.0446279930998382 
-0.713889701837482 
0.5017786027901842 
1.199921605204656 
-0.8308763123736264 
-0.4009109156222865 
0.1729139286722491 
0.280414946736346 
1.934884579961297 
1.575240214891062 
-0.3507348659308476 
-0.1376567451568156 
0.5462621506850176 
0.187279288791409 
0.01013112715749638 
0.07313725483956394 
0.1654935590054202 
0.03848339566023905 
0.1961650484230095 
-0.135789731718482 
-0.1440404059574745 
0.4008923955618047 
-0.1511099139316726 
-1.321744973166769 
-0.07520647953847599 
1.347535579539218 
0.4199686449920901 
1.083928880472876 
0.0689893267282039 
-1.486849555890356 
-0.1914577653824565 
0.1562336634410066 
3.395192218761864 
-0.3690124740806188 
1.705453112342704 
-0.415095798213971 
-0.2503784175526204 
0.4169144170648555 
-0.1795869532754241 
-0.9982336949732672 
0.8830280495466106 
-0.4801715499882432 
-0.9909409259412442 
0.619726105554029 
0.89255110808019 
-0.06987889811421452 
0.09728404399823475 
0.4280406799548727 
-1.359431844738815 
0.6497369060537891 
0.3855328272522141 
-0.02803994956362105 
0.5267692746216628 
-0.04461070809305239 
-1.001389420791243 
-0.6699611482788764 
-2.100492359644567 
-0.4859388649821796 
-1.144579571763581 
1.905177996775357 
-0.2057379737440121 
-0.210003474234456 
1.065735430070986 
-0.8682561055403132 
0.189965999344361 
-2.548821110089062 
-0.02771084200920452 
-0.2282151134800337 
-0.9151612793536082 
-0.07065782671844546 
0.5015729806737083 
0.02941959543701757 
-0.153677777958354 
-0.5797177463797758 
-0.1321156022597228 
0.2884980870479469 
1.0401284648674 
1.56656224343217 
-0.06160546389921324 
-0.1672124562631124 
0.3587073777970231 
0.1790300112975546 
0.1977887317948869 
-0.3473387956094845 
-0.0764313125384207 
-0.4133692836771296 
0.2678554456654389 
0.7656155583757767 
0.04923861232122333 
0.8103570825211088 
0.1189782457936213 
0.1747813310079451 
-1.203639227463985 
1.407529762081091 
-1.632916593003972 
-1.051426444510006 
-0.178090084339404 
-2.063460547417665 
-0.3163382682005613 
0.3357349080151372 
-0.2741670910137416 
-0.186113158764377 
-0.8940304424780789 
0.05802295941997281 
0.6994469983668555 
-0.467740879736338 
0.3380170297961221 
1.324258765300048 
-0.2377987632435046 
0.2289494025907456 
-0.2008133817602072 
0.9971507484494802 
0.1577643913591359 
-0.4137513792953056 
0.0299973117017407 
-1.313511812856968 
-0.4759603794005411 
0.02791688212568058 
0.424893247872865 
-0.006154825141722508 
-0.4039153020308534 
0.8468696856251818 
-1.458185085398035 
0.01015265698242877 
-0.1872693424818852 
2.777999980147455 
0.03175815404855552 
-0.524554467508663 
-0.1533456069535423 
2.544308842969538 
0.7365714453739073 
0.4081172199861374 
0.1376632650655635 
-0.05143082247872409 
-0.3087763583537617 
0.3632283892596036 
-0.1419027098581158 
2.446765820438395 
2.361528366664732 
0.2217376344869665 
-1.74326428395128 
0.2131314408614203 
-1.893647729722948 
2.118615200589649 
0.6867303453546589 
-0.3040790223537255 
0.8289217474583699 
-0.224134571592453 
1.195017847504274 
-0.1987849078366438 
-0.2903072435937564 
-0.3951516709633057 
-0.2401341200967275 
-0.2492387030981499 
-0.4219262664703989 
0.363376873022052 
-0.4923188948349047 
-0.3394342560675506 
0.5362573609724048 
-0.03195960515218039 
0.2587692933513061 
-0.3115438024040952 
0.4735487800619956 
0.2356398974685579 
1.057915312236627 
0.1706767618495612 
-0.2434168373132367 
0.146223317552023 
-0.6744828063410941 
-0.2397331312702927 
-0.07610601123016307 
1.072660899906621 
-1.12055647872242 
0.830223712184171 
0.667536395584358 
-0.1330686576175794 
-0.3217051538764603 
1.876958957354797 
-1.080509136492394 
-0.00960042039829734 
-0.3209033973838639 
1.964366589101639 
-0.847794790112571 
-0.3114961784696165 
0.1223663229203533 
-0.140616349241255 
0.355618304455783 
-0.3478934368757622 
-0.0009920764186600679 
0.4430732913553526 
-0.7000894510608096 
-0.2642038824369614 
-1.446828558820976 
0.6666033305364419 
-0.2658440471012911 
0.02725002019054332 
-0.3106500917737718 
0.128758428066901 
0.4700662935824862 
-1.593017958384657 
-0.5405508286582222 
1.835417362332234 
-0.7731665153802079 
1.477243088417992 
-0.2915138536699103 
-0.1447680715277608 
0.1629518248188786 
-0.3339257329603408 
-0.04384364411123524 
0.9063636440673251 
0.8946406736627303 
-0.2884318050637716 
-0.658637822184809 
0.06657444757069364 
1.010766247513026 
-0.2005274916674098 
0.7109813490483337 
0.0607764663786156 
-0.6742170468660738 
0.5589937120739916 
0.04633648150458848 
1.723669067594098 
-0.4104015147057005 
-0.7388446095176067 
-1.386586187278103 
0.1762169770682694 
-0.3440588306252045 
0.645599505459267 
-0.4990632399584173 
-0.3457408843794654 
2.047927511075969 
0.7420517448132375 
0.7632610299887407 
0.01590286554550211 
0.639947709786101 
1.632578782143225 
-1.362901145716963 
0.1981751893646144 
-0.01588692052479008 
-0.2286783728883321 
0.1022126575461448 
1.448057180375545 
-0.1010589936428639 
0.2028579159185253 
1.088288461635323 
-0.3634710757569724 
-0.2352547264646698 
1.730321086039073 
0.03400725995142152 
-0.2240024248741752 
0.0929745769269278 
0.2681870870148968 
0.4925476354293404 
1.16591949819727 
0.812734621248924 
1.377549400163238 
-0.2272465559316359 
0.6616776668182899 
-0.121811628518085 
-0.1020307154347026 
0.5968205315605358 
-0.8476731246141496 
-1.792747865294558 
0.38784243064988 
1.319726945989336 
0.2704368467860624 
-0.1666884719622864 
0.4733142579610996 
2.928800262076335 
-0.8633569156478913 
0.2111615084271939 
-0.05196467001808498 
0.3073507342234622 
1.127218310067089 
0.05588656565748839 
-0.1052856039123318 
-0.5660913220317261 
0.008319708974545413 
-0.2577851570857759 
0.2975620854985909 
0.2079759783383952 
-0.06206832387998552 
0.5877771372379705 
1.379855890516165 
2.121962911339435 
-0.7658052837496651 
0.7417945298140832 
-0.08588011795958198 
-0.2214348218652369 
-0.5592005125653612 
-0.3669551341159353 
-0.09025645950056527 
-0.8653308172709824 
1.264052238628922 
-0.2044101496052382 
0.09143615256998378 
0.08046903153273659 
0.7489481812970959 
-0.2155324093532672 
-0.2335922692512779 
-0.10162499804269 
0.2641656739598661 
-0.6521569434995012 
0.09632152353493408 
-0.03391307210872493 
-0.1232748866579498 
-0.2408535862593135 
-0.1632996327240797 
-0.006575204819973891 
1.025181388043897 
0.1685539689715487 
-0.9672578691371481 
-0.3244190505422602 
0.8028330028698117 
0.334253176164805 
-0.522654353011486 
0.01179728888938707 
-0.4098458377415194 
1.225359952347199 
-1.314975276295402 
-0.7755177263738182 
-0.4301877167172223 
-0.05398058150881919 
-0.446640429190472 
-0.1395497642708703 
-0.1337577031377965 
0.9072971792207215 
-0.5509382944283243 
-0.3064830889351567 
0.2271833640938263 
-0.4173442190527495 
-0.6920950640717916 
-0.003837236652277738 
-0.002550793842465332 
-0.07238767670112034 
-0.1615014062930786 
1.081824609906669 
0.9142418763050207 
-0.6004219308361298 
-0.03938643664110442 
-0.1448000121790909 
0.2214560800516083 
0.9201175605930381 
-0.00754066349938347 
0.4456930656137731 
-0.4123032206589187 
-0.6163857392552858 
-0.0914853879314851 
-1.208794961592693 
-0.2475201769782906 
-0.3153726278641704 
0.3619154111430989 
0.4786090554781943 
0.5052814434049074 
-0.1963612012173342 
-0.05876121991160396 
-0.1316901058352961 
-0.03127829718517964 
-0.1181358452335588 
-0.1012694624277457 
-0.2430729971076398 
1.69997730597988 
1.027980684653338 
0.6999679117530394 
1.380516024901816 
0.2355679728643956 
0.224413650599039 
-1.58430531231532 
-0.4614212935391305 
0.2968635677754068 
-0.5169375594430332 
0.05786639110229855 
0.5492666922156502 
0.01982538503907656 
0.3211704193993858 
-0.08741001066658409 
-0.06563473054108625 
-0.1982919643764687 
0.6107173730407832 
-1.449942450974837 
-1.029761929046672 
0.2811113300902207 
-0.7020861722350242 
0.1189927946845468 
-0.1499693176718432 
0.01351143252217065 
-0.7241191818799347 
0.9846778595839178 
-0.4225278766711006 
0.1218467888636799 
0.3607793199790188 
-1.292877092246752 
0.6116761639311327 
1.417179431157309 
-1.304979349999027 
-0.4452823115800137 
0.2384499154634313 
0.2134950351543657 
-0.8368416570064885 
0.4397161491506722 
0.06546598988560912 
0.8246418156535632 
0.2184959180108257 
-0.2813656329789579 
0.08207449222209738 
-0.2805854904033972 
-0.6708754504995035 
-0.04421391327186968 
1.616408020329247 
0.1560638987661306 
1.38359308103578 
0.4279439979947712 
-0.01177724869165732 
0.2576710085313717 
-0.1777941518101352 
-0.06374949128300118 
-0.03238270512533577 
1.510232080594662 
-0.2525295307288978 
0.2195462084390783 
-0.2607837551398893 
-0.05310066112935525 
-0.2185347184357244 
0.4867460523618347 
-0.1743961123653277 
0.1923315891435878 
-1.045293802168109 
-0.7387616015842181 
-1.862327091469012 
0.1702124719740598 
0.2725954858039439 
-0.111238991329023 
0.1901467086740549 
-0.05527037253622754 
0.2820474556694523 
2.216583775663778 
-0.4217389093058598 
-0.9363662852895166 
0.09021294259908574 
0.1067325145970402 
1.992946842680274 
-0.1155633963897958 
1.446166246854524 
0.1167311829224592 
1.684439457475496 
-0.08379962238590527 
-0.299581276958163 
1.063784882804797 
1.053409704458219 
0.9135022721342394 
-0.08049530845295878 
0.5269124827766 
-0.3480340626442032 
0.1844100437561004 
-0.05444824813385165 
-0.1521678092343145 
-0.1989709324730157 
-1.335309686616411 
-0.7956662850799454 
0.1926346556059684 
-0.3340175815425914 
0.4756353749145872 
-1.933806142838179 
-0.5817468359297528 
-0.3259665994695226 
0.5847693840229866 
-1.057578278989104 
-0.6659025196949874 
-0.2489279292259828 
1.043135751256502 
0.2921999120195446 
1.217787309807968 
0.4479185711217074 
1.594741741350634 
-0.7555234332036749 
-0.1617070965071329 
1.080320623695292 
-0.9424114923168408 
0.5116984084575502 
1.102855999925363 
1.869465708971514 
-0.01261025459312834 
0.5572709966254809 
1.600777268029443 
-0.3080741731931456 
1.330074825165225 
0.07259918948174852 
0.6667466735982268 
-0.3663605096086713 
-0.2421327561574704 
0.1797048753625978 
-0.1543636495543543 
-0.08961201103089667 
-0.2533015698617304 
0.827286194283831 
-0.00198259083847253 
0.3052069402053589 
-0.4980900772834388 
0.2720214318936923 
1.465792866467459 
0.02561510081815566 
0.4512333912732082 
-0.4632858783538476 
-0.1842016021842788 
0.7779049426771498 
-0.1822790304749877 
1.026134929814604 
-0.9746037557543961 
0.2728717564568841 
-0.6787596444892259 
-0.09539283478151736 
0.2897480300314146 
0.5252182796835468 
3.050044623764315 
-0.09363319543499368 
0.234345844045451 
-0.05134153523348012 
0.6026518197790258 
-0.04069384997568908 
-0.4989333282110571 
0.1931230987967005 
-0.6099617915309578 
-1.038601925058154 
0.9235368126244916 
-0.4157734066759657 
0.7170760719528908 
-0.006617609715253714 
-0.6986431801797039 
-0.04818368631229403 
-0.05972487990828586 
-0.05915281327521192 
0.3740391452727725 
0.3488380499975423 
0.3919005075122479 
-2.20867289297503 
-0.08539025781685491 
0.6872925341074201 
-0.6451406531065643 
-2.564273400869653 
0.4241178731023215 
-0.3666826455273751 
-0.7157427424668462 
-0.01663147061948582 
1.52075754978392 
1.171402789610631 
-0.007128895305134787 
1.414013805363963 
-0.08608187932216776 
0.1634130679863523 
-0.03979575636498348 
2.128396734209072 
-0.611785828848402 
0.1807069077629166 
0.5154168219361175 
-0.5453938384183306 
-0.0264370903810143 
-0.09268065635656278 
1.732249659499681 
0.01801204863465905 
-0.04516400016366717 
1.644823736539629 
1.444157164358249 
-1.200946775424814 
0.2090697685552547 
-0.08022711394883718 
0.7765128912441318 
0.9334750356526507 
-0.2663299864867024 
1.198025745871386 
0.7162093789929102 
1.380117592012467 
0.3320549421427444 
0.0369889052262028 
-0.1761958194998258 
0.6263655066142139 
0.4620361005306615 
-1.317813089569805 
-0.0002160884440014513 
-0.2551959425309464 
0.3154963435430447 
-0.3686872002932892 
-0.04391012271855883 
0.07754661630648302 
-0.001839110434966931 
-0.2659019469498612 
-0.2091857614266289 
-0.1189117569279677 
-0.03826798640629405 
-0.01183783745585735 
-0.7662815025660284 
1.20272546803996 
0.6984486595967478 
0.499057944884215 
-1.486071819878714 
-0.2882140055981059 
-0.2221367820216609 
0.09676991662310921 
-0.01272391090427393 
0.04125952428850427 
0.5384761046371047 
-0.6449347463007885 
0.00909371860473145 
0.490059313283257 
0.7572320968321808 
-1.005624762237697 
3.323336732111318 
-0.4178861509000137 
-0.3921321059357218 
0.6326533597129803 
-0.4636116709876774 
0.6192631500086458 
0.07583598763724211 
-0.7559326203798964 
-1.023917695752617 
0.6539648957644697 
0.1653537161605275 
0.5092528219934587 
-0.3898584861279925 
0.1432603031746032 
-1.387030397549494 
1.112108837489739 
0.142374357019105 
-0.70104731891723 
1.329397729461733 
-0.3411768820036356 
-1.175594276996057 
0.3664323777672712 
-0.06517034614035318 
-0.6840719357346794 
-0.313292598259302 
-0.2547883291100178 
0.08145902040357461 
0.2782913314654801 
0.2048269051661468 
0.6963461979619378 
0.2423513966998549 
-0.4076778742574824 
-0.1658946277636774 
0.03935594337750571 
-0.5756044274121653 
0.1015027723134036 
-0.5449763194075796 
0.09656547278842764 
-0.1992134636302952 
-0.1070167222533024 
0.3468483058745345 
-0.00278628605770605 
0.09523660259910792 
1.044548384696125 
2.31832171290635 
-0.4241110927233638 
0.9828517854328773 
-0.4254303103259054 
-0.1080045598493898 
0.911059523235349 
2.244567024934014 
0.1367897964806775 
0.2901504090545582 
-0.2206504413830064 
-0.1337158274996173 
1.388158722123359 
-0.1694852774551313 
1.942251973115708 
0.4254748073960101 
1.085396848561882 
-0.1283015798936505 
1.416016543478722 
0.02340161530451791 
0.1076330911657892 
0.1576810300116811 
0.4443874743956311 
0.2685181114758434 
0.8815215041907041 
0.1570696049609057 
-0.0449173336205628 
0.4027364552222701 
-0.05967292275078746 
-1.298826521170331 
-0.01009696872426642 
0.1200314612760159 
0.7856057782105141 
0.1289757451571895 
1.020208588492699 
-0.6002672357495936 
1.044173569761482 
-2.220937409912509 
-0.1068042541562022 
-0.1976641478903011 
-0.1730186367151165 
-0.01806012181822869 
-0.08324953954778079 
1.424495294569872 
-0.8513903476148912 
-0.4144879045348547 
0.1152239676406338 
-0.359676091058711 
1.032977836544627 
-0.8756911736560894 
-0.3163909124599102 
1.049639043881197 
0.4471136605707063 
-0.2227334329602469 
0.03462995171720246 
-0.1268285107050304 
0.5334499673039662 
0.08089306438750517 
0.702010942712736 
1.661670755182016 
0.2265874230689295 
0.2698629993971444 
-0.2841514999825388 
-0.1574678025810055 
-1.141437164433522 
1.185166032613306 
-0.2562517665525509 
-0.1360931301508625 
0.1814824448697554 
-0.002710822117336649 
2.070224793091615 
1.129411341656376 
-1.359881869893476 
0.5462599899318804 
-0.428676499717701 
-0.4465101441807339 
0.3840674976580917 
-0.06268934251854684 
0.1792151515477706 
-0.2580709340910444 
-0.05366126433537531 
-0.8788694634217949 
0.6663998472469034 
-0.50867643821282 
-0.04957597675009955 
0.0769129578456996 
0.9689522997399177 
0.7333221585055097 
-0.1536122798953344 
-0.1115853738690306 
-0.01620425757948051 
-0.6511773371315135 
-0.1402298176590143 
-0.0742132173693254 
-0.1186593931269055 
-0.2861698759019151 
-0.251056010361453 
0.1958886749794735 
0.42797267784035 
0.5919227147067696 
-0.04252296486654301 
-0.3454130363527808 
0.2133249765457562 
0.1490409986544645 
0.7043980760818446 
0.8693139757389514 
0.4253608959688251 
-0.01120860977999433 
-0.05733861416377307 
0.5927618089155244 
0.3796809435590691 
-0.08851964302546432 
-0.002934705768866946 
-0.1324107414268304 
-0.02536338401584479 
-1.708106719512919 
0.9806800513961926 
1.076948902879879 
-0.2890093025827343 
0.9102841860961887 
-0.05878552364059388 
-0.5710927651704304 
-0.8860964647848766 
1.394625579698389 
-0.8976178711307293 
-0.3100260611972891 
0.2871559118884283 
0.1749513392298403 
-0.08035734896226589 
0.321958481159777 
-0.2350749950582764 
-0.06397399156021449 
0.7947308146147307 
-0.2039155460301665 
0.2417063440049632 
-0.447480711045012 
-0.5566798834892581 
0.2489194529789601 
-1.846435258172883 
-0.1108734187353522 
0.5582220985317004 
0.2985505397258736 
-0.06315629250135026 
-0.07767504155979328 
-0.2650730588136183 
-0.01403806043618702 
1.129429590322483 
-0.2389749273721098 
-0.3521824397990204 
0.4518964551087712 
0.444495906735224 
-0.04118543567512832 
-0.2952351665357451 
0.6409871395866458 
-0.06476722651509484 
0.126131432300593 
-0.8506694753785815 
0.119335594729454 
-1.190513787602183 
0.3779108226423278 
0.9140378631911918 
-0.03250288479696455 
-1.331117991860789 
0.7337578662618456 
-0.04485155088798656 
0.02898285820552925 
0.2592673241091721 
-0.460445415841012 
-0.7751456328326377 
0.1465013211651944 
0.4203027176595625 
-0.5140219887468898 
-0.1797444604797826 
0.2482730535688267 
0.4381152181353236 
-0.05515673554506956 
-0.09262876605875632 
-0.02526416825156953 
0.7577726559751153 
0.4455238134132443 
-0.2176067281655162 
0.7099551916350995 
-0.4461384062245778 
-0.1815176762566559 
0.43029059973583 
0.3961172097122955 
-0.2448685268943457 
-0.9148894550915635 
2.113637019912445 
0.03960227680300362 
-0.693545610342919 
0.7039282512615352 
0.8438298368766186 
-0.1628942574117687 
0.04523715213262296 
1.067242399514282 
-0.1133534291021523 
-0.04310012090037518 
0.656510928306415 
-0.4400170001372545 
-1.275183659970988 
0.09217415006526505 
-1.367756032392926 
0.1219509744643919 
0.04479383131273327 
0.02102867304256716 
-0.01085221500114683 
-0.1445051581123065 
-0.1076047943031584 
-0.5669752063747889 
0.5951649000256825 
0.5437429628523579 
-0.1470697096340674 
-1.279482302566853 
1.64604927022313 
0.097860470922451 
-0.9084979579808146 
0.5793425010829848 
0.04903314437755167 
-1.23092009335819 
-0.3104225595379479 
-0.09825889287331777 
0.6589629918143187 
-0.0001660447539151767 
0.2641568984559626 
0.3146927126973361 
1.300687654651272 
-1.520904406145431 
-0.1600937122424233 
0.2824913174952589 
1.563024153112042 
-0.1948827636211575 
-0.2186106297651825 
-0.08874781884496748 
0.1636908553312587 
-0.7604458583657335 
-0.0930945662224036 
-1.667162249621827 
-0.134945083304138 
1.280330049488145 
-1.138101375321844 
-0.06129815020671069 
0.5254163416794979 
0.2177844852656359 
-0.03434277766457564 
-0.4452754293567886 
-0.09431853103326772 
-0.2451784472528429 
-0.2110006738233742 
-0.9955945930897504 
-0.8033208355403042 
0.1084790932676981 
-0.05020659627465882 
0.4010375033697136 
1.973191118657699 
0.8120423787413282 
1.931256478919845 
-0.6405031035700552 
0.4191880624462485 
0.351652441380352 
0.0952407314455135 
0.4199435126783759 
-1.199114552442178 
0.3843903152433126 
0.4760312243450959 
-0.03935113635292969 
0.4314759544712713 
-0.01926964293271741 
2.252815302317705 
2.747092004854991 
-0.8735707330457001 
-0.19158153001887 
0.530559001905911 
-0.6167308076118025 
0.4647473689991943 
-0.07035992474775102 
1.233086231499203 
0.06109568184900895 
0.3509891243289707 
0.3144836054621248 
0.6081325341608165 
0.1137261523860127 
-0.2754584088491299 
0.07112925959658775 
0.2213794891910963 
-0.1770464634690196 
1.427655420128029 
-0.1226327325912727 
-0.5272153972477787 
-0.09639693766573694 
-0.03150762602201821 
0.05036503827887942 
-0.3428198383228612 
0.4953812866711617 
-0.08879974403543929 
-1.0548259569025 
-0.0300940937467204 
0.001461007321429627 
-0.4082123449631482 
-0.04526665138472359 
-0.3824871653304663 
0.465706718307484 
-0.3533480766173033 
0.3314408430194991 
0.8562277545527333 
1.064572637744572 
0.7256826928543824 
1.72366587873735 
-1.0748738875541 
-0.06309655157273734 
0.7511415547993072 
0.6671677944114718 
-0.008221868165715185 
-0.175226129107698 
0.5472062955082295 
0.1631899639535871 
0.5850698795610468 
1.477068432295889 
-0.1037857100495628 
0.384686355800317 
-0.6794522688196437 
0.1299784245385081 
-0.255777082605843 
-0.04379586090924897 
-0.5904475056597522 
-0.08049431350462825 
0.369267130711204 
0.7622039483980803 
0.1064104604398805 
-0.1354373772695011 
0.8700159307496456 
0.07493552276202435 
-0.3017307541245669 
-0.2185692180999236 
0.04106647731171297 
0.02573667288933168 
0.4594499238042538 
-0.2577062594258646 
1.472019710612676 
0.03365510357458244 
0.220824327964466 
-0.7350535946087683 
-0.4808749670877328 
0.01289059945022517 
0.007329432991163592 
0.5538915844077404 
-0.00841321027741631 
-0.3124861756316611 
-0.04570080968988793 
-0.1388520276279359 
0.6716515547908051 
0.05794339799220143 
-0.04369833382176095 
0.01055841270929322 
-1.334864056976031 
-0.02205636608044939 
0.4117399310463301 
0.1291988028338159 
0.3071880680480007 
-0.09522757044629128 
0.7126125102164597 
0.2240352471326588 
-0.5975140030568751 
-0.07609924633308308 
-0.477523885031725 
-0.3382405861662204 
-0.09865187516605856 
0.0149068408395987 
-0.4429508953121467 
1.511012930070109 
-0.5930062822769357 
0.5403668786540153 
-0.08832856603330316 
-0.03305282126161715 
-1.012014717689775 
0.3429354579451961 
-0.2807667488396011 
-0.1411679367290553 
0.2581992051630916 
0.1224783539131115 
0.04131994876443285 
0.286560598359365 
-0.04930806665289975 
0.5869562687513757 
-0.04667050430630373 
-0.06637237032007864 
1.212824902589399 
0.0900977484410514 
-0.3278370107201948 
0.3176260098971343 
0.919071261426976 
0.1809176743827394 
-0.6697324127197003 
0.7699202812630287 
-0.05185674523464508 
-0.1689193287969608 
0.1545405431266188 
-0.1683938394401442 
-0.04692887003020518 
0.2530539886158546 
-0.03486014560162159 
1.027436373999856 
0.1679921762154561 
-0.7110091616222612 
0.4115136070839714 
-0.1545506927060324 
0.6924443072849358 
-0.3958260683188614 
-0.350166205248177 
0.05311342318926904 
-0.05294271502355525 
-1.637709495594645 
0.1615137672040247 
-0.511177867017379 
0.6182014415425084 
0.2368650695821312 
-0.529392863013238 
-0.6709124297353772 
1.478916981083469 
0.2503470891270799 
-0.4625341275648245 
0.0714437425186428 
0.4667783602616047 
-0.237443585574563 
0.008517311488615243 
-0.6484728143905054 
-0.3395856668830713 
0.09210635154428347 
-0.3009428967174186 
-0.2821221822129896 
0.1881745392116351 
-0.115061325658518 
0.5354807162461189 
-0.3775933422432088 
-0.414971059933483 
-0.4332104962434389 
0.3115779492438508 
-0.139951835706855 
-0.1431466455739805 
0.1641094519762069 
-0.2061692677246974 
-0.853890629134847 
-0.04795557136985968 
0.3008422782668007 
-0.4053400425014731 
0.1343482864756529 
0.183890910134515 
0.8760282013959969 
-0.1452506740501011 
0.2718724082270874 
-0.06976946140061918 
0.6164640259777242 
-0.01790322488297275 
-0.7287101055776368 
-0.03325627577253894 
-0.08070047662865999 
1.036423129433033 
-0.1385542069791446 
0.005195702547633275 
0.210430488893057 
-0.04109391274946916 
0.02898780376237868 
0.6520549558053453 
0.1377011729178573 
1.903376987778133 
-0.5732239949052403 
0.4064462884791277 
0.270576782025549 
0.5815466841592595 
-0.04948537598312511 
-0.1922720003228156 
0.4314686860111656 
-0.264680322052221 
-0.1147951493714035 
-0.5063445187598731 
-0.09149329581772471 
-0.1505801821261368 
1.104171236326708 
-0.1034508013839144 
-0.1378630616728702 
0.1098536839705597 
0.8497440263149552 
-0.4195299874776348 
1.807461186285582 
-0.157659999537873 
0.8542071780279917 
-0.6677341525334354 
-0.4671768577680774 
-0.04399283143534621 
-0.05950415833355676 
0.530953749270046 
0.4697050331446412 
-0.3815460644206962 
-0.7353213369892674 
-0.4279686735946268 
1.557018130486558 
-0.2105841922893285 
-0.5421477032542706 
-0.1060671282895733 
0.561735417536418 
0.09699329058900757 
0.1743093794774961 
-0.8226091362199091 
0.05601101070193622 
-0.2061874798550367 
-0.3885579148170364 
-0.1272279766454626 
-0.8171345814863639 
-0.3474547442602167 
-2.688639768955934 
0.5276640049575614 
-0.4013767678727537 
0.2177475804082067 
1.353937005034623 
-1.134617275535018 
-0.3393203667276965 
1.00195494034261 
0.2019227250989616 
0.2679127553028193 
-0.3608745396562687 
-0.03080400519145431 
-0.5267519058522605 
-2.349075155187177 
1.869447551753247 
0.1369561189556437 
-0.04617457205311797 
2.458055453172333 
-0.1668902456167699 
1.457775995624692 
0.8840368870755869 
2.230759624390473 
0.009043510799718532 
-0.02161703870872802 
0.9491942865466272 
0.9548789880989101 
-0.8633104415002615 
0.03918182600336096 
0.03355931323450891 
1.740870281190314 
-0.02758248066262253 
0.4844436164375445 
0.2215849442885356 
0.1420719660582469 
0.8362394753881202 
0.7087331106292938 
-0.7797144974351563 
0.2297374504969542 
-0.1626417377153647 
-0.007751745140781248 
-0.124410575575243 
-0.3795929753149269 
0.2028758399182372 
0.16857256510793 
-0.07393400936382272 
0.01455251771116023 
0.2959561182647183 
1.003206876082701 
-0.315270284708525 
0.126698510282106 
0.110530551579386 
-0.297329172100594 
0.1769060430519847 
0.197570002416033 
0.1586256332649708 
-0.02941080047866457 
0.1288907441168103 
-2.269191553804115 
0.4497254262735846 
0.7284500360280655 
-1.103556937288636 
0.8719450503552495 
0.07194323297760596 
0.521387227531948 
-0.1131639444394337 
-0.2132564037193946 
-0.6660787709785272 
0.680528792268529 
0.3540434671116991 
0.1290741215476554 
-0.1355949591050174 
-2.021078971123551 
-0.2701805675813037 
0.05738896887241967 
-0.2639077642048283 
-0.2380296084051435 
-0.04724795013150479 
0.06513293837144891 
-0.05574698779787717 
0.8479246948517737 
0.09348276999922288 
-1.106664904024312 
-0.2259320788823929 
2.722682514788088 
0.7463381745874665 
0.6570419668241215 
-0.5760816745108622 
-0.3304924042787939 
-0.4167900914199636 
0.9909566222646995 
0.376084133032895 
0.2701455439318856 
0.490834154359169 
0.4318100608146965 
1.544510609387415 
-0.08109217326303517 
1.113497001143732 
-0.06697644766053942 
0.2069078920469183 
0.9550344699066479 
0.13014552340534 
-0.1251739453805409 
-0.2891385110784205 
-0.04680924322684129 
0.04899343396833612 
0.2317594516564621 
0.03527773455960868 
0.5788801957873575 
-0.05066612259965007 
-0.2451998304910968 
-0.2768621517676773 
-0.3317495812424586 
-0.1577546706696514 
-0.02606289068059654 
0.07607121245408545 
-0.2606102597149514 
0.1794706176902823 
-0.6407465915936766 
-0.06772003642614556 
-0.3336946840882278 
-0.2173530161814328 
0.08182575456281803 
0.5261266561044542 
2.099364076065035 
0.4101671178209208 
1.363375278888195 
1.388140042487671 
-0.1069205798917541 
0.886904991537463 
-0.3730910719326162 
0.009075319895582528 
1.927633899694258 
0.2228597838441162 
-0.002145844129251663 
-0.3044022574057007 
0.2817427191964222 
-0.6429214944811806 
-0.211235503693968 
0.3555872064506638 
-0.2373378805922619 
-0.2421637897647239 
-0.2452669255800247 
0.4053713613741857 
-0.1856107126289082 
0.1167007777450731 
-1.237603782342426 
0.1696214578725083 
-0.05299553852533401 
-0.6391142760385332 
-0.717952505548014 
0.1530874471373978 
0.241330756548987 
0.09559970943816665 
0.960753541556487 
-0.5839984902808446 
-0.06501487145171923 
0.2379482693020117 
0.2170691940399831 
1.12283960788838 
0.6923200145731967 
0.008933049424580827 
-0.06816432177530689 
1.985114062113975 
0.01074677726354349 
-0.35675756118882 
0.2088347750378675 
0.5864112335844467 
-1.875083646109589 
0.3709006675248543 
-1.062650169494499 
0.6714427958941211 
0.115546570645662 
0.695670027585086 
-0.06315920754071479 
-0.2289163928088295 
1.345132854757612 
1.359818111957912 
0.01364738733422047 
0.1592517643201531 
1.030785725370887 
-0.1002056822599559 
-0.05937789085215952 
0.02262643159772458 
0.4283178382498802 
0.06943181054382719 
0.03031157549198109 
0.5067775710388802 
-0.02757980515586289 
-0.2745848653183587 
0.01040886341389656 
0.8450237662921236 
0.379843519327282 
-0.05180497705842229 
0.06431410435132874 
0.6610098445158258 
-0.1928184759651766 
-0.1673134841310051 
-0.2376968443115787 
-0.07807328965182855 
0.1339823508579211 
0.1042988981182749 
-0.4535015771688755 
0.451977163636275 
0.2093560486184213 
0.01265990343777916 
0.07381982070135608 
-0.08576307712246839 
0.0612049816502991 
-1.156125732668133 
-0.2268424126290903 
-0.2652164214071406 
0.3431291327825935 
0.7303891621126044 
0.8713986026808169 
-0.03729872690845879 
-0.1748147264430149 
0.1935823914107919 
-0.09788976252639017 
0.434296453067882 
-0.9974661967011201 
-0.3454245972059591 
-0.1276387107751859 
2.6057524097344 
-0.1768738661778433 
-0.1770264110691581 
0.2854443028575936 
-0.1688999114088608 
-0.5935733275178927 
-1.595130479650553 
-0.1684177446392116 
0.4617452855381269 
-0.03076412648074335 
-0.09174157468605799 
-0.06589482149966329 
0.8081782699890612 
-0.1500824437083293 
-0.5182203519769436 
-0.1028152571671268 
0.2473481078227448 
-0.03542870717277565 
0.492496408354616 
0.007988060566748962 
0.04211220481137148 
-0.4882951528394596 
-0.2985515353732449 
-0.1451961941420678 
-0.4980876606696375 
-0.7332731337745911 
-0.1715558868025321 
-0.01936085132397909 
-0.1482208478513448 
0.6623823527588363 
-0.1338050379186761 
-0.07037998485306016 
-0.08724576796794815 
-0.04543319576054795 
-0.006236821907621265 
-0.5153046542295298 
0.2114971939940877 
-0.06778292460361608 
0.2541022807313256 
-0.1729062352716514 
-0.03335169253381548 
-0.01004260372928718 
-0.001478948293617882 
0.5637529086323667 
0.09332921473836038 
0.01635340828868922 
1.265188862538948 
-0.2184702711088352 
-0.1928688325207942 
-0.03891714589902132 
0.09511408842019796 
-0.1184907427591614 
-0.059115574359314 
0.3678906027160936 
-0.02861587384118552 
-0.4753757689565655 
0.147250762951636 
-0.4181163993378073 
-0.1164814505149312 
-0.1638539761804634 
0.06233763238408942 
-0.8842657236107311 
0.1563415354820001 
0.5504018400529432 
0.6585021032072405 
0.6531803759727026 
0.1131681362495206 
0.3629111074414102 
1.291490425104871 
-0.3332300409130811 
-0.2304704485577125 
0.942659250501229 
-1.163343439122975 
0.5290317706366773 
-0.2897267563182811 
0.1143762481516101 
0.240975355516123 
1.698825678439273 
-0.05243478451520453 
0.4261079592644907 
0.1835293365592178 
0.2495615409125393 
-0.7683569333355543 
-0.110705764451991 
0.1654257233675871 
0.1054368204765273 
0.515679397572711 
0.02436225990713944 
1.40801604657904 
-0.0201344785141583 
0.358453310622386 
-0.5680485508756696 
-0.5498961927816993 
-0.1535966327645118 
-0.5322646502538406 
-0.4571268757749255 
0.007675411701787376 
0.1221556919152135 
-0.5034044288097423 
0.1484983746317509 
1.384899696507943 
0.0690633179060606 
0.3075867668864712 
-0.24422799982987 
1.191783918917661 
-0.1585478236102185 
0.2965783398371056 
0.1764479506773892 
0.7630710765106428 
-0.7981025239149461 
0.06777117914667398 
0.4187985800988767 
-0.09972717269472318 
0.06798766514958851 
0.06226384948520956 
0.163976524337542 
0.738399800097494 
0.7127027045237521 
0.1006608927933253 
0.01069396129515273 
-0.7772607915620936 
0.08642273417066279 
0.5378980282495224 
-0.6631734472940554 
-1.16003802290219 
-0.720185566208104 
1.892996531690803 
-0.02294363655954853 
-0.4442494872364262 
-0.1174390083972693 
0.1360665506262376 
0.5860557385166557 
-0.2330086067520255 
-0.003229712872176326 
0.317475081698275 
0.1638971956760182 
-0.1896628199769077 
1.903303863532806 
0.7295397561743656 
-1.333107853964025 
-0.6077215156856145 
-0.1005992140110294 
0.904432920191753 
-0.5080735102669763 
0.6474226947903741 
-0.4482584156864598 
0.4317034589108752 
0.8415416300713937 
-0.933216712190752 
-0.09498697328628641 
-0.1222575784964816 
0.2410148741379678 
-0.1300375066167901 
-0.037829120240227 
-0.1727775965028233 
1.202977465033561 
0.8477120911074306 
-0.4967403683063298 
-0.918435617584742 
-0.3040636567249764 
1.667756336816837 
0.2450948677792345 
0.1174858504002989 
0.08268574819270125 
0.3152963060617138 
0.005544302319121384 
-0.01925590098182867 
-0.900544733743094 
-0.1583535625568438 
-0.7521029662077092 
0.05853705197020175 
-0.2969021325360172 
-0.06737775390111761 
-0.1138600706035542 
-0.1430244718472804 
-0.355247938129597 
-1.109179506376008 
0.03790877031715751 
0.5656815720018684 
0.03468871304701729 
0.2622105977380716 
-1.69999601032627 
0.02923482501935926 
-0.02537960624804604 
0.5190183090851797 
-0.2946267276504781 
-0.1456652867141161 
-0.6329206470663553 
1.235163799700326 
-0.3719915348680824 
-0.1331641149599906 
0.2668779491851592 
0.0758816738084811 
0.7085017238689197 
-0.03478077493986086 
-0.03783220306717389 
1.954390633083716 
0.3287272146103128 
0.634443594337161 
0.05975876426946677 
-0.02578471515308341 
0.06498732026885098 
0.6270603249369968 
-0.7062494892194853 
0.3440747254111058 
0.009417784813147517 
0.353037743920744 
0.01705233991135074 
0.3644388820096029 
0.02595734519752639 
-0.06952227727431982 
-0.05245736527729535 
0.7403213652943843 
0.4480708308709921 
-0.3410782874011837 
-0.05903249896239224 
-0.8090394118924369 
0.005894807268783314 
0.3011632141512153 
1.106867257900207 
-0.1547730667563333 
-0.0207091758536197 
-0.5626373507567777 
0.2745848741805331 
1.29053314959058 
0.02383733514483899 
0.06215987065788441 
0.7411287169552795 
-0.02700577168803012 
0.4621310226176861 
0.235992891902409 
1.154743138158574 
-0.08418214143898388 
1.469852207279868 
-0.7352503608949862 
0.8768401922472562 
0.5056303307010453 
0.1048987102805685 
-0.2257605684663243 
-1.036833887613499 
0.3897413892722594 
-0.03493623333213163 
-1.103591518678979 
0.1908863900377409 
0.8214026261111809 
0.3208671656316791 
-0.1290035161462127 
-1.844452585220081 
0.2954665663584577 
0.08242873967526405 
0.7518982990010502 
-0.02656532901180063 
-0.5720383515027242 
2.855744398417447 
-0.3616737693565799 
0.7103330176125598 
-0.05452241586682768 
-0.2177360436515276 
-0.08024450571829744 
-1.284273720928985 
0.1963185110401422 
-0.3635027588256237 
0.5439577697133968 
0.2246782925860039 
0.3603280711081288 
0.68826949447071 
0.01084501735778099 
-0.3465692866149609 
1.152166427008721 
-0.3620290233502091 
-0.2698504873051187 
-0.5447775305879226 
0.02740377856386837 
-0.05165241767851254 
-0.4736311576200499 
0.5769251751841985 
-0.109654931622181 
0.07027326119251709 
0.02799859106134555 
0.7247142065150054 
-0.3880327318908597 
-1.54784794801041 
0.1052671072565381 
-0.5896709484527448 
-0.612930395618286 
0.3007404411976738 
-0.09797919503352857 
1.060423983371927 
-0.09998359122574897 
-0.6870929670115055 
-0.4885377217118966 
-0.4663419160454487 
-0.03908843757775799 
0.2404121628116863 
-0.134897771836928 
0.003911981697924141 
-0.1032030043235547 
0.02668773152334242 
0.3095657756279076 
-0.1234798669750294 
1.120177470942403 
-0.03691116631309362 
0.398257400265908 
0.143609770479342 
-0.1397379036190262 
-0.6318733917051941 
-0.01068530021363154 
-0.9984394523539017 
0.1040198391226984 
0.3069927513723016 
0.01862334184443023 
-0.8234908503548595 
-0.3031262389375846 
0.259110375147406 
0.07092364035441519 
0.2323887007124325 
0.2015334129469255 
0.7669759181800925 
0.000446408315048342 
0.4993914577205398 
1.332956092906225 
1.18902109821944 
0.573620195328264 
-0.9848464648620706 
0.5162945980635888 
1.056561843578101 
2.104306169973085 
0.6710611625020033 
0.7842298415024622 
-0.05727681717245166 
0.2235089094498483 
-0.1014562289173983 
0.2879494330549598 
0.6096722531478883 
0.02302246499871194 
-0.3844853968702492 
-0.2182982620701713 
0.7337873751837997 
0.3804482758028022 
-0.4810238918042514 
-0.4279581897422561 
-0.05337928141555695 
-0.2866889488921408 
0.3461303740525298 
-0.2910154587766285 
-0.7764986061639301 
-0.9622866881518527 
-1.176087530660101 
0.2203622106853925 
-0.123591469588871 
0.3463261626765379 
0.3439439278537755 
0.1183729626327922 
-0.1735423940091792 
1.117110144821108 
-0.9234743336986768 
0.2344694546310185 
0.4939958010148902 
0.05795547380689561 
0.1820004481475714 
-0.01734077012588288 
-0.5672846531028417 
-1.429018144481133 
-0.4904427297330441 
0.07375296275601378 
-0.01993203917974762 
0.9207224461878568 
0.7514513922938895 
0.1341329813562943 
0.2193118257934067 
0.1952051986593357 
-0.03108843888594181 
2.000067413175115 
-0.01123587054172823 
0.6262665400257746 
1.905959402972785 
-1.40335605552548 
-0.7875117624251683 
-0.01476424512532906 
-0.2786581600169328 
0.439840357366575 
0.3912429428125236 
0.4832452801962857 
-0.7497588213753876 
-0.02287075257014462 
-0.03657191406260768 
0.132483218989244 
0.2081171405601752 
0.02925224207446693 
0.05160298417643649 
0.2582583731668904 
1.358580487131136 
0.5777374966629385 
-0.2125238694661141 
0.1181534824097881 
0.1703484166330949 
0.6430946704784625 
0.017776786280897 
-0.5683220634629622 
-0.880126195718811 
0.0854662523784049 
-0.6641697128997949 
0.6434070186574368 
0.2106293807708494 
0.4150179804258476 
-0.3059303570135912 
0.03995045386812417 
-0.1988793976159353 
0.3249964376156755 
0.9598469175557884 
0.1242230550490625 
-0.1119513893578393 
-0.08987592485925362 
0.2114998184924166 
0.2676650299906428 
0.2026020278238918 
0.1569386638530119 
-0.4859244519134979 
-0.1926628955353751 
-0.1638073600226299 
-0.1844981831818292 
0.2003410190970902 
2.063603414536952 
-0.1513456323560339 
0.1096303813212671 
-1.944783400137905 
-0.06482673146830728 
0.02644417893913903 
-1.243243483953516 
-0.1550597481539292 
0.002100986478569322 
-0.04994732967235722 
-0.1496939624725274 
0.05272100025849486 
-0.2010562925160774 
0.0008784987238104011 
-0.07864982395156855 
0.3120208569732003 
-0.3319304163354817 
-0.2446575425297598 
1.554062635416967 
0.795316399032441 
-0.7791686006960634 
0.1622277549573421 
0.1570998410510875 
-1.601914625345436 
-0.8431968739208154 
0.1831433078346423 
0.3782472973164712 
-0.009509433870644565 
-0.2193254558101168 
0.1032703508403537 
-0.1123208358106384 
-0.3808052261152035 
0.9398177889628658 
-0.09926287798865455 
0.6663181790484067 
-0.2289706341519394 
0.3033592337157324 
0.1349450964416906 
0.2565390322778524 
0.01091434539082431 
-0.06249321148249838 
0.5957547880852532 
-0.2237404805338535 
0.1850728239770419 
-0.4751752369289041 
-0.3504918674645912 
-0.7691630571861288 
0.241481785421388 
-0.1594489846464129 
-0.1465303860395072 
-0.09599599941804483 
0.1496374287310734 
-0.01626718693626406 
0.1914605764897108 
0.1946386531846654 
-0.1533702092603972 
-0.2971783923377947 
0.2798707743346922 
-1.233661369628973 
-0.01839609628044509 
-0.6424141101908647 
-0.2183635898558793 
-0.0597152118196841 
0.1390425341949189 
0.08879807803393849 
-0.1923044741391867 
-0.4099901674148741 
-0.2085317586197879 
-0.04749693333729158 
-0.7887103350436149 
0.2321883763341207 
0.6411917156949738 
-0.02558361569852318 
0.07723459461488577 
0.3462422803768954 
-0.1269705421799047 
-0.04672809989608927 
-1.084733191892061 
0.3970360823587269 
-0.1369207337950151 
0.6081911886051004 
-0.04344450797215885 
-0.03883748705574277 
0.1065554752322154 
-1.671233538988558 
0.1370747011110706 
0.2081850041558465 
-0.1726144557571917 
-0.7115399722415684 
1.15723133285029 
-0.1015004420529255 
0.3100874011052988 
-0.1866404679716769 
0.20815942504962 
-0.4771807568612965 
0.09206005107666231 
0.1432573639160534 
-0.3831566063034302 
0.06199952694225149 
0.09574182301979679 
0.1566125204758076 
0.4402818548470982 
0.00465270302978634 
0.3665633707022206 
1.204048007886814 
0.2636320738808911 
-0.1324986473522043 
0.4740286391707411 
0.3197396522846054 
-0.3060260696634592 
-0.5561943369337823 
-0.4659778318561144 
0.2098504984726769 
-0.6115812998925539 
0.03116858759829891 
-0.2317544725084631 
-0.2536334711971795 
1.437808010796656 
-0.3215563064365431 
-0.0004218741135354907 
-0.03683114651887395 
0.3554317549677308 
0.003351426862996793 
0.6229429170044867 
1.26856054340105 
-0.1382237034477247 
0.0407167217905233 
0.02392742429711076 
0.1157465339849794 
-0.4515430609644094 
-0.1398637775116849 
0.7365748898154428 
0.8225750637307183 
0.5537750449422388 
-0.04052350399759089 
0.7364312836216461 
-0.304315152740938 
0.08374910546352217 
0.5794412179501908 
0.7182934294542339 
0.5190066507854054 
0.2324201115810912 
-0.2032173675912337 
0.113939997482863 
0.4432867889281338 
0.1308808780901519 
-1.945466878113651 
0.04174165257295069 
-0.04698666645411161 
0.2933068923108638 
-0.05148377744433268 
1.30552231770604 
0.2143212252469122 
0.3785644758916477 
-0.353800431900749 
0.8513755718263694 
-0.2968658234034557 
-0.6083140877859003 
-0.1166976220716432 
-0.2455935691578202 
-0.1668557402421992 
0.4238033098360278 
-0.1128838105853289 
0.04823016972046915 
-0.9654521838609921 
0.8804407827336488 
-0.03911494789543338 
0.1139526530336529 
0.06920912802289378 
-0.4604487976100893 
-0.5179485441088713 
-0.07202256074112875 
-0.1313585892409951 
-0.3731852963922981 
0.5610356599476055 
-0.6749552860418677 
-0.04467771078730016 
-0.07201733611359944 
1.330618442054852 
0.1531340002193127 
-0.4036192775813413 
0.5533403069257836 
0.1991036017468791 
0.5338389553577899 
-0.5454750917766151 
-0.4458715475765017 
-0.005684576782415968 
0.08810317326703837 
-0.7642815592863322 
-0.5998100527685475 
-0.1281720822682973 
-0.7061374214775373 
0.671657949467554 
0.1155008443978978 
0.2528674104247941 
0.7234810398341239 
0.7636304829389307 
0.01701508946940242 
-0.2744767624045351 
-0.1301514627565044 
-0.6257798398065937 
-0.0487223080518202 
-0.03559323313052086 
0.4775875976274956 
1.496717021771319 
0.05131459076919402 
-0.2080693202181081 
-0.02777340549129045 
-0.3102483650318664 
-0.1551031450898109 
0.3511106043524926 
0.06724803635649902 
0.1180037227320221 
-0.1759695614122927 
0.2499164403085536 
-1.217149908707211 
1.25807087811957 
-0.01177607907794453 
-0.06095877734996216 
0.1743824968103383 
0.003857783718163591 
-0.680106571987266 
-0.5279764848045426 
0.2121124435906302 
0.4548929443843482 
0.04134072758373866 
-0.03793288659940689 
-0.01370995359324971 
0.2895858038241095 
-0.3805176843007215 
-0.01322391715115548 
0.1304701147545454 
-0.1776749670083493 
-0.1918648765030919 
0.1195183382820064 
0.05960020824271706 
0.003489358201256098 
0.09602624257717383 
0.2684592430076331 
-0.03880764256120151 
0.009094844664258516 
0.009541083888835813 
-0.009537706583741357 
-0.1732416472648818 
-0.1201116020870687 
0.431566897350651 
1.149636523111974 
1.239911292628622 
-0.5137104245566301 
0.2370311276492878 
-2.25899545134709 
0.3925441604454291 
-0.160139151179696 
0.02388838073161049 
-0.004855286459316741 
-0.06340078778749537 
-0.03656929009921255 
0.08268977132336892 
-0.05219864693796836 
0.9611209419511521 
0.3652309021089451 
-0.03841205436375685 
0.5268909846352523 
-0.1865726633721979 
0.03017681969566318 
0.3938618250445206 
-0.05297534104186463 
0.5413191314925986 
-0.08930593597543596 
-0.01662010928816145 
1.068840231840593 
0.2410858444862164 
0.1810396849276242 
0.05361886793276231 
0.09856272512791564 
2.630091263345586 
0.330183113992245 
-0.07589916399737999 
0.4384397208223333 
0.2201886914890829 
-0.03054741271615414 
-0.2650593713242209 
-0.6980730263345324 
-0.002343286007447358 
1.123549390730761 
-0.07179719221964163 
0.5366475369710048 
0.1421395394874322 
0.1407279045195412 
0.04411726501783535 
0.4529460515207359 
-0.340535194613591 
-0.7946833217835358 
0.2845354043612601 
-0.4344766845174914 
0.000706620593183692 
0.07422025806596363 
0.5549383092738067 
-0.1121313300937031 
0.7778001965068152 
1.849587588780987 
-0.3460972435595988 
-0.6206586642389957 
0.1689329042007695 
0.04766496071731034 
-0.3590408003629277 
-0.1087571093859075 
-0.02006885008979395 
-0.8226547324974253 
0.6055176780681374 
-0.07647869283798427 
-0.08023555941670375 
-0.3158110648484365 
0.17540422530568 
0.1150273391997116 
-0.2319853185139007 
0.0280620152775652 
-0.3611608513981402 
0.737531183269972 
0.9995864558981559 
-1.070882755547504 
0.1720428585469825 
-1.354701665353113 
0.1851394327236786 
0.115337123908992 
-0.06104118156473634 
-0.06089214400216913 
0.09343001430076321 
0.6320668847903099 
0.1060715471409119 
0.008222654076623889 
0.02482233691966697 
-0.4775925468334575 
0.328862396254401 
0.296368838423592 
-0.02223711759633499 
-0.2004135827707031 
-0.6465221568596492 
-0.2511889857830212 
-0.6517206922523261 
-0.06097016263800444 
0.9564080000231724 
0.1360082823004939 
-0.2015536164497103 
-0.8193138015228042 
0.1624961815413274 
1.393610033701454 
-0.9065644165715363 
-0.5651700689200996 
0.3289081460937132 
0.1027160918675384 
0.1389602039891145 
-0.2424287165751122 
-0.7543530878932789 
0.698618850106425 
-0.3700869933090247 
0.2087125582785392 
-0.03687668873221259 
-0.552099080278732 
-0.6533292952801465 
0.5245903901497863 
-0.1999052529192104 
0.7114915442261672 
0.2246726563661723 
0.1994120895755987 
0.0001642747998520387 
-0.04585992926655819 
0.3052185721775 
1.081695726292758 
0.1368672111197542 
0.2464311681221463 
0.5081250045511446 
-0.005215939358850271 
-0.03236667533338405 
-0.01219080863096934 
-0.007316045368622724 
0.005731801815442035 
0.114801082454953 
0.1761272245324733 
-0.20717680968875 
-0.5395102250919417 
-0.6098404767173999 
-0.3573787461480691 
-0.06009925943086766 
-0.4730754531601454 
-0.6847255182917 
-0.1916943346337028 
0.009319053330636611 
0.1472536577926725 
-0.09915094547134558 
-0.3364492216855294 
-0.5855695108894523 
1.156565838882925 
-0.03293505101410784 
0.3065995168220932 
-0.0008762088731866059 
0.0463382560197041 
0.001163865598776375 
-1.014304724440882 
-0.7834045071656172 
0.163548168945902 
0.6485865202407665 
-0.02927150664704968 
-0.008243560693014287 
0.5050922100487271 
-0.2584348097332769 
0.007921966312016105 
1.639274851981329 
0.1657281683577833 
-0.02689990164635918 
0.01232595515945028 
-0.4996401148866131 
0.05478542737002316 
0.3160891900723279 
-1.948355208032394 
-0.03334041320763366 
-0.717274109938246 
0.5054499265236452 
0.007186596782396356 
0.566903170161302 
1.413469351161736 
0.03625069626598943 
0.5007158860219962 
1.210785266109583 
-0.07437603837572168 
0.1094448457721317 
-0.05250119054681167 
0.2055476674016754 
0.1294081026341068 
-0.04723030974174176 
1.372486838552157 
0.3922176874542348 
-0.3721522253210107 
-0.008017686759070611 
1.061513853506279 
0.3396122243938081 
-0.005433157638742955 
0.04674573308231381 
0.4259408683864801 
-2.458722107349284 
0.04468190220873112 
0.1560330456888756 
-1.017532656734425 
-0.286515578078234 
0.008331320257877556 
-0.2462423535274862 
0.799040863422895 
0.6958075571258203 
0.5254919495646385 
0.7058000373748921 
0.5358318003552918 
-0.4499310964772935 
0.4973026034383231 
0.1623407449521495 
0.2489391044805077 
0.7239113412948538 
0.1790428737677511 
0.2765080813284277 
0.5944908540409793 
1.576669344785578 
0.2496894879825313 
-0.05209457224112125 
0.03453323653356426 
-0.215039465286146 
0.1528816542985402 
-0.01430180103319935 
-0.4326215588509895 
0.7314302831819126 
-0.5751792590442335 
0.257595199069631 
-0.5590073951341699 
-0.2233851654428654 
-0.3286756983450801 
-0.2086448006309559 
0.09203771869786452 
-0.2896528382154256 
-0.07496492774472291 
0.04504143862916543 
0.592976967404263 
0.7628119573341794 
0.002386312768139796 
0.04066752386373376 
0.3529468778857257 
0.4606903073669131 
-0.06715916650840531 
-0.1583053301025371 
0.9656772980254594 
-0.3190752139919944 
0.2614952699131973 
0.01840521229873357 
0.1126201541150658 
-0.03881207189212389 
0.168980597576765 
-0.004725650528834497 
0.377959411265277 
0.3757272814575705 
0.2613095896649196 
0.03758093183523716 
-0.0545808704937309 
0.3971550730568784 
0.118683550450846 
-0.2695787491477648 
0.3365615497024228 
0.2134491351116483 
-0.1114287307439194 
0.3489125818011188 
0.2813597766822589 
-0.06962344133500054 
0.3015952317003944 
0.004244199181536933 
1.13012613028159 
0.6069695228356475 
-0.09336883086649937 
-0.003014834998585516 
-0.4930942398263915 
0.7285826652943288 
-0.05497106731182057 
0.4815908527605642 
0.1937908455012498 
0.5537879619420215 
0.1258719125787728 
0.08549737736318096 
-0.048965320015536 
-0.1006531779242592 
0.7280331367726881 
0.04278968504552742 
0.7233913550225137 
-0.6681576248721742 
-0.1605894863846085 
-0.06535116597698058 
-0.06529642336971744 
0.06187092248004133 
-0.2049940004881521 
0.1395125811394144 
0.2623446103863574 
-0.04246406617952871 
1.155405099742836 
0.001175044233341207 
0.4539596251537568 
-0.5326836154919993 
0.07104306869515419 
-1.866329271418727 
-0.05305469789222368 
-0.1878664417662464 
-0.04049058234804906 
0.2748837698879856 
0.006575398112417739 
0.02082012699647975 
-0.00225023312796519 
-0.3763500170858737 
0.1013089571185877 
-0.3737122937813572 
-0.01370295451804026 
0.8348538604730439 
1.758918542728836 
0.1072948025859702 
-0.5805980759400617 
-0.01520326719562984 
-0.3330555728889485 
-0.2340973928831193 
-0.1618015226039702 
0.001066844800401156 
0.178068934135916 
-0.1582601707422369 
-0.4258691902186762 
-0.006808820744354412 
-0.08886598609114529 
-0.55654877184566 
0.2042741671964557 
0.9101726657436652 
-0.1118413009410005 
0.4584861761948503 
1.06575425406214 
-0.01937157865584222 
0.1835270849239878 
0.009258125480350123 
-0.5802657902194371 
-0.623038791326801 
0.5381768726953678 
0.03400707545684397 
2.208820283289467 
-0.2951208310196548 
-0.3757592654342478 
-0.06566905726542474 
-0.1286163715183347 
-0.08416676598887833 
-0.006273832373344327 
0.002565641736590982 
0.1532201016085623 
-0.2045166210604328 
-0.5888137242466205 
0.1277188578706118 
1.08623406254289 
-0.07191282686975961 
0.02071109240023643 
-0.3160807564223035 
-0.2790814727303525 
0.1580419808462505 
0.0848244189387523 
0.09420031040552436 
0.02212611990972943 
0.004519589283536106 
0.0552962071594203 
0.6286286169263738 
0.412102074743767 
-0.007730282339616974 
-0.4346697917991237 
-1.004752099264784 
0.9537448259227266 
0.08712119339050385 
-0.7479326106531207 
-0.8098136128287199 
-0.1290128429203061 
0.537391361338828 
0.5731939016194004 
-0.02715731213053734 
0.1183556271284701 
-0.1196190061878219 
0.3866398764650925 
-1.123925232790129 
0.5201737444215619 
-0.6433414374934627 
-0.5403948547221357 
0.5753190795309111 
-0.1137844337201356 
-0.02796263970767952 
0.1409771555425657 
0.5398300624972058 
-0.5117299968880743 
0.605124457087245 
-0.4283825143201778 
0.1100088925326364 
-0.3235766042587511 
-0.07017311863598392 
-0.0364857508178854 
0.0408495374202104 
-0.4520887499885274 
-0.01318900805812538 
-0.04409865213047792 
-0.561106142487704 
-0.03549011229971995 
-0.1660366278240031 
0.06773381920819951 
0.299996574996265 
0.7629862371583849 
-0.07030487352851407 
0.1811273898374152 
-0.1807992741809911 
0.6381894536933638 
0.005863673295451188 
0.1273139180817432 
-0.5955068075205775 
0.2675187968663259 
-0.5149595567023346 
0.1090722573853745 
-0.4218265937361938 
-0.0971034038313319 
-0.1257076818603337 
0.06709163244542631 
0.09973249836344815 
-0.4327883094414622 
0.02408360931918144 
-0.08838544502930766 
0.1145655735204012 
0.6248459207474149 
1.010559384803121 
-0.03603069947662971 
0.9758974557415762 
-0.6317297059205552 
0.06376807072949635 
-0.1136942074708554 
0.2749879282450893 
-0.1686738466833266 
-1.065814232351503 
0.003862653908553907 
0.2434039694475053 
0.6090079953665485 
0.2992258621178194 
0.4082917863295825 
-0.5569744886420789 
0.2204988999175978 
-0.3372578568041619 
0.7222913356713022 
-0.6362666839651422 
0.1448168216933763 
0.7516215426532458 
-0.7360681139437746 
-0.05551097470578698 
0.1018450442700335 
0.3820986978751207 
-0.7405693175422819 
0.1010098842699547 
-0.08322410402531882 
0.002726857800201716 
-0.2287363544326207 
0.07653040130811643 
-0.372634138418079 
0.481311503704264 
-0.140889382805832 
-0.6471619502088877 
0.1177831163171337 
-0.09815440610466178 
-1.244673718126233 
0.3158366513898897 
0.08746097601288678 
0.9101391391491337 
1.05463005668404 
-0.1004989438720454 
-0.06299408346995777 
-0.1023995126069823 
0.8660282185704127 
-0.3567608259443687 
-0.2660938920781062 
-0.5497322303757592 
0.1512837389605949 
0.427033325699811 
0.2026409903401995 
-0.02978082682136864 
-0.007098934204334484 
0.08268527929074786 
0.5243097100981889 
-0.8847586524370806 
-0.4520286290008845 
-0.03531458667641044 
0.0494692028334707 
-0.04480968032896701 
-0.4880442321224974 
0.3372559375568795 
0.1769786489775681 
1.284445839849031 
0.1645313240598689 
-0.06884315689904591 
-0.69610823200658 
-0.2122716358326611 
-0.09329885546618991 
-0.248632989776093 
0.1536531625261462 
0.1072704535684015 
0.1353689871375722 
-0.4841111227016425 
0.08097482494877495 
-0.4769536173966384 
0.09813015531270543 
-0.5121658412391022 
-0.4788999885037381 
0.9153435362603977 
-0.04935607159679169 
0.197983137295344 
1.102176265402316 
-0.1366803963650538 
0.9145179306400808 
-1.212243518064542 
-0.5091669840430876 
-0.6655768707722378 
0.5919651830660564 
-0.1455917365530652 
-0.1650593274744764 
0.6844431970852525 
0.1387848471825555 
-0.7555045465249476 
0.2336209363867732 
-0.1992339259697518 
0.007251289629947146 
0.07862115821385063 
0.1712799575847943 
-0.3346677352823823 
0.4142300004402238 
-0.6933114668174445 
0.5141817673379233 
-0.07139156731644079 
0.03988023036282896 
0.1468514548908164 
0.109283733121764 
0.07694727033935679 
0.01677571472266396 
1.477239923147101 
0.08006278928443397 
-0.02964705784939778 
-0.4713831284942226 
-1.031261966438978 
0.7019131934258406 
-0.1256523910134129 
0.02242573718175367 
-0.4909544489372777 
-0.1740547890603534 
-0.1536789815583267 
0.1929164018354546 
-0.4009744590727657 
-0.02730358448244363 
-0.006679366071564107 
0.3873892215338488 
0.2903020663807899 
-0.2444692408650244 
0.3007463416137184 
0.2980669068987009 
-0.1181397097135485 
0.006315144132634823 
0.01762970517192444 
-0.1191338414011215 
-0.05934952935279178 
-0.7296164860034478 
-0.09264852537447527 
-0.1962592152050665 
-0.1350106032490897 
1.504236728897542 
0.1291711782743255 
0.8008332906754625 
-0.4288885218011114 
0.04881292645292841 
-1.905850227639495 
-0.01869953071048073 
-0.3509139957228627 
0.0461895928776184 
0.1009060890290961 
-0.07989837655922347 
0.1094539780311399 
-0.6098230800370409 
-0.02842325378148222 
-0.04385290389986518 
0.002649525203119919 
0.02041060646577183 
0.06198285399236918 
0.1378974245237175 
0.1727800190245815 
-0.01813224649170215 
0.001630294951595435 
0.09114968513449852 
-0.3138607161121613 
0.01781979434473906 
-1.224522876118123 
0.1529661094017633 
-0.03145504114785441 
0.2736927607330994 
1.6642100791528 
0.3954655398394308 
-0.6740637400551084 
0.054846171315385 
1.16898449493367 
0.05696528685915556 
-0.1043455847546069 
-0.5501880530626271 
0.01501152049225946 
-0.05055990793489416 
0.07433637505986034 
1.069238970702003 
-0.02346109800598597 
-0.1384828522004362 
0.1516867301193484 
0.02261052411152551 
0.3850925549817587 
0.1611407605022337 
0.108769262135768 
-0.003819776856341254 
0.130652034441589 
0.2015749379716159 
0.1857543839000869 
0.2339536680124887 
-0.09351698401164589 
-0.1702277582526471 
-0.04477005330207913 
-0.1300622807726063 
-0.01858494382303834 
0.2680442360300126 
-0.05543447304052701 
0.8924729934508409 
0.01075450565883737 
0.1244404724363566 
0.4846755353674679 
-0.4684925938970337 
-0.0138618047064678 
0.3877444997105268 
-0.1164924209535593 
-0.01470756916772929 
-0.01263125714911172 
-0.02473006947066069 
1.331342154187868 
0.3976541236570065 
-0.2681856421297222 
0.03085911337936722 
0.4466916890195735 
-0.0588324645765163 
1.179105742703393 
0.1382735406204962 
0.1369886941401951 
-0.02222547620177765 
-0.1477220141789105 
-0.03535668826391609 
-0.002861762940328744 
0.1624257350706566 
-0.01910457505269236 
0.1252672802164582 
0.1860346520168696 
0.009402318393281001 
0.1869465566962125 
0.007441631401950563 
0.8750018264645142 
-0.4623861873628914 
0.1566175226922716 
1.002549287563901 
0.02747455749272266 
-0.2315666217063321 
-0.6716112942012576 
0.0964233173985489 
-0.9651598129358397 
-0.2266752220060776 
0.9516316492491579 
0.6325709201993366 
0.2485764231264315 
0.01773559939861389 
-0.02147561183152994 
-0.2851615536244931 
0.02024697952985979 
-0.3778085354628435 
-0.3163680959421835 
-0.03307820055011258 
0.465984293170606 
0.1263829413866137 
-0.2274384126010013 
0.04597250292521651 
-0.1438167739130488 
0.3853983919586261 
0.2340898743911887 
-0.06716991492077565 
0.07999123092510782 
0.1573799567864328 
-0.6729861210985003 
0.08846855971076517 
0.2595147804219544 
0.1170529936483438 
0.09423712229231972 
-0.5316090223604499 
0.3445846535628689 
0.01733993431202127 
0.1332698015368181 
-0.08333777340782314 
0.2901792323848939 
-0.01000083359911466 
0.3036962376583193 
0.06674312987366496 
0.02731740332639806 
0.04787538178688473 
0.1105485448195475 
0.1203364879038085 
-0.4620174312899087 
-0.2699669791739145 
-0.4960865323468523 
0.2874378241414375 
0.04184133979305818 
-0.03784864171595494 
0.1256017228324681 
-0.0445388053297863 
0.2692197240301841 
-0.02184385403207204 
-0.1931841864902792 
0.2506735375496221 
-0.1621148611992221 
-0.2140049503620524 
-0.06993498885196366 
0.2729559756012792 
-0.1018206233208708 
0.1915654672537899 
-0.2016984453457856 
-0.2314020278028074 
-0.3152339870552666 
0.2034676178215276 
0.3500423719223468 
-0.3386533703313682 
-0.3446704480128777 
0.5472142408140811 
0.3409354624105997 
0.1095050505494424 
-0.03129068152305026 
0.03682703464973092 
0.1259071185705272 
0.5130283993171288 
0.3220922384883373 
-0.005373385450630015 
-0.2007348149330017 
-0.01345128460700056 
-0.1588530320050221 
0.08361720478204922 
-0.1794032953786834 
0.1657005541839092 
0.1868831941036861 
0.07812394685387866 
0.3376333437130011 
0.05385115221070314 
0.06884350772019 
0.5519188830288844 
0.01055536295240615 
0.3087084986468789 
-0.009110901749378736 
-1.338897892484852 
0.07369402863656853 
-0.463385382290584 
-0.08202648535112352 
-0.5359338731313005 
-0.1003529010551666 
-0.04038097194528956 
0.1732524154250998 
-0.1492932000945583 
-0.1403967828547517 
2.185200219471204 
-0.2469768744235395 
-0.4061789751607935 
0.04427342242658227 
-0.8941002684263296 
0.07503581190497964 
0.2852102179297796 
0.2556516520418572 
-0.07919636498699736 
1.163088368704568 
0.2801575382454286 
-0.6003631765191294 
-0.1227507064383982 
-0.03056052388534519 
0.2563628324397494 
0.4281052187325568 
0.09004912554553492 
0.3908093502119556 
-0.11278601746983 
0.07526826999892403 
0.05055247812385345 
2.519879838879362 
-0.02651558861906853 
1.142616805106913 
-0.4068135716774541 
0.2158267269798011 
0.4000590112453841 
-0.02975017659113696 
-0.7256634027280106 
-0.007484569959434373 
-0.05714944592615415 
0.03744284401926711 
0.08546326918230841 
-0.09096922724470995 
0.2544883973949061 
-0.255935544924737 
-0.2513322391925319 
0.1411214906794566 
0.02691838957905559 
0.2513350112102983 
-0.9589438942387665 
-0.0002291847678009146 
-0.05308258582345398 
0.2694688098384329 
-0.04515039716180722 
0.1004059984876434 
0.511080884639901 
-0.05062544911241697 
0.441259261428395 
-0.4082240300850004 
-0.02900153099834556 
-0.03534276172858897 
0.2454074218577334 
0.006782265589797819 
-0.9405945787707776 
0.01903405815113623 
1.092383004043592 
0.003555886413977867 
-0.2014703487900645 
0.1582206664521107 
0.2296169190288496 
0.04960213352982008 
0.08688162877681103 
-0.05375242912243588 
-0.09396464689127235 
0.3981382181320047 
0.621176484633132 
-0.005230682973485571 
0.1190555340628497 
0.1361568934417283 
0.8109223455062653 
0.7185731062797461 
0.1181438535331368 
0.2282850198019085 
0.09130540154029275 
-0.7488336938797491 
0.2794033800910348 
-0.009215192092412793 
0.1361841729782462 
0.1239313354378274 
-0.2204071773874339 
-0.4257461226057437 
0.2742877056446095 
-0.3140453586880197 
-0.1468782188650865 
0.1353814177280499 
0.1238373749513302 
0.171320100812004 
0.1808466843900242 
0.1705140866275964 
-0.4814172698448624 
-0.6308807791245404 
0.2482305239380612 
0.1898063469365751 
0.186390904040565 
-0.08383585920873654 
0.1403947001356802 
-0.1623635100814638 
-0.8103210027047574 
0.04745099295223652 
-1.586996890287262 
0.1249943196302312 
-0.05118016408311051 
0.5301114511451569 
-0.1945864999642539 
0.1540703558242882 
1.692008725639708 
-0.1245731316887241 
0.4039819475205957 
0.06864562901203516 
-0.3716658593932258 
0.1361273907200698 
0.1735532383600082 
0.3183805876923528 
0.1428217633305343 
-0.4442870758921593 
0.004159596640654123 
0.09179586812834291 
0.07605447863809674 
0.587691571214784 
0.09028117325092849 
-0.07617197660043536 
-0.3112598709033153 
0.1985634547053874 
0.3960151750012695 
0.001995952928942575 
0.04356182084168626 
0.04112016155692653 
0.5862058214443604 
-0.2486062005071034 
0.05892951492067879 
-0.6288857557607207 
-0.01037025389179774 
-0.2711295232277394 
0.122522444093687 
1.010393471214536 
0.4978218672583168 
0.3922148576404328 
0.8348486449100307 
0.2512706295219006 
-0.167394716984471 
0.1056659234177065 
1.157003686166835 
-0.07785762582602045 
0.02206012771167723 
0.1359088667445075 
0.1016673307560649 
0.4291398262309333 
-0.5345124870206536 
0.4670958155007816 
0.07286040778236624 
-0.2717848430297784 
0.6687337370073418 
0.4205515601494386 
0.06280581246005451 
0.006208958398552217 
0.0377449721754106 
0.07981989346133415 
0.4383929446473695 
-0.5596270045297764 
0.2731215058393779 
0.1424345821264598 
0.03763048186350525 
0.4203913897876845 
-0.418019662533721 
-0.4713766434286849 
0.002263418530595605 
-0.05662882308775521 
-0.2064765004928114 
-0.1411007466793455 
0.05218331759443137 
0.6681662672225918 
-0.3791486043956327 
-0.2024002548808183 
0.5979891356507768 
-0.4921170206231204 
0.05502352076608963 
0.5087124495075269 
0.6835128184996804 
0.1517438579573551 
0.02828623654863351 
-0.0198868060880212 
0.2042729041390176 
0.08858538655509945 
-0.02187238887276428 
-0.01061614396481815 
-0.003239839650076521 
0.1446517881780727 
0.2370654702193236 
0.01860055308708479 
0.1316478278845299 
-0.04054845176451689 
-0.3519263700810277 
-0.5992656555049773 
-0.1847439125299902 
0.4034695224603997 
-0.2444818378333982 
-0.8104000438119137 
0.7097882183157884 
-0.05799017020113679 
0.1283515549594643 
-0.1802510138690321 
0.2431277668905345 
-0.003762744589399834 
0.1254692933376958 
-0.762366647668575 
-0.05139952070765158 
0.6573718568046351 
0.0906285600469415 
-0.05973589343376162 
-0.08818512522698096 
0.03539771364146116 
0.8263828588902498 
-0.2320360905608578 
0.25826646426811 
0.02595637074123405 
0.05757080035048397 
0.29567760288154 
0.1006116647685062 
0.2841214820948322 
-0.7350987888619249 
0.2838966631316723 
-1.031934731650294 
-0.1371322099676117 
-1.461172384185325 
-0.04445095488694435 
0.6590248646823562 
0.3023729746072718 
-0.3906545316300858 
0.1780449356049971 
0.002476637669115293 
0.6078683446267378 
0.1474272894502587 
0.09726971496969543 
0.08936767564765416 
-0.03504323898121432 
-0.09528572708835947 
1.068753387206084 
0.111247970427067 
0.02164182064822655 
0.1149910765970972 
0.8133993891845186 
0.8028038519664309 
0.01082232031908326 
0.1133349786798708 
-0.5188937978250502 
0.1928788258800222 
0.954064905295834 
-0.8449121858244815 
-0.0004604283073073557 
0.4401334027154187 
-0.2217012191424235 
0.05008268821299619 
0.3412548304134659 
-0.225296393105736 
0.676329538185532 
-0.7504380336273144 
0.9268963350714279 
-0.05727845202528338 
0.4499679263376816 
-0.2336323977320817 
-0.02071583189994489 
-0.0445750654309591 
-0.3308723973130574 
-0.01334441386935567 
-0.03300114468650257 
-0.0328702857695885 
0.1542872730961135 
0.03876387638575912 
0.27599787869752 
-0.03718721506581119 
-0.5635682128680904 
-0.1313422992901614 
0.1217119511299748 
0.01891039288015283 
-0.2143914878876054 
-0.004252158943002049 
0.8883584034903069 
-0.1257693845618902 
1.107105485629627 
-0.1770614925615442 
1.010270572486401 
0.3653298532796757 
0.5818204746779426 
-0.1207380590702726 
-0.1978701104386732 
-0.1949208715736414 
-0.06902413119654903 
0.3304957968945952 
0.5111999019674809 
-0.02574970105681382 
0.4185666509321726 
0.07273156440341838 
0.130177127338179 
-0.08829517091397414 
-0.1213110103034787 
-0.1180504981283851 
0.3379407515386299 
0.2064388718541731 
-0.373497239199587 
0.03918365429316353 
-0.00211903092147239 
0.2478259819222609 
1.010916208641642 
-0.08692825414271241 
-0.03293285961279254 
-0.4514274591757674 
0.5542716977710288 
0.07212008592677882 
0.07954409242718732 
0.2176144650887612 
0.06030731404441941 
-0.1655945225782816 
-2.111817494095081 
-0.001256668550355506 
-0.5640398412901598 
0.3233843359765264 
-0.1006776163371423 
0.04517138614936882 
-0.08719344944120602 
-0.1635127263996902 
-0.3606474543846021 
0.1538832887182125 
0.6859735926399564 
2.265632250630013 
-0.1384075878790484 
0.1959982521832343 
0.06292623817985211 
-0.1592277169458357 
-0.04881389457861023 
-0.947813559122174 
-0.2081544355049518 
-0.01616035953375082 
-0.1831951156680841 
0.1257226806320678 
0.03878648052674932 
0.1413072049462393 
-0.00944352548342341 
0.1261462284488395 
-0.9406663730720878 
-0.04164322716802778 
0.376972331799621 
-0.1004708147839589 
0.02650347439882117 
0.2190651370800867 
0.158395734964219 
0.2508143664246142 
0.8598383764083729 
0.2081985943173436 
-0.4394696424253536 
-0.05212005218432838 
-0.009367064465500497 
0.274864490712161 
-0.003972433751114304 
-1.348791983179801 
-0.08827897910829915 
-0.04007593866407766 
-1.064409334408268 
-0.443356679730908 
0.3718289411005934 
-0.06084751312020948 
-0.3719885237499557 
-0.01497544594154797 
-0.9039595211849255 
0.8361111286141991 
-0.01193055489206172 
-0.01667279808585536 
-0.2806904349485809 
0.02848107456361762 
-0.05110034852188299 
0.1651142888235942 
0.1808511518759985 
-0.09359088491341767 
0.2004242480188196 
-1.053001437929313 
-0.01377127165380451 
-0.3707232529699381 
0.004446596491967789 
-0.1936784276086388 
0.02219647963087869 
0.01733197340755496 
-0.5893041675675509 
-0.07710023556159061 
0.057930321712599 
-0.9521002400655267 
-0.07097396226799016 
-0.6244335902682433 
-0.01964866411324209 
-0.2710480169816133 
-0.3259904690839882 
-0.0255350791124029 
0.4450901208532168 
0.2038304510425447 
-0.1360530154698886 
0.1588739054985071 
-0.1336380735653631 
0.1892147506268206 
0.2132961359920905 
-0.1364089130058026 
-0.1233998407068573 
0.02127735644662565 
-0.2675841611140849 
-0.005585391409819809 
0.7129464185032258 
0.28217771232171 
0.4149766886065893 
-0.1078703541133952 
0.02763922956597201 
-0.6801247768767948 
-0.04562026302057223 
-0.111664491341265 
-0.386609409728442 
0.1721519193592824 
0.09548663786500297 
-0.04539027925408884 
0.1848704923314041 
-0.02485333996181149 
-0.1183280861398423 
0.3166096692375527 
0.355117040041831 
0.03688683099555199 
-1.997216140534811 
0.3365842817214895 
0.2250363606344555 
0.1894317429954587 
-0.1199745413261398 
-0.003585632994135039 
0.5177834705959315 
2.076548188780102 
-0.01499622255342841 
-0.0183160318240929 
0.331377700195727 
0.4641105617412966 
0.08179839562372627 
-0.05786055096420743 
-0.1780439296484447 
-0.03113825294735131 
0.1538030538786939 
0.02390752079767749 
0.08442042675386065 
-0.03224672762665973 
-0.2463915592189754 
0.2298468906186075 
-0.00498326544110615 
0.7264467874093712 
0.2887615292991316 
0.3426292553460695 
0.2967973325848715 
0.1142584586990718 
-0.1887854745561885 
-0.04981337904906988 
-0.1043211254645889 
0.2125004126912212 
0.2593239026996872 
0.05763213146750381 
0.1801835499403347 
0.7736870014815425 
0.05848298573937884 
0.5042815839203293 
0.1262262282759212 
0.008042837164927472 
-0.1701905260397271 
-1.654994539186134 
-0.06042001404814012 
0.05326726220502963 
-0.007953797013629426 
0.1028591450430245 
-0.0070520131686541 
-0.1078264060405008 
0.9472176734754645 
0.02106310985775587 
1.072109449460605 
0.1152484534055357 
0.2341286168644348 
0.01509140278739685 
1.454346510066682 
-0.006874030987002204 
-0.3814356562989006 
0.05605259671991488 
0.3211609753114811 
-0.0597439055328788 
0.7858728305194866 
-0.07156706953072568 
-0.1506411323952174 
0.09911466946454375 
