solver_type L2R_L2LOSS_SVC_DUAL
nr_class 2
label 1 -1
nr_feature 5000
bias -1
w
0.4614800999312882 
-0.8053696854291778 
-0.05010299059349343 
-0.3341454686168053 
-1.912004360996455 
-0.9548145903440812 
-0.5125657656155128 
5.163518638118446 
-0.4490242636074281 
-0.7792433915584911 
-0.6514270222777295 
-0.5682267578458073 
-0.0153673774460124 
0.1353785004337458 
-0.8017552734452454 
-0.5277767028978464 
-0.3802243029648 
0.5905741001415263 
3.497822341588074 
-0.846856557074678 
1.097829965115758 
0.2805934598014316 
-0.8331858551239898 
-3.723319784161902 
-0.4736284827468774 
-0.8570038859531136 
-0.09236664801098159 
-0.2041392493849298 
-2.872771405025675 
-0.6706422684885014 
-0.1355542712001891 
-0.9514201465416374 
0.03336397312946485 
-0.383052237847293 
0.3549777140496504 
0.3246675389309305 
0.4258411282677216 
0.7512787076679708 
-0.3389269025643686 
-0.429509359801365 
0.5519495273907501 
-0.6756817577810157 
-0.5693473521828629 
0.2758409928977424 
-0.3272842996718844 
-0.1944353285480084 
0.4696226057304939 
-0.7413397960610643 
-0.6456507389085816 
1.262980222790528 
-0.3892188236807411 
3.960078228157687 
0.5231495525853216 
-0.09526911867132241 
0.2931609956928302 
-0.4089664462661287 
-0.4989541669389933 
-1.146035176261117 
-0.5045984489510407 
-0.4233618118236561 
0.8361863083377467 
0.786400855051916 
-0.3460443804084402 
-0.149252773314704 
-0.6343783865135629 
-1.0510759523183 
0.1513201138205753 
2.227807288223582 
-2.086981692864519 
0.1734500926314244 
-0.1314103928325985 
0.482913344719415 
-0.2933914648681431 
0.08278238240309978 
-1.312670137103784 
0.05064049203470171 
-0.6253535721592891 
-0.6053006904887099 
-0.1316730905095769 
-0.3618608827109994 
0.05457728002308535 
-0.1529768902348846 
-1.040634077619124 
2.041193960629379 
-0.9994520125474631 
-0.7782531196185168 
0.06680809092311056 
-0.1496113367247622 
-0.6267874796308511 
-0.1190215869829344 
0.3368355364096315 
-1.61241571650237 
-0.4321214294076062 
-0.3607701613958029 
-0.413051028054451 
-1.269595909657774 
-0.6150259766273799 
0.4834889557504788 
-0.8771094118263068 
0.4513863364647892 
-0.5656305988700885 
-0.2676435134645003 
-1.073729832588656 
-1.284270218237238 
-0.3097993460990877 
0.2068623132776559 
-1.0800733303996 
-0.4330481090766179 
-0.3927235450093663 
0.1044068506130866 
-0.4612217682728129 
-0.8070328953294317 
-0.3067290366285522 
-0.03142845081467065 
-0.5982289649037041 
-0.5061836560648173 
0.2632345341700477 
-0.3119282496378217 
0.9730821120336108 
-0.2327775411736461 
0.01576637225919398 
0.04858123345973709 
-0.01443821676167045 
-0.1881617753444722 
-0.2814074164978658 
-1.438589178183509 
0.6540090503747947 
-0.1064100109934477 
-1.544709885840507 
0.1140342487607408 
-0.01017760040416248 
-1.396252203570585 
-0.80302494574601 
0.3669577243282151 
-0.9233188841906719 
-0.1575269492146329 
0.8408784902677177 
1.705926969978948 
-0.25630866114704 
-0.4620799188685881 
0.1119620741790465 
-2.054089395475608 
-1.560354716457336 
-0.3018415059840356 
0.1383976791727295 
-0.3886485185527734 
0.7065580041944431 
-0.4293791037728271 
-0.0048988397784823 
-0.3970148465948531 
-0.6284112512654356 
0.0849727926720418 
-1.063269055989365 
0.9090587262608006 
-0.3476505689317054 
-0.953119180147021 
-0.2713036455802357 
1.353274994259585 
-0.5435902959710086 
0.709615449281629 
-0.0436124771210587 
-0.2439769667792925 
-0.1788904557360053 
-0.7710710270690596 
-1.062043319190251 
0.5001121157961625 
0.04692019403141073 
0.08452478703876122 
-0.3972883914284888 
0.3580887437338179 
1.579492930781792 
0.2465885380081894 
0.03633234085866588 
0.6043825626522287 
-0.5833212420899251 
-0.5352736254969443 
0.852983381779124 
0.1012996922015522 
0.7253387164493876 
-1.414473697830488 
-0.3197329088575322 
1.368383395868019 
0.2198512830787007 
-0.3944541403305851 
-0.5414941836249015 
0.07070106912812676 
-0.4045251211027459 
0.03582030428815165 
-3.62487840739359 
-0.3807005685638976 
-0.1515251746293099 
2.281910999804933 
0.3739087254781652 
-0.2450785123853809 
-1.019452686683854 
-0.7533666708951032 
-0.04532847586947481 
0.6495128200115874 
-0.405877403750357 
0.1836787807092241 
-0.2816498223784456 
-1.022850354349896 
-1.137460375200048 
-0.1154306158485685 
0.7109248437179432 
-0.5005007167086651 
-0.0121945477865609 
0.02595465657206022 
-0.3466320924079029 
-1.200126808731298 
-0.5415486061538768 
3.302308981904212 
0.2099364264054314 
0.6310322179759709 
0.2153505815779418 
-0.9719500704840676 
0.8612090181759543 
-0.4670232927826063 
1.068895436425199 
-0.7641539768088358 
-1.146814347281681 
-0.2246462475858474 
-0.1312760017513612 
0.1208383470777509 
0.3812232711856051 
0.6674640334781142 
0.07258594976791821 
-0.7113997115348661 
-0.4331703908712014 
-0.8469208502550432 
-0.2849005887773893 
0.3155474352725126 
-0.6825182213381773 
0.6643546215985566 
-0.9133282658565811 
-1.244078998720674 
-0.2871169379886783 
0.3005237626133461 
0.1726772444251366 
0.04697854439668032 
-0.5137379922216246 
-0.3101912209068025 
-0.07936214624195093 
-0.08321465978946511 
0.308778447088315 
0.4545673059522621 
0.3060249042869299 
0.2594670159982317 
0.2556935621049012 
-1.027157289296701 
0.4389371945203262 
-0.5946429408010947 
-1.007625548202813 
-0.2693097789538295 
-0.3148572830366779 
0.3370057311452417 
-0.1300974715744405 
-0.7585057807661825 
-0.6247463266913791 
-0.9078738358766765 
0.2687124577922778 
0.0471537853043892 
-1.639652172901321 
-0.1410914330966809 
0.2721059697410367 
-0.8674881223354447 
0.5702837956254999 
0.5151705273106483 
0.05150129083110971 
-0.5218346299683898 
-1.005718297721551 
0.5620792804091279 
-0.3444388463942952 
-0.0004116443529245919 
-0.2910777288159009 
-0.4482991576715959 
0.822543999127387 
-0.576147182704853 
0.182522072796724 
0.08399287058660462 
-0.6539906339685325 
0.03435251658601526 
-0.393256588123082 
-0.8768953589919208 
-0.7733922075489502 
-0.0001139716308118753 
-0.9764627457267514 
-0.07058428309625943 
-0.3887976359292487 
0.6343253125510118 
0.3693563032146523 
-0.4008945261769963 
1.236374594805718 
0.08006734916343536 
1.022686955467652 
0.1233735305685228 
-0.03793387827396205 
0.5534163211832807 
1.802518276492437 
0.1073694278643796 
0.7078858852326108 
0.08898409193991183 
-0.4561191660267618 
1.460058560430878 
0.4219482188543437 
-0.1041838377897739 
-0.3773391300244699 
-0.7611091970884335 
-0.1106090953215422 
-0.8315021087211519 
0.1203485196377598 
-0.07211772902978242 
1.471224056332247 
-0.8026668563892648 
-0.04553819590249339 
1.025252597214755 
0.5930478609138391 
-0.7501530109558551 
0.05806440551127158 
-0.2867738913732186 
0.1156403168085569 
-0.6670410499879397 
-0.7336286746377322 
0.6630914576194599 
0.222175044564752 
-0.08084033869735868 
0.08460225746178032 
1.680846726255211 
0.5349724088490496 
0.6009650919797411 
-0.1678307692144121 
0.4865850836733805 
0.5069686897447291 
-0.07879572677462598 
0.1466586779007394 
-0.7871073709241553 
0.0784868100204173 
0.8009363597890503 
-1.325867298724446 
0.3826163118010477 
-1.484638189974581 
-1.012719845433897 
-0.01762585847557612 
-0.5831576846012779 
-0.3426877029746574 
0.3414090751932963 
-0.9082806641332772 
-0.4210915265322844 
-0.2282843293464105 
-1.376729237323958 
0.1327238243126379 
0.9327371760678612 
-0.01025312789274618 
0.0562508498072852 
-0.555005255818007 
-0.1986133445007581 
-1.124582611146751 
-0.3406327882428768 
-0.02062048995089062 
0.1110444459897044 
-0.4600902927790839 
-1.476546357690809 
0.4336756073083781 
2.870561863007492 
1.050841732873253 
0.1420021052615265 
-0.2231843647400538 
-1.083667367703931 
0.9479039218699828 
-0.2634848224197495 
-1.000602210180281 
0.6444657682122875 
0.09465949634229101 
-0.6383965393338424 
-1.022518099134346 
-0.3518852660652738 
-0.2551738912140759 
-0.3091444483099754 
1.122214680750698 
0.4330066712934042 
-0.09575892465229356 
0.1256455580362331 
-0.6690289519650378 
-0.3188149659339471 
-0.5217725301084369 
-0.3938952825782672 
-0.2810903251997838 
0.8356142651966435 
-0.2343589916479948 
-0.598031614033694 
-0.7650965171926701 
0.003363774826551581 
-0.3342693478310083 
-0.2848279277731527 
0.330858046421801 
0.4564145060469059 
1.981879103278918 
-0.09431693382821522 
-0.9700883478079427 
0.5052274238597229 
-0.3705996100264121 
1.16835642698724 
0.1469697963830119 
-0.9231953467073933 
-0.3039438043277403 
-0.0386511453188032 
-0.3454506139320257 
0.07132611242423868 
-0.2030537374351413 
0.3959610062813891 
1.448160522632079 
-0.3115854397860671 
2.328820779794166 
-0.05761910002577169 
-1.213850784861519 
-0.2155985697083897 
-0.6281691121505335 
-0.4339755042140283 
-0.8120762379728035 
0.07508125862215531 
0.4565597036125099 
-1.000002558543159 
0.6385635351317426 
2.274982049528779 
-0.1460074845091038 
-0.5887270445658617 
-0.8917236417187645 
-0.3865083489936733 
1.150066881401715 
0.4114520866043914 
0.3373300981951897 
-0.8445478856255655 
-0.9557100941392835 
0.653958921839576 
-0.4937572580301044 
0.6001637534774801 
-0.005760037721418433 
0.1185580236048364 
-0.3278465415193881 
-1.697177711161382 
-0.105083078348165 
0.9979812138445955 
-0.2474039970223375 
0.0467517929128539 
0.6567012413465584 
-0.1923943243720118 
0.211911657887949 
0.240710453574295 
0.7711044225173571 
-0.5353402223544809 
0.6495178291456528 
-1.007635663837311 
-1.586828077746812 
-0.07855432342537401 
-0.5735024331508451 
-0.1956029883549702 
0.08490909235189366 
1.585588430771879 
0.2224571706605281 
-1.326506544804859 
0.9236127031304129 
-0.216220842496104 
-0.1328704558845985 
0.9101116267655857 
0.06679136337941648 
-0.8228003348770768 
0.1261256022525649 
0.1397948970662076 
0.04552211405148669 
-0.5393686170482277 
-0.7026779398579919 
1.581293770175879 
-0.1567597215443662 
-0.5169969621378653 
-1.241669600793886 
-0.1056082500425695 
0.233769913379679 
0.1931789558121799 
-0.6737272150020437 
0.5301703837702771 
-1.485362785820029 
1.759321905875355 
0.351557470311171 
-0.6893122042664386 
-0.3913708187716246 
0.0313483489404743 
2.250535985875993 
-0.1953712096559752 
-1.13088689401511 
0.00596173981590426 
1.340539038524147 
-0.2047094589390058 
-1.278616828292249 
-0.2543142123589816 
0.4632563937220248 
-0.9138839027109267 
1.120928008245841 
-0.4553660640980574 
-0.3559129315175354 
0.4390318696669151 
-0.06965348336279832 
1.343344116152056 
-0.01597513334632438 
0.3243635951880622 
0.254315642905557 
0.3894431232881899 
-0.5341603831221429 
0.5759570567315129 
0.09340920846087467 
-1.422125359828529 
0.08281969404524513 
1.173317932546218 
-1.958454171788173 
-0.2887948410563748 
0.865982073857399 
0.1503727416020163 
-0.8927821584559978 
-0.6861301724507375 
0.09590675329118285 
0.07133577325791195 
2.231660726172956 
-0.4591978127530337 
-0.358684355290689 
-0.3977212455468678 
-0.6247612844476119 
-0.2309888882281818 
-0.4765956324958681 
-0.4051350136286375 
-0.1732287160656168 
0.4581243661076774 
-0.2770158387253141 
0.535492604795098 
0.02688781486435057 
-0.6789898600691537 
0.1617909768956287 
0.460705180607573 
0.6926213805130371 
0.4832053970574652 
-0.3062281315656436 
-0.3613336977269574 
-0.3272520663937336 
0.5114061189609803 
-0.4234785349703361 
-0.01087707603337722 
-0.1073489236884391 
0.1204767075884192 
-0.1233736841442974 
0.3238599595848891 
-0.9622865860991818 
-0.6135024698167462 
-0.5320716558808409 
-0.4099016478864412 
0.7442152727474203 
-0.1018141033792193 
-0.08134565136048215 
-0.7015764049425964 
-0.2566635041777223 
0.8321382028070681 
0.1287095036199487 
1.098513070771168 
0.1454617548414762 
-0.6632696213541633 
0.3226525305315115 
0.4136548076826873 
-0.7699807391425766 
-0.2798080107356426 
-0.548450289244056 
-0.9797994629034386 
-0.06939556468407157 
-0.2281261386586169 
1.070623019307349 
1.311106914103935 
1.217112570583575 
-0.7068272964841448 
0.151948982948861 
1.488016222812003 
0.4739069664645426 
0.1626781137506847 
-0.1093255198114004 
0.1814970949152428 
0.9429344161926724 
-0.2026136378750213 
0.3010491676385366 
-0.2445775561402836 
0.8135603573207546 
0.3684508124929889 
0.2817539505614517 
0.1833312016878194 
-0.1895985349173735 
-0.5935198501477476 
-0.1912731973624082 
0.6367635334524908 
-0.0628573422870244 
-0.3563134813818221 
0.5370506024996055 
-0.247541648655372 
-1.060361441590768 
-0.3028411091354463 
-0.8233513862390058 
-0.2225597768300712 
0.1098373691417785 
0.171746670980488 
-0.8565067435400733 
-0.03021255136314931 
0.8588798832801302 
-0.2379765626544658 
0.1291274144168365 
-0.1262760696942697 
-0.2171039685143154 
-0.9335997976150429 
-0.4844045907603671 
-0.8817293394919538 
-0.3693526424944908 
-0.1760673708374384 
0.5816891960206672 
-0.4027995830009796 
-0.9288380370692572 
-0.06910329506186005 
0.1108493960013704 
0.4087893479115387 
-0.3113983153193864 
-0.1166384830256721 
-0.3393453637599514 
1.191853381639524 
-0.8719100508784967 
-0.07549303225364119 
-0.1612553148606227 
-0.08630086599306129 
1.74875548929821 
1.106047362237103 
-0.465955217248598 
0.6512738115907108 
0.8268116672327045 
0.0139257076489064 
-0.6844862178631462 
-0.415171891666221 
0.3266249534303384 
0.1446914041119066 
0.1150477296739271 
0.2351241417336823 
0.4745208158484646 
0.0456877080177622 
0.04530015551296159 
-0.3500222400541307 
0.244874794569477 
0.1178055614097769 
1.295598364627187 
-0.5086675261994832 
1.973535023999591 
0.1344013331533874 
0.577586115285079 
0.5682182168564236 
0.1434921290262714 
0.4920209657371019 
1.81815758183896 
0.1656625623536655 
-0.2741904605877536 
-0.1041609373846392 
0.1256481612594451 
-0.5091876072642577 
-0.176240592843434 
-0.6481013507016579 
-0.4286045513635072 
-0.135018792558406 
-0.3674763308059426 
-0.3874387709348993 
-0.8757535127616517 
-0.4881929646864848 
0.07112380656695071 
-0.1957109780128662 
0.5604111783607597 
0.06005119159232574 
-0.2618721280816847 
0.5181692154063402 
0.1037031099523308 
0.8496431611429576 
-0.2986732063786173 
0.1970454317807637 
0.397495205629601 
-0.2616420590538714 
0.09446369854011975 
-0.1866609449273392 
0.1270857774983157 
0.1123695918259184 
-0.1193055003537977 
1.304171984338947 
-1.054784309592568 
-0.1729144214264312 
-0.2767361673711786 
0.6805872082448814 
-0.3334935970930817 
-0.4088137293347749 
-0.7128285508410949 
2.268355020386194 
0.9363055138220387 
-0.5290274046812411 
0.2147324833826587 
-0.2991968721600164 
-0.04669339067674035 
0.5595320844405521 
0.8590688515082688 
1.453416983970419 
0.6912032351146314 
2.715093128349157 
0.594243781406361 
0.7484941991367323 
-0.08219752192837672 
0.3765577508796426 
-0.104548780569018 
-0.1269673858349889 
0.01862475246965451 
-0.7023891558923837 
-0.6881306411973339 
1.282216358924839 
-0.1218350462038599 
-0.08561126256198842 
0.6827283912237103 
-0.186405866468518 
-0.2830970252542411 
-1.241746727041538 
-0.2111467759640853 
-2.12953526217816 
1.654748474871487 
-0.1771834506074051 
0.1489757531950038 
-1.030413148120886 
-0.01573919762620081 
1.146815903687632 
0.7300071502219965 
1.197909618695907 
-0.1159999368613585 
-0.2600562667016386 
0.405973394125876 
-0.03614548600002127 
-0.771276980446764 
-0.5195527295521725 
-0.6653093910575062 
1.594821067874446 
0.8260837213223219 
-0.8165963292073537 
0.3906186678899662 
0.1200679344361958 
0.2157877692248819 
0.04494323278094285 
-1.448748203262441 
-0.9271970153935531 
0.5757517733065745 
-0.3615788989916893 
0.2404112239649527 
0.235268079134511 
0.7482442948172029 
-0.5834479157409613 
0.1899187337983172 
0.1566471049512661 
-0.1698833641844712 
-0.8991582511747374 
-0.101230777940612 
-0.3385957870454249 
-1.237959168378464 
0.03020916116527101 
0.09423687003994789 
-0.9813350873331579 
0.3481926461926024 
-0.7115130846136255 
-0.1026864863078056 
0.28668423035747 
-0.1303914107324305 
-0.0647425236481515 
0.7749305559251385 
-0.5892689666387996 
-0.02187635860788998 
-0.04422566170235889 
0.3634960985806285 
-0.01533519601008238 
-0.7959898463877266 
-0.9718965005114111 
-0.4429240107419513 
-0.02727204212707462 
-0.8980740671728341 
0.7222840565810832 
-0.1219039475340956 
0.764739647095544 
1.447777093061259 
-0.04984564417869652 
1.278256411004407 
1.35154642439176 
0.9070947391059272 
0.8815334535302788 
0.6881953302698552 
0.9054255294736998 
1.387841260901605 
-0.3194634909713565 
2.079664567617598 
0.4080181896418912 
-0.2323247802248309 
1.278151473234 
1.508599267267854 
-0.06643484517031015 
0.2393111396682103 
0.2951624573863543 
-0.0212174644702597 
1.324155656588116 
-0.1079233727672482 
0.1190190048264336 
0.3855297403863676 
-0.4422190209974357 
-0.2771525813004125 
1.139704310435754 
-2.167509813609332 
0.04117891942390572 
-0.1946162621239565 
-0.06127160013262305 
0.7276252661261869 
-0.07311623113596935 
-0.1893755557355139 
0.06220841738224751 
0.3418395311626661 
-0.7070707914043479 
-0.0912898587690975 
0.04042861360817607 
1.087422486541462 
0.4913475567485462 
0.6197784203150064 
-0.4471469435186523 
0.2211561294041564 
-0.3921280132557473 
-0.02555940552470361 
-0.9393609280853806 
0.2495152324711509 
-0.1337976159848411 
-0.03089526858238683 
0.3961403730340712 
-0.3368803943669904 
0.3310164759936503 
0.5459398435288435 
-0.4198523937034457 
-0.8335782253171826 
-0.251133428650171 
0.9393810085067582 
2.1978619177185 
0.1483195620853641 
0.4517266088524253 
-0.990352324506242 
-0.7456745436338869 
-0.6704215916324729 
0.4702863120300678 
-0.2178885875835256 
0.4160381912261575 
-0.2619588175957451 
0.4335444838562163 
-0.4895165818266869 
-0.6328629718694591 
-0.319447995617541 
0.1183492978559644 
-0.2220528909720061 
1.152918619301826 
1.267882292951338 
0.6692432774741569 
-0.2823826113127988 
-0.5975756049058218 
-0.1313893038462043 
-0.2591337847917899 
0.09264264068108324 
3.132782748175959 
0.6125931556525865 
0.8350768978349874 
0.04803282540889389 
-0.2040641523378539 
-0.6555811148539311 
-0.03480880463974234 
2.570532887028355 
1.326651526327432 
-1.566420455039487 
0.2252013620879842 
-0.09550537899670711 
0.0930098549604808 
-0.4401474183339851 
-1.05486863713558 
0.5810648006740974 
-0.1768402295622671 
1.453119898657236 
0.2011742915475258 
0.5763961550297124 
1.739228470574066 
-0.4036854857595827 
-0.3765208699438391 
-0.1530469063828411 
1.17124705114672 
-0.4698723663837633 
-0.3689700938402912 
0.5162048395895831 
-0.2129037086713139 
-0.749574378791394 
-0.290693017409113 
-0.07802762828701175 
-0.3200001524710258 
-0.3189816305025981 
0.1399795582427863 
0.8388867215124671 
0.001127148886110063 
0.2486476795026007 
0.2980467552769352 
-0.3959922898944032 
-0.7223557275278918 
-0.793690401697157 
0.7172962942947302 
-0.4085136069429767 
0.8076575747035867 
-0.2166123114780559 
-0.619582509116435 
-0.07764078923750606 
-0.5659856139902544 
-0.2726564959584688 
2.518235285675016 
0.7759726363175918 
-1.169013354106062 
-0.1353691443821151 
-1.008782747413787 
1.553913350660401 
0.6240449633315985 
-0.2583534994069182 
-0.7486154400711337 
-0.6985380172903269 
0.4110389342014031 
-1.060432074514673 
-0.5951922400226628 
-0.1672636609519682 
-0.0597330832971143 
-0.5574955715831024 
-0.7214448766260798 
-0.5248132914221528 
0.2511190934144448 
0.2397979266533734 
-0.6470210560289688 
0.1291251842534999 
1.043133944022617 
0.6447231542539928 
-0.5912912485182925 
1.256596805883561 
-2.155784595541928 
0.8273846706909387 
-0.1952394176976343 
0.3806806725529114 
0.1645636028343046 
-0.6639286456505075 
0.5028806058488196 
0.2425388064902031 
0.1540220829640687 
-0.5144681389655662 
0.01668218888368246 
0.8673834464110467 
0.687673703436155 
0.2009260070925329 
0.6864777635426099 
-0.03962045580468326 
-0.4143394176613763 
-0.3176960978456904 
-1.080740836785861 
0.03908239341315158 
0.1432438000945867 
-0.1163931117221834 
-0.6039298223696274 
-0.4034230922424358 
-0.4192962478388417 
0.0506170588772269 
-0.7114140535527973 
0.2152230573022545 
0.3469602451096865 
0.9661745262841078 
0.02076706850050468 
-0.41284742169052 
-0.1443590858310028 
0.3830840629915122 
-0.6761940695530492 
-0.8024080944789462 
0.5863075157177312 
-0.4768605085637765 
-0.5556264475916887 
-0.2103676835505641 
-0.9131458760939675 
-0.6108917625553558 
0.03760081183795073 
-0.9208209853576046 
0.3471872276136168 
-0.1190317426294039 
-0.2229489505680176 
0.2303494334381481 
-0.110695690505019 
0.942076773779104 
0.9001583351626177 
0.03876242675351285 
0.6134418459719039 
-0.06940838351259489 
-0.1875667818393437 
2.045915731544428 
0.2244576186192143 
-0.1167216399027213 
0.2283884570486641 
-0.1019285252511981 
-0.1921277321645341 
0.1058723441562742 
-0.04767518670183735 
0.3786833649709236 
-0.1143820997555281 
0.9588996984776421 
-0.1321754603529558 
-0.5318989962244166 
0.5289476771940268 
1.859257283020051 
-0.4201468093510641 
0.1481089419313461 
0.3574391629351683 
0.543963713523253 
0.3746858254256487 
-0.3423492026579404 
0.01145286725990398 
-0.6297519931058855 
-0.217903835078839 
-0.0644860545303176 
0.1322549168592109 
-1.233626809868192 
0.2611273918936569 
0.2222282566419556 
-1.043600081639784 
0.2308217006795278 
-0.1163021554744262 
0.08701984845533299 
0.234369717966003 
-0.4138719919609109 
-0.06451897608456626 
0.07716530184050421 
-0.1037263967775863 
-0.1814506176314542 
3.127328137229874 
-0.4439313070245665 
-0.2595980347417666 
0.5245454005537362 
0.1781359354802338 
0.4462483705860245 
-0.07571874967158522 
0.8124925128020354 
-0.2323457569799523 
1.815881366077451 
-0.2657626549735723 
-0.09123974171883346 
-0.8579060125297845 
2.091829232670556 
-1.018726469766827 
1.444696564585016 
-0.5454479084314624 
0.2370973047374612 
-0.06658176133134253 
-0.652103717269471 
-0.3034049987363285 
-0.3183082884718776 
-0.07060405898200663 
-0.2115987891915422 
-0.8772938969398862 
1.550058211730398 
0.02810471484433185 
-0.04820946584465985 
-0.3013022473842111 
-0.1259687988456152 
0.2406677521763955 
0.4046434842920895 
0.3934898346260757 
-0.08394240260673823 
-0.5881491862010207 
-0.7415077463323396 
0.5022635015687289 
0.2488789099949173 
0.1659697718959004 
-0.4996778436502133 
0.2501040438773265 
-1.270054390153312 
-0.8028188739243806 
-0.6837405106771498 
0.6575031777418813 
-0.5738900411373128 
-0.4692914812752236 
-0.7470831009718034 
-0.1319229451727421 
0.1339317708664232 
0.49227210293185 
0.1672871100543869 
-0.1921913580012511 
0.08608742975829597 
1.678397763979648 
-0.1488463046043748 
-1.225193391157049 
-0.3372145919039444 
1.771064897709097 
0.3819584160369481 
-0.05051663732260068 
0.3232314273901192 
-0.2863181173700917 
0.217608564383154 
0.935851003091465 
-0.1054936823967754 
-0.470529612132816 
-1.368308500199854 
0.1522389676640221 
0.5393365744199345 
0.5119173045482857 
1.5209830098223 
0.3058890512869769 
-0.8196964374582278 
-0.9771445610200254 
-0.09432102945671761 
-0.04693573951833232 
1.019477637718019 
-0.1537221080132496 
0.06972586126129832 
-0.7634653923137475 
-0.1368708320389293 
1.000227032590302 
-1.185457335463306 
-0.3369929039714784 
-0.1419737537201138 
-0.9991400110341936 
-0.1521716334002798 
0.6654106745766685 
-0.2788162578079574 
-0.08298545700104712 
-0.05227978033080716 
0.309866379609617 
0.1609850222039462 
-0.1744878357002307 
-0.7758203315795077 
-0.0437949511692237 
-1.308253391838903 
0.41145498396941 
0.3582499795087699 
0.05561524139775877 
-0.2533609301938527 
-0.02804048445883802 
-1.087209281001688 
0.4021372492262635 
-0.6917268542108663 
-0.7419513139797047 
0.9926080678467569 
0.01273123942223536 
-0.2101785451513183 
-0.6263963322953334 
-0.2704161825036361 
-0.8423951928902175 
-0.4436483237332019 
-1.174544724728518 
-0.7466248032054392 
-0.9998250322608531 
-0.639599565481727 
-0.06920034382621469 
-0.1349775890321802 
-0.01446633487411788 
-0.02480033710060847 
-0.6218148420018279 
-1.634446029277598 
0.5369937275826353 
0.3835122294396385 
-0.1748667913151861 
0.1016910826112199 
0.195725078972656 
0.2149242504969469 
-0.105709670378188 
-0.1501238606082936 
-0.1136534848190586 
0.03296712030131288 
0.3455677915727276 
0.7422605884054799 
0.4886525893952907 
-0.5084457081890709 
0.4758068356081642 
-0.02827969670459193 
0.07673151605958693 
-0.06657707672836626 
0.4654953736483217 
-0.157214904860346 
-0.2461709255005753 
-0.3085634366865449 
0.1301660736010302 
0.5041116234565866 
0.2973187893588644 
0.09851856260877427 
0.1984327134117118 
0.4036247411429246 
1.507623018787336 
0.8725712792054962 
0.3195854662499417 
-0.3010050865026809 
-0.4348102822578147 
0.1483216403888502 
0.4473682447118727 
0.8629449048825121 
1.123647126568595 
-0.8193482313369594 
0.2484972915415543 
0.1728141727228761 
0.5950870044712424 
-0.9498372435367695 
-0.4929193548750732 
-1.135175633740874 
0.07379073452932064 
-0.136495722846307 
-0.503082549451487 
-0.9860550611139162 
-0.9790032283123625 
-0.4027159490757767 
0.3774656450244049 
-0.3079885629743388 
-0.372106928676064 
0.374414263942434 
1.000514014853939 
-0.739735997421361 
-0.6922479465976156 
-0.6604437693050743 
-0.5157475100602871 
0 
-1.519601100239441 
-0.1511805818975736 
-0.2724550124677405 
0.1437446004616949 
-0.5882794699379904 
-0.5283940159496883 
1.989582808249499 
-0.7333511205158384 
0.3937970121731551 
-0.4343352350509318 
0.690217716941718 
0.2979468606450661 
0.3579794687300689 
0.2365861459165753 
-0.6175663605426008 
-0.1396861143349559 
-0.1906927957211633 
-0.3415825504063575 
1.043192699149943 
0.6255718701262669 
0.475859439448903 
1.12448329489491 
0.05651002923656712 
-0.3961655377280697 
-0.3177347994559762 
-0.057905483346123 
0.4047628339060484 
-0.09906707332629394 
-0.2453578913194854 
-0.05073521634109394 
0.172675421734654 
0.9531634692123434 
1.622324821066528 
0.7455067779085773 
-0.2301363203964052 
1.07214477367376 
-0.3524850811598527 
-1.131204298124042 
-0.09247596580268293 
-0.1522833054210544 
-0.2938485480193176 
-0.1856703752757833 
0.4259703333157491 
-0.4048592336935813 
-0.3013130881212861 
0.3996832203724792 
0.2697783332010029 
-0.1188442513975774 
-0.4701950338327605 
-2.708202455252886 
-0.3405410838433258 
0.04790274151379294 
0.7653566132470749 
-0.2316636720838088 
-0.1488865835965125 
1.66641371519273 
3.148307887363028 
-0.1057370310861414 
0.06146906226344378 
-0.7722102593262411 
0.2151168482352378 
-0.4753297779692777 
0.6388463192341917 
-0.07328595715065402 
0.8668033754083276 
-0.1983583400147739 
1.336033515615477 
0.533992664171412 
-0.1414650007863522 
-0.456461181719677 
-0.1086143257897603 
0.5422113447122485 
-0.2211316618692948 
-0.1711108948002961 
-0.06853789834720755 
-0.1399623685491758 
-0.0007039626443823107 
1.628966645691129 
-0.6266378080784513 
-0.145495352989375 
0.2451700101255427 
0.1533175884184353 
0.02007052980155434 
-0.5865896559230942 
-0.9539779114524555 
-0.6427574245884393 
0.8983424731998287 
0.4177061354141456 
0.2442525391768739 
-0.02943963387857441 
-0.1608572718695691 
-0.1610910183382678 
-0.5465743969057426 
0.07111735692493988 
-0.3929503188650131 
0.3033858140571441 
-0.1406183662971766 
-0.7471546387129715 
-0.2023200323732683 
-1.114559941075231 
0.4069024365027003 
-0.4433161430568808 
-0.06670857018620453 
0.1430413338149253 
0.06761297254627491 
-0.6157234775301024 
0.431365980407991 
-0.0712796685440248 
-0.0134642835982016 
-0.04391247616686817 
-0.3259959758693367 
0.2350888874980054 
0.9430288741706923 
-0.6355411543513049 
-0.1261416549457906 
0.1083103998049073 
1.450331954260903 
0.1965416218284008 
0.2603734907154913 
-0.1201981569113246 
0.2667962018492254 
0.3968795880013625 
-0.03565191449027186 
-0.907538706079157 
-0.4601215559575539 
-0.1637189822418752 
0.2275232915527239 
0.3700301065293883 
-0.2300600910532408 
-0.8901334071132362 
0.1291355716583025 
-0.3210937347273246 
-0.05612923364731622 
0.2333451321518165 
0.6401513841671186 
-1.067239297701783 
0.2775713096096605 
-0.9554032437476458 
0.3134445306993958 
0.9085303154947507 
-0.429881961870652 
0.2703075402702439 
0.01071178293630241 
-0.1931603958508492 
-0.6177601518312138 
1.901854087446193 
-0.0761065002939724 
0.007059649888263207 
-1.071152483406213 
-0.352305659011128 
-0.003836129617348592 
-0.2828084350851427 
-0.7811083483109399 
-0.978066139085066 
-0.08454772944755343 
-0.3092453121012049 
0.9895023525607133 
-0.3152548757428352 
-0.03222565385288188 
0.6176553914792962 
-0.9669620055229308 
-0.1147784299064576 
0.4103947509765374 
-0.2494009368450543 
-0.2986778414729678 
-0.132491712505896 
-0.2861512066717394 
-0.6153728358841435 
-0.03859810863417003 
0.3977774323375221 
-0.2640041936220932 
-0.6778974333880342 
-0.7725627523246691 
0.1790732701280492 
-0.6588852742215929 
0.8638574774710276 
-0.5705850517142689 
-0.251247825156615 
-0.1474188987844034 
-0.4458270088896298 
-0.4583913059389929 
0.2676219734697035 
0.1254663423983383 
-0.2306458440778961 
-0.7492227232289091 
0.9886007473165276 
-0.2925492474641276 
0.4239250005549795 
-0.921830082960126 
-0.2277228199711916 
-0.354269465682265 
0.006998780900671446 
-0.1438958298508817 
0.2302021118141032 
-1.026583062602989 
0.266164572906555 
0.2388386480020589 
-0.143484405096289 
-0.7230859661614655 
-0.3962635558383381 
-0.6715456009398765 
-0.2146211641663359 
-0.5183381687805044 
-0.003077638817325909 
-0.4831350176768837 
-0.4267542664890968 
0.7103046961589233 
0.1054671382061114 
0.8973670436840574 
-0.05847336109214218 
-0.7351852999094902 
-0.5901107291107835 
0.643837049839457 
0.7805495773616445 
-0.6803408104176604 
-0.5401653999587539 
-0.2592351555814215 
-0.181181798670288 
0.6746184143542613 
-0.2614220563635116 
-0.2124003514818915 
-0.04092451485187024 
-0.07418489755733913 
0.957851655561989 
-0.04975307200871802 
-0.005261063687073133 
-0.118803598247319 
-0.554268311010393 
-0.1459639769211902 
-0.7294075064935693 
-0.3655834461686733 
0.4837631314540619 
-0.6283816189922771 
-0.5365603601673106 
0.7484901552117006 
-0.2860113874815465 
-0.6991731826706702 
-0.7102763029740405 
-0.04495931424321589 
0.3489889633743103 
-0.2121521740626321 
-0.1172934472552263 
0.1745770013664412 
0.5696288043912835 
-0.01051180462599059 
-0.08276224976617143 
0.3966400162980386 
0.4616159725214836 
-0.5668152861952342 
-0.8517528166907784 
0.428294078455537 
1.338022633801669 
0.4116943989913678 
0.4441825361946522 
-0.08998449997220813 
0.3107321689752144 
-0.09303297573409781 
-0.4912420373108405 
-0.2678142404854439 
-0.1181988304111279 
-0.8713541089234721 
0.7311643878640457 
-0.1720712665117088 
-0.4225548654643074 
0.2598508614497962 
-0.5031733240380606 
-0.3599102223265662 
-0.6534146145725694 
1.253940869376703 
0.3428514210589337 
-0.7931373420760873 
-0.4009442646015024 
0.08111990880227871 
-0.4754818658032645 
-0.4057569977168595 
0.206930693195695 
-0.01455004476151585 
0.1824491484126028 
-0.3174933927214844 
0.918802884278733 
0.1676030378900956 
0.6985834318402135 
-0.6656653775745659 
0.5283615131684936 
0.8470614394634284 
-0.2738678902541675 
0.07110174192849467 
0.02134164920874955 
0.2747940648444902 
0.9429347579924804 
-0.1068929705744708 
-0.5370937909639915 
-0.1441995673181983 
-0.3634620687878806 
0.05712833986204931 
0.02849892218667407 
0.8643394879891974 
-0.3447781510589703 
0.123194000529112 
-0.8158715837072111 
-1.185909272537963 
0.3829194701029007 
0.2056104935002115 
0.1138433366696075 
0.02568094393302561 
-0.2644633717849858 
-0.1329652879901136 
-0.09892777761433867 
0.6123660892680566 
0.3028021915512193 
0.1493929992736524 
-0.5509837736679737 
0.4162512284627764 
-1.711729483069188 
-0.1183033139458304 
0.4299819890541547 
0.9102089410005536 
0.6947138937922913 
0.7158582699858391 
-0.4083489883860361 
0.01624648546060458 
-0.05549937915938077 
-0.6325638886606494 
0.1361557432771485 
-0.1385412054377038 
0.002360808608763088 
0.2936062813242341 
-0.1740068311754558 
0.7529137361236707 
0.2686041789071244 
0.5395737803051869 
-0.1885743221140999 
0.1716105323692273 
-0.8301967812990758 
-0.9059382831430457 
-0.5891724124334947 
0.296835894281994 
0.4127885983905054 
0.7707322236243542 
-0.4020965090268604 
-0.07257281736386895 
0.4786596544715244 
0.2174477890188806 
0.6411425286331844 
-0.2948784788886037 
1.01630600192337 
-0.34846749272245 
-0.2221431370476502 
-0.05107952521943099 
0.1727830388088642 
0.3981527350985061 
-1.294376026874717 
-0.3503584217974517 
-0.2033306536563345 
-0.07056241381808276 
0.7777389651757116 
-0.3073625065717515 
-0.3877076559777145 
0.6644836545351265 
-0.5272005029358527 
0.5039620800510979 
0.003609450224061726 
0.223284189209382 
-0.5567547299920743 
-0.5526771639888417 
-0.1200190697448697 
0.07628507371242166 
-0.07898995232864142 
-0.7667251168156948 
0.5558436648826557 
0.2025545426236916 
-0.3506895900862987 
-0.1472932204985628 
-0.07200307302562102 
-0.4817467475621287 
-0.1285224839251923 
0.9212646190328055 
-0.5349098129782544 
-0.3389624692035096 
0.3430919056803697 
-0.03388507523046233 
1.33398349937861 
0.4242895701683202 
-0.1640945467891109 
-0.2777783539222335 
0.1950194881498545 
0.4906366198586496 
0.04176572259264141 
-0.1315073410392195 
-0.2559795050429184 
-0.290126622442675 
0.5804118004523662 
0.2324782289198118 
-0.07577831103247508 
0.3112958345931057 
-0.096439901869665 
-0.8203452415225998 
-0.03508970814021419 
0.9854089998754495 
0.2189239240400533 
1.060541719084611 
-0.4110183013702852 
-1.338191493145899 
-0.1639451009773878 
0.5042590692876853 
2.337336667883604 
-0.09175436106715809 
0.5980869674246159 
-0.3514716920554469 
0.1201705909206275 
0.2938837235260149 
-0.2094086864093111 
-0.1469791161178602 
0.4618786412661596 
-0.5355871876181268 
-0.4560350273560071 
0.3884730912546377 
1.021354310260439 
0.2656137611137107 
0.6557638448113047 
-0.03455201420358816 
-0.993180355095633 
0.6232418859880094 
-0.1505142441647826 
0.156180207172923 
0.5785020315714022 
-0.2105877161220368 
-0.3088684078198601 
-0.243771845862755 
-0.9260472750351397 
-0.06158184750576708 
-0.6309169634629611 
0.5911304491591781 
0.3071308079082824 
-0.438757409531963 
1.519119652657797 
-0.7215723821408857 
0.7427629266534813 
-2.074784354583835 
-0.2537674390021253 
-0.3894928294607174 
-0.5143487252701007 
-0.05537610495654078 
0.461723710456767 
-0.08764044146741506 
0.1762306182332226 
-0.05498293379468171 
-0.01457865482152633 
0.6260290163670904 
0.1761629867442943 
1.064346986966336 
0.2853979774613058 
-0.05542328812650958 
0.3904512156540229 
0.1309912766364231 
0.2096189316385331 
-0.5014484790727849 
0.09523315354549611 
-0.05602577499821052 
0.5744405678291196 
0.6975092794787314 
-0.07408271742500104 
0.1234616913588907 
0.3708578560124748 
0.3978424013096552 
-0.3974338813765724 
0.6535876405169494 
-0.880253998700479 
-0.5582015864544665 
0.1474704682341716 
-1.084361260592806 
0.9207876433239505 
0.5842398856560841 
-0.3980042015922191 
0.1993408454120009 
-0.4496957681500245 
0.1785998650107883 
0.02541303492924556 
-0.4197955242866955 
0.7695202239402268 
0.7288572040727261 
-0.541402561948239 
0.3021102073232526 
-0.2208390561204619 
0.6160088851213121 
0.2029816262278554 
-0.4448554205612579 
-0.2882753332522319 
-1.144508835624888 
-0.1056827644677866 
-0.5006718821275236 
0.278513282486835 
-0.3981558139112174 
-0.6847211831376785 
0.5730944476149293 
-0.1346401132816722 
-0.01532840875524987 
-0.4048328541177275 
1.055230895320878 
0.2130055538566124 
-0.1170355436366067 
-0.1556997208171166 
0.8387985776051949 
0.7328843731371738 
0.4556593621677423 
0.04092431425190236 
-0.1617467298265869 
-0.2659720498741227 
0.444361160306025 
-0.3026288247509939 
1.60631530059227 
1.117919590085552 
-0.3252381240535381 
-0.9144734566941622 
0.07725901239452905 
-1.262018423082234 
0.4535997214478569 
0.902780365087873 
0.0453938455373092 
0.071838117062864 
-0.1694182533356838 
0.7678189655846832 
-0.6286774743792592 
-0.6094382951483679 
-0.4766514903272023 
-0.0345897204602987 
0.0444187978129507 
-0.1349999930878637 
0.3436163928243551 
0.1456028989284387 
-0.7224491549829797 
0.8119451965513653 
0.1184854217481146 
0.02530509297694887 
-0.7183993040016191 
0.3741977247540626 
1.162368108859505 
-0.2385991466505862 
-0.002367435476586816 
-0.1620220443970789 
0.3629438924896639 
-0.1438490847258499 
-0.002942870004156649 
-0.2283171220952274 
0.997578352586232 
-0.3644397458588587 
0.08174691291662198 
-0.116190021939713 
-0.07598351285401599 
-0.174715528842541 
1.427081484497195 
-1.197979411234336 
0.4544702111085526 
-0.4199522164125603 
1.008743187530228 
-1.256794699026805 
-0.2167052533526919 
-0.1808507578297239 
-0.3965839218018984 
0.08064098226467371 
-0.1335264504507008 
-0.08880847489515457 
0.09844254739325484 
-0.6701276312817768 
-0.1062445418653184 
-0.8175541709958456 
0.3763688087412616 
0.03686329863710489 
-0.383118493349833 
-0.144012923223653 
-0.3578873204861215 
0.4218827316221515 
-0.4626208580476217 
-1.240770963935061 
0.9057096333356122 
0.04667970100766573 
1.096565167115237 
-0.737405241402163 
0.2737699895628871 
0.3091832989055278 
-0.2546689229605575 
-0.0103837155585145 
0.967876572976562 
1.127538102583661 
-0.1488118110281687 
-0.70498463819405 
0.3834831630917326 
0.1650215137643163 
0.2023457171640436 
0.5036890014125588 
0.07140877601941283 
-0.6241038701934841 
0.3791510266437469 
-0.5409595431836995 
0.3959640942538427 
0.2806561894242199 
-0.4079848340953833 
-1.017584378373361 
0.553794921933214 
-0.0565134296776291 
-0.1795218354544819 
-0.04783482086529161 
-0.04091082682498563 
0.7646451678732141 
0.8114679787212163 
0.1824416024103564 
0.4013247114598575 
0.5670939314111688 
0.6773313991672368 
-0.8541063409829777 
-0.3109233477340431 
-0.3402229887009136 
-0.1455341617872138 
0.3555828091942426 
0.6042556608789156 
-0.142357133018146 
0.2997789558391645 
-0.3964671730794874 
-0.3796105869661401 
-0.1525740913803606 
1.515727560197757 
0.04652421535139643 
-0.554010251389963 
0.2097148292471122 
-0.07047448528518326 
-0.1515458446953749 
0.1749335608678118 
0.2458967867756182 
0.4948295789042694 
-0.09926154140155449 
0.6181013186840537 
-0.02538453276927809 
-0.07162406564606817 
0.3999591912019533 
-0.4221947257547343 
-0.7308316372123009 
0.5763623639090988 
0.6809801350761636 
-0.09285831536324805 
-0.4344893518235645 
0.2366302767032214 
2.51970825069798 
-0.5330365036441327 
0.001585117493781163 
-0.08694070730177346 
0.07483248597698584 
0.6658941475077716 
0.1926791301359619 
-0.3247832727909046 
-0.1042194741165074 
0.04182993143613773 
-0.2509405192566129 
-0.04144171338297947 
0.5127864646772958 
-0.009114856831582837 
0.3396554024252227 
0.9680441328809606 
1.416051239575835 
-0.466532016852073 
0.8302425887172692 
-0.2421812215404426 
-0.6050470313897639 
-0.5007855851858589 
0.1980399066463612 
-0.1342493273548841 
-1.015684686547565 
1.272991393592401 
-0.1644473540011525 
0.11926763694444 
-0.2697127710327258 
0.4553074071036324 
-0.2096382760642585 
-0.1123972268938407 
-0.01818316137089879 
0.5535656860088871 
-0.1838292806185441 
0.5033403306497836 
0.05263393651294213 
-0.1008700495821759 
-0.6238524746109234 
-9.114074512456272e-19 
-0.03272757078268847 
0.3916553421731496 
-0.9251523661588263 
-0.4287482634263399 
0.08620402622943513 
1.080124972954261 
0.3103427733808715 
-0.07974195984377527 
0.0522856981376926 
0.06456454163991551 
0.9069652141327268 
-0.5211889728746583 
-0.5231519829250509 
0.07100905271478802 
-0.09670693803684913 
0.2803918759250889 
-0.05277149255214841 
-0.176525067401514 
0.5483163197170652 
-0.5278423136832679 
-0.4728530791736533 
0.4222554377363007 
0.1746938392140366 
-0.28869339726677 
0.7632494817055099 
-0.3317876912993042 
0.3443988580390043 
-0.08587337104965907 
0.8611316553215876 
1.121729562466549 
-0.8984278144648816 
-0.06630231665946461 
-0.4321222948594389 
0.2170201203169432 
0.7223521967990345 
0.08684848364275616 
0.4993504530043987 
-0.09937302001622958 
-1.022427133607647 
-0.09146328782907091 
-0.640603950986064 
0.06839113658473525 
0.00730574496616476 
0.3406037509253869 
0.7932338374466624 
0.8190917033738501 
-0.1782878456867318 
-0.4536571310753544 
-0.06105220958784294 
-0.1570951357291176 
0.06199615887773616 
-0.06953154348329815 
-0.6711308603796182 
1.080839737288731 
0.8255075431521256 
0.7220749060513004 
1.056088108810921 
0.5793792134896727 
-0.07539210521497165 
-0.7790476139409677 
-1.125592819712016 
0.008350331016877006 
0.2926040390544213 
-0.2714308954235576 
0.5740682350566995 
0.4631311077096856 
0.5991661824128568 
-0.4002603354943355 
0.1547156927798334 
0.06271718597521354 
0.606288228505045 
-1.064485717299804 
-0.3753844126283976 
0.6499768206688595 
-1.592889981245008 
0.08631733713201284 
-0.1109621479494551 
-0.07995726898782719 
-0.9589345115801363 
0.6317842746782264 
-0.1271204494559051 
-0.04624497252974304 
0.7324732317881402 
-0.4913914217456277 
0.584918810176701 
1.275308962127099 
-0.2588941848949516 
-0.8089378870430076 
0.683455181549664 
0.1255387791593078 
-0.01490374590191626 
0.08811892909977403 
0.1648441142878578 
1.03131355773394 
0.2590153946312752 
0.004899203518234029 
-0.4484560206832305 
-0.50229441566898 
0.0326311990587443 
0.3873186924965867 
1.423838712958413 
0.3837396518503968 
0.03570011684393854 
0.7674524388092639 
-1.0480363234771 
0.3178432032486659 
-0.2686057640648227 
-0.05853304983381765 
-0.1703622878808197 
0.3321776241163328 
0.1736375273283733 
-0.2586710957804875 
-0.2924985228930085 
-0.05077331337011459 
-0.01955692049085064 
0.155704364807105 
0.11279036649657 
-0.6936050584410042 
-0.4747993927793672 
-0.9418170030153579 
-1.045554709682501 
0.2470990951899896 
-0.7551070240999211 
-0.1510004771345625 
-0.1538169499696353 
0.006449529774119576 
0.333355683349632 
0.9590855192324542 
-0.1520884229625494 
-0.4763141732305983 
0.07895826491818841 
-0.2813205902379621 
1.230912994336157 
-0.1592039588260298 
1.219336144966646 
-0.3494081145212276 
0.8274310027862837 
0.004752652066598676 
-0.104335446107276 
0.8273816045674146 
0.693946725412191 
1.004668127397436 
0.4628044472702679 
0.795148631328577 
-0.178338307683802 
0.3003861163541739 
-0.05442861322933123 
-0.3058079806949796 
-0.3568683564982273 
-0.6803014168703359 
-0.3522566277069277 
0.4932020626150599 
0.03877618689563461 
0.7193505686479605 
-1.360692871139625 
-0.7481369109755139 
-0.4210109823741797 
0.3670013242050765 
-1.101421528694248 
-0.6340836698487999 
0.0274363600937517 
-0.1926185444294662 
0.08678904787568417 
0.6911742944217645 
0.2605624439875415 
1.444125909107732 
-0.3479313864645072 
-0.02917069405643473 
0.8196780631342211 
-0.7813457022670972 
0.04872119425459907 
0.8464446873752337 
1.096649267923749 
-0.1661779767017253 
-0.1315247005363467 
1.419578255183007 
-0.08393465784597598 
0.8708933090586981 
0.5195076174203542 
0.2731065815682394 
-0.8902873566407744 
0.5783687311231712 
0.5905769812883446 
-0.5291112505167681 
-0.2511210722605195 
-0.2213279076023238 
-0.1919159700924949 
-0.221733662323935 
0.6859032298734102 
-0.671570883196331 
0.4184664041943741 
0.5450929651557647 
-0.1638623725976487 
0.2998350426764922 
-0.6797036332178189 
-0.2790711981066496 
0.7990325853956854 
-0.127586591293212 
0.7049148914535395 
-1.336194740606179 
1.111115196949898 
-0.6931516201836564 
-0.05213707725827663 
0.2683968646553225 
-0.1303939056603181 
1.420683662271234 
-0.1497540325342305 
0.1713218551028151 
-0.1722492640048184 
0.1485375201547314 
-0.007732274829868468 
-0.3015113370905778 
-0.4752546825030902 
-0.7325221418889062 
-1.343352778991497 
0.06437592543952798 
-0.6875083671843933 
0.9605420505794294 
0.02929222186697368 
-0.18465089554603 
0.1238175825568702 
-0.08163150427118931 
-0.378490603637436 
0.4049503994220404 
0.5295354960746289 
0.5700397275719483 
-0.9159257504509734 
0.03125096578618954 
0.4603146415279054 
-0.7027632187251023 
-1.446582705947998 
-0.04799046655222226 
-0.1516549594432634 
-0.7057053783043006 
-0.05662736190332698 
0.5144512274510791 
1.054242505158945 
0.2339608203707531 
1.292498693916053 
-0.04985302936323195 
-0.1770778594017493 
-0.5343117575390071 
1.230421233786377 
0.00738766545138338 
0.2855579470827138 
0.3959483119447129 
-0.9814467821396512 
0.04431245571015098 
-0.1629103542650017 
1.329344385870144 
-0.4131420859265358 
0.1003187230144985 
0.4541985921346226 
0.1254822272110825 
-0.9880981862838953 
-0.1426047797208791 
0.05445072227411046 
0.2388362520890266 
0.6734238168773634 
-0.1422453019444434 
1.117537687912644 
0.5477229301651035 
0.9221522170893359 
0.4754894526719454 
-0.1953718167943371 
-0.02600559695062717 
0.9300028336772925 
0.3717970208355989 
-0.2340946594026042 
-0.08935042445017169 
-0.2075764338462759 
-0.4029922263415918 
-0.2470898147757339 
-0.03371755910733989 
0.03614411203649639 
-0.2484500834473591 
-0.1342089824345948 
-0.7336718347889806 
7.045468554379746e-05 
-0.1382575245995275 
0.0989396456320193 
-0.526342908138305 
0.6349097159140012 
0.1970502609141006 
-0.143266746969547 
-1.087880972403201 
-0.2017304915716326 
-0.0944132155674086 
0.2970369277979624 
0.280470465065711 
-0.6383696913556417 
0.4524724765352137 
-0.4527596535682279 
0.3900117169175404 
0.06640747848940309 
1.100922463921687 
-0.9587111554908272 
2.220748464828062 
-0.6585050027849241 
-0.4707431608764329 
0.8190975376981422 
-0.325485062066165 
-0.03778580635366582 
0.05375073109136212 
-0.9922010724559963 
-0.2233874243597479 
-0.05017595309499698 
0.2454940192476431 
1.059447611818451 
-0.2038085933659827 
-0.08356705386638562 
-0.2375829666424872 
0.9332826567161483 
-0.2188316241868646 
-0.4944872962811208 
-0.2847244384810117 
-0.1372931970109427 
-1.136822014021567 
0.7416484509965611 
-0.198629916104368 
-0.5978072660170842 
-0.287750869221542 
-0.1392294921437728 
-0.3339762084213292 
0.08054601502173966 
-0.01890754418846051 
0.959901173793221 
0.5727414206448174 
-0.3072597644364527 
0.05986545907454821 
0.03421889702228625 
-0.08704448433964221 
-0.01281233629733496 
-0.2935596290167797 
0.1585252319423769 
0 
-0.002090026940472917 
0.8192452277622343 
-0.06459698527849893 
-0.0006131137051199361 
0.3885376035556112 
1.809635847774335 
-0.7659616331305608 
0.5291663014840362 
-0.2969151926595809 
-0.7556337006188406 
0.5464147482606392 
1.756355981607233 
0.3289821555460462 
0.1502016561983066 
-0.0471080904138601 
-0.2023309527587983 
0.5662159728720408 
-0.09971017479171194 
1.402491830651437 
0.5318717471135924 
0.5093077766407822 
-0.01773774306895103 
0.9332185957174769 
0.4085996894669037 
-0.1249964612218563 
0.1769002966489188 
-0.6562401850513099 
0.1585975817986336 
0.5033986197690231 
-0.1433597445165599 
-0.3380939231285648 
0.4463002982991255 
-0.1812529748366477 
-0.8939055608413068 
0.02168633321287585 
-0.1157462209882245 
0.2809740485264501 
0.1994773836302975 
0.5263999779227545 
-0.04211149032264581 
0.841287094085552 
-0.6946995991485597 
-0.07680876118118896 
-0.1774672000175972 
-0.6160777848766598 
0.3667330717486511 
0.07284835958905936 
0.6596525827529901 
-0.4253223594147894 
-0.4344136658486523 
-0.1339939400053386 
-0.1724157849713543 
0.903396228212263 
-0.3458373121285714 
-0.1557130145555589 
0.8528700712776036 
0.4551487596946433 
-0.2060242819162774 
-1.013792558744991e-18 
-0.2561423558729352 
0.5499088382811251 
-0.3422580004228759 
0.4654259324624622 
1.257758960424079 
0.7637536799659264 
0.2903790759954886 
-0.261193299178019 
7.189615656294501e-18 
-0.8559089559673203 
1.349608777110198 
-0.2951995757614613 
0.1137880278116915 
0.2699941117338898 
-0.01211501871867947 
2.598265702670246 
1.527803020466777 
-0.5225298057954255 
0.6480985615753584 
-0.03900509273536681 
-0.5960911966096841 
0.8790062661573508 
-0.05328005782108307 
0.1549040214195057 
-0.2908089863335049 
-0.07385881799374079 
-0.7685524016864095 
0.9123582639307984 
-0.1975012344979699 
-0.01199973089709218 
0.1041000255997349 
0.6673029435534792 
0.2757996389214239 
-0.1418448134053567 
0.03224107369495052 
-0.5513456146499539 
-0.2646102291071713 
-0.1169220453663568 
-0.07925900192146258 
-0.3670129176569536 
-0.04854764331052189 
0.159453086951479 
0.2516134403686244 
0.5201004618744494 
0.5662191687881399 
-0.04555119897122516 
-0.6086025896846402 
0.2464993211276852 
0.0548480646900717 
0.09552684747750066 
1.02594970595948 
0.4470198548974156 
-0.03911810780713539 
-0.236430473653622 
0.3647534839564566 
0.5115788290908897 
-0.9244799277373904 
-0.01190282418671555 
-0.116866494893841 
-0.2520354330846082 
-0.3636726242060064 
0.8850013235487653 
0.08838610242513149 
-0.03263323095877834 
0.705459330437925 
-0.00194005857932255 
0.08304990582271463 
-0.6521747148889961 
1.244005219456848 
-0.3683433739374535 
-0.5556948720230201 
0.3243868530054054 
0.2137270219772004 
0.3455904926640601 
0.6755799076227917 
-0.141863263763527 
-0.297763474705801 
0.8751177483744803 
-0.05451480024970311 
0.2404486140046447 
-0.57752406492924 
-0.4440546087910925 
0.2919552108289134 
-0.8721782859488942 
-0.4700032061409679 
0.3472267341581332 
0.1626692770111446 
-0.1340950201621226 
-0.01007017430818231 
-0.1258389822807543 
0.01033104536184599 
1.262273193285608 
-0.2021570670323037 
-0.372906425677642 
0.5880856363453653 
-0.2736414002666641 
-0.02261062635821007 
-0.2922662962780685 
0.2409926201764342 
-0.03771661808684886 
0.05131001838306034 
-0.3858545385803825 
0.5013955780870921 
-0.5150552951482728 
0.6088343332901075 
1.034969732883436 
0.010348236450667 
-1.206336270616405 
0.3264385087713021 
-0.460797008911415 
-0.9963882543916815 
0.06490426162703185 
-1.040920421309702 
-0.3469035410879143 
-0.5420365707511999 
0.5625109852082725 
-0.2401545982276271 
-0.2882537721464438 
0.9936822526710289 
0.6609463036903324 
-0.1498769682983986 
-0.1361121659958234 
-0.03515805545289385 
0.4125236870352219 
0.2542364370945531 
-0.1388479610275703 
0.2873163928901504 
-0.2412797794015233 
0.1901348433633776 
0.5014226817167677 
-0.07814528569653759 
-0.5675024672624407 
-0.8943278712934567 
1.205025523441864 
-0.07344308582561168 
-0.3304412452041519 
0.8167035698948831 
0.09993014275429199 
-0.201930234500556 
-0.1354347763705994 
1.082821404433577 
0.08450268909779227 
-0.004655567133878312 
0.7348059837040353 
-0.6483636480526374 
-0.8230928041907639 
0.1381151512546418 
-0.7176390246445359 
0.08148643563896073 
0.3791886485832248 
-0.2585987545105611 
6.818615225397118e-20 
-0.2223663206738936 
-0.05147679992717343 
-0.2102035282776751 
-0.4740431652684296 
0.5894713355744701 
-0.4351039924241745 
-0.6270649783957593 
1.342051097199195 
0.1016681666882744 
-0.3002468636466576 
0.820421278578557 
0.07734879411391431 
-0.7501162792536847 
-0.005819261096641907 
-0.6469350544040955 
0.3330531909395327 
0.07423437714867427 
0.1468149251394533 
0.002309304190522778 
0.04674775968547094 
-0.3747948275892836 
-0.0997204583493556 
0.2975136261433201 
1.114928405681641 
-0.192924624962105 
-0.007848553120877519 
0.09915403510868606 
0.5182648965434103 
-0.8873412200641153 
-0.04352911099170712 
-1.0412291468559 
-0.06130780319877167 
0.6302629180543635 
-1.022596114758318 
-0.04933460657690992 
0.633132137708784 
0.1439128148893593 
0.09309571152945349 
-0.5412682409448969 
-0.2792467556040644 
-0.2307690884617808 
0.03605513929797516 
-1.180136116868459 
-0.5160295371163502 
0.3669059005614689 
-0.1235282368888038 
0.193173554684157 
1.155271709234693 
1.04979912879402 
1.606416405761295 
-0.2220269156445208 
0.8610864686532571 
0.2357800708251113 
0.3407794934739171 
0.3089666349552059 
-1.07404208868456 
0.2810000024224363 
0.2967222421640658 
0.01622437705800015 
0.3287670843410244 
0.09960604268053806 
1.464860895266568 
2.6874482951945 
-0.70710712574316 
-0.1629938522370937 
-0.1000665306235907 
-0.5910286465637674 
0.09475282140504346 
0.4742861825762599 
1.376306368086385 
-0.06715397994504703 
0.6164296115912506 
-0.3916037931480625 
0.5113547490252609 
0.1943343951376665 
0.16059536494064 
-0.07706876655419038 
0.4582659657053152 
-0.3293947358640701 
0.5095037763737009 
-0.0525389578394081 
-0.6195739419735838 
-0.2170947963288857 
-0.2187007823179841 
0.0753599832735279 
-0.5851649656577318 
0.634106416630798 
0.2600445798690712 
-0.7725536100719966 
-0.7045347401726986 
-0.01355390166712066 
-0.2067800655498007 
-0.159891338610738 
-0.3731109016700127 
-0.08593855724815674 
0.158070001018687 
0.2890171203076454 
1.105643671638031 
0.7074467292539597 
0.3251322766423232 
1.196072855106046 
-0.8133956045475182 
-0.08245121838683407 
0.1923472978182607 
0.3747004332649034 
0.3397008536826726 
-0.1286062981811505 
0.4809284938750951 
-0.06825556959461961 
0.8222068134410644 
0.6930158692715943 
-0.6283311274276103 
0.02773821391912789 
-0.7567216434532427 
-0.29925792834738 
-0.2296811935071313 
-0.002658853875950283 
-0.3279301938657038 
0.2103124526358588 
0.1989651797364386 
0.471581328858493 
0.4130116750390431 
-0.006202451856338834 
0.5779249661099064 
-0.140739166948666 
-0.02150102291958034 
-0.09862999091333013 
-0.07748564765489577 
0.0290252704269835 
0.11733086057379 
-0.5713104052624149 
0.6002575641619432 
-0.1520176882536234 
-0.1718958663378092 
-0.03385148613480593 
-0.2992367221153036 
-0.5484057328681687 
0.1602896999722394 
0.0288965828546934 
-0.09930249664973811 
0.1706451427227496 
0.1188654556890912 
-0.07071053060622498 
0.6074870460297612 
-0.4112204574432133 
-0.2350635381039626 
0.1440607980094003 
-0.505375163471027 
-0.04606632816521178 
0.2833531820889009 
0.4805122305060621 
0.09290012366107472 
-0.09769125452586613 
0.6726294793791238 
0.1195301178582739 
-0.03052476869952846 
-0.06731265853400395 
-0.4555841580279569 
-0.2873013791980496 
-0.2463833896111847 
0.2549698185458233 
-0.6906548176011156 
0.347993427033557 
-0.774831788877655 
0.5456432287985911 
0.2563602992909598 
-0.1400154469945159 
-0.9738404968327049 
-0.5082399151399817 
-0.003882816810866393 
0.2547611236757726 
0.5553471883463444 
0.104918676556357 
0.04348191584346784 
0.3667086969118677 
-0.03360032921408881 
0.8967496018025731 
-0.0413351959933687 
-0.03563369471290639 
1.510738837114145 
-0.01800791475268292 
0.3755619486869194 
0.4155111272918126 
0.645450216825259 
-0.1677576514943826 
-0.5484249399051652 
0.08270079410653206 
0.1270274998117314 
-0.2185783333796911 
-0.3906996567797033 
0.07870248967357445 
-0.03265156198020393 
0.1195115653706001 
0.5141520135213185 
1.117715008840685 
-0.0306852261495841 
0.7423672007793081 
0.2788502718098128 
-0.007837469703105414 
-0.1566869252041923 
-0.3847619377103876 
-0.5453548538963097 
-0.1848696974748491 
-0.5133027601556047 
-1.003845095368042 
-0.3391382835649961 
-0.145334569700191 
-0.02491740830547055 
0.0433354869112971 
-1.250151650344411 
-0.2345212932448465 
1.470935638613092 
0.2613702929526989 
-0.4420301208829662 
0.09240315525992486 
0.2858491490790343 
-0.334614060756449 
-0.06632135716364629 
-0.7564091483883044 
-0.2590799962414489 
-0.477887204221085 
-0.3750736642778665 
-0.5803378373400584 
0.2214966173496148 
-0.311328478516907 
0.2204432965593479 
0.2592720437850254 
-0.8970808578876989 
-0.7536338614420826 
-0.3083267508466617 
-0.2222390457165044 
-0.2252890373913234 
-0.1942721529175593 
0.08253907250634085 
-0.2704466060730154 
-0.06532291765287056 
0.6439331652549348 
-0.1840438949889712 
0.003487909124926656 
0.07233401535105465 
0.5892422655937374 
0.1360535772139382 
0.05636504227173535 
-0.001442191777900377 
0.1364597571521176 
0.228914865611809 
0.07790934829083818 
-0.4077390427288453 
-0.3752732959115473 
0.6226015426555718 
-0.03161451903166124 
-0.09073888993766174 
0.08307859208539303 
0 
0.18979761106882 
0.4551111847638848 
-0.340881887132402 
1.68091658767863 
0.2706440489194088 
0.2075200305380316 
0.4239321441067267 
0.5834960617482569 
-0.1799651403569263 
0.0977358355166056 
0.2221831595198029 
-0.1966204150885326 
-0.329566805728182 
-0.3322407759320843 
-0.03019365576927276 
-0.09109439403732071 
0.8106269724482715 
0.2442813495304187 
-0.01779926367597973 
0.0536123607568186 
-0.04574455332962125 
-0.3102940456739169 
0.5786037062011308 
-0.1667709866588576 
0.3955752874872723 
-0.04152388136670877 
-0.2290034600284078 
-0.001688561803550259 
-0.3790726130518277 
0.5866032791848327 
0.2181352326506458 
-0.1998063020989317 
-0.2752711082657112 
-0.4851356843507708 
1.004798420240401 
-0.01464689967030945 
-0.2884001613920414 
-0.04045248164781323 
0.6738928822195229 
0.1980357109629095 
0.2047040286380421 
-0.999761536573906 
-0.3204842594687279 
-0.2836155029948826 
-0.5009898216558696 
-0.009425363496068359 
0.05593621791211587 
-1.154684665455587 
-1.245445726168262 
0.4878858709938767 
-0.3745101436615986 
0.3439438513053261 
1.047548822126079 
-0.9406422986287571 
-0.3552664108655441 
0.3629868820800684 
0.2382738230214576 
0.6279819756533197 
-0.2032608496848876 
-0.06861678086437685 
-0.4653413627116207 
-1.71311953277181 
0.4317166392680484 
0.0002998968008939946 
0.08191448350849372 
1.437899058880692 
-0.09811394393993143 
1.399432688453665 
0.7918587590699068 
1.280960370945207 
0.2913396779128982 
0.03690295949692977 
0.6814710588681793 
0.5394473967527471 
-0.1024914032972274 
0.01511949073336118 
0.01525374085430664 
1.21292939106028 
0.4097780458873139 
0.7277690628199953 
0.5042664851790954 
0.3883356472082027 
1.08695626668679 
0.4844357643526413 
-0.9687973074685318 
-0.1084584138948043 
-0.03705087263394835 
-0.02062461612248307 
-0.15447641717488 
-0.5218488929619166 
0.1123833295062304 
-0.08570123501746486 
-0.05323681219954919 
-0.3741649245409868 
-0.1342005989731146 
0.6485610822774938 
-0.3437202201883663 
0.277317941980389 
-0.1510539904617946 
-0.5349019012140593 
-0.09538997190944513 
0.227415175313876 
0.1825664778660701 
-0.001180138793845884 
0.03147850963401792 
-1.347824366670469 
0.6260009469600885 
0.5919822494073882 
-1.803259944907538 
0.2810191280658765 
0.1378578408274131 
0.7239242154631362 
-0.2271070152562709 
-0.03259361215823754 
0.05347526493241546 
0.9825852981784748 
0.1520521725439604 
-0.01200115691686762 
-0.006400271633152368 
-0.8574512897852774 
-0.08130787801947433 
-0.06362901749302619 
-0.0486851861723687 
-0.8833147531173267 
-0.494274162113837 
-0.1652439385239314 
-0.1163782412347781 
0.5517342553603347 
0.121332326568922 
-0.7528935967631014 
-0.4085295228340396 
2.402570874862876 
0.9151852370731518 
1.036626145247876 
-0.6243321049340055 
0.1483329850952961 
-0.1538024332027234 
1.271326396167786 
-0.09186344184122583 
0.4339141323027346 
0.7458317749859306 
0.3905151207671411 
0.5466238763198664 
-0.07111024484446542 
0.2560358721759142 
-0.002766027772611582 
0.2207961688063401 
0.06816551812885278 
0.02036672761607528 
0.1269711296993957 
-0.2480078886926802 
0.02042592732596967 
0.08218041756413162 
-0.1091170549262897 
0.08021870957070983 
0.07197417952278322 
-0.2371896806492092 
-0.06364567809625836 
-0.2125448379614767 
-0.1365170225980228 
-0.2108335482846694 
-0.06316600271967436 
0.4564222006050092 
-0.3873913616236697 
-0.2824865918947315 
-0.8192710259172268 
-0.09074260656112115 
-0.1446436131680948 
0.3678432656433047 
0.3005866593634692 
0.2813929853829774 
1.226410237052892 
0.525029405706505 
1.442857990184037 
1.328691350205429 
0.01269673401870686 
0.7771448813903387 
-0.4037012530988898 
-0.129202291859124 
1.130809431458067 
0.3732322714095658 
-0.0167115817338395 
-0.4768727662027683 
0.2921003772734048 
-0.8904740153696324 
0.04789774971530694 
0.1345277372631145 
-0.03440436099445159 
-0.2832454470025224 
-0.3350518202247593 
0.4504637577504608 
-0.1743371220825441 
0.2101928419476988 
-0.5976980701422854 
0.232316371028892 
-0.3345759018141672 
-0.7445823355460043 
-0.7766167952648472 
0.1304548231880796 
-0.152510877066616 
0.2758721198441807 
0.4382283430659931 
-0.4388041467834605 
-0.01910744362717224 
0.2228337180228263 
0.3230231748086356 
0.6762902977869096 
0.4846909677116796 
0.2062792785153461 
-0.04663891695672742 
1.738476166892581 
0.01764368758350326 
-0.5551025823108459 
-0.2307843042155259 
0.4541641655090345 
-1.108988368648545 
0.3219487226535194 
-0.8293188044410631 
0.5611853461713563 
-0.12798438957804 
0.700477028070408 
0.03874538789119955 
-0.07526508697264353 
0.6021156585121755 
0.1776507955563565 
0.03200166077319478 
0.0341764888653582 
0.8666013368586172 
0.1790993766682016 
0.05247955302697369 
-0.1779280172300478 
-0.1237509840884779 
0.3409934110581742 
0.1777971236146933 
-0.03231379060944794 
-0.03569495837249954 
-0.547028520584444 
-0.51648938715451 
0.9336635580823456 
0.4313716885861896 
-0.07181332093299685 
0.01367972358188256 
0.9868525308608401 
-0.3967109332568879 
-0.3619400303460549 
-0.3654596637576675 
0.3663305031912975 
0.04698500408437981 
0.1576058843894672 
-0.5331260575186413 
0.699831816194757 
0.2107568446296645 
-1.128671402216355e-18 
0.1711141950993118 
-0.07524481787243482 
0.09111232294355327 
-0.7027340845700558 
-0.1300550955343735 
0.1961455479261445 
0.6621070397712505 
0.8750815585302814 
0.4007884023925863 
-0.05978429191892538 
-0.1181032529040388 
-0.2565078889511687 
-2.167874949378975e-20 
-0.0008677460486145062 
-0.9886631389818097 
0.2486166357782556 
0.295275142272833 
1.466420232015806 
-0.1132530492557327 
8.114575634696197e-19 
0.5666881533714764 
-0.7049278768427836 
0.05219710745572485 
-1.021238529812113 
-0.1150780304012856 
0.2732565040579669 
-0.02460370807242621 
0.5794104417848506 
-0.1430539576812938 
0.9007029494602752 
-0.6826577958971588 
0.2676962590976857 
-0.1635245636838777 
0.1838846945221209 
0.02340028062408803 
0.01781534106511565 
-5.802175688691957e-20 
-2.05829006182795e-19 
-0.3963086292192096 
0.3395077471004241 
-0.07042129392394074 
-0.5191343113843269 
-0.8060054503590776 
-0.2344541757987092 
0.5482744236395458 
-0.4590698121075589 
0.2607898594190904 
-0.0195516494419994 
0.1777534760967666 
-0.1671982021193086 
-0.007408896503234895 
-0.2258822444905791 
-0.8753580235676802 
0.0310154055538134 
-0.1945170620000891 
0.3909514101931496 
-0.2540034194359806 
0.04958017628897744 
0.0148058430970217 
-0.03187967152018584 
0.4336151574849492 
0.3874388348127868 
-0.3910047786312059 
0.9680946888799441 
-0.2194607050769746 
-0.1449587913968966 
0.0153037750319847 
0.09448665503224396 
-0.4000905293110411 
-0.03342089102246359 
0.3557688968012397 
0.004393137851103692 
0.2031100729308915 
0.1596534031976783 
-0.3220139638853564 
-0.2511600789029106 
-0.680088801636664 
-0.3303043439403061 
-1.025639859224405 
0.0323878299108112 
0.8591559387919018 
0.3513124470170498 
0.5738376849030854 
-0.04802420637352428 
0.1178064675924286 
1.13240257280042 
-0.235170833204689 
-0.3220800588020605 
0.1611517426185678 
-0.5947285494840373 
0.4109143669940452 
-0.2411198812893684 
0.06552374022913109 
0.3227213728443269 
1.397445842857934 
-0.7970661548225979 
0.4770262658568868 
0.1583079079482412 
-0.293321680786635 
-0.4117529813836407 
-0.03846339975827435 
0.005392841378443219 
0.1065251827710136 
0.3143373757294727 
-0.4937513716888208 
0.2518541639522182 
0.128887064157691 
-0.006463233854502729 
-0.538486489102072 
-0.8499456626543804 
-0.2544013405239627 
0.0470450365308924 
0.02840317670643083 
0.1134495769284075 
0.4930122020656967 
-0.117726324294373 
0.1190727367453803 
1.292148294595182 
0.407695985059895 
0.5504756251215369 
0.006801203450962334 
1.308476833707658 
-0.3368370570524039 
0.5849273771440734 
-0.5588387536466015 
0.7075924736787522 
-1.026310133835417 
0.1599493175229355 
0.2845288609711067 
-0.1894252870106227 
-0.2292324029655347 
-0.01615398083456972 
0.2354845280826875 
0.6157288365475794 
0.8412337467302121 
0.07800727841489596 
0 
-0.3845170614524233 
0.330232751823239 
0.3633152451195403 
-0.4805993209376163 
-1.316416696118665 
-0.4635518859686434 
0.6221337239390389 
0.09908530311219226 
-0.0876248187905774 
0.003962936739402581 
-0.1013127710414229 
-0.04676935307592893 
-0.6480328808801136 
-0.07749241764089934 
0.626390038511264 
-0.1448367715369557 
0.002466998569557636 
0.5961515335679715 
0.3582222608406938 
-0.5126609085562505 
-0.1588044680255517 
-0.1899427956031975 
0.5462769798299162 
-0.7205050998000524 
0.369947148851919 
-0.4375707974084401 
0.3555069988116913 
0.6655057875670167 
-0.9861047802226983 
-0.1166933635404944 
-0.3822322990929658 
0.4399357262196401 
6.328394907173691e-19 
0.02821610550741511 
-0.4590361311640153 
0.9079507028008468 
0.7553959696508243 
0.02447954499354151 
-0.4387425484903407 
-0.786912993520412 
0.2590057597640454 
0.3716526708290931 
0.01080490421420842 
-0.09975858730222296 
0.1194221355419519 
0.2009683433229663 
-0.06063255223838404 
-0.344928467533955 
-0.239970472673008 
-0.241100323450693 
0.5734006484006082 
0.00789137593986718 
-0.02263701987079197 
-0.03076581103660603 
0.08495392819348893 
-0.2771479277050949 
-1.254047542855742 
0.2164619276681454 
0.4442426712031934 
-0.1609877779053354 
1.125009865283787 
-1.083894154563513 
-0.02511569040689881 
-0.4539384030650367 
-0.1421535124826102 
-0.5421340827777665 
-0.02700747798121845 
-0.5638929733426798 
1.224526815164548 
-0.796245180430242 
-0.2766110856674837 
0.5665656886975563 
-0.03914692172904365 
-0.0580734100613686 
0.1853012981318542 
-0.2668718577810646 
1.241594056182205 
0.08677760023436024 
0.1907167623374734 
0.006043688054368794 
-0.03081131909048897 
0.0774538110185634 
0.3698123927873032 
-0.2539521009987474 
0.5218023361685453 
0.04146100289709567 
0.4716028381530985 
0.00393244575045741 
0.04048478119156394 
0.00593075279009117 
-0.09053841319755529 
-0.2468700813671977 
0.5400395779016137 
0.2846920332467532 
-0.3183185349642343 
-0.3387406300643002 
-0.00138989061184746 
0.462718293950402 
0.3783526242377221 
0.6480350901383034 
0.05155690104765948 
-0.01890197140136577 
0.00771343078108953 
0.3208034072723369 
0.8970459400057369 
-0.1330353678013136 
0.5694069272887866 
0.3751062087951304 
0.002459801604895683 
0.1907299005275126 
-0.2181184508902246 
1.040414690646093 
-0.00828143102223639 
0.8302938024082217 
-0.5210471752071193 
0.4017133616655874 
0.1006680029326782 
0.06110958479212146 
-0.1862345930002048 
-0.3861799474630574 
0.1817842947380179 
-0.007705731178895667 
-1.152108889568241 
0.1336821239718986 
0.5895082064685719 
0.6944797601090272 
-0.2151089745952649 
-1.523106094389728 
0.3497314811252468 
-0.04201106880928664 
0.4308967762368591 
-0.2388436257330954 
-0.05782821003218587 
2.045906964692503 
0.06992276307448424 
0.5443480723570654 
-0.1472289495208539 
-0.145417876521803 
-0.1456148341763671 
-1.085405597974678 
0.1400862387978291 
0.0708533534375969 
0.223424954715804 
0.07328402146077925 
0.3166372534552143 
0.636032632223512 
0.5879178125467339 
-0.4892176536795924 
0.6629911962292829 
-0.4312358636002207 
-0.2155433499211626 
-0.7986866673074271 
0.01403464103407228 
0.03468848622876831 
-0.202048907466251 
0.9641637815999672 
-0.1598807167500827 
-0.00908082718709503 
-0.2625233599619554 
0.3877251294875583 
-0.3529613812237558 
-0.8671173347602341 
0.1892284740676438 
-0.3914073398000125 
-0.1777625379216567 
0.0878154745383402 
-0.2795704666071404 
1.164963101901889 
-0.131288010137694 
-0.6921833488466629 
-0.3473503754782892 
0.5927740999167901 
-0.01873212960091549 
-0.03684181994522236 
-0.3377578114127518 
0 
-0.2186988766629024 
0.1012563401192596 
0.7258285118463829 
-0.1426799510068032 
1.232513684762222 
-0.02565559920024201 
-0.05202858190437077 
0.3138018003207901 
-0.3873901582629396 
-0.2059677793657854 
-0.01744565515789682 
-0.7438652825124539 
0.4241487815125205 
0.1505587959598821 
0.6262856471906875 
0.06717806259539037 
-0.1736655203060476 
0.4023352508491455 
-0.144436636147336 
-0.1127514781678115 
0.1819685207923067 
0.6372127576902642 
0.02480293163474897 
0.4025968596008322 
0.4726561918581937 
0.4699467980071729 
0.58614212264639 
-0.5274842536758002 
0.4404858337052361 
0.5631326133271766 
1.364751040491307 
0.3822663066776794 
0.08561717986460274 
-0.1223100168191028 
0.3306202529707639 
-0.1934796340144239 
0.3845784544482378 
0.4290082929773931 
0.03143118594481535 
-0.0007305917668188838 
-0.3545914872902113 
0.4913403101534132 
0.1753539100797543 
-0.1329028479858644 
-0.8140298982644549 
-0.01288447893674343 
0.01392432311169312 
0.2376158298335419 
-0.2446851956848326 
-0.5114149237445916 
-0.6284986442250781 
-0.5577611745528668 
-0.02308206871012913 
-0.07177454436445517 
0.9896964447229757 
0.2388901484290332 
-0.1945707899708931 
-0.1132214413179669 
0.7297773815352488 
-0.6210442517447194 
0.4228895297868829 
0.8595278101265593 
-0.36665662285106 
0.09066527501643018 
-0.05386527647162864 
-0.1131704441771401 
-1.415901854778661 
-0.3792695022316644 
-0.1519195796283865 
-0.01319502700380414 
1.292731586296034 
0.6176475985081945 
0.1578056634541014 
0.1582879896883218 
0.3114525438895333 
4.980553729855286e-18 
1.071000016176642 
0.09019722980711667 
0.6279026258565678 
0.8469692279675186 
-0.2750121750675524 
0.06496641038682627 
-0.02241370581861302 
0.2035152362668119 
0.432249884652568 
0.5719270697532478 
0.2909470241667939 
-0.593455046024512 
0.02542674535910086 
-0.4341919938012472 
0.5109820051934839 
0.2792414820185086 
0.02890203268129824 
0.1329689480576292 
-0.09311362047276793 
0.8776392311671656 
0.4931235803000338 
-0.3494351345755918 
0.04025486654596384 
0.02871722623476392 
0.9334951796964291 
-0.01968853247100284 
-0.729919254334464 
-0.0716988623235784 
-0.4630386141509673 
-0.4176992428703283 
0.7488358262147833 
0.0449106804722807 
-0.290079699812429 
-0.1119560562942726 
0.4515679158931148 
0.06192651988054641 
-0.08983480833404196 
0.652855063184668 
0.1432523337838594 
-0.01257929615455742 
-0.3965953690881177 
-0.07118261433585189 
0.3517988229527132 
-0.3881637080412642 
0.01046914037374577 
-0.6575229934073243 
-1.18914250025419 
-0.5578920732417921 
-0.1637797298577831 
0.4359756233804198 
1.025312973783385 
-0.4805174536009088 
0.5325969512669109 
-1.059211993603131 
-0.01012689582680553 
6.844026213814747e-19 
-0.4134432334994371 
-0.1003887074552193 
-0.1770960752568092 
0.01589446317610076 
-0.02538662762009226 
0.1256233858058431 
0.09607143383068628 
-0.2233909177294884 
-0.1946189745125931 
0.06119477188558451 
-0.3586255147337691 
-1.051993790180743 
1.361151505256741 
0.3533293068635733 
-0.6691011697679156 
-0.6828983815560187 
0.1659362053603078 
-0.6293073085879519 
-0.4728678880392316 
0.04393505316001355 
0.01590810617383105 
0.01968464925002465 
0.234994849238344 
0.5606686581179204 
-0.09102512152198575 
-0.5951532980304201 
0.9474719192064046 
-1.096907666694319e-19 
0.7648785793895461 
-0.5818497050843002 
0.1248129880052389 
-0.4568872289167381 
0.09954356232895829 
0.1143977201474325 
0.1839215802046791 
0.2212801370069964 
-0.15632950299962 
-0.01926301894854821 
-0.3244344866472785 
0.1416726539838093 
-0.6328903960099583 
0.006593296155224922 
-0.2599400938222712 
-0.4139411002616027 
-0.04702966524560365 
0.5028314794679699 
-0.4213453157292537 
0.1183682067969637 
0.210257424884268 
0.07060528960925828 
-0.3237713228362439 
0.3376857934968363 
-0.3615375671095662 
-0.006982127353316696 
-0.3204881738342548 
-0.1509784055389509 
0.03806308221587288 
-0.2105550048891778 
0.1100708429993367 
0.2311031862854364 
0.04935893394954675 
-0.06380675257122061 
0.05755433566688412 
-0.4045889252493845 
0.07873111622469088 
0.06339922938018103 
-0.00262627216122642 
0.02404326315469522 
0.692403817869216 
-0.3499255278985118 
0.1650816390007843 
-0.9033480998223604 
0.7327745290236249 
0.3513754918871145 
0.5181834741381619 
-0.1210561602426956 
0.06597724937347255 
-0.04469588067192459 
-0.4517383213963495 
0.1603006777130315 
0.2550339823447086 
-0.4301533870432907 
-0.5442643754674906 
0.7414143288890723 
-0.1124098412824411 
0.3584730096045359 
-0.1740454847882143 
0.1035973831794701 
-0.2103445367841287 
-1.076489762237441 
-0.1431113930212401 
-0.2112942489454597 
-0.2498903494780505 
0.04670079230297596 
0.06842808717259814 
0.1802704210750775 
0 
0.3739792552844693 
1.18716558791968 
-0.3301619919003244 
0.1549259393372968 
0.7280335553281003 
-0.8211015199014106 
-0.06469690640282744 
-0.8756358903109879 
-0.5666164361329473 
0.6786115418972635 
-0.1879533123717111 
-0.07489672668039152 
-0.6093837242468977 
-0.1512465731532678 
1.223685287052411 
-0.7252481365768201 
-0.2074670836511157 
-0.141933998126846 
0.3446214544633496 
-0.0447920769827943 
0.8001801650189153 
0.730651440534928 
-0.1035056116542786 
0.06898547606138099 
-0.1296081592406036 
0.07101659110557847 
0.3584463269590528 
-0.1283051871175218 
0.7786740925335597 
0.4584727419423498 
0.2791119987541902 
0.03237876420218282 
0.5753529367540176 
-0.2690943005661227 
0.7251548824679954 
0.5436494779824154 
0.3403602510559786 
0.7185243261315815 
0.07911162452230325 
-0.2907842761077889 
0.1005016439556813 
0.3727110457666431 
0.2867341484746462 
-0.8622030476879963 
-0.3258956885636921 
-0.1406173941961739 
0.5932448081643514 
-0.6615466346736116 
0.6564705452181473 
0.2047436273736504 
-0.46266804283322 
-0.01868126757191885 
1.189917981139289 
-0.5841238622670162 
-1.068690256489145 
0.01531144429184123 
-0.1820925523327117 
-0.04342572133257435 
-0.2952032792977027 
0.1287355980061172 
0.2758660678722927 
-0.4386010999436927 
0.6182567963589191 
-0.06287504890573885 
0.08744686070651049 
0.01844890599326738 
-0.4070665216873063 
-0.7312725861385869 
0.0960859510021773 
-0.3428433271367514 
-0.2890218939193663 
0.8913948467699387 
-0.1689863413279603 
-0.2443461991148606 
-0.1462474544788339 
0.721580989794839 
-0.07172966378423058 
-0.7690272292593402 
-0.32366172797419 
-0.4272498172125191 
0.9011066376074298 
-0.2306808832779806 
-0.5606593802889059 
-0.003299939614459314 
-0.1125489300117776 
-0.8538053014460291 
0.02293996319234846 
0.4211849971033012 
-0.296900556439084 
-0.3923394993973179 
-0.07189456911548521 
-0.1945747237430448 
0.2872437726739295 
0.3112413368040743 
-0.498789144577602 
-0.2534357585280902 
-0.1972338503838491 
-0.8691436045020222 
-0.09596911437332151 
-0.01229057869244953 
0.4275561122861726 
1.235827034714687 
-0.5226982733366845 
0.2600013983139337 
-0.1039905360771883 
-0.4522792710053528 
-0.1429201464300064 
0.4174944652781313 
0.08152012501045452 
-0.1676335905742146 
-0.02428149320856125 
0.4252681212155495 
-1.108154473563882 
0.8644983113188311 
-0.004386921304115897 
0.006385776542719514 
0.02768194753728442 
-0.05568302153182191 
-0.5236916597764724 
-0.9289807075487601 
0.385168485382321 
0.3308727020792979 
-0.4445565710002348 
0.02376309263646322 
-0.06967350355040845 
0.6772659186255806 
0.08627168197213375 
0.2633293766086607 
-0.2790036449256018 
-0.5058095816649486 
-0.4988735110607406 
0.1840993752349988 
-0.0404401351761021 
0.1199414571142316 
0.1134141713121431 
0.1473069547325457 
-0.006691984199652052 
0 
0.00268247345334502 
-0.004824173384843281 
-0.5179784960025057 
-0.5010880316957028 
-0.07505812484323011 
0.4575197631622052 
0.470486544110309 
-0.5758185337578586 
0.2629434785182259 
-0.2727347939366322 
0.1070474570863571 
-0.4052098220729823 
0.01015743757096738 
0.07800648067796898 
-0.005781442149122359 
-0.008076186641888122 
0.3031160473767479 
-0.03023249667522311 
0.9505482970957501 
-0.01746536644927777 
-0.1883909674234193 
-0.02061920495168969 
0.4257055962971886 
-0.1874660421264162 
0.2407235469928248 
0.006091148845830303 
0.9722354453875163 
-0.5349790550508861 
0.08274964101771387 
0.8188514307980579 
0.2813300151622599 
0.5189525616753881 
-0.1464252931622737 
-0.1688371174174192 
1.257183146237581 
0.4830367638099845 
-0.0106182959412802 
0.4210679173882834 
0.1006683741116562 
-0.005644981376112147 
-0.3643160631105821 
-0.4439147821645736 
-0.004648304269844999 
0.2421732773389246 
-0.1941064246760746 
0.6817854043423868 
0.01887055202174628 
0.1496035292158793 
0.03679221990752778 
0.5194811884556051 
-0.2862560192715817 
-0.3541640409822346 
-0.05732116956989429 
-0.1979414598425009 
-0.2218301703279647 
-0.2915231171041505 
0.5705517341085941 
-0.1833258267348299 
0.7603567756861755 
0.4020796797242339 
-0.3639910432515318 
-0.183098314127957 
0.4418857263500957 
-0.2282019871098146 
-0.1340204859553481 
-0.1547247342389461 
-0.05058756276056074 
-0.342212503682901 
0.3616458684520155 
-0.00266348014820288 
-0.04958352941032222 
-1.158642487945953 
0.454787626502656 
0.1035527865341332 
-0.4331948991661715 
0.1731796526046697 
0.07393783835046497 
0.07745005343982792 
1.052171415821474 
-0.4508195051278392 
0.04535559351300954 
0.07340917708236296 
0.51212592322964 
0.03247816394785934 
0.1602589331771523 
-0.4147193167973082 
-0.03188036482812263 
0.5909598850406583 
0.007569666892273337 
-0.0985452690396704 
0.3445285926607922 
-0.4089494693606254 
-0.2710735797467993 
0.2279204677045281 
0.3193896756018468 
0.4802252808574555 
-0.3082559847309851 
0.003495292133922268 
-0.2279822051326378 
-0.02853910755710695 
0.9220243420781529 
0.1033581083697661 
0.1816271063580149 
-0.5206748134638536 
-0.03481906938935025 
0.8870208649975703 
-0.8538962658323669 
-0.5229812399479593 
0.0150911087688055 
0.2247434669309566 
-0.0236757082259251 
-0.7607508549559157 
-1.098035030752832 
0.306750325615015 
-0.4787345027188089 
0.3174865826113764 
-0.07854283398812041 
-0.3652344820467596 
-0.3926081720508107 
0.7300603052431862 
-0.03685314338385673 
0.5116269538090837 
-0.1348545563216113 
0.6005624438055414 
0.0007250866139514877 
-0.02810419378993074 
-0.2831617229763192 
1.242826032793507 
0.03668297857730376 
0.02376845027742998 
0.2927726981278016 
0.02234262602828926 
7.928228386300251e-19 
-0.03029449322506556 
0 
0 
0.07987039739274834 
-0.04293023670232931 
-0.07679234287307764 
-0.7301725791847853 
-0.6293789026252742 
-0.02886708236471368 
-0.08604257204629642 
0.195403700009465 
-0.3568356203762375 
-0.09752941035233832 
0.03023050966576876 
0.2305864881063043 
0.2014430600283628 
-0.2238219179409572 
-0.532880491552833 
0.8890785669190786 
-0.3859214867034914 
-0.1961173195892895 
-0.1036833569344915 
0.2181661570739374 
-0.04102444380633548 
-1.28706593063722 
-0.1714901039329133 
0.07697041221058253 
0.1988570656279754 
-0.1818481259002253 
0.07366044072467802 
0.7733783081204415 
0.1225445598219701 
-0.03343083472962249 
1.47575192147972 
-0.1071548884290808 
-0.1925951110816517 
-0.3102478934850292 
0.01369989438088425 
0 
0.375287628574708 
-1.050489202009914 
0.1089960299011057 
-0.2607363903558995 
0.2818198821003766 
-2.742269166735797e-20 
0.8354948540861425 
0.4763036566534796 
-0.03301824103716859 
0.3422038077017396 
0.6049209072191311 
-0.04233705754600209 
0.08209985074323031 
0.03277198368160437 
0.4168737527905807 
-0.222263707779766 
-0.4604540323545631 
1.376439972615206 
0.2728298025142391 
-0.2268768319771715 
0.06433627641608199 
1.085404028293892 
0.6033534466697079 
-0.02888768473605855 
-0.4276243176922337 
0.60309680756918 
-1.536336127868514 
-0.4411693638700042 
-0.1004295773444048 
-1.726672801626153 
-0.3259163251653361 
-0.07494720314199331 
-0.1009123819771194 
0.8441333122200838 
0.5131644535192088 
1.027117074602585 
0.4195688784148141 
0.4311084114258963 
-0.5480453375673843 
0.2289226900635544 
-0.8681018019351431 
-0.4892656607616713 
0.6118285921689643 
0.1050191773245299 
0.4090832626204776 
0.3721631431327965 
0.3996630141239862 
-0.1850543774078949 
-1.097754699641573e-18 
0.1271794922340949 
-0.04994885364227741 
-0.08657722977652937 
-0.03290902020518123 
-0.4260966642050398 
0.4215252722239007 
-0.5280474835958155 
0.2943515959272716 
-0.475008549933906 
-0.04097970847519976 
0.4591125653171694 
0.4441965973636794 
0.535998174969836 
-0.9008306694288823 
-0.3565002465061688 
0.02025842487544928 
0.5748396284053503 
-0.06106136702018093 
-0.1169011348643344 
0.4923962551763068 
0.5927928703202107 
-0.368440143832524 
0.2586638685612687 
-0.6251552273118898 
0.5497278096903538 
-0.1851161830067809 
-0.01450271120862867 
0.0431044411248046 
0.07284205202297599 
-0.02467878524770661 
-0.2651398684260967 
0.07929304593067901 
0.6505140982476819 
0.3900876595634185 
0.4190781354617509 
0.177245082938927 
0.0005604499788745892 
0.5659006652689113 
0.06598872554973768 
-0.002437807056950403 
-0.6038144045953526 
0.4923948374437594 
-0.3674508051169072 
0.3266838547295016 
0.01796145346719254 
0.00889383705554659 
0.261495662505226 
-0.7460392034169928 
0.7159791885165963 
0.7979763945382757 
-0.0114418904139674 
0.06349801537486884 
-0.3137323095945722 
1.069303992500316 
-0.2127263968221086 
0.5516026218770226 
0.3593159681631946 
0.2729096768988581 
-0.4488697927345219 
0.2083817730196562 
-0.3611662854747162 
-0.0996026571232302 
0.6480054577953169 
0.04843484411446668 
0.7723405520397018 
-1.294388694218128 
-0.5550950418632331 
-0.02634255219674413 
-0.2581966109477038 
0.1820447474081117 
-0.2588621406862003 
0.08253085227848096 
0.3157157700671044 
-0.04416959411107081 
0.3218200854183638 
-0.02057305585338829 
1.206830832865226 
-0.03026581443115012 
-0.1561341113945973 
-0.8797412202426693 
-0.06499326904491126 
-0.1302263916358316 
-0.01482866206876715 
0.211374512545194 
0 
0.02725224770049616 
0.002329115669770608 
-0.2183184954931627 
0.06678873634366474 
0.01796568010599224 
0 
0.2216461342453078 
0.9592154324929616 
0.07450095610641931 
-0.2821399062500728 
-0.02537278144786687 
0.05207990561602249 
0.3283270294461449 
-0.6481666680560771 
0.06309545444585526 
0.2904812636657795 
-0.4940061799567715 
-0.1432162320230914 
0.1599212500717396 
0.1234045778654808 
-0.6517842465435815 
0.3192428582953275 
0.2926994473150933 
-1.126155458571449 
0.5505311631987138 
0.6986750997056985 
-1.376428539288238e-20 
-0.04684747481462418 
-0.02705992243297597 
-0.179694605951415 
-0.7446865591851681 
0.9742688991312927 
-0.07510011775351849 
1.478288396423122 
-0.2042718436785279 
-0.1458357357447666 
-0.02427392745723305 
0.08028173786728567 
-0.4481791607500176 
-0.01071269580612848 
0.009945060699117337 
0.004950848240560848 
-0.04311686370235725 
-0.5557799451952087 
-0.0703726451105269 
1.107969651474581 
-7.170663294099686e-19 
-0.105487702489588 
-0.3068194190045624 
-0.09113895572443578 
-0.234437596766891 
0.0336510798034603 
-0.1363784160825707 
0.001966306160586041 
-2.541098841762901e-21 
0.004044445192622026 
1.066395868324969 
0.7538955487295875 
0.04964555832881906 
-0.7990267951738472 
-0.3091513421357984 
0.8544888285367063 
0.2518280659890473 
-0.5766008249746638 
-0.4008487448357439 
-0.08293984572557446 
0.5297577743447083 
0.6965228227835815 
0.0737018397495779 
0.0690071111615103 
-0.1179585003419981 
0.2494764028367153 
-0.2362501022438857 
0.3566517454761101 
-0.06131256524676104 
-0.5613091369816731 
0.9244347696466813 
-0.6425554991349843 
-0.05223661424651387 
0.2710254180684602 
0.6015416898871303 
-0.1924228513612733 
0.4938195300984123 
-0.4657274076809776 
0.05037773841881835 
0.2579193898868201 
0.002450308867996757 
0.1367135831129941 
0.02870342961928224 
-0.5862794705118868 
0.03980653556373718 
-0.004271910160786773 
-0.1805318484026255 
-0.03577830006665286 
-0.6639504053321386 
0.02966560124647363 
-0.1375669087893854 
0.8382366538580308 
-0.2325487204999213 
0.2339666513351185 
-0.3112619773129254 
0.3066149457619065 
0 
0.1094772345648305 
-0.7491164958237313 
0.3737843257721458 
0.01720819728886565 
0.1433487039273764 
-0.3131488176791846 
-0.2549068085042794 
0.01013051127071074 
-0.002865907117737318 
0.03522600542711053 
0.1138709747170599 
0.0006692030853110924 
-0.4251334475900775 
-0.1462497799512789 
0.1831966428372934 
0.8763191842015835 
-0.08709305151091067 
0.3551371081221111 
-0.07612453308993072 
0.1027430636545857 
-0.4050862159434525 
0.4757672141036238 
-0.05137555665233733 
-0.6930821154197186 
0.3671910481759231 
0.5273038726890042 
0.3712013335239095 
0.4697092021883896 
0.4734467829951134 
-0.3780394042240507 
0.1877956738292321 
0.0841312422352638 
0.2330469713328022 
-0.547530285254171 
0.102246804779642 
0.3108996051694881 
-0.2701308462409842 
-0.6039673080683136 
0.3551640052583685 
0.02173867373583609 
-0.7282325355791599 
0.1690667919265209 
-0.2664649201819874 
0 
0.05754847524750681 
-0.05261526256617454 
-0.1460478496463614 
0.2462243659636353 
-0.539453819689052 
0.01770071761182385 
0.03093720401235534 
0.2128383540410121 
-0.4045548430388971 
0.002067846445928603 
0.0521643113050189 
1.250787546706815 
1.004019684818831 
-0.1132627839158204 
-0.9005514425256579 
0.02434136374187294 
0.4276585522917113 
-0.3917774723495016 
-0.5909185485304099 
-0.1517194237196292 
-0.1100175378840758 
0.4705104836641223 
0.02903368611148935 
-0.1554267404208178 
-0.0316485677351603 
0.2162036749770975 
-0.07917975763718046 
-0.6035257119900427 
-0.2306626956031078 
-0.2880829575965606 
0.4911878553129098 
0.1881824878477433 
-1.204362326160728 
-0.1852768202070685 
0.1495183188422818 
0.2148525268473998 
0.5470755732703829 
-0.2904980766576626 
-0.5636790854352315 
-0.2490884328299027 
-0.266687906669376 
-0.6976103339362117 
3.227057886184955e-17 
0.2112475974871257 
0.6138384002724026 
-0.1321323573836983 
0.1382740483138601 
-0.2466148995755169 
0.2602983621163958 
-0.1821577929063016 
-0.2802457655077321 
0.6857516982715274 
0.4077769231318864 
-0.2565811853946858 
0.9904305007040982 
-0.2506180160091201 
0.8976751805375652 
-0.3665234730638123 
-0.2475974895320656 
-0.1535989556941555 
0.7910224667001469 
-0.5409647788049176 
0.1533473083783703 
0.424704029972961 
-0.3569883470795734 
-0.8027248195589665 
0.447821673340341 
-0.2073920358987523 
9.191630966689244e-21 
0.02825431333585012 
0.03304317963310522 
-0.3686171603438946 
1.036127680720093 
-0.04712131903684095 
0.1679671867389426 
0.1005624357271738 
0.159760924169123 
0.7174052918860666 
0.153458501277956 
0.1956013278931576 
-0.4440039579095986 
1.331078022031736 
-0.04013953700188577 
-0.04689165438545739 
-0.3522153513326253 
-0.3413057060176762 
0.49463683755827 
-0.08457853550294135 
-0.0209562977376276 
-1.105284505433218 
0.113660665111774 
-0.2087888638913306 
0.2206887324304308 
-0.01444810554110256 
-0.4592632555314986 
0.04578359277817336 
0.03984959033548852 
0.5639500836888814 
-0.3291690150067356 
0.2538068765886775 
0.2684788169924302 
-0.2094756518186772 
0 
0.02142350497880844 
-0.281819237182929 
0.3833605476811765 
-0.3160421484815837 
0.4425852970216364 
-0.5935877660005029 
-0.2104613774674371 
0.3594863312811774 
0.2087586591555154 
0.5375719534807984 
-0.1941793433465075 
-6.464873090800041e-18 
-0.827205898363464 
0.2759235190812348 
-0.2594772660034547 
-0.01079256859275129 
-0.3870607532743003 
-0.05073572411923273 
0.1538404988996235 
-0.6822970559449262 
-0.02800403992286934 
-0.003116615119879479 
0.1253531883507602 
0.001659129311299432 
-0.3168443339274409 
0.09472451016728613 
0.3247912873420966 
-0.2004952935485556 
-8.120928381800605e-20 
0.0004410738869494518 
-0.3301881889915151 
0.4589481532981264 
-0.7529073470470543 
0.4128191879452353 
-0.1352313066230827 
0.2866469473157381 
0.8591142321511084 
-0.1048192792428783 
-0.8282347529183474 
-0.09571448475551667 
0.6065902229127093 
0.06039186873726628 
-0.07665795989015901 
-0.3396466624502211 
0.4869816614645027 
-0.1653859049668743 
0.03642469583509591 
0.983446892285095 
-0.09679637672051584 
-0.02999351659915258 
0.1477710385143681 
0.005837510292226507 
0.6532954612008314 
-0.07206370240240095 
-0.1628675258384514 
-0.08506485478863163 
0.2013397047214608 
-0.3141695087068641 
0.07761163790240454 
0.297279432318185 
0.466159352609116 
-0.2578046062802375 
0.02732585253379176 
0.2685933182727169 
-0.04950784941441073 
-0.1205782271716332 
0.04422363219705389 
0.4832069421254754 
-0.8565777175386211 
0.2128570956823587 
0.7575882514547427 
-1.050582442725146 
-0.02684117425287799 
0.6211449847834696 
-0.3100904687664358 
0.01502022030619747 
-8.381391013081302e-19 
3.329368878301434e-19 
1.472023389094674 
0.7323663220206398 
-0.5180179003682664 
0.1921126095080385 
0.2685196593733135 
-0.06881236395394798 
0.8305983240576654 
0.08462124060026123 
0.2263191095692729 
-0.02155925564063849 
-0.1290256551580502 
0.0305023208793945 
-0.009683455799622688 
-0.1861132883575971 
-0.006151518929776599 
0.1413093531693041 
0.4305355247590924 
0.1367985354556774 
0.4818966825444396 
-0.2756651954247369 
0.6283838457254072 
-0.286676275977633 
0.2689961158824583 
0.591647093524437 
-0.1266202948933499 
-0.09142065527411714 
-0.3736357783908766 
0.01732185040561489 
0.1215157461840345 
-0.1657409008453236 
1.01484001066303 
0.3860728015195785 
0.003206584903679476 
0.2130982389894096 
-0.004222329901029971 
0.1495088856431612 
0.1378591784175268 
-0.003635528787393201 
-0.2671517137959289 
-0.1847543101448375 
0.7784552233041856 
-0.03534896815893915 
-0.03002389911403907 
0.2212303412516929 
0.003962045695763129 
0.2505561041699161 
0.4567330216186955 
-0.004439284472774136 
0.2773557039773646 
0.05868727678090148 
-0.4892949240593973 
-0.0867395402807524 
0.04185008724046793 
0.02164362527490393 
0.1055494309394064 
-0.1725565350482089 
0.01044565579015041 
-0.6641188024405549 
-0.01773476115470138 
-0.1044547718760372 
0.175495879267005 
-0.01294762722335119 
-0.1415019282099984 
0.03454247941165982 
-1.23497403709677e-18 
0.1003817583188236 
0.1075970598522147 
0.1569023708730219 
-0.3049830258388626 
-0.3212338237944139 
-0.6124812193159201 
0.3536788989156253 
-0.2565184676256274 
0 
-0.1655717887032743 
-0.05562184162814155 
0.775535489957028 
-0.04369222242199254 
-0.02309540219685972 
0.3495696462170742 
-0.08230860903443737 
-0.7094822402493859 
0.1024162397322394 
-0.04194340960890823 
0.0554271832334557 
0.09230940910766987 
-0.4176309504850138 
-0.1718297516237917 
-0.906886509400226 
0.1553759515384835 
0.2139668149247126 
-0.5959131236950483 
-0.308333268705683 
1.000870865887618 
0.1844438294087329 
0.267660077775869 
-0.06713717172885476 
0.8116604355548647 
0.2613603639386153 
0.7927634352206215 
0.2862398395411443 
0.1069209427240485 
-0.1062942532441628 
-2.176874674443552e-19 
-0.06897450037352194 
-0.272725211435202 
-0.1188525418998356 
0.1798743067458255 
1.039481694633535 
-0.7482000831741102 
0.4088226330563952 
0.07855946985890734 
0.1564864326067915 
0.7484089787065302 
-0.001935367707759788 
-0.001282183764713809 
-2.628978510040535e-19 
-1.530819956665005 
-0.2997507803184311 
-0.316014250892599 
0.06367567451664756 
-1.040848491694986 
-0.00885851570113832 
-0.07890179269209364 
0.02147310898375929 
0.1989726215915853 
-0.04458337439185917 
1.523328902341225 
0.1842538187879817 
-0.07273708086132651 
0.09242891127345583 
-0.1851395833000663 
0.07491757867540055 
-0.4762673675055922 
-0.3585056290351192 
-0.001176440444395316 
1.081943726577963 
0.5470022746006061 
-0.4785584783531533 
-0.1621095611230247 
0.09185081179980728 
0.6557437264934538 
0.355478320455023 
0.1194665938080772 
0.5834677281808979 
0.006935379007068896 
-0.2630467400666431 
0.1358688836864719 
0.962605106072001 
-0.1025624545560243 
1.133180304238365 
-0.2285721659093511 
0.01263871335716151 
0.6536245382937085 
-7.597204253297092e-05 
-1.066356952057804 
-0.009596626301561158 
-0.03340984671497375 
0.008522549500831903 
0.1377093746760799 
-0.1905376531508665 
0.2190043948365641 
-0.7452860997118015 
0.09297751282234056 
-0.03098169741691411 
-0.1877778329361126 
0.1157767071367306 
-0.180816321344114 
-0.03118379312661401 
-0.1372425143081276 
0.3198198972268737 
-0.1207822268035328 
0.03696411541576675 
0.5442526303543264 
-0.2760974341832946 
0.7614823937494906 
-0.459038639303136 
0.09041916237139298 
0.1895346125605041 
0.03006553967627451 
0.2922158274457353 
0.02730259824548494 
0.02046430749162612 
0.7295747230780334 
0.3670828597299457 
0.06190768862381365 
0.04852521904500864 
0.275379920273094 
0.04335534751989861 
-0.09080848218507595 
0.1238775718610018 
-0.2578767029682794 
0.4058028765704059 
0.3149851099538176 
0.06583851648731792 
0.09244708305180264 
0.2310544174978196 
0.6488150649648289 
0.3817310629804811 
-0.04564152379939082 
0.02816554211067734 
0.2208001154047641 
-0.5619418924221256 
0.7911200441148675 
-0.03740296319843713 
0.002196775494303293 
0.2575610063183957 
-0.7976895285423693 
-0.5119717139324917 
0.14086251714421 
-0.07560948295320824 
-0.05006714572177136 
0.1013253231251685 
0.1705454443013539 
0.005074867643582398 
0.1057873635106425 
0.1353314509396777 
-0.6729262088892108 
-1.160521392976691 
-0.6650740260664859 
-0.1074771081102016 
0.04839777534371882 
-0.04176790042938065 
0.2036958624874082 
-0.1625701800611133 
-0.518887603682853 
-0.1426960539180591 
-1.315122003217729 
0.06167578195157371 
0.2335802443278339 
0.635012040659591 
-0.5808960331310528 
0.2367076029441769 
0.9446374952971773 
-0.3486878031376949 
0.7275862569869658 
-0.03291081941196888 
0.1562706916096236 
0.1388502826977275 
-0.1815360365548739 
0.3238054954051495 
0.06261841177061599 
-0.4342455045690206 
-0.07175449049067091 
-0.09077967044944245 
0.01148412806481747 
0.2339989853202513 
0.06061795206943648 
-0.1996485597131075 
-0.2184338058976611 
0.2583291105241834 
-0.4322138414373905 
-0.04421890825003857 
-0.2013209498783196 
-0.6131870579232863 
0.2058068943676063 
-0.2860710718998773 
0.02738917291328126 
-0.003126273461288253 
-0.005001303577562407 
0.09371215055086927 
-0.2541493164871358 
0.7004594636642154 
0.4508744506733889 
0.3793080135064906 
0.6589774464101983 
0.2211166800974492 
-0.004051218523196704 
0.4611533890567052 
0.3533597642265804 
-0.2060176437335321 
0.1319385363118522 
0.09955150418451385 
0.04647109258094985 
0.1674364073495198 
-0.3774708945990674 
0.5066548264253857 
0.1178591294397464 
-1.449234355549714 
0.3788697758613725 
0.3989722809906466 
0.1164408059500592 
-0.2089907609760744 
-0.1510885853498959 
0.2565940893768774 
0.4642120815112976 
0.07835634890043675 
0.5059956864010802 
0.01668889898595372 
0.8917211856588179 
0.6060741089305178 
-0.5982033828129796 
-0.7750211966586837 
0.2482991070134427 
-5.852997665527215e-19 
-0.235046262615578 
-0.03419173894752203 
-0.2338558646190503 
0.8590989007548303 
0.1198991045251129 
-0.3510490560296179 
0.2520989730770826 
-0.793270836062907 
-0.228405271312988 
0.9691122410104512 
0.8827974600686488 
-0.5111025193617046 
0.07512749949940442 
-0.04443788042665586 
0.04701846385016317 
-0.06656724204094164 
-0.02342249637857565 
-1.793856963606998e-19 
-0.002843657382676405 
0.113485108507258 
0.2275924611087273 
0.04955554967276039 
0.07580045802230787 
-0.01662124143887805 
-0.2997945597494395 
-0.1095820075713454 
0.08381207847858933 
0.6435902904248644 
0.03487306000873646 
-0.5415325149694493 
0.6765730906092896 
-0.1957310164822124 
0.2969495197673089 
-0.4142641542107099 
-0.07162990692483372 
0 
0.07778779068372985 
-0.3270726055994578 
-0.005218794179189933 
0.7365203481801176 
0.01173349514088316 
-0.1222152533577317 
-0.1827053835543963 
-0.04672221340677706 
0.6603528309767697 
-0.2440781241382665 
0.01042411617820286 
-2.621037576160026e-19 
0.9930128349184267 
-0.6165757450362828 
0.1198642305984804 
-0.1726063325080272 
-1.097847374331599 
0.3907481985585872 
-0.8976093967289457 
-0.6896644920972537 
-0.7839834808516467 
0.08935829537157165 
0.3247907891748121 
0.3976331561700552 
-0.6981229723079189 
0.4182768197391709 
0.003400912182265816 
0.8925486146131185 
0.05036005250775055 
0.1881682621686332 
0.1940720772745367 
-0.009966928395157278 
0.2233600481060769 
0.5962196756118838 
0.1451605347471294 
-0.1605944339474437 
-0.1417566278045428 
0.7345750792404262 
-0.2184804040137954 
-0.2465456851595634 
0.2261616345931782 
-0.6646304957350539 
-0.3416700772955404 
0.2702357504753902 
-0.6096505096345244 
0.01737844272746123 
0.8011395644792579 
-0.4577215267655109 
0.1040662122657265 
0.3887136502014998 
-0.521793256877793 
0.9180838350633395 
0.2869136344127844 
0.8155852679866694 
0.1434348728365852 
0.5733488862680275 
0.05153539947895439 
-0.1003152818524381 
-0.07235932131807948 
-0.908364921823803 
0.3352124145788998 
0.03253930480774788 
0.004277715014507214 
0.06017885048085252 
0.6310173985759618 
0.0595127753803208 
0.1678317414328161 
-0.03561746542262088 
-0.2160505753829485 
0.1306523343721063 
-0.07472362903446868 
-0.001160479385813707 
-0.08339161148381374 
1.36829576818871 
-0.5118324291053732 
0.8389064995603442 
-0.5612532262776757 
0.3013891947772518 
0.6585779823778236 
0.5735935843691257 
-0.05948255687987784 
-0.534596740861439 
-0.1848830545892773 
0.4324442837812843 
0.1698978123903457 
0.7009489547860396 
0.1791851494206048 
0.07798442298326329 
0.07306700318544324 
0.2271159751054133 
-0.3169722033440611 
-0.07695919142921416 
-0.3144167398359264 
-0.1787764182481837 
0.3364001382271881 
-0.3765281951332979 
0.07110768879971641 
0.09808642545936373 
0.6021328378603423 
0.6411510281898366 
0.127598312803931 
-0.1245968082601659 
-0.2220262584327858 
0.2145054224562581 
0.01733726183719362 
0.1522449996550035 
0.3475743188077139 
0.0871357580667812 
-0.4195518577125634 
-1.11589001091653 
0.452020165852515 
-0.9658194676767919 
0.6099621979277705 
-0.01634719279138041 
-0.1093805224544819 
-0.01300417224903804 
-0.0835168315460853 
-0.6161890060422747 
0.6321440577515692 
0.6419343902964822 
1.705818183851012 
-0.01309854308329258 
0.3569353522490736 
0.1406988305379513 
0.0998397733116668 
0.04893811574834093 
-1.199933302284561 
-0.4408308743917134 
0.2205239829909693 
-0.1666308379189917 
-0.3681337187403591 
-0.03827576879028782 
0.4975602607049793 
-0.1002747785732733 
0.198773279104746 
-0.7181666324862239 
-0.02863247607413922 
0.6742317907552525 
-0.04968020786957732 
0.05246609455934313 
0.2794934034863467 
-0.1082665453866039 
0.3050497652537917 
0.5052041068777789 
0.2554000720518597 
-0.4613280420234283 
-0.3486467409085204 
0.02054046433526081 
0.2131936157486951 
-0.2869184619465689 
-1.053234985600184 
0.1584994733046943 
-0.3591871530868558 
-0.8704224767970659 
0.01069316904003758 
-0.2580953408926369 
-0.009140444000234907 
-1.035069701191486 
-0.04530388059220712 
-0.07354890719601712 
0.8094248635542347 
-0.04223522336428742 
-0.06833732651160866 
-0.170675516737324 
1.926999955003533e-20 
0.348769377400864 
0.4308864168653979 
0.1254773112925179 
0.03078696710775693 
0.0707142166379575 
-0.6613964883475008 
-0.04039913266937797 
-0.1747924444038277 
-0.08240031349540504 
-0.02742289199240537 
-0.2503069734586142 
0.02421244243944881 
-0.02641326092252272 
-0.2297382165282529 
-0.06225266815118274 
-1.094051812790789 
-0.5829963595359353 
-0.4099208510044746 
-5.581947122405839e-19 
-0.4743103468529248 
0.6851381850110059 
-0.1773855000810102 
0.7200463801183182 
0.08914197905012829 
-0.7987485165647633 
0.3287638297844464 
-0.5753851830720039 
0.1951238004963935 
0.2383504735103265 
-0.03679598848472403 
-0.005156737928823493 
-0.1792677895979776 
-0.1236908527681322 
-0.02918897868529289 
1.056371466564949 
0.2278583241162163 
0.406572605672035 
-0.061547425841147 
-0.1695759619016812 
-0.6047783190214074 
-0.1415437075005512 
0.2787681610438806 
-0.2436932555497047 
0.285986625555003 
0.007090714803289407 
-2.601979334846804e-19 
0.3635909188371145 
0.2183756498685677 
-0.1533555866163363 
0.6792178590805862 
0.2792264395989362 
0.1046051181058364 
-1.07141532639148 
0.3725908773098839 
0.506308433345064 
0.1343282823329156 
-0.2311739404786677 
0 
-0.06327904636290073 
1.234712810323112 
-0.06949693448284543 
-0.4366862771719844 
0.1714370009206153 
0.2280435486597781 
-0.02165607773449408 
-0.09135003250379459 
-0.535269984668339 
-0.05483037772294026 
0.03883777223494309 
0.2950051876293854 
0.2017925299357881 
0.06693442065396753 
0.1878712775772378 
-0.1155635029258002 
-0.001027387833124497 
0.05872097819560373 
-0.3967412076598243 
0.6925698643054446 
0.2720563504121836 
0.4817678545383007 
-0.1152397227159751 
-0.1414449335904148 
-0.7827451952331257 
0.1778674786405038 
0.1461256935934804 
0.1317655668739424 
0.1179028181207474 
0.6976132730996908 
-0.09866233269679678 
0.4713413447300944 
0.318073460395666 
0 
-0.4389117625689814 
-0.9347739515434095 
-0.3687967639399378 
0.3860283835938263 
0.07699636466250372 
-0.07784776320072402 
0.00211969707995498 
0.3782606131116927 
0.5943368389809723 
-0.640616604124986 
1.00877791916786 
-6.947941605447333e-18 
0.1757962025442538 
0.08510363321752165 
0.252689021431031 
