solver_type L2R_L2LOSS_SVC_DUAL
nr_class 2
label 1 -1
nr_feature 5000
bias -1
w
-0.6967579659478984 
-0.296932524118481 
0.6605462359270992 
-0.02545043761503256 
-1.897475192251279 
-1.105620810032198 
-0.7417059980731696 
5.181606173872678 
-0.6806150767962524 
-0.5548801299366953 
-0.1599925584965404 
-1.10140862441831 
0.4092530880222014 
0.04731172010989602 
-0.8577184141198382 
-1.08012432756248 
-0.6408677417163758 
0.516380163079962 
3.221533495432899 
-1.411349628315908 
0.7582440030746872 
1.154867833512603 
-0.6054452474578721 
-3.964634404745584 
-0.3527003951455593 
-1.043643433430847 
0.2539133784277343 
-0.3487467987951897 
-2.382986203415085 
-0.2115053863889386 
0.3163832113185512 
-0.4280012623773373 
0.3677909951822004 
-0.4344101577795195 
0.6394668884561261 
0.9901044093704926 
-0.3047981080663429 
0.5855990298104378 
-0.1170082746145293 
-0.5397350704679039 
0.271814248784275 
-0.4443297881276583 
0.1228174717430698 
-0.06825188183789424 
-0.06761579101889328 
1.173642746535522 
0.9782468651814646 
-0.7387234781926425 
-0.3734540272744669 
1.417950307949382 
-0.762800360736128 
4.832445785917214 
0.06406544412187719 
0.1945868906818477 
-0.4751109831374777 
-0.06996370172816328 
-1.099076464851064 
-0.9430389394401801 
-0.8269811067982648 
-0.8288375774406425 
1.058511271606386 
0.0237301885639039 
-0.2592083324801854 
0.04082118128768914 
-0.7414565053724271 
-0.8249668461936203 
-0.1380827988497995 
2.242296248680407 
-2.12551207434241 
-0.6715790443210647 
0.2025920353045902 
0.2909203657821663 
0.5242641987960492 
-0.2265692136105739 
-1.008133036936402 
-0.01394614567407882 
-0.4793345066850789 
-1.125648208386465 
-0.1481344670792634 
-0.7853800183351238 
-0.256279406143371 
-0.4125219591250837 
0.5186574380480836 
2.595139564357014 
-0.4971947686733208 
-0.4676205742293298 
0.3837372030902959 
-0.1051609747513599 
0.162000856179779 
-0.0590487112099122 
0.4366217003341087 
-2.11336934475765 
0.04675039084685413 
-0.5284350030768569 
-0.3754937031113625 
-0.9428177147137349 
-0.4539798679479097 
0.3878828364952507 
-1.486782226743868 
-0.276827787692303 
-0.4122451759500306 
0.0715078640386827 
-1.117371519487866 
-1.017468825085247 
-1.234030865817977 
0.2400097303788407 
-0.6775284055517495 
-0.2913336451171446 
-0.1587038130613972 
-0.005006249578682459 
-0.09524596013754946 
-0.8567428198890374 
0.01769439203636135 
-0.32012020487426 
-0.5290448884372847 
-0.09475402909441021 
-0.6650673521748731 
0.05232334195976499 
0.7825484110153581 
-0.1906555188511786 
-0.3241338191584925 
-0.07182404704339358 
0.4722721284741587 
-0.6314389478079167 
0.4660689359565884 
-0.6212937740123489 
-0.53582891244938 
0.5186583493941315 
-1.177755973444174 
-0.3622409023392191 
0.08363191624361162 
-1.481495561180703 
-1.080743933974904 
-0.7895587785489895 
-0.324762741427068 
0.3908637944310773 
1.133133580590813 
2.026815575536342 
-0.1403726779314676 
-0.3725734404815325 
0.169295311305831 
-1.521740593598969 
-0.6849054932637606 
-0.4554886917474796 
-0.1596958173141987 
0.1201361356141882 
-0.3860255064352845 
-0.1585668468942112 
-0.3399537467671102 
-0.2430014408730179 
-0.8783619263059296 
-0.8139504420966284 
-0.6301851287600051 
0.2686869506601079 
-0.2704974511942614 
-0.4901347294987959 
-0.1378534863280305 
0.7772299263513888 
-0.6949530315665267 
0.2661957816039967 
-0.2940351657425796 
0.1167629191228332 
-0.7049965101698066 
-0.7334769785324577 
-1.212830478446008 
0.4245755148594633 
0.2850793346277038 
0.06217229245336568 
-0.1296423494629248 
-0.6799293677769775 
1.826866322733137 
-0.4924967023432098 
0.5544742800304217 
0.8292828325314485 
-0.2169040953923415 
-0.5673578754487897 
0.8556082830482085 
0.1993259808953882 
1.503652185175226 
-0.7991971349143564 
-0.4607585378360914 
0.7696860535915506 
-0.06548372264138887 
-0.2469835312889128 
-0.8421924474412209 
-0.03919980017248648 
-0.7466139683797813 
-0.05754353279226795 
-2.891233987432562 
-0.2105075640332517 
-0.2506813023078466 
2.335017769744191 
-0.3444437026762389 
-0.4074272622549414 
-0.7795116525400254 
-0.4860771059213935 
0.2048927549085378 
0.3425354917854317 
-0.310711609045479 
0.1208332899235391 
-0.3666159369130671 
-1.580072720140081 
-0.971258074013715 
-0.04671539840602797 
0.1215982049907658 
-0.07961326909350161 
-0.3240820103870203 
-0.2489105970971414 
-0.9329316930163764 
-1.335984771409404 
-0.547701503071368 
2.622956161171786 
-0.0638395442380135 
-0.412367818758649 
0.09907342777214614 
0.002600451595208767 
1.639877468036342 
-0.3691703568868709 
0.141010663324517 
0.3569246968994103 
-1.12099669988845 
-0.07813029165826567 
0.2929789311548874 
0.1072807466706196 
-0.1361535044699719 
0.3519399297848613 
1.481534063751817 
0.001664604352030636 
-0.03565649280168215 
-0.03956857499563816 
-0.131381588701829 
0.5086718320898821 
-0.3171133891536264 
1.468226897269913 
-0.5285755135676398 
-1.539167512583779 
-0.5628287394512467 
1.197078912543184 
0.4374297868435648 
-0.5879112901208196 
-0.1936006213324882 
0.02365943540804656 
-0.9426950236148253 
-0.3360562204156384 
-0.503083720017761 
-0.1760424133187646 
0.4617524605397217 
-0.8770306004240059 
-0.0002121565284713387 
-0.4260175797856777 
0.4657661895769561 
-0.9684410691540368 
-0.8576378662010685 
0.08542566569473921 
-0.4287423958702395 
0.8779157984169604 
0.1903365844825444 
-0.00264448450027832 
-1.745453823062278 
-0.009539402838438566 
-0.1745814476950201 
-0.1939569137156703 
-1.356916784946466 
-0.1416713556151626 
-0.5026085160210636 
0.1936529718583968 
0.7348566021961097 
0.1650528773180429 
-0.3161102024415142 
-0.2241496795075403 
-1.007933432354893 
0.0006273502702503399 
0.2624445575851426 
-0.03959259776185644 
-0.5245648004381451 
-0.6132054089276509 
-0.2924103923982015 
-0.6295765025922574 
-0.5171799988102598 
0.05628593992860365 
-0.1118820958339897 
-0.488447600688481 
-0.7628342298473615 
-0.3529560036548505 
-0.4982714005284629 
0.4219585210441074 
-0.1162330085428953 
-0.4090388669236211 
0.03816892565582758 
0.1584994883597892 
0.2205425906156437 
-0.9823808461167285 
0.6141543189161696 
-0.2657400035338991 
1.096441267180554 
0.4176212515394478 
0.2849465390423672 
0.7455361450949154 
1.852258218418317 
-0.3875871699041077 
1.309562655252706 
-0.1618444562711068 
-0.3648984481258964 
1.375232807077509 
0.2841983519406209 
-0.5893734654041526 
-0.1764887622899854 
-0.3465677261177268 
-0.2611388534973381 
-0.8286597843382696 
0.01666661220947626 
0.006678092036091532 
1.454646919787258 
-0.6657734506852597 
-0.340868874550692 
1.669544498050372 
-0.8977099997304264 
-0.3224251715771848 
-0.1311253372516056 
-0.6867775838637403 
-0.5591956645111251 
-0.4468540837992566 
-0.02570039274533994 
0.4724596150610736 
-0.01695996269220015 
-0.3024600194244079 
-0.06342999578644409 
2.194881893566551 
0.1648745108623667 
0.1898082011502905 
-0.04160788446793856 
-0.09989101447814583 
0.4678786845283532 
0.5059500533542725 
0.3256242315155875 
0.0004699908256484419 
0.03087090521208805 
0.1662812393060419 
-1.254452563051982 
-0.2382801829396985 
-1.882746835857923 
-1.185312870237793 
-0.02601432693379693 
-0.8583541016884457 
-1.006346001372259 
-0.09036751755660635 
-0.7868083693491255 
-0.4041459060315389 
-0.1402388417697774 
-0.7884283764557923 
-0.2400852862829777 
1.350471020440261 
-0.2260309015279506 
0.1665785010343083 
-0.4768972201887236 
-0.1757457996938598 
-0.5611982699104953 
0.004288108039774347 
-0.385134655192883 
0.09950567697482882 
-0.624910083917856 
-1.113279772008233 
0.4085744293716402 
2.75897804826611 
1.20998419563251 
-0.04089572321256031 
0.05429218543973496 
-0.5944964288245221 
0.1131862668475903 
-0.171161526036749 
-0.6733392757021524 
0.1309179828575212 
0.3371684157103453 
-0.2151360639633193 
-1.349502957926451 
-0.1990897698670427 
0.04897906724381449 
0.9951502171721762 
0.5963186563049797 
0.3416304085941524 
-0.1508789804299925 
-0.2865492210245615 
-0.3031009799311136 
-0.4933629102440695 
0.4627426822474944 
-0.2446491992379486 
0.4071862299610114 
1.701237979059854 
-0.3086299329475236 
-0.07413700137957649 
0.08329986353863006 
-1.071324624709279e-18 
0.4864071861420492 
-0.4978836921239103 
0.6763887079865546 
0.4946043020766724 
2.154584449185438 
0.207700701071878 
-0.6861234189702355 
0.1151252091610786 
0.06983034657681519 
0.08039205714377209 
0.4504653140844048 
-0.3273713761699888 
-0.1488626651545705 
-0.5549478886147731 
0.04002334633891885 
0.6760293939269614 
0.1392229905980719 
0.1609344366525289 
0.9822312150835812 
-0.5244574158186485 
1.676326977475279 
-0.3453593127763248 
-1.448765206261 
0.7212435471212407 
-0.3761584331160421 
0.4062569527832527 
0.5065969535275245 
-0.5267079673053152 
-0.6902852793333044 
-0.487645490521799 
-0.1482300425648043 
1.298815174342781 
-0.04400011982913131 
-0.4947727037870157 
-0.7473002762408156 
-0.3233762660937669 
1.068863428846528 
0.8417992182536751 
-0.2809001971480028 
-0.3467754777412237 
-1.046130542866012 
0.3825988135538013 
-0.4143254637645628 
0.6211568917397677 
0.8013027665934707 
-0.4782930870003601 
-0.3804829806113234 
-2.364373596522578 
0.5962728507871731 
1.031826370697137 
-0.6409722490088534 
-1.049952959048338 
-0.1627484596982291 
-0.2192841831742589 
-0.2293093184101467 
0.3253065945064097 
0.9037147427688369 
-0.855448825154437 
0.1698791105155835 
-1.60298504381553 
-1.353138376373219 
-0.03745839150397043 
-0.4790376324868704 
0.00378860363127495 
-0.1363310197520714 
1.380330699998954 
0.3436383000889838 
-1.862734439749471 
0.2878057140664744 
-0.3616304676073364 
0.2163034131462769 
0.9987264326080807 
-0.1480877418354868 
-0.7978179368300808 
0.2433741801872628 
0.08760562241388266 
0.3517688986973587 
-0.4333261578278361 
-0.02595113061172637 
1.916298201073001 
-0.8900075473910403 
-1.273951943695831 
-2.000071829090775 
0.3836108441933825 
0.2071730775485522 
0.6751089047830705 
-0.6573974399207598 
0.06785364113184797 
-0.7415261742984255 
1.672952354455149 
0.1592063135549868 
-0.5897412975710187 
-0.4136266465512765 
0.3737941204516632 
1.306806007554048 
-0.3083475859340192 
-1.080798183497392 
0.07149504571840191 
0.6701376275821761 
-0.2417017610567079 
-1.159092150540943 
0.1986169991612579 
-0.3614089749708791 
0.4308021256559592 
0.9875066279810647 
-0.2635435152046894 
-0.2249482659876737 
-0.5609460233465737 
-0.9545377877843522 
1.417320517978152 
-0.5224534435910833 
0.9807218216617076 
-0.1960684032892386 
-0.05644459534787812 
-0.7684666480864522 
1.028807477157106 
-0.07880057532311344 
-0.3395808037934481 
-0.648774689928813 
0.9187700981745078 
-1.135826432839292 
-0.8770546352795354 
-0.6874941169846819 
0.04335847117384962 
-0.8127004692503202 
-1.082065593279461 
0.57550271370438 
0.637429093734189 
2.950363692534299 
-0.1938972706570425 
-0.2358161006549018 
-1.205376304502287 
-0.6219199540516053 
-0.09557664561174119 
-0.5422694787330783 
-0.1972633312877233 
-0.8345299744384278 
0.210457537929263 
-0.05013460198607083 
0.5273411298480256 
-0.5662485408268739 
-1.166541426138293 
-0.04609384602170884 
0.947352067891717 
0.5460142592610392 
0.1772984865186787 
-0.7890690346704491 
0.09629412378388837 
0.20281257031127 
0.7285375848600458 
-0.03212528612288074 
-0.07440931474452757 
-0.1542341246353879 
0.296528525504919 
-0.2801921598853343 
0.5939325798013836 
-0.5760746988985564 
-0.01315700018860688 
-0.6477439024094932 
0.2392075697396983 
0.9413928521776019 
-0.1912915007512916 
-0.3094481200055968 
0.07534390568852446 
0.3268910521231973 
2.045545627459615 
0.1295870210703338 
0.3432553854515565 
0.04379134343469015 
-0.676504105915542 
1.125718182216881 
0.6790899522353908 
-1.363340334219042 
-0.4846343555754057 
-0.6293794938973392 
-0.3532959419672356 
-0.4741512894040165 
-0.363972882151297 
0.721454326473894 
1.886000567152905 
1.197593757952282 
-0.5320909055529306 
0.330150388304145 
1.174178755000165 
0.04435313204337858 
0.3782828919419461 
0.1583362069291323 
-0.01198355874651198 
0.4752174732764947 
-0.1059316071610382 
-0.02263489567290331 
-0.480442091223351 
0.7280946739558837 
0.1495433037885294 
0.1248506842424957 
-0.7883957392770485 
-0.1967454875490404 
-0.5327658451592762 
-0.2193977370400663 
0.02021406492880327 
0.243448545039114 
0.403318109533397 
0.05017807348346324 
-0.03368072956452227 
-1.083498466554197 
-0.1876876397923785 
-0.4982075576098065 
-0.070620669018951 
-0.4413031453592621 
-0.7193242115048403 
-0.6485014697021841 
0.3963280084004315 
0.2585694685645168 
-0.2367445000487646 
0.2843221690947659 
-0.128407464732096 
-0.01400634975195937 
-0.2684187471229437 
-0.3926215934077609 
0.8988095601663482 
-0.9010379389072063 
0.2557136877486257 
0.6524140680323264 
0.0629713074289187 
-0.5267007998079493 
-0.2900842472612861 
-0.3620815229166921 
0.6040069075698283 
-0.2257943927162819 
-1.475103034537462 
-0.06966629213268991 
-0.478051751118137 
-0.4244269832400562 
0.5908784814834561 
0.2155960772705949 
-0.3004302432800404 
0.9211227538319217 
0.246377388740688 
-0.813598110188815 
0.8217206808110713 
1.839000365745687 
0.1596446860915696 
-0.9404940671516524 
-0.5773599161808635 
0.8732827657582986 
0.4004961619172859 
-0.2943445335023507 
0.1984014070473193 
0.09759263953774629 
0.2857197158820235 
0.3707610351651875 
0.0112519312292139 
0.4776540165387873 
-0.1457403216962733 
0.7762165546425452 
-0.4744051883915008 
1.878853578720699 
0.3640080005704349 
-0.1043940169531428 
-0.05735828188157972 
-0.1440334101168713 
0.02323904452793666 
0.8268317238191403 
-0.2976565706989756 
-0.3474468121817004 
0.2442939542104594 
0.1751072705184711 
-0.5036298684439047 
0.06994687841038162 
-0.3473712189092378 
-0.8195342986262192 
-0.4344917209296898 
-0.5656508121395624 
-1.172690866018384 
-0.9714100748686927 
-0.5324130467741662 
-0.3843684865185234 
-0.3485509814459061 
0.8215148780791817 
-0.1900442788886049 
-0.61582226090765 
0.6176986045212655 
0.03612732250809461 
-0.2027259957386815 
-0.2632463016129171 
-0.3825302229840484 
-0.4015935587220513 
0.3661643687283206 
0.08814155649942003 
-0.1005727448827247 
-0.611544406340549 
0.6248937458371228 
-0.3354947790092307 
1.751303488654418 
-0.6113300269761808 
-0.2956234087387279 
-0.1044654448672089 
0.4110273837483076 
-0.2336707519965248 
0.3461152841628057 
-0.7589131717679078 
1.540801200298681 
0.9835744671311993 
-0.6653480701068525 
-0.644308896588626 
0.4037931679084771 
-0.1710787231451752 
0.1187530207617678 
0.4344862139707912 
1.513011319420217 
0.02791570814564669 
2.844757131307208 
-0.414041061482888 
0.6593777769526961 
0.07180128760164825 
-0.2757156837878124 
-0.3427661222318504 
0.2085407304882411 
-0.1882298325948384 
-0.2006657697563015 
-0.5175926576913498 
1.413073496565547 
0.8301749730845079 
-0.4689506495163583 
0.1667257734576174 
-0.0548440067629491 
-0.2698560142523665 
-1.370440900682115 
0.135333617807599 
-1.353318040028262 
0.009903060088120334 
-0.3322358312278239 
-0.09933286750699377 
-1.032501930704317 
0.08646943112649567 
0.6692708649104543 
0.3037617578988311 
0.9084122288223282 
0.6958866007185176 
-0.5817170258902816 
0.4397838285456349 
-0.6165142287155201 
-0.3582224387464289 
-0.2391067554169733 
-0.3711235178494887 
1.546273422871282 
0.7034813939737474 
-0.8000115715429534 
0.2522708870536627 
-0.4335418368194086 
0.171557807702174 
0.1586887952992611 
-1.235414501236091 
-0.5436312147680058 
0.7868924323445539 
-0.9928040505535077 
0.3817490398026758 
-0.709110167691082 
0.489654285383155 
-0.4666233393056948 
-0.8969992383769725 
-0.03455628458500813 
-0.8474421398678176 
-0.6259329490877997 
-0.3535345829326252 
0.1306066677832993 
-0.6361914044633917 
0.4168454427989858 
-0.5995686440076492 
-0.2515225622463624 
0.1173560095061652 
-0.2000354105938608 
-0.2836448803221321 
-0.3855818630880328 
-0.3285179718908869 
-0.08593525586559578 
0.6393487422769879 
-0.1342460617699853 
0.3924429086309126 
-0.1646687776339922 
-0.4256841773442989 
-0.06221305230560398 
-0.7703167403138497 
-1.099845803502503 
-0.4683915554579857 
-0.3018416464754027 
-1.511616307188962 
0.1942104318295997 
-0.6475636848663746 
0.5843680192775914 
0.5209441353796279 
-0.4477570238930775 
-0.1904537290967115 
0.8419462020060817 
0.8936531628645755 
0.5134281131805055 
0.1461598749156384 
0.8310467505029087 
1.268437310336539 
-0.1919066259625904 
2.712541309062666 
-0.1039070756468114 
-0.519314738503034 
0.8066290218569917 
1.320156020349506 
-1.254564269599272 
0.2727463505133781 
0.6108956639413311 
0.1268141147226744 
0.1152749129920534 
-0.2050664727317916 
0.09423861490293178 
0.6541004859873212 
-0.2923514617950282 
0.1938191319964135 
0.8878555794523796 
-2.063679630346916 
-0.2782494948440853 
0.2318676237173463 
0.4485320333733379 
0.96239177452905 
-0.09641463169737999 
-0.6760492677159678 
0.1450835916935563 
-0.3177599870210847 
0.04149387473564215 
0.04547536175730685 
-0.2217271749098767 
0.8017487415339477 
0.638539196203428 
0.5344526212596697 
-0.4880198206552102 
0.1441943345719624 
-0.006439260341156228 
-0.0963784637361096 
-0.3040247228502789 
0.2299579027353688 
0.2032919055759865 
-0.1647338102830798 
-0.5360122678026983 
-0.4659030169451667 
0.5160087426628931 
0.4110474296414075 
0.1882363219484818 
-1.009022867047053 
-0.1047966171671019 
1.260423173792929 
1.558668843580356 
0.1506426680200917 
-1.152535533387748 
-0.808029384239943 
-0.7961918196595377 
-0.7587819157739233 
0.7237906638674386 
-0.1105818412704714 
0.3531403907817809 
0.6313300144153008 
0.3229674413374909 
0.6371026582883401 
-0.3625811967900091 
-0.2636915747309534 
0.2837168473523191 
0.1378266883772319 
0.8690299660655829 
1.332793551069948 
0.1073735476467646 
-0.2758285572939632 
-0.7593554664983964 
-0.09109698157198774 
-0.2948303833113802 
0.3931384425346806 
2.271927186182849 
0.4434008656778393 
-0.2618216189870315 
1.051242083105577 
-1.058913562824877 
-0.6068793147822938 
0.2736133343679527 
2.308510154441317 
1.126598191369732 
-0.7518067240115371 
-0.4400356010294322 
-0.2874251950019663 
0.7918694948852509 
-0.8604158348337085 
-0.9694797669204964 
1.065074372312073 
-0.05218817018639918 
1.550623020738986 
-0.2406450590689911 
-0.2938065684503184 
1.595230198705413 
-0.5417880200501449 
-0.4250478683054258 
-0.1867299433081693 
0.005202813025188944 
-0.665374499499777 
-0.1092791895024574 
-0.2025197409373403 
-0.3699037351033594 
-0.4890774877157772 
0.06116158857597778 
0.1477552559718124 
-0.4118648995913498 
0.4955434348723795 
-0.1603821125539123 
0.7649404514255549 
0.009897716946140602 
0.0138561040396931 
0.5138385552428352 
-0.8916964290623898 
-0.09607886885425443 
-0.8032814670530113 
0.9008240637819233 
-0.1209522783869815 
1.210863800387243 
0.540535126811328 
-0.4691888297585921 
0.08793638559770124 
0.006575606058343248 
-0.2966594147311896 
2.144244696776369 
1.552462914393282 
-0.8811550553891653 
-0.8600343187211386 
-1.793228197939019 
1.498053275975368 
0.2056619624704956 
-0.04222876209866876 
-0.3117196599571515 
0.05234583613963305 
0.3002747527864699 
-0.4871827856523365 
-0.1993696773004105 
-0.09398446449467648 
-0.03316239486893192 
-0.9912254333780542 
-1.158697037935894 
0.4578444903401489 
0.06292099467917155 
0.1733384624454282 
-0.718794026355065 
-0.3844296778288695 
-0.3179785786045601 
0.5821981373769808 
-1.017089440535408 
1.222280604996948 
-1.319642480440914 
1.808307863300061 
-0.02195908470159804 
0.03213227451465962 
0.3460897100250585 
-0.6151645738646313 
0.3561718408912043 
0.8897627676330613 
-0.260198071216772 
-0.9454169814240642 
0.3929916785123672 
0.1558809833897986 
1.105233928773602 
0.03557013604995474 
0.9037463740456664 
0.2997360960213605 
-0.5714164948036858 
-0.3049305743630121 
-0.6563943428642613 
0.2230392165049012 
-0.7328857335847523 
0.02259456898651106 
0.2143674327575961 
-0.2488319214785851 
-0.4989590239237595 
-0.3260247743297464 
0.3378773089486413 
-0.04024833847514102 
0.3026296053451881 
0.7485104829289105 
-0.7414496045728101 
-0.438480795166158 
0.5289102808566903 
0.2696837490973978 
-0.5973586764571646 
0.06680097640318691 
-0.1252757200588928 
0.4534394298133314 
-0.08328638240450706 
-0.8622898490729507 
-0.8643945815009106 
-0.3496718912172669 
0.4012131808566697 
-0.9761090777425198 
0.1377908695749924 
-0.2846362835208261 
-0.5089607379175225 
-0.3531572466917091 
-0.3324531767882145 
0.5693003168281269 
0.7881893223120792 
-0.3537263805149121 
0.1986269606883322 
0.1221787490666759 
-0.1148899751771518 
2.044812370079991 
0.7755004301632417 
0.001246487049072155 
0.09472272271672436 
0.1164382715583808 
0.1920152851351897 
0.5671640441551232 
-0.197208410872309 
-0.6854881210164605 
-0.2917654575741581 
0.7405505285504259 
-0.1337741910086934 
-0.2247337573365461 
0.8425353366040517 
2.710489772535942 
-0.3412175323329938 
1.272073909516632 
0.5169388466734643 
0.2994689751983191 
0.09673891973362699 
-0.6407397099377798 
-0.06517462655462396 
0.07910923511479757 
-0.0147384141642841 
0.3444788713112452 
-0.2177236977557695 
-0.600497574580834 
-0.1787132858753339 
-0.07787800297669047 
-0.0767002026300749 
0.5404678409249938 
0.05606430500104619 
-0.6148220338473319 
-0.1297102665267809 
-0.3975994193665377 
-0.09128783004898153 
0.5422283238442696 
-0.01851857352402587 
-0.3337957605025687 
3.26701206481946 
-0.1296716879188548 
-0.1568779492295424 
-0.4553883101948833 
0.667706216852518 
0.3018377174012979 
0.1736194916719493 
-0.1700802009365742 
0.03640389204421748 
2.353075281522661 
-0.3854203169550468 
0.6737416548217942 
-1.288394310683629 
1.458479662033091 
-0.5501024352491108 
0.7821949675229343 
-0.2914759512487652 
-0.2755502058716437 
-0.07731596767029722 
-0.9498811225491766 
-1.040956341722018 
-0.6352678451455838 
-0.1771922766649972 
-0.5185018800507667 
-0.727343922597871 
0.9594920054351787 
0.1659316348201915 
-0.19233328494389 
0.275957204770041 
0.1449915237237822 
-0.8678532850845222 
-0.4722655022164782 
0.10354396670981 
-0.2006151479750024 
-1.003654909546891 
-0.6224870608260792 
0.2204714626799006 
-0.1165276204498202 
-0.04743372162384068 
-0.08375153568025198 
1.079169296293544 
-0.09814983897815298 
-1.145411363870283 
-0.1606437171957745 
0.8775581945708203 
-0.4675624327077629 
-0.470660865232096 
0.3739239610114298 
-0.566585684737381 
0.2557293117991414 
0.9616728700089356 
0.08010930627681384 
0.1372874194276223 
-0.3157240626559191 
1.308218268928858 
-0.5300293621017701 
-0.9216150318761926 
-0.2764778782472341 
1.726249830223424 
0.4349964424721098 
-0.2204145247626139 
-0.006328057235271463 
0.8340953604737872 
0.2059780819688344 
0.8009693519953461 
-0.3167189111890414 
-0.4227714175674426 
-2.030453246163108 
-0.30315687758761 
1.061452405120081 
-0.2977098599616245 
1.48767443749847 
0.1435537790058023 
-0.3299454330028906 
-1.115159335604391 
-0.1140963918143522 
-0.007416488856539982 
0.7843116165586161 
0.2462167549571008 
0.6718334152326536 
0.6164898516704925 
0.3128465800659742 
0.6626405568358268 
-1.443433587876858 
-0.1846581287883395 
0.507803937484648 
-0.3378519916289369 
-0.2874985982544487 
-0.8249111074547104 
-0.01371072435611843 
-0.356039609538108 
-0.09211507756890258 
-0.3211771088977431 
0.4182344803141735 
0.1357160952999264 
-0.4159712820107171 
0.3097563711950431 
-0.449963637106246 
0.3992720220704759 
0.2122983453895196 
0.3600309905496067 
-0.02516934381246699 
-0.04046027176673527 
-0.8275661835369408 
0.02857556567247604 
0.1153000571871518 
-1.087221286258288 
-0.4391843652682678 
0.08701318595400427 
-0.293894106527158 
-0.4037568508452739 
-0.9090921802238313 
-0.0261871298425941 
0.1426184927997411 
-1.03028184713639 
-0.1895212326674346 
-0.7872503002598685 
-0.3789915926644703 
-0.3239901861876604 
-0.1386572997385221 
-0.3409509311778794 
0.3278311974217497 
0.1066546235677975 
-1.30842444246441 
0.7445608995153021 
-0.05055079423948038 
-0.2719475562401136 
0.3353881402102212 
-0.204588357936025 
0.8010909665063969 
0.2116801443785242 
-0.0776318054094188 
0.08860942962192941 
0.2770187806729629 
-0.1798095246931952 
0.667493514495851 
0.6840043539339977 
-0.7349305118777308 
0.5120665660904355 
-0.2124979760408125 
1.010393431261566 
-0.1556576059582225 
0.4980079309299632 
-0.08740443886864903 
-0.2056953222315563 
-1.600518310718549 
-0.07368107312967118 
0.1395329715822882 
0.6676789088963112 
-0.1899617497481376 
0.645510497264248 
-0.6613396964187782 
-0.1651500626199147 
0.9774889781760887 
-0.0988471303728911 
-0.8960760125723414 
-1.009134436271619 
0.09828210209786251 
0.6286235486648262 
-0.04277475403049864 
0.3681078716864916 
-1.047837392390341 
-0.1370379229131897 
0.3392295819704604 
0.2227279847840872 
-0.5949204896988831 
0.1011050856624504 
-0.3018102074413969 
-0.2323013220270142 
-0.3409649373478172 
-0.7804447462514453 
-0.2826725949186067 
0.6523953795661738 
-0.1796188680960239 
-0.1133815375854985 
-0.4296647844476284 
0.1878663193535045 
0.2670798024812799 
0.5723258497603914 
-1.167770960441854 
0.02257012947318532 
-0.1403720859838231 
-0.7717809980911359 
0 
-1.713701310699133 
-0.5198710154628019 
0.3670905970861625 
0.02750289024848196 
-0.2079514596748757 
-0.2899959402684419 
1.59301660044703 
-0.5082695877326685 
-0.4224282458657159 
-0.2926000869718514 
0.6973858883906447 
1.022957585022061 
-0.2858404616684397 
1.016151556708337 
0.3177902197150071 
0.1769013090018528 
-0.2647588799292289 
0.01389480956538406 
0.25310782518542 
-0.5788751527557172 
0.9224925931554125 
0.9149936236446468 
0.1327789843923247 
-0.4745416160508369 
-0.1788527494713004 
-0.08471891507282578 
0.7425276974044246 
-0.5819134845617039 
-0.2786562427228741 
0.03244895191758689 
0.6267123952569024 
1.051575628931339 
0.9579430407204218 
0.7880232607508336 
-0.7868439101189927 
0.04554812407246574 
-0.9310812640363081 
-0.3537640645977396 
0.7808677218954142 
-0.1521663782182509 
-0.8033653329882843 
-0.2074624930337745 
0.375450385604169 
0.8571013250156241 
-0.1388966379209811 
0.7374564667278485 
0.4339576386765848 
-0.2261190044963556 
-0.334118967393971 
-2.135955009840262 
-0.148382043394858 
-0.03462441665671503 
1.015962170860947 
0.2532553352131047 
-0.4412896887940004 
1.583069159285579 
2.738369838982619 
0.4276001923101183 
0.2792629103064411 
-0.1147557905320536 
-0.4988795087340709 
-0.6012384936487114 
0.04154284907953402 
-0.5136413273217726 
0.249433426258298 
-0.1113291398892084 
1.750099390978946 
-0.2529088084668806 
2.332944195650415 
-0.2311770984518212 
0.0967963313719792 
1.063760705792646 
-0.1334032134205543 
-0.3675537930799564 
-0.1615277179810403 
0.3762251770317441 
0.04606867096751529 
1.174473059448663 
0.1104125034906637 
0.2945089566747462 
0.5421490264316201 
0.6086638381909443 
-0.06659947594985526 
-0.3839666883948111 
-1.164655216329205 
0.2881241813336247 
1.342297110468 
0.2540513773973411 
0.6331052321272754 
-0.1264892347807418 
0.3614889921674235 
-0.1136760914886558 
0.4783162637479052 
-0.3726312762765568 
-0.429963649902155 
0.5873829771070523 
-0.01160562050268712 
0.2561614986157104 
0.2700483381544268 
-0.9680217133333883 
0.3481564296965607 
0.1805952017866358 
-0.3763640500966214 
-0.9553496295067154 
0.08255013646408998 
-0.8456417121058203 
0.6900709591741513 
-0.5328426813412317 
-0.004886759952046659 
-0.00323595345499882 
-0.2464760801448442 
0.26774791710628 
-0.02825260687859691 
0.002087606749884998 
0.7548112650734977 
-0.217916128405113 
1.475808667942772 
0.1487004355733268 
0.324389480994542 
-0.1318301867484029 
0.654359532392466 
0.9976413893861968 
-0.2966629966064039 
-0.9516632341479149 
0.01527741935186765 
-0.2788756613833177 
-0.6930581374760472 
-0.3419982417173724 
0.2386875450446777 
-0.8739068730268573 
0.09795448801612101 
0.5021504177108597 
0.3893254299864329 
-0.1878274555969491 
0.9491315310808629 
-0.9687733373864716 
-0.3436641340162699 
-0.3261208384918092 
0.09692137580176795 
0.9774605030894957 
-0.853621895962785 
0.7508795894192314 
-0.3060822874397292 
-0.3476052610114921 
-0.1530168010096492 
1.875831174622401 
0.2547307332093033 
0.1908190900810461 
-0.4875371236372449 
-0.2453441908191013 
-0.08870941233598177 
-0.522301661823295 
0.07771312526400675 
-1.512853140950221 
-0.03027942135744116 
-0.43845846444146 
0.277911874358065 
-0.05741182855748039 
0.3286618803373025 
0.9577283854244765 
-0.9276730312128991 
0.127612486689272 
-0.3108412076518701 
-0.3023672954342483 
-0.4566230812649198 
-0.6781145573644505 
0.4400310122870374 
-1.140010834735284 
-0.01635118477614303 
1.365865667329389 
-0.5369068119516537 
-0.2277621102665962 
-0.4616276459644288 
0.3350952588131377 
-0.07741000087522799 
0.7102835180111915 
-0.3363424094111779 
0.2942809947358534 
0.0001458902505508105 
-0.2340958184362743 
0.293115786947901 
-0.0439509609332824 
-0.1826889934548246 
-0.004428974856007998 
-1.060704125742829 
-0.07656624953050081 
-0.1503829393585493 
0.2737305753321818 
-1.280144366103889 
-0.2222062623262586 
0.4140069424466017 
-0.7998018397781268 
0.04143945232953579 
0.2513106595804882 
0.04461794646075065 
0.866500587260708 
0.1846260312776059 
0.06192384056381006 
-0.7311151825052314 
-0.3675525419163247 
-0.6358364818854747 
-0.2023487326002021 
-0.7042988290639022 
0.04316909780092118 
-0.1417898873932857 
-0.4011705131860239 
0.1518757869548642 
0.3299546957011773 
0.2813490444686325 
0.9593231353997518 
0.03805272364988684 
-0.4217784546674526 
0.8170230285696651 
-0.4294053480668375 
-0.5232803930714672 
-0.3953312488829543 
-0.2926298511561774 
-0.2783163304551236 
0.6431726514551517 
0.3178377190244063 
-0.2849821693938212 
-0.001418593547346592 
-0.1572766558991923 
0.2310194177404845 
0.5128719118223497 
0.4220423932193193 
-0.4276320314652485 
-0.3615845449956076 
-0.1388760567336619 
-0.7402650295939066 
-0.498568927505906 
-0.1399011255021633 
-0.4746417791557744 
0.05479500109947226 
0.5337385731601628 
-0.0004983233443452457 
0.4624072899745874 
-0.5514637513431578 
0.1141784988239969 
-0.2485486494662581 
0.1973144401925699 
-0.1612862382921157 
-0.03483985214683254 
0.07561354944683879 
0.1605808132925872 
-0.4496830008938559 
-1.326196655948044 
-0.03397746737787407 
-0.09203348352482407 
-0.6480332735863688 
0.580437792319992 
1.493476940538337 
0.05784264895364839 
0.4234410387195083 
-0.4488047109326289 
0.02806572242884294 
-0.05616838353021665 
-0.6156816488156108 
0.2545999631097257 
0.01622675898538366 
-0.9185384918489894 
0.4505576802431116 
-0.5606192525055674 
0.2508919361996556 
0.6310983004125399 
0.2809925075646965 
-0.3103026413961482 
-1.101487643549303 
1.138499278400326 
-0.1659249335365413 
-0.09218717340778289 
0.026180950936835 
0.3300093370951006 
-0.4276404198860574 
-0.2981867907662962 
0.7510822323812996 
0.2855487294551024 
0.003129250181267531 
-0.2073468889257264 
0.9896451219064335 
0.5683018614687906 
0.01039734062763756 
0.3809385454398335 
0.5082233425066643 
0.8655194296958705 
-0.4212952102183321 
0.1535075159636985 
-0.1060177337209237 
-0.3753296506442693 
1.136351837867992 
-0.1244685533532686 
-0.1549514734511735 
-0.5409874044472779 
0.05830651686377028 
0.5172831844672199 
1.503080765173989 
-0.009577974106395878 
0.1970323160171814 
0.08155876158817976 
-1.003482329747931 
-0.2141853069624685 
-0.2136614451304891 
0.4812965253925044 
-0.8000098035854102 
0.1569393046213493 
0.4521906536541145 
-0.1833281328361531 
-0.05638326119132461 
0.2685413814229428 
0.5444565384892325 
-0.4761955386153475 
-0.7562372951087277 
-0.2697726748326809 
-1.705781807339393 
-0.05263122675272067 
-0.2841753560405493 
0.7711919646181744 
-0.1973195553690343 
-0.1658516271386307 
-0.6236576627678121 
-0.06730584880672448 
-0.1550485071050769 
0.07842048486381877 
0.3690131927457289 
-0.5376352445012073 
0.05624987119670679 
0.3110760070599194 
0.6735421439280632 
0.9504660136168619 
0.3675344686367082 
-0.1498001778102142 
-0.152012881166186 
0.1459110899331915 
-0.8912726004499576 
-0.8906945162175255 
-0.02562121521302435 
-0.04151960361985768 
0.2478271757458449 
0.743627985253977 
-0.6697927345228852 
0.4139386447743845 
-0.6926449987538358 
-0.2362535165978266 
0.6266129429888913 
0.2997478139971574 
1.003575987080014 
-0.1128427899879796 
-0.2813964839328733 
-0.1780228040194099 
-0.5374996585435753 
0.4035741733230305 
-0.9085405956193733 
-0.8220816041743686 
0.06441810666869929 
-0.08338652051054463 
0.5795919645747931 
0.003444747663965261 
-0.3687926525651651 
0.5056659671098676 
-0.6354142351834301 
0.8200313844993087 
-0.3013848534153027 
0.3025949043434101 
-0.3983835411985407 
-0.01313524515615614 
-0.3287950894306393 
-0.1899130269438164 
0.08410944700727109 
-0.3540253030566256 
0.3694677206575432 
0.118924606521771 
-0.2856295465764437 
-0.3960029655577539 
-0.2668503684931254 
0.1929839027336444 
-0.3581945018948497 
0.9707811683790841 
-0.8813914332546562 
0.0920287583496027 
0.1509046937483566 
0.3779969794804883 
0.5269155440832263 
-0.3268648787014527 
-0.1840791455775597 
-0.5209657809420062 
0.7078929777516917 
0.4823963860360299 
-0.3521141457841634 
0.3960251553353133 
0.7055899935420012 
-0.4003802294897941 
0.03960907396983024 
-0.4881867760328014 
-0.05193189285507284 
0.1985465896468771 
0.04341996212262371 
-0.9096485428428903 
0.03378900454722449 
1.31805749476508 
-1.052158421503566 
0.4504874620415918 
0.01551543091315996 
-1.432064747845062 
-0.3875289739701268 
-0.4093606363568806 
2.20822430024283 
-0.5507678601385898 
0.64410434375153 
-0.2668837206729256 
-0.07277226025827542 
0.5557588014784348 
-0.3250947331821831 
-0.4952302728344186 
0.3378404399956683 
-0.5781651474391333 
-0.9271915810604936 
0.7869974044197784 
1.032664560168127 
-0.8688229366855523 
-0.03516929055971738 
0.6934842900798881 
-1.297776620013624 
0.08002338825826827 
0.5814830571186408 
-0.1632095053264908 
0.9008184249004304 
-0.2461236459984487 
-0.3613700959403477 
0.389480231951934 
-1.070387093378707 
-0.7394754037323833 
-0.5016639543536835 
1.446401171972615 
0.2777052749366841 
-0.2834110312175994 
0.01866842359768789 
-0.7506832749733933 
0.05821649984205868 
-1.625120716863086 
0.0579874557610712 
0.03234304701042731 
-0.1914628738255332 
0.01076223522769816 
0.1966844819207245 
0.7029133132064891 
-0.1613260623799163 
0.09245705603995417 
-0.1779937743899793 
0.5242668658655892 
0.3143049998577711 
0.5884118881406457 
-0.2447528034729046 
-0.04554968197022347 
0.3426215317111496 
0.08573169788444444 
-0.02034175129744287 
-1.076285549717925 
-0.584872757721787 
0.03621827156475749 
-0.04874220684406676 
0.7189343273415161 
0.00798670420918114 
0.4266442591070222 
0.1531045494481301 
0.04900160687184671 
-0.7250927984940593 
1.487114052608017 
-2.395703557876889 
-0.3038935030445297 
-0.09256142825172101 
-0.9282407307125996 
-0.02313952860974337 
0.07055609745615082 
-0.2156958352761104 
0.01046411876689607 
-0.3275048614256116 
0.2249029088199644 
0.8980379809795949 
-0.2928746649282464 
0.04702172044032503 
1.101862414623511 
0.2519542987261034 
0.4350128514153881 
-0.08071827829736346 
0.7301608521309177 
0.166863370283755 
-0.2358441735782102 
-0.885761632048532 
-1.445730878820876 
-0.02589002481437775 
0.07913947962913552 
0.2366888731654141 
0.0003627891033411156 
0.484881590764449 
1.304249274128946 
-0.672196973708502 
0.3531164471311249 
-0.3817687953290584 
2.113332262373202 
0.09899860490800806 
-0.3065455394664908 
-0.1816687905115611 
1.068478291605672 
0.6388880083114015 
0.318441105629637 
0.02426730585142583 
-0.01161804711830045 
-0.2911551415630633 
0.564424638155821 
-0.2880401941600417 
0.7816713262784487 
1.039208582355569 
-0.1979760634221211 
-1.337286640530466 
0.1319756987182587 
-0.3109345240504796 
0.1390221492863943 
-0.2875151652979888 
-0.1400413872988768 
0.9200100672380678 
-0.2103272920599475 
0.8946854015654925 
-0.1282709618019945 
0.6082663070452561 
-0.3433602315934439 
-0.4103938845287269 
-0.7590377189398968 
0.2865464811389243 
0.2193413169202858 
-0.2389183518481541 
0.04403856688467928 
0.3643104290853603 
0.2709184512795469 
-0.3378385244905959 
-0.1528431291964652 
0.4908152596685789 
-0.4818232566483791 
0.1646089066554362 
0.4303486257181764 
-0.1366330264883041 
0.1042376321340615 
-0.8439498865420948 
0.1219676029278004 
0.5579362466139242 
1.09621343636274 
-1.123976471958004 
0.5489125250420519 
0.6914313016367172 
-0.005106911290081651 
-0.3698219358988999 
1.571934782976685 
-1.390016109683671 
0.3854893050282778 
-0.3620135742965769 
1.367624295031303 
-0.1754144412570807 
-0.5117602414917156 
0.2782412846287651 
-0.05603882707127027 
-0.03853658749373286 
0.2050866367406058 
0.06923187830505556 
0.8464332812519776 
-0.9535064356902064 
-0.2223786402339417 
-0.2144369077488533 
0.3768874100320562 
0.7536288261719123 
0.2249432901603208 
-0.3849499234288857 
-0.1688535680129852 
0.4074643653952794 
-0.1072245174247135 
-0.9615638082357535 
1.384538129932094 
-0.0427296366459568 
1.757606550494278 
-0.3274131497304354 
-0.3724787409552158 
0.1838446209623303 
-0.3128715586008126 
-0.06580326242867338 
0.7380078133621073 
0.4520464242211901 
-0.1693374562916372 
-0.7223780307260995 
0.09811010499652342 
1.400510192743422 
-0.5800410755096024 
1.234138704097257 
7.067431153653068e-21 
0.3761726058558404 
0.5234121388344252 
-0.2166532012380007 
1.112539309266204 
-0.2035594792618217 
-0.05528398272059426 
-1.361578591545686 
-0.1917780333678757 
0.3139025598051826 
1.362340857486217 
-0.1627697685707831 
-0.1190638826207054 
0.8235057251631437 
0.252170651978257 
0.1793279047737069 
0.1198831123777886 
0.7130006379877881 
0.4369004297670356 
-0.6979211844607877 
0.01842313834138908 
0.2435644543494893 
-0.1831487301482178 
-0.6004529568402478 
0.8901889208431711 
-0.1610123805101998 
0.3625358292603776 
-0.01730239506600308 
-0.7493673413870721 
-0.3764642258858049 
1.552804488499854 
-0.05380428028316787 
-0.342979805323946 
-0.08408114298849344 
0.5006482527367337 
-0.02864363281708698 
0.1463423811483525 
0.05990097124433897 
1.058018362018021 
-0.2697863595160654 
0.0931892262809416 
-0.05668645937553606 
-0.01111147312462114 
0.0561269728695007 
-0.2335493540361196 
-0.8035716718083932 
0.8377406664460637 
0.4942969286719671 
0.7730860175829088 
-0.3769774108416201 
0.1225852255828786 
1.292565230894514 
-1.126108745832934 
0.01927508030249525 
-0.3403132597159579 
0.7672989790301898 
-0.1567568135247046 
-0.5665043432053261 
-0.02012903756877774 
-1.042246999596816 
-0.07466559597022177 
-0.02543314454273283 
-0.1786588731061642 
-0.4787252474472415 
-0.3498951124370103 
0.914958496193803 
0.6435880753108101 
0.6111800982345832 
0.1328598284562462 
0.4763203622176995 
-0.07251051913885778 
-0.4996310274354701 
-0.5582409023482571 
-0.4754842244318421 
-0.3553043142567404 
0.2203497958259812 
1.129763840546893 
-0.03775837928683382 
0.6116545114346887 
0.09234511286942558 
0.806828571390298 
1.362480506335596 
0.1611129768974815 
0.005842571693965409 
0.7542279364720963 
-0.3087993827689777 
0.1474118972156421 
-0.0519963800609958 
0.03930995155219959 
-0.5047351197456027 
-0.1232185243550512 
0.05611223780586606 
1.263075473515499 
0.6452294000723847 
-0.1117998476879581 
-0.9251549888623166 
0.6872146255476151 
0.1027198329192073 
-0.5457344393220478 
-0.2208410610188474 
-0.06153952409528531 
0.6395402419626623 
-1.033358798328929 
-0.3361433877874132 
-0.4198270093887563 
-0.05640709464300509 
0.894703479675233 
-0.4044725926882726 
-0.04174904799322973 
0.0221308845997749 
-0.9843204048086719 
-0.5367478250880513 
-0.3133993883028634 
-0.01465648197240656 
-0.917073067065504 
-0.2956959516261919 
0.3864923930520607 
0.1732295317114814 
0.06009382590148708 
0.2693167508977017 
0.506637292986604 
-0.165577433847069 
-0.07065517367097207 
-0.3542532880547281 
-0.09071529673470463 
0.8270629891604304 
0.04888164243825566 
0.3621615140556687 
-0.5653672137455897 
-0.1643628937260208 
-0.2174789069932662 
-1.107454377066319 
-0.038437924116231 
0.07800418360759352 
-0.3960487132392521 
0.1809028154268126 
0.4232539061729782 
-0.1403314126888479 
-0.1722662036471818 
-0.07733973417162146 
-0.232525670137132 
-0.5526214623942832 
-0.3146391361019 
0.3448970492252906 
1.565744433765662 
-0.04766350078779497 
0.5796331699977348 
1.231290083446593 
-1.662430626682424 
0.1567347890968202 
-0.6814640554941734 
0.2318245538527655 
0.374832804366563 
0.5361206850694035 
-0.1285601638513027 
0.3151882506449807 
-0.1318466438196689 
-0.01111008305610663 
-0.4587624814275066 
-0.3700445345841848 
-0.2768126559526648 
0.4040944975475174 
-0.6696921858183398 
-0.3143859296242864 
0.2657203978259731 
-1.579289060727341 
-0.3462064954725871 
0.1090606775038837 
-0.2192381120989635 
0.3567797978046628 
0.3701815385739967 
-0.1579344678874242 
0.4163259410875041 
0.7109586578323801 
-0.5923268543110324 
0.2290915570219337 
1.017069920736709 
-0.7826405576860079 
-0.866999103935442 
0.9986297137437181 
0.2764661265016819 
0.06169088010431835 
0.5808148648418697 
-0.02445644489859239 
0.6675214293570777 
-0.5313064428587621 
-0.2163907325486886 
-0.01189779621788027 
0.1536524615902796 
-0.6990294393577398 
-1.346741802429531 
1.138316063987781 
0.0005474986185998998 
1.043941546749348 
0.8368923822822439 
-0.9091143294100543 
0.01992110294208141 
-0.152362369150072 
-0.2556179287482977 
-0.765090416435794 
0.4021762864742045 
0.2084858211177912 
0.06990125055856534 
-0.1551787153179374 
0.05518675948747907 
-0.129359001345413 
0.311307361491117 
0.453718596054682 
-0.7145260272057641 
-0.4902507795946608 
-0.7152407512675888 
-0.6130102447265039 
0.2702262380421409 
0.01788366041537509 
-0.3581925195052558 
0.4952211474065849 
-0.09159068291160098 
0.2700810356358869 
0.5749120399483747 
0.3725624473458487 
-0.6515133392078394 
-0.03247312930289098 
-0.2665660629889214 
1.264355497858237 
-0.1443508930795422 
0.3960096475520188 
-0.3792425532388707 
0.8540558679851731 
-0.4224985095554765 
-0.001859340840431744 
0.9373293084294393 
-0.1201670696378077 
0.2328959346806443 
0.03125921365118871 
0.4820344975621835 
-0.07102366561181619 
0.6004928477070723 
0.3066836967714383 
-0.5580580874463186 
-0.2263312132968733 
-0.6477676354508975 
-0.466442047878619 
-1.108041678654075 
0.09279551558227446 
0.2489831766103235 
-1.540652827824729 
-0.06698453031004545 
-0.1133611729448362 
0.1825967468433147 
-0.2753234571835375 
-0.3790501768151504 
0.2131743211768646 
0.1533049473888151 
0.3471552914910149 
0.7429910510398277 
0.2402260588012513 
0.9249148705007152 
-0.5044765167983255 
-0.01120456590034483 
0.5713067632857541 
-0.327917338093083 
-0.2338265008708734 
0.4427040400116961 
1.92007805850729 
0.1693754594866598 
0.511291253382552 
1.046231387473902 
-0.06015924940181026 
0.8863381688899957 
0.713897781717854 
0.4196261582722832 
-0.8835273990971829 
-0.4824415005913844 
0.1310685080597675 
-0.4901093450323181 
0.3994276621977515 
-0.4525616174237352 
0.0952573092954592 
-0.07165213971910915 
-0.2797650078629676 
0.2947518904796939 
0.04616615348380766 
0.7886675904384768 
-0.07837582483270969 
-0.1852370892828157 
-0.7290066994239796 
0.1249479954553011 
0.8358167953153655 
-0.7332394930487435 
0.6944622966318336 
-0.4132044125395902 
-0.236033392091439 
-0.4782392506349958 
0.04845675516874866 
0.3015035979318714 
-0.2961188153872235 
2.435239579307683 
-0.02017840566591794 
-0.1050146498980334 
-0.002544157976320009 
0.2805754437579627 
0 
-0.09734174044539193 
-1.350594673919185 
-0.8167963447490818 
-0.5910968366179866 
0.3804588065853405 
0.05350324412728764 
-0.2674800165495516 
-0.03715217190084717 
-0.3665865909182747 
0.334978107146995 
-0.1333978291694702 
-0.2438701739395676 
0.3760250825819061 
0.9647779842203943 
-0.05579075189441907 
-0.6029538369847893 
0.1619221618469715 
-0.1922110860808456 
-0.8386723523362917 
-1.711776961448052 
0.4170247024224332 
0.2104060626836864 
-1.270396000449913 
-0.145807748448107 
0.2565753688671004 
1.041192003167096 
0.2866074726308551 
0.6781183424548664 
-0.2231984450875922 
-0.315626558371645 
-0.1891451468058965 
0.9834969597874189 
-0.5776765317898781 
0.3927490181810167 
2.024565222056922 
-0.3665827774670815 
-0.3011317994164707 
0.4674287559514348 
1.094057606201282 
-0.3334146734455704 
0.05344509508498739 
0.8258232324943905 
1.08028918886546 
-0.8761863561341473 
0.2109057647829155 
-0.950168033825355 
0.1738360793420338 
0.613841689422767 
-0.4414671146684491 
0.8121236603988793 
0.9332886086308839 
0.3228716822907978 
0.3972786837993163 
-0.8258949211764093 
0.2571848510667959 
0.2882804009201632 
0.3819974501370655 
-0.5045128730001591 
0.3128206874877099 
-0.2377625661202916 
-0.2882489801855243 
0.0003741375424735303 
-0.1787251786038669 
0.1041626668520947 
0.1324917236775501 
-0.04920098888561796 
-0.3367495210683812 
-0.257812531649983 
0.4174242353640795 
0.3476280776847928 
-0.4397067628257598 
0.5249128154183292 
0.7209892118116878 
-0.1990360533990754 
-1.295654559767088 
-0.6321900567057537 
-0.3465838022331767 
0.3269831442279039 
-0.01679400028343855 
0.08512532146212401 
0.2070405202964907 
-0.2593755427777522 
0.363255564441874 
-0.05285178923527313 
-0.1032681590358014 
-0.5472792439468117 
2.436136185805364 
-0.4293325979094544 
-0.6925454640794375 
0.2689531438466258 
-0.330642441788513 
-0.3776929196821691 
-0.4199986969695989 
-0.21961315691286 
0.4277677593517767 
0.05028935074241528 
0.2613267457331256 
0.1485721603004197 
-0.3634521275874662 
-0.7491786347231463 
-0.4740781417092448 
0.4693396142987107 
0.1405007808734122 
-0.913963446462545 
0.6241393868588099 
-0.1131531494865027 
-0.9276760046682218 
0.1375114669589088 
-0.0811835715737397 
-0.388523158170093 
-0.3097806900424954 
-0.3345897419558055 
-0.3363074266593662 
0.08712563930901611 
0.1297369459878029 
0.4443688772019073 
0.3670300097622433 
0.1884062969624931 
0.3832523145334993 
0.03321691780462069 
-0.8626776302691671 
0.1695346777786272 
0.3850071434722075 
-0.006801097145525853 
-0.03131121244246748 
0.008340936214246066 
0.4238777882161958 
-0.2156567246969859 
-0.1171581635175684 
1.044451454325704 
1.590475054331408 
-0.2923445414176757 
0.7293267338465792 
-0.4179676171560555 
-0.2666828351239637 
0.5307676231868587 
1.798543165950038 
-0.1391661417057531 
0.3995740470382656 
-0.1509914029008607 
-0.09082103876832122 
0.4712126108979399 
-0.2426120837534186 
1.669720339596668 
0.2037306222361912 
0.4960930265424052 
-0.02558107508041988 
-0.07650328476543551 
-0.1984196788678822 
-0.7702144696210478 
0.4533613872391316 
-0.01796340203173246 
0.06906032178593326 
0.4179342764981845 
0.320895804279226 
-0.2017041957877547 
0.1857584047944006 
-0.1217657415468528 
-0.5360153347469208 
0.06366213372303027 
0.3784062881467815 
-0.06568624940386915 
-0.6397116201795716 
0.1912216291771036 
-0.6024421843859018 
0.5332034011200253 
-0.6977906432548312 
-0.2198362793573595 
-0.4887868161550967 
-0.05393843675760596 
0.5211638520837341 
-0.4456188034881934 
1.239702614421477 
0.1372405690333355 
0.2153220260994219 
0.06724240325797484 
0.3438707745055468 
0.003518014903158129 
-0.0498519771654681 
0.3911336338975554 
0.7047256238945196 
0.5203031870883125 
0.6022433129347864 
0.02739121312812744 
-0.2562352966750148 
1.332466151749067 
-0.06592599096428947 
0.3529009050218749 
1.512937389633307 
0.4076065860355732 
0.3100076742815749 
-0.401642381653998 
-0.2070539214272189 
-0.6657478805269312 
1.516361181953236 
-0.1335120913516376 
-0.7541533565327275 
0.7269544381203711 
-0.0797097146375657 
2.190433578918261 
1.104157308284824 
-0.4047807561493577 
0.4001249479225627 
0.2296001982673025 
-0.357929901154787 
0.3363835434415878 
-0.1283764275809465 
0.08878769358978804 
0.7202340395205322 
-0.2295923404409727 
-0.3671080382399981 
0.1959816172509424 
0.01438950925593341 
0.08095702906329146 
0.1660617923014092 
0.6404086318633144 
0.2923530128634039 
-0.208900002565106 
-0.275093467012033 
-0.2807103814903769 
-0.7280570614595231 
0.3752824717168118 
-0.07698640790467032 
-0.3221717758058396 
-0.0873064307890343 
0.5800270671177767 
-0.1533580600318343 
0.2302748194178114 
0.361770362984212 
1.096907666694319e-19 
-0.3689669917314533 
0.2615512811584236 
0.03400912959266749 
0.4456461826711046 
-0.8831286205136356 
0.857501201434998 
0.2160853285151296 
0.03190930778434461 
1.363961041029731 
0.0757492314549828 
0.02230667647365754 
-0.04507159367717458 
0.01290514285396756 
-0.5598413621912233 
-0.8188522680993311 
1.201524211844432 
0.02928163697620425 
-0.4406452630049033 
1.071495104239127 
-0.34269101471463 
-0.5979570303517283 
-0.4690398490609319 
0.8512692459801973 
0.3532739161728357 
-0.4156985876023528 
1.12944176872135 
-0.1093534043213032 
-0.114178723631025 
-0.5208582385288341 
-0.05786162906706434 
0.06941299330936862 
0.8730303040106949 
-0.1076850810634838 
-0.1971899837309261 
-0.3876791210219231 
0.6917162021728401 
0.4362797315998056 
-0.6918925732515282 
-0.4339163212051118 
0.09027282601295651 
-0.5837822526499921 
0.02540325671281518 
6.500977870176755e-19 
-0.06783027294188257 
-0.1102901634985235 
0.6375850737121121 
-0.08560860528437308 
0.03345397810996079 
-0.1754378796713159 
-0.6260660262333168 
0.005988436507814285 
-0.1991855443740723 
-0.4185615783181286 
-4.292339460211167e-19 
0.1358357376166603 
-0.4523450788353471 
0.7092830380187388 
-1.000961935472105 
0.2510603194189412 
0.697295681375763 
0.08659085637416737 
-1.128976093016406 
-0.3570582393031714 
-0.1898197332159326 
-0.7446965490194006 
-0.1713340633276603 
-0.5361133977562038 
-0.445855969234185 
0.3729577607646203 
0.6093377571712781 
-0.4528567556218521 
-0.08986774485646966 
0.8809298321783081 
0.6522173385923664 
-0.3177153513866208 
0.2991821490322318 
-0.004601557345422136 
0.09497753571256368 
-0.1343341419391158 
0.2458578317926413 
-0.3156117383316829 
-0.4014859787965088 
-1.048765327503898 
-0.3964906167610228 
0.3400920974523738 
0.241837641419181 
-1.027496114845705 
0.5663634590138074 
-0.06095866900395895 
-0.5692362926803377 
-0.02745701458456299 
0.6289306745129396 
0.1356058070971268 
-0.08336601666804774 
2.071110577347203 
-0.02582777213091908 
-0.227293872232096 
0.4558294673287763 
-0.58073274156897 
-0.9488936819216487 
0.10970285868735 
-1.043211556084587 
-0.04502361780351011 
0.07308794400399528 
-0.1239067750137699 
-0.02408314977984685 
0.4559059814411968 
-0.1245562692548706 
-0.5912941527507373 
-0.1024260068891521 
0.6037865360181192 
-0.349409880079345 
-1.504465979821859 
0.9267656928855882 
-0.3830149597654173 
0.2103756107104795 
1.10665578869796 
-0.0340030670632162 
-0.0100052458706341 
-1.132101046386836 
0.2908318535556693 
0.04770110230886469 
0.04549556538766907 
0.1576537880322565 
0.4137813056166383 
1.009077646737187 
-0.6267613621197174 
0.104158157936138 
0.09394967038072362 
1.544581384611411 
0.4605074676262839 
-0.162391345195463 
-0.1131456716896541 
-0.2524785427944158 
-0.5610591964010381 
-4.319444514523305e-18 
-1.09080888406218 
-0.4025363585600502 
0.2150362318765888 
-1.134338492686464 
-0.07803198873631334 
0.5896665789326513 
0.2119367361302885 
-3.811648262644352e-21 
-0.2942809806132461 
-0.6375418009479742 
-0.07148488463623011 
0.07246330041734662 
-1.575661333803178 
-0.8928583043874455 
0.2654633572527331 
-0.01400466759780103 
0.3212722568845489 
0.7813248282748818 
1.31385755268178 
0.8218768305564009 
-0.20964633042751 
-0.4487908482778658 
0.4345993162198106 
0.006368688368042243 
0.2811026296742304 
-0.2569642532783072 
0.4584642600589659 
0.6237275295036028 
-0.2494022264950647 
-0.02804814307063158 
0.5167716239929848 
1.560271855054995 
2.577457765291719 
-0.6222203303789547 
-0.02292740197644592 
1.051269389532574 
-0.1881326065389286 
-0.3207798187244212 
0.1606943340062787 
1.043401557114968 
-0.3557850773132489 
-0.08127056317441056 
-0.00720125266324619 
0.3805335684212294 
0.0366963054969501 
-0.5893834718049051 
-0.1160279053353368 
0.2423893709045259 
0.1200213585972698 
0.7619141818357735 
0.06588302204051234 
0.2797180511539915 
-0.3578646699684402 
-0.3255694803426235 
0.01525844657184943 
-0.01442901522061118 
0.6511881169390317 
0.3982306543402495 
-0.8943513549462608 
-0.0002918555878890857 
-0.0471810058474301 
-0.2374424759273182 
-0.2711125158334064 
0.1134904237107268 
0.2539203007344391 
0.725230969992561 
0.1980988640640842 
0.4837232928524061 
0.9212950243846849 
0.4747098969647064 
0.8903715054898433 
-0.8242941894144141 
0.002630959489458825 
0.8792447966163713 
0.8432905735274855 
-0.1105588496689127 
0.1319705761269883 
0.3873915837128161 
0.2107181856350024 
0.4883136446505471 
1.272750168139904 
0.2797101475492272 
0.5122614034282795 
-0.1671045349603449 
-0.4064860622925135 
-0.9554812098428166 
-0.01567249194232168 
0.4007264137131807 
0.1663415419377237 
-0.09203871881624962 
0.4048034212407133 
-0.1243640899762525 
-0.1677802739739662 
0.4118472356503801 
0.210966163628354 
-0.657033498784477 
-0.144246793261317 
-2.750210100616306e-19 
-0.107760665113752 
-0.3442749439345306 
-0.8726186313707736 
1.072076079180857 
-0.2204666510852815 
0.4621168158189699 
-0.09026594418199961 
-0.1909413646185427 
-0.2318167473357318 
0.1450323637830589 
0.3592709036038007 
-0.04515161176999402 
0.03344108285622691 
-0.05903565498731537 
-0.0942912321358753 
0.9854119944184718 
-0.08060731078279429 
0.1019881550795309 
-0.02348079862471541 
-0.5934677335237591 
-0.6076331562744871 
0.2331115809545882 
0.08984996736939144 
0.002766326245537523 
-0.1974505958847343 
0.2307842552771915 
0.293316202599142 
-0.2753556545721034 
-0.1416524299493507 
-0.4371108505181566 
-0.5529290967203044 
-0.3637322746090659 
0.1729609911112924 
-0.5038495074218764 
-0.04550738893334151 
-0.969345305603848 
0.732495770062182 
0.06345003332623814 
-0.03548982174404832 
-0.6562593240330491 
0.716468815614676 
-1.046085689859061e-19 
-0.2419661288543002 
0.138228097686841 
0.2430758485681258 
-0.036900005966151 
0.1710922261071574 
-0.006951418109209309 
0.7159081864561223 
-0.1310531798901808 
-0.2036196143345192 
1.452578675583838 
-0.1237707105233845 
-0.475217904924347 
0.7928282861737583 
2.041375223290519 
0.2254725512745461 
0.2326787626326681 
0.4319263594245754 
0.1302367507389918 
0.0008079525352228701 
1.056258674126738 
0.4689360817160114 
-0.05343219359544273 
0.07826377652194998 
0.969635252689008 
0.415878822926586 
0.2770638144729271 
0.01743208593002005 
-0.2087922799533601 
-0.01068999175304484 
-0.04680394059933724 
-0.6272262009142096 
-0.2174219649254862 
-0.0953883369831372 
-0.4957524416309416 
-0.7636150773827084 
-0.0610010128323228 
-0.6044963625688997 
-0.07276013342309637 
0.1304820981567531 
-0.5222127329169314 
-0.5690472091206394 
0.8260269476751735 
-0.2329296495219364 
-0.288236276416233 
-0.01582993363881188 
1.010486167452273 
-0.3705481189206449 
0.01343577095972842 
0.7741914699125364 
-0.1037027970041607 
0.1301956497423719 
-0.1544060168759092 
-0.8306008932804637 
0.1100018679884597 
-0.2911751242307994 
0.5658789725746548 
0.06978133735158731 
-0.5768358269311725 
-0.7468782751699661 
-0.05135503049690274 
-0.007936525124071836 
-0.08551572742954967 
0.108409141895443 
0.09034931182197564 
-0.1389911322539624 
-0.0371942526808272 
-0.08120986929512838 
0.3513500115156172 
0.137102367046181 
0.5639328799723149 
0.4505027708832942 
0.5712644793749113 
0.008994970671273981 
0.1835606619614688 
0.2913617894044142 
0.1072560420209872 
-0.4737856472522302 
-0.7067271487210721 
-0.2748207353504483 
0.4401951602853986 
-0.09289617436894658 
-0.0745360023278701 
0.0005392846044439402 
-0.01020441289433337 
0.2988998335928518 
0.8643954964558529 
-0.0495900955476315 
1.191703222573281 
-0.3321810867823903 
0.7597403484511902 
-0.1337422043232376 
0.5001211632342034 
0.05914659863315069 
0.3133862990889452 
0.1429358358680689 
-0.09806547212474349 
-0.3648038790066762 
-0.1557342299226652 
0.0450626853134689 
-0.001416007715629485 
0.7319912309608793 
0.1466339486081642 
-0.1630494427976943 
0.02708498988715711 
-0.06885333580682906 
0.0636077641363864 
1.146994672626261 
-0.578979811107131 
0.5632747029598301 
-0.0341777898301248 
-0.670440994330752 
0 
-0.1457129817439997 
0.1480439477669764 
0.1573103444364942 
-0.1314126579876578 
-0.9109514888167348 
0.2718440924264311 
0.2438692310034887 
-0.2238408576822567 
-0.5056380391596443 
-0.2420296889404857 
0.6580726651724477 
0.4109515176972552 
0.02588542019055295 
-1.074612755149596 
0.3328759828137526 
-0.4478905215284612 
-0.3215030084846067 
0.1138765523421672 
-0.6514692836201326 
-0.7680336360819995 
-1.08371073332076 
0.3569082313028709 
-0.08495330868070923 
0.02472779204678549 
0.8884254551106363 
-0.917053930695706 
-0.4147616138750376 
0.8626571257176772 
0.2164232537140641 
0.2194097472638872 
0.03589262011188078 
-1.238785685359414e-19 
-0.6363200999540137 
-1.785407193295356 
0.7682636115922439 
-0.01223790664087236 
0.4671798124233837 
1.074575288547977 
-0.3161645894195247 
1.21065345542372 
0.7934524160331847 
1.213135865395262 
0.2504898724915993 
-0.02795847764530036 
0.4838657698771914 
0.4811188136984945 
-0.769324614841444 
0.01882841055250683 
0.08240736844602262 
0.809958007955106 
-0.1210953743777529 
-0.1265761648429454 
0.8273542072854656 
-0.1230190766393271 
0.6422321180077722 
0.1072104983264686 
-0.06493326857129698 
0.7436967415751886 
-0.1669226035562522 
0.04521333122175353 
-0.3583672912137328 
-0.8735709631337644 
5.194958944629031e-19 
0.2695266669793857 
-0.02327107860138198 
-0.02751656593750694 
-0.4261605779257235 
0.3449728090223336 
-0.1501146917684222 
-0.2127902015485316 
-0.6142986212084164 
0.4718288183481451 
0.06006986357950488 
-0.04174483696341928 
-0.1908963428439707 
-9.253834948753231e-19 
-0.2093541271059608 
-0.8763884822622111 
0.3316831620669389 
0.006349739475379259 
0.03744816921904184 
0.5174189675777386 
0.4457029874560789 
0.7396018661860784 
-0.405946552749114 
-0.221548812796633 
-0.6802062350315764 
1.653038198953803 
0.4644339798816768 
-0.1591192322816425 
-0.240639088598555 
-1.243330704299551 
-0.1132440675699068 
-0.265821201183979 
0.1783037521390603 
-0.08844020947646039 
-0.1520596519578224 
0.1804925954644835 
-0.1816732985673697 
0.8463051186644822 
-0.7302396591226096 
-0.6457866118926416 
-0.5944813333836169 
1.832479695557893 
0.3084869565463158 
0.4681757685471774 
-0.8453708936292751 
-1.141698686866824 
-0.3678290152640202 
0.2843957809782062 
0.2481502449844543 
0.5437390787656622 
0.4822827117299932 
0.05294793172900389 
0.5386074352447283 
0.02464262283975271 
-0.1032708208362046 
-0.02743667659886274 
0.1431252768889867 
0.4459243767051667 
0.1303725135198537 
0.4983084376074393 
-0.05756745868725489 
-0.05061168974495792 
0.1575134200882602 
-0.01184128958914901 
-0.135035023946147 
0.7103206897728077 
-0.6171374633539737 
-0.0680249724646062 
0.3170772998112285 
-0.0391880377115256 
-0.0004192085988619564 
-1.985233470127266e-20 
0.9525217824962804 
-0.2947807567666507 
-0.450555507482664 
-0.3691800740167607 
-0.08947098672677191 
-0.5921647499045974 
-0.5074488979427841 
-0.1246649808489924 
0.3924676756080376 
0.9128586500727837 
0.05376673627819354 
0.66874387357136 
1.373597530455227 
-0.06719987319110174 
0.1720386125727538 
-0.4828107329701475 
-0.2876487959111252 
1.765261312374999 
0.08660833851302423 
0.277177478197026 
0.5791136234763345 
0.4483143476072529 
-0.168922097992943 
0.3884320422768219 
0.2172276454858498 
-0.01315036631246119 
-0.3968052136925316 
-0.3960276983348197 
0.6998162882380392 
-0.1792764678247162 
0.0140791994047335 
-0.4998425790109711 
-0.6430569448352028 
0.001026788882003115 
0.1268645710068955 
-0.3324561422947671 
0.1466669152293749 
-0.09098122088020251 
-0.01798834499165883 
0.7691472310972672 
-0.2857099556931946 
0.05832489787778004 
-0.0702602709828877 
-0.3304329764371219 
0.854664625794355 
0.4560928531501889 
-0.9112291021815401 
0.01629414455988518 
1.708738445132851 
-0.007479549349384269 
0.3372726334052053 
0.08969265945061078 
0.3610999202692741 
-0.579599902023892 
0.3029102268124297 
-0.7645784494666978 
0.7975120609954492 
-0.3074710786659499 
-0.0876933480324802 
-0.152367040942896 
0.3945204861643116 
-0.06083870791675817 
0.5913255329742524 
0.01138749487269756 
0.2420159262438045 
0.04200142733045566 
0.1881050279576092 
-0.1247408125443043 
-0.2030656116946397 
-0.2782469123244943 
0.3598283468530687 
-0.7481989974008697 
0.7196883726073522 
-0.09833258866057719 
-0.280000991609522 
0.09383202015556819 
0.9814105055705019 
1.13414184863046 
0.02313975074338086 
-0.2671788113826711 
0.380789796270011 
0.2225434085933601 
-0.2845946874502849 
-0.4910458512094952 
-0.6370444827345566 
0.02489175100883456 
0.2373996214855744 
-0.1560111148034702 
0.0611442448974749 
-0.004768246434845964 
-0.08275448386339676 
0.01741113441056937 
-0.1491791474222788 
-0.0360820511972491 
-0.8226677660826825 
-0.1238854309431294 
1.191253245291241 
0.01751590900489418 
-0.0670266633848567 
0.3674395317843763 
0.3889815769870846 
0.03237037487056307 
-0.1138041076843797 
-0.05260209928983184 
0.1680851851727665 
-0.7106264984220405 
0.08848298232733627 
-0.9451686674207872 
1.739942474727429 
-0.09843932636695853 
-0.02346889436664128 
-0.4196092172791916 
-0.2143179875286465 
-0.2400907209731916 
-0.8730517813611893 
-0.03711474028088377 
-0.02689636845043806 
-0.04309911941993026 
0.1684451842188633 
-0.01018028284000501 
0.2603635804723549 
0.3864209279980082 
-0.5543306893404664 
0.2958392302237828 
-0.5469484507860543 
0.1465519803310232 
0.1711936857676822 
0 
0.02534097792459874 
-0.1571613190995828 
0.3308164033940911 
-0.3098621190150066 
-0.4799895336178823 
-0.2155900176648347 
0.1599516308254788 
0.4176658485965338 
-0.2278767435836181 
0.6782428877452287 
0.1561080704929808 
-0.121197755837041 
-0.05240767903768895 
-0.1564607697870031 
0.1765304412778896 
-1.036863433385432 
-0.5121178957009015 
-0.2510261296871338 
0.3430991017499854 
-0.02362272868175345 
0 
-0.2690426073192946 
-0.1744582973776978 
0.4217156139614348 
0.4825714125055814 
0.1266565489464464 
0.8305692031758558 
-0.2394333898837312 
-0.3537436242558392 
-0.220007625542926 
-0.001302031029454626 
-0.5903362433746768 
-0.0763835269349858 
0.2067386017582865 
-0.3390427038860391 
-0.7338779634440978 
0.2959967694481384 
0.2665491156123991 
0.3243980778174231 
0.3130989370990916 
-0.249230336834168 
-0.9999644854422177 
0.2410646374133827 
0.03049786146054919 
0.2615700641192105 
-0.2094712568767821 
-0.0813933906829042 
0.2405699112295007 
0.4328224821877343 
-0.03074628044826329 
-0.3737924307132093 
1.31392304357803 
-0.6707444483631885 
0.5848378208072665 
-0.4815254051789515 
0.1476962861974711 
0.135072705155448 
1.255692626624149 
0.09233661376189695 
0.3943850656951903 
-0.06646894330018632 
0.6011758113460948 
-0.1013548862716577 
-0.0237117935806797 
0.06933279331228474 
-0.1889135164031645 
-0.02030073402383126 
0.4329049788546847 
0.4151920003232283 
0.1487201393991765 
1.057245341963698 
-0.7265429992157894 
-0.3543176446200063 
-0.5540912239359879 
-0.1361062970012709 
-0.4085462402697412 
-0.6115147501269697 
0.3186308501939767 
-0.2794681974254685 
0.08738084674601151 
1.069788622033297 
-0.06832585707644614 
0.3401398058582142 
-0.7757591023743007 
0.7264886456106541 
-0.217638070525265 
-0.008627637588255743 
0.3972248528528424 
0.09575500856110883 
-0.4575308876063867 
0.5665590810607362 
0.0885759194507859 
-0.05404652505723721 
-0.7905182389795529 
0.3409891235577324 
0.05070189401016758 
1.537321167848177 
1.026930299688071 
0.1296809913230399 
-1.279019750353994e-18 
-0.2625088413209707 
0.3795135908064217 
-0.2724990021173576 
-0.05434514305317056 
-1.520954788310253 
-0.01444488680757149 
0.9556327520607516 
-0.1748932466100112 
-0.8097952507377173 
-0.02415895854782811 
-0.2118058975950378 
0.5699416304849725 
-0.04269700545551831 
-0.5852561315716117 
-0.2123929029102006 
0.2605588354779879 
-0.0579715901993181 
0.7406603748905264 
0.5662336210600395 
-0.2091037705048842 
0.2049687905284606 
-0.02572282448945494 
0.3752428350401768 
-0.517078739008909 
0.1257058208073669 
0.4690502959451667 
0.04149835004631391 
0.2868421865914966 
0.3051969859520048 
-0.06737521502640922 
-0.7866187154474075 
-0.1252926097993134 
-0.04751754085154217 
-0.0009057581642247775 
0.1183192381108522 
0.6642999269509273 
0.03971695091539516 
0.8148514084342185 
-0.3217689945325725 
-0.1003192844643578 
0.5205056636886851 
0.08701708334462654 
0.3165612350595675 
0.01801805291552744 
-0.597044598373783 
-0.1387843777173109 
3.044024654195142e-20 
-0.5946745672512471 
-0.5933394300153851 
-0.202202725453849 
-1.001568687946005 
-0.1760844126972068 
6.022616013214889e-18 
0 
-0.196871372400697 
-0.1630501510043273 
-0.3983798164682874 
0.2664147349314175 
0.07110456263928583 
-0.3597913027414765 
0.6176482219012743 
-0.8379243473609272 
-0.2717769796669345 
-0.3017255748984809 
-0.5791047600825352 
-0.1376517449714068 
-0.5861236526628143 
-0.3506697866485958 
0.9102370851025442 
0.02665567852969476 
-0.05925978112582012 
0.3120877845258261 
-0.08592826199300493 
0.5435143974185356 
-0.2148333019758477 
-0.041119099581328 
0.7102635756199537 
0.04406062170195309 
-0.06194764665825633 
-1.875330945221021e-18 
-0.04246889567394514 
-0.2973836067437209 
0.2614779365293263 
-0.2927706307163318 
0.1893359630700272 
0.06431999577271529 
-0.1951128195465367 
8.196367253665441e-20 
0.002582023626262278 
-0.1289001256278731 
0.2467834799015778 
0.01011947303487013 
0.5295207913978425 
0.2070324736000091 
0.03838792250998782 
0.8284738013853153 
-0.2299513962663118 
-0.01079745956956953 
0.126227767653936 
1.00076209064214 
0.03934452623234585 
-0.004918376926953244 
-0.4901221606578756 
0.0770927612681748 
1.413899368764405 
-0.005402542852122384 
0.08020469690806352 
0.8139227239388336 
-0.08195482198112344 
-0.0289321250668246 
-0.3091489349237571 
1.028655604676264 
-0.14765044881087 
1.309522559438921 
0.3454714448977 
0.2334997422978438 
0.2941142146678329 
0.269881712349491 
-0.1244303979872005 
-0.2883211528821274 
0.2660070942602814 
-0.03490032619487091 
-0.4128925136907484 
0.0531727527917474 
0.3987355481491005 
-0.07628707813891222 
-0.02161565592027185 
-1.475143916898882 
-0.2255861209442502 
-0.2830075763710417 
-0.4217916775970485 
-0.04100571043081418 
-0.552751354318772 
1.831883386565017 
-0.3900550399809778 
1.104134827882275 
0.04501853174482216 
0.25099196395998 
0.02872823640609045 
-0.2607997094311906 
0.9202876736777768 
0.7595787342493299 
-0.1624969711485756 
0.01048807664876348 
0.3954321077422261 
0.201200626700735 
0.3357275833739412 
-0.004193418725980229 
0.9730952682084926 
-0.7425420383454728 
-1.284845389201309 
0.049247377047277 
0.002107597670617853 
-0.3995069430068277 
-0.2129067389620982 
0.05870214288149027 
-0.2841473415343724 
0.2906556465354277 
-0.01248564853771486 
-0.001023612869213908 
-0.5527494941898311 
-0.4783000000119027 
0.2634906143598679 
0.3827657832876115 
-0.4029850524332888 
0.1178059390562222 
-0.3102997530671608 
0.8110052998769038 
0.06268222570215448 
-0.7979217109397106 
-0.1257508841692158 
-0.5315123116852819 
-0.07498345624831824 
0.2658943490562191 
-0.1562001361411489 
0 
-0.3656178756498354 
-0.1683459847924685 
-0.03930378709694209 
-0.1203679618883819 
0.7441767046141909 
1.043308017362108e-18 
-0.1416062984536661 
0.0391870794899111 
-0.008376646911812963 
-0.6328045489327392 
0 
-0.1465699841657523 
-0.0501137402581668 
0.3458247169933321 
-0.2977558016679689 
-0.7549685631992644 
-0.7211476432222582 
-0.05517519557772242 
-0.1916909499338167 
-0.4810536915514699 
0.1064710302782345 
0.3803732881155923 
0.1670322237716517 
0.2167798755407336 
1.115055590017847 
0.5091173336786528 
-0.249445360330292 
0.6722157837805337 
-0.09978120931152346 
0.8347125689773987 
1.11222364749482 
1.220177104005365 
0.5460931971701722 
-0.04298902751912779 
-0.2054580942416928 
-0.02913864527599119 
0.09860033576080005 
0.2867272485482588 
0.04535622895577236 
-0.1064694866353784 
0.04171132510271984 
0.09301138292547179 
-0.1806528348648216 
-0.1430966152154068 
-0.5666119115846194 
-0.08394227977568613 
-0.559528003983882 
0.009648503199485606 
-0.2776958029619993 
-0.1680913306371142 
0.3401947400082115 
-0.8188165040046081 
-0.2249989904496155 
-0.05975358254358892 
0.489615251619429 
0.551595284681434 
-0.189019723685133 
-0.2156079943645189 
0.5167809829613951 
-0.3079557251122148 
-0.1524407544711994 
0.1665019944164546 
0.4977394782825161 
0.1965668334899973 
0 
-0.08564372219680644 
-1.511526410074751 
-0.5607847186072656 
-0.1668753549147049 
0.369796991927884 
0.2469914271502964 
0.4562260429848907 
0.02491149750914601 
0.6012279479103573 
0.2734898300958011 
-0.04876484331100828 
0.690088162979259 
0.04042201654710405 
0.5238036911884586 
0.9115718086348295 
-0.810017897042401 
-0.7033343735187697 
-0.08408434125942711 
-0.339496040554199 
0.333108123045749 
0.6402472033278005 
0.6965666708070338 
0.0195876652287414 
-0.1004805785420028 
0.1416124485891205 
-0.649940987101237 
0.41629259500773 
-0.03917393010728451 
-0.07447474726958579 
0.1352642886667469 
0.9634326891523505 
0.6452742700829797 
0.230956556710573 
-0.00540714861914089 
0.1447860914652623 
0.358900884507946 
0.0823526951658077 
-0.07360286876801889 
0.1263369027189156 
-0.1193111491124473 
-0.1763980316588183 
1.29840573020939 
0.09449197628707133 
0.5252773530356737 
0.1226840951513646 
-0.05080787334346221 
-0.264020683242657 
0.3254703728335522 
0.2827316203618703 
0.7030311389424272 
-0.070841471974029 
-0.7002267391743245 
0.121284621507969 
0.1083421123359879 
0.04863229443586467 
0.08719553779584215 
-0.09798027596746896 
-0.2696228593718191 
-0.4907946494973116 
-0.1032158981381558 
0.0279284700399136 
0.4538660026508878 
0.08585719456520993 
0.3932311036885976 
-1.359754768770406 
-0.06008225644180688 
-0.01037627988347609 
-0.3999999759783294 
0.9855130296387721 
-0.0003648461987878945 
0.3491044417555779 
-0.01905821565382141 
0.03078048659646779 
0.2143198981768601 
-0.1382920566775322 
-0.2189039297999253 
-0.05675912058769794 
-0.4511867817530361 
-1.419413311359659 
0.8077799083204363 
-0.935407319398244 
-1.131999659486287 
0.02040517231059378 
0.6125929828896217 
-0.3644083385504044 
-0.1262929365625622 
0.468902186605585 
0.3389910690445873 
0.001615606925397672 
-0.04494309011148083 
0.06347658029563256 
-0.1000282947325524 
0.1089615771654065 
0.2433651490585913 
0.07462179502380542 
0.1897926230256343 
0.4147129262623913 
-0.165829068948492 
0.2052496665567477 
0.01102376235309211 
-0.2891901808148423 
0.09964945254872216 
-0.05792454348627996 
-0.1883989361544265 
-0.07313048377107344 
-0.06928329345243674 
-0.1988897688025258 
-0.307831912147833 
0.06834725838060965 
-0.05322231298482579 
-0.01011380600809427 
-0.04984222355405842 
-0.551690622487955 
0.4345962375410389 
-0.05326149404357156 
0.0924386859559706 
0.599864375056835 
-0.1299333659672852 
0.4936441424991305 
-0.8697359394152188 
0.04964275934149349 
-0.117493450211422 
-0.3136189786534793 
-0.1160582681971568 
-0.4826942137150467 
-0.002494113996730079 
-0.9199944007165514 
-0.8152734930809794 
-0.3119597126593491 
-0.1766988402711826 
-0.6748072941684049 
-0.2685716094713494 
0.2609640180625182 
-0.02516148830792674 
0.3188511716500821 
0.02485361669126838 
0.2814839114139731 
-0.1625958253887266 
-0.4487607002622915 
0.347765568848786 
-0.3872881739463999 
0.7201607306777124 
0.09130763792942768 
-0.01184707611843715 
0.01408613479974247 
-0.6696924423577059 
-0.06532741430677455 
0.2701053682766123 
0.01974500326190492 
-0.4655940667449331 
0.4433173688884927 
-0.265028605041546 
-0.5376973202907696 
0.09055790585946688 
0.5889661406107084 
-0.4387818399995582 
0.5192890312109919 
0.1830158265374948 
-0.0793992519259888 
0.2013531883409685 
0.2352773905313468 
0.1987770312661324 
0.8495906301529577 
-5.716413602782459e-19 
0.09412403582175172 
0.907277492189961 
-0.2812077371982936 
0.3346184267210022 
-0.2706779557925479 
0.04688075121319642 
-0.2758447593544711 
-1.051062268919725 
-0.9658978975441241 
0.332120035442641 
-0.4909610603891643 
0.0789825200322315 
-0.4195163195228113 
-0.2786423667642466 
1.146868467216988 
-0.06412714458286262 
0.01227999773407059 
-0.1028110938371165 
0.8122667904997436 
-0.08060338967601571 
0.09042187801706975 
0.6169705317159313 
-0.2003945111371107 
0.0009532098609172042 
0.08961492569871564 
0.04597297557349826 
-0.2656801746624271 
-0.05591657709497196 
0.6793173844107308 
0.163424524965112 
0.1831874647956943 
0.8471129408844299 
0.7394892797087185 
-0.6038647681212366 
0.05815645267299219 
0.4584043258480884 
0.4092924854774613 
0.8456166420551642 
0.5930817578681773 
0.5859196138071183 
0.3200985060057823 
-0.226085559204601 
0.04725740604048508 
-0.839098279525351 
-0.3178542486192298 
-2.12880555468687e-18 
-0.2478394082902595 
-0.0153739900534464 
0.8968658288538662 
0.1125575427646018 
-0.4568719275175979 
-0.140764018787182 
0.6840054657721119 
-0.2774933859527298 
-0.03141877529982148 
-0.02131432581991414 
-0.2181871756541985 
0.04090563592270228 
0.3590057956595222 
-0.7304782931841434 
0.3194566381504559 
-0.8438704500632865 
0.5468772350470511 
-0.02512489151770127 
0.09373770580186463 
0.2326384702753586 
-0.09620011421403302 
-0.3440267720456614 
-0.3329841927913325 
-0.3386004622191309 
-0.5436519177094659 
0.5913144933038109 
0.2549354890886404 
0 
0.04090742025962225 
1.116971426445019 
0.1853407553633923 
-0.1360758379085021 
-0.1886163039688632 
0.715891013601384 
0.5182476066145724 
-0.2140431760230052 
0.2203674811061784 
-0.009763627359586777 
-0.02556137809990323 
-0.7172869811590944 
-0.1858131001911689 
-0.2541366618621195 
-0.4171327118704025 
-0.06571719901002802 
0.160036705759435 
0.1246024553376041 
-0.6318564990757005 
0.4653229082496173 
0.342286956775734 
-0.01937449389037115 
0.4916916970850483 
0.3691026219614307 
0.07336431847950912 
-0.1243567228639308 
0.2136164086683646 
0.6279985745197006 
-0.2086607471691366 
0.115493626700784 
-0.2179586607475004 
-0.2149806676322384 
0.02116310923862815 
0.3401665003703375 
0.08283951761965234 
-1.114455541869129 
-0.07269015897363314 
0.464233999121368 
-1.478251612084565 
0.2917875908577687 
0.0004679323518506145 
0.02473712099417868 
0.5550841506362402 
-0.03980608202153894 
-0.07354018838946064 
-0.4041814531667088 
0.6327752126092314 
0.4243885809237579 
0.09241863906174574 
0.134794859823615 
-0.007000771703180347 
-0.1676482953976438 
-0.375083137735237 
0.01024985079323584 
-0.7651860179198541 
-1.016977779156452 
-0.3148815504163958 
-0.01608074418996199 
-0.2480063948830087 
0.4395692092970745 
0.09756563937907933 
0.5324408235014417 
0.04588888317024604 
0 
0.005010756410970113 
-0.06624175057401835 
-0.06297578694151851 
-0.2935137000638557 
0.4263467709848293 
0.6765662787011268 
1.440995265760325 
-0.2374627042746838 
0.713607135223159 
-0.865407812991332 
-0.03841531565144366 
-0.1935675672700767 
0.02627084546074506 
-0.9365998013696765 
0.08790522706163825 
0.4568533815877358 
-0.1591369432180463 
-0.4423554768537969 
0.5779519785101541 
-0.2717824366375666 
-0.1979388911886392 
0.5061743187080656 
-0.8676566061477035 
0.4493557487374746 
0.3683195126643129 
-0.1272912707965586 
0.5357915275913333 
-0.5359548880122266 
-0.03654680713955731 
0.3615780560255199 
0.07579696783860902 
-0.7579279667856114 
-0.08243318032067652 
-0.1311541918173411 
0.9841334852024701 
0.1540577932885185 
-0.035605056404032 
1.86471585836732 
0.4772733447471136 
1.998997755520149e-19 
0.0567222851749164 
0.6048260158335923 
-0.001888729641147691 
0.364935202441611 
-0.1701421756225649 
0.4512462180803994 
0.2069632797185639 
-0.1703134527586289 
0.05717799143114467 
0.2106315643978955 
0.02276732187790526 
-0.4767869238455945 
0.1502199980195918 
-0.2246714685677615 
-0.0003706897048611659 
-0.300194856727574 
0.09455758583732259 
0.1001890109613471 
1.272983005182003 
1.168389704775272 
-0.1815148938328905 
-0.3788697874247551 
0.3193118188883877 
0.08418041307655032 
-0.03333926342789973 
0.005150499650264823 
0.005460504286929289 
-0.4029079085734158 
1.013043134039381 
8.709192763668716e-18 
0.0230066447932532 
0.5872854277207356 
-0.7212530481363362 
0.3264500438235743 
-0.341039548018143 
-0.5440432971519945 
-0.03151593604543754 
0.2974440793313857 
1.037840102776118 
-0.3908012976662149 
0.1976544396947832 
-0.4237167921943428 
0.0746729266462821 
0.1581790918949006 
0.4498305983920379 
-0.306841593293764 
0.003176788815220171 
0.176964744809129 
0.1256894497717912 
-0.06930755638670806 
0.8369642756060988 
0.1344342237333768 
0.2826676549481237 
-0.3606153097595499 
0.07041764164600864 
-0.3827216722127279 
0.4780559439032641 
-0.02368956633337418 
-0.6481668806723847 
0.3246146311585952 
0.6351758381815363 
0.1651546399833511 
0.3321288748639382 
-0.3539858997577552 
-0.018080573653292 
0.6000084372883862 
-0.4071910684783267 
-0.1291688779080807 
-0.4524881713890591 
0.02614896548792504 
0.232921463805929 
0.401942986515653 
-0.001376585903693992 
0.4842711205968543 
-0.410018525820349 
0.06130885476796279 
-0.1559664502840523 
-0.08303308598645905 
-0.4950796787784698 
0.847747452408033 
-0.2026790778370196 
0.4034465639281521 
0.02523607612464287 
0.103461213183399 
0.003202383731341372 
-0.2533105164187718 
-0.1819708000407762 
1.112541623130527 
0.5607501785069116 
0.9532749524712236 
0.0616503246292037 
-0.0008210002464037914 
0 
-4.514685608865421e-19 
0 
0.01210711830637327 
0.1248358095163168 
-0.6543697195921411 
-0.1451572084858715 
-0.1055165732924075 
-0.7942032554870083 
0.1710667522980857 
-0.003157129832483961 
-0.1893486532383883 
-0.7764540440157534 
0.2515615605057901 
0.03488215044083974 
-0.4080629671463863 
0.3266871277833078 
-0.3749553155292353 
0.06982974186929369 
0.3334768145330148 
0.07405211165789775 
0.222250208820279 
-0.05078406399977483 
0.04413952550786878 
2.824854879093092e-19 
-0.3967705969429735 
-0.1317454297379709 
0.104277894327701 
0.9069060875725027 
-0.1223253869786475 
0.16724972006752 
0.005782747548500275 
-0.3043497708859244 
-0.1453663890047074 
1.589774913807637 
-0.09699055083869819 
-0.0491633153754612 
0.1392200769870305 
0.001838279849606756 
0.04796345143824836 
0.04822943461580223 
-1.275606800399262 
-0.1806658878060738 
-0.3542202354937177 
-0.4586301530097438 
0.001306055749317555 
0.9621824071332956 
0.7350158267936098 
0.210178944970576 
0.9421675334444922 
1.19501777554776 
-0.09190110822654951 
-0.0343038176071394 
0.1330952900517016 
-0.09276955772518393 
-0.4500319174782739 
-0.0122869852686193 
1.098199342022912 
0.3322159157277622 
0.131703765138842 
-0.01268494230084429 
0.4759039230507582 
-0.1079439142134772 
0.01503514647605792 
0.4915473354647448 
-0.1221793363975349 
-0.7803595018159756 
-0.04768910758567513 
0.292577930350064 
-1.473767912821457 
-0.01841726784969664 
0.1291583167861496 
0.06509224443787075 
0.639616308962962 
0.8580866384437184 
0.3773858085481872 
-0.4777203674258311 
-0.7837115136011635 
0.6819377478354671 
0.1893320603275376 
-0.5087436283009326 
-0.3199309329517177 
0.4122124139552935 
-0.02810958668131941 
0.5242015356281547 
0.714206374456648 
0.4591201586492121 
-0.1098847436922594 
-0.03165495462136467 
-0.3363261203470151 
0.01143920760564308 
-0.005439831219182538 
-0.02228878209637424 
-0.3312773648069282 
0.7289787895170989 
-0.7947534905237883 
0.3966339911486163 
-0.8685921930885883 
-0.1335977442206867 
0.2686452870080985 
-0.3742220879941689 
0.8010674563335274 
-0.4261459471563026 
-0.2217918249949431 
0.2227134568053544 
0.9510181507738824 
0.5584995845455012 
0.2622099586988173 
-0.3164887474947364 
-0.7334881604240859 
0.02426317529489854 
0.1631139657247672 
-0.2581173326656483 
0.7576909507401388 
-0.2358284506718351 
0.8260794373089368 
-0.0333226848219569 
0.2675877190319774 
0.00251605151267041 
-0.6580679484472112 
-0.1240588889152862 
-0.008455769303578463 
-0.004594159221443348 
0.2010841264653573 
0.07367231399815896 
0.01616803097844464 
0.1657506146768291 
0.02393571254365447 
0.007917554854029868 
0.06576999046840566 
0.05578969843111123 
-0.5783929909629129 
0.2558167509526394 
0.08593629552183359 
-0.04578766229157378 
-0.02474113747952227 
0.70257894271737 
0.3879116635608121 
-0.2133418107242118 
-0.7695384392742424 
2.362877815704676e-18 
0.1383558382650703 
-0.2461609963957383 
0.2868888233209814 
-0.2653182358310734 
0.5464662325659202 
0.3121034133976944 
0.3716641469044587 
0.1780553419955892 
0.1493234650773832 
-0.07172140566050053 
-0.2642007644613055 
0.09148331864918723 
0.4178211010057619 
-0.1787500669733935 
-0.1232294589825774 
-0.009829787539641774 
-0.04229756501868579 
0.172639185019947 
-0.1187976528522125 
0.07342600770866303 
0.1142552270729193 
-0.01238346513184557 
0.3351968712440796 
-0.007646539443228513 
0.7991869110161862 
-0.06382566229750812 
0.1752694998207843 
-1.694426643015787 
-0.005662411951802167 
0.5329112235418962 
-0.0354444393980873 
0.1570409853251239 
0 
0.03929384111086976 
0.0497169393130391 
0.2725450026339118 
0.4199398744300243 
-0.3719088370691956 
-0.006996797878152588 
0.8654656449120567 
0.674079973441042 
-0.09475958967377812 
-0.2560233204714526 
-0.01270956965064127 
-0.3619524157084694 
-0.1521168782889804 
-0.06632138663266034 
-0.07032583502375782 
0.05476040179943009 
-0.1314831505585072 
-0.2664663514413064 
0.1758557861493855 
-0.1654384892438269 
-0.207461388228793 
0.9367253011290245 
0.06224166273672858 
-0.1835478018656987 
0.03972932755430161 
0.9479704275146242 
-0.006694893411132169 
0.0241977748804856 
0.04573556445198147 
-0.8960425937099397 
-1.135512051133491 
0.5780669877153934 
0.2272702146024201 
1.306912649760393 
-0.373306625701157 
-0.9555600316373749 
-0.04469356307681209 
-0.5855029103321472 
-0.0008959739779648974 
-0.1299843292913791 
0.0482253390340782 
0.3299075569531291 
-0.05775574823913909 
-0.4275843056223353 
0.002898600627295264 
1.241424802238008 
-0.0003673608890216199 
0.1326688708184337 
-0.8730129892454886 
-0.1521333653826848 
0.7780604442453378 
0.06726101783628954 
0.1680002264822325 
0.04454327821775756 
0.03913161144502873 
-0.01682925075848471 
0.2507776533988692 
0.04040631039574294 
0.02649993903030159 
-0.7733691240983999 
-0.188480347789491 
0.4609654120695524 
0.1918253393722084 
-1.272807635197547 
-0.6390092867902466 
-0.003591440611980599 
0.6214799618049661 
-0.1374806260573707 
0.051261748424547 
0.3693461682635582 
-0.05723429261190568 
0.510639217783905 
-0.3871334563230794 
0.2135075153662045 
-0.6032837494665366 
-1.045498499426241 
1.530027137480035 
0.1656291347035196 
-0.7300476635801769 
0.131509492031761 
0.3513183519568108 
-0.2143452043437804 
0.2828455857183691 
-0.2968207375215165 
0.06523423964389731 
-0.06932809901787547 
-0.115594501599196 
0.05562499434692324 
0.04537921828208021 
-0.07045353408438955 
-0.01937986839639632 
0 
-0.8517100422482399 
-0.04244198253461958 
-0.3285427545610534 
0.2358129794776114 
0.2043515404069008 
0.5373328162795661 
-0.6644325174247694 
0.023232896901027 
-0.3961720772506242 
0.3024469603322689 
6.550396948693123e-18 
0.173795449331809 
-0.3334308647304418 
0.06532842136850162 
-0.4221233812955576 
0.09881218949226547 
-0.491166965030684 
0.2011699162807377 
0.03983048721880533 
-0.2174520539780566 
-0.4738469193420077 
0.2597205884351497 
-0.0351559729995081 
-0.1811457448815539 
0.6975391054589857 
0.6826114726872624 
1.189857928027799 
-0.1289742893541536 
0.1239364796572108 
-0.0779416162896146 
-0.1252559775282772 
-0.321995751729325 
0.4214939357658482 
-0.2893709325729673 
-0.4814190250860985 
-0.5021527096742068 
0.1586581510697394 
0.08817052966368968 
0.1040951632567704 
0.1041950729135508 
-0.4508067637151174 
0.1220734844682941 
0.1245595054397155 
0.6976911181069774 
-0.1839242075806931 
-0.05593591984824352 
0.3062241331745631 
-0.7183859008933297 
-0.5739849190248311 
-0.441889961682485 
0.6840125009113025 
0.01942132548225839 
0.03711671027667483 
0.9061994382835201 
-0.02641980487030859 
0.7175173752574107 
-0.3276853842443593 
-0.1826851733538607 
-0.5732267608926697 
0.1125128845052019 
-0.5559361030449075 
0.2494827856475794 
-0.1632913194641164 
-0.2301449986352351 
0.6449043228074073 
0.03335275587272504 
0.6638016724097723 
1.269886933221175 
-0.01924861502695309 
-0.7917311895095492 
-0.6297108561691763 
-0.6603560667433559 
0.01274683654173173 
-0.331086738259832 
0.2144785908400687 
0.4194891100844838 
0.3394329610288997 
0.1278885294129155 
0.03061790667698576 
-0.0440077755729525 
0.1347368538212084 
1.413700430508833 
-1.605287161906007 
-0.1197060047753304 
0.6857418106836298 
0.2342729188802015 
-0.4862723340747029 
-0.227670643160927 
0.3151347728280519 
-0.2087173147629175 
0.3868140340110524 
0.07607620123358919 
-0.5010588202260599 
-0.6713949670774118 
0.02717601485675754 
0.2809789470790251 
-0.8685049724551077 
0.0958212778573287 
-0.3660829345707198 
0.1934498381788343 
-0.7289722918141388 
-0.02500043538658618 
-0.2348553033779546 
-0.3855950970694365 
-0.5482222757513288 
-0.1709653359798306 
0.757872508917077 
0.5314055197418005 
-0.3624176208711382 
0.2959985749146163 
-0.04261342919934234 
0.2835993477051217 
-0.6020717446280534 
0.2650082200898051 
-0.9495942789106405 
0.1514178180297557 
0.2468228615783203 
-0.0810363832040724 
-0.1431634794551879 
0.121269228718941 
-0.9266032950848068 
0.9741699096805143 
-0.1734339564321581 
5.717472393966527e-21 
0.1248365398910448 
0.04545678602274808 
-0.5020205785010324 
1.410777092297282 
-0.120643253658181 
0.8578597544881793 
-0.03310155523372969 
0.3866751631023261 
0.04672024945017289 
-0.009414897229478246 
-0.09605658948522797 
-0.2333877610442251 
0.7380993577219279 
-0.1940155282961998 
-0.02265178357557167 
-0.2228118099377774 
-0.2257996775692318 
0.8721275659492876 
-0.2391026453919065 
-0.04986418283644699 
-0.7710300220320394 
-0.1798992836917582 
-0.1458873925591898 
-0.006640297723499267 
-0.2360610580142803 
-0.3298285275750237 
0.06040141882544768 
-0.07219569464465998 
0.678037574815379 
-0.3088094645834382 
-0.1835154414020455 
-0.1134451362119 
-0.5378739118050448 
-0.05962817427879322 
0.04705044138560364 
-0.02706575318146961 
-0.108087165816399 
-0.4113304194611021 
-0.239114797482405 
0.628251195550704 
0.07059016672122966 
0.8625257972406833 
0.3460111750237576 
0.7471431831979743 
-0.2557947703910942 
0.04695894797765796 
-0.8119405831945433 
0.02618467226506549 
-0.2469746015915698 
0.7902494133878463 
-0.08035166390821429 
-0.006243436565647176 
0.08502407165092632 
-0.587437095418834 
0.1522481153515919 
-0.1222967270020529 
-0.08154549376370482 
0.3965524965381832 
0.1180546137974445 
-0.7179386504658788 
1.00119238812535 
-0.04922670420578231 
0 
2.325105440213054e-19 
0.03063232849912439 
-0.3307312884403619 
-0.5699786478435602 
-0.1519220921405081 
-0.06992473529488948 
0.0531373920404561 
-0.08633956769746373 
-0.2337447504972346 
-0.3123334290936319 
-0.2800264221963358 
0.6127727078440532 
-0.07954109084366637 
-0.02357217190592797 
-0.5997044575365781 
0.7023848880576558 
0.1170400115807491 
0.1893500316362621 
0.2800288132894744 
0.162099024298747 
-0.3496503835651202 
0.08491954443005197 
0.007654116648454948 
0.396539555364208 
0.006627626542552414 
0.03408667194282195 
-0.130319986525903 
-0.1409907811014575 
-0.2707506134025463 
-0.3713127246697159 
0.49644299084778 
-0.2483933266425389 
-0.2963691805011457 
0.7498483141916954 
-0.6444793860882492 
-0.1853701716545112 
0.4460535545502141 
0.1824069854155587 
0.2781357752007988 
-0.003945148455565691 
-0.1330844188720773 
0.005763179924211075 
-0.6975764703317791 
-0.0591089411407431 
0.6709944371992866 
-0.1049040403766804 
-0.05569387194408763 
-0.002058450672907422 
-0.08597899660957868 
0.4719409486074262 
0.2245396013062837 
-0.5190385432212345 
0.4469003935531708 
0.1408588462575685 
-0.1231939686324779 
0.5658797152666459 
0.2837093559212315 
-4.557037256228136e-19 
1.186799038221682e-18 
-0.3883870541220979 
0.03657821151671789 
-0.1335639128900492 
-0.248295371979765 
-0.007385996402562826 
0.5155143903565372 
0.0299537649416444 
0.1122331749774162 
-0.04337229937549295 
-0.4426503565665678 
0.7195566505434761 
-0.3899628589562016 
0.229132804487454 
1.454295574871771 
-0.3186843148780928 
-0.169629343066926 
-0.3745737414314936 
-0.1832687798238274 
0.15600495118607 
0.07177315337909682 
0.02108300251601745 
0.1404784580559633 
0.2211506498113669 
0.3892264405735081 
-0.009652604431556308 
-0.2154276748527126 
-0.04243352396438357 
-0.2086811109015037 
-0.03514450879235365 
1.158021434990937 
-0.1381811776454228 
0.1098065753614266 
-0.00138675642240078 
-0.02686014562800954 
-0.1723643672535972 
0.9016224669204943 
0.1728510475158129 
-0.1011584751459805 
1.131251831006465 
0.05778609678546763 
-0.8669792557784317 
0.1295046123171769 
-0.04194739869137265 
0.2421010383714181 
-0.7659836325558008 
-0.7269430681032371 
0.4815782847262907 
-1.192598796565459 
-0.6047254493473704 
0.0544375122918762 
-0.04368914811695483 
-0.03023178122496201 
0.3738236770715886 
-5.989264090916751e-18 
0.02519154766053886 
0 
0.2274616409240176 
1.038506968252967 
-0.2667062513848288 
-0.08364526965876157 
-0.7845400061727575 
-0.1237927837561176 
-0.09927965688402629 
0 
0.1734957647424626 
-0.0996232089749689 
0.8209381173892882 
-0.01112941825187227 
-0.1442138529689462 
-0.2384759508326122 
-0.07135663523854119 
-0.08633391203250509 
-0.2101517464346867 
0.1803213063502332 
-0.1642939820311165 
-0.3096930171087838 
-0.1360797568062673 
-0.2228846181451289 
-0.05411688755929945 
0.4177171655307222 
0.2400877467028988 
0.1108816314095438 
0.00166319054485968 
-0.21239894244912 
0.1840482263504282 
-0.08236922146224707 
-0.00147323888007978 
0.4609888523206074 
-0.2619219133866557 
0.4314281519282226 
-0.1004590435564306 
0.1262597535604508 
-0.1209136126234678 
-0.002142246351194754 
0.2566247163484456 
-0.3883731893217047 
0.4933618264788024 
0.1180189635325892 
0.1252950114831639 
-0.1572252721300106 
-0.03754856636953788 
0.4262125404420644 
0.01745484465355835 
0.04737801585949725 
-0.3183975280859691 
-0.5416462572402387 
-0.02048560900750694 
-0.3073529029401967 
0.01745796382646301 
-0.02916520843075529 
0.01881444591029468 
-0.3797455438296921 
-0.1498707139705907 
0.07203788389711012 
0.1597866234450765 
-0.01736137419634364 
-0.05720194068405541 
1.635465904463368 
-0.08473693197135089 
-0.4681477394837814 
0 
-0.701493228013471 
0.01505942040844703 
0.2107916669890971 
-0.630619586540202 
4.582554123764172e-18 
0.9056070834877686 
0.01122178631099577 
-0.4200209257677739 
0.04369041894483127 
0.03332597066710064 
1.015576441102307 
-0.2729574283713865 
-0.000323902722704364 
-0.0381972044316858 
-0.2023511729473323 
0.6032030502292735 
0.2024493464048558 
1.108787484887167 
-0.0765031807454707 
1.297550497413881 
-0.5395775986109048 
0.2658807084635166 
-0.4928647722382277 
-2.734391760326332e-17 
-0.9878948757863597 
-0.003180904500845841 
0.3717392800064382 
0.06133589029416078 
0.009240369815822845 
0.69626125556639 
-0.03428389518059945 
-0.2468023097716872 
0.03412376200824403 
0.2172453364473891 
-0.9924506620383627 
0.2608279388482894 
-0.3338261208832556 
0 
-0.03364566435972037 
0.1530297640652169 
-0.00578294626474504 
-0.07349533781607578 
-0.1737925690501628 
-0.07433268063200285 
-0.4362484558992069 
-0.4587897913669599 
0.1429759324420584 
0.08787779993834691 
0.2125168460338656 
0.7092057767092119 
-0.005866314599108684 
0.01055698800476774 
0.8541078590328964 
-0.2255669769037801 
0.1109905131866694 
0.1372854856292664 
0.1104191610523954 
0.01708741757313848 
-0.009505139130285738 
-0.2110241340184366 
0.04433246755056099 
0.2700283333355301 
0.1844574287188936 
-1.151964808265848e-19 
-0.1347664671046296 
0.02137055675257908 
0.1881687374095267 
0.307198299681079 
0.306749684747095 
0.2276886029083849 
-0.1375629498823011 
-0.1608511896517026 
0.2365788328508296 
-0.00451220761502236 
-0.102683755284514 
0.2604142537425568 
-0.4007191394048237 
-0.1464907396194938 
-0.3211956470503799 
-0.09326333169153864 
1.254667553120432e-19 
0.2939979498605849 
0.1053849817421789 
0.2001825964825797 
-3.849341228797168e-18 
0.005410612003881215 
0.1698224960833035 
-1.033188811291741 
0.3667526976839036 
0.5247606974607885 
0.7855975976282553 
0.02695850043599912 
0.09219405060845473 
-0.1339946979639023 
-0.2838711965244595 
0.02131531516064877 
-0.5924376254616964 
0.02084904550441007 
-0.5917252462180927 
0.9682664755340762 
-0.1645509894258521 
-0.08511352281380843 
1.319520600415855 
0.1943998898359108 
0.5835652523380257 
0.04025162766601507 
-0.4312428289377184 
-0.04761124737365197 
-0.4353449364342126 
-1.433179746754276e-18 
0.1197369901321779 
-0.1638822190773992 
-0.001027174347314802 
0.4209928195386349 
0.1085107666029399 
0.9313837113254613 
0.1938631912245433 
0.4348791814179347 
0.102964156620597 
0.2466599705660753 
0.858835723586278 
0.2684141137657494 
-0.2782031333613356 
0.05869291546883855 
0.5006134835080978 
-0.2848705813938565 
0.01914814941621867 
-0.4432074049495842 
-0.005205445632800998 
-0.3271574595778875 
0.1414763333597418 
0.7889415680019992 
0.4799570655347063 
-0.03275044080889028 
-0.1535907336302255 
0.34033003857506 
-0.07421812099268658 
-0.8638615609266431 
0.8197414890410548 
-0.04919086499318825 
-0.562496544939556 
0.0009711175335009448 
-1.016227778468347e-18 
0.3012008916785254 
-0.580585667986814 
0.1443013181101115 
0.06965387046589197 
-0.3321748004286619 
0.1753653100275676 
0.5149347282053224 
-0.6884620992709692 
0.06797434439646087 
-0.5294428823575728 
0.2537241771814016 
0.2216718238729889 
-0.2871537274877892 
0.9270569115113467 
0.3093794811602907 
0.3417445521653611 
0.4322854199609259 
-0.9999050500936567 
-0.2186164186038056 
0.1674608963499734 
-0.0680872395358634 
0.1272517911612611 
-0.1110420023306999 
-0.07549566144649085 
0.4149549058909056 
0.3663242343797571 
0.0520693955233086 
0.3424049261112752 
0.123024179251283 
-0.2071108188389712 
0.598760101687522 
0.1955452483258855 
-0.6684654823437887 
-0.3574950236785624 
-0.0008718771646912805 
0.2238779450578872 
0.4455472986678047 
-0.1558583845850912 
7.10660642746358e-19 
-0.007504026727454824 
-0.2925717820801046 
-0.1178723857648334 
0.09751165695513024 
-0.6288696681630441 
-0.1180729370003725 
0.1597313224904627 
-0.3618268298158228 
-0.0543321685895081 
0.6001443243220111 
0.8014766869826857 
-0.6421632580386731 
0.5381772498571101 
0.1954320133783569 
-0.01210036332053295 
-0.2540115080779745 
1.026539432561155 
0 
0.02845401476422977 
-0.3346537508854686 
-0.1352621675465429 
0.5469147808081204 
-0.1178770194777208 
-0.1014933884825178 
-0.6743875030445038 
-0.01452646700436095 
0.8807273828967794 
-0.4060879049581141 
0.180346316572711 
0.007181553045307976 
-0.7882100249825932 
0.9486576116412059 
0.313859442739124 
-0.5937278497026125 
-1.187352412200598 
0.348855189050685 
-0.4291935781756068 
-0.4066524315031245 
-0.006678209149806587 
-0.01077290179795797 
0.5734904441677333 
0.548451398213922 
-0.7335545112404241 
0.4402761356707179 
-0.07310197042058532 
-0.06806071417375641 
0.2776845412318108 
0.1862608883362862 
0.05627861080830755 
-0.1600323062159038 
-0.3722439137927866 
0.9151243268829234 
0.002269739796441724 
-0.3204237180352282 
0.03937839628004106 
0.6311145764081273 
1.134493525606853 
0.4234119599893114 
0.07704151851673477 
0.04181688783363853 
0.2393800052378828 
0.9317536112362049 
-0.6125450462132361 
0.01994352789451845 
0.07052820743312245 
-0.7090291641888362 
-0.07044966207426441 
0.7861136489481969 
-0.9179558142430178 
0.7557734210839288 
-0.244811614697299 
0.6526533218781188 
0.1600903998142524 
0.5781431802394331 
-0.6035513829392802 
0.003482755924428532 
-0.02573154272595346 
-0.4825943353512602 
0.3898403880158019 
-0.1838238737902198 
-0.08214330600700727 
-0.156662511812527 
-0.1321163525146852 
-0.2614847651110347 
-0.2570834100898374 
-0.6739895112498329 
-0.2524273145924759 
0.1501661184750541 
-0.2602633158123954 
-0.07713254434775595 
-0.05570344754376876 
0.04666493898086388 
0.00204910246185895 
0.1500401950995978 
-0.2740006303067882 
0.512414956803279 
-0.4301314594643835 
0.4641600578324998 
-0.07013775701551003 
0.2194978337577397 
-0.3856423463923863 
1.173839440076487 
0.09148431447767486 
-0.06652167321216114 
0.07733556857277162 
-0.03546219336641116 
0.09603530918951239 
0.2786036642489423 
0.2446940063728618 
-0.008283815478828208 
-0.7650852509069833 
0.4831568843072003 
0.8910889278193799 
-0.02501126035617598 
0.1320056808542213 
-0.2177382177806081 
0.1532992826101423 
0.8587614768491533 
0.009042179638073406 
-0.1022496107816253 
-0.2812517702495677 
0.3947740590389368 
0.07755871584221699 
0.09510976139218098 
0.06608672247540801 
0.07923119874672474 
-0.640974646356682 
-1.414536151573066 
-0.03807604413511874 
-0.6693638081760228 
-0.06164686152986736 
0.0868248247074352 
-0.586087548814049 
6.670880767995147e-19 
-0.2341759256623851 
-0.1381152491570489 
0.08272942860049518 
0.4250545131432792 
1.343938953673825 
0.04627814381414067 
-0.4053651647674903 
0.3391798557805161 
-0.1102814816147293 
0.274629946104852 
-0.6965450120345322 
-0.5506405735943366 
-0.2067987446372617 
-0.08055263629479362 
-0.2949971245093671 
0.02016199802609914 
0.1943654321342444 
-0.1951964081801568 
0.3964156459737616 
0.04015764405864898 
-0.00759676880785798 
0.534553809617079 
0.08686329226733452 
-0.2741591898928151 
-0.02984444914947913 
-0.1006612025509261 
0.3854276098429609 
0.4010005601364457 
0.2057864389990568 
-0.4658623472380872 
-0.1522698249978091 
0.06829645480967302 
0.1893429001859515 
0.1797219865117806 
-0.9261818578193893 
0.2514111564436259 
-0.06091104458103953 
-0.8915026249581044 
-0.4143835579342837 
0.3939198890101922 
-0.06387195566142663 
-0.07973863901012625 
5.719589976334663e-19 
-0.386605675032035 
0.6239029503439169 
-0.01338920171563786 
-0.01520778728848319 
-0.8517760678337289 
0.05460980612711605 
-0.5109503184797313 
0.4865510380022549 
0.0906207108785039 
-0.005190417631652844 
-0.2126747764834677 
-0.7995467293658612 
-0.006375631534968238 
-0.5207312686202917 
-0.02399700342160359 
0.3244430696322689 
-0.1359674669530276 
0.005310813872879279 
-0.1353766275654917 
-0.1033998954207762 
-0.3583315491905072 
-1.07165380838588 
0.01899017580864831 
-0.6000503454006128 
-5.609475693191604e-19 
-0.4199312202239348 
-0.4228026584575655 
-0.2336873632968284 
0.1685590188140902 
0.09780390768506385 
-0.135980991544382 
0.4587892745732353 
-0.3356097893117385 
0.00973992171064772 
0.3380993610744342 
-0.08980955465685325 
-0.0929333534795807 
0.06388219389198957 
0.4406245249828885 
-0.1206835712777063 
0.4744329528713915 
0.3153150459929611 
-0.1784183640615648 
0.04901897752535937 
0.4468309683778712 
0.1487349915629465 
0.006285381428879702 
0.3273447674243611 
0.04445983795880692 
-0.6184687833812289 
0.4587885604957738 
0.08107320585158331 
0.1271180017274153 
-0.2279158814301447 
-0.2204471514547011 
-0.6816768809014542 
0.4484657148663543 
0.0988409290164126 
-1.223922792970133 
0.3309086866610382 
0.4102069764403345 
0.2568644965381332 
-0.6469853993521639 
9.232659125071874e-20 
0.7864832457678828 
0.8644210032565574 
-3.512645632263584e-18 
0.1085195738478796 
0.329943013165202 
0.3530422747281458 
0.1683328904948697 
-0.04420444171033919 
-0.1735275420918027 
-0.02809392351178189 
0.01061601932197502 
0.306700047319289 
-0.2707600357626858 
-0.4421129925295438 
0.01517853677992516 
0.3451930227247121 
-0.01563656115759449 
0.203092843301839 
0.1347282529669824 
0.1131848238760709 
0.3109720241298489 
0.2749364703182442 
-0.157387423460188 
-0.172062453623034 
0.5818209400335677 
0.02969468241843179 
0.08340483016082897 
0.1137604265360669 
-0.103923067030822 
0.631322676504839 
1.309919003818433 
0.4586506603522742 
0.6095471611721911 
-4.005407049328773e-19 
0.1526194073191659 
-0.8740055291772689 
-0.6479178038191954 
0.343680182653018 
-0.05083039215730729 
0.08952481979233465 
0.009722209131211754 
1.32717989188199 
0.8329931237300948 
-0.3667731760145739 
0.3666092444490189 
0.0943199483064753 
-0.003381298366863947 
