solver_type L2R_L2LOSS_SVC_DUAL
nr_class 2
label 1 -1
nr_feature 5000
bias -1
w
0.404244304911311 
-0.9289255986288431 
0.02960826917125504 
-0.1940786055081029 
-1.908286576745363 
-1.049009973598004 
-0.8028132099380846 
4.994889508042166 
-0.3354792229861615 
-0.2382454461568005 
-0.5172430895008573 
-0.5352101426717576 
-0.2437187037737958 
-0.5231556435382499 
-0.4534969671257104 
-0.5944235123072783 
-0.5191553443587392 
-0.09339510488801346 
2.700312414040933 
-0.9430625822871661 
0.4690188466744375 
-0.05780382324184061 
-0.6672241431410924 
-3.590138512583721 
-0.2324421682924977 
-0.6487688403625889 
-0.0067197250225456 
-0.853005285540146 
-2.847052876927462 
-0.5626754943986196 
-0.1849051004240621 
-1.002931338320057 
0.02252465159790949 
-0.2652489160016706 
0.3103088908295291 
0.6447930494443419 
0.4352193468793709 
0.4603914306398579 
-0.3288155901909788 
-0.1968428978856827 
0.8094064236910909 
-0.4132121049845741 
-0.3368451963678061 
-0.1306074698511072 
0.2917559759223722 
0.2487573713269908 
0.5299941727505847 
-0.8202907576977706 
-0.6419629882865242 
1.565013625748084 
-0.4313230300075173 
3.895274632239288 
0.8523011224967034 
-0.3103330076276232 
0.3617674262422518 
-0.09944363887041302 
-0.1290206811212743 
-1.255789251535901 
-0.03995313253485972 
-0.3543873427240894 
1.254593357748294 
1.253767926591484 
-0.1138228042036379 
-0.09046009959664812 
-0.8719439316534416 
-0.4766372583228747 
-0.1272382475274193 
2.218573436089546 
-2.405211673291358 
0.06413543329680436 
0.05899025824766393 
0.2266879768579116 
0.6252045574907609 
0.4891114056519779 
-1.24355528648882 
-0.3997896364491437 
-0.789616492263036 
-0.3368204638671331 
-0.02515678891872134 
-0.3089257410965829 
-0.2237414588809014 
-0.5287231048880091 
-0.4422183042263628 
2.315576514624645 
-1.033502127414662 
-1.074595093694684 
-0.1530392186553911 
-0.1472433323344856 
-0.1194032634596739 
-0.05526604450717102 
0.4976532439188593 
-1.530908623724277 
-0.1235713876630098 
-0.6969478106974802 
-0.2705915528042973 
-1.661789996193864 
-0.7479426285386431 
0.353319672172802 
-1.395964514790174 
-0.2701508424403302 
-0.134207878772156 
-0.1312719357140177 
-0.7461643563027812 
-1.396419347884408 
-0.1899626958037763 
0.2111352577832718 
-0.4890473984467307 
-0.07610338747314199 
-0.2563968148828272 
0.1659184975719454 
-0.4558112351039236 
-0.8378672994153767 
-0.2557380562579787 
-0.5943018376370972 
-0.2165018902266325 
-0.3405571354996814 
0.4266722460961938 
0.2095460108136731 
1.011381715412924 
-0.09325974757591389 
-0.1308167559967936 
0.0003109881870305005 
0.321310234390354 
-0.3067358956236074 
-0.07194986242840387 
-1.274175160293787 
0.2246709636256987 
-0.1490126190368355 
-1.328113574481673 
0.0177634082797214 
0.2726479265772783 
-1.749656593369184 
-0.9190328978426817 
-0.0538448127670095 
-0.49755612221582 
0.1586371187763014 
0.9820377435009726 
1.636225239303352 
-0.05455409197023181 
-0.1816808460637829 
0.8794762003526105 
-1.564247675891823 
-1.583064022667072 
-0.7958076978292724 
-0.2628706121787988 
0.4998554816877822 
-0.1268136049189562 
-0.3108570717827673 
-0.4350462459295542 
-0.5675873092306872 
-0.260065614333659 
-0.1350862270024165 
-0.4492101824142034 
0.8011920351303886 
-0.8334622024400948 
-1.111850451455116 
-0.3546824369161938 
1.426277235318894 
0.5715580073081876 
0.08434109137501901 
-0.07363594178656029 
-0.0814548609401652 
-0.3417898939439226 
-0.9172013191730697 
-1.215619187161132 
-0.6487424137109464 
-0.3610143319802113 
0.01857744598895046 
-0.2655170565142021 
-0.1583920619748212 
1.668474732034196 
0.3660294252476256 
0.3635336414815742 
0.8302458103178745 
-1.394324343654304 
-0.4344398630437902 
1.041393936564267 
0.1618577216712793 
0.8678998651555554 
-1.037003195376466 
-0.257184313872085 
0.8496726375782365 
0.1829234285928985 
-0.5236797747140668 
-0.9938732900192522 
-0.2920047303187375 
-0.1606023668220936 
-0.1400915127752541 
-3.076453338952553 
0.2819875187194791 
-0.04774602790388858 
2.191871116573478 
-0.1970477164165838 
-0.2103304506817168 
-0.9986484081840522 
-0.5262243594098511 
0.009305471857915778 
0.4486498655636094 
-1.070376832751818 
-0.4501687553332195 
-0.2092186176203701 
-1.14261239170936 
-1.035880299348177 
0.5181220503279758 
0.1548080233227958 
-0.2628560999118948 
0.01388971763362514 
-0.5557972450413214 
-0.861361998527969 
-0.9728563462843044 
-0.6675809921347187 
3.263738748056744 
-0.4800741624610326 
-0.09215896346339243 
0.1283212786323898 
-0.7244633277426096 
0.6320823156947519 
-0.3314434868540948 
0.5452064204288363 
-0.7544322668995818 
-1.462322514834362 
-0.4922713347351644 
0.4812083391509723 
0.1847359686598295 
0.5871048149868799 
1.000632226628967 
0.4141775607727725 
-1.041032444542803 
-0.8450781988460715 
-0.8122600093602186 
-0.004363947030794728 
-0.434962652688589 
-0.268844638991268 
1.300273238397082 
-1.111109002299573 
-0.7556352778087401 
0.5719580379774234 
0.310397515714553 
0.6718610814678813 
-0.4563910504049875 
-0.6845622778296264 
-0.2208905785054023 
-0.3361445722683016 
-0.4621247927728326 
0.4813676041652656 
0.3359287235829503 
-0.552924692003873 
0.1642515987515168 
-0.4166258805346204 
-0.8136339056377204 
0.1287047581285692 
0.3261330314205564 
-0.9894920369205038 
0.1738416425180428 
-0.1069147822028802 
0.09550759393933866 
-0.2519750140037426 
-0.4113803346395543 
-1.187555397178051 
-0.5011908600760396 
0.760100399722179 
-0.1377498093349049 
-0.5376389278106668 
0.2426962325738994 
-0.07560738142725998 
-0.6488435779633749 
1.338500115892449 
-0.05050992594672626 
-0.09624700871477918 
-0.3720625817070428 
-0.985903446831779 
0.2207984269555178 
-0.2230354679853887 
5.329954820597685e-19 
-0.336310155745477 
-0.3184725187865123 
0.1307092364567883 
-0.2706199470545712 
0.4542130050098234 
0.6787906397638531 
-0.3423766325191273 
-0.187755873650685 
-0.3325003371087963 
-0.8104503941172067 
-0.8571367791319228 
0.2582893278364807 
-0.8614143406754705 
-0.09721193552366497 
-0.2014684039950387 
0.2515582576320678 
0.5361282830154027 
-0.7563658786142753 
0.8070720230268312 
0.1114665351406595 
1.50515352901878 
-0.1754741262736865 
-0.4662680771241184 
0.7226862915085795 
1.870901605253914 
-0.2738686323270706 
0.8963841376860828 
0.2424815241777241 
-0.5890226627058835 
1.280154949120501 
0.2443758030124314 
0.2451397223080969 
-0.4029285266393033 
-0.1913882693517241 
-0.591460880902577 
-0.5997584079756381 
0.02407410921891426 
-0.04062983486059882 
0.7646612762585967 
-0.80529349937146 
-0.3028763216927422 
0.8245239923326093 
-0.243620581557173 
-0.4060270647237723 
0.03757676868353909 
-0.393848712261228 
0.718457323764502 
-0.9376840400033609 
0.02570461740822977 
0.3501825349376246 
0.2416768568422542 
-0.1966583134230885 
-0.04673571419497265 
1.025200758077398 
0.8258930316910715 
0.5623176468999738 
-0.2449184011170924 
-0.06937287321240659 
0.4696041508967639 
0.1038029049511249 
0.04538332051722736 
-0.6448773886263363 
-0.3482413952800372 
0.8598839446279045 
-0.9940167279741022 
0.8341416704475877 
-1.606391353514545 
-0.8134372614677886 
-0.2211799616373913 
-0.397144503884311 
-0.6487398142996659 
0.2117224636499466 
-0.7051339717437768 
-0.9759410303870433 
0.03170066436304596 
-0.5112627636694042 
-0.1915478581463317 
0.6426334992184101 
0.01794320123135449 
0.0233199739972151 
-0.6483921631122876 
-0.1191258722086902 
-0.5737868445121153 
-0.1266184442974693 
-0.134917599818476 
0.09597243601860928 
-0.5387301081929859 
-1.154216098392406 
0.2000713879842147 
3.002697698681028 
1.34558903485309 
-0.503841939905236 
-0.4609917994220946 
-0.7856115239372576 
0.7194303625629583 
-0.3784507540391756 
-0.8682865755807488 
0.7698326596814832 
0.1473565234378475 
-0.4441338321886132 
-1.300746116799976 
-0.5242008293881638 
-0.2185106151188675 
0.166597932154801 
0.4100957957393797 
0.4777585363447989 
-0.3218162153812566 
-0.3728560512384113 
-0.6594207128698557 
-0.3691899532886185 
-0.8460863903672448 
-0.08886649331702684 
-0.5105327041127381 
0.8959523182736516 
-0.298757846938733 
-0.7024374249101302 
-0.4339633789763063 
-1.027027448545839e-19 
-0.09144735269557089 
-0.2543878443540243 
0.565489090336765 
-0.2785993445423877 
1.892867073297292 
-0.3978613693008263 
-0.9814926187047658 
-0.1870512599998609 
-0.1868431388789861 
1.270957338443262 
0.08086352422493291 
-0.8241917167820558 
-0.2070364446892508 
-0.5268541937004066 
-0.3310631497577246 
-0.3964178016863052 
-0.03708064595509507 
0.01448479589173379 
1.722125869617611 
-0.3800928966267548 
1.922960942787901 
-0.09080523305336416 
-1.890628439356394 
0.1297793679530175 
-0.3089630527219475 
-0.1541310750911688 
-0.2411091597321646 
-0.3871741744227731 
0.4247278082310992 
-1.099836406436511 
0.4027934305838614 
1.561952437420935 
0.056723148401152 
-0.9977845257296627 
-0.5472169670716197 
-0.4648256323660322 
1.429806990806401 
0.05678694635489382 
0.3307049640389876 
-0.3542120586484335 
-1.279557983378585 
0.7070671147989414 
0.1690176550233667 
0.2186887961828535 
-0.06242440135664349 
-0.07503998406348975 
0.1421242354382521 
-1.666993991689816 
-0.3006435310977581 
1.122314244102904 
0.03435368099611803 
0.3041300252881779 
0.1335497921468676 
-0.2680398254768034 
0.002080074282671163 
-0.09379143808135454 
0.424644290813767 
-1.06336387631056 
0.4102321263803326 
-0.5676920715150389 
-1.635034381655874 
-0.1769108725587159 
-0.751530038573628 
0.6528071508491247 
-0.0006591064222875838 
2.321070074730113 
0.4610590323930072 
-2.268921386560372 
0.6827612917448147 
-0.143727405156697 
0.2692131787861143 
1.364104645951513 
0.6937858879380903 
-0.9568703199853467 
0.174335998203262 
0.2739663351639663 
0.3970531214114904 
-0.297409723061264 
-0.5875955293274215 
1.315063617882191 
-0.06113924504812956 
-1.391048642885999 
-1.367779288046023 
-0.4233314872618261 
-0.3395781553115921 
0.1404910983435663 
-0.08900951261814444 
-0.2124096720366206 
-0.8276256171492925 
2.013912845686701 
0.3743643851441361 
-0.8762151893148515 
-0.5737628442492805 
0.3418229951727034 
1.386551608881216 
-0.5465087636463599 
-1.519436317006796 
0.2844318324518271 
0.9471666491591506 
-0.3048620164612958 
-0.8869805007955356 
-0.4688593029050345 
-0.05795930038939989 
-0.8653108099301391 
1.094293450970417 
-0.5672025144899467 
-0.6936649257590489 
0.5103726141889311 
0.7156927528074061 
0.6996817500254701 
-0.1568794302723139 
0.4204781693019609 
-0.2505784188244743 
-0.1499359008140989 
0.3775447464006486 
0.3280803123837705 
0.3313385622694031 
-1.229973036829947 
-0.1574162655518696 
1.078826160550237 
-1.991625398870795 
-0.7183118494373147 
1.486899425072614 
-0.4205876130966987 
-0.6825163464237298 
-0.221149312296666 
0.6054369210457449 
0.4668936849350962 
1.778633421490327 
-0.3452404060080863 
-0.4551054373438052 
-1.032114996116394 
-0.2010860198124488 
0.2963290950996516 
-0.2099589853697958 
-0.2587603362088384 
0.1044600626496424 
0.6999245153193735 
-0.2772690429829812 
0.3693836726593531 
-0.006020865105215112 
-0.7450348436131511 
0.04524030630013649 
1.177127885479595 
0.6892982918507404 
0.2371930549852612 
-0.4435567309117343 
-0.364431595964863 
-0.2767103137798065 
0.6689077447262457 
-0.3147733445337944 
0.5864890238331275 
0.05601716299390773 
-0.1155288962752961 
-0.4217453007096101 
0.3925196923616245 
-0.840941606176686 
-0.4824299819293861 
-0.811657371106021 
-0.165667520018156 
0.9006981047442455 
-0.2369645038316951 
-0.1634384167907624 
-0.3436120921666145 
-0.2021109031314123 
1.317182467830804 
-0.001279557991594242 
1.087485443137902 
-0.04645033461569602 
-0.2772455827647289 
0.5542380079601746 
0.4535612911984513 
-0.9456944292844172 
-0.16115649941897 
-0.2834549742955362 
0.09040093965156283 
0.1650744497722829 
-0.3905691549034419 
0.7522442113870844 
1.666177755981335 
1.437935694635389 
-0.6634902844000649 
0.07386192625104233 
1.263936473582994 
0.1817803691889119 
0.05696765175671654 
-0.1128245494376836 
0.1258729435930362 
0.5655481458832293 
-0.2984586125854589 
0.5277091534648012 
-0.6316074919599406 
0.7935497390973441 
0.3675581677699592 
0.7131917113616445 
0.1085761363337922 
-0.226873106103583 
-0.3031357286496312 
-0.2219751266020705 
0.8429575083260219 
0.1159391946692335 
-0.7567786666809844 
0.1317284497443931 
0.1144024531985542 
-0.7380480671916794 
-0.02021068792053891 
-0.8827102163047433 
-0.08932134690467602 
-0.2333301310872943 
-0.02723978516404248 
-0.7532107675652198 
-0.2002513355066587 
0.3569374460180981 
0.4162393529720885 
0.2788626318002355 
-0.1652701559020032 
-0.4119845372250254 
-0.1542787388244317 
-0.1406492426069004 
-0.6496689514810899 
-0.2550691917595996 
0.1227952950804987 
1.034982035778655 
-0.359130555717748 
-0.751955464233197 
-0.3697061859578951 
0.1863910615224575 
0.6929191696484761 
-0.2760877833760694 
-0.656741295893816 
0.1342905989411796 
0.1494602832363961 
-0.3011777429951956 
0.279739210760487 
-0.293749787942983 
-0.1822238261698897 
1.739659690853191 
0.8579213998374396 
0.618279568948408 
0.5206792904677761 
0.9712748823581352 
0.03949198817093794 
-0.4606503396226885 
-0.5186320387714426 
0.6585223156166731 
-0.1212773426413437 
0.104230234639942 
0.05396018981569846 
0.4798184045721548 
-0.7800453994328712 
0.5749159942844546 
-0.3561372450508266 
-0.448674593372876 
-0.847850135023751 
1.171542402851728 
-0.8457437318031028 
2.690998386082549 
0.1590827264490665 
0.2879665541058013 
0.833982084817935 
0.1226356162115799 
0.3566699080408063 
1.733096191392104 
-0.07379193253071863 
-0.3084977012002993 
-0.2285958137655396 
0.3292780514132262 
-0.7492213188250784 
0.04112745714753124 
-1.007997470208873 
-0.313257536873526 
-0.269558600538309 
-0.07271136666844506 
0.1360602605091722 
-0.6660742898686205 
-0.5128457731543439 
-0.2245271492001635 
-0.3486479053329873 
0.5131869516740714 
-0.1087945458887387 
0.1200786474425729 
0.496998733044165 
0.2110017918488073 
-0.1897691946576708 
-0.3036373633983682 
-0.471415423119179 
0.2503397578302036 
-0.1996530576314519 
0.4437649908355564 
-0.532386509619137 
-0.8788011488005441 
0.1019856252111386 
-0.08334584556552484 
1.425448208148175 
-1.191754449991332 
0.05609018859228885 
-0.3355490287733745 
0.1412956540266394 
-0.1354759550091088 
-1.10499848664747 
-1.384866781465927 
1.950722181687506 
1.266719771385701 
-0.2990621209905604 
0.2921825248290098 
0.168207002474853 
-0.07943749330591253 
0.03250189542398035 
0.7168756303463466 
1.015611903225155 
-0.472443381669597 
2.337076266783434 
0.57222706381465 
0.67527592310052 
-0.271101292612672 
-0.01250121939628109 
-0.1180384471800997 
-0.06114340754534454 
-0.2267315706285391 
-0.3555380017208486 
-0.2050427707662158 
1.311102123465499 
-0.5929004826331846 
1.002598411030073 
0.8153396279410468 
-0.05933927459058331 
0.2914609698104413 
-1.51108676438501 
-0.04544751412373633 
-1.417067344529116 
1.33589766570993 
-0.1982360986042714 
-0.01711108027179655 
-1.257132549701027 
-0.1435912994606363 
1.397075677829284 
0.9301293499834462 
1.141564556068222 
0.2536876334498122 
-0.2370550252044052 
0.4662138454240732 
0.1700670484775404 
-0.6061297659531979 
-0.2743952465158105 
-0.6766123122572776 
1.595448843952189 
0.519240045902929 
-0.3637024921402777 
0.6006735917694432 
0.03746422991704658 
0.0195371138711751 
-0.1080241078962304 
-1.604929965045049 
-0.7369939164273829 
0.1781144496243985 
-0.3788035960861721 
-0.1424722988100746 
0.4851904351540599 
0.8653413206124457 
-0.04537307027722496 
0.004395307251931188 
0.3338320732717949 
-0.2295242008130727 
-0.5303302492319865 
-0.03760224056909926 
0.07584839672867916 
-0.7714812942625365 
-0.4789681392166196 
-0.2520157250543938 
-0.6893241911522463 
0.8862197726019069 
-0.3193305784551047 
-0.2215830744775937 
0.2786907266549854 
0.1193191469204794 
-0.134636406428555 
0.9034980778442088 
-0.2190848199774486 
-0.009727048226539362 
0.2969917080502677 
0.1514761153938254 
-0.1598818481961847 
-0.9913435277545906 
-0.6065343369763679 
-0.4121195245153663 
-0.02847033059791785 
-0.0263772207477397 
0.3655399440696792 
-0.3449064409698724 
0.6410220072883259 
1.746387349056286 
0.299467140816361 
0.6928368116162841 
0.6786520127419198 
0.1344069653955786 
0.5378802409182722 
0.4188186212122289 
1.30386759556307 
1.12248313663783 
-0.3480203565822305 
1.953315895238203 
0.4913656333260461 
-0.2548709124891586 
1.854400842754553 
1.78914261777402 
-0.09387928403823743 
0.1647443504448499 
0.7010331399381455 
-0.2279412544067331 
1.181642835987924 
-0.1746981320572319 
-0.05390636780632398 
0.2786026038149278 
-0.429346476223787 
0.00360275956683361 
1.512831318362594 
-1.761276254038901 
0.1727815632400163 
-0.0896709965888477 
-0.07858104428922467 
0.5828830751463173 
0.08857784066884361 
-0.7479091186740457 
1.193669259563945 
-0.5368713265132576 
-0.1427716914238879 
0.8672210748308751 
0.1818530123270627 
1.218249296154687 
0.5432270086322204 
0.06051625964180733 
-1.225033986633016 
0.2399292607523812 
-0.3058357043184886 
-0.1171495364346426 
-0.5019689993140444 
0.09621791257632949 
-0.6030762567904751 
-0.05752414551688134 
0.3452576086833984 
-0.7143146829883429 
0.1339112494725291 
0.421016189228325 
-0.2797416526823775 
-0.6509681987359972 
-0.3234124298875971 
1.290024642009578 
1.463893841455222 
0.09764481321998067 
-0.3630653687629612 
-1.70160030035276 
-0.5132744756879167 
-0.7891902777481388 
0.7572963674403341 
0.1991642950717926 
0.5054011449851092 
0.1499064681823444 
-0.1353608357753557 
0.1646846404656528 
-0.6130013723597151 
-0.4484635631849543 
0.2473463211617305 
0.02322369084189585 
0.01507246734924673 
1.054223832255265 
0.5323524581855203 
-0.3966001342807297 
-0.635355893595232 
-0.1353414287194733 
-0.4813246184037043 
0.5543010864569516 
3.01175435349745 
0.5656345329378663 
-0.3655018658747015 
0.3048309837358631 
-0.8700846703130132 
-0.2905717658923256 
0.1055187470596617 
1.416860516600762 
1.418337716214995 
-1.394548998395579 
0.01554373783165592 
-0.2060334819726359 
-0.449586704979867 
-0.4784647263111527 
-0.5702991777266347 
1.008150740789242 
-0.0140260723405516 
1.038790647892466 
-0.122271963893585 
0.7348465090640812 
1.954040965254997 
-0.1883657177670202 
-0.8769008857765547 
-0.2489985084745117 
1.248179039165629 
-0.5845147684040487 
-0.3569991235454041 
0.1371017826889405 
-0.1115331130295308 
-0.5697567799116298 
-0.2871811521797903 
-0.03816342995273905 
-0.3868433116060603 
-0.1885075053387634 
-0.003121572938020298 
0.3968761984257742 
0.001327373200385028 
0.1384317106957072 
0.3500013818310154 
-0.7328223316957043 
-0.8972257450039273 
-0.6826822633817194 
0.2545629007226977 
-0.2305432658798596 
0.2704487992493759 
0.3592783218680201 
-0.706785745945941 
0.0113822308034319 
-0.19664311297613 
-0.2824764554569521 
2.886099928746447 
0.6380487955364847 
0.1630996337916899 
-0.5153697793079274 
-0.6612963435301258 
1.229072031646467 
0.3311401831961663 
-0.3710613355516228 
-0.3334117471972537 
-0.2130639700628155 
0.6696343975349587 
-0.915337754765517 
-0.5656078085387938 
0.0003077255716100364 
-0.07344211070309688 
-0.5470199838384363 
-0.6511333850570014 
-0.4123733684213317 
0.07339810719739276 
0.07048670306666968 
-0.852623340344646 
-0.06566214034963601 
-0.1873369278695117 
0.3752862966373358 
-0.6929261037223594 
1.109637189382245 
-2.381981202743864 
1.092296355992221 
0.2133233823165213 
0.4053285590776172 
0.6536447865593081 
-0.7775827388742536 
0.6214547226375977 
-0.05180985826063592 
0.2523449242898342 
-0.3113913506732515 
-0.009410415010674845 
0.6015067368331192 
0.7239269250865179 
-0.1604359962907894 
0.5878996480841561 
0.2760039673505315 
-0.5464977416320446 
-0.3903339214569576 
-0.5205748704573607 
2.034996655778457e-19 
-0.09495449399178282 
-0.4460473670417553 
-0.3230133940778664 
-0.7491829799759218 
0.1357468680084135 
0.5558612393930243 
-0.4170349145637541 
0.1727334017164572 
0.06304236981277478 
0.8783403370394168 
0.0846463222323699 
-0.5905451521785776 
0.3199652663703003 
0.1422304887760483 
-1.528922348567999 
-0.211347912253155 
0.3901150945789141 
-0.2045793201142741 
-0.500081249575013 
-0.4831930167179714 
-0.8002489591455003 
-0.6968732552369103 
0.05952513443238116 
-0.603409685664356 
0.3850527529209447 
-0.6271681636268128 
-0.3898373355772435 
-0.246569454770703 
0.07346844698597726 
0.6284339050017647 
1.292903443696769 
-0.2228694444686489 
0.1845967775449078 
-0.6598164349975437 
-0.04661777473654533 
1.890998767457601 
-0.04074530045152966 
0.07060971620062792 
-0.3800498462886822 
0.462595552651375 
0.002301931009491342 
0.8839910955381773 
0.4150251818501551 
0.1498202668944311 
0.3934492166241316 
1.244734002163034 
0.152968125646959 
-0.4134628997779074 
0.3303364814547072 
1.90386855083086 
-0.2481854783230993 
0.5591313345216324 
0.2631816536102611 
-0.3586421262942059 
0.2135318329472703 
-0.2220392388103563 
-0.134557874120278 
0.1888601921447081 
-0.4774876388185338 
0.3124936191641657 
0.08343680914609138 
-0.8071056464370674 
-0.05721743891361045 
0.07201055241062848 
-0.4196683067180869 
0.4850565776370094 
0.0961075499688705 
0.1405279672756323 
0.01744746810114895 
-0.3160094385614018 
-0.05809880105882705 
-0.4783695781584833 
-0.03603808377572053 
0.6414042309424161 
3.459743968409587 
-0.265036942564184 
-0.1794603823707576 
0.400799285360683 
0.3927892079124136 
0.07185754920652 
-0.1083189911143005 
0.4350245543017641 
-0.20313084807142 
2.137664859202116 
-0.2594176535368012 
-0.1505572908995948 
-1.417215384388818 
2.152490659292285 
-0.5568334888281713 
1.51582042793782 
-0.3314826609027311 
-0.00707019742024174 
-0.2489850575167229 
-0.953208674992603 
-0.1789417854498065 
-0.8963849835646225 
-0.3285050544427567 
-0.3739137373983748 
-0.8088800606343726 
1.475353329916003 
0.3534892981154457 
0.1535730419642612 
-0.2326038157076153 
0.1102936814419509 
0.0514762174640238 
0.2336752401615698 
-0.1275897611787365 
-0.1928234772626551 
-0.7613210544752465 
-0.4349601236252983 
0.6359330187716914 
0.211191380065995 
0.1556438704352878 
-0.9417537629005748 
0.1766565200383453 
-0.7017277959704009 
-1.389017113760065 
-0.4631818152053387 
-0.2928835135747773 
-0.413960781410896 
-0.8592879420337827 
-0.4797890260100555 
-0.3321798436480268 
0.447374329458382 
0.4367467313578559 
0.4461279774049159 
-0.04216048497131335 
-0.3013640731066781 
1.038824339034686 
-0.1760651178293745 
-0.9133115272030692 
-0.2060936213701146 
1.18896857883107 
0.4265552381776855 
-0.1935998428544175 
0.2428530136943184 
0.5251656649679265 
-0.04804789934554642 
1.476313893167554 
-0.2266763870343991 
-0.4406782988573106 
-1.498178825799212 
-0.1628250008056968 
0.7645481446937628 
0.5315278477733164 
1.213781511350355 
0.6085956902537902 
-0.5640959287005913 
-0.2291319826843469 
-0.1333137287029162 
-0.0931999835968399 
0.7373748429721286 
0.1072434043209346 
0.3127139755340318 
-0.3622026537158269 
-0.2128735324555942 
0.9489703430824624 
-1.546009091180597 
-0.9814619123961105 
-0.06396927551036322 
-0.8262188148201099 
-0.303339078631188 
0.4613453789722051 
-0.4534022838292754 
0.223166505016232 
-0.03686334005490161 
0.1949771139742284 
0.05897787189056063 
-0.2068772094528347 
-1.504182901099064 
-0.2350551588217586 
-0.5449025055932514 
0.8041212525617762 
1.332053544969183 
-0.1620454739204451 
-0.2283770740864353 
-0.01641580312192681 
-0.7280308918345673 
0.4109175392783578 
-0.3668803111458857 
-0.4594629038059658 
0.9131333458796962 
-0.3639312999884073 
0.171499534080577 
-0.449554838476634 
-0.5495164282813428 
-0.5917278186823495 
-0.7111528998598745 
-1.065391262735305 
-0.6151267298895199 
-1.058167304672687 
-0.6241686731751626 
0.3986658523363211 
0.02735033470454343 
-0.3930291894524304 
0.4576724015951945 
-0.9731984933023491 
-1.155259705070026 
0.5605236260443844 
-0.04252170914913567 
-0.1717927149605568 
0.03568153188230613 
0.6414001779135767 
0.428906589295715 
-0.06127580648389921 
-0.1518192581494173 
-0.201975557779002 
-0.1087094295456854 
0.146188765960234 
0.2156300382239461 
0.08006075363844445 
-0.875746818999138 
0.7022829856400645 
-0.2309425790720076 
0.07312847522414136 
-0.21973769232168 
0.5419075318284992 
-0.4109387162453319 
0.2587384021873531 
-0.9175035569868363 
0.5105726125726484 
0.3686910801142358 
0.1047282010400686 
-0.09996485728780763 
0.4323690648488077 
-0.2348200387896445 
1.097904367795767 
0.8182518868230187 
-0.08229543461763346 
-0.5723971326384674 
-0.2074385629420731 
0.1395677102921373 
0.3063586316399701 
1.003948342952857 
1.325319533110475 
-1.101016534571754 
0.4902255885908364 
-0.1469733826673583 
0.5899210771384957 
-0.87552694754409 
-0.5680577970329627 
-0.9913533390476926 
-0.1945090977476372 
-0.3148949118800238 
-0.8410531796372795 
-0.470531355976815 
-0.5224884370756029 
-0.3996439249510277 
0.5494520201775597 
-1.052287272249194 
-0.4334549579772033 
0.9190412241794691 
0.7859405624443176 
-1.1003804036047 
-0.8374885282204682 
-0.7576992802831397 
-0.9021948869550699 
-2.815537516673294e-18 
-2.238206771270992 
0.5680785523200668 
-0.4084814856667234 
-0.06688105359987441 
-0.4704336523885406 
-0.3394484610010494 
1.900406625941772 
-0.5164885667057356 
0.9855802603290824 
-0.1536932219698937 
0.8493765670501094 
0.03399670230725925 
0.2050665086460945 
0.7571657589377599 
-0.1778247260841834 
-0.08509531999104458 
-0.2842109987311299 
-0.8035666377132794 
1.414300487633811 
0.6664841628367651 
1.110695057987042 
0.8986932403963201 
-0.7292569879130718 
0.1955853007451895 
-0.3146702894586271 
0.5736240564142111 
0.4551763546569097 
-0.1162369529555208 
-0.3168035499123346 
-0.07619419648543413 
0.7429469472861271 
1.172453717292005 
1.73824550174951 
0.08975496556271119 
-0.9132158567768631 
0.8444678076842674 
-0.4026480622634417 
-1.009333760341836 
-0.4651998047187292 
-0.7052184362366539 
0.04315647387260962 
-0.3192282716490172 
0.3177881548364273 
-0.2689980967437834 
0.01115644556511957 
-0.3460820214390488 
0.3200080199344573 
0.02144727416681557 
-0.5926288954300148 
-2.927861648508991 
-0.3575763665545042 
0.2301795850688006 
0.4553949566037205 
0.07773971800922636 
-0.450338785008892 
1.135055821000941 
2.877445927637599 
-0.2809353553786464 
-0.885198069057166 
-0.3440558394743441 
-0.3416864663099996 
-0.4535371580914294 
0.7090960349875922 
-0.2542799498836303 
0.1665594963045996 
-0.2340672294803778 
0.8491739934762433 
0.4236348533028648 
0.1619565365063739 
-0.1101326822853818 
-0.104038061745907 
0.6419910512660042 
-0.19233876411137 
-0.4758842868034935 
0.03822984357637797 
0.4190175849352532 
-0.1438703109073894 
2.166466023456798 
-0.6678400523294453 
0.2123467673196652 
0.1987649149712723 
0.5018231625702125 
-0.2098280863340553 
-0.3491329909151174 
-0.8539356847692884 
0.3538172303241843 
1.275087654154888 
0.8958534194240467 
0.09687665998922038 
0.04201607247349734 
-0.01652548543189194 
0.07634898991845261 
-1.225514865345986 
-0.1772416671882672 
-0.3998412528377554 
0.198319829113525 
-0.09697049889684144 
-0.6921183583252477 
-0.1389173496509981 
-0.8132431834456605 
0.2980087116193199 
-0.2630431108330282 
-0.7296123238430172 
-0.4597084107242371 
0.1845579256188768 
-0.4462578614714063 
0.358449436464556 
-0.1801657613877284 
-0.01632665813391487 
-0.02910009624457459 
-0.9689978991810189 
0.2116177588011059 
1.050804759721043 
-0.2360444896695438 
-0.6639112583345357 
-0.08313466380172004 
1.775703380773689 
0.09992024500929347 
0.3954679972201576 
-0.02098720197695073 
0.3276422247267494 
0.8191051610516696 
-0.02688891373547728 
-0.6440592275184475 
-0.1719036731619187 
0.1040783386741052 
-0.02003899693143554 
0.2359334302810867 
-0.4042159952183406 
-0.8961723732641997 
0.3360010722207939 
-0.2188615191409604 
0.1761892105287866 
0.7192119176217353 
0.7414740550282707 
-1.446895626965179 
0.1786259994899664 
-0.8402507792385767 
0.08729476652412628 
1.045408075503482 
-0.3989054018158225 
0.5839226898943731 
0.4318619382180987 
0.3574750539085324 
-0.6077525277979232 
1.443241772656163 
-0.1217477220506784 
0.07512939499153287 
-1.40551746317068 
-0.241446087826596 
-0.08232395616569577 
-0.3085931384768936 
-0.6779833727971776 
-1.343492580757301 
-0.09819188584049703 
-0.1496742931067942 
0.4032517026309996 
-0.2214418683603867 
0.5171133442749855 
0.5270826186977984 
-0.6701876400855732 
-0.07622357793027973 
0.1892553701990474 
-0.09160093551529513 
-0.2474024570588605 
0.07470476727680406 
0.1920801327063171 
-0.5420396368193369 
-0.006466861030561393 
1.059244463853921 
-0.0352711669542153 
0.01975290568515606 
-0.8646808427343293 
0.0332576600212205 
-0.5624840977047491 
1.133054776535891 
-0.7598889221528242 
0.4343725458527722 
-0.1387349170513647 
-0.1793546144337634 
-0.2862609508255566 
-0.2330617746429933 
0.3222473210989016 
0.1912447250979824 
-1.043839994051734 
0.8143439981528747 
-0.08967736247912983 
0.5106199351225077 
-0.5383389595760459 
-0.2017315621563923 
0.5324561438357056 
-0.5532238643529824 
0.08595180421459046 
0.14029405608297 
-0.8774497145804494 
0.06052218005541759 
0.2086304994204461 
-0.4768186683245 
-0.5353478190382678 
-0.6336589069867127 
-0.3653795514532314 
-0.1408402494715993 
-0.2305930241190927 
0.06247157884957703 
-0.3171128749867351 
0.1697115528083638 
0.4426890920489345 
0.1991501173558065 
0.8797394236171312 
0.7603942113402667 
-0.1674324737965115 
-0.1707404082606323 
0.4181580460591177 
0.8415384770887306 
-0.4753868419196468 
-0.672228200076316 
-0.2981895445293581 
0.2304065456364831 
0.8893579602354382 
0.4759915805398937 
-0.1385280966449954 
-0.1743136634040133 
-0.05781731034423684 
0.7884885315902207 
0.3282831780993253 
0.2283201860266965 
-0.2344329944862154 
-0.2894359154391491 
-0.2176719513458369 
0.01082084798754825 
-0.123763717618142 
0.619148260468618 
-0.8740634636021638 
-0.1723302926966091 
0.2884872553269311 
0.1335410239181291 
-0.2353048349081685 
-0.7255503247486029 
-0.4739280007365669 
0.4846134232490897 
0.1290802859839607 
0.4796099771999613 
0.1370141597030096 
1.339122063682457 
0.1421725505144859 
-0.03780969743289261 
0.397348928623681 
0.4712609408118125 
-0.0245338988531947 
-0.6926610428191547 
-0.1814365870161951 
1.13205302380685 
0.1584325858387566 
0.5974406349877844 
0.32944242941303 
0.04788376985903671 
-0.05402653855051683 
-0.5934512922697186 
-0.3243167119548244 
-0.03956904836623194 
-0.9546845679337848 
0.3103229997417845 
-0.1846889567057141 
-0.363948256649523 
0.434707888864219 
-0.5438448151787366 
-0.5108248334591003 
-0.5814960581551147 
0.9910356822898748 
-0.05284057221563139 
-0.8405881676059269 
0.3815399625781846 
0.01000265040831193 
0.3811350249626417 
-1.053902720505761 
0.3664261401184324 
-0.06675086127050292 
0.01756592704327117 
0.01270230017357309 
1.158525168607838 
0.1316648730778405 
1.04818688771522 
-0.2513947791252296 
0.6002410228432243 
0.8600805875669 
0.01519440267384232 
0.1734706267580454 
0.1399664158200481 
-0.08484354848404324 
0.9607302384817009 
-0.03708995462857966 
-1.037778396306815 
-0.4225169201112733 
-0.7517551223535427 
-0.1287868219815121 
0.720467499966336 
0.6694689200826368 
-0.155436552082144 
0.1274191357706818 
-1.014883289871743 
-0.9656627067943053 
-0.02894694484105491 
0.3052137910191372 
0.8272409649835333 
0.3963434143534584 
-0.9010605051383821 
-0.1450356539840126 
-0.3021794303315292 
0.1908307719142847 
0.1844287169991045 
-0.4583456524872354 
-0.4275130319791449 
0.8515214575077084 
-1.655873918572717 
-0.09064402425651279 
0.2387558054315874 
1.129882114011892 
0.5965355262559949 
0.4975960277101158 
-0.3402853128721321 
0.01338640534301236 
0.1529735585621301 
-0.3511341374204192 
0.3955121293661993 
-0.2365146895756218 
-0.1490543815662836 
0.217526628442841 
-0.2173004618892778 
1.413557707319536 
0.1295524742760696 
0.2629545181946638 
-0.321677097617902 
0.04707243294963762 
-0.3744801878612829 
-0.5523425381773241 
-0.6330867864754162 
0.169776846250387 
0.1498281880624962 
0.9203852637474643 
-0.03518554214061853 
0.1416911193230346 
0.2839699336075114 
0.1521208493825954 
0.8241594162808359 
-0.208139157164543 
0.680393964023828 
-0.4681916753408912 
-0.2071071271562617 
-0.07231259097185883 
0.4162090784504158 
0.5562426828012329 
-0.9318956684931174 
-0.2430167527159292 
-0.7022783394002776 
-0.1780143214648263 
0.4730793548299536 
-0.03037474019357662 
-0.5668306880916152 
0.7591789612743584 
-0.7712843254171193 
0.1264481099550092 
0.3450163808494706 
0.5066942288747845 
-0.7123487707039516 
-0.1450781078165928 
-0.03773048402698181 
-0.1458670132874095 
0.1803159431878743 
-0.6669064063494615 
0.09537018510383516 
-0.3640423068376966 
-0.3573283299721597 
-0.3573909329218743 
0.003234388778545689 
-0.5831257712241216 
0.1412491677152228 
0.6553942980917007 
-0.3016415034220809 
0.02899004559714616 
0.1358913030862609 
-0.5855845947470003 
1.002505978542562 
0.04873657745404516 
-0.1391825297183766 
-0.3629256982460956 
0.3446731883793223 
0.5581736120710499 
-0.01530678071794128 
-0.2831233226249561 
-0.254079399755396 
-0.6236848758563606 
0.4705082147190347 
-0.1164980015017151 
-0.05306683511509516 
0.2831841412758521 
-0.1796040959958112 
-0.8419269982359332 
-0.03748363171179565 
0.9794581095313284 
0.01743298681768494 
0.6140403371950336 
0.5431722485492176 
-1.482581836112852 
-0.3161432386197993 
-0.4172396341938505 
1.68948601149238 
-0.0231883333491406 
0.6967067501934299 
-0.1667551613270665 
0.1495664861640652 
0.06838177000991535 
-0.3889091251486146 
-0.1409970845847594 
1.263753570761252 
-0.1232652306113188 
-0.3450932847705465 
0.4484330891215608 
1.137067298458637 
0.1831921409422598 
0.0730368327732261 
-0.1779022346070754 
-0.7677258974676588 
0.5885782605513836 
0.5383021201520091 
0.08176582965151712 
0.9613867162114096 
-0.2977861705952812 
-0.5811160789305998 
0.1019239997248395 
-1.064616618191897 
0.208737512824257 
-0.6950119162566153 
0.9986249615597942 
0.3528324724617775 
-0.2669578806091049 
1.46115850376897 
-0.6941296935143854 
0.444527048453406 
-2.076550919747676 
-0.632221727572857 
-0.3570344782386379 
-0.4715853559478263 
-0.05726529481418886 
0.1720221575539939 
0.2491756218218645 
0.8231096299966345 
0.2549949131282606 
0.3694384532007269 
0.6641571982191513 
0.06520203903964394 
0.7180751875145717 
-0.1281254226101845 
-0.05360108040522841 
0.279066393340238 
0.1431557031595097 
0.24628859592111 
-0.4474463049935187 
-0.2484605845835086 
0.05401989462662395 
0.5644060515736116 
1.003154173617631 
0.04777467763609993 
0.3169503119944302 
0.4683980348176604 
0.5194067129025552 
-0.9460682826980843 
0.6983105148092805 
-1.49254614973084 
-0.4491262665734014 
0.2638617085907299 
-0.8743098190566552 
0.4887834490236815 
0.6684806305300525 
-0.3842305060097183 
-0.04045137526671509 
-0.9511533183257521 
-0.02505488192196098 
0.577623054332674 
-0.5066452934150012 
-0.02959816956286903 
1.057820350220606 
-0.4851689481166829 
0.7073541161339869 
-0.143258738449063 
0.9440353461730673 
-0.4273094764431307 
-0.3677406779317606 
-1.167919455974628 
-1.093898759391777 
-0.1748447740821716 
-0.5380547618170251 
0.3461984902435868 
-0.3762093758559084 
-0.9992372411621243 
0.7524453247078627 
-0.4652952002617627 
0.2624621124977697 
-0.5636796208761043 
1.137887273171139 
0.3406053066884747 
-0.5727818526342096 
0.03297041084200887 
0.7927513176230304 
0.9046012013616278 
0.8286666818052876 
-6.405686663610646e-20 
-0.1622693732241715 
-0.2101947023752921 
-0.08761454225618452 
-0.2789413782090954 
0.777417595317845 
1.043847139390052 
-0.2579974914474154 
-1.197348793718716 
0.7379825516486634 
-0.7582345022773855 
0.2869659093827016 
0.4740016524466153 
0.2961717976086788 
0.1876540252839196 
-0.2384669898633358 
0.1476141445445567 
0.2072922137809765 
0.05534783786321286 
-0.5489339668274934 
-0.870326298885071 
-0.3699235874163807 
0.8211922706033836 
0.2919765604536014 
0.180105011233453 
-0.6361283740311463 
1.138257984962513 
-0.08715907089061965 
-0.6480297250451734 
-0.06654224235215572 
0.01215385837868109 
0.6491069754805481 
0.1833880277549322 
0.07853272894024489 
-0.1297939483245929 
0.6252017258510936 
-0.3142160668778687 
0.107587602899655 
-0.5107573494012224 
0.9426180427156229 
-0.6630268852413079 
0.3816464048501175 
0.2790257683869957 
-0.09645633621398318 
-0.3565224165968665 
1.504997650046052 
-1.019502607537444 
0.5442496208553684 
-0.3703735791600418 
1.044917326308658 
-1.161941566910184 
-0.6050486607914962 
-0.1337884349415143 
-0.6478680026978062 
0.302780978995251 
0.147510767143486 
0.2058400998414359 
-0.6253671629009414 
-0.5507147798119527 
-0.1660998661320499 
-0.3354523014373101 
0.3976250173368304 
-0.615953244006356 
0.03136406688069308 
-0.09473810695244561 
0.09935647011731592 
0.5983458610850774 
-0.3851941489977909 
-1.230726434857438 
0.8208718409482546 
0.1119042387833322 
1.090848844588819 
-0.6283533270386975 
0.2971990083708872 
-0.111050874784445 
-0.6636352227576027 
-0.006701608865601514 
0.01381844081715201 
1.13424454456701 
-0.1298201215382816 
-0.5090128418798513 
0.1587004750362221 
0.3814387194005977 
0.08429947314488935 
0.5457887337981503 
0.05037881756964975 
-0.4769182386586722 
-0.08894128792882157 
-0.2039418486610713 
0.6150358348649566 
0.1808050926892909 
-0.768947791364664 
-1.106810040709024 
0.250282968494458 
-0.276638022406919 
1.004274347459477 
-0.1712477704213451 
-0.2454677692889841 
0.7415013479053723 
0.0513351050638806 
-0.4562867004817454 
0.2639965861217839 
0.4392317672723826 
1.116047482739644 
-0.5186413329081946 
-0.1032574700408046 
-0.2110459087009766 
-0.1354394092319035 
0.03479153479443242 
0.3659353829323001 
-0.1178435331131544 
1.066429321062093 
-0.5386421639570281 
-0.557435674723382 
-0.2445224962067499 
0.485589386651595 
-0.02855579229804855 
-0.6502908002923493 
-0.1145785632345014 
0.9812580023781688 
-0.1497674797921721 
0.2053261054311567 
0.05896936320819308 
0.09108200300846492 
-0.281307996725563 
0.8147541162210319 
-0.03646180789886105 
0.09197136609908763 
0.3670655507503468 
-0.4550207275816486 
-0.5492083721225639 
-0.09152324664340111 
0.4195144875744208 
-0.09952861887132179 
-0.01476504544645791 
0.02273151347859276 
1.817122468267608 
0.1128762403924372 
0.1336046304291624 
-0.08145528911383537 
0.2320020153387798 
0.4054803779070741 
-0.07816374773394562 
0.2130894624159909 
-0.3076480729002071 
0.1355512854346298 
-0.2518158387731754 
0.2924572937402312 
0.3136786152828971 
-0.09754725456921064 
1.056904419786419 
0.3970030564452571 
1.331575162446719 
-0.4470203904215228 
0.9161175133318066 
-0.1065134219595347 
-0.5584881491636338 
-0.5349684051258914 
-0.1796217172460187 
-0.2951282955255649 
-0.9385942645257412 
1.218975042981471 
0.1956223382066125 
0.1661760395076969 
-0.1330959978690808 
0.3667228496244267 
-0.1822553058308082 
0.1266027088887247 
0.007863057400148081 
0.9465106137677601 
0.1222266179012425 
1.102470021161054 
-0.02964581365656597 
-0.08848283838895352 
-0.6011848587744663 
-0.09477450721148689 
0.1864784213173186 
1.031078437632817 
-0.2456593957738853 
-0.04758487215008098 
0.2186332377523521 
0.3821868590545874 
0.2283863935720908 
-0.2565752634606188 
-0.0637137406676932 
0.3310442042491417 
1.103681027063471 
-0.936739105492483 
-0.6014896469654639 
0.0005638743042148767 
-0.0412392835423421 
0.03614345747749619 
0.04353495741583876 
-0.1639800502181842 
1.183186267847466 
-0.6905989890415043 
-0.1934188824282339 
-0.1484063700462593 
-0.06100626397988716 
-0.3348996032329838 
0.8170819175274687 
-0.2293992838072929 
0.2323557408034866 
-0.1075424112466526 
0.1726626526998419 
0.01406886723777048 
-0.7735161728432531 
-0.1640033134039039 
-0.3621601360698775 
0.2426242207660475 
0.5185831453424865 
-0.465202968512092 
0.4146207581927965 
0.3101718022209654 
-0.7830771001045123 
-0.1015048129495174 
-0.2950841359587889 
0.07374300424436882 
0.3144702841087703 
-0.1412734345825761 
0.1760863396141912 
0.6652168052644051 
-0.08812157670401816 
-0.2326997333725722 
-0.03428782384991438 
-0.2645087150347183 
-0.03501507422110644 
-0.1082658953345874 
-0.9741154122180548 
1.077786261390428 
-0.006002306859084774 
0.04702306418081712 
1.211866160416401 
-0.1190868155351636 
-0.3161887053193883 
-1.272881884229288 
-1.140371946279657 
0.2821914496654132 
0.3363413708084016 
-0.3635332199306504 
0.05541310452659155 
0.8078677556390872 
-0.1743433671439983 
-0.7163601842642466 
-0.2651777367984873 
-0.2476374833659197 
0.9316221646289409 
-0.6130273008077211 
0.1164198241321802 
0.7762891647015175 
-1.404818646261648 
0.4505205804125698 
-0.4638596948396961 
0.0490927460603991 
-0.8084041477272891 
0.4633070028613824 
-0.1617461104397251 
-0.1565249099003843 
1.053254739488325 
-0.2414881020465724 
0.4874164411393881 
0.6738037425603411 
-0.9231619988875319 
-0.9309213948228756 
0.3450528750414874 
0.3012763231003266 
-0.8032735715160851 
-0.4784383667380256 
-0.04041330174078227 
0.8147565146481893 
-0.2791604472994374 
0.02275959466334069 
-0.5899505353691167 
-0.4196956210333941 
-0.04538786122455862 
0.0888651204247299 
1.281951762428526 
0.5165060428397048 
0.4510254660782005 
0.4546585432200929 
-0.6970096315120641 
-0.1589953844172406 
-0.07721397875397487 
0.07622671582499378 
-0.6259460142367554 
0.5959168791666577 
0.005227504636201849 
-0.1039799023713185 
-0.1067283892644675 
0.02847737360682383 
-0.03215023094034757 
1.213721033839442 
0.09218791414578149 
-0.9487955200479448 
-0.6487514715389301 
-0.9625266080637289 
-0.3307536081531563 
0.1122472847521941 
-0.5850874016270646 
-0.02318029839288715 
0.1193545966489942 
0.01768891345446826 
-0.02060528127856899 
0.2318028622683189 
-0.03799296890515648 
-0.5694235253777532 
-0.02668038126892898 
-0.1861173835592969 
1.200793045037103 
0.2109390250053452 
1.096646335911858 
0.2645798183963775 
0.8391623384441084 
0.244152993730815 
-0.03440445669765614 
0.7646589044485393 
0.6673965562710413 
0.4994714175674062 
0.03984417671776508 
0.2993756987179589 
-0.1551829164294734 
0.08536961445951513 
0.5590314776134618 
-0.3081539024857277 
-0.2393440906612661 
-0.4792497757502263 
-0.4305798955852814 
0.840084690397441 
-0.7242669380822001 
0.2332654472993919 
-1.643386907741554 
-0.1126440149519108 
-0.443944879238555 
0.2454085835708461 
-0.2611649860121847 
-0.2409832399368389 
-0.2951207891431956 
0.1319102940503968 
0.1495024580353925 
0.6160547913348373 
0.3860060108327059 
1.267884734996104 
-0.1771315743034328 
0.01521792289616725 
0.6769729249356417 
-0.5109952685181905 
0.3184400738862685 
0.7364024503704644 
0.7026641026867467 
0.2411957912748116 
-0.5870935402520477 
1.173070004014519 
-0.4155575530356704 
0.7342156749410752 
0.1610795134344895 
-0.2568949305835291 
-0.7077380106684986 
0.2140659495920358 
0.2408472004130166 
-0.1080627693130584 
-0.123813606706345 
-0.1742215436533442 
-0.5090111993031513 
-0.2017580903517717 
0.1853142551376735 
0.00353025382201744 
-0.5009561887846248 
0.3886386272340975 
-0.1376607510855089 
0.754501783729434 
-0.688482926124579 
-0.1113246972589903 
0.9390691298343222 
-0.4572382506795374 
0.8110530795700565 
-1.578021469290659 
1.00501502452091 
-0.4386089903605441 
-0.1205922310923966 
0.2201056109169491 
-0.03061892287136944 
1.781785306878448 
-0.09043177837350548 
-0.1202084249584739 
-0.2768650616974658 
0.7215384764236278 
4.732796592783403e-20 
-0.413926270097456 
-0.3194426188378138 
-0.7505373496999396 
-1.251369211988529 
0.1727509565496554 
-0.475945398061266 
0.2011619603441298 
0.01659914903308969 
-0.2137270131290753 
-0.2622185698063915 
-0.03637127517799601 
-0.1384578360663454 
0.1754796470586691 
0.2707982667125988 
-0.09767310156524914 
-0.6493380628398594 
0.6898576646625928 
0.1984981044061679 
-0.4193981820666871 
-1.132362253320945 
0.01249925656798796 
0.04496854135442426 
-0.7342642635766277 
0.02259506519009756 
0.2987915356948863 
0.7353076845174014 
0.09178865479803286 
0.8916069360975853 
-0.08990173337503621 
-0.2918960274794191 
-0.2005807248365323 
1.064911420181087 
-0.3459934090924379 
0.1505280231818155 
0.7179865438688111 
-0.8256961977757575 
-0.08036715182112934 
-0.3877564485809955 
1.262227489683332 
-0.28926878325265 
-0.2846082677141125 
0.4104750671842613 
0.2301853623985743 
-1.3382476567195 
-0.3133123285806469 
-0.3659193114418526 
0.2571845358016933 
0.02254277194618179 
-0.1199714336423853 
0.7015448158713157 
0.812443551184127 
0.908828195284679 
-0.4761420439201916 
0.06281635168557009 
0.3363126901398588 
0.6443028442179279 
0.4195532879335972 
-0.4723461326703883 
0.2282801574789173 
-0.3159072955306471 
-0.2201470169222587 
-0.3010247624601514 
-0.169349901988467 
0.1962287375164787 
-0.274673492397997 
-0.07204435015879525 
-0.1543662740922783 
-0.2210683484961219 
0.03901180217042696 
0.03397483342876298 
-0.7161173647293935 
0.446111653710067 
0.4458526008630023 
0.230912576775062 
-1.190116239081002 
0.2405999811387865 
-0.09589142926734502 
0.2425775288433308 
-0.04062473398072736 
-0.9580947715024598 
0.3016737643276422 
-0.620690406389219 
0.1616703593866474 
-0.1447681555895581 
0.1396596274260878 
-1.090991971534523 
1.748621543856691 
-0.08412353270352904 
-0.5191207782656143 
0.7263288939406549 
-0.339491159394228 
0.01159247456699985 
0.1194374543981889 
-0.7448166453499315 
0.3026722316810794 
-0.4491154432573767 
0.5488632765749607 
0.652585600479386 
0.4642292245134145 
0.2150148780399877 
-0.2851231367492025 
1.051688579535858 
-0.9707560515016083 
0.1523982289241743 
0.3338165159879677 
-0.2335986193392781 
-0.2767524947081375 
0.2620991698160766 
-0.0471452069402794 
-0.2291617515813314 
-0.2851137284778621 
-0.1493483819139133 
-0.2201291576231568 
-0.02263261722975041 
0.09420368971695119 
0.9023055721338964 
-0.03625897279336315 
-0.3197115505444128 
0.4257740093516533 
0 
0.1568258870753501 
-0.08785311744413722 
-0.4690981050047817 
0.08805895129292 
0.0451202361566657 
0.003031855437882727 
0.3112464109614136 
-0.2077519528434943 
-0.009773428976662125 
0.6200549295217295 
1.310644096117574 
-0.5139392348139745 
0.4444579984266127 
-0.4032897794199826 
-0.5715484542506729 
0.7805246128259443 
1.574690747307235 
0.03929120257229247 
0.08978381048678426 
-0.03956056850120981 
0.006053490821653464 
0.5591511391436587 
-0.09798239014905907 
1.149176865045765 
0.4793755297833925 
0.6139283383528151 
0.04604687377700224 
0.2143731243185896 
0.6151079467222037 
-0.7121428151168332 
0.1754818435972807 
-0.1061850892311127 
0.3731839630079087 
1.078034942819188 
-0.1232803881780682 
0.07162524907421068 
0.337255062006393 
-0.1253559157505255 
-0.9529666858264735 
-0.07505016606768496 
-0.2607711788940245 
0.855067439884301 
0.1174258660206678 
0.8368292318909718 
0.01697937185229358 
0.574492232082636 
-0.8626714105340269 
-0.1324155563054995 
-0.1444835027468125 
-0.7172258224365964 
0.1803936059281769 
0.5154041698557303 
0.5972416859356918 
-0.6191155100042913 
-0.4554359472212532 
0.2157086593256698 
0.7501418483752067 
0.2457163314715875 
-0.2487553277714832 
0.3936516725827984 
1.138578110271759 
0.09698137186249529 
-0.1267387394685662 
0.1075520928561947 
-0.1078870949240312 
0.5951452129587739 
-0.6487352680527508 
0.3812393031830721 
0.6694333332358647 
0.2413110209459575 
0.7366576533402783 
-0.2127212765742801 
-0.04391031629853209 
-0.7696207000572705 
0.8508644288517192 
0.2049322243258789 
0.003415025838857347 
0.18732269096716 
-0.08675475332498034 
2.621266491433406 
0.9509849300438815 
-0.5858693071328031 
0.399310711453048 
-0.0242064886725064 
-0.3429178595266633 
0.825046047923961 
-0.06356889179467246 
0.09290365737931799 
-0.255357662347519 
0.5920400075301862 
-0.4395835130584747 
0.5087853799146038 
-0.244829507658002 
-0.1138098956151248 
0.4108244000830101 
0.6630354026774474 
0.2593994327773467 
-0.1331022910124044 
-0.008890476334080282 
0.2152386237903072 
-0.4954039209086551 
-0.280726656788519 
0.02480734629782769 
-0.3314964791182364 
-0.04818073500872853 
0.2598513990630378 
0.233402864679401 
0.4369764786187942 
1.257765295739677 
-0.0463037175103288 
-0.5548088121382136 
-0.1709232058683238 
0.4590589046481873 
0.3267544615140797 
0.0726834163538858 
0.460960187927658 
-0.02799598564574109 
0.08529605318379581 
0.1695884258285044 
0.0646037685727692 
0.2223415644238645 
-0.05142361398408879 
0.03080901946215574 
0.250870876558674 
-0.3637189523672096 
0.4599582236670471 
-0.1187697395075982 
0.1626165845030517 
0.8430980376170137 
0.01685760026510257 
-0.1396278146424666 
-0.6630669256972057 
1.356701829128683 
-0.05203876064010981 
-0.4589053266389626 
0.8318779110701026 
0.3513779104583883 
0.2716259711643751 
1.351530025422939 
0.01820730919546927 
-0.1443734674097795 
0.5910183648118752 
-0.4020014781119154 
0.8452135802540764 
0.02925478262474622 
-0.481732341283664 
0.4001352020496131 
-0.6082468134617413 
-0.7728133317514355 
0.07874145232140516 
0.4679202957351053 
-0.3557435735439175 
0.0459666380045666 
-0.1082458768004695 
0.1753173250954043 
1.041189312199569 
-0.09776923173359651 
-0.5913560584309465 
0.1245290755416065 
-0.277452015505753 
-0.07092910324799945 
-0.1556638946961204 
-0.5826487758145885 
-0.02867265213661368 
-0.0517364417777495 
0.1162590147812058 
0.6572864692627235 
-1.169836389961145 
0.3333326800059137 
1.267231804457283 
0.01112415308857931 
-1.428434303150689 
0.8995040497481132 
-0.5121688845486543 
-0.9492451988950706 
0.2870897632989094 
-0.257517073375879 
0.1234524750497888 
0.1018866578872955 
0.004279049585890283 
-0.2973768987054984 
-0.3435091024935391 
1.138391586033306 
0.9284934881502772 
-0.1023682633334326 
-0.3223622238045448 
-0.02690204739152012 
0.6541810772438559 
0.492350857338546 
-0.3212007243830072 
0.1425071899417818 
-0.5334536139723972 
-0.2268628826989646 
0.4429819520475268 
-0.3329892680401206 
-0.5682035901016246 
-0.8812022183170385 
1.261494168761456 
0.05255149028160957 
-0.5146505862213544 
0.2117866993468167 
0.2483592436725788 
0.2460428193033939 
-0.7786637789025751 
1.13307078727009 
-0.03622728773598489 
-0.04080552892080054 
1.213801212375358 
-0.8319733029839559 
-0.9671231911490966 
0.1847839147720729 
-0.1288397131575323 
0.07532773363240934 
0.05483664047654847 
-0.1865996259133388 
-0.008054067598121733 
-0.1545353225051221 
-0.03418297372478991 
-0.1060056364539655 
-0.5608883393850013 
0.8198072618716209 
-0.4487455425601619 
-1.128305771868758 
0.5887799326789546 
-0.06709946520718986 
-0.2301697131271247 
0.320874770912086 
0.1355619850178313 
-0.6740744786162516 
-0.4237997255485437 
-0.9473843318374294 
0.2385799977585558 
0.3025261987244839 
0.08060124946187423 
-0.0353642443585445 
0.1839868969873945 
-0.5772654304594159 
-0.205343769504622 
0.3803034472017829 
1.457955072426822 
0.3534013749728841 
-0.2728218208883702 
0.2745623052869475 
0.5097312172614575 
-0.7735995252937621 
-0.07230962701208371 
-0.8011922703686375 
0.4230672961659626 
0.6335467076818865 
-0.1293094443388347 
-0.0586668556761621 
1.143777922992051 
0.03447331225176979 
0 
-0.2017448524350488 
-0.6637638458422422 
-0.2047570746087758 
0.3990577287070484 
-1.03161998750486 
-0.3162123454555246 
0.4696130442198043 
-0.1309905331714413 
0.4010066243401243 
0.6498183972784636 
0.6808068864127967 
1.711582962843949 
0.005481113916254082 
-0.3181599462963383 
0.6811034000927854 
0.2163937611273088 
0.3992050467620706 
-0.7168753275917072 
0.07817327911933601 
-0.00297076650954415 
-0.01923102587413751 
0.7463226929039263 
0.2372967046750872 
1.656791520584149 
2.780667781952444 
-0.3020033443616217 
-0.1624011086702075 
-0.2662936655339751 
-0.501617766574574 
0.9002796870491997 
0.1570001819399148 
1.361050039911164 
0.1761721661602778 
0.3393185348717302 
-0.2675016423406872 
0.5534596181625809 
-0.02492242298116183 
-0.01388653789354343 
0.08045860187129349 
0.1122114535300819 
-0.02036565006283259 
0.6194416748815228 
0.2632105716923055 
-1.249631479470127 
-0.4457305083734837 
0.0008832175163605703 
-0.05183186019350793 
-0.7405946528494179 
0.8406150656375088 
0.1830977676812236 
-1.314215333059605 
-1.106269214516197 
-0.02631175599485135 
-0.2815413240121448 
-0.1084806865142292 
-0.144711344046599 
0.340300740477201 
0.1131035454519207 
0.4628328355151917 
-0.1276505990216639 
0.7860391087860058 
0.2657459145000143 
1.476422206028426 
-0.8542219558562523 
0.118699811466851 
0.334807518354681 
0.4985376360865443 
-0.009538427510027434 
-0.190521430952328 
0.6266683093220047 
0.1183393455248253 
0.7932076419326723 
1.723412170786421 
0.08902748907374775 
0.8074207568616604 
-0.2495157229640327 
-0.3888135144383173 
-0.6407689157311686 
-0.008893220692191842 
0.1463628123550101 
0.497450096643382 
-0.163460406987525 
0.1890404069037066 
0.1305582670896592 
-0.00782073496880376 
0.1936237758777181 
-0.1911588805332795 
0.01747199072634697 
-0.05912235338616462 
0.04545251320483942 
-0.1041931379242046 
0.1076274170943465 
-0.6167101945408742 
0.7136553637767271 
0.1165299053158289 
-0.2710486812186266 
-0.2573813542281617 
-0.2652476051551587 
-0.3384459658802003 
0.01810357552134471 
-0.3783106689595467 
-0.1058221350820036 
-0.003450394313621567 
0.08761591220907204 
0.003256172064081761 
0.7893669453800241 
-0.6011970264003044 
-0.05556479407282131 
-0.02154959708444855 
-0.266729820296576 
0.05280063716181104 
0.1291698639526404 
0.1772013555470999 
0.5583143057289206 
-0.19351221908602 
0.8490704098188945 
0.03604145364146029 
-0.1442647576587909 
-0.03725289280559081 
-0.8396443388232397 
-0.1350663595726762 
-0.3062536802332349 
0.2568129696000295 
-0.3885222827947027 
0.2757839776022775 
-0.6463111542692958 
0.2328397383302639 
0.0369937842462812 
-0.1185062850447083 
-0.8879629839250507 
0.1927660090801031 
-3.159565242156549e-19 
0.4870085898296276 
0.2029193802217428 
0.02085041283754904 
-0.00111793006206531 
0.380119729464022 
-0.06889035046884533 
0.04932593598256818 
-0.03173021245526896 
0.01480719544913652 
0.7817040125592966 
0.1189310400368192 
0.2296196393244616 
0.121641365748433 
0.6873016284762677 
-0.06455992089342 
-0.7942530867780927 
-0.07709019189966962 
-0.4416319262920603 
-0.192889982416953 
-0.4832144252654839 
-0.2161824169306791 
-0.026675404553496 
0.3282235096879998 
0.3254079985660497 
0.5417144363896144 
-0.2215459202964723 
0.5122754999793082 
0.1573163403516526 
-0.009882345690660052 
-0.1087923597100569 
-0.6901688555439035 
-0.2949443732551673 
-0.07986907881172053 
-0.09905503809095142 
-1.900604482439774 
-0.4235677169294174 
0.1394870258193822 
0.2160591803380206 
0.8611083728782616 
-0.4849015300343277 
0.07016634704605937 
1.137628841885847 
0.1021900627808691 
-0.4846388001945214 
0.1374747918070942 
0.2117245953439461 
-0.2896190299780389 
-0.1092487808736352 
-0.6568679083725618 
-0.7848481268306882 
-0.2521642434751545 
0.5070239327918302 
-0.8360089841876185 
0.3950765755219466 
-0.4201446085115834 
0.1892669870106063 
0.3318913340578308 
-1.014020366778629 
-0.9228006576820652 
-0.8529972365115487 
-0.1459548877900023 
-0.08826253508171227 
-0.08323369060428268 
0.5028283810494244 
-0.04595578509506337 
-0.08395392349615426 
0.2825159265563065 
-0.7622393061092302 
0.1585311643278271 
0.3394234713157002 
0.773688540199392 
0.03494775331634289 
0.1128386768044588 
0.06172493830517903 
0.6918005149221506 
0.1002953238564531 
-0.7780806778925911 
-0.573741716935948 
-0.1101073877125046 
0.4515484635289819 
0.008342568523726071 
0.01351423963805183 
0.03171678657382401 
0 
0.01524130373527992 
0.612410516862721 
-0.257567730127976 
1.269540771647331 
0.6773854565937393 
0.4297618450671062 
-0.00531005937680065 
0.7945844572121887 
-0.1534862818866245 
-0.4536543970009379 
0.2547063911009479 
-0.2556008311439691 
-0.2449358305700629 
-0.331426468545563 
-0.3263117076982978 
-0.04763638517463044 
1.097804074295518 
0.3523149489142617 
0.4625075939420263 
0.1312618631878974 
0.4017260425610452 
0.2011826675271351 
0.5857920601129041 
0.06327510976380343 
0.8463361707516739 
-0.1514385218331951 
-0.544377561078897 
0 
-0.3033261410009139 
0.1001457517047459 
0.08826994041386574 
-0.7604776203423009 
-0.2594227604827097 
-0.2011911693559207 
0.1877927210750321 
-0.09039765075642471 
-0.5996889130373015 
-0.03247627877943704 
0.4387405803655158 
0.6802761771552321 
0.00594443698100138 
-0.5309224673365787 
-0.3392872533586654 
0.06821505239671136 
-0.1023847490347599 
0.3252551123807855 
0.1263033879446618 
-1.215037229915932 
-1.078321101123392 
0.4557058742164476 
0.1939039138044414 
0.1853738848246749 
0.9073117482007999 
-0.6619898569288398 
0.2523834849858516 
0.4928842069131305 
0.1842710560248559 
0.2552015696702471 
0.2654596352444644 
-0.0459260815106403 
-0.6117677436811371 
-1.791325567898461 
0.2061471568361544 
-0.06771816174440458 
0.0845867411105054 
1.298581934910917 
0.1043338033545987 
0.7364155397593851 
0.3494716239002507 
0.6534926963891892 
0.2071962754188905 
0.3665275076336877 
0.3034200539039106 
-0.399879064354285 
-0.6579108720306972 
1.121180454589075e-18 
0.004314025602981099 
0.845678869225598 
0.1622689830522449 
0.5293871976063081 
0.4308941889215606 
-0.04428517202419087 
0.9499885910434854 
0.6746649390786984 
-0.2657145607062139 
-0.02436118416397007 
-0.1138719692293256 
-0.03914747322733576 
-0.2407989229565458 
-0.3784694765608451 
0.1672900426100053 
-0.1754834178239331 
0.008053969957720751 
-0.4691510360791173 
-0.1970863436917711 
0.9858902517361696 
0.3134521205811727 
0.199855691955508 
0.5950425895671114 
-0.1638754794572486 
-0.3294726825015681 
0.4404564886425884 
-1.150207845327016 
1.439956010332311e-19 
0.08229835788361198 
-0.8495543326750671 
0.3713606819868097 
0.1897938417560612 
-0.3969016904720892 
0.3288179856343263 
0.1839913072361812 
0.8228053279899066 
-0.5523942991978691 
-0.1005511822799107 
0.02610605982647465 
0.8351045149241406 
1.051875577403408 
0.3287182206588898 
0.1232277706732605 
-0.3988352757681424 
-0.05527457074057154 
-0.2556693317948651 
0.2058436030272874 
-0.6027600825305269 
-0.8840491312913956 
-0.07043072267363606 
-0.3218296233366535 
0.9779616350970858 
-0.1326647105552912 
-0.6822620608854011 
-0.3381012912392949 
1.506848525986061 
0.2709978230688324 
0.4352554786633123 
-0.7649035021795362 
-0.4050636775599711 
-0.2733151288822279 
0.5817574138024189 
0.3246489478335983 
0.06933405951212608 
0.6973049708206932 
0.6704008791238644 
0.4824841005421786 
-0.191127229155901 
-0.03141941106155408 
-0.0251027992309169 
-0.08137656987393223 
0.2684169677418979 
0.2183552698557255 
-0.594004752610741 
-0.134769790651968 
-0.05496823170108621 
0.01550964618228654 
0.1449906998379205 
0.5303424132391736 
0.3206166314902653 
-0.1394598152455702 
-0.03522600781753577 
-0.1810238871087029 
-0.2719098544367262 
0.1437524253965334 
-0.07653200824484251 
0.1594438394674405 
-0.314129142415136 
-0.04552446224227882 
-0.6361617473734433 
-0.205254526498029 
-0.3242558481350974 
-0.2827829919345953 
0.2159166375189878 
0.6501124856285697 
0.7418069269166654 
0.219979989264253 
0.8474901255202959 
1.029957179987891 
-0.06329206693894245 
0.3522553980988529 
-0.673365956700867 
0.4945854116878946 
1.12362780684349 
0.1816810246839221 
-0.06717882134936681 
-0.8120214962476228 
0.460685871944849 
-0.8263755992569343 
0.2706736039533598 
0.4096264969472691 
-0.05421922520573844 
-0.4024298755714376 
-0.2830613484465501 
0.6821184345737498 
-0.08786292323796394 
0.07039007726485816 
-0.9768639107227411 
0.2759508674744754 
-0.1928741629303532 
-0.3668901728377403 
-0.5674186944815527 
0.2892586657761287 
-0.3497093562366554 
0.4976298226890939 
0.9378778530066216 
-0.2820580447134741 
0.01061509282769857 
0.03936943935131094 
-0.05201258046555459 
0.9207292062639473 
0.3243956165823884 
-0.3873356568846781 
0.1001424472601114 
1.6233733666576 
-0.05350986154492358 
-0.4072392598717671 
0.2642970378609898 
0.1802788721010252 
-0.7973192017631384 
0.2040315851401863 
-0.5838065552759601 
-0.1260227442305736 
0.3162519982256298 
0.4786158934215159 
0.2288410214186007 
0.01397899933812408 
1.521589425719684 
0.2914185859540045 
0.1075085576607705 
-0.1972859701947275 
0.4281944995289195 
0.5714651553766509 
-0.5254208023637564 
-0.1942953730685363 
-0.7327622971229842 
2.020760877436419e-18 
-0.3901211394074398 
-0.1914764482542469 
-0.04143963034648757 
-0.460050191821039 
-0.6298251505323049 
0.9182768873139673 
0.526557821647416 
-0.1127607972211503 
-0.0004974485162403213 
1.630529588354638 
0.1249208104396486 
-0.1444111463079361 
-0.2782745628595272 
0.4721446987422275 
0.03411913088408428 
0.04127738904771814 
-0.460360267722046 
0.5191450878151197 
0.006460233772539244 
0.02488129781831751 
0.04994362005455245 
-0.1191252979089007 
0.4135941194628654 
-0.439650904751243 
-0.1706753700194641 
0.4395023373854898 
-0.2159248865136569 
0.2907154827029161 
-0.4964745128964339 
-0.05470112083113191 
-0.1139776752056515 
0.006980352414602957 
1.086849150445674e-18 
0.3681081554491867 
-1.238518432359546 
0.5445404379152721 
-0.212027742721161 
1.204999209009653 
-0.06420943063250432 
-2.011120914577726e-18 
0.1746941303601257 
0.01151516938745091 
0.0906491290904362 
-1.044509064219316 
-0.0009316710292422222 
0.01887876839564034 
-0.02607836901739492 
-0.09295387973934005 
-0.1782008735058141 
1.451442113444889 
-0.4071846830277128 
0.1141957005391193 
-0.5205612631317265 
0.5515230721905559 
-0.156554504926878 
-0.3627365337244622 
0 
-1.799945012915388e-19 
-0.06394678469916289 
1.086644120593253 
-1.041194345037448 
-0.385081897693353 
-0.149290402458623 
-0.36247068551211 
0.4006473281338037 
-0.6394933789202103 
0.3675412293837005 
-0.6636155940914021 
0.1980085357254363 
-0.2158042248696021 
-0.1212935812560259 
-0.1783624952066623 
-1.093525570066748 
-0.01068713350304956 
0.009558206460862067 
0.05751859952679541 
-0.2646600685271446 
-0.0258842543628604 
-0.01810950157143745 
0.1601429789577271 
0.7748734664621992 
0.3770658461643187 
0.02497546750850573 
0.791430995596755 
-0.192175129668465 
-0.2955564547421472 
-0.1085230870602526 
0.1731120479077584 
-0.3064756881650121 
0.08943416577567763 
1.142466522598846 
0.4039776153178922 
0.6814341428042728 
0.02403027712278549 
0.2670260098323234 
-0.5024361033934102 
-0.495035639537626 
-0.4085298851035589 
-1.062749793422201 
0.3045703580743633 
0.4929849787878032 
0.4830088887649512 
0.6754306374744425 
-0.1127713783804377 
0.1494507974599909 
0.2846047969788582 
0.3237697175144821 
-0.4690914827921339 
0.3233729807673818 
-0.4591507361726579 
0.691528714077963 
-0.3837267269361157 
0.04456785049036548 
0.2344326884754051 
1.737202298353709 
-0.8701960326390509 
0.1454021433642258 
0.5561636184740126 
-0.2566735046770987 
0.3040141387502981 
0.008285308201818437 
0.406111951908815 
0.2319779917541556 
0.634976043272367 
-0.411060449318664 
0.642734355819908 
-0.007737930149993904 
0.262795826299636 
0.03270675072222555 
-1.07762586487103 
-0.1396871836416883 
0.03397769805104156 
-0.2386155191624218 
0.3111522170463986 
0.6514507102577947 
-0.8048472975365167 
0.1215061710915915 
1.189859888032722 
-0.01040869388145915 
0.2005399883133225 
-0.5437975747195928 
0.3934136396580074 
-0.09760078505815713 
0.2586723063604978 
-0.3436981917058359 
-0.07916118153023124 
-0.7490226449977571 
-0.1017439493449678 
0.205378499461961 
-0.2451710718329818 
0.5429436646058019 
-0.1501982708019756 
0.1253490611578153 
0.7777290914700481 
0.8593234861599617 
0.01722235948543532 
0 
-0.3723719646084113 
-0.1319815351820267 
0.2300422891308315 
-0.5388007465161344 
-1.281178449095164 
-0.5472429949151424 
0.8947024077038739 
0.588518990268497 
-0.8252795421865109 
0.1296611297457133 
-0.1105200517388136 
0.3330048793405172 
-0.3609434255063557 
0.9944481127848773 
-0.1507405475046408 
-0.1918764340674072 
-0.03553234125740985 
0.8974347575555658 
-0.1399058561460352 
-0.6189787379340026 
0.2793256450862716 
-0.1972036685161347 
0.5613514287320722 
-0.6943181013635168 
0.1913800640904228 
-0.4608739122079784 
0.09817415154429665 
0.3513682212092854 
-0.5439993943645469 
-0.05948132201757751 
-0.1970120236124182 
-0.03753154958592216 
-0.08857260302545264 
-0.1529335985553164 
0.6390097395800935 
0.2982677848214002 
-0.143281092496021 
-0.07502163561260616 
-0.09877760488767415 
-0.3628386188122203 
0.2277359192416619 
0.0890555342800666 
0.1415904498457754 
0.08414009407699541 
-0.08880848176937214 
0.8173986108764305 
-0.05324019483374313 
-0.6679825622008967 
-0.1549705204493993 
0.1069538165558317 
0.1097979097140666 
0.1028294429147011 
-0.02670722901872717 
0.1517939987227837 
-0.2366102028440933 
-0.416801401659997 
-1.201234333225192 
0.40848794578102 
0.06119766751896671 
0.7254601222175887 
0.8774680432433626 
-0.4611011687145459 
0.2807662287676703 
-0.4353174424517733 
-0.5170297663982995 
-0.1678788673442295 
0.02394106463419324 
-0.3239628514132269 
1.008326939621583 
-0.3626032612837882 
-0.1904587744614211 
0.6044436296225812 
0.04768340457138469 
0.2176298762899052 
-0.1315618643766651 
-0.1240166885561639 
0.9534000255434291 
-0.06782643927959053 
-0.004049816643113074 
0 
-0.02721664531412452 
-0.1556639389450065 
0.5783381027628148 
-0.6452169959473998 
0.7577396726744628 
-0.09045622415392771 
-0.2209199635483357 
0 
0.1881951976223793 
-0.05802125804575046 
-0.06314758480682982 
-0.3155393684630353 
0.3925553580214243 
0.2744632214486962 
-0.5437510468003338 
-0.2189339924311269 
-0.2408067310856028 
0.207617817650557 
0.5205478372093393 
1.02071937213059 
-0.03290309158587645 
-7.326834993749698e-20 
0.5814050999315306 
0.1459634346371124 
1.449501724506764 
0.1858885905704051 
0.8083524180080295 
0.4265206496886469 
0.04871344020530537 
-0.1674409576938517 
-0.16423727762815 
0.9456276294998271 
0.04377622000612557 
0.290917772743802 
-0.6400931056821874 
0.9741174648683578 
0.3756765549818875 
0.159187403622726 
-0.1166558859993247 
-0.2408293313424768 
-0.3314874167713068 
-0.001128527209092734 
-1.090072693138885 
0.1808420433743606 
0.4411100356023823 
0.04475614544840702 
-0.141830406223983 
-2.041649934406641 
0.1851066410833356 
0.1233847208912645 
0.0613931602320997 
-0.2870517612315952 
-0.1727341735013941 
1.78273858723543 
-0.05669744745213956 
0.6115718520713095 
-0.1235495340723979 
0.2409135808884351 
0.1389930480846952 
-0.7661713993572393 
0.3322873955498871 
0.04228965332015786 
0.1229040856278189 
0.09795440575773376 
-0.1943802587875041 
-0.4237636844526461 
0.892401475050232 
-0.4140471230353925 
0.4882100023048034 
-0.7808803832799998 
-0.1496511535228189 
-0.7766619882876304 
0.120713137689914 
-0.3238371247138462 
0.4513316255407119 
0.7369065797847 
-0.1593195644362952 
-0.02131562576231188 
-0.1724131301912393 
0.295344196827282 
-0.2946705263015193 
-0.7580847459578518 
0.05711803332425663 
-0.2383299482637656 
-0.6638539565152221 
-0.06762770630870057 
-0.6700784292328809 
0.4892095813459005 
0.02562256432783833 
-0.6411737177166459 
0.3310625638271646 
-0.08250359567802105 
-0.0116337245371419 
-0.00386751715028856 
-0.1767873272445837 
0 
0.3084227020312051 
-0.2363597481604915 
0.9880916105571523 
-0.1987279998982082 
0.9547956508175548 
0.08830407790121607 
0.4475210659874632 
0.2256104654198623 
-0.3196834222060425 
-0.4387794311209928 
-0.01658562566735546 
-1.030065262573262 
0.4865682599817175 
0.2387225908689756 
0.152316433705376 
-0.2835616216919388 
0.1086470515754055 
0.2532611892402856 
-0.1996616717811325 
0.1493914372194993 
0.134518031956479 
0.2265943440544555 
-0.3801904144772467 
0.06603255275189675 
0.5692267746762244 
0.2450840379541128 
0.6156071145643778 
-0.2388106863019388 
0.004693647554889949 
0.7013006869914988 
0.819250955511694 
0.6522931465835913 
0.395017865714022 
-0.1128430696417891 
0.2926366783602801 
-0.238106179735573 
0.3734854626715298 
0.1507902648464644 
6.03510974918689e-19 
-0.2537352596760944 
-0.1485733219957553 
1.328186206313919 
-0.2970925242679874 
-0.1475258436324512 
-0.6393518027454109 
3.477070248478903e-19 
-0.3222349297386977 
0.2676026726900654 
-0.1306996610994583 
-0.579704860435747 
-0.3775775357629306 
-0.942428454885968 
-0.2279158512256205 
-0.06595439282403932 
0.1754350882967566 
-0.02507472943842339 
-0.2397055837178169 
-0.3527664103154137 
0.1181168206040383 
-0.8117136318112551 
0.01814506655672907 
0.4052704451005018 
-0.5795110564058934 
0.1068666024126609 
-0.05633626943228383 
-0.2138183989840066 
-1.448041263378511 
-0.4199536968894785 
0.2112914898806319 
-0.01390229694292036 
0.3233562246473792 
0.4135136574444455 
0.1558542580196155 
0.5152231599774446 
0.5709310822955869 
-6.164705790116798e-18 
1.043153532637533 
0.05041343309339651 
0.2535953499122907 
1.1672537343634 
-0.2163923338047603 
0.525322794055381 
-0.03248703673780432 
-0.1530219086475232 
0.335868620605883 
0.3383744618418429 
0.1485898124985686 
0.08759663664337879 
0.2479299287053945 
-0.2142790867081075 
-0.191730681087246 
0.5435651865666816 
0.01153674985013343 
0.4860861939169955 
-0.1354543656235409 
0.7651817964189565 
0.2461966895749836 
-0.4509247902134906 
0.3552281201016629 
0.1874411009346132 
0.2979836674987715 
0.2895195553602549 
-0.5052037266700674 
-0.6346085513732357 
-0.0750013893140626 
-0.2102766394673573 
1.106234290970671 
0.1469332767224816 
-0.06343380395957146 
-0.6179526543146571 
0.3136321087527593 
-0.3398381879224895 
-0.20158890183839 
0.4637525170476023 
0.4239175128780541 
0.3867797986002899 
-0.233295666091049 
-0.4568490198545158 
-0.2205912906720141 
-0.8135279415172385 
0.05546401682905844 
0.3812176706476566 
-0.5603297197405904 
-0.1735610864928246 
0.1035553478343477 
0.0137245591698818 
0.85403952693219 
-0.5128521413748731 
-0.04268278369164912 
-1.161526504687965 
-0.0132439429634573 
0.05376627746747241 
-0.4612613740755473 
-0.2784246884715023 
-0.6480407363695343 
0.1750135275481934 
-0.05402618804041765 
-0.08853920774284994 
0.255511612974093 
-0.2176402691498224 
-0.2122644619421735 
0.5407235124181884 
-0.04129126807449472 
-1.146453697002475 
1.80598953962569 
0.2593328630733309 
-1.031803089583971 
-0.3809877704265188 
0.2897027814809263 
-0.4329397995457623 
-0.4281982494326836 
-0.004478181197523172 
-0.4371441663507092 
0.04672986412388765 
-0.1781055429758861 
0.1231577003923909 
0.03934499571329884 
-0.6123990461299731 
0.1854185348978253 
0.01421361162218505 
0.7329635040558024 
-0.3672546984571502 
1.225077881535096 
-0.4420788772096174 
-0.06645538757344341 
0.3222563548570224 
0.06799562849822913 
0.02147956079828894 
-0.1140763743867704 
-0.2793345135733611 
-0.4214604888695504 
0.1292401484522193 
-0.1710889791569289 
0.1934874512579066 
-0.1584404308528528 
-0.4128732317202637 
-0.03412355891336508 
0.5114984686255989 
-0.3040549601793424 
-0.1844747485432446 
0.2594914585091619 
0.1249681224149578 
-0.2366128287691983 
0.09971828362134119 
0.2389827189964771 
0.01243463678579411 
-0.973141838885628 
-0.274875131880569 
0.1721173826473285 
0.3480946831908447 
0.1972996821045632 
0.6354081315782443 
-0.3573587403047814 
0.01092034373907324 
-0.1160449620298726 
-0.432156648554626 
0.1315951528978288 
-0.008084649725896021 
-0.02213130552962467 
0.06499582928450251 
0.9135365643918426 
-0.7730168533171201 
-0.1498520747263293 
-0.4099693589597159 
0.4078875544612423 
0.4439014943432863 
0.3177412857929606 
0.6379830919273616 
-0.03329587541494217 
0.1089987735384894 
-0.5558690666525498 
0.6294219037745135 
0.2241243396458764 
0.2676045670596194 
0.2276649289509471 
0.6284154097025854 
-0.4752232572751747 
0.8217155176472227 
-0.1846889841607644 
0.2302979645282375 
-0.3318670820306915 
-0.7225288096052599 
-0.2854179228627725 
-0.008215187426249791 
0.004428453573876005 
0.3835603468240664 
0.1351022904679856 
0.5777546507538156 
0 
0.312030467316333 
1.09828368493369 
-0.2250853723577007 
0.3669984484970915 
1.032477872954185 
-0.1284444723776462 
-0.01569020993444317 
-0.7169107519659468 
-0.1866070570724195 
0.1718949983356604 
-0.02643958076732244 
0.2232405478428343 
-0.5843422095825944 
-0.2594450044929087 
0.9677162372325754 
-0.5198925092131532 
0.02487607840785313 
-0.09965590290755576 
0.5690877837093761 
-0.1018793808471789 
0.04045368982617453 
0.6855025536689381 
-0.01893304959976368 
0.7421456766136562 
0.4895001886878044 
0.01034829792235957 
0.0698355224626271 
-0.2182320049718764 
1.277546702900865 
0.5510776758455186 
0.1823467812107884 
0.4162437358826489 
1.512558365940518 
-0.3331383134024483 
0.4695551433543084 
0.3831765649582451 
0.5370399374848829 
0.5411208175561986 
0.8993189725796433 
-0.2348645976494106 
0.02538733543658363 
-0.3952117336084381 
0.01648109594682623 
-0.521960951113011 
-0.0437889617679152 
-0.1644448294996944 
0.6918394278100152 
-0.3784150106114527 
0.8694589220826587 
0.1665350181854922 
-0.6376961958105808 
0.2221236283354359 
0.9775688820222019 
-0.5199899399820267 
-0.997152292951642 
0.3055596121396479 
-0.1657510274690801 
-0.1991999848589853 
-0.2219719590690882 
-0.2832271945056636 
0.354379294585075 
-0.3783183854287325 
0.9584850656144254 
4.950907576701385e-19 
0.31244848945788 
-0.08806583977058513 
-0.7658231672068688 
-0.6334042846214956 
-0.3181275059046151 
-0.4088183971210793 
0.259878993354979 
0.5953669253894719 
0.0619290442426265 
-0.03340546778392543 
-0.08320586053700652 
1.114691193182731 
0.1568171600035995 
0.1359851052910428 
0.4313893583189207 
-0.3869325378270815 
0.09527294121223182 
-0.0735348447651282 
0.4110566959903357 
0 
0.1358668564393825 
-0.7299940928814297 
-0.06409199816928512 
0.2648059101568013 
-0.427536172980122 
-0.6533664521009881 
-0.2477775691075392 
-0.62979729947123 
0.8175769991540177 
0.4793836975377122 
-0.04084398371731787 
0.3492779312105963 
-0.02941897376473388 
-0.4421939843803263 
-0.2703831135392485 
0.01978916144536575 
0.3457220480096958 
0.6645816195511934 
-0.7441312555681547 
-0.3188553938445554 
-0.2256543858610041 
-0.14037501041226 
-0.12518937511185 
-0.2586915911366647 
-0.02281711201356843 
-0.02601128207950695 
0.3350633131870736 
0.9468950989772251 
-0.2012031194065126 
1.034632647054362 
-0.00551002710050522 
0.2753721641471966 
0.03002315589572298 
-0.03414515363872756 
-0.4193154405195647 
-0.3761629658412541 
-0.09796454844016519 
0.1588718519848676 
-0.5147529512594634 
0.05525732310870824 
-0.03962243405676674 
-0.212205196226561 
-0.4738294386267975 
0.219934627436376 
-0.4209826880646751 
-1.069590535420347 
-0.4250460100553463 
-0.1288619485090624 
0.2565994569417001 
-0.1791747015299771 
0.432310784925017 
0.07265696869385958 
-0.06414854528346434 
0 
5.963111948670274e-19 
-0.002171654851728724 
-0.375482440041863 
0.009749709797919375 
0.5602646271259644 
0.9026255452392212 
0.3161907722788167 
-0.7284209075935907 
0.5086566405079777 
-0.3803186586448565 
0.2312077860471951 
-0.1417987021359962 
0.00184397147042638 
-0.6527972964959773 
0.02998778772997292 
0.08484909908047301 
0.5430657563245355 
-0.1578712636212188 
0.6047334008404802 
0.09545648932278672 
-0.1555618704672889 
-0.2951036555840507 
0.5741633565034485 
-0.1415587508686339 
0.03037859976217144 
-0.1732073636411645 
-0.169666819167427 
-0.01914641816585356 
0.2824282004726357 
-0.1845529059116568 
0.6915512442223292 
-0.01492209039218058 
-0.1178936086628051 
-0.3061297690784265 
0.9901862977894575 
0.1644443070342679 
-0.006865565788923617 
0.1224650555804506 
0.3330325624593564 
8.892654806088077e-19 
-0.2655067057851943 
-0.3080657191429375 
-0.05471137977390845 
0.2952984559787953 
-0.04236946863222219 
0.3575369481665931 
-0.3632901870750214 
-0.2289164701740471 
0.03604140761565847 
0.4562890188711483 
-0.6691209834396554 
-0.2953630074643521 
-0.4877398146055799 
-0.9182412415435888 
-0.1307776832278106 
-0.03990279099742029 
0.6999268715426175 
-0.07646982737276833 
0.4345232712629221 
0.6168855535408141 
-0.09465252846207411 
-0.1026897635000781 
-0.3535153908228045 
-0.08403553612266174 
-0.3992441294720746 
-0.1280240749303535 
-0.02839103141881184 
-0.2187950865190252 
0.4798957329045735 
0.0009697841552511844 
-0.01950162819255184 
-0.5515345421646328 
0.8095280947979191 
0.4034140090340581 
-0.3045915131967298 
-0.1135386561389666 
0.4157429479552628 
-0.1426513368580297 
-0.1275658907258872 
0.1166733048156489 
0.5550933315281099 
0.3832090208160521 
0.1986137689833135 
0.3765468358507337 
0.8841246677652459 
-0.4564787237147838 
-0.05575441810100523 
0.6697795473093758 
0.9961713431411877 
0.06490960582138237 
1.219866302725062 
-0.4358510410308173 
-0.4821133332152762 
-0.199268437442781 
0.3286909296381352 
-0.2876119212446197 
0.1843789024107005 
0.02734829367164479 
-0.1769914586291125 
-0.02977942303023637 
0.2996205471753634 
0.1082387733253265 
0.02366248129967244 
0.1591672777045133 
-0.03646510966516541 
0.9215301452051389 
-0.6357117724110497 
-0.5426690765541092 
-0.4516923880957762 
-0.05302712275218189 
-0.01598783281012468 
-0.5211176849678305 
-0.2223273994148159 
0.687323563589191 
-0.3548912866278529 
0.2641073193363743 
-0.07098084787265609 
-0.2546434408116282 
-0.573040938529319 
1.28469812146784 
0.2195580758485463 
0.5190045496206235 
0.4132164054798322 
0.07282819990799549 
-0.01392448272560119 
0.01583058621065593 
-0.4609383721692067 
1.099401341999141 
0.7233997329386501 
-0.1191002878927807 
0.006032444537727263 
-0.06505714983963011 
3.251249941251926e-19 
-0.01166780013055994 
0 
0 
2.388950548612347e-18 
0.3827872541175425 
0.1485673120175739 
-1.05852976702784 
0.1216050757731869 
-0.3781719603047469 
-0.07261024255958864 
-0.3470740088795868 
-0.4837354763849816 
-0.03653083467839259 
-0.06380857758607407 
-0.01996697507724167 
0.6658706959377199 
0.03293725942770973 
-0.3600539763229488 
0.6118225854636584 
-0.5324013177551372 
0.381295947102669 
0.04196917661670975 
-0.1024889792666011 
0.003619727324849428 
-0.6999012067805661 
-0.2101838599334761 
-0.3812825222704828 
1.419343553252063 
-0.1612276131921848 
0.5368058519488005 
0.368236529127784 
-0.3695892139073192 
0.03656698421401715 
2.114740174583758 
0.1675051334410447 
0.02867403329784353 
0.05876479912280092 
-0.2508839960340199 
0 
0.1619535429560366 
-1.265543937519155 
0.2968727417863497 
-0.7186663637338861 
1.36987825492588 
0.00331600925604288 
0.6354981687981716 
0.6114400660005682 
0.6720188297949148 
-0.01651681280790326 
0.5711074907304773 
-0.04213447675981785 
0.004858991233475794 
0.3609056545287571 
0.5785122012630176 
-0.3487104072831086 
-0.1743937842143124 
1.029668974411039 
0.2174914984201718 
-0.3443358474773486 
-0.0006889774153708656 
0.7390333172292702 
-0.2862216266622994 
-0.01559883566726398 
-0.4626273129095526 
0.665593183458793 
-1.135346195276779 
-0.4446343436863662 
0.2630340821787957 
-1.359395162234589 
-0.3334893268830564 
0.1240704838830193 
-0.08764252996453477 
0.4907265208738917 
0.9505711895459608 
0.9898003388731558 
-0.5732417321880269 
-0.3070982359128252 
-0.3744830468443793 
0.2768935866731062 
-0.424525742114836 
-0.2746686608549675 
0.6046700544156679 
0.3152659160528031 
0.1490524308128255 
0.5236380073788639 
0.08467811838070625 
-0.334862984900766 
0.2491742433288434 
0.2431002245972954 
-0.08475902673804084 
-0.3708106974093221 
-0.0355908701968619 
-0.09412328357115005 
0.4692847539076609 
-0.7052495828844292 
-0.03112592393682799 
-0.7988908643050722 
-0.02096736166039548 
-0.2873880619020196 
-0.07658921809367179 
0.4730449182668792 
-0.5266280684558905 
-0.459126534771251 
0.1169101722366761 
0.4532820429160908 
0.07955688285935307 
-0.1663427208280184 
-0.3827169653174289 
-0.231068892658518 
-0.9547427394853955 
0.2096883628853056 
-0.6470813183666125 
0.5252025732723267 
-0.4030303781727136 
0.02001254129633272 
0.06584439552949296 
0.4088215627829584 
-0.06715090794866369 
-0.03005974124076885 
0.4801243299692973 
0.9324057116260325 
0.3349418839020917 
0.4088967721992022 
0.03607318659675852 
0.1469727007750636 
0.2528897888952559 
0.04630493859591254 
0.001739858908764158 
-0.2238253772295837 
0.3595594052088652 
-0.5188974939633136 
-0.02924909777914696 
0.2165806207267524 
-0.0892927433500751 
-0.03554996888008357 
-0.7885758834766934 
0.8006465129278472 
0.08127756476344032 
-0.2950927190272206 
-0.03088060894114056 
0.2158279806728336 
1.338481724482096 
0.1111858974542842 
0.8093544508121198 
0.8053893151474065 
0.00797323464361958 
-0.4566535428035077 
0.0499212219079515 
0.004559602021086427 
-0.1428637024974496 
0.1863154505287564 
-0.008908493335021162 
0.6933897352715822 
-1.430507449611729 
-0.7357751338743689 
-0.0220614326281684 
-0.4468785200609047 
-0.02788708346615505 
-0.1299931235538044 
0.2271700556728999 
0.2586728343909842 
3.258429868968887e-20 
0.5229928355115173 
-0.002780724825831417 
0.2065532855685606 
-0.01906529753398833 
-0.03824214581742282 
-1.321871745614483 
-0.02190403765125674 
0.3785617115822991 
-0.08579147303508726 
0.2958979073796066 
0 
0.0182690225256536 
0.03153752653653775 
-0.4742194137481247 
0.1665452454923819 
0.3336952424395065 
-4.985715336877617e-19 
0.5341400486508912 
0.736052970904976 
0.8000866034948642 
-0.7542750235581547 
-0.006412310228446322 
1.161415771334753 
0.3214729966218088 
0.0270594192868263 
0.1616528064567772 
0.02450600276941365 
-0.2414117399034619 
-0.4989605181888349 
0.2085604405645042 
-0.1878754237711087 
-0.5709810147596763 
0.3460175679460822 
-0.06468088057275351 
-1.289374064418476 
0.5293302352191158 
1.12125857171627 
0.0008129122676054254 
0.06014709239215602 
0.499987757812512 
-0.3560006528735504 
-1.029668016749394 
1.212682064788747 
0.1682262976601951 
1.794127980513587 
-0.2008248813621469 
-0.4152748107422066 
-2.94026311815649e-19 
0.8048382804493324 
-0.6592675746364611 
0.09932874363331234 
0.6285682106575704 
-0.2340109609324357 
-0.1976284794568359 
-0.285058843350098 
0.01004807684315085 
1.422651520556661 
-0.001065855363443662 
0.1058782327945528 
0.1575868423448159 
-0.128050161504351 
-0.7075470670952527 
0.05388608613007033 
-0.08791420053798343 
0 
-1.916412043162855e-20 
-0.09540720507464133 
0.9350233365517123 
0.4699109617713549 
0.1485128131980094 
-0.7596103684729598 
-0.3742595221947073 
0.8997566696775449 
0.6488030864116572 
0.1687463635398712 
-0.587410669488666 
-0.07813744347050831 
0.545247515594001 
0.7647759080157315 
0.1946725326608897 
0.9315600913953177 
0.06692358967357449 
0.6897512456926767 
0.2997722850139936 
-0.2446408995547808 
-0.2619880490261942 
-1.199577980307623 
0.6508991058065083 
-0.5686553437476242 
0.1285476073171349 
0.3361840646029136 
0.1200777018517487 
-0.2732394226498401 
0.7879490683262466 
-0.4743919533052918 
-0.1015020810620681 
0.031225257963148 
0.1020901836976788 
0.07225215143309827 
0.2149762819445941 
-0.7470898740122326 
-0.01033066737191122 
0.004752910955434761 
-0.08600042276410459 
-0.03750077629531341 
-0.5943770122375011 
-0.009883892918160775 
-0.5064687095873951 
0.1467094359657106 
0.2738619726258482 
0.2383323490507581 
-0.405512862544669 
0.5311739234988962 
1.429050461136411e-18 
0.03358454080808845 
-0.4038729851407707 
0.3294912265800961 
-0.2793297364518025 
0 
-0.1948033812313017 
0.1080754211195215 
0.1760010907144461 
-0.03277765469251906 
-0.1058173052989621 
-0.4877985836571659 
-0.05060992922532684 
-0.3686309703037536 
0.4040007685518119 
1.378264278959645 
0.5665985907360528 
-0.09740543573404158 
-0.01759263328818911 
0.6506717600921145 
-0.04069033029261709 
-0.6998852112389328 
0.5245532757683203 
-0.08755575030790316 
-0.8428583010918876 
-0.3947119728184643 
0.3274958527936385 
0.2055351867442192 
0.02959030975522665 
0.3125408630381145 
0.01160366050131623 
0.08947547055806014 
0.1489312862493901 
0.343299372654996 
-0.4070338026606427 
0.07408591770928222 
0.7935259757019258 
-0.5175420466972941 
-0.7550414657360777 
0.1172376184941035 
0.9024419096035239 
-0.3082525696544172 
0.04657806121675431 
-0.3351644283828399 
0 
0.2981438699586226 
-0.1954380289177763 
0.4341678804995102 
0.4306706536317735 
-0.1966533577853202 
0.03034780999145656 
0.1010837462161288 
0.3523763746404089 
-0.6934135925092392 
0.06326350045680396 
0.0652083319945501 
1.067864248837454 
1.147042081118937 
-0.09706397185008499 
-0.8101625662106945 
0.1322487643103968 
0.226946851913392 
-0.5076880520130019 
0.1834506818761764 
0.08826937490499351 
-0.0001485712762471359 
0.5597912543499841 
0.5174897968924717 
-0.1124720437643102 
-0.03744672736900449 
0.1502142894712928 
-0.488007151848579 
-0.2376609550930741 
-0.09548314504254506 
-0.4920332654681374 
0.6345179409207725 
0.2784752777190008 
-0.0778169823099341 
-0.1667839712831007 
-0.3304715156528552 
-0.5832447121157027 
0.03776882736427611 
-0.1123528131486299 
-0.7245241308843878 
-0.2300063655639929 
0.0703900995374552 
-0.8361932793222182 
0.01983569516790926 
0.1032412573689971 
0.01449066215057963 
0.02280897461774258 
0.04742582798295496 
-0.3624221700390043 
0.3928245682637556 
-0.08266027285875256 
-0.3903697620899924 
0.710178797736008 
-0.2527930652950834 
-0.3266144740714818 
0.9031591360577043 
-0.1974391064283173 
0.5021673322097195 
-0.5110873031840028 
-0.6037184543024893 
-0.1049025685167293 
0.8374286694693038 
-0.0896540476975943 
-0.1001731896334672 
0.3802326199628859 
-0.6553992841141534 
-0.7028359366897403 
0.8833793694276965 
-0.1394559630536605 
-6.789498467835251e-21 
0.7055148027061944 
0.1860360588367822 
-0.6961184279641968 
0.8791049922424382 
0.2207054906451356 
0.6595701149638357 
0.1100968275720531 
0.06045559767001686 
-0.06441264883282542 
0.1106146409950307 
0.1188524271674207 
-0.3588647342242159 
1.722261859016245 
-0.6214213330432584 
-0.06191423577052329 
-0.2109874412647292 
-0.2621031608809284 
0.9162395469573777 
-0.04345132845897259 
-0.2363871057711021 
-0.9873126127294055 
0.6150666738145945 
-0.3603954699332971 
0.1191601928269357 
0.02820827282768906 
-0.7204119199846813 
0.6054244020827184 
-0.02971889036616003 
0.1276439189017554 
-0.5487896364918348 
-0.008357890306949303 
0.09717559152905253 
-0.05640463883382466 
0.02238903284021374 
0.01318358248503662 
-0.3016361702316358 
0.2304719987692981 
-0.3835325201675839 
0.01012009772629628 
-0.127385574907341 
-0.09019655071077425 
0.01239819066600768 
-0.5271083109012867 
1.063416916351696 
-0.2132275182279915 
0.438008649088145 
-1.414453062853027 
0.01518626601288497 
-0.4370922471186327 
0.4493251076461024 
0.2565063152124608 
-0.05048994297521235 
0.01273838871009911 
-0.3880645936751298 
0.002038018827174924 
-0.02519968248912136 
-0.08241336370381697 
-0.1356900633567414 
0.0007798678098786975 
-0.01700839506318688 
-0.2327475233668162 
-0.2655589926964338 
0 
0.3474416690947937 
-0.4669111164594087 
-0.1460286497353866 
-0.69170537623285 
-0.009322476759094875 
-0.06143959242402524 
0.3017503065853229 
0.5390537305465724 
0.6015654650639281 
0.1695597156109921 
-0.3201135661868834 
0.622936817944353 
0.1551816657386326 
0.05242129370899857 
0.6473991972857852 
0.4150287493794361 
0.140981269731292 
0.1393451302119716 
0.6580344010058018 
-0.1312963154693264 
-0.01531568939582783 
0.1959004463665437 
0.01197984478273971 
0.3927558311929997 
-0.4121808059791133 
0.5351249918945273 
-0.1319694391523598 
0.7308687763262813 
0.1782461146922964 
0.4868190924756529 
0.5745265456686117 
0.08533688530363454 
-0.1010450274644055 
0.6733873594279488 
-0.03343864133574189 
-0.1570858335229323 
0.1348951561722742 
0.0856459585227529 
-0.1235204706319498 
-0.2741247509416807 
0.2157191039783566 
0.5813539585955898 
-1.098402702509092 
0.1596263553305212 
0.5040141676994493 
-0.2471361113535638 
-0.05583518597130033 
-2.236166980751353e-19 
9.368184396632562e-19 
0.176862122779478 
0.6426582525872661 
-0.454426030079974 
0.06369109403862577 
0.4812789657824466 
-0.0286917746713339 
-0.08196219254187945 
0.1671656556989606 
0.2488847890482969 
-0.01919553765547849 
-0.04761768850599984 
0.06315176876022778 
0.07367030937389872 
-0.0887273250307955 
-0.008373757795977122 
0.3901092191971804 
0.07278669175747711 
0.2137101856212593 
0.4614109319193855 
-0.2544428907385034 
0.8216751419325417 
0.04151040677196007 
0.07617669239593296 
0.4005104875183736 
0.08516273512351842 
0.5981353298853948 
-0.397139392506046 
-0.0945837023702604 
0.2964714559269163 
-0.1737147714300183 
0.06012785250229756 
0.1746361033176451 
0.4258016441060265 
0.1655586170842117 
0.1676540938610961 
-0.6336183987815203 
0.1598192793060347 
0.02669092166223491 
-0.2011159580076489 
0.3174595159987006 
1.075438819793373 
-0.04421749337315717 
-0.01044024410414676 
0.5595262682851252 
-0.08166232851393133 
1.065097140210613 
0.05050413565428682 
-0.0112845503111282 
0.4999078869594659 
0.07078566469087358 
-0.445957299598833 
-0.2296704431224273 
0.2727489009502209 
0.1358812114882065 
0.8997694637519855 
-0.575519718701846 
0.4264702090398881 
-0.5387304761412509 
-0.03983293292828569 
0.7176405056877059 
0.09497851115704953 
-0.006431932930372909 
0.109701283854274 
0.1328378041130203 
0.0269350069013095 
0 
0.03523028195623099 
-0.08535392232421873 
0.2171756679266116 
-0.4666918105578958 
-0.6724060459775064 
-0.09473786253097813 
0.05108687715428822 
-0.0009990714327689383 
-0.1629844643445049 
-0.4790670202282587 
0.7389948934918195 
0.03075330633643053 
0.01509661377423049 
1.339444076037391 
-0.04851003661378726 
-0.1384359471654097 
-0.2762489215312636 
-0.441649521054139 
0.1746636209814544 
0.07173136317471099 
0.2365695822960923 
-0.1643311209488884 
-0.4992801291074238 
0.4591689768806078 
0.2384400087455988 
-0.1728495393582827 
-0.1825911366900662 
-0.4014533195601493 
0.1451823231225999 
0.1154169731396612 
-0.09608157291527691 
0.3795916077797148 
0.4474349521985391 
0.4767116354788581 
-0.05339383831634962 
0.04383480844699458 
-0.07041386912285351 
-4.37069000783219e-19 
-0.0780427086088949 
-0.5509070798312606 
0.3968591816565386 
0.2251139598498684 
-0.1620852574767558 
-0.6487093484588716 
-0.1531072158558707 
0.1885239969056741 
0.1435375739729816 
0.4818799992708799 
-0.0299692322142446 
0.2096240661339974 
0 
-1.348183697801553 
-0.2104889491484162 
-0.7843697755181438 
-0.2506523382231992 
-0.7754627561995038 
-0.04219984101455474 
-0.03453867153300965 
0.08630484949964956 
-0.06746975507871596 
-0.1740480480332465 
0.8755942678573366 
0.5679834388056688 
0.02149428850400792 
0.01777441941112875 
-0.2553017456128278 
-4.331832371376899e-18 
-0.5387752342725906 
-0.8526423663516848 
-0.01284056610830923 
0.7834366734096745 
0.02470449119238892 
-0.0163895491154837 
-0.1475426995050998 
0.3183127103419389 
1.182405090120992 
0.5823647760047959 
-0.02988756975263752 
1.119421084044719 
0.1005809662823374 
0.04418434520708917 
0.06498229574089255 
1.190050369716926 
-0.09892370570831702 
1.320281792820968 
-0.0541897276969675 
0.1375855961059343 
-0.2286999875556784 
-0.02187373828273398 
-0.9205822448604352 
-0.003096382452137586 
-0.08686644554930299 
0.08078226970196897 
0.3311957772168945 
-0.9264277268365796 
-0.3804264362825305 
-0.236652778278429 
0.0436707087726234 
0.01436421781768521 
0.3327963825181749 
0.1255916918225655 
-0.2295318471447263 
-0.0265141014953427 
-0.1637703933248419 
0.1998414276775793 
6.696642480992498e-18 
-0.2497564413054902 
0.6227394638501004 
-0.2156174155016003 
0.4532670039595551 
-0.6726059007687986 
0.3088585506693521 
0.08372316377978997 
0.3038090736109813 
0.3602257293840721 
-1.046099311211048 
0.001383164616292766 
0.1792461384946761 
-0.2264494655681801 
0.4416499623212765 
0.04664499576424293 
0.2599826233481917 
0.1828130093834544 
-0.0851529700037976 
0.493130283668759 
0.1994761065305469 
0.5959846739580729 
0.5739369829617186 
-0.06550475549033928 
-0.6397528067231181 
0.02252422114669909 
0.3273258230616266 
0.5825307884263811 
0.06045339338172094 
0.1958643564538908 
-0.3086887891550917 
0.4293949939836905 
0.9175852449537761 
-0.02344802102000486 
0.3394692466555801 
0.2823970782780449 
-0.7760138232611348 
-0.1415343325871949 
0.1085449179937383 
-0.1308946789219976 
-7.870418387650145e-18 
0 
0.08557086158238636 
0.1046265162257569 
0.1595074548617059 
-0.2449863667808744 
-0.3202089297148878 
-0.6821592129516972 
-0.5615260681554045 
0.578435975832391 
0.08266797893968397 
-0.0801117338068557 
0.1822797766591733 
-0.3330935338970916 
-0.09135923335486916 
-0.0705939994368837 
-0.6901753320481885 
-0.09147785612917404 
0.3905838641633035 
0.2713338209878282 
0.2505246993392776 
0.4258747942722784 
1.187686267479184 
0.1544928134601969 
0.2550241293795226 
-0.07960249387067714 
-1.358152762463845 
0.2037962151752316 
0.3666018245283214 
0.0005737038724234162 
0.1448894939541511 
-0.3656896322224865 
0.02349250150903401 
-0.1397917407913229 
0.02034575184393476 
0.3727010399291724 
0.1894722449457832 
0.008904571379471333 
0.4122672010471169 
0.1298573289405818 
0.05383669521272728 
0.02964058745122678 
0.07951601175027813 
-0.4983191370456178 
0.09753951802447942 
-0.2939169665561208 
0.2906857968300762 
-0.01941903783997471 
0 
0.1403401498654372 
-0.2047607752286636 
-0.1249148375945141 
0.6227686415470572 
0.0708667079674206 
0.5592354955553396 
0.4987960326181119 
-0.025209971199899 
0.5382552929956754 
0.8201985502975123 
-0.2696833909997441 
0.1041527121439354 
0.03232961246148919 
0.02797835388387268 
1.058493463485346 
0.1800940904677767 
0.7164678103690402 
0.002345743734154208 
-0.9118019526260538 
0.08877974614593392 
1.056495451922271 
0.04090753558365378 
-0.3249759094690982 
-0.3577222289393487 
0.1646354979861094 
0.8729485962074303 
0.3238197757375545 
1.392279779565194 
-0.007866949494410089 
1.169093151810961 
0.6254218552097358 
-0.6852082696434183 
-0.778561192958468 
-0.03464945814661773 
-2.793091143571055e-19 
-0.4874607686079668 
-0.03444277629927457 
-0.2333601735877588 
0.7297574987231515 
-0.07821569758235725 
-0.2739281663500075 
-0.1671701683717441 
-0.2472869105845176 
-0.06514670833586887 
0.4247967047753172 
1.115178038122991 
-0.6884727587847163 
0.08780916641829889 
1.01643953670516e-19 
0.3283286883537283 
-0.1327831873312763 
-0.01231192716682326 
0 
-0.05221824522543982 
0.8372410574071976 
-0.1538072655518156 
-0.06827812025815178 
0.05524285535729017 
-0.01514452216791934 
-0.374650748659381 
-0.6717389637175271 
0.3966411510829322 
0.7772561523461958 
0.1313742414468571 
-0.4775886600779427 
0.2340894181629189 
-0.8294717928033298 
0.5490110385880934 
-0.2192694964473876 
-0.0113204319447433 
0 
0.03286893365779476 
-0.4077062374089929 
0.05620917359558876 
0.6543561029689764 
-0.3639952837554702 
-0.01909092772351294 
-0.5573177174095875 
-0.1012975250059043 
0.7820286241993053 
-0.6083250010364248 
0.0403875585755969 
0.07619999528600815 
0.3889177736059544 
-0.5907845650440935 
0.3959449301389417 
-0.2398320633342127 
-0.9606183559591479 
0.8051080885574202 
-0.6612084965319951 
-0.5127379570142703 
-0.07594838813445971 
0.2165816087869443 
0.4274094346813319 
0.1596204041406793 
-0.6124521935232196 
0.5329003137957448 
-0.09179371113852625 
-0.1508403787906128 
0.2301199017150809 
0.01901518273357515 
0.09827126405159901 
1.210621839863209e-18 
0.4485302469022135 
0.6662104752013067 
0.03867179114099578 
0.5366674232755406 
-0.2998252603981615 
0.6274417732180994 
-0.2004983651428065 
-0.1509266782211186 
0.2740353157892703 
-1.134508751905161 
-0.3864550026093702 
0.1285422255050181 
-0.3493362057788034 
-0.01670818491049591 
0.2104964330814295 
-0.01561516726730683 
-0.3162212071551998 
0.1211926065789996 
-0.6159989336049007 
0.9324182148258512 
0.6431221079080717 
0.4951712904588688 
-0.1845293500152677 
0.6961673104804139 
-0.1373432050879468 
-0.175781889247068 
-0.06126875473479824 
-1.056912384494754 
0.4336617602551783 
-0.1505778387938974 
0.07532634089685841 
0.2687996123882896 
-0.2898581530354537 
0.2507176234070965 
0.1942283298819453 
-0.03422944002465503 
-0.1795315325546253 
0.2841592937803407 
0.2844252559317936 
0.07010829678616085 
-0.1865988960209958 
0.796150969906516 
0.1595892298888567 
0.9109659122033159 
-0.7011444217030727 
0.09775049085972905 
0.331927992016766 
-0.2490592795028136 
-0.2337527623048635 
0.486118418465719 
-0.08753561484265589 
-0.2144095721698673 
0.08511608885369863 
0.3056714208953548 
-0.5305483103981349 
-0.245033144079518 
-0.009472523378292063 
0.1566852105486113 
0.2078470257568196 
-0.114376400970633 
-0.3075611161497493 
-0.007000275608047504 
0.5692758217982584 
-0.3800598273351618 
0.0009889513128261897 
-0.03928821781490944 
0.6585575200333929 
1.181453769635436 
-0.07295567827167869 
-0.209540723520368 
-0.2673896689526388 
-0.1214457725945488 
2.181109839179823e-20 
0.1437014218101015 
0.06188510347861073 
0.07144741598706152 
0.08726851344893907 
-0.871223770316527 
0.4186312177487182 
-0.5611771426746669 
0.2525084004080326 
0.02498622184599257 
-0.5513935407360991 
-0.01041170095884538 
-0.05321426104181593 
-0.5231751393340793 
0.288881912248684 
0.8886474032123489 
1.192676615895718 
0.01036182285122681 
-0.1372524711239089 
0.2756305742548402 
-0.01496061865930622 
-0.2973738216890821 
-1.267326876193431 
-0.2307092170732254 
-0.2581523438682093 
-0.1069229944277458 
-0.1948418951860092 
-0.2285103333743052 
0.5121598093972617 
-0.02742505516950971 
0.3276430017981996 
-0.4479074263678713 
-0.02067013709621427 
0.3500782211352031 
0.05723745920867614 
-0.07760024149808378 
0.2300082205687545 
0.24513743202428 
1.304784194117068 
0.1953386944384493 
0.1018589211372346 
-0.3280319851605578 
-0.1815362107329914 
-0.04060703296679787 
-0.2949340345600914 
-0.2736542540286463 
-0.5031115800819131 
0.4387543535016195 
-0.4386663809449788 
0.06310023801546666 
0.1482723251725604 
0.05398854450625627 
-0.0197075200554141 
-0.7754047836829433 
-0.01701352903612985 
-0.2331441617893446 
0.9147144992116399 
-0.0220723142424606 
-0.07677799021117777 
-0.6564367028938571 
0.1203706034182648 
-0.2655904631408251 
-0.0008947538779271931 
0.5513459138113346 
-4.004877653736739e-19 
-0.7771147626281092 
-0.6910556504999092 
-0.03513126632065895 
-0.1184532299477327 
0.2318294389690574 
-0.08319534672890466 
0.2791036343938158 
7.093900933254765e-21 
-0.04890730400243744 
0.01091040498438138 
-0.2050549485770986 
-0.9701054755224242 
-0.6042776435186737 
-0.4992965670832606 
-0.002361008797203045 
-0.07337359400303976 
0.2895748433657442 
-0.1851058072828281 
0.2186702559940282 
0.7142988581361758 
-0.2613062408780208 
0.02505499735614096 
-0.8200850237890572 
0.2325201597078416 
0.2643256568331405 
-0.01002217504162723 
-0.1152757762293021 
0.3078654983643255 
-0.3767792353725569 
-0.0003757800085289558 
0.2960329105459157 
-1.06104023381941 
0.3205062663667357 
-0.02130889863668388 
0.4412192676620404 
-0.09648374938093965 
-0.2058712553806436 
-0.07970926352296542 
-0.64608209860829 
-0.1821608374092122 
0.03425254645879052 
-0.03406511660198835 
0.4903813451463671 
0.08637904209119236 
-0.05326052859145202 
-0.08486209698520325 
-0.08104425506719355 
0.2155777352476434 
-1.23758563131236 
0.5451892533063142 
0.6936053679994214 
0.415873826534565 
0.3181226118303223 
0 
-0.1406982649637589 
0.7674178250323151 
-0.1502715419835063 
-0.3735154311004804 
-0.08454595270099653 
-0.3243408820677641 
0.6652933802566162 
-0.2757370895286675 
-0.4938837963836983 
0.01993682158001967 
0.1303983269473298 
-0.3416875230578598 
0.05661932510382675 
-0.02211355087614954 
0.6670550299278409 
-0.3092357496448054 
-0.007141474943777841 
0.09979398767429619 
0.06766213422149746 
0.412209244850237 
0.7821124807172546 
0.2202455987456578 
0.05809097275308893 
-0.1435206885242467 
-0.8153403762594483 
0.06848044599627516 
0.0157788754777251 
0.0840788937151038 
0.4228771314549348 
1.091802767165572 
0.1469741332137245 
0.5132631220212865 
0.862883193761814 
0 
-0.5388826025049169 
-0.3752876772605144 
-0.5069324267680365 
0.1815642961784467 
-0.1506417073023113 
-0.125219294934547 
-2.273436430430542e-18 
-0.1735054090753448 
0.7510555382487066 
-0.2589418970285245 
0.6616712195212626 
0.02961705934358753 
0.1120286754385779 
0.1801774981691604 
0.1916578098547064 
0.02790627839361201 
0.1937536822670842 
-0.1038594975898019 
0.1237139979325589 
-0.1282485937706677 
0.0893844621002448 
0.04083426245864267 
0.6203502687423453 
-0.01788103147811358 
0.2078454829891595 
-0.2263601282954999 
-0.61688821319793 
-0.1244713131293685 
