solver_type L2R_L2LOSS_SVC_DUAL
nr_class 2
label 1 -1
nr_feature 5000
bias -1
w
0.3932886644803006 
-0.416900408468464 
0.2636435938111159 
-0.2266457521547283 
-2.154163268559796 
-1.278275556505523 
-0.4607417778126334 
5.018474799858286 
-0.3183366644591278 
-0.595692927283153 
0.1826955768446176 
-0.7543617624781459 
0.1918947741613424 
0.08193000860865463 
-1.045311266182486 
-0.9385838048252885 
-0.3170736500281707 
0.3911144015263177 
3.013932269017769 
-1.087581702946806 
1.677975519457127 
1.194863675706827 
-1.307353158413566 
-3.420886448678709 
0.2099395607208719 
-0.8097856678530228 
0.1861619707810759 
-0.1442708989096395 
-2.755406736672004 
-1.140038577483638 
-0.2996440517249527 
-0.7139766235721239 
-0.2955287200591448 
-0.3176512725538776 
-0.4203574288326745 
0.107777443909139 
-0.2949403525620968 
0.473612532832731 
-0.3183383048134536 
-0.3900559718942608 
0.7364200545102942 
-0.002361882272913881 
-0.3277923605482947 
-0.2185956867677239 
-0.2356446504611911 
0.4572948185690878 
0.947641114403149 
-0.6246628413210982 
-0.8673483064581465 
1.647950027099184 
-0.6009848943256293 
4.685708069317488 
0.5120060049158769 
-0.4678888571200157 
0.1011761154029522 
-0.7050101636307925 
-0.7774216133182354 
-1.371024184198426 
-0.5525940489996112 
-0.8241734550884116 
0.6660796406366797 
0.2960100068108168 
-0.1791364383475558 
0.1945430933761849 
-0.6337540292788895 
-0.8479811281318641 
0.06755936740944607 
3.040193223704441 
-2.186858661938069 
-0.8941916378795458 
0.5273677819653884 
0.3042074157581664 
-0.256706115841076 
0.3629544543395996 
-1.771345767405102 
-0.3451169940045442 
0.04281702817647936 
-0.1215100856888791 
-0.06720930274490737 
-1.027380425016197 
0.07307182064088304 
-0.6271704353596199 
-1.163631595454347 
2.498875498978988 
-0.8186344398082736 
-0.9338792276668996 
-0.1413847606335661 
-0.3637527202104901 
-0.4456764900191149 
-0.01789533339610075 
0.1338281939728437 
-1.651906001627998 
-0.3405726530557936 
-0.4771243593457198 
0.1348414068363861 
-1.502177347259148 
-0.1806645178807361 
0.4679191242985726 
-1.417499702452715 
0.4574507171271226 
-0.3557698445525628 
-0.2572708807872904 
-1.355474103815782 
-1.234520353783984 
-0.2793030137719917 
0.4862685990802648 
-1.087853756142211 
-0.3402760789666456 
-0.1344468276939298 
0.2063498083180485 
-0.2451240634503501 
-0.4445810554890795 
-0.3644197368810453 
-0.04248393244124987 
-0.7806533453816825 
0.2701783575019721 
0.1600060389491516 
-0.1919241031035274 
0.4950803083000369 
-0.01944603325175707 
-0.000448974161701346 
-0.409155449983272 
-0.02718852430563587 
-0.5849410662805152 
0.3912597454843668 
-1.558874641173207 
-0.1066511660526112 
0.6694647365318214 
-1.102456595389289 
0.1714522145160177 
0.1430419636892953 
-2.082780308977217 
-1.003749133925822 
-0.6721310258373505 
-0.6523584969539586 
-0.2242793835039494 
1.134292005971143 
2.043473666250842 
-0.08089729980388473 
-0.9071020566648351 
0.6543674109622729 
-1.48871561203435 
-0.5459968374725661 
0.4922820948712398 
0.2055163400932467 
-0.02352896473991553 
-0.6962096141531798 
-0.2649246549399416 
0.02268074172597099 
-0.3355707000019102 
-0.2890252398443621 
-0.1273938841770739 
-0.7707730125988543 
0.9060093116371107 
-0.913796801623543 
-1.397066209443211 
-0.2409630325961155 
1.733842530403133 
-0.4826082622989465 
0.09243448926428444 
-0.2639128371347839 
-0.003120577368065302 
-0.8771949540671234 
-0.8209110239420256 
-1.123721861872416 
0.2620294954677628 
0.1709685987459462 
0.01175436255935369 
0.1228104126884513 
-0.3737002836937341 
2.345212567830519 
-0.1476759473233015 
0.9077831205753395 
1.595768245044328 
-1.099568985144255 
-0.9437190781063117 
0.3745550966985388 
-0.01308952091406586 
1.58004414186974 
-1.355089156895994 
-0.3623834533842564 
0.8993889090188212 
0.0630882206809696 
-0.1584162074009512 
-1.405672859953958 
-0.4656272094064772 
-0.3455029076523768 
-0.2300033784678112 
-3.421155074978208 
-0.09488492090259217 
-0.1416913700897856 
1.483229913580706 
0.4061667560493846 
0.05671294668203467 
-0.6172729559725123 
-0.398104330236167 
0.217312573574294 
0.06468202463922841 
-0.526640766764888 
-0.1104219004118555 
-0.3538406568732443 
-1.165072736688794 
-0.9406056144491509 
-0.3677145930948242 
0.158825543279132 
-0.5188685946591839 
-0.4719732160259092 
-0.0985678938721664 
-0.8161739720348425 
-0.9929794573804044 
-0.5782326468255439 
2.984724890024095 
0.01239492689216386 
-0.1564734572337261 
0.4052496407858372 
-0.1165825963387251 
0.9524144057070812 
-0.5753347281691727 
0.2700176164231228 
-0.351421247718693 
-0.6927709817377569 
-0.4680737143052089 
0.07699078993139598 
0.1111367548829464 
0.7691779842522756 
0.3146865504009124 
0.4646176972655612 
-0.5534610491578295 
-0.2903606173365549 
-0.2791796943573153 
-0.2755688730765153 
-0.7051330586525206 
-0.3051878557359773 
1.073393043397228 
-0.5801175500561946 
-0.9374263251908894 
-0.9503560432819865 
0.7920529749552881 
0.7802506083213336 
-0.7092016975371052 
-0.2655977925987353 
-0.3570564591493386 
-0.1562465864625277 
-0.2712414906038466 
-0.3506058707126173 
0.1470377178787657 
-0.3980840679706103 
-0.2502890079610767 
0.1292573446829026 
-0.5370716405130594 
0.7636041327368902 
-0.3705381350063378 
-0.8482161953940427 
-0.1115391010164876 
0.01869497870724635 
0.3588981917894885 
-0.4349448046347975 
-0.01451018600048772 
-0.8170936362212989 
-0.3496518708867817 
0.6191791267524892 
-0.4501791694318002 
-0.3567784054443183 
-0.2194551526370805 
0.08879196045844451 
-0.1575460504205664 
0.8064478429101626 
0.5976076792160914 
-0.3583258658151158 
0.2393819246767107 
-0.8119460746260683 
0.3066668222479729 
-0.2983507154609559 
-0.01301905866909309 
-1.086793707805134 
-0.267828686613203 
0.5363857019250521 
-0.3468594676907917 
-0.5485447306523267 
-0.4287645432798396 
-0.5702625143247253 
-0.06403907889910054 
-0.093774387767932 
-0.8738397221770996 
-0.8806483406272042 
0.02205381231795683 
-0.02012405846222468 
0.1415264049505326 
-0.1542767393071741 
-0.1165023245890597 
0.564899442211924 
-1.460052264750195 
1.084113389078173 
0.996319016533587 
1.247168439278513 
0.3571330064949067 
0.08412558449100317 
0.8059528662081064 
1.796387207619309 
-0.3307720269653859 
1.144465049907643 
-0.02134655785289128 
-0.4930193349330803 
1.319912120616729 
0.5961287942103118 
0.00198112909967827 
-0.1368806238666626 
-1.128035991473584 
-0.2440797379609395 
-0.9019471530212824 
0.07122111399378228 
-0.1342285263054957 
1.097525798210745 
-0.5963266961825361 
-0.02635254503052078 
1.509934432579763 
-0.7787373053782144 
-0.8957888222900767 
0.6431488929547571 
-0.4576642270197686 
0.04072394490129075 
-0.777441290124759 
-0.161434155042591 
0.7839763831657593 
0.3755044099861784 
0.02468274626459891 
0.3749978123928266 
2.468857559181614 
0.1802337821782521 
0.3805482722625517 
-0.5672552297740461 
-0.1018842420188307 
0.4186644879327071 
0.1040480570366681 
0.2949044773138891 
-0.2434336678939199 
0.6606227521104958 
0.493131593736217 
-0.7174456753670458 
0.03663601054856874 
-1.95315383086984 
-1.088492716356227 
0.07416801611893956 
-0.9435099907592237 
-0.3562124704313923 
0.05099570571580461 
-1.142473531248437 
-0.6022569008047025 
-0.1426714021799633 
-1.033609286269854 
0.006377185871997489 
0.950922433354301 
-0.2625835742165923 
0.6083441959515961 
-0.3066413484156336 
0.1024163327433476 
-0.630027097930303 
-0.1501981159585463 
-0.06915066838338452 
-0.004409885869218885 
-0.5122573654193098 
-1.34947828561371 
0.6180989123421931 
2.677703942867305 
1.325420163784877 
0.01860934970923825 
-0.2898912082922963 
-0.731675796618771 
0.9078323943755775 
-0.2283901961734385 
-0.7225500116072142 
0.3600837491575963 
-0.2085369646468211 
-0.395062970178585 
-1.345670495089013 
-0.4686688943396799 
-0.03399444292499042 
0.1780755259791099 
0.2058791799430131 
0.20000476913965 
-0.1156511038108509 
-0.1781830611412744 
-0.4844172672916623 
-0.1498249724600169 
-0.07827759668436395 
0.1325174571879076 
-0.3191437856670124 
1.59175824989653 
-0.3258988565877893 
-0.7236149180893344 
-0.2655871090885353 
0.000747625643231899 
0.151840416441052 
-0.4847834118086125 
0.8920655267118521 
-0.7153385412177903 
1.627167773913916 
-0.7301420042842141 
-1.029010710344396 
0.2035749666098135 
-0.2141968765000294 
0.1191626192646297 
-0.03518930034719833 
-0.8457405095182503 
-0.2004619325523085 
-0.3623854971773801 
-0.03534914679094906 
-0.05410008750792163 
0.06835297987290419 
0.1640409762803853 
1.727311168316669 
-0.3013428369858167 
2.346575855139622 
0.1000434338786364 
-1.219329323861361 
0.1884312773068366 
-0.4426340970675522 
0.3612448104168339 
0.03537176719600356 
0.2746104782928767 
-0.009284918316521775 
-0.3001285724800729 
-0.219393531044095 
2.219963729466448 
-0.05690096355908972 
-0.8459650558969378 
-1.223880799717467 
0.05011153231336992 
0.7949444281185291 
-0.3225214744966121 
-0.008912948932449585 
-0.7276174210346489 
-1.055720295200462 
0.5196034659852434 
-0.4536968361225306 
0.6792113532824776 
0.8361981036314169 
-0.1375047421194215 
0.469998965649884 
-1.706258476516416 
-0.09006815876371953 
0.4499063733149719 
-0.06300928527555576 
-0.6648009539617588 
0.0639008926858218 
-0.2223168383334695 
-0.2722866192699618 
-0.4120349057127993 
0.9284964557891313 
-1.209653042134091 
0.8005432460006526 
-1.309254399139414 
-1.617905416888915 
0.2296838579307793 
-0.3115738650960393 
0.03657867222055136 
-0.2724152259266205 
1.579392089466779 
0.3746693204582457 
-2.026744073662525 
0.0405138319883994 
0.2281034290726778 
-0.179742840652775 
1.103757022008804 
-0.4253446804994543 
-1.060877700500563 
0.1815131260677308 
0.2610302882433322 
0.1172737249537975 
-0.005185074840014826 
-0.6256605530708971 
2.288542290620775 
-0.6339266336745547 
-0.4737056863622902 
-1.688787709739904 
0.2520454390764573 
0.2660708339922623 
0.6694475442466596 
-1.589186344011731 
-0.7521806228776118 
-1.050109003714334 
2.142707072694627 
-0.0347162001858359 
-1.157211741483151 
-0.3074352279828077 
0.82177873029135 
2.423488493728681 
-0.5971457407158223 
-1.57370256919601 
-0.3507373516660952 
1.304286211222033 
-0.1029744111951622 
-0.8040798746115867 
0.1477445424645296 
0.01882359651185628 
-0.6015934566273332 
0.8706850414386327 
-0.3619883131461452 
-0.6809068886076134 
0.008343968955031363 
-0.7376680186658241 
0.1985743538322612 
0.06631194136091852 
0.6675678071617122 
-0.3258759094046674 
0.3517022900331547 
-0.4746654673627522 
0.9203700612341714 
-0.07720959453637831 
-0.6779134160834525 
-0.3149442103578696 
0.7646488991929522 
-1.346478926656505 
0.1578193597719192 
0.1670896206935654 
0.3292772003301876 
-0.456675438111082 
-0.5291652040051874 
-0.06521376789309467 
-0.02210956060202755 
1.7376563333906 
-0.1178288287401051 
0.03763063877234613 
-0.759985039277655 
-0.2603540611885161 
0.2250678611077856 
-1.142193632635015 
-0.4564707741942742 
-0.3341372430088188 
0.4450521550963055 
0.09090392284462676 
0.1767513916724198 
-0.2510162287667146 
-1.195289141794849 
-0.8301674300360476 
0.8598195704209691 
0.2659196038574727 
0.3517296245906383 
-0.5061694758602355 
-0.0614622743545793 
-0.2221965806618252 
0.4642356921440344 
-0.5334080999752704 
-0.1377301923868541 
-0.2704311451602641 
0.1430730892023149 
-0.2652772117837912 
0.4440282944276197 
-0.5799261491311961 
0.7927446586125629 
-0.5318573161791516 
-0.1035824353768172 
1.452878559894501 
0.06491748796070881 
-0.326609021925867 
-0.3491698351844725 
-0.6596774430513254 
1.640528298776804 
-0.4861679308713655 
0.4108027988457587 
-0.01297198331503899 
-0.4233337095464123 
0.2577990662517493 
0.8584272644439526 
-0.9106223461229129 
-0.6120876016938882 
-0.7391702911967074 
-0.564879804397599 
-0.127365754185349 
0.3103489220307 
0.572052474644257 
1.504596112392871 
1.624935634583055 
-0.4492270115957168 
0.06913796225279732 
1.375683594639758 
-0.4298202459900973 
0.4970287052958032 
0.08601447849829195 
-0.204493405991113 
0.4442406864232782 
-0.09313896731890844 
0.1143142206029371 
-0.8554670442545692 
0.08827429655901406 
0.4707349815309148 
-0.01778762527407059 
-0.5740905447553369 
-0.4060772151148608 
-0.1203067312477165 
-0.05969924226359612 
0.5588609191891373 
0.002825248604074373 
0.1574592473260888 
0.4286933718958526 
-0.7717773700919305 
-1.04416602372695 
0.09955944433509877 
-0.5100922401610678 
-0.06341149656864616 
-0.3202843898810186 
0.2834400832622078 
-0.7447263688084705 
0.5315159543062917 
0.8583077978875231 
0.3112706873903555 
0.3059218461483792 
0.01173567962581265 
-1.042918789504069 
-0.02179909467922444 
-0.3588234882982227 
-0.2970067412000518 
0.03178399312974085 
0.00452323798826861 
0.480459520874536 
-0.3150474589291562 
-0.660541518122108 
-0.2476891478509398 
-0.5754284806730048 
0.943962763760246 
-0.5771469857541689 
-0.5157976137720635 
0.1786477044219623 
0.5352758926342683 
-0.8400320121203299 
-0.1298357137386636 
-0.312327220018222 
-0.1999527497875723 
1.054994303555554 
1.070096068694222 
-0.209302889053514 
-0.3009972334136647 
0.8522216194398973 
0.01519042998345423 
-0.5808531457923198 
-0.3476041016962853 
-0.3604862324817216 
-0.08579574141811397 
-0.6118966692328033 
0.174128127735059 
0.2546817313506934 
0.7520228332235621 
0.3161921442896169 
-0.6088272835804752 
0.2670926523648794 
-0.1424485320583892 
0.8870304513008191 
-0.9705299825043225 
1.653566543844479 
0.1998795157092059 
0.2573883380228658 
0.7289862121586724 
0.04605915896267766 
0.7018928541935386 
1.626916828543244 
0.001674027580454609 
-0.05202628712268579 
0.7021193470404775 
0.4702671808025761 
-0.6296807519532771 
-1.225079393230277 
-0.5398441885964234 
-0.7017155094896934 
0.1916762353513272 
-0.2446333159551759 
-0.938380376045599 
-1.190059387649969 
-0.500679780835255 
0.1620206895204571 
-0.2810389473319169 
0.564838050233088 
0.202063641861422 
-0.2321741536222277 
0.2437149551170773 
-0.1676238198177078 
-0.1575377742864818 
-0.3382800192778762 
-0.2143227012966901 
0.5663143394567955 
0.1907597349638991 
0.2671843868784322 
-0.9782659230019793 
0.1607206773258893 
0.3428146075886452 
-0.31142249398324 
1.435870451270521 
-1.024532768932997 
-0.1177333863339371 
-0.0488509762373146 
0.6355693343281412 
-0.1495305786923243 
0.2554987231964407 
-1.084920318803158 
2.020168332130383 
0.7920638070612155 
-0.5358941970939426 
-0.249100858547426 
0.08011876382343758 
-0.1885146351534553 
0.2720855346450972 
0.2480746492269318 
0.4028355561319428 
0.2251422926357661 
2.108152388743942 
0.1805446624899297 
0.6245191361833506 
-0.1215629264920732 
-0.2169591625094878 
-0.2805399901095634 
0.04838334063267422 
-0.308421509462543 
-0.9273803061535649 
-0.03685188249368801 
1.831160177976587 
0.1640611773824988 
0.1880849135661786 
0.8831278012863671 
-0.376951186084313 
-1.068312209927486 
-1.802967050831885 
-0.5966982694241678 
-1.569035461087886 
0.6214482066641548 
-0.2787469077371758 
-0.005540037481270374 
-1.082001362286648 
-0.03474152360843976 
0.3016339408329302 
0.05460735474193216 
1.046055065840091 
0.1656294095395846 
-0.4728182861930273 
0.900280724046078 
0.1306296513512886 
-0.5518918363030825 
-0.4528799669105683 
-0.3767762053057301 
1.48338739913455 
0.8798038419393401 
-0.9810120136817464 
0.1316352929714968 
0.1810867958881962 
-0.07738540255397795 
-0.07912437367369209 
-0.911114903476462 
-0.8782810629311771 
0.7899484569883135 
-0.1696719154204843 
0.1887172746133583 
0.4696588547762329 
0.9795133755738986 
-0.09131373593653849 
-0.5135317681529583 
0.1735328314192217 
-0.6409785289727188 
-0.3608989506202419 
0.08220572315428755 
0.1331862420623046 
-1.042596042002918 
0.1037743400442834 
0.1115055851004088 
-1.036583037319895 
1.190023314091742 
-0.9647379791349423 
-0.1406697314032373 
-0.521466478338801 
-0.1571935151043805 
-0.2710837049338162 
0.6472396398837944 
-0.4849612199952777 
-0.0652286280624326 
0.3175606859552242 
-0.04090352804146191 
-0.2140355313423521 
-0.4502686705045557 
-0.8989228290402921 
-0.07159687478727246 
-0.1605275730259623 
-0.2817383860394134 
-0.2338518107161683 
-0.9149291975854594 
0.6535830602845667 
1.358953897930466 
0.01440041241322444 
0.4486653945345507 
0.6582641923784432 
0.5767307940753813 
0.4452210520512171 
0.3244467828667354 
0.8372766300138907 
1.48411943856021 
-0.3342355376501139 
1.274616495641414 
0.6008277618265359 
-0.8106625482342321 
0.8861951893415636 
1.580717764557575 
-0.737731835167839 
0.0909331389584071 
-0.03285803927608126 
0.1505383770153002 
0.6648773341899645 
0.05820937155993763 
-0.1411788531153713 
0.6390600496970114 
-0.4375302658731361 
-0.9724121922972759 
1.98009172007895 
-1.71455777571139 
0.2377979897194222 
0.1431832071173526 
-0.5661075314791999 
0.7484244029361317 
-0.0210279666592867 
-0.6601924974108397 
0.9955777835461207 
-0.1884471767444753 
-0.2622085875659819 
0.09220261185005672 
0.1406070999468095 
0.7335366638708374 
0.4789202406193507 
-0.1342390511689289 
0.1230342057564399 
0.5309875950470282 
-0.08995974420583504 
-0.08064763741159187 
-0.102337083602386 
0.338863433577233 
0.3401291695908034 
-0.1294812601904212 
-0.02225735861491313 
-0.5813900741543997 
-0.03622026260012002 
-0.2295545472960985 
-0.3245042442524461 
-0.8048732173701513 
-0.3173235706401314 
1.096790140005448 
2.10409676178877 
0.2381764430029955 
-0.6931007962967416 
-1.574017960257332 
-0.7660300504904519 
-1.263091300526581 
0.8734896260012865 
-0.5661745422822384 
0.3606057899427114 
-0.05017085222083691 
-0.6027384370503516 
0.1661336020556631 
-0.6614903298428016 
-0.1514208038251993 
-0.1825876513890152 
-0.04107080661842942 
0.7625042854181474 
1.214707215738726 
0.5070046554391213 
-0.2979709504088595 
-0.3704397018367544 
-0.3886909964412166 
0.1435723610996696 
-0.02068164026583675 
2.20446787717576 
0.6055946461616797 
-0.1526490993219487 
-0.5566088163883365 
-0.7472837261383435 
-0.09364213770020516 
-0.03023416472477928 
2.14994845300511 
1.698253380597667 
-1.493031659562833 
0.2901437674184191 
-0.03383149474273421 
-0.3306443512962938 
-0.8462793217448664 
-0.5619309372953879 
1.119389109425327 
0.09070072738861404 
1.825545331523407 
-0.4986588351205095 
0.3051871838422017 
1.548727090728516 
-0.7420275717526835 
-0.6374327936391404 
-0.02057741796587715 
0.887612550579434 
-0.4248261707124639 
-0.05427286106198612 
-0.05708050786609107 
-0.5700433514310185 
-0.466638304571761 
-0.1170099279875172 
0.08032081303094757 
-0.4500027569939312 
0.2847745962510375 
-0.3294181226825357 
0.7795477992188935 
-4.006465840512841e-19 
0.3085407822031068 
0.482342222803697 
-0.6410070142371037 
0.0847176913481075 
-0.5200921793227005 
-0.1752147613268447 
-0.6325450375931443 
1.363508248333091 
0.3838055094163659 
-0.7247551108921447 
0.01723543936071262 
0.2088073033543019 
-0.4006941896714717 
2.364546851926522 
1.237706744508772 
-0.6485372617788916 
-0.1998418882130805 
-0.1038578861843111 
1.658736000805623 
0.41100788635992 
-0.2725310628035945 
-0.09607557951598351 
-0.2021945847493775 
0.01591414456090768 
-1.048991026125621 
-0.889981957327468 
-0.0291783333920915 
0.01489510174272974 
-1.627224445830821 
-1.021322097630222 
-0.3715184140028264 
0.1862901805188782 
0.8398642914339254 
-0.7358797671640598 
0.3424910406496551 
0.02697295637629956 
-0.1144668382312927 
-0.3046884939361168 
1.144174920183594 
-1.658290137823719 
1.068224478917916 
0.1087999830475063 
-0.2448611947078838 
-0.1428517857742781 
-0.5695379191657219 
0.6484258434229367 
-0.5562634591011807 
-0.09422486529342745 
-0.1665272626601403 
-0.4299513346349773 
0.5221604113979201 
0.7260909223612464 
-0.2575106628365481 
1.170615759396645 
1.784080567728066 
-0.7866422269879928 
-0.2449175210511175 
-0.7110114008345836 
0.009387071979103682 
-0.1200813360110343 
-0.5058996585563014 
-0.1365368073004939 
-0.5093625196412891 
-0.05346065585357796 
0.4355067113753542 
0.3555775349496259 
0.1958003922702331 
0.3054785821349805 
0.7153570197437127 
-0.1638065474243733 
-0.8438176141551671 
-0.1048471747798857 
-0.2091809369283004 
-0.3323903132812507 
-0.2695253705623636 
0.2815070109954315 
0.1128703326662314 
-0.3751712531262587 
-0.189788918002991 
-0.7890006100485188 
-0.1360141050894023 
0.2882702760708909 
-0.6115512082810425 
0.1002979797897748 
0.3344631219865027 
-0.01517164102922798 
-0.1983370276630464 
-0.1231934521662965 
0.8504522540244512 
0.7581609882263932 
0.4334263853350674 
0.02920628621087996 
-0.4890697083474458 
-0.1001852328251851 
1.979738802921537 
-0.005671910693025028 
-0.3233798006405714 
1.094389885026123 
0.04493384844127479 
0.1007174132560831 
0.08624062650786166 
0.4544431135156118 
-0.4197252580810696 
0.8474414684898409 
0.8621057158384221 
0.3006938632060437 
-0.3867882849451266 
0.5297583459063917 
1.878510971668359 
-0.280498968574469 
0.5563733094665525 
0.07432917960786412 
-0.004508183219027036 
0.1978440641349143 
-0.3856396104612785 
-0.08319344605199828 
-0.3624858505610384 
-0.4411195647018764 
0.2041632403386327 
-0.2429547892393365 
-0.4421707341176576 
-0.1610566261870455 
-0.3242999784091249 
-0.4939664603467164 
0.332347181420387 
0.2789843491086166 
-0.06447880947284818 
0.6079588313947998 
-0.4041383460255816 
-0.06244242512083817 
0.2917318358600562 
0.09322595964197349 
0.383391435781995 
3.038022580722716 
-0.09686113896590678 
-0.5296406115434246 
-0.2748899079331965 
1.000189750680192 
0.2267560491221219 
0.1977002772218706 
0.326935465796333 
-0.1288888343160922 
2.089765508582052 
-0.08366050187664635 
0.4588555275582211 
-0.6378470695955348 
1.452995909284991 
-1.150695584496878 
0.07378416394839642 
-0.3664055201095333 
0.01252190589177155 
-0.365909633110724 
-0.5365220301710368 
-0.3297546959521384 
-0.4380488134119203 
-0.1002299533576823 
-0.3963058748174085 
-0.939309669531449 
0.826982525130957 
0.28483472103354 
-0.1494740182705551 
-0.1931261225088412 
-0.1923556818738064 
-0.05638293437953483 
-0.3230915405590089 
0.6762344947553403 
-0.3254474603288751 
-0.7665185258966747 
-0.8743226807294292 
0.663453841034 
0.06006856304596061 
0.2227798365506319 
-0.006806828556523672 
1.231875388192747 
-0.756751684715122 
-0.8525710101966409 
-0.3650370695053283 
0.6639048423789093 
-0.4893432912067405 
-0.1881813035664232 
-0.6147947449060911 
-0.004403452132433629 
0.4202916664088068 
0.8991991466028181 
0.869634149096723 
-0.2410376915761213 
0.0271961209102362 
1.517363686939853 
-0.1845702515065537 
-0.7081313294014632 
0.06710523595672852 
1.543110295868376 
0.5012007614539882 
-0.243776374876849 
0.2536598120653633 
0.5830777301064394 
0.2021708544809964 
1.339573131747912 
-0.08036675682879167 
-0.2085310147506922 
-1.593857713403531 
-0.1244137568140981 
0.6028055377521692 
0.4639127618692765 
1.697539322171849 
0.1506173225854201 
-0.6865740160405962 
-0.4009241428045257 
-0.6392711167298779 
0.01777996700036022 
0.7298988763500146 
0.2367931353914764 
1.110541867097076 
-0.2952020248402742 
0.4725179321835862 
0.6218955131431813 
-1.420952961390973 
-0.2269833219003676 
0.3035810417807306 
-0.3454616105680239 
-0.2304794114427478 
-0.7172687622307354 
0.2659732541144245 
0.2078199002681529 
-0.03134659925848955 
-0.6115305740259951 
0.3120930633866528 
0.1450492192912827 
-1.595550975092449 
0.1145018618249932 
-0.3206834207570131 
0.3872313656506157 
0.4169556159893626 
-0.1305812824063262 
-0.07630092597115885 
-8.1676475427976e-19 
-0.8401622982665251 
0.6443467781888813 
0.04110757392475783 
-1.030349370767732 
0.5941682573585088 
0.1542628371653959 
-0.07760425415173761 
-0.4455569862110013 
-0.3519191905958345 
-0.532862553822815 
-0.4169617844765574 
-0.311998934079524 
-0.7358137234417894 
-0.6837433155359378 
0.2708346873399894 
-0.2211801944886564 
0.5526654964128302 
-0.3689168012002206 
0.6880857303448156 
-0.5651664243057571 
-1.434896778794559 
0.5096800099182218 
0.4391308840694913 
-0.214810144284057 
0.03658540606022805 
-0.03292330135586898 
0.9583034574839088 
-0.1717723923147799 
-0.4511738000651381 
-0.1079804492782406 
0.2890921253512706 
0.2004770308104005 
0.7816336907182508 
0.3730800670751695 
-1.116941665197835 
-0.03887270275330034 
-0.1616161067909999 
0.05220827503539032 
-0.1590138091541926 
0.3947122008192969 
-0.1016029397677527 
-0.03743040682299158 
-0.5916192808206332 
0.06149656476752396 
0.2726499110536548 
0.6078635945223831 
-0.287845712709345 
0.5113114030329249 
-0.08338033087801913 
0.391238759489784 
0.2634665989300775 
0.241645000839139 
-0.3802769886179384 
-0.5976618082933579 
0.2821681458816798 
0.55663884519495 
0.5850788068512408 
1.142332741799859 
-1.044120027057813 
0.5432982207655257 
0.2741457921414776 
0.6342985754891982 
-1.035996886348177 
-0.1001498269429128 
-0.4353358227214178 
-0.7333467088504304 
0.6513207916631892 
-0.2991835485550603 
0.118992834547104 
-0.6677529101645701 
-0.2139045748550938 
0.09676748650139751 
-0.01610796899455357 
-0.01641505519947388 
0.7285576771730565 
1.481526811725924 
-0.0832159418000851 
-0.2424739757439509 
-0.3081703735548368 
-1.026580739968087 
0 
-2.048827922985423 
-0.1114990282376928 
0.1856863440230571 
-0.1196038186374108 
-0.4348276595466326 
-0.4624824119798575 
2.104967982553637 
-0.8041968673404869 
0.4997050922628344 
-0.8421283852509154 
0.6098976150925521 
0.8303884299284665 
0.300512506892685 
0.3477563843455395 
0.02113758824674981 
-0.08033078310221524 
-0.1552401319311046 
0.1432120020494567 
1.004392111106697 
0.6247832034637516 
0.1336167680008618 
0.2499730069809831 
-0.5708770131339862 
0.2528936592592941 
-0.4586695950985142 
0.8285016869956616 
0.5248019047133506 
-0.04625344291550576 
-0.0167475978958843 
-0.009699577558445336 
0.4717533840086531 
1.245925153519605 
1.720019634573744 
0.1737560404059989 
-0.6158160132013032 
0.5339760070855984 
0.4851894985445354 
-0.4443600738796668 
0.5035972346278926 
-0.4353351425806753 
-0.2292152730925621 
-0.1610249218951161 
0.7858127389772838 
-0.2666143345143546 
-0.4433519296195356 
0.7588747803406516 
0.3652847726295861 
-0.2015553407862083 
-0.7797896533166387 
-2.403572480053199 
-0.7219694849608039 
-0.5475480100720571 
0.8686736210466525 
-0.0648710292830824 
-0.2812074112210143 
1.697353877348056 
3.577874775540386 
-0.1189774098249051 
-0.1079566195552473 
-0.5546428950648234 
-0.09039204541102375 
-0.620614135892339 
0.4417309645901763 
-0.06603809199240518 
-0.319695762575917 
-0.07550523503716715 
1.932441789818148 
0.3384382884024423 
1.265390722393042 
-0.345045846688102 
0.080754764835704 
0.3518460301988083 
-0.1359646979687288 
-0.4353928746379058 
0.1584293444159393 
0.1355159150890856 
-0.3540547482357942 
1.194518388754568 
-0.3826743646285076 
0.07654107001820432 
0.5937221270463582 
0.3893833850601287 
-0.07462452943166546 
-0.3646894403318623 
-1.267342611139071 
-0.2516053843750086 
1.229036819847877 
0.1202506723958505 
0.1205940823933399 
-0.1326789198874354 
-0.1339046194607248 
0.09713153843549222 
0.09004140881814897 
-0.1643258098660604 
-0.3337717828735596 
0.4450755997471736 
-0.08340299273556445 
-0.4297517892578712 
0.04771447548482472 
-1.104931966044088 
0.09909559179425079 
-0.2513037531269596 
-0.5990473790948652 
-0.0177384134592347 
0.08454243469849997 
-0.3630687938812155 
0.725726232072352 
0.05578709690471426 
-0.1237563723114907 
-0.04004267894639472 
0.1254859721067902 
0.2297345524098851 
-0.4402509661781404 
-0.06752930289655264 
0.5524160018149735 
-0.08701468683737004 
1.228890263913073 
-0.186788072806668 
-0.2573508828660178 
-0.179728017090053 
0.1874620240585906 
0.2296856944262425 
-0.07826006069633934 
-0.3891428256456751 
-0.7212227309382571 
0.01885477402982387 
0.08976002347901384 
-0.3308102296068504 
-0.05184223890776066 
-0.5199777231425424 
-0.08814832647090778 
-0.2969359071597589 
0.2782325364803813 
0.837385256066747 
0.4868881305171356 
-1.233382482493687 
0.3910922813466597 
-0.511765107067675 
0.06251987272194749 
1.087365181811792 
-0.5172601578526793 
0.7634110326885294 
0.1480335306909083 
-0.5252758680729839 
-0.3911713522843298 
1.18621812363666 
0.5097126360630212 
0.1543156359779665 
-0.6668986909393693 
-0.2593232639582969 
-0.1464285928141632 
-0.1978080259855092 
-0.1542876478442433 
-1.212895797888342 
-0.01857217987179016 
-0.3093631483595095 
0.2905680185335305 
-0.3856720603364564 
-0.2243002830498528 
0.4763056159107615 
-0.9018092151284288 
-0.09074499561604704 
0.03496835809222301 
-0.06766990771314571 
-0.6280528612922727 
0.5384698693828068 
0.4347096094794087 
-0.9751715305010575 
-0.06878845725329367 
0.07749440084586037 
-0.2371833137474149 
-0.8987894640426218 
-1.047082734614056 
0.2491777750994626 
-0.4925442530025149 
0.8809870217661216 
-0.6104084594316987 
0.4922003666203438 
-0.05058155101988775 
-0.2152322698949625 
-0.002599588098964654 
-0.003225271989831789 
-0.03865923158900299 
0.4560704417045319 
-0.7796893665569391 
0.5959579506655963 
-0.438225007927309 
-0.1799690281530025 
-0.6415137632244565 
-0.4636828212485857 
0.2880568099207634 
-0.1291290291791145 
0.2024376395479496 
0.9061794328478376 
-0.5710285440294102 
-0.3012367210485795 
0.5785411869833718 
0.3640006904327284 
-1.131712390988907 
-0.5170639813480534 
-0.3720503420197802 
-0.2127629738672314 
-0.5246927160613108 
-0.1380099821215114 
0.02570872731439856 
-0.6804711286999217 
0.3592092471576129 
0.3516197855928809 
0.5247949513079095 
0.4818960641520155 
0.2316306287520832 
0.02431932279092168 
1.311942557349031 
0.3298727700002371 
0.459259563942485 
-0.3113075606242223 
-0.5098420245567687 
-0.2704216471131616 
0.5285413643614508 
0.6740730224788274 
0.005932202940201089 
-0.3131127369519172 
0.0001858900850127562 
-0.3215678168756824 
0.896865979122961 
-0.5355314997235942 
-0.1541533238149746 
-0.3356691765458196 
-0.3121403041753712 
-0.4843658880705538 
-0.2521847489077801 
0.1303910756158025 
-0.3127266648445669 
0.1541494012525554 
0.6064995796166248 
0.6643619267268644 
-0.7363498815077187 
-0.4195400862074442 
-0.06028474504713654 
-0.07305946387183261 
0.04448617790708643 
-0.5638299674059237 
0.5706338435521449 
0.6508088039460513 
0.0552503870259723 
-0.1585213878219251 
0.1428134614119445 
0.8879345437459188 
0.2899432327103387 
-0.6527568626860509 
0.3650042911779651 
0.749241118248609 
0.5644973572415832 
0.39262004912528 
-0.03213978500011384 
0.3046535902876058 
0.06753231848884554 
-0.8677600778702155 
0.8025991189202393 
-0.03591498557624092 
-0.6870143254119367 
0.4710337660615929 
-0.3970026158319845 
-0.07386529636707312 
0.8908298543829629 
-0.1946921453414525 
-0.2524381610560114 
-0.4811026158954717 
1.145547124814871 
-0.1533068617194402 
-1.185303173380082 
-0.2326482948336935 
0.04729719599532352 
-0.2502429161445703 
-0.1635508076116652 
1.043722677363279 
0.5027628268827045 
-0.3707310345832047 
0.1470445495805799 
0.7274041367738826 
0.7119246722239793 
1.02885104655798 
-0.5016725445242353 
0.3677809449260571 
0.4202544439918222 
-0.07496423333419508 
0.4629597315885671 
0.06284019569656896 
-0.5676758611991386 
1.370022169533032 
0.4913131196552586 
-0.800386458204069 
-0.5314085793567964 
-0.5280195307871236 
-0.03516994608046303 
0.606350344472819 
0.3773644966371603 
-0.1204690210342764 
0.03735209623287972 
-1.262741216220038 
-0.9398414742567667 
-0.1160601797684479 
0.1313661449547685 
0.5101399584008575 
0.618423781138367 
0.6160666640177634 
-0.2161449441640114 
-0.1644777772724288 
0.16497046529237 
0.2417964566264259 
-0.4793773428906666 
-0.5391775176296968 
0.6088100726688964 
-1.315051898204812 
-0.09224579715577698 
-0.4811564565415005 
0.6187462439098974 
-0.2595441421487742 
-0.2074137634173909 
-0.6607227006591807 
-0.07352819796328951 
0.3885710602387135 
-0.2872802098205194 
0.5328655994560823 
0.1487352149558605 
-0.2846075648458632 
0.7058317621380268 
0.1632757278720778 
1.02345641003932 
0.1487647681847959 
0.4591188492885537 
-0.06036022626115503 
0.426083809682051 
-1.175521083274675 
-1.048959248518296 
-1.16572907815492 
0.08800648391109869 
-0.2852968607556789 
1.250970828877394 
-0.3176151301822931 
0.313454696196123 
-0.5108571164890642 
-0.2818725835721363 
0.8852849086200043 
-0.1861971114555958 
0.9495350304495028 
0.05107604363952353 
-0.145054367544408 
-0.1866670111088788 
-0.08723834260225943 
0.4155623072166785 
-1.435008519468019 
-0.9215766951928277 
-0.2001544369936596 
-0.1248213697036071 
0.8588311114047477 
-0.5069105604634708 
-0.7576366457554904 
0.5543171332048018 
-0.9312564152275483 
0.01502770461459102 
-0.1171843130934227 
-0.1068092086997235 
-0.672311692692652 
-0.4137208661582243 
0.909356288492506 
-0.1875948643879518 
-0.4938664865489147 
-0.7040181351385928 
-0.1657218685074359 
-0.239626299889251 
-0.7487636896314157 
-0.3445018963756419 
-0.08496825401540377 
0.1332542297275525 
0.6593889662207182 
0.8256527340515259 
-0.5504080238691874 
-0.05966851169874041 
0.07217764499749608 
0.3354444714528492 
1.135713925512068 
0.3603745453374018 
-0.01240351965466082 
-0.3980365554011187 
0.492169162829473 
0.5423788936400634 
-0.5567215636257404 
1.007866037192765 
0.3580659131425439 
-0.4516267559643844 
-0.1410397761545108 
0.08379831722090995 
-0.09037705260475049 
-0.09048823934330467 
-0.1234410934939603 
-0.5263117121548623 
-0.1662102605819223 
1.005143165343553 
0.4148808635071844 
0.9110827092553031 
0.2200197792840961 
-1.144292531619022 
-0.1932846106588216 
-0.1785993023471709 
1.551374119495424 
-0.1297929448263957 
1.685866921686465 
-0.788584102910155 
-0.3790367024706842 
0.5704550427602978 
-0.4222407258169204 
-0.2709505735666788 
0.2881434146116733 
-0.5233224209440759 
-1.051597575072881 
0.8187691917135074 
0.8883226600962689 
0.3865301035387109 
0.5298134087014742 
0.2405001904338728 
-0.5974917039286802 
-0.1174631610392714 
-0.3324434153822429 
-0.1746029230057166 
0.9886085567225376 
-0.08779499452263666 
-0.9770129703447116 
0.05571092410939524 
-0.8481264092155507 
0.2428124539353873 
-0.5207182870308964 
1.757461774548485 
0.2572419901267601 
-0.6632713617488059 
1.332405630213692 
-0.7897680529662081 
0.5496495303489624 
-1.414724422924216 
-0.1488853879506261 
-0.4883616192989191 
-0.5305196278600866 
-0.001135177798719805 
0.282454663983248 
-0.6395944995215552 
0.5278329734652738 
-0.08144860329349206 
-0.3553685886295465 
0.9054650215391383 
0.2201223136983321 
0.6382555536274057 
-0.5553196401967025 
-0.1195900878541305 
0.3263423434496551 
0.0539856449639453 
0.1082946934094847 
-0.1590811490875817 
-0.4134038515288327 
0.3920335267381865 
0.1543198835460017 
0.4552243274449514 
-0.130790657866958 
0.2066481369348497 
0.1985279513579896 
0.3045327697360576 
-0.7231319115337373 
1.09057898746801 
-1.141979379607009 
-0.5713524674590184 
-0.005889334505955163 
-1.570749626237386 
-0.3181055906456599 
0.4556146860309518 
0.003591349945894971 
0.2525232506376107 
-0.9160863132970651 
0.01906192026235643 
0.281436087948406 
-0.2702167517373509 
-0.3635585847125798 
1.075869428600948 
-0.2384817685144992 
0.3052354444234284 
1.415476758156661e-17 
0.8757085838422571 
0.6805422184651855 
-0.3010968598164999 
0.1098545762922166 
-2.144769504360671 
-0.1655006282245437 
-0.1190355505133052 
0.01573917794701415 
0.05399008460971966 
-0.2544645348802921 
0.8648490799127579 
-0.7873909563999241 
0.5147171137984126 
-0.1171873514609431 
1.980362736433332 
0.1852000349781991 
-0.6167566238523204 
-0.3277008295971877 
1.162745518620325 
0.6356696304090038 
0.3545835220711491 
0.01573492941866129 
-0.05671928793146302 
-0.07324404046870625 
0.1511756773469179 
-0.559776073550608 
1.323626439316198 
1.509017858108519 
0.2103417516525515 
-1.181829279081745 
0.5155507825726375 
-0.5128658683902287 
0.3762651103113381 
0.7104569787894114 
0.03332883722955593 
0.7329100408738239 
-0.2980352654384136 
0.6661909501628185 
0.6977574478949401 
0.2880251360653385 
-0.2777755182526217 
-0.5418503389573729 
-0.1064760650840529 
-0.1968685847815768 
0.1070232479341339 
-0.8528186258999342 
-0.5500088204399156 
0.6217272184593972 
-0.09267825121808694 
-0.01870869585445814 
0.3244525538336687 
0.3077845659899629 
0.6145192935830617 
-0.4609354879271718 
0.2630035699616171 
-0.5974132669537016 
0.06479003559836671 
-0.9084895969767812 
0.2265121141763076 
-0.1599380471691292 
1.132486386437581 
-1.157095948919843 
0.5486912788417156 
0.7738900181517486 
-0.1631909837181307 
-0.3035067004781972 
1.314454995589936 
-0.5118893230083622 
0.8995298366240377 
0.2368864131997468 
1.240161136867669 
-0.5730712546914154 
-0.7543019568229048 
-0.1178057692885583 
-0.3386977131535407 
0.1462227463377719 
-0.1467633076657473 
-0.04763171396857043 
-0.5736590211604482 
-0.5031320586447913 
-0.690123919112812 
-0.2716775661084708 
0.5611004220717443 
-0.3158410157395914 
0.2377804306350201 
-0.3524553582974813 
-0.08468740749367477 
0.1841451744272297 
-0.5921176187171396 
-0.8221604770240134 
1.335704305683232 
-0.2541965584070386 
0.5198405627013511 
-0.4067181472230271 
0.0182921192683199 
-0.8146561227427526 
-0.4335562563971166 
-0.01783881567732049 
0.3377234393311339 
0.8788099294334647 
-0.1416727586276538 
-0.2124232908179758 
0.2155678768580426 
0.94349705651419 
-0.3204482894602066 
0.8803726365926529 
0.03986121152101022 
-0.2864319122999224 
0.7589105951859518 
-0.07558109686150401 
0.8690705540340308 
0.2931557233037753 
-0.8292590889584458 
-0.5899838219452603 
0.4498093861877934 
-0.2585080961802416 
0.8286783323423611 
-0.6024083865741066 
-0.07148331595023592 
0.5174606215061918 
0.4455652768120547 
0.5319476390686452 
-0.2968993724896201 
0.8393686535934903 
1.335659717193437 
-0.3657802996471119 
0.6310733800038129 
-0.2354444834191755 
-0.2081432725719026 
-0.2511729699271015 
0.2766128061868295 
-0.4345301635563757 
0.926369066843481 
1.242098767040831 
-0.3172636902044394 
-0.4059031999073451 
1.286469888656153 
-0.4094854191143237 
-0.3339158696246134 
-0.2025078448503329 
1.250931804062534 
-0.1442793141294139 
0.2754015110273382 
0.9541264821977775 
0.4761910053432836 
-0.09126407995893952 
0.7569173909926432 
-0.1178761721727073 
0.04420321149461844 
0.3590757443667069 
-0.5582733177188574 
-0.6429599850888743 
-0.03088210587330088 
0.3109869632997193 
0.7963783086681792 
0.5172253260386432 
0.6458207124087332 
1.852718581148083 
0.12457369302845 
0.06755497336325353 
-0.4484297380078994 
0.2401443037696567 
-0.1266167720803252 
0.1353089630882216 
-0.2328649699570332 
-0.7655746025816048 
-0.08137548579462063 
3.172138387467355e-19 
-0.003489823871843308 
-0.4188327865432059 
-0.1410701586354879 
0.1850489547124347 
0.9195604580001273 
0.6858479438149039 
-0.2285855172963296 
1.191480886557985 
-0.1654590758176316 
-0.1820666170052311 
-0.5034862114628189 
-0.2335389719184115 
-0.567766650780097 
-0.5930408783139922 
1.314702707152332 
-0.2628294701661874 
0.3063096861400059 
-0.03289186250865433 
0.30360548401587 
0.4704150266576952 
0.07885138145889665 
-0.126055084047098 
0.3565986521790778 
-0.5669584522809296 
0.5144331637007561 
0.03318959139215138 
-0.1604055117252557 
-0.2283262319574651 
-0.008108102635673891 
-0.1588241580721716 
0.8682767170098284 
0.288367330644356 
-0.3210857546416636 
-0.6374260671614121 
0.3407400574763718 
0.2168912229015328 
-0.3409950213338281 
0.06398754079161532 
-0.2169984700218734 
1.625905447587934 
-1.035491846847592 
0.1173477057154404 
-0.6491975985983426 
-0.009593182090910667 
0.2598614363126379 
-0.3068143532148742 
-0.04510684616012516 
0.8416832762694292 
-0.9430170971952209 
-0.6970155417480925 
-0.305391040188897 
-0.1718030721668824 
-0.5995692294068226 
0.6039491069507728 
-0.5746121007048088 
-0.1655660035333515 
-0.007009391735955073 
0.6936096287585912 
0.4399356381280685 
-0.172974094880983 
-0.1754300242363841 
-0.5335392654359509 
0.4865133668191587 
0.8121743650624597 
-0.666340898373842 
0.3118708858715047 
0.1715746092049436 
-0.9295180171536813 
-0.05090090274664958 
-0.6459057734398369 
-0.2307095061050981 
0.1288503461905171 
-0.03358443374662387 
0.6319552994037236 
0.3710735243341742 
-0.1283178843198203 
0.2894169902142814 
-0.1251573472084546 
-0.470356020140048 
-0.5040865765055335 
-0.4702475095299617 
0.2543229021965157 
1.517986948260569 
0.1402585732219952 
0.4828884946342648 
1.109556716810855 
-0.02592538997477897 
0.1599400045141932 
-0.8158544860079429 
-0.5577332932756819 
0.09272912718694445 
0.2995572971976142 
-0.2909663686192989 
0.0196891678008385 
0.4597842711816213 
-0.2136119165882531 
-0.1728789465988327 
-0.3588232924404192 
-0.1461463051901348 
0.4917957511389012 
-0.4960935620961205 
-0.04018064441073385 
0.1614183789111982 
-1.465012788657503 
0.2927442574771085 
-0.5319721613364435 
-0.1325737320723249 
0.3425596787209435 
0.3889396293345179 
-0.4635306028374134 
0.7770013793014564 
0.6723416331103397 
-0.5796766938222528 
0.240605350352852 
0.9981019939685096 
-0.315304499310773 
-0.6372092819185797 
0.4186844929832323 
0.2049896173150494 
-0.0777955999687152 
0.4699286334646041 
-0.02787592962563403 
0.374013230462299 
0.02236167571999047 
-0.176647472198036 
-0.209881945708117 
-0.1958825807211955 
-0.5270813558887671 
-0.0987417517657998 
1.450431251096448 
-0.2002034947835888 
0.7604085806667874 
0.8021654229467012 
-0.7723797382209058 
0.2060277494744822 
-0.01682373893075199 
-0.0429694225200908 
-0.3455206027896126 
0.4433587926007803 
-0.05414265482148133 
-0.3023157829033838 
-0.4392849890525612 
0.04211474275204673 
-0.02881987680324747 
0.4047552548064906 
0.05516689198301149 
-0.5869866940139987 
-0.8406267110651812 
-0.6919759105297679 
-0.01065238863106832 
0.2561862705570203 
-0.4388598333619798 
-0.3660848620163722 
0.1779862872836008 
-0.01627673915637383 
0.3004570879719776 
0.761819225703419 
-0.7206132893806084 
-1.177889745131436 
0.0589395239494263 
0.2180834411220657 
1.415045195524669 
-0.1806788641137221 
0.8183734955091563 
0.024648868629636 
0.9997807683921207 
-0.01534431447765015 
-0.01820011262153088 
0.46213684275289 
0.4334775357384815 
0.2585967741262333 
0.241513818675252 
0.3839487600992545 
-0.417061118828325 
0.2898071051509972 
0.3892417298927446 
-0.3096468315146111 
-0.1772151909840794 
-0.4569195895169237 
-0.8174736972516604 
0.4793593807641657 
0.003851353632603659 
0.4642660344428889 
-1.348394489852758 
0.775005768845524 
0.4187806479048162 
0.7355066398721219 
-0.5019526708759487 
-0.01757552249318538 
-0.3173707379696247 
0.07749191557602765 
0.08131456424743891 
0.5757489758407194 
0.3423436635776281 
1.240474141623727 
-0.5202857084974088 
0.03341754999240718 
0.7722226126609948 
-0.4797551958791873 
1.006253482373635 
-0.7116536426181093 
1.415216974185723 
-0.01583844527229726 
0.03292920894678505 
1.049422558353923 
-0.07487881856870172 
0.6823200236061765 
0.5472299542700476 
0.06389073323825205 
-0.8712435338764558 
-0.5259009531693575 
-0.3322561986628216 
-0.07673978370978363 
0.1127689558881982 
-0.5101859987880791 
0.01191837199482829 
-0.01633612954161631 
-0.246074489632248 
0.4144962061067777 
0.2466582704005836 
0.6705540523296769 
0.1129381249509904 
0.03422380224028274 
-0.6002637718485346 
0.04913458450283205 
0.9490308531977818 
-0.1094132251514538 
0.4232915718264622 
-0.9539414617754871 
0.4922849937769327 
-0.8121087308915785 
0.03899627460029331 
0.6630256045539896 
-0.3333546397003541 
1.106740243934803 
-0.1753343382082913 
-0.1557953275896246 
0.1169923345768339 
0.05179908196807856 
-0.007873736634760573 
-0.04781788504630603 
0.07548884564075703 
-1.059863340529249 
-0.5601434462339169 
1.068217991568716 
-0.9642725942073717 
0.5973323524782734 
-0.003345243559232027 
-0.7100704371300218 
-0.3260293949391965 
-0.001717708364430137 
-0.2080615309770963 
0.4488507818999409 
0.667336273703045 
-0.8373047614550583 
-0.9872669221290157 
0.6785410557703234 
-0.07932443073609946 
-0.5728073893415043 
-1.411305299091987 
0.3118744065948527 
-0.07057975934125642 
-0.993667193346467 
-0.3108032405817412 
0.8498747378458115 
0.9970938126131816 
0.2250122849112106 
0.8808890105558813 
-0.04328618524515244 
-0.02994561624422231 
0.3098836900860553 
1.102544561007839 
-0.4068753755844587 
-0.05458240032467455 
0.3136226189581567 
-1.25664457351611 
0.01194044449759556 
0.1592568896769937 
1.493589912479537 
-0.9427993241677308 
0.2526946963849786 
0.7564441131978031 
0.8584537924228249 
-1.078461154582152 
0.346949830686182 
-0.7073662242808013 
0.6370659082515278 
0.6373692008921515 
-0.4437781879877325 
1.290571261306295 
0.6244534663537622 
0.4577794475980663 
0.2979169174284317 
-0.4236803379649112 
0.4471784732817543 
0.9942420700172857 
0.07019210525785151 
-0.1513414298097119 
-0.2550312857426971 
-0.2881177347668619 
0.0537491813117521 
-0.3234898980492846 
-0.1641172189127316 
0.3321744033803524 
-0.1942270684705666 
-0.03932725485092946 
0.04748818608402322 
-0.05765128813269698 
-0.0003319182023849836 
-0.05497221345806515 
-0.7524566274798545 
0.4925370085946372 
0.3894135991005301 
-0.1982847367970625 
-0.7701452677380581 
-0.05239140392509868 
-0.247839972644177 
0.2492520512323201 
0.01653014350735619 
-0.4590703432748697 
0.3904501393679842 
-0.3441432149203293 
0.3477096758217513 
0.4005465002598903 
0.7865762266003646 
-0.4457423185747164 
2.241233807344488 
-0.06837276979493929 
-0.4721306800448846 
0.6843637211363023 
-0.6681847749627605 
-0.182256020233565 
0.306190669018903 
-0.4397928879942741 
0.7675020213618404 
0.1038770652002856 
0.613962292224379 
0.8795146458197316 
0.2975344467801332 
-0.4808784915207756 
-0.4862197510377776 
0.9444174022887966 
-0.54697158774504 
-0.2649467792635075 
0.6427727502968931 
-2.071948468102425e-18 
-0.2375713097703974 
0.02597776186861568 
-0.096481330941374 
-0.6796094253700397 
-0.3103465255020368 
-0.3074485519647037 
-0.3773765706914948 
0.06424784586163201 
0.4485318812588805 
1.136363403729786 
0.2612359412968726 
0.2103642882170563 
-0.3739191509978121 
0.02783487047044656 
-1.065973680570536 
0.2735772640282685 
0.01984763668723189 
0.04197742964581339 
-0.08958600507218893 
-0.06710610423449931 
0.1500151428276324 
-0.2676586675084324 
-0.3295172049721116 
0.7199787288842586 
1.408987996949956 
-0.2614562059629785 
0.1490892362632448 
-0.6033791970891628 
-0.5290334514672008 
0.2676979935366346 
1.237482871398563 
0.117959522244976 
0.02420810811064744 
-0.01870734214330005 
-0.106395551308153 
1.20534456940477 
-0.2005313142615346 
1.230985398084241 
0.8198508257149747 
0.1315792496394072 
0.02682247219123 
0.4129277796088336 
0.5447750676750441 
0.2076217342467831 
0.07331015275385785 
-0.003259761578586615 
0.2065046908054358 
0.9200970686140297 
0.07609561282491217 
-0.1257746921288295 
0.167908656218152 
-0.08873144719994937 
-0.6169159558579541 
-0.003703349936772291 
0.09704837956714944 
0.1240608733731151 
0.1074211340531258 
0.3949575850315657 
-0.3543981647885854 
0.4570655335158006 
-0.74793473638993 
-0.008495823570237133 
-0.02579809847656783 
0.3868775694805514 
-0.01947571148161546 
0.3483858714383892 
0.6149648447892019 
-0.6392384044132595 
-0.5513124887874453 
0.1125864508178411 
-0.07649653587875836 
0.1993036792969379 
-0.7207129876957056 
0.07402289446485694 
0.1462681568674419 
0.3788059727705894 
-0.3582788379852645 
0.1189957742754081 
-0.2889939465003043 
0.4093170851273155 
-0.1749378418311627 
0.41299494798052 
1.351816164545008 
0.4131012455461575 
0.5135132559964692 
-0.2913450549941267 
-0.02000517971579959 
-1.316233588676626 
1.132057449236111 
0.5641637641292512 
-0.6695523172015544 
0.08718340215358446 
-0.1145796856114214 
1.378614989256137 
1.493191317054606 
-0.7127744683833498 
0.424436753645159 
0.4981718781803989 
-0.6868725518742967 
0.587489166759751 
-0.03025597725959025 
-0.000134078596389758 
0.5311155507972983 
0.06419213380469341 
-0.5397527389722641 
0.4368622753527575 
-0.2213682827887248 
-0.2021832110451993 
0.2033442169927144 
0.2568269433498458 
-0.09968452679708087 
-0.128152074974028 
-0.05858345881920459 
-0.3743692388998937 
-0.613264588303403 
0.1451816549233861 
0.0157468136002222 
-0.1821775330504134 
-0.4281620301984984 
0.2035101629611415 
0.2388239058630754 
0.7154401585461851 
0.5074890582992158 
-0.06744617478948889 
-0.3821770055063672 
0.3045677124593971 
0.8372860128516316 
0.5223327632834812 
0.426587053253742 
0.7007252759138487 
-0.04983032596736776 
-0.1024883757368181 
0.3003439898081113 
0.04025113816552713 
-0.3117318943511805 
-0.05118902790565779 
-0.0378740754719443 
-0.1189784605684438 
-0.7947215429046809 
1.577281838566294 
-0.1738401505765991 
0.04157527220944018 
0.2920484033918353 
-0.1412188538391452 
-0.5856373322317902 
-0.607143641963019 
0.9670321698251952 
0.6623388893308791 
-0.5254190548387283 
0.9306196971061848 
0.2594723361172324 
-0.1690981557225497 
0.8214621442380228 
-0.6029439336154414 
-0.1635325098268137 
0.5436941791186015 
-0.08631740891009294 
0.2736841297671783 
-0.1433441789106709 
-0.8472563478752158 
0.6474738186459786 
-1.121361882047483 
-0.04963372399911339 
0.2883586344333904 
-0.3098489746186439 
0.1827577070582526 
0.05908702531291996 
-0.1207024166294783 
-0.004954554463667486 
0.4383202346953181 
-0.1307632395617698 
0.180986732941219 
0.4690008981212401 
0.08340878327851156 
0.001268404870818473 
-0.08128604241514653 
0.08581367823499519 
-0.03352252771641818 
0.09639982034271737 
-1.157280574318591 
0.9039948182513496 
-1.016533156081335 
0.5490926938708849 
1.005683959278942 
0.09204754011834768 
-1.147156890659386 
0.280640976588518 
-0.360122528991841 
0.2196091104970931 
0.1485569969568722 
-1.114065460771864 
-0.3720239416665478 
0.4637391863225176 
-0.05164709320754495 
-1.206720459416015 
-0.1635283119100297 
0.6640649201476407 
-0.01125109823160278 
-0.5810111999875627 
-0.3407068212669945 
-0.01030586040771941 
0.9130823168407061 
0.6180180466963617 
0.08924683453122788 
0.1137244581163939 
-0.7042882544197886 
0.05586478518367669 
0.1418911880227409 
0.3382886247483451 
-0.1652359168129059 
-0.6481581619618119 
1.02746602675534 
0.4973050189538185 
-0.710419768310385 
0.4109203987331227 
0.6785274898978222 
-0.1746458999652929 
-0.2305989725749348 
1.43811566370001 
-0.1835064985818693 
-0.001985734168704429 
0.3930549160027409 
-0.5359678951111611 
-0.7804749407639416 
-0.2811214718898022 
-0.05645489079508931 
0.0388892237088536 
0.1620492100434434 
0.01287116627458778 
-0.006676244939488409 
0.2836532794557397 
-0.1014381281002886 
-0.06574228449150436 
0.1260662324490848 
0.2499600115434248 
-0.07337770041665725 
-1.715865695756256 
1.305681340743887 
0.5688995460789597 
-0.7295571182638255 
1.193753579099713 
-0.03779635761522297 
-0.3618771792782389 
-0.4241355222117627 
0.0444026030456923 
0.500449294110486 
0.04371213921143943 
-0.07956914484639324 
0.3574112251501883 
0.9354805283891346 
-0.4898180675545762 
-0.02639088953069386 
0.08343311337845803 
1.438122948755375 
-0.2336314688711259 
-0.1721414169945402 
0.7269450638321416 
-0.5250194796668735 
-0.853222600246619 
-0.02028276448010992 
-1.044806496171856 
0.4069179219511361 
0.3033468143234332 
-0.3189253228135436 
-0.01372005942956897 
0.6648040991025483 
-0.1150992891891455 
-0.1516684455795883 
-0.8552398682506303 
-0.8105350783259931 
-0.2267619760927083 
-0.2855710743360114 
-0.7700394636176499 
-0.4824227918304524 
0.2233256963827389 
-0.008659414432153538 
-0.2748311614613981 
2.002853659819301 
0.7953068824829754 
1.846127904207567 
-0.1129546687530039 
0.1779285203145659 
0.1869613921172252 
-1.051532523902636 
0.05707267214962149 
-0.775050945381783 
0.1984828759172261 
0.1097585855235987 
-0.4105980219378507 
0.7957400595260503 
0.2655629402575538 
1.533024356577814 
2.58648985821279 
-0.1382010065223757 
-0.07877113431207149 
0.7327615567851439 
-0.3805096040633078 
0.03906862246884799 
0.2278665493369919 
0.6378261914394886 
-0.05671612405739593 
0.4892836220579296 
-0.114299437248196 
0.9829564886109032 
0.2203364475818775 
-0.2203031890098988 
0.04453078736081482 
0.3019734440510007 
-0.5960432987589491 
0.3690513740313967 
0.08343818530770172 
-0.5936976048161496 
-0.1260685843044242 
-0.1383352208522388 
0.1694617003359072 
0.006898436764630109 
0.4169506897802482 
0.1531602993169398 
-0.8721264134271263 
0.004059710695965482 
0.05358525487371561 
-0.1450501011211785 
0.0197482299568716 
-0.8033100108085381 
-0.07750500180782689 
0.8099252759774316 
0.4700125961017599 
0.9723507037155164 
0.8634341528289674 
0.07894799795821206 
0.5613591862619123 
-0.6607345938686887 
-0.009542003949998878 
0.889117891710405 
0.7759186876343169 
0.09455520369921191 
0.01610365567172499 
0.4510973954355916 
0.07860261156531151 
0.5853554802661909 
0.9642611620722479 
-0.3292192678993352 
0.8806127151535406 
0.195954785048896 
0.01724940636551496 
-0.2183776695117803 
-0.007249725326232512 
0.2777964396311153 
0.3282213441441978 
-0.0104283597884297 
0.5322440580668744 
-0.2474617952116977 
-0.09492475379430773 
0.4900901487373954 
0.09744610229486614 
-0.1686959657246619 
-0.4110377947247653 
-0.1434066602401428 
0.00704112005683531 
0.3812504512666564 
-0.6783651991800036 
0.6853366365465737 
0.9242225409095148 
0.4627143854814165 
-0.2617938399910494 
-0.6185004466328582 
0.2428197341453059 
0.2138956577777375 
0.376647346871456 
-0.003930853839486166 
0.1235229564945563 
0.06290919266965633 
-0.3094278507215822 
0.9265711850875223 
-0.2104565326146088 
-0.0504549828436535 
0.08279386120301646 
-0.5941018069053904 
0.2333179072983723 
0.4488689689226808 
-0.0647245123193281 
0.3173072945420256 
-0.0766393695360116 
0.2328578252977982 
-0.6891125600375284 
-1.046883563395695 
-0.05773320823082854 
-0.1553348541125134 
-0.9563532888332018 
0.1105435102016618 
0.3983128242332736 
0.3690160456656859 
0.3677536293922937 
-0.1722354717656047 
0.6323591450558708 
-0.1626714754052582 
0.01493454098569524 
-0.5919862372916025 
-0.1783713822102503 
-0.06970512559495864 
0.03492239899835757 
0.46274495974648 
-0.3737771216975811 
-0.1024023822995515 
0.2695161114210398 
-0.107923552514644 
0.5739928968366241 
-0.000831900548967118 
-0.05624853457501284 
1.953592088126589 
0.03169846939240151 
-0.5376317842490337 
0.9036074907302681 
1.216810217578362 
0.1461493152464956 
0.1354342718601408 
0.3650690748459898 
-0.2495488176100291 
-0.3464909125259186 
0.2931304868278088 
-0.2809748079428283 
-0.04713070948914954 
0.3340480808600357 
0.8573958557181816 
0.9864048125158859 
0.1366353489924939 
-0.1418600646679916 
-0.2372634270013751 
-7.881218057727638e-18 
-0.1222428915573024 
-0.2043025471341225 
-0.5562967093316834 
-0.001750091834117783 
-0.04132157497434478 
-0.9329208528746343 
0.08376950887948892 
-0.2710696248794988 
-0.3095440460139228 
0.5117699320182975 
0.1967660817353518 
-0.2719197685379282 
0.6700692023481043 
-0.2981460164908775 
-0.8475556121628982 
0.0780750499005145 
0.6142709702502082 
-0.3111481765111407 
-0.136866005398753 
-0.6164879097170389 
-0.6528690075285193 
-0.2596734270961917 
0.02020014627783831 
-0.2538340030773789 
-0.1912777276875066 
-0.02982853512546651 
0.2760284911924236 
-0.02870291349049042 
-0.6764517263714963 
-1.481976314196859 
0.04424088460889474 
-0.001441879961462155 
-0.1258223795269065 
0.03857201605274909 
0.2500605092894462 
-0.1706905933065699 
-0.03135083963427771 
0.05148534529588598 
0.8018837248680365 
0.3168734509707537 
0.2022742972125813 
0.9617968489228307 
0.09935542629726815 
0.3035461519112297 
0.1457538496776602 
0.2507794666082967 
-0.04513416370386558 
-0.4011644940577165 
-0.4503694590154721 
-0.4561897675393349 
0.1981170471594959 
-0.004075530571970044 
-0.1654226812192036 
0.3639341811699615 
0 
0.199510565701697 
0.8234104904235436 
0.08705717181723875 
1.265945660019778 
0.1286026875224234 
0.550491204708576 
-0.3085050540497603 
0.4890474844491223 
0.0255087426571496 
-0.1621832071577316 
0.218699265551812 
-0.1941512812452352 
-0.2555787370164823 
0.03708544025770263 
-0.1578303022183241 
-0.1793509003002664 
1.170720384399216 
0.3165115030104984 
-0.2069291047282454 
0.04089159487886442 
-0.3563848462491636 
0.297142675427245 
0.8502245749745172 
-0.04785755053730838 
0.1593037186009438 
-0.9074233245901238 
-0.09222785927165604 
-0.01439735146316699 
-0.1007522692105917 
0.5930666027999573 
0.2855295870122121 
-0.1807133437512949 
-0.8743202201885493 
0.4522640565184236 
1.11427330510797 
-0.1343385140393409 
-0.7220281569975787 
-0.01837283579526445 
0.8508394486009668 
0.1989673097730202 
0.1822294121430384 
-1.07308349858738 
-0.2773287195475136 
-0.6674638508026481 
0.3442151178095929 
-0.3325305253568972 
-0.3647376073542981 
-0.6455898807907189 
-1.49608645706581 
-0.2312518252537938 
-0.1989897701304753 
0.1944853512288348 
0.7592504949068503 
-0.2966166765389648 
-0.2300239708744149 
0.8691484094164352 
0.0208457611399542 
-0.08153969731048111 
-0.1739302938484573 
-0.08103010588599453 
-1.104873737065819 
-1.280978733762302 
0.4396794976696679 
-0.1030183131453976 
0.3556376540050282 
1.34838674139975 
-0.009944437374583878 
1.212559173821505 
0.7139598385808296 
0.8837481849494583 
0.5236042216446164 
-0.0190797614668462 
0.2257420829428085 
-0.5976972449421701 
-1.018091148995055 
0.02044794447019315 
0.02962753839152313 
0.9405054938969869 
0.1500627803963589 
0.2619741150713611 
0.06548475584538266 
0.2282320098746656 
0.9167463586596143 
0.2708629655865726 
-1.076710488747852 
-0.2721490071928003 
-0.2124263527477177 
1.258161564027856e-18 
-0.130532182880955 
-0.6298829061537052 
0.01927531904589467 
0.2508184931999146 
-0.1183938881363565 
-0.1840864140919532 
0.04214116432282342 
1.294876640579762 
-0.1488407145511739 
0.01732844613107763 
0.1414788706355898 
0.03240712968378982 
-0.3016873960008198 
0.1670943349284965 
-0.1561411507158433 
-0.06735057735663641 
0.02783012972729965 
-1.683016871919897 
0.4141893738454962 
0.643285077962482 
-0.473934697908078 
0.07774562041466716 
0.04537657292058464 
1.011463808527422 
-0.5653014432805687 
-0.354331492029216 
-0.9177935042566037 
1.313060963422528 
1.22607077360126 
-0.1588474061115556 
-0.05463931704697716 
-0.6725149849678421 
-0.1314744045299736 
-0.1292569805445552 
-0.8367241900675184 
0.1414792967839126 
0.162122983372868 
0.06275055175292128 
-0.2334287710062258 
1.16126724045049 
-0.8319586345194435 
-0.6495341626358573 
-0.1854175770079033 
2.130503276942467 
0.4362583145673278 
1.010140627816536 
-0.593268629512817 
-0.6816020336806707 
-0.2879234999392146 
1.304938142660424 
0.1408941994707184 
0.289515853082146 
0.8584907787960429 
0.7946442050490113 
0.4741309338687298 
-0.07604289436136044 
0.3595615027174517 
-0.05459967454986384 
0.2231038048761612 
0.9989505253047342 
0.07191346693421967 
0.5873431789746703 
-0.3002664877233355 
0.01860820783572514 
0.1051316901796222 
0.09661442479912533 
0.9083234868680498 
0.5772099308636127 
-0.3522917852054293 
-0.06389877537969926 
0.1491009803958893 
-0.1768861192488835 
0.1025678391476292 
0 
-0.1094245541444858 
-0.1854168964210131 
-0.5118466681913051 
-0.796684645897088 
-0.03979808490120715 
-0.6202761825359614 
-0.05066369236283694 
0.2575222410081349 
-0.07031983793854689 
0.8348421530101331 
0.1997357566331714 
0.5641429953993004 
1.100422490635294 
-0.1131057713162688 
0.7155714570963053 
-0.161924309070959 
0.0557122809443049 
1.688146233483608 
0.1356097063584922 
-0.3260932734375889 
0.3897321049179058 
1.064444211854028 
-0.3845338741136979 
-0.2264293790240774 
0.3328689361280157 
-0.5274622798201882 
-0.1066448011165064 
-0.2338151661388027 
0.1377823959748856 
-0.009055477500498954 
0.1293700419647752 
-0.7450508097026373 
-1.05683627132078 
-0.3586686503039195 
-0.1621194639176352 
-0.4257461476350928 
0.05588161561835021 
0.01666508202070669 
0.3902965975111614 
0.8135804048667772 
-0.6470738309951095 
-0.02231610882434558 
-0.1599209151682809 
-0.02238082880502561 
0.5800133843383141 
0.9611287224531139 
-0.4951302922007215 
-0.09133026058372315 
1.674739268525218 
0.03439002111438838 
-0.2860979247249315 
0.008864134283614648 
1.116191430434616 
-0.6792235500228924 
0.1698028464372605 
0.2677009825163689 
0.838143693345261 
0.5196192972965503 
0.5443591557193657 
-0.08485362505905046 
0.2179774740521315 
0.8473963581709317 
0.6884874729463952 
0.04040467521026773 
0.1062267275185329 
0.4808430481781019 
0.3493616010641495 
-0.009320255711429928 
-0.09126243552588069 
-0.2898956788816779 
0.3638981312924278 
0.1665613089415541 
-0.04941884875684283 
-0.09159515984709853 
-0.2445278523121517 
0.1453054176307221 
1.055110926203597 
0.9279866405489648 
-0.04720878888256242 
0.5441115500621418 
0.5573054022432361 
1.168724082006588 
-0.002996489942385273 
-0.3652388837379483 
0.3470002077937273 
0.08774552599796109 
0.3200674876308761 
-0.7214959058114869 
0.8897450988115144 
0.04159801525612612 
-4.639834726822244e-18 
-0.01322398788427872 
0.005154080028019426 
0.04810585893533861 
-0.5336006601703118 
0.2366365948512657 
-0.1183048859724628 
0.3549860260563457 
0.09836566316678033 
0.4980478611433491 
-0.01854379549595837 
0.0237691020946617 
0.003844344819812502 
-0.09453808465392158 
0.1882782802669168 
-0.372487887812711 
-0.2558921275598339 
-0.5949989106203697 
1.144235451799301 
-0.02893504200308366 
1.582892820181474e-20 
0.02738913495529078 
0.8493977527827543 
-0.5334608400586953 
-0.9603430468135647 
-0.02555546577992499 
0.5111419497518346 
-0.04691392513811252 
-0.4775676296832971 
-0.1283904867260704 
0.2449651786084806 
-0.5392874682759813 
-0.6074107981312673 
0.4044935772811832 
0.1367246357586944 
0.1115057623299737 
-0.4332763582719951 
0 
-3.160491684442608e-20 
-0.1107516286982312 
0.5834417725478972 
-1.190571696380645 
-0.7979377373586453 
-0.02799425427043945 
0.06121573480485293 
-0.5380158493308843 
-0.03988921832189941 
0.7615212686441646 
0.05720268014684583 
0.09599717225880969 
-0.1789044135899671 
-0.2543639497852659 
0.2539551391704568 
-0.2076553694993431 
0.6877722913091783 
-0.2502965539497694 
0.1889374779981353 
-0.07534551641860858 
-0.01476204045805854 
-0.008115155907165741 
-0.08639200962452102 
0.4051596838603074 
-0.02214454462570609 
-0.5493333440329334 
1.069087663735589 
-0.07706665438363441 
-0.196858350905641 
-0.1364641764239189 
-0.122915201494477 
0.5549177426792208 
0.5310643591207529 
0.4424623560843912 
0.1699263410127919 
-0.08543014331154462 
-0.07983310491323656 
0.4636460048168731 
-0.3143700508487969 
-0.5932528959769072 
-0.007847546252529088 
-0.7478450300601774 
0.2569022014241581 
0.6162132595271482 
0.5295655749007434 
-0.1038425929093052 
-0.03833815061111197 
0.1481986500785588 
0.4716718844160237 
-0.1799216853188742 
-0.1362209357533426 
0.6245101409378644 
-1.0324633959842 
0.06767984112523946 
-0.7710438350333652 
-0.03643988650545536 
0.3542923532126219 
1.166257214920757 
-0.08449230909064839 
0.4520156841672262 
0.1665983447136562 
0.01609424313672893 
-0.4265085941928557 
-0.05575698026225239 
0.3236680466615711 
0.7326217312530774 
0.08609945151790058 
-0.1371958455399701 
0.3496062682394837 
0.1649106637218335 
0.9576980995435933 
-0.4997567982561578 
-0.2538375160390551 
-0.3596755011634775 
-0.4134850050226878 
0.1522876888543341 
-0.1206006916258429 
0.4222413543538048 
-0.1712816452495931 
0.1401085225894484 
0.9812202200042276 
-0.07978653853014883 
0.6143013940917422 
-0.2211027924769154 
0.4318726311501537 
-0.5359222265389371 
0.7097580693310087 
-0.5717161930355087 
0.3424674230602142 
-1.068011246481791 
0.116232976578752 
0.5688055223788134 
-0.02351388723850999 
-0.6788115797923816 
-0.03569659960368644 
0.2594541276621006 
0.9130626505030849 
0.407760034678437 
0.04001715710044033 
8.33268661861418e-20 
-0.1495434927479254 
0.04466054419151312 
0.01319441364986863 
-0.22666228396735 
-0.4665305280021981 
-0.4095040931940213 
1.045488525471699 
-0.3554005594642413 
-0.4233383158215836 
-0.1149167845137332 
-0.01971500651516283 
-0.7121044844658592 
-0.2463796079344475 
0.5878904717135529 
0.1283352495718313 
0.2822082426041961 
-0.07378959513371897 
0.7255449144542842 
0.6238283386548037 
-0.5980316943819298 
0.6511038312840659 
-0.1882926445584525 
0.3097918520712704 
-0.6063454067939861 
0.6122849550675264 
-0.4245238986136379 
0.08123846560931429 
0.4315351056929322 
-0.8404488890576853 
-0.05387352596921293 
-0.1068181739924289 
-0.03670451514992242 
-0.176536661639352 
-0.1108675959143247 
0.4240483052737055 
0.3772678282380069 
0.7050934883256689 
-0.238384499106898 
-0.7798484485122774 
-0.2330556788367353 
0.5639144070415744 
0.333061265179489 
0.2454613545605386 
-0.1166501334296508 
0.5569087208466449 
-0.1846472732725749 
-0.02432939213866007 
-0.5530076120585969 
-0.160975092647961 
-0.6638096623208307 
-0.1503999581389532 
-0.1283808700654352 
-0.1319809968039156 
-0.001999231469074926 
-0.08089371706516793 
-0.3731081869117873 
-0.9694636907903953 
0.3275050184057348 
0.4903748423193711 
-0.1651413175443316 
0.09189987196956981 
-1.112005817134332 
0.1532995609113345 
0.4300725933126107 
-1.030673795381616 
0.003186515377868894 
-0.1388789547085429 
-0.7292374914494463 
0.7287660052272489 
-0.5483530096206348 
-0.1140892157584018 
0.2135829968813343 
-0.4499335137348143 
-0.1603039020755064 
0.2490087798226652 
-0.4344329965800461 
0.8159559272241559 
0.2231293353787114 
0.5360213223092242 
0 
-0.02062041135984436 
-0.3506094769692822 
0.2867650807270035 
-1.118914075331206 
0.07893736119180908 
-0.08437005260525224 
-0.5383012799353473 
0.002357702128294843 
-6.495928759717731e-18 
-0.1161525298360691 
-0.01197445484332455 
0.05255807571396559 
0.302019272811647 
0.484864773860005 
-0.6300311763671681 
0.2290661179525954 
-0.3908662244704656 
-0.1609745679966855 
0.8732337658051423 
0.8967528358763746 
0.02682837129550802 
0 
0.03820909381704996 
0.4127365738520138 
1.301874499699496 
0.09427216366404784 
0.2617297622625445 
0.3887237574893969 
-0.07204421086066919 
0.09557169395999693 
0.7130270220258186 
1.034795259007768 
-0.03583882999121727 
0.9357841808286653 
-0.1919331780846596 
0.4589274159347402 
0.2861544407798134 
-0.6211871654785071 
-0.07136106224390427 
-0.5209773089879204 
0.08573344099300065 
-0.04616279668716423 
-1.165337996482594 
0.00867398443716583 
0.02007575134638003 
0.02171270050332288 
-0.2668847142376075 
-1.495162464523829 
0.08556460383094038 
0.2482493765784083 
-0.1457527700853401 
-0.1152669051486279 
-0.3753399118130167 
1.908627624138655 
-0.1831525314198958 
0.6317677488998708 
-0.2054283190536171 
0.2351557488455548 
2.443690052828656e-19 
-0.4850121536277621 
0.0573549517784645 
0.5282878143919353 
0.06745567421875949 
0.1149599864685825 
0.5168686137275232 
0.5199999776702583 
0.8406543571264838 
-0.5081328677061175 
0.6275263384507904 
-0.5327591440425939 
-0.3976753127430137 
-0.1547951546394814 
-0.09933129353104243 
-0.1102722151744284 
-0.148302202054817 
0.4615805869123536 
-0.1403126478460406 
0.06655382698655628 
-0.2098452311246449 
0.2604615076174461 
-1.551018079268706 
-0.4240660304400192 
0.2426286327366196 
-0.06962502036754305 
-1.087941192212103 
0.4656681248287535 
-0.1781714801015674 
0.5655768792957369 
0.1937586834936176 
-0.4648780490371976 
0.5749111882746749 
-0.081530207485958 
-0.03046823541669845 
-0.3776090313629479 
-0.01153052125813309 
9.123074237520849e-19 
-0.4980585676572231 
-0.3585019897546191 
0.7157039844235741 
-0.0318887444026677 
0.8296678452786288 
1.865695945446003e-18 
-0.09650667808335593 
0.278212990154273 
-0.2746068725074413 
-0.482119129021278 
-0.01607280253667126 
-0.4142403148239556 
0.08260917997227127 
0.02562749316371221 
0.05118251821034802 
-0.9966099673288084 
0.07640872988555862 
0.684274841470268 
0.01234904068689706 
0.4050226316436905 
0.07221774799938541 
0.2129287596768288 
0.04640434959898954 
0.2133531102372695 
0.6731478993562606 
0.7317964411246254 
0.03765994298362847 
-0.23909957137758 
0.1619102802992219 
0.8571231684106646 
1.190621940318499 
0.7901956926159082 
1.002828545938736 
-0.1519953087003839 
0.8640096694687982 
-0.02090801072252694 
-0.07726027334275554 
0.3364421610168737 
0.01255339156412045 
-0.2076443597113419 
0.03164193278266916 
0.2706374853236292 
0.3353038541504164 
-0.4137373106211203 
-0.509295074221621 
-0.06444053728391026 
-0.5596247158180225 
0.08629023085168927 
-0.08216445679820623 
-0.1141067045349329 
-0.4977496053771296 
-0.4131554547545907 
-0.3856660958888037 
-0.2627123418482932 
0.3967079240888181 
-0.08399753246206267 
0.4738289983730123 
0.03628889171580527 
0.5962731037557878 
-0.6811399734200198 
-0.0686936009738215 
0.2156058588981914 
-0.387090267389599 
0.1414015679425308 
-0.05273857291811264 
-0.09327159277123329 
-1.223066989262237 
-0.6648306596436963 
0.3592617231053896 
-0.01051430879869204 
0.4936679016231159 
0.3922410750375637 
0.06300076253731653 
0.757467987104198 
0.4236121570505447 
-0.02189202552243387 
0.8753147291707229 
-0.4585846027929058 
0.3801196793819629 
1.293513736715223 
-0.4015239688939786 
0.1867331646620884 
-0.01132636236566294 
-0.0607345684311856 
0.4270446866611782 
0.3848073008328636 
0.3112107149841651 
-0.4512404442276798 
0.163435149260581 
-0.2632438891722524 
-0.4837028408156764 
0.1472973617992124 
-0.07710140430198992 
0.2309177309354499 
0.3019338902497722 
0.64005421584615 
0.5798706185388468 
-0.01611115885946374 
0.118871962075915 
0.1029634634401311 
0.4663548453938226 
-0.09374626810166221 
0.246154540268908 
-0.3787244459351288 
-0.2409115976307716 
-0.2516471159474734 
0.9403726693618624 
-0.2200511976220857 
0.09064411246755055 
0.2202876191980663 
-0.261357958806433 
-0.3556285087361911 
0.4005093591727054 
0.4450864613121646 
0.6909890795536668 
0.02085370109011487 
-0.6097805097228032 
-0.002812932574912633 
-0.3197271116463563 
0.2419745870197503 
0.01917472026152293 
0.0108236513584305 
-0.6039584442453031 
-0.06228951984203181 
-0.09882294674103105 
-0.1551342043475367 
1.541704265390489 
-0.1658066899776178 
0.02350196648237101 
-1.755603247451289 
-0.01057803932189093 
-0.0833617082091941 
-0.7001850222678635 
0.09961838394029536 
-0.8049330111153863 
0.03804548225651151 
-0.03365875351163365 
-0.0198986353456549 
0.2170899912956702 
-0.001608105079000603 
-0.2596868961674713 
0.07790550841308229 
0.161296489998149 
-1.076437894804103 
1.04827364766965 
-0.2640062732713762 
-0.5025859827337138 
0.188304855551212 
0.2684711094204566 
-0.6714019118175596 
-0.3331002761087073 
0.09485941560119074 
0.3735190994745817 
0.09301427938239708 
-0.2189311627962453 
0.1758463053974963 
-0.2015506612014142 
-0.1435048439148364 
0.2751546415375636 
-0.0396132361923204 
0.371205281785722 
-0.4418905905986033 
-0.1003650441355983 
-0.2158017955866293 
-0.04863756788589632 
-0.2035784760051987 
-0.09959736883570885 
-0.0614859879694464 
-0.1465933470050624 
-0.3219968899843229 
-0.5522371412788941 
0.0643861402325627 
-0.6725349186367759 
0.03037147644876975 
-0.09586272885114361 
-0.01707678859155152 
-0.04811845530401441 
0.04678115522056667 
-1.055871539794246 
-0.1860567393615709 
-0.2495288234698623 
0.6242153210491667 
-0.4144569095679538 
0.08601603899132175 
-0.3981340478844513 
-0.00885289458799849 
-0.1936691634204366 
-0.4451216842426352 
-0.03275666686873758 
-0.129450854156247 
0.1042490599906123 
0.4110038667441815 
-0.2444776054737413 
-0.1700524443729647 
0.3744561727916364 
-0.4694482520614336 
0.1069149183253999 
0.3337077011895122 
-0.01879521413370502 
-0.0430010661187633 
0.441229971364143 
-0.529339064138351 
-0.03670178938776269 
0.7269945957350175 
0.4835684877036261 
0.6514424464393438 
-0.2490096219821468 
0.2731677916443763 
-0.01706591081944574 
-0.5368897475136417 
-0.5624160864570891 
0.4682437971199407 
0.2021065280410952 
-0.01021053083523557 
-0.0807839972226151 
0.5539242755372922 
-0.1164360278902519 
-0.3761787789035016 
-0.1275347861976338 
0.1876612973567817 
-0.4827358763130311 
0.0638053645064009 
0.219624741704091 
-0.100765356175122 
-0.03441272468598488 
0.533951808316261 
0.1352565676288692 
0.7979416478213708 
-1.693668847814575e-18 
0.3585721516714536 
0.7906861811790433 
-0.5263204407418354 
-0.5399189951915607 
0.4297611164569278 
0.1642944555711148 
-0.4941290175039026 
-0.6457200881375286 
-0.6413455739925201 
0.5674854771971419 
-0.3057569390078463 
-0.008968899145188643 
-0.4730107179491085 
-0.2028315550821727 
0.9818137979849683 
-0.2157274202739805 
0.01746154091496409 
-0.1455014175286974 
0.5659669729724216 
-0.06097528589068972 
0.380622543304741 
0.7394516065440911 
-0.1244590973980292 
0.4286634589104382 
0.1653056684560835 
0.215169709247855 
-0.2778451654721216 
-0.064035385080275 
0.6081859732467135 
0.05642048579207904 
-0.009922562157786976 
0.5680062086755006 
0.2985311468827825 
-0.5450456503428331 
0.7372511608589687 
0.6478966306026865 
0.08379484142247197 
0.4764150477742527 
0.3207056075480932 
0.02360812869991925 
0.0453645764413159 
-0.06831874957692642 
-0.5362097618966568 
-0.5797150924748337 
0.02110349193804783 
3.242018605615835e-18 
-0.0217099426531881 
-0.3633018690521599 
0.8652000258372493 
0.1478321965020101 
-0.4834254513769542 
-0.8670627046331708 
1.294140481711316 
-0.5427176608252975 
-0.4657766783867376 
-0.3450523485308223 
0.1048696008349249 
-0.2658894104630559 
0.3522914869432354 
-0.8996488003025135 
0.320671679780803 
-0.5553745302707177 
0.9236342367634169 
-0.05373339260112721 
0.07716911328025118 
0.04494435748230401 
-0.09641076528734335 
-0.4857851054215697 
0.150688028628107 
0.06731810525219255 
0.3368065005834452 
0.4667227545146418 
-0.1360034316072285 
-5.585123495958043e-19 
0.006959390355951508 
1.485397181445096 
-0.3893869941306911 
-0.4490366381299328 
0.07864169614331241 
0.008788969145316681 
0.6447633568596937 
-0.09155410186956631 
0.02899288608549976 
-0.006637317576868996 
-0.06278717313320632 
-0.7327964258609877 
-0.4661610861707802 
-0.04329609900667593 
-0.006369912231554301 
-0.4870859704998825 
0.2712401766343902 
0.1453467575233842 
0.3957418250308796 
1.186519598116728 
-0.6196313605585682 
-0.347337127079128 
0.03625261350653919 
-0.4842264260510207 
-0.1690685464778643 
-0.009861224588753548 
0.2057965750213091 
1.3063710887381 
0.2499193844061026 
0.09886381386994587 
-0.085205249769585 
-0.4889779359059792 
0.02809530579548835 
0.6265397527357524 
0.08010898126160339 
0.2346036038447638 
0.1161895884948197 
0.36310145680888 
-1.211559789015192 
0.9175766669941513 
-0.003612385777310666 
0.06957016818027106 
-0.02961301262134988 
0.0005519616324820318 
-0.3995106554123068 
-0.6638902330054375 
0.4208134911693329 
0.04257371041693778 
-0.1573695020225425 
-0.1301829242681402 
-0.03958112448786554 
0.8733192929109977 
-0.5006483064201874 
-0.1154877964229823 
-0.3331783086747277 
-0.7216132215749528 
-0.6509775741463685 
-0.1248432957896854 
0.2814073107073722 
-0.4139600382487559 
0.3559009093273652 
0.6295863605922941 
0.0359714873911416 
-1.211257114573649e-19 
-6.996492144320521e-19 
-0.01884740612176692 
-0.5034979789517329 
-0.01991733260773844 
0.8042153001316543 
0.6280282372448066 
0.9403567099108006 
-0.8162436499661629 
0.5936795336879854 
-0.6873447148084522 
-0.363361538380421 
-0.2924161568476347 
0.02383082788571774 
0.01648870836604118 
0.08926184196680446 
-0.4235008947423594 
0.6073354632568618 
-0.2894613088615542 
0.8394554155475916 
0.6519347884576234 
-0.1801525047261747 
0.3624109998674652 
-0.05678081551796653 
-0.001994382168379653 
0.2364228777853727 
-0.3465317302364378 
0.4168325018280217 
0.110640534553092 
0.2798292224144947 
0.7095429399423629 
0.1978688740345906 
0.09874077564841202 
0.0335964095048597 
-0.1784343352848398 
1.311597528055149 
0.08038620496608738 
0.02219578684810671 
0.2952019734990744 
0.5131873814946393 
-0.00862238428691923 
-0.1018718916857571 
0.09887224899958139 
-0.004915963662516305 
0.3535950528735359 
-7.713770231967303e-18 
0.3283908285806658 
-0.2808955782499218 
0.2969528947842575 
0.01856090039302366 
0.2588849917483339 
-0.1177780982408397 
-0.3758214783698343 
-0.6053589994625025 
-0.9264230851931019 
-0.03728991353710098 
-0.1806531246835114 
0.9544899334529493 
-0.2797186294660199 
0.6473410596500334 
1.38551882784787 
-0.2261113650297459 
-0.9996433531452994 
-0.1506597582709265 
-0.1034702430452105 
-0.3419880293807554 
-0.09964902361071441 
0.057926870889059 
0.2450747491196035 
1.571140400117805 
-0.01236874708348012 
-0.08552471951002968 
-0.3881336343920489 
0.1866691771988709 
0.4948876495380153 
-0.2980500008041202 
-0.06530133590987762 
-0.7991439995406906 
0.04661348237428643 
1.047469702087395 
-0.8213269373885569 
0.9164546467713984 
0.09469841710811691 
0.583947103817812 
0.3948879023695931 
0.4026606688228183 
0.02550519850601658 
0.02326157655100771 
0.591205043718626 
-0.2735100421939893 
-0.04252084794321627 
0.3198358417135764 
-0.9423046720380546 
0.05119190875233792 
-0.2012633498319731 
-0.323672683329377 
-0.009355908261820195 
-0.2733553938173927 
-0.09496719414835025 
-0.6270579847756307 
0.2140136616540131 
0.6265631402087672 
-0.1238271435152653 
0.06913415397054086 
0.3584853377806281 
0.02491734706576085 
1.324021490099952 
-0.4918592683752021 
-0.01164274441469345 
-0.07748519210207756 
-0.1204527438327754 
-0.03246102281152678 
0.2226927892402916 
0.2069011850585603 
0.6004835908348114 
-0.2368087241383244 
0.04235030117973992 
0.008678994175116424 
-0.4527933898505522 
-0.7873895647724037 
1.057190210220207 
0.219769976719042 
0.7975683871391359 
0.2150877201271309 
0.1540666331035142 
-0.05144146833778845 
-0.04129681271375126 
0.4563165431323327 
0.8224371658290296 
0.7027516618870636 
-0.1919500106638987 
0.1600518880246214 
-0.03594274453919496 
-3.131374926880742e-18 
0 
-7.101524229780054e-18 
0 
0.03340929704516282 
0.01864418681115004 
-0.06426910016462674 
-0.1012256585768037 
0.2839264517835249 
-0.3897743696871167 
-0.03954046357842328 
0.1205497464415578 
-0.4653114910449335 
-0.2304159213788678 
-0.0004769028461071047 
0.2528853623598957 
-0.2291266615059482 
-0.1814991383305917 
-0.4342296586461685 
0.8823373439200022 
-0.1707682536123706 
0.7040408573764616 
-0.004712937577975785 
-0.04428938917010632 
-1.438261944437802e-18 
-0.3296554181851759 
-0.5649023564330643 
-1.342581442024826 
1.084361911929087 
-0.01368176157848769 
-0.003511732000897987 
0.04459162186896116 
-0.6250089381915568 
-0.005197433629240598 
1.48377809963292 
-0.4848799921217017 
0.1126616632972859 
0.06642188851352658 
-0.4235810104652213 
0 
0.0720521489858329 
-1.143553765036643 
-0.01067126375557705 
-0.4874366674647598 
-0.7368547765617264 
-7.808584982500581e-21 
0.6894286319668699 
0.602195091365177 
0.3121146524467495 
0.09710414742720792 
0.7528763106455192 
-0.0004403833586686188 
0.04537591627398312 
0.248043535927547 
-0.04408908800264533 
0.007521478922487342 
-0.01790184932080517 
1.443879360321553 
0.3772416919033029 
-0.4219262853528102 
0.02551195946214329 
0.9314364352057118 
0.04658700750381548 
0.156203005922756 
-0.4287616149570125 
0.5384689225415509 
-1.280875061349357 
0.05778977726682424 
0.3077455123836536 
-0.08554845793296571 
-0.2871283565756442 
0.07336160103927765 
0.4601471442081219 
0.6917444154368568 
1.081746732801539 
0.6648482361836711 
0.06655698603413407 
-0.001294865409411187 
-0.5487065812417724 
0.02558886575438621 
0.1182187132909094 
-0.3436529045293055 
0.3143864350354074 
-0.5779904818351086 
0.0985331127203187 
0.525366466983614 
0.2166452943705614 
-0.1566626109388082 
0.09255531495316019 
0.2155496291174051 
-0.0524569500802108 
0.4944575521169219 
-0.04270060786914993 
0.06539050931067421 
0.4336198471810963 
-0.2002484427555161 
-0.1348808479921118 
-0.6611141937643257 
3.872634634846661e-18 
0.09067547048896459 
-0.3488908846249229 
0.302956667089344 
0.3812345802190852 
-0.5065669669303062 
0.1248669097588621 
0.6521626677237381 
0.4433854926478195 
0.09701442759919134 
-0.1794486217453906 
-0.05016879293056557 
-0.1706432712790044 
-0.06699654860073812 
-0.7010136497270286 
0.388273467244746 
-0.1588241588012664 
0.37388350031364 
0.05234501591749031 
0.3610646485492567 
-0.06770730966285909 
0.2375677206727877 
0.1234098934479932 
0.1061363472157453 
0.1398267846554632 
0.8400438556041846 
-0.04479851090595391 
-0.01443591476205534 
0.1081210908370751 
-0.3117657536399289 
-0.1327944007998013 
1.012780785490971 
-0.141543340246121 
-0.4931426610612148 
0.2102013160073251 
0.1332742571845325 
-0.1975487793041627 
-0.07119167235252699 
0.1642693469380204 
0.7801556048394674 
0.2585595413549757 
-0.4435225963394576 
0.06022712138147853 
-0.1513120193605649 
0.02805904393426694 
0.2134589201584618 
0.4240060804449583 
0.04471806281812066 
0.3624518488164846 
0.3211414732494571 
0.1828262407302755 
-0.6138072480274626 
-0.2720230884792472 
0.239832963255581 
0.05397946784045622 
0.8296597383902135 
-0.2670519998353073 
-0.3579728812423055 
0.02480024164324763 
-0.01517979437945234 
-0.09993361581096227 
-0.4383396404074862 
0.187151348679976 
0.2315522588950396 
-7.606355866343617e-19 
0.6918919846096203 
-0.05744071019829499 
-0.0414507298042975 
-0.1312303603507885 
-0.2825020208450171 
-1.602633770532038 
-0.01862917948834553 
0.1072579741926116 
0.05947041940215517 
0.06559249399235188 
0 
0.05149533106475287 
0.1228863083124555 
-0.3357471130278115 
0.08816399128515119 
0.3304530129007567 
-0.008739256446540909 
0.7308657887928177 
1.002955664455792 
0.3468748756234208 
-0.5765206762814331 
1.552611392317133e-18 
-0.07313895799542962 
1.04018569125276 
0.2708506820916439 
-0.2086014361902385 
-0.1509243083017287 
-0.4790490158266994 
-0.3174762246017303 
0.1439662816579764 
-0.8103961664854844 
-0.6743303631998879 
0.0551454540274892 
0.4917950459985369 
-0.3656281904297417 
0.1798199196325576 
1.054124719703826 
-0.00629167243966611 
0.08023496122144345 
0.03877325507294662 
-0.4123151907486201 
-0.9338281065099778 
0.4598691077754418 
0.1524400992494127 
1.54242922188635 
-0.2576562538406879 
-0.6569885515294919 
-0.0184800802188662 
0.002542574972863538 
-0.05548394890235703 
-0.1172230687430366 
0.2727657077781425 
0.1183329266389115 
-0.0827513694855186 
0.01122682581674588 
0.009406828431223943 
1.204965317657274 
-0.06231256405767063 
0.2549468180048883 
-0.7693992917657233 
-0.1197438418007458 
0.5572429758431208 
-1.122371594671151e-18 
-0.4842673490338162 
0.02139636080229791 
-2.451101591117132e-20 
-0.1407609499003789 
0.721936647510249 
0.07844061610490954 
0.0362245435465448 
-0.3833940930727875 
0.2846143357747197 
0.6492680604647288 
0.1671431400232053 
-0.4885216397805183 
-0.7871410883553738 
-0.02629358955375919 
0.2532107302842093 
0.4443747687303993 
0.152956324006676 
-0.02821563087330987 
-0.2373099618226144 
0.1622170259887614 
-0.6355559334236509 
-0.1242566414801935 
-0.6292000331065465 
-1.1241878893469 
0.7850701547268176 
-0.4688620283344887 
-0.02720344970956859 
0.5709937878619868 
0.5104447367427621 
-0.5109767035099197 
0.2471822822331571 
-0.2748713134751785 
-0.3873696655091836 
0.2223692676194375 
0.1606853416551464 
-0.1005709424841382 
-0.1121839265354971 
0.03583573290669681 
-5.54681571504156e-05 
-0.01953906469428594 
-0.322425406637776 
-0.02552176384614999 
-0.261661729616836 
0.1955777504559807 
0.587206220035864 
0.6966938679362469 
0.002712921288342733 
0.3627879108428171 
-0.38260921635661 
0.09567409823258918 
2.137911158869854e-18 
0.1843263997694387 
-0.5118473022847155 
0.9609448070829754 
0.2557032425405854 
-4.065758146820642e-20 
-0.6561064251819322 
0.05499781491638674 
0.02238789100522392 
0.1665551642452241 
-0.1919710174759711 
-0.0306598679617947 
-0.03082549259396154 
-0.09271061453569572 
0.9746895297460006 
0.3020334966872662 
1.16167096410858 
-0.03866591925743913 
0.1819445805221515 
0.2859050115497925 
0.0844612296064516 
-0.2365881996777224 
0.2593345556254302 
-0.3250102640926384 
-0.3643852986189582 
-0.4422301863704318 
0.4781433161005031 
0.1861382652456042 
-0.002113909936236356 
-0.03795228190303376 
-0.01900701560465583 
0.3289276368250998 
-0.08408404093002364 
0.6587846606547537 
-0.6863342055171144 
-0.08656529433657938 
0.3337706678081657 
-0.9429423714965574 
-0.3741220191434378 
-0.3766100844193009 
0.7283093433933295 
0.1186343694773525 
0.2861931167831393 
0.239909519000464 
0 
0.361221833223149 
-0.3614087650099951 
-0.3618702245386506 
-0.02735706945155421 
-0.3615174371707 
-0.04680358197258184 
-0.01410162605469907 
-0.235333745628968 
-0.3846440026982617 
-0.2549478151330188 
0.08497265236294496 
0.7576675277929699 
0.1589712962089933 
-0.0202466118264736 
-0.3560002018108927 
0.1331071766474224 
0.895671637632322 
-0.284213035802955 
-0.4628952998407166 
-0.06281439638173356 
0.8197745303247775 
1.197238989179888 
0.4379277690827931 
-0.02340595884684445 
-0.01373826416455691 
0.05048360267305808 
0.1951492391853548 
-0.2571987390122568 
-0.4099388891836671 
0.466014512726782 
-0.1180559559825302 
0.3314612567290209 
0.03443324006964319 
0.3635775340025285 
-0.1221562278855483 
-0.02610384024419709 
0.5153542076272902 
-0.5578126137731076 
-0.5230355141697629 
-0.389575656416513 
-0.09859888017841059 
-0.4584781236495801 
-2.53686367702663e-18 
0.05238308987774736 
-0.1295564064894363 
-0.5122250951756445 
-0.01426413203592454 
-0.5390399161989778 
0.3219900308270789 
-0.5945365009516401 
-0.5947652881744663 
1.198249346815642 
0.290061359472575 
0.5114985852585024 
0.7726889490847793 
-0.2943920783768314 
0.4201698350634848 
-0.8319396687523074 
-0.2391148171184103 
-0.1980868740045269 
-0.2409799029561581 
-0.3995012666373611 
-0.7557954891232193 
0.439212120611962 
0.1693789874459084 
-0.6797278007099965 
1.19461584164329 
0.02410176066881437 
0 
0.5819489194294071 
0.1688663352027928 
-0.369959693952399 
1.108913778504784 
0.09267341632804441 
0.5538744806282407 
0.4378398494690866 
-0.1467283313145572 
0.48387657921427 
-0.3879987042996043 
0.5907694295492426 
-0.07010300155772309 
0.8134663908219674 
-0.4829997759938731 
0.007592650890915254 
-1.028719527389788 
-0.5071988691394518 
0.6715049931668646 
-0.1221529160632047 
-0.146597231933834 
-0.5991811831959943 
0.3917148457593642 
-0.3049035856312098 
0.2656844921631051 
-0.4201567032889354 
-0.5128224914517233 
0.4910274377895279 
0.6049024758292688 
0.204342187161321 
-0.2951912736576096 
0.1340457313923112 
-0.2595461639099355 
-0.05343337170891343 
0.00360649023621554 
0.08623881080278509 
0.003596833458992331 
0.354130336401502 
-0.8880038411767449 
-0.06489873954414792 
-0.1510871000638366 
0.1043261178771965 
1.323039547720344 
0.01110959313963199 
0.8703749377105287 
-0.2118689371331646 
-0.04287140555555211 
-1.176571274430515 
0.6008636934718848 
-0.08202235890039153 
0.1767706078791172 
0.373534999868705 
-0.009464877781391316 
0.005403856546528938 
-0.5192646952182939 
-0.08318426900808128 
-0.02437279759683424 
-0.03598516659126821 
-0.3993632188951281 
0.02208550339299321 
-0.2765445813056166 
-0.2049539795888308 
1.00161646012821e-19 
0 
0.01159736929661393 
-0.6874560493420377 
-0.5253572833969807 
-0.4429950448814026 
0.1838884017366937 
-0.07688066188975538 
-0.3644609328095055 
0.1385429167370212 
0.3676860400846058 
-0.2003985307517017 
-0.3375856834609601 
0.4212688530347529 
-0.009776362232237828 
-0.04531775678745492 
-0.277531164710769 
-0.1978333014232194 
-0.08427939207409485 
0.1801011906287356 
0.6380547191744984 
0.1955535466651226 
-0.01155890399927378 
0.14171288092033 
0.03909530131479481 
-0.00612272740575738 
0.05707403708309621 
-0.08848277791439445 
-0.1533439899678618 
0.2987434408786991 
0.4128011476162731 
0.3629083942698618 
0.7875429900835531 
-0.05282139633084674 
-0.380386221657605 
-0.2926277466892676 
-0.1500256644756637 
2.488371040796321e-18 
0.8641867769215128 
-0.02625551263630274 
0.1654528589325029 
0.2221308258583859 
-0.3588245941700063 
0.6213460819750437 
-0.4356875217108342 
-0.05800899490373146 
0.2235413754477782 
-0.1125405128601424 
0.0984784469568169 
-0.01833064052794026 
-0.03028936077192715 
1.098642203392357 
-0.2679892297440716 
-0.09191209097170666 
0.02478842935823936 
0.06592315158608913 
-0.2401360018945495 
0.529079960078956 
0.1903029475224281 
0.2300499969025829 
0 
-0.2771722127138053 
0.03678747264569606 
0.09455078969958822 
0.136424248601078 
-0.02208780071764939 
0.4875728222642232 
0.06235550829006928 
0.164591487067151 
-0.09292109221216679 
-0.01219302776569583 
0.8035873682746042 
0.04810071238082063 
-0.05048299397504834 
0.9179576398668188 
-0.558038211476245 
0.4189578815411188 
-0.4368718463373794 
0.1829885418537846 
-0.03586225138514378 
-0.08233036432764861 
0.5423938617017262 
0.6178989456575642 
0.4235195635583469 
0.02042992648377003 
-0.009494315073198003 
-0.1391916512228644 
0.1306106614532715 
-0.2940352405883498 
0.03090018357823863 
0.3184301368493674 
0.1707717389900013 
0.08257285404557914 
-0.2018670642891169 
-0.04958913159425685 
-0.1115546058173136 
1.132718059405314 
-0.184038528810844 
0.04066191410609707 
0.2440996241965476 
0.09084471315095938 
-0.5846639319809434 
0.3380919361231187 
-0.04724685592900688 
-1.253608761936365e-19 
-0.4201700398274574 
-0.6018744771994972 
0.7407024135861002 
-0.3061826031598218 
0.165780331886576 
-0.1294869127700254 
0.03141255955067999 
0.009104687478118023 
0.8044719044537505 
0.0179571771806025 
0.1815870276051819 
0 
0.0405121188827333 
0.2855833734943356 
0.3527637226259128 
-0.5490011687133679 
-0.8537311637073457 
-0.02786377818955137 
-0.05837150092264303 
-0.05623687592510634 
0.2616615590621816 
0.1026968097579684 
0.6370222450517898 
-0.1694761146563901 
-0.2335736693748284 
-0.18588364726768 
-0.02716879145533709 
-0.2577162285483333 
-0.01038705110929032 
0.641853713528343 
-0.06388438061761173 
-0.3083042829659107 
-0.1435880728622877 
0.04180352190955976 
-0.6671708932979659 
0.6045387531483642 
0.1322970091028293 
-0.2112708121003485 
-0.7796401585725887 
0.481872783053592 
-0.452700121685411 
0.2562756754978095 
0 
0.4195085807746036 
0.2408179891824814 
0.3119278137759305 
-0.2605015302608587 
-0.02287194551109235 
-0.0510275366745921 
1.688854656649517e-20 
-0.2116306588139268 
-0.5976068291556441 
-0.02715591221605599 
0.2761687236618458 
0.4721948983087284 
0.07983624264151654 
-0.010211785643543 
0.3176471861332867 
-0.3099899870830002 
0.4237447111957217 
0.08022949800143742 
-0.2997971752887271 
-0.003598072800220152 
-0.8023198078606786 
0.02937693251145955 
-0.4192574477943549 
-0.1617313379067592 
-0.5462315944385255 
-0.06057722491887541 
-0.08138778457852888 
0.01969879255694501 
-0.1153236914037102 
-0.04008425911077095 
1.458202648438364 
-0.1994946853316555 
-0.5496045602707365 
0.08741281146418806 
-0.1247970501377159 
0.07966405301239246 
-0.5223536325536356 
-0.1666365599797424 
-0.0380926247076569 
1.169944621977501 
-0.03359751481891454 
-0.2454134559740879 
-0.01180860222534136 
-0.4123125553616418 
0.797433111596231 
0.439608788642652 
-0.2121894380678083 
0.696901045267086 
-0.288280683421439 
0.2812754757130405 
0.3169808318561743 
1.028010396295318 
0.03714563959916987 
1.396601807325302 
-0.7141612454989023 
0.034410607961998 
0.3199630324870756 
-0.01084277773773397 
-0.8793296920298572 
-0.008623114178657925 
0.00583895907326291 
0.02652302310084793 
0.03913417112270621 
-0.4024794900059068 
0.4791918343156371 
-0.3805301853756557 
-0.3068101112762255 
0.1986696103150137 
0.3443498246573866 
0.00614105346331642 
-0.2386414870087039 
-0.02187931249240418 
-0.04269708488123573 
0.1863779635353948 
-0.03758049352633497 
-0.08972865056300537 
0.4099286281111234 
-0.245181847111882 
0.2480543239304425 
-0.2390323065269008 
0.06337109976296303 
-0.01864536721019159 
-0.0134960603558465 
-0.1735160082725968 
-0.6577433187503471 
0.02865798683140687 
0.6735134168515912 
-0.295398731036925 
-0.04274824069954156 
0.05437428296023548 
0.2562859865657166 
0.007065141207972225 
0.01649678941714926 
-0.4485077749475286 
-0.1802944006967509 
-0.0419580586298262 
0.08756419967552928 
-0.01955575579861392 
-0.09545663993265736 
-0.07613675585167291 
0.6559444400932277 
0.3626364221779653 
-0.5959303469551667 
0.4455106524734262 
0.4826261644538882 
0.2124469720046467 
0.8296874504095408 
3.816942218564691e-20 
-0.006170063223598717 
0.349701625493269 
-0.1798322561778299 
-0.1119492443258678 
0.3395805524083002 
-0.04334569011200117 
-0.1832880434409908 
0.132539179320851 
0.0543348125722879 
0.08762623884709086 
0.2472580028277959 
0.1201895529240283 
0.456451300825888 
-0.1326298775425339 
0.04706861339365118 
0.4474618941889346 
0.781831118754881 
-0.0872331231647327 
0.3010148103706837 
-0.4414384540032638 
-0.4557603188064951 
0.01397775126369948 
-1.673744157710749 
0.03059188998908227 
0.1457979780252072 
0.278260505996285 
-0.3798221013613959 
0.1358719975814977 
0.9529785256351543 
0.3021305008210659 
0.0362093433998242 
0.05612376688933584 
-0.8902859428899726 
0.101436262686355 
-0.05291402747123648 
0.008777527536003011 
0.1701667581633707 
-0.6753422341607148 
-0.03431948276382935 
-0.1379408574668767 
0.1029149315039923 
1.332141018931611 
0.1977728593834082 
0.1461141236361813 
-0.3238242499456216 
0.4207830756302783 
0.2167107866435991 
0.09321897281765683 
0.08350011705078522 
-0.03628962786428409 
0.6815066579874905 
-0.119358608228344 
0.1883376414268187 
-0.3325089309617729 
0 
-0.6463267949318188 
0.175165196319507 
0.1132045144799768 
0.4518125479926601 
0.05735271238459985 
0.4684747766518709 
0.0693281360894171 
-0.1792996584628163 
0.233459949780337 
0.7357238373302979 
0.002501329518146566 
-0.05477656710484733 
0.0906312820489772 
0.02545010020869795 
0.2469875367597159 
-0.1916843865500938 
0.6300339228900383 
0.09361649009575278 
-0.5168468181232997 
0.3511224151077668 
1.115008804670107 
-0.5539098562544408 
-0.3777664780395348 
-0.05496208334050393 
0.1325867650091959 
0.4619318679877235 
0.2828980720186219 
0.587260074385863 
-0.1534817520254694 
0.7410802859114527 
-0.1225939374727399 
-0.3969816294768663 
-0.7511911900799787 
0.2447942659477756 
-0.06198805491026831 
-0.5978695849219511 
-0.1894387909873459 
0.009216181616023866 
0.6779299597405894 
-0.4421648854524738 
-0.02641473940272677 
0.7345779767310258 
-0.2120099573700051 
-0.04452209509442466 
0.9370200192854057 
0.9705349797042446 
-0.1496229397791713 
0.3312380136937976 
-0.02840753522492763 
0.2470159088349963 
-0.1544008080859069 
3.357638602916047e-18 
0 
4.217165286142348e-19 
0.239332825369961 
0.5388810999606085 
-0.05844889289120291 
0.05274808941457758 
0.04083221795557707 
-0.0750349178382958 
-0.3840781784142549 
-0.5328269075510252 
0.4449288905810518 
-0.2309548644965721 
-0.4136274531750633 
0.6793457443944186 
-0.3325111588790413 
0.2788790656944998 
-0.4083962572860534 
-0.1909395824226842 
0 
0.1989409576799889 
-0.833909717739026 
-0.006368357331343711 
0.5136168156951461 
-0.06800925521786233 
-0.2471314830218449 
-0.3747319912021913 
-0.2586783379310705 
0.8686127102202039 
-0.02394640844827373 
0.236233382670732 
0.2601116161960378 
0.04770868495740218 
0.3568258722063805 
0.2205470712714415 
0.7321856153879048 
-0.6615104108664779 
0.4229282505814417 
-0.3673877385157643 
-0.6719639400562605 
-0.3473277961978916 
0 
0.4469471096109885 
0.1889044917889746 
-0.5255881500297506 
0.6670920999932778 
-0.05406392437303585 
0.294892436566293 
0.5107444380982202 
-1.632656005832664e-19 
0.1268526187970072 
0.007628960014352342 
0.01303846829663815 
0.4268026782738928 
0.05096546566349708 
0.4914246723789225 
0.1125218290353019 
0.8025096630929875 
0.9195509814057723 
0.5491911025886385 
0.3247005386529612 
-0.6274189757757465 
-0.002446471044107245 
0.7598723574553609 
-0.4065173265864573 
0.01537824079935226 
0.3972600475692777 
-0.5510226769796072 
0.1661140875088336 
0.04800561723096439 
-0.3315571306478591 
0.8989967819052236 
-0.257333685181068 
0.4946279839039557 
-0.7427577551310919 
1.099632104495951 
-0.4003720984489106 
-0.01755918298973282 
-0.05638903145612604 
-0.6263846020987197 
0.1808961601897432 
-0.2380853484848155 
-0.2326250427814056 
0.07132344259130334 
-0.452724069442981 
0.2660101981530301 
0.1244532267016343 
0.009416809791184247 
-0.3570281123732884 
0.02419948348014606 
0.06696935179310341 
5.038151970268578e-18 
-0.01117228304793048 
1.448015258959942 
0.3879498684959432 
1.222055800591982 
-0.5275095427671502 
0.2622268206120777 
-0.4750523921748453 
0.6440070973334431 
-0.2001415825121211 
0.5329250639814972 
-0.1746563214350158 
0.4991277664700846 
0.2725067266115878 
0.4728576301631781 
-0.1066132764942308 
-0.4172871708663906 
0.1330357880615709 
0.2515038485717218 
-0.4651378119632179 
-0.0690220685860061 
-0.2975881684079671 
0.5823850910820125 
0.03182115022534803 
-0.6479575963963078 
-0.2104001253096807 
0.3510247567547646 
-0.1051455419582045 
0.7642971711241959 
-0.09599773614372563 
-0.01668626209073537 
-0.1212782989533121 
0.8927108995049653 
0.05720248768131331 
0.1353542597599829 
0.07994963196062768 
0.04362606139847622 
-0.4970780389422944 
-1.177940210119367 
0.4405589071868289 
0.03239569092550966 
0.6692526033594842 
0.09191161896095917 
-0.7148210681243067 
7.528005318722594e-20 
-0.4301506382586943 
-0.3320270366113843 
0.5670456208266583 
0.4826289488473386 
1.708224426597117 
-0.002648110890915599 
0.2686066033718375 
-0.1350141137744325 
0.2072747664827767 
0.3965218642988701 
-0.6881901849883805 
-0.8807592536273874 
-0.1724668828535485 
-0.006764937565533977 
-0.3857936246454455 
0.1572385562535369 
0.300144138561111 
0.2232950648058023 
0.4334008557616436 
-0.6711763941602018 
-0.001580691335244004 
0.7469310792645754 
-0.05939584692324997 
-0.06621270397995221 
0.4856627701038554 
-0.640928233810052 
0.8867657185248745 
0.1718939624663597 
0.2758744774705056 
-0.6714959791973948 
-0.01452232486933347 
0.03087080729188997 
0.5562842639584124 
-0.1754861876451481 
-0.8669481966450245 
-0.1765703577075174 
-0.3098616880855065 
-0.5831439753581203 
-0.642016052583543 
0.6851623208059421 
-0.003720979971301167 
-0.333400240337893 
-0.01692224079986827 
-0.5371308868162115 
0.5183380509288136 
-0.003849350178038291 
0.02390831507684796 
-0.4491734771634245 
-0.2041584407219004 
-0.02002226042800139 
0.3431046121465328 
0.4302421889264139 
-0.496996517020508 
0.4513364951576563 
-0.6409887086013051 
0 
-0.651154852192916 
0.4321839092134255 
0.4360949956761772 
-0.1907923469911462 
0.02277985149529463 
-0.08805641639853212 
-0.05810677960029118 
0.5140648243675195 
-1.012715104134027 
-0.7546211466879716 
-0.6132753734558762 
-0.2844476422931757 
0.1401833860839949 
0.8074742061139921 
-0.4301429104626052 
0.5855844311970884 
0.5608820374718513 
-0.3487962543053076 
-0.04322552836830237 
-0.4783678242949149 
0.1848321900132298 
0.4952980778964767 
-0.09245364364446887 
-0.1068955603043044 
0.07917673585067583 
0.003130586597398258 
-0.03765357309568378 
0.2327896959816395 
0.2303201451932617 
0.4353860892948344 
-0.2020995088258606 
0.7362915713049839 
-0.61336020814726 
0.1375046861462874 
-0.5468405870292922 
0.1783155471790165 
0.2059711373207383 
0.1190533144674682 
-1.279019750353994e-19 
0.1980145011167886 
0.589131620241784 
-0.2059995086255968 
-0.1991224418727341 
0.2886601883661123 
0.1585451878686916 
-1.353032705455457 
0.462785439659548 
0.6935121034216239 
0.07646969981721148 
-0.2165704078730811 
4.887380105657313e-19 
-0.03462250079729078 
0.5260594324771692 
3.052494983667685e-19 
0.2404115594735436 
-0.1871057046435911 
0.3296979685777423 
0.4793840829713825 
-0.2157202545214658 
0.08178302210544378 
-0.009814410369176508 
0.1851460042975178 
-0.2055957977427576 
0.1509172426148687 
-0.4791518347543347 
0.5533889019432134 
-0.3821403230889069 
-2.140875774185244e-19 
-0.0959847193885336 
0.4351866449449606 
0.113358002312271 
0.7234934512660526 
0.1180781519621782 
-0.009116773657885737 
-0.01820319885330157 
-0.06544710486659731 
0.03763353311046756 
0.3185563296457455 
0.1216700741179322 
0.3442731234996882 
0.3771679899122081 
1.186673502751281 
0.3810274188535775 
0.3683261419071166 
0 
-0.1022606378806512 
-0.542547409720311 
-0.3135766743608082 
0.4725908362155019 
-0.03194792094025373 
-0.09633885362768702 
0.003470406149774765 
0.4003752874485544 
0.354293069523841 
-0.9451204603428505 
0.8938978545045869 
0.03718434715161304 
0.1497476011022899 
0.0220424353396098 
0.9491411263689536 
