solver_type L2R_L2LOSS_SVC_DUAL
nr_class 2
label 1 -1
nr_feature 5000
bias -1
w
0.7295246913167127 
-1.069075148714776 
0.124793892618971 
-0.140504058463244 
-1.677225668244023 
-0.7625017883728836 
-1.177712355127038 
5.594471827649984 
-0.7057288836045728 
-0.781775331854399 
-0.4164366530364749 
-0.09764357515970874 
-0.0284567871590806 
-0.1705932904832356 
-0.8404064272131545 
-1.554415707214156 
-0.4810155716575703 
0.21990231367121 
3.346135709514714 
-1.322457973733295 
0.1844305812604394 
0.6149084151292022 
-0.7049117242293971 
-3.771577539624701 
-0.02410969568843632 
-1.330229094923892 
-0.1295467255461418 
-0.6277435564131654 
-2.504900860615523 
-0.7883262247814367 
-0.1087375628417094 
-0.1536622463327491 
0.1961335378226617 
-0.1278937125225874 
0.6719990498955752 
0.4336979570236905 
-0.2936392789966989 
0.06885991137509503 
-0.3698043906180633 
-0.7018551213039415 
0.6259798915179602 
0.5426406294351994 
0.1486773810884689 
0.09893598445432883 
-0.1651831665837525 
0.425686757026869 
0.9820219531837041 
-0.7468438606605785 
-0.5009915685018607 
1.235878359406918 
-0.5219175623700031 
4.267473076132408 
0.8278751570608028 
0.7659914715914162 
1.023321555794009 
-0.3084247785777099 
-1.096327245874199 
-1.279441119181008 
-0.3840765347444418 
-0.2521084453069478 
0.8602980007270039 
0.646719313692348 
0.1608573438864948 
0.04073808701612894 
-1.240517854489426 
-0.3417506501578345 
-0.5407023924905136 
2.790971425173315 
-2.800447883559156 
0.02763155003680336 
-0.1062197104661125 
0.2039566170478182 
0.4091193322314994 
0.426231241992531 
-0.8340964766268861 
-0.3605032115115623 
-0.8030320929003028 
-0.6599622992396035 
-0.1424413803681528 
-0.2285599197193239 
-0.7313298320750784 
-1.136383693670242 
-0.09491718644484519 
2.773557011839711 
-0.7827542021231404 
-0.5293487225944392 
0.3426365406612303 
-0.3680226013581386 
-0.07388375581685111 
-0.118351428511778 
0.2762654868619319 
-1.364485208252037 
0.09340382023005135 
-0.4244266537447397 
-0.4825664305677536 
-1.321562307233865 
-0.797151210313907 
-0.1937442390154601 
-1.436638666515161 
0.3046049466873357 
-0.9078880252485448 
0.09209385965093304 
-0.438795983535865 
-1.318325269221691 
0.1853981101147728 
-0.1531458887421207 
-0.4567726049480381 
-0.6423999595199794 
-0.2716867756032845 
0.2082075531922923 
0.2848847600258793 
-0.7070769795233419 
0.5520592035376286 
-0.2756586407135624 
-0.7022559538617195 
-0.2049371590644658 
0.1119966341271392 
0.3753023507120168 
0.5354004878171816 
-0.6222673745008273 
-0.08483420267642072 
0.1997145635398674 
0.1152528467160235 
-0.8062936105060873 
-0.1002002266043085 
-1.187549576973237 
-0.3475371274952643 
-0.0602995309594142 
-1.194392103999984 
-0.2262760615527855 
0.1830056032438172 
-1.844224160093773 
-1.292160469890838 
-0.2314278076679483 
-0.4541055568575181 
-0.04230446087651739 
0.385260800586859 
2.083494293005866 
0.119560238253271 
-0.704318821798287 
-0.5444164931759687 
-1.667155080294221 
-1.191487762537517 
-0.6367011221741142 
-0.1617802839594153 
0.3207035925031543 
0.0214366749927705 
-0.1699422165742137 
-0.344371965297719 
-0.204793700164063 
-0.08614096227326266 
-0.5380646862630322 
-0.5315217994188839 
0.7352620564898985 
-1.039515110682883 
-0.7065035824176179 
-0.1692177134512106 
1.478615342767925 
0.7210026105275138 
0.4141756137361781 
-0.314409381565503 
0.07170037965913724 
-0.6747569842921655 
-0.5504589812361568 
-1.391378696703562 
0.4470409532326109 
0.03623495096375638 
0.09632237839775978 
0.005253014266412431 
-0.6645061796472106 
2.240379902770731 
-0.3448124153424491 
-0.8665585478206085 
0.2913306899155559 
-1.487424817612591 
-0.5382069368270673 
1.258661914924183 
0.008841139450134147 
1.258691252515776 
-1.106570216131506 
-0.2309172675100704 
0.7148308107274759 
0.8022739389503188 
-0.9792430184279021 
-0.8236086237582577 
-0.5149820035810158 
-0.2690486393171014 
-0.6013290931770745 
-2.200898097061253 
0.6514433121897407 
0.2626424782767525 
3.098165345106921 
0.1170095204901496 
-0.5532163675049647 
-0.923800771570471 
-0.6453494727132988 
-0.03605368768475345 
0.3517406737456673 
-0.2980701655348275 
0.0684413228202489 
-0.4289838096446555 
-1.860887005905072 
-1.367939960935417 
0.23835567590988 
0.2270951252638443 
-0.4864830885347841 
-0.1918966223856905 
-0.3489352526132695 
-0.7642136939202452 
-1.025379559364105 
-0.122787376870044 
2.82755416848344 
0.6503295713004085 
-0.2419296778436756 
0.6028304908964335 
0.1152480473280399 
1.898298957116599 
-0.2924509306415151 
-0.3011185633833611 
0.1424844992707266 
-1.565620687900154 
-0.2251917043192626 
-0.1799169760980726 
0.3909390772300175 
0.661757361426866 
0.7883850345059105 
0.5143347273284611 
-0.5494155010891525 
-0.6424188656431077 
-0.5906053042214263 
-0.07976626873093208 
-0.07781443946542704 
-0.278188967953957 
1.729636568408629 
-0.2837934213672368 
-0.922950254634311 
-0.1299744499622379 
-0.07902704920769131 
1.056628580358734 
-0.1511718365612997 
-0.2013328482172738 
-0.1287214304123549 
-0.5939893816840104 
-0.436122534890887 
-0.418414498654648 
-0.603087341795115 
0.2281608289137776 
-0.2181549385919595 
-0.3254786864514974 
-0.8142451348843945 
0.5525643901440194 
-0.07552477251109262 
-0.8484292546777757 
-0.4367038403577972 
-0.2662731668057716 
0.01939797329798421 
-0.1893676377159034 
-1.018677854455936 
-1.293338715106298 
-0.1219137461555945 
-0.04660621617144092 
-0.5120402322894829 
-0.9568791729302815 
0.1430361243944609 
-0.1590344865414287 
0.1340057752768751 
0.9751434248357086 
0.6942157908202867 
-0.1023342544822362 
-0.6306629448379025 
-1.003403289225696 
0.3945549124815015 
-0.8550872700486575 
-0.1629115901501455 
-0.04103447969554731 
-0.2871598966426654 
0.0149327806050828 
-0.04239581791555086 
-0.2917631068765456 
0.1220869995058856 
-0.3763950357592035 
0.2787184896224089 
-0.6927324234719239 
-0.6040894699889289 
-0.2948649639300369 
0.4385146885100339 
-0.1376949807002938 
-0.2058997495179746 
-0.4574367308223456 
0.2515400971405855 
0.3626357897319334 
-1.067789334187848 
0.709689569844362 
-0.1825414527483701 
1.28278976649268 
0.3347483454185637 
-0.2961530213768224 
0.3415452953588466 
2.001597541993982 
0.2133194432016986 
0.7203380140070587 
-0.1529354529930682 
-0.1180525248115226 
1.270175462717159 
0.0479696077759705 
0.450086515757975 
-0.3831121141283163 
-0.4693113601666371 
-0.06421796225534794 
-0.08089592198509217 
0.005325609916215722 
0.04257686016187209 
1.552741084273729 
-0.809648452116346 
-0.249988618643229 
1.910753860661315 
-0.2379236011499084 
-0.5089645672365473 
0.1626858868553163 
-0.3197167823370101 
0.4590220434791784 
-0.218568351397022 
-0.2078246749071826 
0.1994334645374456 
0.08253458080255659 
-0.2521400921523321 
-0.02036996989040616 
1.839139642250883 
0.2649086858677955 
0.7288395112717033 
0.05096142127806662 
-0.5379148268506687 
-0.3543847510097928 
0.2338132901258439 
-0.6915059015547386 
0.05728519366262654 
-0.5495978658124725 
0.02212108337894808 
-1.055346434852592 
0.4554029882129723 
-1.904997669584073 
-1.111739400310478 
-0.4043116228833569 
-0.6712479697872146 
-0.5959039814439576 
-0.1444037744159172 
-0.6876934127585886 
0.02841715633428992 
-0.1002100233923752 
-0.3123032526134851 
-0.04157389130339376 
0.7251760457125624 
0.1637445377610448 
0.09728773711062572 
0.0979725765116161 
-0.03134659944547024 
-0.3982628648686464 
-0.183247626119385 
-0.6125919639718872 
0.2520939551761613 
-0.3315113414130177 
-1.970875223816737 
-0.1464491592496338 
2.242048205945356 
0.5552126220465332 
0.2912082741929525 
-0.1188802153559787 
-0.5746849070112002 
0.9324391968059474 
-0.06019682771182919 
-0.484255912331488 
-0.1128456691050749 
-0.1215870220217999 
-0.01472432047103468 
-1.357422338630328 
-0.3066166966334199 
0.257707747565816 
0.4973456780740063 
1.075261474233582 
0.1381573333471881 
-0.3586647171323958 
0.01108539567525776 
-0.03271503662937667 
0.06733461114906979 
-0.3686121372118119 
-0.3602394201054256 
-0.5801576018635936 
1.38402955203749 
-0.497293328183483 
-0.1107675095558473 
0.3410315522390325 
0.005493266850549832 
0.08784603078558997 
-0.774887196011947 
0.4767525146140906 
0.2673194143565163 
1.923402113901025 
-0.007771705899317084 
-0.8080910485354547 
-0.1683065929360828 
-0.2977173334380873 
0.4837645636108139 
0.1453938646738876 
-0.2475639192373897 
-0.1062998738643803 
-0.3036595511724055 
-0.4070480253267521 
0.7879543587881891 
-0.4385913921622996 
-0.1951610228242487 
1.427185797668623 
-0.579922039941373 
1.474338970320088 
0.2400638664162223 
-1.673407651394436 
0.02879190617122606 
-0.3090063571859571 
-0.802313908877209 
0.2251074101172639 
-0.3389833594810714 
-0.01468312319482418 
-0.9484488653134732 
-0.01241173471595269 
1.292486172866388 
-0.4419039831519501 
-1.105285187456524 
-0.689353351644777 
-0.02386678384667922 
1.174935478279128 
0.7143732890248079 
0.2430322893743996 
-0.4323667982275769 
-0.9203040919718329 
0.2045768621071518 
0.4514418720473665 
0.4875510976998124 
0.2527092920861221 
-0.3671288913895949 
-0.1122413985463556 
-1.864598539066303 
0.006055021051836336 
1.083789588371626 
-0.7581158717880977 
-0.04907544892687411 
0.3880095159081292 
-0.1910404874570467 
-0.4777270560229887 
-0.3107637368915143 
1.255701514245883 
-0.5030795362317515 
0.3541431649305201 
-1.083010784884651 
-1.19089296893736 
-0.04141527642416279 
-0.6243355595569692 
-0.03413097022180608 
0.07300827804763581 
0.6796098000005935 
0.2243470116080488 
-0.7875566561280101 
0.5641213083294233 
-0.5592568899583973 
-0.3698445370557373 
0.4321195173124929 
-0.3649014058235947 
-0.5402349038709142 
-0.3317874128594435 
0.1253395836178645 
0.254404089794912 
-0.2225509223372732 
-0.4875947438490066 
1.658106340001038 
-0.4128054325560016 
-0.7619410629176797 
-1.381000664652789 
-0.1713672093044272 
-0.4094954989338329 
0.260262010877753 
-0.6210158132902782 
-0.09534165517251116 
-0.9351419682188385 
2.296992352895558 
-0.2892780361914547 
-0.9159713110340167 
-0.3719368763451081 
1.099668984186572 
1.619137936961259 
-0.2814291369374012 
-0.3277574738982079 
-0.2202066692721671 
0.4396704287898607 
-0.1433721290862657 
-0.8150404116909847 
0.06029496503173225 
0.2151300995066422 
0.1982971553886899 
1.106810056477618 
-0.6487161856104724 
-0.3772025216521336 
0.2871939375376377 
0.4691639026533723 
1.560345475163184 
-0.04500582587398022 
0.64945690291026 
-0.4905639087369569 
-0.6776340880953792 
0.2808950877962326 
0.2545657881208438 
-0.05160400727305963 
-0.437739501887631 
-0.1581164715399196 
0.6222307594395732 
-0.8225962695201309 
-0.6466974736951726 
0.1737725583242552 
-0.09575439217177241 
-0.6066922524007737 
-0.6563150378636941 
0.1421148412410098 
0.4525648658702587 
2.233958570905297 
-0.1852486876132295 
-0.1618402794177675 
-0.5552116761414525 
-0.3000307304873043 
-0.259452948621702 
-0.5444655024591057 
-0.2112817417583226 
-0.3561016470121007 
0.0631913701863058 
-0.2379851502684178 
0.3194066195486324 
-0.04227265240716153 
-0.5536195368889992 
-0.2638397896452397 
1.230397782551045 
0.7937835446431979 
-0.07124462390740258 
-0.3345103700695189 
-0.048654846770586 
-0.2889541105103604 
0.02056021973970648 
-0.1607561556003831 
-0.1243802025508883 
-0.3472271995204502 
0.5628023695985138 
-0.6034458903571754 
0.8241376239453611 
-0.8886705090251881 
-0.3407746112291416 
-0.5957428681220485 
0.251201163575362 
1.127425289569509 
-0.0504536165419656 
-0.2392739448208784 
-0.1866128917749617 
0.3718817737730624 
1.01358141197111 
-0.03398603726797723 
0.8734077443826878 
0.1526784420053848 
-0.2301286773173354 
0.9371723515500796 
0.3694218560626574 
-1.133135613152143 
-0.1208214929424786 
-0.4929425021826043 
-0.5492074259128787 
-0.7213437063726594 
-0.2640067255695078 
0.4916544932863899 
1.221919801329839 
1.326529483981626 
-0.7044909546436539 
0.1255927415092133 
1.514325007325193 
-0.1247156689017699 
1.063429666558818 
0.3136889960762579 
0.3064236200149886 
0.1073369137214166 
-0.1083782442018703 
0.7396543504784444 
-0.6018061645588086 
0.5748721346980376 
0.001245192634420691 
-0.4114413746344117 
-0.4376228490938365 
-0.160430646990411 
-0.5262095467508096 
-0.09513394486582206 
0.7531393566335429 
-0.08481025712805351 
-0.8265970902984705 
0.001547961019724871 
-0.001351862880471217 
-0.9853350341046208 
-0.6157099321232958 
-0.842833191084261 
-0.123524169387152 
-0.423111618238853 
-0.2711774181928865 
-0.8314320340162756 
0.08223813021820539 
-0.1947204647291953 
-0.03589776720306078 
0.4843215049435856 
-0.006634581114273761 
-0.4154065002110734 
0.170134165382038 
-0.5694378078235759 
-0.08224663182453155 
-0.5002774920215527 
0.02014324411546208 
0.5492578675958765 
-0.3867883484197587 
-0.6722644787645428 
0.2600675141349905 
-0.01790400848504011 
0.4460998084410567 
0.480797627320074 
-0.465682957086392 
0.02566134573522919 
0.7640879546385911 
-0.3260579708454074 
0.8544690062250533 
0.03919873648784705 
-0.793009739163857 
2.192273673920087 
0.591038654574944 
-0.1293401249136978 
0.4633816456073945 
1.02104085565783 
0.1285547583111739 
0.1054991535390912 
-1.005421251400639 
0.7285297485658034 
0.1036628320678071 
0.5202102934779683 
-0.512120985513999 
0.22232268153533 
-0.5931625130161827 
0.5741152878692171 
0.4115665960268631 
0.1573337670998472 
0.4662914124438616 
0.6955146739638781 
-0.5361299581915574 
1.8840289446627 
0.1801973185234465 
0.1662401664227987 
0.02123962091871298 
0.2304233355017447 
0.2512072702152789 
1.301783264047211 
-0.7383827746695827 
-0.3375671503203764 
0.1751818677737419 
0.4716241494523356 
-0.8505587773414911 
0.08063618974501016 
-0.3023609571628245 
-0.7908880521352539 
-0.02503097463779668 
-0.2502521705096993 
-0.1240438771967655 
-0.4811905842966347 
-0.6053198963256933 
0.27353016156604 
-0.2080625783425283 
0.8263569016962231 
-0.05991183990780251 
0.2717856447771506 
0.872715629243341 
-0.3948721824847103 
0.284495845270907 
-0.2843872998802871 
-0.2554342382074545 
-0.2342212521105552 
0.03971908881449206 
-0.2966638229125943 
0.5770320686767653 
-0.3557426570993466 
-0.2014625818972019 
-0.06782174449579843 
1.284409865532499 
-0.5393930585636068 
-0.08054346433580829 
-0.2605214450416921 
0.2383069205504117 
-0.01116313919369686 
0.4256950587648843 
-0.4379759349985667 
1.846634804021491 
0.7889589900131398 
-0.2799799505024057 
-0.125175518941919 
0.5413675309992558 
-0.2628981398805535 
-0.4070845484528941 
0.5411874364146847 
1.472968200307662 
0.07325681573043544 
2.531688521068101 
0.5505756183081213 
1.443173464055833 
-0.157734011412205 
-0.6176463671790704 
-0.03239980126447226 
0.2184861409508692 
-0.1292558866461973 
0.1491302105888335 
-0.4785374995419717 
1.463121869484778 
-0.5223707157494487 
0.3415704439988133 
0.6639698562748961 
-0.007865227529246375 
-0.9879407327527342 
-1.096387621063676 
0.1711874087697598 
-1.358848133992808 
0.9121611949483192 
-0.3893264984004585 
0.1135266611539514 
-0.841430035385477 
-0.418830227936683 
1.820969271543792 
0.7362699339033018 
0.4891397294006083 
0.5246470798635605 
-0.2500437414037098 
0.2530362688128526 
-0.2224680518919971 
-0.1652716747631272 
-0.5196489729563369 
-0.4614254747481654 
1.347488671990589 
0.3627546078727836 
-0.06564586218978551 
-0.2108127010569572 
-0.1674578107460605 
0.1252163116355424 
0.2375042459098199 
-1.205337185606723 
-0.8429956140460388 
0.7108498770848698 
-0.09231723809226784 
0.2937197948444663 
-0.5436289259292498 
1.093209934200676 
-0.05650151404829552 
-0.5754339106072931 
-0.2980056968834298 
-0.518969935811278 
-0.4642852668764687 
0.01524681399433176 
0.06594705634885582 
-1.042445512982416 
0.3375070250389177 
-0.2327934973263594 
-0.8273108383049558 
0.8707056224389312 
-0.6121601022462072 
-0.1366574302884759 
-0.5268947998405862 
-0.1064978300559508 
-0.05618578460749847 
0.7100313162080844 
-0.121960796354208 
0.2318188807089025 
-0.4313325448857154 
-0.6014780700808182 
-0.5165377309921301 
-0.6291557690114867 
-0.6456185280556547 
0.3469239858449054 
-0.2553059916772386 
-0.8592142801640208 
0.3602439370459119 
-0.5050803397529217 
0.9955434080806516 
1.128124059628043 
-0.550030220233422 
0.2068774009122183 
1.367453188119117 
0.306657424717953 
0.7942541039887872 
0.4190935441789799 
1.150470151213548 
1.136410912507205 
0.01664264425144051 
2.477609199225677 
0.2149255133827505 
0.1994836517715143 
1.309602713828045 
2.15150855794477 
-0.6083948062483588 
-0.02121453367441533 
0.3216546949495119 
-0.0333108919539634 
0.06500929453347748 
-0.07734023939033406 
-0.6514812484380266 
0.2302495170461672 
-0.04585929972276735 
-0.0658251441127473 
1.397005121250365 
-1.314620205002734 
0.09310559158964592 
0.03397272880733943 
6.26115434993845e-06 
0.5505289444098364 
-0.1703865812126203 
-0.3822925050030537 
0.8168532191210403 
-0.05417930420071661 
0.09003509800700209 
-0.3157072602004422 
-0.2661933219521435 
0.7207349204202588 
1.182182337542535 
0.3766193306369843 
-0.2575304629954467 
-0.3481802638557123 
-0.7768637056440426 
-0.1490410173863889 
-0.3506065857590382 
0.807420558412385 
0.1184225268275247 
-0.2013516458149251 
0.3412451558857088 
-1.059190466095111 
-0.3686278167301012 
1.118185766341881 
-0.3396666717846276 
-1.048243009943788 
-0.3959013307066306 
1.090065343495678 
1.170439070182503 
0.0590658344313511 
-0.6182137919353249 
-0.8305609255491292 
-0.4043346013858809 
-0.6584680183418419 
0.4451175268697804 
0.2487057192056023 
0.2949114264948803 
0.5832043594257131 
0.1292587751375018 
0.0589267806161882 
-0.9161227848985284 
-0.02003714365467077 
0.369514336391035 
-0.3723215051258169 
0.3706029681802993 
1.434426924238931 
0.4219501776054451 
-0.2095129707062774 
-0.5443827360348771 
-0.1775221388261901 
-0.1923391769689156 
0.3278498030018915 
2.310696888914759 
0.4158924929586242 
0.01845794596449646 
0.7057676534530761 
-0.5615720659317577 
-0.7027679937093642 
0.1106645498485023 
1.971570916629588 
1.719530541610672 
-0.9055874931174109 
0.1715722735231905 
-0.19024439767712 
0.457417439966996 
-0.6928200084573356 
-1.154210420892924 
1.06346933328456 
-0.1920654647505303 
1.491307863664274 
-0.2001028030950397 
0.3501915821422084 
1.334036352833096 
-0.5704409581736528 
-0.6153723801968399 
0.06993405628959073 
1.150744730064174 
-0.6608052553264024 
-0.1847811477477641 
-0.05629205240638231 
-0.5210111176536585 
-0.3642605060901868 
-0.2446163218952089 
-0.2107345682250742 
0.1477472379789234 
0.3246609172628889 
-0.06339839832108864 
0.4311314487866105 
-5.668767999499405e-18 
-0.1310465648032309 
0.5551773817526199 
-0.7689606589324535 
-0.6388951556375514 
-1.003655598718787 
0.1222743357093861 
-0.1448389229895991 
0.9946123199335685 
0.1523177756109592 
-0.7522958897708655 
0.1008594106822591 
-0.1644403993043757 
-0.04589741578961729 
2.383181779362665 
1.408458515544875 
0.08494432149654021 
0.8278803738704699 
-0.9083859378586348 
1.179571927637189 
0.3577262954752706 
-0.3659620123022989 
-0.05564521282377483 
-0.05476740955137464 
0.353724040040323 
-0.8204445825983878 
-0.7312864401160353 
0.0800183200894057 
-0.185716244703172 
-0.8956111073862448 
-1.04467721929078 
-0.1383681450738079 
-0.110779714836393 
0.005957433285679823 
-0.8250340160008958 
-0.6725075372918738 
-0.3429519441605758 
-0.367651942544951 
-1.028246282899102 
1.620068019498007 
-2.107194887293188 
1.231179378432622 
-0.0004847230188317598 
-0.03566335324130615 
0.8803879354051473 
-1.11951324710586 
-0.02382472212211532 
0.5805670052970816 
0.2529959893932495 
-0.1364421431069407 
0.3067433654543349 
0.6515306613479629 
0.7009612719428906 
0.1197732622709583 
0.1457812532051167 
-0.7495726973981615 
-0.7896047742757969 
-0.05803192301476982 
0.03305539784200195 
-1.254998425365454e-18 
-0.4783184565705697 
-0.2485466379391933 
-0.356596845709452 
0.1276134470310831 
0.1044339327198352 
0.09649548835228981 
0.3054816505758328 
0.1148511052444326 
-0.3067804933935891 
0.9992244389110789 
-0.09253601140242869 
-0.5904578261222478 
0.1899716010629049 
0.01697054122519971 
-1.440382582846135 
0.6411098412325602 
0.2255122119145926 
0.365264627871095 
-0.3633345606213855 
-0.2281005078571652 
0.1258560805781148 
-0.4805407446061285 
-0.270963985664387 
-0.4017763647752113 
-0.445298171206493 
-0.5419156397321442 
-0.3682253159945175 
-0.115850150266849 
-0.3573178420566849 
0.7458176327131537 
0.9909887521418331 
0.2613537548553047 
1.071808534469731 
-0.01680679130515841 
-0.07872533157836414 
1.874063921117256 
0.1775701667707229 
-0.05778898878541867 
1.11885671839013 
0.1842377290408688 
0.5510854159748715 
0.1466016944502851 
0.2000698526929793 
-0.4865645595868676 
0.09300241269250825 
0.6624819681604891 
-0.2989394075365814 
-0.03825297520251326 
0.3730856780776708 
2.077237768873222 
-0.1856719009496633 
1.061794241794602 
0.6875550825448709 
-0.2553470636074096 
0.3918725083372183 
-0.07589508220713442 
-0.5379482391054242 
0.03952570206735786 
-0.4923005231681527 
0.4370473994359826 
0.5897064677837889 
-0.9456563152496432 
-0.09890254300270583 
0.06624481803976145 
-0.2792167228398749 
0.2591398491993854 
-0.1573034781019538 
0.01483099132867441 
-0.04768221042644555 
-0.2368642828494502 
-0.06998035552694561 
-0.1721947767124073 
-0.09902818532631168 
-0.05402222300143041 
3.062839049944539 
0.1591683796457347 
-0.02803214802168894 
0.4662524040928427 
0.7096649246091151 
0.03668668451457472 
-0.1194868287970244 
0.1866195787047811 
-0.3167622059978943 
2.158911443012979 
-0.2834297524423949 
0.2806777531808464 
-0.9181381127096335 
1.760208214195015 
-0.957634938248583 
1.75951784914709 
-0.1013880271682205 
-0.09109949279598961 
0.1148077111658754 
-0.04404400987000782 
-0.726135858463075 
-0.6693802707454433 
-0.3031762543096184 
-0.6659131524541665 
-0.9919665406371073 
1.467460647412345 
-0.155187784887535 
-0.2875630943013894 
-0.5634487565102464 
0.1166399280546035 
-0.05243387927788065 
-0.04844035048804661 
-0.8589269503305683 
0.2111658433141586 
-0.6361222275254125 
-0.1142681726638102 
0.89553361332627 
-0.0702377199323668 
0.1150122451411647 
-0.7931890932769164 
0.568074897073794 
-1.19041634955503 
-0.8148560175379772 
-0.4059324150766483 
0.3928105877047554 
-0.3406978735357173 
-0.8135596739395344 
-0.3826399548601292 
0.0252757250031654 
0.5335665801433861 
0.7954211555993271 
0.5465649595440791 
-0.02367932026979919 
-0.4295459049509537 
1.032534646139998 
-0.5925313864082485 
-1.418313772730728 
-0.09803068246218985 
1.51523562764784 
0.3954768294801749 
-0.3776785376349732 
-0.2714440262704392 
0.4400057491780597 
-0.0421448323634742 
0.804041873126781 
-0.4072493482720441 
-0.6469277476991673 
-1.501136654827479 
-0.04415240413195356 
0.5523383455683443 
0.3833735055980771 
1.567361215626461 
0.4766921547952814 
-0.8760721860105009 
-0.7126128173722883 
-0.2650729461280504 
0.03837279960183125 
0.4886457490809744 
0.2535271601588318 
0.7912600214729992 
0.9095114813818742 
0.03559287775002047 
0.5049088677794626 
-1.496714412469058 
-0.3394165437573569 
0.0432759989555479 
-0.7054887238858718 
0.1650185210429207 
-0.07381762358870579 
0.120578057030467 
-0.5780211660414367 
-0.07134334615471807 
0.3672509913166021 
0.2826255075408179 
-0.04011372436407584 
-1.226923257655287 
-0.1711591051044973 
-1.191071158299444 
0.4811811156792316 
0.03836814363980005 
-0.2724550663134163 
-0.5185574248748539 
-0.07551802271719377 
-1.276743645472086 
1.192819692127107 
0.1418029230764432 
-0.3223186117461425 
-0.2008525679844075 
-0.2782671379082163 
-0.7461989777951277 
-0.2533207941995645 
-0.9683565476190007 
-0.2623375711677343 
-0.3825516302845149 
-0.5612878749570441 
-0.4589946252745719 
-0.8140307818374064 
-0.6741458462491063 
-0.3348881690969009 
0.7916521780949112 
-0.4523537165089087 
0.5384919500648502 
0.1026499722680701 
-1.580754082071904 
0.5813702179576173 
0.2830431774472349 
-0.3456516732058793 
0.2106999066354948 
0.1255470345945344 
-0.06437294080884087 
0.07553118537234704 
0.3427905363187132 
-0.005144554563355727 
-0.1889391927522613 
0.5338875494995284 
0.5374644849661242 
-0.2286961718795574 
-0.6743606647043368 
0.6200152214207947 
-0.02413841708460642 
-0.2857010318039357 
-0.1034473172325468 
0.3914803383181795 
-0.005556566661392122 
0.1152770108628879 
-0.7737848953309394 
0.1136873371666829 
-0.08635885664676964 
-0.04067604541326136 
-0.1135832157466744 
0.3607190579953528 
0.5924637189465232 
0.9943158606611067 
0.8462524727566513 
0.24276319490406 
-0.2879711071997368 
-0.6700432851229822 
0.007642413076650326 
0.3990749431191531 
0.7420907724463831 
1.05487375885896 
-0.7603427399851 
-0.004874498017650184 
0.1045025319935399 
0.9181936926666342 
-0.8884925228026824 
-0.01866257736287183 
-1.097012726983337 
-0.2891008138330602 
0.1373271667935128 
-0.498838033893966 
-0.5152805799780076 
0.3963865522509488 
-0.09115272993038293 
0.02538642477337917 
-0.7040241107489487 
-0.008489070868010668 
0.6246987191227286 
0.2138597763564695 
-0.4107313379185525 
-0.2501590246861871 
-0.4715200009882622 
-0.4731786126485935 
-8.368685518872487e-19 
-1.618938135539016 
-0.1794590533932061 
-0.5303288905999497 
-0.03944893395340959 
-0.3279014175791104 
-0.2441349541293539 
2.442433464407296 
-0.5712310452517296 
0.4144528112401846 
-0.868474176998558 
1.126519959514176 
0.2626836109074285 
0.09010605959486478 
1.052607107078634 
0.5747786989713747 
0.1597566219066495 
-0.09155409491272987 
-0.318653372709456 
1.504673204803041 
-0.02855944021151981 
1.485089738806073 
1.793855932988713 
0.1455047004735237 
-0.2299124212801792 
0.2837279463845427 
-0.02437888658370971 
0.4811936118977603 
-0.2232347308088987 
-0.05357727359885969 
-0.1896887016300927 
0.6135623773103996 
1.085089059197923 
1.432902787530075 
0.8521059243877579 
-0.9094632064047024 
0.4684255773985342 
-0.3562130380574866 
-0.7438767512399764 
-0.2961455024008858 
-0.4831195226346517 
-0.2806630258158996 
-0.3725660999888801 
0.1022704299181239 
0.2493958665389913 
-0.1408950121922425 
0.08989579706660093 
0.4460461017122862 
-0.1349341860878314 
-0.537890113850896 
-2.265963017549119 
-0.4003265883457712 
0.04359936060622311 
1.841975043491701 
-0.3785959964817255 
-0.4043823546477618 
0.9675173305959236 
2.592624628534187 
0.1468947166430632 
0.5667571785416864 
-0.6461283539508103 
0.1180655458172237 
-0.2089954307348113 
0.2623028961260925 
-0.4495142722781512 
-0.4369944999543587 
-0.1980131048936283 
1.121334216273178 
0.01234785022271483 
0.4241666602911323 
-0.4856184671810805 
0.01323919643751761 
0.9085028381367261 
-0.164158393093488 
-0.5238373150165935 
0.01685896294875653 
0.2915962726569026 
-0.01310536787812085 
1.468414336441319 
-0.02213175486552745 
0.4923356328550655 
0.274518040675323 
0.5312580073189529 
-0.251434756570155 
-0.225440225893502 
-1.039615994396591 
-0.03519004494406109 
1.374487016515993 
0.6349428783162917 
0.6160389265190994 
-0.05997881150770971 
0.3630891404406898 
-0.9449763955144382 
-0.2402077146663686 
-0.1556321447516464 
-0.2048582515986671 
0.2093313652155344 
-0.0758944456534047 
0.1077552408992446 
0.02689801051462828 
-0.9460039286992777 
0.3152802832742023 
-0.2297238673931658 
-0.2209282176681718 
-0.2132118347581483 
0.1970042251147304 
-0.5559310144557557 
0.3810715041507975 
-0.3141966392986015 
-0.01348256964203943 
-0.06324679397813199 
-0.4151078966599204 
0.6351708028546134 
0.5422205813645299 
-0.4510074148459099 
0.2996332100997081 
-0.09446867149883864 
1.921761287754637 
0.1161385357226997 
0.2970458131502066 
-0.09025387507630825 
0.4516789190115876 
0.3202630484214042 
-0.08537864178593987 
-0.8428047164682478 
-0.6215771182537687 
0.09075376465810585 
-0.5610315371144848 
0.4421087423709028 
0.5542334198742646 
-0.4364397837383605 
0.04466343635975967 
0.3189747634522853 
-0.1779476566583215 
-0.838164748098756 
0.9259521860311494 
-1.386872529121487 
-0.1253746351057951 
-1.008821251975953 
0.3040546835365674 
1.294185743926846 
-0.6257683303866201 
0.7579648484467892 
-0.2718079191212174 
-0.09326888069739031 
-0.3011182692063271 
1.888114342387557 
0.2080091025548582 
-0.01902136436157776 
-1.113791712034238 
-0.8815590592017524 
-0.1697736609222847 
-0.4770179279409041 
-0.4489792113033521 
-1.014795931845471 
-0.170759756343415 
-0.1003253037574693 
0.135449660284725 
-0.0308806426187147 
1.105969729226626 
0.5651352983336899 
-0.7962606491569572 
-0.07908708188520523 
0.2460065835249557 
-0.6356945526291081 
-0.2561357380101248 
-0.31562290521418 
0.7434745628456634 
-0.8727691967937425 
-0.06206707631290007 
1.404430463120129 
-0.1390644249946243 
-0.140790240193375 
-0.9153370811319379 
0.1741726868487622 
-0.2282785936888976 
0.856074775893675 
-0.9166896368807277 
0.2414552304101686 
-0.06197263167994822 
-0.4580731983996476 
-0.2459001603751495 
-0.2808936237676746 
0.1567723237183175 
0.05914198002622052 
-1.40420827923006 
0.2375128633582426 
-0.8626778548705889 
0.3922725764114756 
-0.9640189293902213 
-0.2854516013374375 
0.6993561789578622 
-0.7641482481051088 
0.009301923650342792 
0.1960720680923964 
0.02278671472552164 
0.1540478406786388 
-0.2357662161662772 
-0.3504400355452501 
-0.9114617809283818 
0.03701094294079562 
-0.7737681320015988 
-0.3128727017498184 
-0.5270382878915301 
-0.06019893962328856 
0.2950626298964334 
-0.08049901958787234 
-0.09219378291333487 
0.2444853474161356 
0.3741401927101691 
-0.3819989563910252 
0.183326416525799 
-0.2791487701034758 
0.2247454923344892 
-0.3861742125727274 
-0.04784565749521907 
0.008079396365029232 
-0.2198636606213875 
0.264933879763902 
0.7803515569845942 
0.02430195598522905 
-0.2428459209375347 
0.1282811880948456 
-0.03623616068785322 
0.8282729286594301 
0.2853052282740855 
0.451641648247948 
-0.7537144978278386 
-0.3319978180389877 
-0.3039417614560241 
-0.1300226776668046 
-0.6744622948353612 
0.6488579086785813 
0.2003110691644964 
-0.2325478887705995 
1.049104677587137 
0.4996503408604865 
-0.3554263295594722 
-0.5660767702640537 
-0.637837340595057 
-0.1691159640232398 
0.1404900433728961 
0.05507619610573283 
0.2287466321801974 
0.5884513442656375 
0.1307257954247559 
-0.0549698640445796 
0.06289689595388878 
0.5302489754414113 
-0.005855668877794523 
-0.3651124270346637 
0.2983022774542513 
1.556564570030658 
0.3359014510832412 
0.3629811986049807 
0.4809070112657883 
0.1077982524082379 
-0.2156886367578587 
-0.2489821452907341 
-0.05555510886748586 
0.1649328986694993 
-1.141282623274196 
0.1118426087985201 
-0.3219533583628231 
-0.2653274327862606 
-0.0093931005308307 
-0.4368555211659252 
0.09873356930160626 
-0.653540598080536 
0.8636888710374285 
-0.3930583127742032 
-0.1997064631154232 
-0.2630265325525462 
0.2565288860906784 
-1.033946607736013 
-0.1683354097300421 
0.6028096218038834 
-0.6782452640633749 
0.06303410767711197 
-0.1938553989263326 
0.5291712674062069 
-0.09498832273327895 
0.1967631624553028 
0.3800411691119511 
0.604938807199456 
0.8417835185354631 
-0.4179409780109938 
-0.01483493379381098 
0.2051134606724901 
0.05429847220377892 
0.8653101598376763 
-0.1510227864219364 
-0.7466221083070737 
-0.2426773454169817 
-0.3881797035109236 
0.05241677075366148 
0.7164982476101701 
-0.139076048303498 
-0.2974928830438288 
-0.002372386806389781 
-0.8507042791890254 
-0.5287646373752325 
-0.05851716394272487 
0.4798429632266719 
0.2571427491216818 
-0.07099542925270258 
0.7237348506923819 
-0.1123823923090707 
-0.2981181039113045 
0.4960104933551368 
0.1183401481105144 
-0.4719265449368229 
-0.5268610639436967 
0.1443237854976801 
-1.301484653352415 
-0.01311028059372607 
0.2899847882755059 
0.6233241288400572 
-0.1336989724558519 
0.2480803415342132 
-0.9353785299773525 
0.03707245236057764 
-0.1750965733256744 
-0.3518869478783541 
0.3799425772616299 
0.1361762616291145 
0.2417506342281574 
-0.07570328106225278 
-0.002536186917453303 
1.358775882001403 
0.3696899188713 
0.4192855705765647 
-0.05540184700791533 
0.1388754886546195 
-0.7600789279872133 
-0.9416249957758316 
0.2524836426086006 
0.2210535651846519 
0.1551182698952455 
0.4131294007643548 
-0.6711775138944515 
0.0133986081726015 
0.8470519097551683 
-0.4256849087753561 
0.2326165300746575 
0.3599110187464709 
0.3093305132897888 
-0.06477616019204009 
-0.2379386756055033 
-0.09015484079800547 
-0.2880881691566637 
0.3318531051124132 
-0.7393836662804338 
-0.4299472568410003 
-0.5770908130885334 
-0.08593403030205782 
0.2546027274800725 
0.06135844266084016 
-0.8098618491679933 
0.1175959607022384 
-0.6044736311140545 
0.4617985726206849 
-0.2427056362891261 
0.359128741893926 
-0.4893624269242316 
0.1571290959340955 
-0.1474118558264976 
-0.3096071594478778 
-0.6428051304645075 
-0.6188121295638872 
0.3021672276961083 
0.2323276758020062 
-0.3145326025415957 
0.02001652067977433 
-0.1108588955443414 
0.1910286188993741 
-0.2666832411793232 
0.4610272769772618 
-0.1506069062832398 
-0.2121510967417476 
-0.5288012161117751 
0.1760914606027003 
0.9283840499991741 
0.1861460114589789 
-0.3230913256467711 
-0.1518169480360176 
0.5334325950713877 
0.4758300010362857 
-0.07948721797293409 
-0.4870148854011541 
0.8259962018061705 
0.50290833817827 
0.5776755317931799 
-0.37218450824786 
-0.4232177042281218 
0.03120365359210044 
-0.01510032259614907 
-0.9181581066709447 
-0.1798692486938452 
1.153447141077181 
-0.08989463047243915 
0.9439397039968069 
0.2048055637290725 
-2.096330303986487 
-0.2344625371827173 
0.09156517215513109 
1.861648848063214 
-0.3339289132220621 
0.5816326335460954 
0.06574839682743841 
0.5046125718092579 
0.9085211015608219 
-0.06085695497425943 
-0.4447777450073078 
0.660126386142917 
-0.17322910372589 
-0.8115773215794434 
0.2587740706308757 
0.9936790758733078 
-0.6236803962229411 
-0.3772136663287666 
0.7284195408372635 
-0.9711503570285108 
0.5910392032080587 
0.5607217303789206 
-0.027565523732236 
0.5722263585742562 
-0.245938070651542 
-0.6007131061061786 
0.06649801864961601 
-0.9221075236184765 
-0.5045412696481187 
-0.2686481751693431 
1.238936652469075 
0.9508007855698387 
-0.5252550104177762 
1.110715991569881 
-0.8633370243429873 
0.1654266531018318 
-2.568615861625355 
-0.8023066561186775 
0.01820642859945598 
-0.4714367859617475 
-0.05180405576244235 
0.2208559212457439 
0.2089926406225697 
0.3480649403174534 
-0.2883511407707098 
-0.1785843142355956 
0.1503072873298792 
0.1992867369619913 
0.861784310140008 
0.1447156820026535 
-0.1292579408729154 
0.3262618508823632 
0.0904117012819517 
0.4214668846629805 
-0.1196286992408798 
-0.4482890701059047 
-0.07601219637281875 
0.3283922934867441 
0.5605817350348427 
0.09064759965186943 
-0.0389005260136945 
-0.06909519020831788 
-0.05629059392426653 
-0.2753008212532602 
0.9135002029632029 
-1.951629258990777 
-0.73821670757891 
-0.5711041712095066 
-0.4534003293963184 
0.9089406819612146 
0.6810084636666395 
-0.2326739036419935 
-0.3891935948176125 
-0.2528766185478764 
-0.2524768689391848 
0.08731040935831745 
-0.8807329441216853 
-0.0765624774119233 
1.038571218795762 
-0.3694189354505024 
0.3478655519302722 
-0.009504144788868813 
0.9655348331408117 
0.2038783098694061 
-0.08808380340572899 
0.07258701613636107 
-1.026862884865797 
0.05378128104829141 
-0.964822132296755 
0.114599985107864 
0.144126632386561 
0.5567413553694464 
0.6860678168167819 
-1.307639362167004 
-0.1601161824147302 
-0.4970112033812393 
1.707555509905303 
0.2010621764119692 
-0.3940270787685025 
-0.4235092530998929 
1.299807653157398 
0.4080813714701049 
0.1995719740644921 
-0.1946801934815897 
-0.1918304808204142 
-0.1956650621529316 
0.02128356734787881 
-0.1393781160209151 
1.48685041070335 
1.458772468816963 
-0.5227059167208038 
-0.8980685107198497 
0.1068977621314848 
-1.216094350492348 
1.35438633888504 
-0.1840909116261069 
-0.316349163330382 
0.5635599037345289 
-0.1726701397008747 
1.135366536243275 
0.008981791948538822 
-0.1442401329807763 
-0.4239868021835942 
-0.4858580173104393 
-0.621547970021362 
0.6206832689878985 
0.584886984282455 
-0.7356234624103376 
-0.3981073251751636 
0.2585303374228157 
0.08464169296949357 
0.004445790516745482 
0.0590123015947099 
0.3333614425599763 
-0.2605958098558737 
0.1459250467407307 
0.1524738774972489 
-0.1287401717833335 
-0.2772249518999427 
0.0378395820385892 
-0.1461370397671104 
0.1803638727101584 
0.839871144036171 
-0.7586048669788511 
0.3062926115047805 
0.8548024869633564 
-0.3293387920209032 
-0.402966209329538 
1.450771666822603 
-1.124050665374488 
0.7247592991477237 
-0.333670965224558 
1.089021479705336 
-0.4832536559061608 
-0.6283750543557105 
0.1550019934602401 
-0.0496497977961738 
-0.1212972070473007 
-0.4409284520007329 
0.0495192478363469 
0.1202218895326608 
-0.9654352779108059 
-0.01507291915547918 
-0.2728893428164972 
0.2518484273033373 
0.02116246715970778 
0.03778438595193017 
-0.5060856017788689 
0.00969211755491373 
0.08212789939024058 
-0.1118719929688293 
-0.7670723421616598 
0.9189203986296168 
0.1474293746028275 
0.3709061312235457 
-0.1624161072379604 
-0.0686010100833882 
-0.5515152396190381 
-0.2904122873991593 
-0.08289535931851984 
0.129680269127072 
1.079205087221711 
-0.1617103283740442 
-0.5502304244374254 
-0.4268006899860025 
0.9969633745704245 
-0.1652321775958454 
0.6639098833930247 
0.005449267401866232 
-0.8741508592996103 
-0.3326056889954951 
-0.1567848920342269 
0.965940355624112 
0.100980963314412 
-0.9159128605459651 
-1.761018992781606 
0.1277295137331401 
-0.3511199960208184 
1.118856276806135 
-0.2230258448943523 
-0.2146566365617073 
0.7016195655005323 
0.1045046572030298 
0.6766017977231567 
0.4511355398220992 
0.4439619690217117 
0.7398958786135331 
-0.2815981023954556 
0.09155022000854135 
0.2771538571924356 
0.04331573925670301 
0.2928788749496646 
0.5230080732191288 
0.002530957069634818 
0.4232182854957691 
-0.1175892704935611 
-0.3865791296458293 
-0.2275010092547157 
0.7151770335553945 
-0.3415217077411379 
-0.2288651362315753 
0.1851617879181563 
0.5219587851831832 
-0.00287611160165344 
0.3047867066024149 
0.2551988570646196 
-0.02091039787030993 
-0.3736121959227115 
0.5046810944978444 
-0.1452467186216158 
-0.06588229764972152 
-0.1048057987721421 
-0.1043305277168256 
-1.977648163514961 
0.5646333107856087 
0.424502842386177 
-0.2820400255062847 
-0.3191081178247251 
-0.3329605466414307 
2.667390480797424 
-0.4283202829983894 
0.1164816649980074 
0.1457037424755912 
-0.798306780940041 
0.1716114741876519 
-0.5245622740743622 
-0.05387638107159701 
-0.3186623620963266 
-0.0759587628908814 
-0.06212017302980096 
0.5972109544217287 
0.07628154043756688 
-0.0159540542359109 
0.7815422691556327 
0.6953076183270626 
1.494317033921928 
-0.4073562268996174 
-0.590596096291871 
0.08955203002531255 
-0.4974722765170231 
-0.5103981379728283 
-0.005083209806717764 
-0.5453798976799168 
-0.2943447244492083 
1.084192725864833 
0.2885815860444169 
0.1876924993287488 
-0.2333785999619241 
0.5767383530322392 
0.1607654952637053 
-0.1013624182575124 
0.0572302237477804 
0.9046677927499335 
0.3659013510373751 
-0.06477255729145999 
-0.2034334323882909 
-0.007662500385832204 
-0.3922679472248915 
-0.1780011045761705 
-0.136195477070061 
0.8145017199000251 
0.2516604882807316 
-0.4596270465577725 
-0.4242144380387851 
1.331290724755844 
0.2192170455393474 
0.4064297629847654 
-0.005166031155257308 
-0.09577273287043607 
0.5248603004518648 
-1.82214940423104 
-0.807813493645595 
-0.2437225448373745 
-0.06568147050015292 
-0.1589411345734404 
-0.05958953177999323 
-0.02457824850712701 
0.2877843831904994 
-0.8379888801701507 
0.6191280640280371 
0.06365011873069036 
-0.02078786106383276 
-0.6923885769680456 
0.6837669879471372 
-0.1941868793801377 
0.1634632197839324 
-0.102021182879716 
0.6956561027841793 
0.2530188130432243 
-0.4121656235131738 
-0.04642164427497816 
-0.5881428570227052 
-0.3150460776816219 
0.6415054016796556 
-0.3226974890715562 
0.06958013262191055 
-0.1596749026614597 
-1.062720378915492 
-0.01555096137890118 
-0.8140646017076222 
0.1121112663946223 
0.0448359882952968 
0.3197542486763009 
-0.4517391149396013 
0.6550419115551109 
-0.3078641515877162 
0.6022761991628246 
-0.04132719895027934 
0.05519055345597237 
-0.4748465551307155 
-0.03283974329521436 
-0.247901230202448 
1.59817595317572 
0.2219594488641959 
0.745625829093671 
1.096838733901222 
-0.2595703637357572 
0.1636710954576901 
-0.5698658253100756 
-0.5480170035505521 
-0.04658671940715405 
0.1726209789094077 
0.3758579165121715 
-0.06010479898110385 
0.3826262167303687 
0.6447287951124185 
-0.518006779955574 
0.05725378496758485 
-0.1317109050504359 
1.110447198410489 
-1.359427135418499 
0.1386679950635765 
0.168580279456263 
-1.189424785186614 
0.2001183487444856 
-0.006265655358954006 
0.05623389446926742 
-0.2157051957950334 
0.6389628370982234 
-0.2172198827760956 
0.5075110593047533 
0.1237854105604875 
-0.6097827951213964 
0.1929913677547288 
0.3305759615976499 
-0.5953118720119507 
-0.9627319994837298 
0.3640915775800865 
0.07514849155640879 
-0.6666931009718455 
0.6885363978354416 
-0.09155908428085247 
0.791080697183652 
-0.1031714285478234 
-0.1173215128319651 
0.01815797735125808 
-0.3367103853701328 
-1.052793482296819 
-0.6498778485642287 
1.446920200630751 
-0.3610296315329597 
0.5221853086659926 
0.6002070883795821 
-0.3407677978331856 
0.259479549072069 
-0.833920585318039 
0.01759976005182063 
0.3234015253169576 
1.215816262242948 
0.117689209303637 
-0.03930922203111408 
-0.3242853034159826 
0.05915235848423062 
-0.01979785178966334 
0.1694577109385771 
0.1426517695838321 
-0.895063405496291 
-0.7648814039023857 
-0.9094894254932866 
-0.8221987113395274 
0.08964906248543582 
0.5055840718011062 
-0.1590138254800182 
0.2300815203514413 
-0.007232262851748432 
0.1909657781595873 
1.033955021207036 
-0.7913472058544843 
0.205865047361342 
0.260124155832917 
0.2679713412365712 
0.990657594310291 
-0.08056434160268561 
1.110330845395544 
0.03575647983419657 
1.278710807052408 
-0.007784391921480986 
-0.215978101179143 
0.5782579473421186 
0.4659325849083893 
0.9843436348967664 
-0.03710151165526631 
0.3567609797951649 
0.1061222607526555 
0.5764377205725035 
-0.3601259295690381 
0.01671018463071042 
-0.1955504879169126 
-0.6014908798919837 
-0.3581301805077494 
-0.5264974316800556 
0.5859561749597322 
0.3922394005685669 
-1.310973937492921 
-0.9166370468904375 
-0.6002260029905411 
-0.1059066155239016 
0.04773326228461582 
-0.1935902971902387 
-0.08647938430520632 
0.151064608625196 
0.1634137331630013 
0.5846553130334081 
-0.1287215858699675 
0.2884345032485024 
-0.4137214294127545 
0.05099199108813358 
0.7938239221584316 
-0.581487258821146 
-0.1874608942987021 
0.4662658205070848 
1.357409563570471 
0.07383125348037854 
-0.1378713309658236 
0.5330686865683379 
-0.461040692557221 
0.7471717624517833 
0.2425463891367481 
0.9641157048087815 
-0.2903442564796196 
0.3430014722990584 
0.200076846070037 
-0.3289923283888381 
0.1240263746989767 
-0.4338233447358757 
-0.03560687547174222 
-0.006796169754252649 
-0.05171281043213298 
0.04067062348212911 
-0.5504887404682608 
1.120773800051851 
-0.3034041523098323 
-0.231608915179679 
-0.9190510698873203 
0.1384287915160831 
0.5401666388439647 
0.1314683579058245 
1.404484399791883 
-1.886272788189229 
-0.3673501597542836 
-0.04690255708628892 
-0.005098219583550842 
0.5778658724798097 
0.4407638464633709 
1.210479507248349 
-0.06641753848498956 
0.09766935021568572 
-0.0240525497291354 
0.9955605104611928 
-0.06580709857287888 
-0.579386384079069 
-0.4329762202691075 
-0.2993250728157058 
-1.117708839335812 
-0.03630934414352692 
-0.3665673630026528 
-0.351085670442403 
-0.01616366960207756 
-0.06723908427376347 
-0.2924477058730091 
-0.5035421919531187 
-0.2787849331343237 
0.6841787858647558 
0.5267853754014353 
0.5082036768703496 
-0.6912249544143121 
0.6563136081826947 
0.07904127389667744 
0.1949356241132429 
-1.224116247212317 
0.1150215417892517 
0.197884863268979 
-0.7633151926235671 
-0.05116089454409339 
0.07518640102062589 
1.105961773657603 
0.05992984668221466 
0.7263183852004048 
-0.1540334297256639 
0.001853371206014398 
0.1727472872386003 
0.9864946063880107 
-0.5233864420784085 
0.3408147746172003 
1.002624847433421 
-0.7665104764659356 
-0.07146598231941391 
0.6021334733473888 
1.008806515060463 
0.30418699436067 
0.04601557074224663 
1.310087204478519 
0.9227532050958259 
-1.031595464679473 
-0.1387574531251397 
-0.2531000130735352 
0.2734860277914625 
1.123024011719481 
-0.9435815119715175 
0.2024981777652046 
0.9371242591107201 
0.6965539810224075 
0.1634676965900833 
-0.392804536732884 
0.1226773736580647 
0.3839018034807731 
0.4768548274174151 
-0.5790546845945296 
0.1535429998724252 
-0.4460228804706855 
-0.4260473726011821 
-0.3480213205774376 
-0.1061537976652064 
0.07141945130224187 
-0.5996441606978234 
-0.2265134016908098 
-0.04576088614742825 
-0.2361231309928238 
0.08533482303430973 
0.4248509853389393 
-0.7449467375723833 
1.013588815672326 
0.9524368339037195 
0.2363393099106045 
-1.143010847503788 
-0.02046286137025863 
-0.04938843458203542 
0.09190796781236162 
-0.2215834797262257 
0.3606790196790153 
0.6687762320714963 
0.01322981708318569 
-0.008964879206444301 
0.4525976159912505 
0.195185193051943 
-0.792344476548975 
2.272024371603552 
-0.1740633317647071 
-0.4887596487748723 
0.4020478400192325 
-0.4051108671096957 
-0.2640195472301987 
0.08120663619278 
-0.7534925482757894 
-0.5727580308195701 
0.4629607411228168 
-0.1110928263803879 
0.7679007970498407 
0.2382308507845456 
0.1817699683211782 
-1.165879538242713 
0.9295104682509175 
-0.09619661697935315 
-1.007219344731667 
-0.1136365365057184 
-0.3682280065296648 
-1.62999048189494 
0.682784616927792 
-0.1857136393566734 
-0.4585810860567967 
-0.1997364720282746 
0.003230876397839022 
-0.04139547005163612 
-0.128550324812847 
-0.1611429465898149 
0.2222174903692086 
0.186949448757628 
-0.6073289015199923 
0.4325982948354264 
0.01442211185586905 
0.2177048904565531 
-0.003301211874287126 
0.7091804622804614 
0.2618147606770988 
-0.01321018219874115 
0.05676547553550958 
0.3524511036405274 
-0.280886958939679 
0.231571511335905 
0.849242747215269 
1.952749308581118 
-0.06274909551241777 
0.4806858442909076 
-0.3210677202893599 
-0.1987013363361165 
0.2683857265118161 
1.568560169404164 
-0.5559469772546103 
0.1383341450279903 
-0.1984016787014578 
0.2061847625116357 
0.6678616684529528 
-0.101586489474875 
0.7672985383346738 
0.4743354889093047 
0.5881846395386766 
-0.07271524897304246 
0.179645394150055 
-0.1444803154869297 
-0.3265269837133065 
0.6227884587938978 
-0.04950091449698215 
0.6262468743286433 
0.6600850805719014 
0.3170469555864857 
-0.1850076675025829 
0.3959175739859416 
-0.09351601129891339 
-1.04916447976783 
0.02326360826114201 
0.8700047916897895 
-0.08132300030274221 
0.03275680886318113 
0.8322349563542643 
-0.293512488226342 
0.4188123039126679 
-0.7633049034096381 
-0.02488373557092458 
-0.5661374399659115 
-0.9748952420558439 
-0.05408797161313465 
-0.06901281086210671 
0.3536725456810987 
0.2182695732197514 
-0.02902106006726406 
0.06513159234206851 
0.2041737584662852 
0.5036841858016997 
-0.2290440765681102 
-0.3348182678013547 
0.9649601632098472 
0.3052397666316817 
0.1636807961678987 
0.1544552635617129 
-0.2896318428073948 
0.4175096407707095 
-0.03119664543907642 
0.3732751436364029 
1.194814275086169 
0.1761020403561444 
0.6776524282535398 
-0.1957023094942012 
-0.2254959362235789 
-1.238476108594363 
0.5659609470909898 
-0.1396387050332375 
-0.1103976094425451 
0.4875366067503618 
-0.3176018807497679 
2.345944973384106 
1.629172909921231 
-1.076431145932787 
0.4236632660850042 
-0.07036254401046955 
-0.9511428436934928 
0.4770127704504462 
-0.2240951626914453 
0.08227417940659576 
0.3610319041394364 
0.0473683354611687 
-1.02708168598378 
0.7073334197212401 
0.07292603337624357 
-0.0319165329331514 
0.213189760251206 
1.910294431169743 
0.6179156026676617 
-0.7084669435416948 
-0.2236958205199589 
0.2582727866892504 
-0.4053471509836794 
0.03269576335995242 
-0.1221720178882098 
-0.3642508050052186 
-0.158022470571407 
0.845193821078041 
-0.5022101467055842 
0.4673536655031811 
0.2886525611506316 
0 
-0.2781889474861654 
0.4584105681245144 
-0.2465010885861383 
0.5973807830633073 
0.6305607823493594 
0.3449960359333298 
0.1158535676166548 
-0.06864434287694889 
0.0839406988201547 
-0.176278240179651 
0.1034644533501472 
0.04232166237589255 
0.04571425633333177 
0.5026302074168942 
-1.239781615872032 
0.6155296647053794 
-0.2474769907627744 
-0.3910273816036279 
0.821876650101743 
-0.008191775610278588 
0.07634529518604183 
-0.9386016336119278 
0.8214824538598618 
-0.1487598736007646 
0.02853134762883329 
0.2166341701572828 
0.1278941286152329 
-0.1473786361811033 
-0.2108990868292975 
-0.2991987984761605 
0.3844212109435635 
1.092127738006041 
-0.1461057466212952 
0.182839129705197 
-0.5791429819522297 
-0.4328997269985958 
0.3146152224500599 
-0.5750177405018516 
-0.7991912099686972 
-0.2113766078518391 
-0.3357825559271447 
-0.471811230466296 
-0.003971810353735363 
-0.1212202844402086 
-0.1125631951840148 
1.054385184460057 
-0.2598776996480944 
0.26536700822167 
-0.1250574380817095 
0.567410795606027 
0.02310062273759161 
-0.2954866298004507 
-0.2028591190868298 
-0.04211142819828074 
0.1430949521131249 
-0.1653756839364668 
1.490285456967626 
-1.123049201265882 
0.3024514177352021 
1.492691813919989 
0.01139146788791943 
-1.003146898017402 
-0.2319778047987995 
-0.1084403943781203 
0.2652060479494811 
0.2846050712731122 
0.5715390215455594 
0.125017249228058 
0.4932763649315453 
0.6704675130888071 
-0.6817530253890591 
-0.001504360703908041 
0.8081205141946611 
0.7596647929479362 
-0.2599379462217977 
0.1212738859075121 
-0.05130836201282138 
1.65747075213943 
0.2784610340162756 
-0.3402285153930973 
-0.1897531768203184 
-0.2890867702260953 
-0.02999922961008718 
0.3665119384752075 
0.2593236765117802 
-0.005274353015932681 
-0.3730443112427228 
0.9452210472644776 
-0.1853361094324298 
-0.6366441133762311 
0.4701474570498906 
0.7340125957617296 
-0.3767085120760402 
-0.2759063953012739 
1.451837238704244 
-0.1214609407549665 
-0.1770094966360913 
0.8403694949818831 
-0.1035272683511774 
-0.6551637905328648 
0.2313068704030405 
-0.4840913980284057 
0.04295748135254878 
-0.06930961624735511 
-0.343049315478881 
0 
-0.026854866526542 
-0.006291291922295376 
-0.4586797303346331 
0.3132672894757191 
0.7979101655069328 
-0.5962753759143411 
-0.4318241346114398 
0.8357465921156186 
-0.21493450046763 
-0.6854060530800078 
-0.2949613225853157 
-0.0454079719591369 
-0.1599299639042508 
-0.8184291742453166 
0.4407618413998728 
0.3167603706238226 
0.2954469058022575 
0.3407773411325998 
0.6335095605361637 
0.4215687043990504 
-0.5753188164627558 
0.008946945799895091 
0.3533243670330117 
1.105009649070896 
0.2195346324511658 
-0.164086056115439 
-0.9466081001039798 
0.7828907415774444 
-0.5715152493246832 
-0.04239498959453202 
-0.8173953917044792 
0.5054612019186485 
0.2969936001924892 
-0.4038981509083607 
-0.03133366290996323 
0.4290755382274133 
-0.1592505394483302 
5.113961419047838e-20 
-0.4914894844675832 
0.2500059637671083 
-0.1321316537602215 
0.7400285359877069 
-1.012505151714576 
-0.8129737319813598 
-0.1160624431751558 
-0.01755954447165473 
0.3312041094979753 
0.9130413186375587 
1.017396968462204 
0.5195317766038011 
-0.4789373933990052 
0.3859092815681142 
0.2248997130688488 
-0.1583696534885891 
0.5140918218442109 
-0.2894197917114519 
0.3844546550084148 
0.2739010591738915 
0.1378038541924901 
0.4242879783776174 
0.2772910609905564 
1.969949447299276 
2.637410533701513 
0.3552640815847662 
-0.07692545190991767 
0.8180701728355795 
-0.07339136536510496 
0.6261158286699032 
0.6524105282461143 
2.206022044616674 
-0.7094445582748379 
0.2968534924552333 
0.06004100101016333 
0.2734206560145509 
-1.484001723589534e-18 
-0.3944030846954845 
0.01210502087875016 
0.4031204052884948 
0.1898040732510652 
0.3449534139959892 
0.1395625919681632 
-0.5982080024962934 
0.2254431128793617 
-0.3006322051160106 
-0.02487773157909741 
-0.3161570092576683 
0.1596535467621324 
0.2705759373445394 
-1.149458173934521 
0.6492165652080476 
-0.04869323561498399 
-0.5495057385593012 
0.08612019642652143 
-0.699757655352095 
1.198172872630721 
0.3419199622810302 
0.282094361133841 
0.7604524989456909 
1.186087000106369 
0.1086819168367148 
1.299843221881894 
-0.676349273541949 
0.09933487502393722 
0.4137555353251731 
0.770813467341145 
-0.516084055217539 
-0.01164788747457949 
0.6078895171693639 
0.2215399884802751 
0.432250931788319 
1.402481478588081 
-0.04517701190720899 
0.6132886544059241 
-0.4412444971115252 
-0.3725033883220328 
-0.1194032615735446 
-5.908054807098745e-19 
-0.4349929139105032 
0.6394799003763391 
0.7458519805135665 
0.4597356783933307 
0.7995488115404088 
-0.1903776418266935 
0.8448327988840266 
-0.1048167994221606 
-0.08329884947659005 
-0.005081779446094371 
0.02580118931106086 
-0.1581043909323033 
0.3911289908648554 
-0.3048824215042816 
0.9487306260873899 
-0.5960185349976528 
-0.2516012695732396 
-0.2433165242408391 
-0.07833468108290524 
-0.03551226320051312 
0.02221881361644528 
0.7509682953637287 
-0.0904624113467051 
-0.4121680352241054 
-0.08481118777628942 
-0.02191429882172638 
0.8061782423708386 
0.1205854595337821 
-0.1071210539957431 
0.1112955247069497 
-0.117723948339472 
0.03236330671631958 
0.0473565583643142 
0.3571011382120649 
0.5818753571949438 
-0.1135632740911245 
0.7632755745257869 
0.0432573085449335 
0.3045914972636836 
-0.1359845262271676 
-0.6256712478305484 
-1.431223415714557 
-0.02462536801601517 
0.1060719384071421 
-1.182259962125705 
0.3953383416243497 
-1.151153060044438 
0.4473802116454703 
0.1034074418720078 
-0.08196368560644278 
-1.44322970377362 
0.7371976730583087 
-0.1829705915938591 
0.04540394381441731 
0.5111854182309045 
0.1123565001765992 
0.1627293468821094 
0.3274495369489218 
7.835054762102278e-20 
0.8702928616191619 
-0.08419429817016318 
0.007076635645364974 
1.238951700242845 
0.02117667794661961 
-0.6320991313554905 
0.4724743516126464 
0.8414853974018097 
0.02013449689771716 
-0.3232509757320848 
0.3634620521351567 
-0.05472696018381631 
0.009955360915963211 
0.5645161018562376 
-0.9169859412167504 
-0.03292477431205348 
-0.102953555047524 
0.4515788842206144 
0.8881610008914937 
-0.2639679001360353 
0.3551475568220743 
0.221700526251127 
-0.006524129861266144 
0.7118568207915441 
-0.09918274525370284 
-0.3985310582247928 
-0.01044313567085249 
-0.4764085149737857 
-0.9550972267063778 
0.2969696781695702 
-0.07478664296332353 
-0.06214471438273937 
0.5282873679776616 
-0.3580120188043427 
-0.4187973448424392 
1.815907887179716 
-0.008664540521340348 
-0.4817103691569936 
0.160892580959806 
0.3393191327617662 
-0.8573859668589386 
0.05113955934970102 
-0.1939198231939954 
-0.5289553366036591 
0.111022891163034 
0.267825034378974 
-0.732009553721569 
-0.07387500942201936 
-0.1786315834853747 
0.189135882298351 
-0.5423695807823636 
-0.8582873608910847 
-1.111005954938459 
0.3714722590286131 
0.07070270829695736 
-0.003006882156921919 
0.0545262408902812 
-0.05251912771315428 
-0.3264403600630434 
-0.03648885004416898 
0.6711398525029996 
-0.7780897304122724 
0.1795502277814749 
-0.152117885534595 
-0.03920219952585175 
-0.2719436545781234 
-0.3324964852748334 
0.03698464939699245 
0.6051342532984965 
-0.03467901797624501 
-0.6491403882156763 
-0.6103907019636179 
0.8383767671201342 
0.5134601810848699 
-0.3804079186175079 
0.06567397164241832 
1.254291169815003e-05 
8.772084960002348e-20 
-0.1498242402533157 
0.743082813625894 
-0.3331849459601142 
1.382705181832633 
0.1905226906346223 
0.9245236030492991 
-0.1947031695243984 
0.4592104466386668 
0.04988696429209901 
0.1266642780965552 
0.6568716127810571 
-0.1351754007726762 
-0.1730776582202742 
-0.1569299637630331 
-0.002194916927048439 
-0.1905650258344906 
0.870747651096199 
0.1776945537694235 
-0.2558672292800986 
0.05984970257847198 
0.07379621526095274 
0.14453437755999 
0.9700745443577488 
0.2149411596380205 
0.3593141460464319 
-0.6384417974235065 
-0.1380653827844998 
0 
-0.2295909364227221 
0.4955370076124601 
0.104394676307677 
-0.9348972568893166 
-0.6477272113666892 
-0.1971456750131653 
0.2211424663928712 
-0.0822175639370288 
0.2129208085105772 
-0.02810335362909845 
0.6133218749682088 
0.7512349723930895 
-0.08493647059516859 
-0.7728959169967566 
0.08843787680567604 
0.1576401120663556 
-0.2308445346169735 
-0.0464993298813709 
-0.7651826531153147 
-0.6833312829484597 
-0.9176881401650346 
0.1430287730739314 
-0.02789785431598084 
0.04767495659720326 
0.7649342739223609 
-0.8532377208105439 
-0.3295931558962696 
0.784729877808932 
0.3029544385756684 
0.2970567594042058 
-0.1404590244010198 
-0.1002728102989851 
-0.356588500251958 
-1.496834599512799 
0.5481470754353823 
0.01440391303611739 
-0.2492156728537138 
0.9749290677729348 
0.2679820922352557 
1.229209464290488 
0.6055875417267594 
1.020780636884125 
0.3530223893421454 
0.01025861139453191 
0.7605254461471684 
0.9991039655281138 
-0.4101081767140221 
0.03017234798810638 
0.06360342921707468 
0.9974179531896629 
0.1874384830121654 
0.4382446666931486 
0.9336024273659673 
-0.5255519618815019 
0.7063072140450916 
0.8969728068165407 
-0.782658889892223 
0.3838578537047859 
-0.09497115862363857 
-0.03473694417046776 
-0.3916801523565798 
-0.7243132944025389 
0.07807986169885064 
0.577038092610236 
-0.001443618347321199 
-0.3443288987020412 
0.1574414295673353 
0.3765711332262615 
0.5667352853271216 
-0.02361418336377603 
-0.7862051435217808 
-0.5792173030912896 
-0.05610846820905042 
0.2912073105402565 
0.4012093076638663 
-1.297019200483147e-20 
0.2132567142671196 
-1.289530346158635 
0.6473324947628628 
0.06621757285070078 
0.183416172542792 
0.6770103983377865 
0.3242711153654783 
0.5315369167327768 
-0.7142433333943383 
-0.005420348708815496 
-0.4962224277280951 
1.325095992954223 
-0.2123034974749144 
-0.3959449209928446 
-0.002788846417047831 
-1.322998072812489 
-0.06704202047550424 
0.06478707600579771 
0.05729470682813244 
-0.4928273960193917 
-0.04948522292881255 
-0.1842511976785365 
0.06008821148997998 
0.635695006139257 
-0.4948513175094652 
-0.8443786025189691 
-0.02931476090580826 
1.680550877957424 
0.1144501918313992 
0.1838238937658506 
-0.3680044728680494 
-0.2677914239642034 
-0.5087837384475932 
-0.06890779422486552 
0.5060170195843512 
0.3045850209953671 
0.3108035756982007 
0.3382195805232492 
0.6800739773992016 
-0.2931566239749059 
0.008625277991984495 
-0.007906933552132178 
0.1832381281002108 
0.01263696116441562 
0.01160895515700388 
-0.1618032790030715 
-0.3190322693681401 
0.1054591746810217 
0.104782779659293 
0.3591685592986162 
-0.4705257850168047 
0.8275047760065399 
0.2957136709568944 
-0.03597907931266037 
-0.8230443912862556 
-0.04472171092830902 
-0.09956635200030454 
-0.0181418833165774 
-0.2823348346334176 
-0.2769738635642701 
-0.3285708804308362 
-0.6817111526701033 
-0.1310670530025226 
-0.4572719901051005 
-0.4256962208448565 
0.1131885632309171 
0.574205821552298 
0.2326225514845318 
-0.6040511238492129 
0.7046313230762286 
0.9295830942874775 
-0.1717773298786817 
0.3492923676851297 
-0.8175604150999691 
0.7044873763132904 
1.113331077896366 
0.1015787189093303 
0.5330537277441415 
0.3334180946995541 
0.4501223999670191 
-1.339612309615509 
-0.5165822859666721 
0.7015409242173484 
-0.8864749377279585 
-0.4707260245175484 
-0.4532446233575538 
0.6403274352623631 
-0.05899961473291656 
0.006975904294572215 
-0.4271438998948144 
0.2912250647004621 
-0.1361665714090653 
-0.4777069924606915 
0.2218930094054961 
0.08234139241621759 
-0.5683180059269052 
-0.02480762760252157 
0.8175900522326357 
-0.2102197896573679 
-0.0171566173118294 
0.01800869210559954 
-0.06914102751091415 
0.585277847726565 
-0.2420613846137219 
-0.735854601051722 
-0.000690725897871742 
1.404010540133378 
0.01827665333097137 
0.4403022633870997 
0.09344117295062587 
-0.1247553460051645 
-0.9425513668402774 
0.181724068454668 
-1.241408713836996 
0.225863552618455 
0.1286118318195745 
0.4352827130114458 
-0.120852588831418 
-0.3326735477467768 
1.523630356358106 
0.1293524415456678 
0.1662907073012158 
0.2855565434687158 
0.7086342849656516 
-0.008853381535108923 
-0.3155571045358879 
0.07031099718825018 
-0.2136234531373682 
0.1490771626504772 
-0.9540008751656899 
0.2910885828522104 
-0.3754796793807187 
-0.03275416515808372 
-0.2284125699421247 
0.451860541264143 
0.9349262595498254 
-0.00137063943500099 
0.03910422998220606 
0.9913358420055237 
0.09564346287213579 
-0.2902695025565964 
-0.03023712342445987 
-0.09101616958941083 
-0.3966776638148308 
-0.06420624016180805 
-0.2009467292222954 
0.6354582220997077 
0.2009133988802029 
0.009711174406958435 
0.03001484427283485 
-0.1856882964859598 
-0.4579963150125139 
-1.095244640760798 
-0.07389457481482728 
0.2311657948527401 
0.007062826119447188 
0.4807242461772281 
-0.1333417831863678 
0.1754217516213287 
-0.02781336538851465 
0.05075957925500124 
-0.02894903072580213 
0.18127433454659 
-1.287512903144567 
0.3763470855669518 
-0.5959107188820526 
2.107227176445193 
-0.01682573436241367 
-0.06873647501993915 
-0.5705697640625558 
-0.3629615741146032 
0.1284794336416514 
-1.22832615805407 
-0.08742714281202742 
-0.3681776114929885 
-0.03192506455821151 
0.3222334940163886 
-0.006633037143522035 
0.1662209490163158 
0.6424162379052619 
-0.4492388708081751 
-0.328394384803969 
0.08032697325132857 
-0.009431814571312152 
0.1290735147828083 
0 
0 
0.1581099098507148 
0.303149064540996 
-0.277179422040452 
-0.6096500273335603 
0.1715981866982524 
-0.4797169391676817 
0.9903152234650016 
-0.1225542975401778 
0.1613277240406129 
-0.1438439232785138 
0.1240881320605347 
-0.1433888854975878 
-0.07127209164980765 
-0.05523098270700207 
-0.96840659168437 
-0.70049867813954 
-0.0518881547175384 
-0.06830229623066944 
-0.1614684499542279 
-0.07718330459401049 
-0.1211598942705788 
0.248222688960735 
0.4693754281464552 
0.5220473253437307 
0.2755845746685702 
0.637990778094597 
-0.2453546436377757 
-0.09664537579419383 
0.2169938693935505 
0.1456412639412373 
-0.2041678833359876 
0.07808301527340661 
0.884532033608453 
0.02968601898695955 
0.03519968123651138 
0.2832308843881883 
-0.05747796111601127 
0.4147299039680352 
0.01561298119477938 
-0.3983693678468981 
-0.6303871164829605 
0.01859170519907337 
0.1840167549968469 
0.3363432815884293 
0.45532385359091 
0.1076033626890305 
0.2553310705403247 
0.5506603643945046 
-0.1405867340777237 
-0.5555443380848289 
0.815111688304652 
-0.6859844303980159 
0.7423105444616014 
-0.9705796146898237 
0.1841376170508101 
0.2103057948399126 
2.177714908314691 
-0.9712290354095424 
0.2527959604474733 
-0.1365600922269094 
0.7485465336917524 
0.4106924606801308 
-0.1008950089794176 
-0.11843104702608 
-0.1159557986657274 
0.113280939313459 
-0.3791807047143261 
0.4374267510460778 
-0.4529180740104769 
0.3046677042601855 
-0.5701414982755503 
-0.3495380349130975 
-0.4978273272559951 
-0.02126442757454006 
-0.8425428998356306 
-0.4326087552220239 
0.3450670303106488 
-0.4309410121059696 
0.05642970549283383 
0.8241185038044805 
-0.006620144455963302 
-0.2477123783504668 
-0.5528435561077351 
0.361253998975838 
-0.05146963164487964 
-0.02266059125210009 
0.06733531163561726 
0.3063272402691958 
-0.5579347675878239 
0.5562823177212604 
0.2041352153519127 
-0.2826974200285415 
-0.2366682822618528 
0.2956416386312869 
0.1922003946984697 
1.040855802972257 
0.7452824560816872 
-2.929675206315811e-18 
0 
-0.09502749611499299 
-0.3261506697766871 
0.2621918285562528 
-0.3778400292129049 
-1.282217247543276 
-0.3602700079808095 
0.781967991727737 
0.08502003387980803 
-0.4085012178313983 
0.1998826572532526 
0.249514193276857 
-0.05410317610957079 
0.05641969120078015 
-0.2797146463337657 
-0.1002150463603017 
0.583165344802274 
-0.01278282320609416 
0.9914417100661405 
0.4099489415525879 
-0.8713343596822699 
-0.2149991872098967 
-0.0003801420747601992 
0.3459108393629557 
-0.5281033454975727 
0.0625561443615722 
-0.2116157403244254 
0.1425910306337038 
-0.2386431169785786 
-1.015406295413365 
-0.05614560516878671 
-0.464177289282136 
-0.4032117527957328 
-0.001007056167415932 
-0.05278160422753993 
0.6056636727002291 
-0.06586444436801563 
0.05720930059174388 
0.1285046422255336 
-0.34536002051793 
-0.2107223665524232 
1.642037007699796 
0.1222508509516037 
0.06603474965153977 
-0.06026505172882402 
0.2942903638684743 
0.03295112273654476 
-0.01618362381630425 
-0.8819692181854174 
-0.971702580659154 
-0.1516050114556112 
-0.2280885268135758 
-0.6034648256383444 
-0.02900063428560052 
-0.02863129011703734 
-0.622527676323347 
0.02718084142687991 
-0.903803308576023 
0.07203871062310443 
0.1403864447530177 
0.03707662080976626 
0.2284152187367074 
-0.8718979722206286 
-0.07276239147859083 
0.02155829089869574 
-0.03248372805165072 
0.3005458878323962 
0.01878809962303599 
-0.09095490062216582 
1.472746034612162 
0.2393993383520915 
-0.02303370588338976 
0.2256487556288728 
0.4524894310730433 
0.4543929450330607 
0.1086747721203066 
0.07046508249681999 
0.7267684507594286 
0.2449580821792215 
0.4593666452722766 
1.275801025154427e-17 
-0.02007491245793967 
-0.1723260319698888 
0.7929332083839148 
-1.018182735939839 
0.4313880653136602 
0.1831875138451379 
1.153854730983852 
0 
0.01007266934512131 
0.1521875239953729 
0.3844231587546628 
-0.1387652828631908 
0.08288956348586225 
0.1224028734341737 
-0.2977436332547135 
0.1743806328531338 
-0.05589425506612571 
-0.2897810101245376 
-0.506160158072159 
0.8296776019468414 
-0.2345964581390011 
-0.007635405552284528 
-0.3039298645953042 
0.1578044571773627 
0.9695646402673994 
0.1061336976665074 
0.7444135308725782 
1.231369275382893 
0.05078589140994345 
-0.3112824261881207 
0.1466789465424252 
1.393316702174082 
0.06446367586129263 
0.8173825610360165 
0.06835035343476088 
0.8232492863088141 
0.2469514716756087 
0.09473311296299806 
-0.3573722776620029 
-0.6547622794531341 
-0.01373153202800112 
-0.002480022537662173 
-1.036366406084726 
0.05750808126296321 
0.500490797848444 
0.2345799996682761 
-0.01682238384023724 
-1.584734823871803 
0.5248799001965954 
-0.08553006821265116 
0.196432491902819 
-0.07258038074725967 
-0.2081087746171099 
1.984440704180188 
0.05352765421572046 
1.184130816378502 
-0.3388757297292818 
-0.02741149062409352 
-0.1112940463096804 
-0.7101650032043854 
0.631860072753602 
-0.3106152786207838 
0.4702362806689698 
0.3222066598826115 
0.2122478298685677 
0.575111048896469 
-0.4003791230087353 
-0.09416458166964914 
0.2933431622234946 
-0.3825243130681578 
-0.2823795398768095 
-0.04048217343432111 
0.1229551495351786 
-0.1144430723309825 
0.1755747077220918 
-0.2414506645185248 
-0.05383677438202754 
0.0151410759252165 
0.5391992456990987 
0.5510428772113708 
-0.6219458830980265 
-0.9955339004410967 
0.1558490685354595 
-0.09214653760944945 
0.1388978163270393 
-0.1204018900117577 
-0.8110820613246341 
0.9400358580781121 
0.1127620167947209 
-0.4566721325897569 
-0.8290782326998697 
-1.062334152573075 
-0.07999741158824211 
0.4817757947683624 
-0.4007425649978643 
-6.93719983801272e-19 
0.5055521706786053 
0.1345405058963867 
0.4789238500913667 
-0.156098542367494 
1.141349376179408 
0.03476034470836876 
-0.323733674714226 
0.1116887756061812 
-0.09815738219195225 
-0.3872719344501695 
0 
-0.8687094982462863 
0.03788902396429862 
0.1983044623061561 
-0.4759929034313795 
-0.3201261293128126 
0.1540981250581932 
0.1997164865712726 
0.1181830447265961 
-0.212008355523777 
0.1251978073099312 
0.4695236381371835 
-0.3130391948273732 
0.6954846406738655 
1.013461149686382 
0.9903840578493416 
0.5562361713422962 
-0.3260836777352761 
0.2191551946681251 
0.552805048585049 
1.190899692249386 
1.227926068543673 
0.9146956701876595 
-0.01038299785074709 
0.7755887401474839 
-0.08628790361790709 
0.748201429820693 
0.2084308410907536 
0.09313376161163121 
-0.1167684108403989 
-0.2836227000893892 
0.660041198460898 
0.06993263589051939 
-0.4795030888483823 
-0.02723847564189355 
-0.01700137842139665 
-0.3115612818544993 
0.2181721627440907 
-0.1353193194248773 
-0.5373750292530339 
-0.2323455300700295 
-0.8979417206794034 
-0.08336386136128254 
-0.05849416488702334 
0.7579957550063661 
-0.212230561276722 
0.1072044167888934 
-0.2577917672756546 
0.2133094497916386 
-0.4027821118910851 
0.5484771268424112 
0.5233070345716289 
-0.1155526945114006 
0.03988490572615604 
-0.04608165973500265 
-0.1291143290829286 
-1.160147335640015 
-0.6020224760565422 
-0.1759663269646807 
0.1433990764717867 
-0.2302736315558055 
0.06599519636452214 
-0.0161275456880931 
0.08997057875259276 
0.3598883105477397 
-0.1181129788018743 
0.6379643411243269 
0.2164350702314527 
0.4203119080291332 
1.533800015339527 
0.05034963297100254 
0.272434692693147 
-0.04606630781338106 
-0.07318426326302889 
0.5813441266836251 
0.1099659872671103 
0.05053935628954014 
-0.1649804135054882 
0.1937694328627173 
-0.03116268998763 
-0.2773292435916975 
0.1554624745915361 
-0.1988839935694791 
0.327076662581016 
1.115198284399091e-18 
1.372667543194928 
0.7344250963875635 
-0.008757267252389778 
0.3278296823738081 
0.1632337276298947 
0.4673400107670738 
0.1763508947074101 
-0.2653295875938506 
-0.2503489088731721 
-0.9440275038633155 
-0.1360118352208215 
0.7092210683794891 
0.1089582227637803 
0.9264472386429635 
-1.092521262588443 
0.09938915186948116 
-0.4074569844727813 
-0.2978518849224044 
0.9233675240578879 
0.3231163776140741 
0.3335514308762536 
-0.7261856841893926 
-0.2844756419522462 
0.6021925534078693 
0.3798068654742413 
0.04571058772479775 
-0.7056211017979011 
-0.3061020421132731 
0.09780745518029453 
-0.5540908128346342 
0.2890508667773672 
0.6214496912685923 
-0.04930890456856527 
0.158405781595902 
-1.393216731585726 
-0.1171534423165931 
0.08290439334496273 
0.2398627474217862 
-0.1552920228455308 
0.2481969176402816 
0.03500158977671224 
-0.1574882264184865 
0.1179446767035535 
0.09471001115938171 
-0.0487608984127458 
-0.01050276634131114 
0.05716680371762303 
-0.5525053636990118 
-1.114484539251551 
1.543341431661687 
0.2133553055991067 
-0.6894813656615054 
-0.02216883940217013 
0.5138645835322677 
-0.840819616213381 
-0.493354440890976 
0.1731685803420459 
-0.936272052729102 
-0.067446510463663 
0.1290715747466834 
0.09708740622787437 
-0.09785014140932737 
-0.410505137588898 
1.114318315050666 
0.02679232489891709 
0.04282878202881814 
-0.1087216363407745 
0.2153018348781045 
0.08736030672438445 
0.01522009463866654 
0.2957676368447761 
-0.04240123165624182 
0.2728029137287944 
-0.1577153725282968 
0.7238587265711047 
-0.5114030691815327 
-0.7746393653231504 
-0.5333866672740933 
-0.07934619839629252 
-0.09927635146092555 
-0.08976344039182138 
-0.01841892467260312 
-0.09969023140269666 
0.01070160216500852 
0.09424884816413155 
0.5957299517122528 
0.1510557645928078 
-0.7630986605795765 
0.574875716119076 
-0.1053490481474288 
-0.0271451854199313 
-0.1313857192823533 
-0.4093543121496129 
0.1458443026043144 
-0.8880214753511854 
0.04768966580462904 
0.2770283851938493 
-0.5189983767383577 
-0.4842827979180703 
0.1099300927916118 
-0.8484536842680163 
0.286707723870235 
0.1182543256800483 
-5.319366908757006e-19 
0.08181248178529428 
0.2563528235970576 
-0.3666097781255132 
0.274027016046711 
-0.1424101765633507 
0.0427851232360701 
0.03037013530706171 
0.6543119456678668 
-0.1272176792722224 
0 
0.4638133669485213 
-0.6756082750755116 
-0.07748846936434658 
0.6170929660892407 
0.07915057749951829 
-0.4808571938250307 
0.4560530767539033 
-0.02669590401260575 
0.4467069063622671 
-0.04247605313061141 
0.3563407301007657 
-0.3384237525067303 
0.2537193800067799 
-1.134464201061055 
-0.1177381836053559 
-0.03114336181489294 
0.07097076598680925 
0.06305913183688534 
0.3640138570329696 
0 
0.3480479951566388 
1.005297779110985 
0.01941622319268921 
-0.3856361499772596 
1.090022716126359 
0.9630614427863972 
-0.3997897039030009 
-0.4857528089823657 
-0.7032344135869171 
0.3846459985874683 
-0.4952892414477998 
-0.1188443949064089 
-0.1873069826271 
-0.2491213264895995 
1.100815569626937 
-0.7227161937076043 
-0.1133240505123595 
-0.02777921174981261 
0.6663634027577874 
0.01384185432399243 
0.5148171029116715 
0.7198087142827901 
-0.4163610381602589 
0.5779517483282645 
0.2428567713473124 
0.1016580644537131 
-0.4539727305578983 
-0.04920323783849258 
0.9524645074877959 
0.3364056957297445 
0.3519006641969699 
-0.6396370878814837 
1.59292026727552 
-1.08875944221218 
-0.3039076178516493 
-0.5049619581413722 
0.5132098270414394 
0.6423326516261204 
0.7321777826203379 
0.1220036190648472 
0.2404121975704941 
0.861939052197621 
0.4234508241922182 
-0.8987918883194084 
0.0281760437763057 
-0.1358593387537338 
0.3783773821541608 
0.009184447291412864 
1.035916418891862 
0.02600712425711656 
-0.3981365377140968 
-0.107865435773174 
0.6730120602107175 
-0.4216754718337696 
-0.2403711466664871 
-0.7224024183770059 
-0.08298492767957215 
-0.1925593263856042 
-0.2027868834298381 
0.2373164559506893 
0.009421980344823604 
-0.5909223005243618 
1.029731304954069 
-0.08637985153128054 
-0.03151753893582129 
-0.1902864321375093 
-0.1872586604152374 
-0.386997995284327 
-0.02900423761823548 
0.04875307714440585 
-0.08487183853441456 
0.4764856189248463 
-0.1335962742448752 
-0.01167155709121786 
-0.01743466355093331 
1.277476211718519 
-0.1518405982795478 
-0.07620051372364071 
-0.567234758692661 
0.1339420890800758 
0.254249195510694 
-0.6329779214786387 
-0.2622372117881282 
1.960881272893705e-18 
-0.005946069299405531 
-1.014705790093252 
-0.008319199816802158 
0.1732477593397684 
-0.6507587993043163 
0.3142842961348889 
0.2215274969441633 
-0.4310356347107255 
0.601267186300189 
0.3954827148674766 
0.1743634994980242 
-0.08579048582611831 
-0.1331261146458502 
-0.2253925776957246 
-0.2415148658494474 
-0.1318576506067128 
0.4004650152666691 
0.6107628140385393 
-0.3117126718929583 
0.1377309586086824 
0.1103021365303287 
-0.3418167970436794 
0.02435424954827992 
-0.2232635936432296 
0.1639955505240662 
-0.7396733790534491 
0.2115809485401011 
0.917037936364869 
-0.2595940678242034 
0.615154767958589 
-0.0614699464257422 
-0.338881960077011 
-0.04219432594682926 
0.01174107832745364 
-0.2139633478668663 
-0.06751790802651615 
-0.1779357106279807 
0.4900186874609082 
0.09053557437628504 
-0.0469931230777578 
-0.0564108658219576 
-0.5155391991241497 
-0.3286762108824508 
-0.02531033464429829 
-0.2035491747226398 
0.1434970368564378 
-0.2577481885650455 
0.202618221734645 
-0.2452059811741143 
0.2956829797062837 
0.3681123704688827 
0.1498605422688647 
-0.4729952316533504 
0 
0 
-0.05889374066775657 
-0.5625641504032681 
0.09278733429748305 
0.1538100666530971 
0.1335762981891392 
0.7088468197266019 
-0.1805128773598273 
0.8136207371966857 
-0.7848128859124601 
0.04691000230865287 
-0.04967836525799153 
0.006023737403248863 
-0.5428137954149082 
-0.07674367426414244 
-0.4674701373088812 
-0.1272990727064957 
-0.1109532172482227 
0.9173676626140511 
-0.2509985473217187 
-0.04955293918317115 
0.3162591626374937 
0.5167035031062194 
-0.2724110879184969 
0.2394873903594484 
-0.03279079670795312 
0.8574567046469305 
-0.4287120842595703 
0.1626111732327256 
-0.3731330413211677 
0.4085817902536883 
-0.1873823216408352 
0.1058252433087346 
0.2009596872073547 
1.237191470981339 
0.0600559884638146 
-0.005089196092957203 
1.565552288714671 
0.07980694104912964 
-0.1853077995229405 
-0.2180299159193331 
0.270597790645714 
-2.686682629572234e-19 
-0.1501269688168782 
0.001380483925258103 
0.7424690904364433 
-0.1035693908839111 
-0.273336715157445 
0.01876995490502618 
0.2497705725572137 
-0.640906862044206 
0.1505443504437885 
-0.6910069036205891 
-0.1098186629482077 
-0.5042944668363269 
0.01604049257221407 
-0.3845561075258211 
-0.009462882273921317 
1.210829867763271 
0.5538676746651152 
-0.2186315050925538 
-0.1648702276809785 
-0.1199961688587593 
-0.003721904298165515 
-0.8031846781418975 
-0.04228448022615814 
-6.935082255644584e-19 
-0.4308853675167161 
1.583544012579957 
-0.0674268877061317 
-0.02034512635419834 
0.03345432822960034 
0.3377131922944955 
0.05143365751849555 
0.1175199196767117 
-0.08648086252618756 
0.0266515268269103 
-0.3878702096793435 
0.855959264006709 
-0.2891392875740832 
0.4652757577149804 
-0.54528274091581 
0.5813088865045352 
0.3580671546848017 
-0.3378514775389878 
-0.1617918876155751 
0.02277023619096957 
0.6509489843716451 
0.6517990526138597 
-0.005031923439288553 
0.4878407595890819 
-0.4433126169541722 
-0.1724435710100933 
0.5434162221691141 
-0.3787331111003212 
0.1149756114713926 
-0.3218430101339815 
-0.335567674617832 
-0.8260602615511047 
-0.01040422651836 
0.7809763823708769 
-0.002105773523002001 
0.5371295649621843 
-0.570130932305245 
0.1116118423321078 
0.860344201934618 
-0.2182974304862821 
-0.107698201333087 
-0.09041363013412985 
0.02378631482836679 
0.01382954124449842 
0.04147056308553562 
0.04471979327962705 
0.03025702798044709 
-0.5396581337400891 
0.4180616974653473 
-0.02566934588562518 
-0.1896432923611118 
-0.0655075959200198 
0.7280958512088855 
0.03631960371535944 
0.4304552278303572 
0.04733360476539721 
0.1027552433485818 
-0.08074560256647835 
-0.03154709779630218 
0.2184181223683428 
0.3479775197814893 
0.04503719760116514 
0.3201098707492461 
-0.1864301754285091 
-0.03960470765900611 
-0.001119034783144211 
-0.0174372499060857 
-0.01871353813349923 
-2.903073077816106e-19 
0.05134342823944241 
0.1104534252560321 
1.543876365048573e-18 
-0.2653724719139938 
-0.7043776996440319 
-0.1002175018104403 
-0.008616583689099684 
-0.5745649456042585 
-0.3343543025868331 
0.04520041220079981 
0.05246763418260079 
-0.3085918592877991 
0.3148743769922419 
-0.04413131662965478 
-0.3262358508280429 
0.578857892227946 
0.5047823508951023 
0.8997566177682669 
0.1583228693796047 
-0.09173988118873994 
-0.02438819389677532 
-0.3188961066996851 
-0.5247818990590779 
0.4872115999081502 
0.4406898449310109 
0.02852466895828601 
0.4485480620856769 
0.4467721032142855 
-0.7793073988957629 
-0.06883524455035164 
0.3025014097176306 
-0.6148802426254004 
-0.06178970039069576 
0.01091175359616517 
-0.3727605625197286 
0 
0.08812084691419804 
-1.337623260433065 
-0.02280257926703257 
-0.2219206788609082 
1.669555895373817 
0.03007273139268267 
1.00937187098561 
0.5531988056438628 
0.1581832343551531 
0.2660831012883732 
0.5452719534401068 
-0.1494396302055063 
-0.1960068864954137 
-0.04418394485088023 
0.1044862887480878 
-0.1957077376383121 
-0.01799145945926592 
1.141509374145025 
0.6469128541473973 
-0.02626886627626802 
-0.02700610349987985 
1.431764592969009 
-0.05296225744945444 
-0.08993015769303571 
-1.203666830844507 
0.7431113024556147 
-1.086159290469889 
-0.3639274550647466 
0.4912645946724349 
-1.769882732116785 
-0.4894551956671639 
0.158606621729818 
0.04719049535505703 
0.737367893113766 
0.8464666340974535 
0.5411521003071276 
0.2117104335310862 
-0.5986617823111301 
0.03054585225902903 
0.318805606320493 
0.4348826944842236 
-0.3639626458291116 
0.4266482291415774 
-0.2887721310773646 
0.1559136174175092 
1.312546578549093 
0.134279501371888 
-0.2177996871291274 
0.009643866176668863 
-0.3126632405236225 
-0.2675161544763364 
0.07991452483559268 
-0.0518849426374401 
0.1916268699485526 
0.7065527321954113 
0.03172244977429495 
0.2165681703590799 
-0.8646800634456562 
-0.04327237919541565 
0.6085557790569593 
-0.7196439106618762 
0.3561624090178822 
-0.5751679852393256 
-0.73482332723622 
-0.0437567924142371 
0.8199509097887678 
0.271606093409383 
0.09986572964270632 
-0.340335601820329 
-0.2157891833109765 
-0.1637277650752121 
-0.5918330449173146 
-0.1284531915918927 
0.4513107347348116 
-0.2892152857459931 
-0.9918941874333205 
-0.01082279345258275 
0.07854981057573845 
-0.04962701403939235 
0.688642906192878 
-0.3826071752106541 
-0.03947703187159718 
0.1392634008217796 
-0.237889048845892 
0.1384310446946952 
-0.1340576293553515 
0.497835454555662 
0.09460660077616283 
0.1292511242534631 
0.2216641272360464 
0.2801412964956597 
-0.4563948462469566 
0.2329036187768102 
0.07464533917093553 
0.04914993362505374 
0.03241555953770436 
-0.0163593390056089 
0.5992624417371732 
0.3052200652803471 
-0.4225872349297046 
3.942832490350361e-18 
-0.7405392264157737 
0.9435243507890447 
-0.07549927828202488 
0.4429064066830442 
0.4818581772462659 
-0.1423007075117557 
0.1367676294443691 
0.06612496715610812 
0.09982350278585152 
-0.03655530040314166 
0.4003763650238605 
-0.01187209718673168 
0.2733526429143383 
-0.4517659285652345 
-0.2765884393140196 
-0.0725931721346906 
-0.1177669891332634 
0.0896496064275188 
-0.07406462057931933 
0.2110774164033922 
0.2955821402229931 
-0.04893027028517292 
0.06737023702667157 
0.001240392664828089 
-0.1600454478434573 
-0.1951450199639446 
0.08616386688070513 
-1.382967503348328 
-0.009926023589911407 
0.1746811136218996 
-0.1067784029462705 
0.4521882438935359 
-2.512299721556255e-18 
0.02326653471174794 
0.02064798940098104 
-0.2788566919948751 
0.4024697707783284 
-0.08546819411481939 
-0.1168779754549705 
0.3148380243487641 
1.077326378258362 
0.2045966809903808 
-0.05724927504506819 
-0.01023763133157801 
0.1018799859473456 
0.1448530502410001 
-0.1805958015036862 
0.2762591117541862 
-0.09679117340322921 
-0.1866764286545179 
0.3495234168584054 
0.4132466314234534 
0.3708531002986669 
-0.6911091245097273 
0.6818238028228136 
0.3555658381066206 
-0.7362122246385744 
0.2752343397178966 
0.9031420185366927 
-0.01468989212506622 
0.07731192519167772 
0.1803687829201747 
-0.7956499019032484 
-0.2192558957619443 
0.7278971394071094 
0.2599153664426994 
1.472449146220145 
-0.1794224653576832 
-0.7757362275005097 
-0.2320385211839633 
0.168184684052477 
-0.01382009674236559 
0.03999734134496324 
0.05817992846598078 
-0.07087236493042816 
0.02718016579641311 
-0.883110413611838 
-0.009638921591302528 
1.052467756442445 
-0.008179274021031654 
-0.04294745475256996 
-0.04097741502059931 
-0.3160824793222213 
-0.1829171725958178 
0.1222812658692008 
0.4538084083793456 
0 
0.05172685279670393 
-0.006155145285039465 
0.8264868944744748 
0.5098850919505944 
0.06137857555503032 
-0.7090763303952479 
-0.9777734105581228 
0.7905019593790538 
0.2299409812736362 
-0.4000825574405783 
-0.678248413903759 
-0.01018194855586549 
-0.1808113024448927 
-0.3665270101243168 
0.09969538948223011 
0.7053097241961674 
0.2348053345029221 
0.3177518443512444 
-0.1771632947894541 
0.5524365699285583 
-0.267226633786001 
-0.7288637515067473 
0.5223054089430491 
0.1033307591858403 
0.02083958081767849 
0.1211553229171883 
1.105741022015063 
-0.8450176499038187 
0.8608294268693258 
-0.1894946328582713 
0.3216992030861611 
-0.285247674207283 
-0.3512296735262944 
-0.1581469238287384 
0.03094588608965693 
-0.5566351306824874 
0.0619530244085992 
-0.006354831549601534 
-0.5713733867629094 
-0.1509320532169008 
-0.07469286138190809 
-0.4024388630680403 
-0.07435904935857163 
0.253648969586463 
-0.2308544522152 
0.02533962583631369 
-0.1781448127916598 
0.1403398205647589 
0 
0.02396773598962101 
-0.5000371068674994 
0.3893932943483458 
-0.2738884323214298 
-0.05032247990977707 
0.1025756555022021 
0.3514763222646703 
-0.07725396397099336 
0.1290081862049665 
0.007464748312003279 
-0.5010872110647747 
0.02204180085906608 
-0.1361925803611661 
0.7112864769484212 
0.9702396193127883 
0.628448763975855 
-0.1952696493235374 
0.6308538844620787 
0.1025850297049379 
0.04656917432454746 
0.2345834192252742 
0.3000793012011083 
-0.1640637050374343 
-1.029690930773973 
-0.2537857925942783 
0.2816612166868257 
0.4396947995178535 
0.08528020001431183 
0.3318235775728671 
-0.04368153772074455 
-0.1081434822308053 
0.01258656706574568 
0.7201455440330209 
-0.3381215984672424 
0.5393213212652114 
0.1253443980385394 
-0.5504027939284716 
0.0457086094868684 
-0.3513467851430638 
0.5406123197366206 
-0.2946435717528314 
0.03546620867024317 
-0.05683844769047425 
-0.01933204619831179 
0.1446159036826636 
-0.6666710843910086 
0.6090740838228969 
0.5229790691764672 
0.05374514315312418 
-1.101748936900208 
0.1067967686762468 
-0.9088896340566761 
-0.8048401293971901 
0.3731730867260026 
0.03665291641460307 
0.4549495198764117 
0.9700186985055036 
0.00684373418452973 
-0.9796897600386991 
-0.3956553804210394 
0.3066852321646493 
-0.1217151222241869 
-0.7766048774577983 
-0.6165286154990706 
-0.7462534345530939 
-0.7905819574793514 
0.2028608268289494 
0.01404052460159908 
-0.09084582372160604 
0.1602155341430432 
0.08032527367450287 
-0.07188568094744563 
-0.5316517210638295 
0.291473964948341 
0.6086260181066745 
-0.3323963332419307 
0.03871149572337188 
-0.2045860993199795 
0.02956815492568413 
-0.6646321698008631 
-0.002197047457446497 
-0.381384144231899 
-1.057676387510714 
-0.003862260709762802 
-0.1434251400703407 
-0.9167241260568904 
0.07895997940930613 
0.06221457504680549 
0.668100751167656 
-0.7869178381602198 
-0.04723864351757379 
-0.2248111613333683 
-0.2203789999582095 
-0.6158610934115317 
-0.2563942238255215 
0.7110744560684028 
0.200675730677573 
0.3823902817789483 
1.109204095461499 
-0.2985210927852772 
0.7835311388687042 
-0.84684903343041 
-0.1928767144617272 
-0.281106172621673 
0.566745737969926 
0.8514001308785971 
-0.4335255153637574 
0.2466558335671857 
0.1875370271588981 
-0.6304302633609116 
0.8121931147353992 
-0.3816032481414917 
1.26462019025067e-18 
0.238011104371907 
0.047541961195851 
-0.6208882466030498 
1.557428948405665 
-0.4424426194112687 
0.2433712116644391 
-0.1039232207413348 
0.09773131343164783 
-0.268544678667364 
0.1567422822718076 
-0.2827900296398859 
-0.0785750380515271 
1.21693008769636 
0.4753191515836777 
-0.01493257825211017 
0.1496454428018409 
-0.1305072806121562 
0.7408009172058746 
-0.1027638672558649 
-0.02472394746246788 
-0.8729575368122732 
0.106822802661368 
-0.3034633832850949 
-0.055079075822215 
0.1807101758874375 
0.1326730855938875 
0.1154817572755418 
-0.1785918949291634 
-0.01873749596786686 
-0.1325814970439388 
0.4024313602106534 
0.3994936704270801 
-0.561411595772049 
-0.03128298502853578 
-0.02428422477026486 
-0.008388762295964768 
0.4977172163611317 
-0.5983862867103867 
0.05013539091722691 
-0.3023296042794656 
0.04092748058238134 
1.09958337254222 
-0.5349684165101311 
0.7753360583802655 
-0.5191828844858244 
0.1905310027383038 
-1.131207785160995 
0.1036863698675973 
-0.6842779353556414 
0.9288011660024805 
0.2899543373785369 
-0.0195275486044045 
-0.1033782965827395 
-0.554152513203607 
0.006195057332113252 
-0.1239294758791071 
-0.2637044540825735 
-0.1874103710467084 
0.05423431727461666 
0.09319622890480903 
0.01494880223239834 
-0.005824127657177969 
0 
0.0207239155716974 
-0.1454651288819942 
-0.1870364270952186 
-1.17323909248488 
0.3058588124336563 
-0.05432554298690159 
0.3805006430744947 
0.4159059846695341 
-0.3832113000459874 
0.5314105187994416 
0.05939572660711345 
0.7415828816690077 
0.03575240110918151 
-0.006447683863564173 
-0.0704027249910779 
0.6800858110408369 
0.4455633286567696 
0.06375547570129234 
0.8349271434574278 
0.007632829042199107 
0.2333192792013291 
0.1463934457615489 
0.05852804828847944 
0.1325298616090716 
-0.05740434430860065 
0.06351981747808566 
-0.03999838684070695 
0.09125563016060301 
-0.1127122451084109 
0.3764591928399811 
0.1758094224395577 
0.1143061284551889 
-0.5271875872887959 
-0.2136983974480351 
-0.5705586911459883 
-0.09821393931756821 
0.538560208068173 
-0.04349748114654395 
0.2122676229894317 
0.1182753559723715 
-0.3399803048173936 
0.7030975049977963 
-0.2949920799610292 
0.1638956731251546 
0.6847794813616002 
0.06146387878457454 
0.0001895497175448579 
1.613597764519442e-19 
-0.06170303836553363 
0.1307592796077727 
0.2881275586478897 
-0.5281614564718771 
0.4580358739289659 
0.6746918176274768 
-0.03610101910120132 
0.8145607448064112 
0.2948611205770135 
0.2253270117645795 
-0.03075746291719238 
-0.2148288876442345 
-0.02432073314330124 
-0.0146922832744548 
-0.06551111588103586 
-0.005474269390575931 
0.3206206862532041 
0.02563235695840247 
0.1645464228673025 
0.2430298210052949 
-0.6830982708243746 
0.5524147631221754 
0.04829841949583023 
0.2108088880232101 
0.1972384346728303 
-0.5132720882030626 
-0.06678372493124726 
-0.2611725708076597 
-0.2401300866590161 
-0.164592688314477 
0.01672384415588018 
0.8094168835132163 
0.8178337320837267 
0.4891063287143864 
0.1331633832642945 
-3.74642672570577e-18 
-0.4509506713425476 
-0.1089324936175304 
0.154363137182499 
-0.07972033320637809 
0.2324429900172796 
0.7487907598105994 
0.3814234186858276 
-0.3831644448844681 
0.5611961481591953 
-0.2203132313127988 
-0.5624779363293787 
0.07040641925892044 
-0.062273270778545 
0.4643188332854561 
0.05906780693300055 
-0.2075577789445148 
-0.3161508644598818 
0.1640583641920784 
0.209745232117604 
0.357064594764058 
-0.4263071335670289 
0.4102211681399497 
-0.6475676630823545 
-0.8027506485893181 
0.2750741543993755 
0.03454192539169319 
-0.2554556438116874 
-0.1895407191702238 
0.08667798663820971 
0.01902131726532633 
0.1141285448653733 
0.06015034985066035 
0.804814193437822 
-0.5848222898503675 
-0.5636141651403193 
-0.7464853262173783 
0.05934861116279035 
0.2690259354680077 
0 
0.4451803254119152 
0.0009220261239061226 
0.4324210125976047 
0.02986260238239973 
-0.07836317987435854 
0.6221292961842155 
0.07206220157925115 
0.09264785170827729 
-0.1896801448570939 
-0.2311688806104799 
-0.06447647165579637 
-0.2156406993998819 
-0.3067448739344316 
-0.04679811715674133 
-0.013046198674582 
0.2669168195764686 
0.3009872825726806 
0.2748632657791376 
-0.1463199850960259 
0.07709227884208025 
-1.098254541702509 
0.10166769736903 
-0.03618561365578041 
0.2786327028885658 
-0.0713484449652408 
0.5422321178029722 
-0.09063242078901995 
0.03920304339972241 
-0.0196819558715463 
-0.01212179737603936 
-0.2960080954280022 
-0.6030154201239968 
-0.3292194722346315 
-0.1165415518893384 
0.7807641311073311 
0.08823477141770082 
-0.03580392291194471 
0.362692686286551 
0.1204399531220176 
0.5460518286981101 
-0.1921990567042137 
0.4586931845202333 
-0.006768887909387389 
-0.9303184206476274 
-0.01862272759110358 
-0.7353061173573944 
-0.1150828543753633 
-0.5361245887208328 
-0.2335808184469945 
-0.02897813721250303 
0.05166205675054111 
-0.3031005907095042 
-0.08609691508835449 
1.523893662738777 
-0.003512744206383464 
-0.2535134775948542 
-1.791474683442845e-19 
-0.1577987818031546 
0.04317816100203216 
0 
0.09089507134794703 
5.770411953169921e-19 
0.7732992665676904 
0.104831643758964 
-0.7558550252574169 
-0.02533060084083206 
0.04677712067329996 
1.037444920820843 
0.1747247343627313 
-0.06881280243938145 
0.4033400162686925 
0.01064058886037122 
0.2680532557150834 
0.115154475535669 
1.378777302338716 
-0.05307880759040269 
0.796342300773626 
-0.137333238681488 
-0.04195875805424006 
-0.1470939389396803 
-0.09526203445597625 
-0.7085723501203629 
-0.007400354524063953 
0.3854526712962534 
0.03746021848916391 
0.5312527205393802 
0.03014555006902575 
-0.3838922118963382 
0.3142720449126394 
-0.007886862228770809 
0.08450616796566886 
-0.1828279934077274 
0.1452111871757293 
-0.3021672473073939 
-0.01341619781378623 
-0.211671736620675 
0.5113504689036367 
-0.06425786963093029 
0.2658198784886083 
0.2626140574976376 
0.06200252657316039 
-0.2186711000919635 
-0.8167200174932037 
-0.05299301260330617 
0.02320163174357801 
0.05841725707407309 
0.5033085147704711 
0.47564228766374 
-0.1798086901050371 
0.3913511980606402 
-0.2276238816063469 
0.1659999567885798 
0.05766860401538219 
0.0415905859443976 
0.06692981373412309 
0.003246372953658444 
0.3522759413088853 
0.7213798119456948 
0.5655164890395022 
0.4842498054667734 
0.05087147187763026 
-0.00924181196568582 
0.02073582089900565 
0.4171467567704652 
0.3549203420640981 
0.3660584521920343 
0.1085050210995778 
-0.1983240348339884 
-0.4698359290584402 
0.08660843902717426 
-0.00153049319851659 
-0.1872228243430809 
0.3955263105141746 
-0.3809579407964284 
0.4096968371220245 
0.3169338042831146 
0.05485427602479911 
-0.02415664944099628 
0 
0.1503703148687431 
0.07475528901279956 
0.07894848060257494 
0.3112462616040313 
-0.2783775915467768 
-0.9567385596915837 
-0.4012294599196732 
-0.2509006108504272 
0.04040312269775311 
-0.0985372398252805 
-0.05930641786486005 
0.04242821908455371 
-0.6029820235882977 
0.03450231267833596 
-1.352353251612786 
0.164621928814269 
0.3761776949775758 
1.045581520855642 
-0.3972775650645207 
0.2824920243373614 
1.12529813662178 
-0.008703239340650169 
0.9447227721368469 
0.02558701795093564 
-0.9491284429992761 
0.2809594120225442 
0.5066297745643233 
-0.004272207377114362 
0.04888612199592889 
0.06001032311410561 
0.02217500468343363 
0.05399347248217398 
0.02772594844133036 
0.547320582791 
0.04049791929115051 
-0.2173012736797871 
-0.04657374074966538 
0.09402348924995048 
0.08617910099796192 
0.17786517865394 
-0.1613679429462787 
-0.07233928488941897 
0.2371518384614698 
-0.1101536985647916 
-0.1277266024615967 
-0.3426532306009319 
-0.008081057852437365 
0.2024801251732792 
0.09944184638966093 
0.4864305073673657 
0.301576495237676 
0.3626082208096076 
0.597668463627003 
0.5590531289259878 
0.01735406066755793 
-0.1448951808236947 
1.425659614338536 
-0.006271838143564279 
0.017619721573174 
0.008170058274757148 
0.05140273835158538 
0.1733606569099936 
-0.6956963799741893 
-0.03486348532681217 
0.02329929990408602 
0.009571809884672386 
0.2790038226982062 
0.2454612392484797 
-0.3356011816735994 
-0.01412803656713627 
-0.4523675505823743 
0.2840090515025004 
0.7619528502517858 
0.09286951906415097 
0.7267664928567875 
0.06647586685352556 
0.05619277538666532 
0.4003794859041499 
-0.7508194427002486 
-0.5827148453558246 
0.5667014393343999 
-0.01454103405783884 
0.120289142412442 
-0.0830869056773897 
0.08093205702163088 
0.4910652545708639 
0.1906631921834436 
-0.3944461103441592 
0.07244581411849081 
0.05902106766673779 
-0.0143659644993469 
0.3520904541667398 
0.4708546580558438 
-0.2729449647613254 
-1.018245863993214 
-6.564505341220828e-20 
0.3080961026129259 
0.0826452988764558 
-0.06706891938909612 
-0.03161499625131012 
-6.363335016247931e-20 
0.61935570189095 
0.02193939586526601 
0.1569164675628431 
0.1323636327918595 
-0.05501701083817042 
-0.204268258783261 
-0.318288275595898 
-0.09296424052414361 
0.4256225166931289 
0.5997167940459553 
-1.002292311276604 
-0.2615707780555968 
0.07501137098446435 
-0.2983352666786658 
-0.4785340583414193 
0.8275863421092435 
0 
-0.02900923207979768 
-0.7635929213963439 
-0.1038245162644556 
0.8950971791303838 
-0.03632108900998705 
-0.05437815711589496 
-0.1162429483026643 
-0.03035260182877949 
0.7475653126859425 
-0.5027539077067905 
0.4836758439935525 
-2.371692252312041e-20 
0.8802897052034673 
-0.01589536912710503 
0.5223700347362943 
-0.02779430660106127 
-1.012020370986782 
0.6759785464042986 
-0.5235987693303572 
-0.3013730664579667 
-0.3894369307370627 
-1.583951611365542e-18 
0.5184420295956456 
-0.401728934346956 
0.07628891434517766 
0.2911591580197739 
0.07321362144349003 
0.9023650699762562 
0.03844420731817708 
0.2137974800557783 
0.07343382885432802 
-0.07153121234126955 
-0.2460507167614912 
0.2945910086185859 
0.02390718854125927 
0.2494736652460497 
0.3323983090736164 
0.4378093502126384 
0.779389016413619 
-0.06108166441630064 
0.01549524054362564 
-0.1348831636797051 
-0.2316325166264724 
0.1373361028375644 
-0.7053294365465826 
0.03700625611239867 
0.1350457855036433 
-0.3980228498634459 
0.149145357395739 
0.428118599846224 
-0.3612209337593769 
0.3989400904862527 
-0.9424944977069972 
0.1979007929011735 
-0.07212125955131328 
0.2076872181827022 
-0.4213758864784523 
-0.06757787394959192 
-0.2183048729308511 
-0.5871501664121086 
0.3339260631047169 
-0.1689873752563008 
-0.02023608257351926 
0.03210207432569168 
-0.008948525084290443 
0.08494968152269514 
-0.1052171597455429 
-0.6710966373893369 
-0.2235158828893837 
0.01311151929342761 
-0.09452865110297565 
0.07178642896750538 
-0.072626063796327 
-0.07845479851468025 
-0.1863583161971976 
0.7296905711301156 
-0.3953436427700351 
0.6587618923245464 
-0.009693090124454937 
0.2129916119057664 
-0.6681707948058948 
-0.5755107558878141 
-0.3639866087730041 
-0.3844395247298044 
0.3484103711127292 
0.2851597641223481 
0.01489581160329988 
-0.2246200183140941 
0.01839388035621918 
0.1521220808833044 
0.1922952250744281 
-0.301225175589811 
-0.004908587205260639 
0.8967685822562823 
0.927707531479242 
-0.4021791225106746 
0.3190465083330584 
0.09140305747271321 
0.6586932548273212 
0.9192193030307791 
-0.06637010643825872 
-0.004345869251429302 
-0.2804592577745661 
0.4580196682066873 
0.06814891765105469 
-0.08783394947515724 
0.255277346309539 
-0.006903029115523355 
0.07858329517724802 
-1.133504829167733 
-0.1168772609827523 
-0.247129322401222 
-0.6987924731761511 
0.04317738841016949 
0.02234839878241841 
-0.01402777533378551 
-0.1494655939400535 
-0.2161899829653869 
0.07686653588640936 
0.5777272181612422 
1.82171189575935 
0.02159645748130234 
-0.03071474736544855 
0.6242676392728581 
0.01615518975521854 
0.2397038622064235 
-0.7391040379936136 
-0.3391638097447413 
-0.2085283760605156 
0.01238571410763301 
-0.7572187530043103 
0.01321599946598609 
0.2581330773569031 
-0.02716972410277445 
0.3183246807670759 
0.0290804148896603 
0.0166109959687357 
0.3771624537958735 
-0.1213239681641625 
-0.3295514686563988 
-0.06691048494727554 
0.5987189993572314 
0.2983848514316477 
0.5043397568612096 
0.05102391917704982 
-0.3336604260945697 
-0.2008707905256022 
-0.07213088626117448 
-0.2923906659729377 
-0.1355269175871974 
-0.5196175771421724 
0.4647236603935062 
-0.03390773486307526 
-0.8747617949714478 
-0.5616387847898422 
0.1830406244435118 
-0.3286860393652759 
-0.6834010400980489 
-0.06263541418508312 
-0.04524638548993912 
0.9448404514316135 
0 
-0.1063670608297514 
-1.045284218547617 
0.06171136277053247 
-0.4686418815661089 
0.1479007095447222 
0.2878927563592591 
-0.2905797073537082 
-0.2477360794988769 
-0.8429888487534188 
0 
-0.3071405316446282 
0.4946352705478635 
-0.152049014357236 
0.03336373800432185 
-6.590644248577503e-20 
-0.1580399435357007 
0.004646030582150927 
-0.1025993860129115 
-1.098155436810984 
0.2725816048240139 
-0.216057609727856 
-0.03562164818469123 
-0.06063628538000491 
-0.01380156361911625 
-0.0916394356108194 
0.1031773996111399 
0.4757143750986873 
-1.482445135712262 
0.18205990823713 
-0.5527542579993147 
0.09683688606384809 
0.1547649177207667 
-0.1734429235566843 
-0.3801866503890982 
0.07084576691357522 
-0.2529770413726999 
-0.09010401118117385 
0.3989058382476175 
0.3084078694095422 
0.2618465225658319 
0.005486308782693732 
-0.07956479226340223 
-0.1878513952471621 
-0.04728028854827612 
0.01394899559842496 
-0.7944602529086909 
0.237125860871889 
0.1661204391162975 
-0.06483793090449622 
0.5202501669954636 
0.03873855533172446 
-0.009873576161862864 
0.4443815774921577 
0.5029797409115596 
0.05608525994531588 
-1.142841325471383 
0.3241082517872176 
0.7892073086019227 
0.5053874367137281 
0.1006198626898994 
-0.02720273554823862 
0.8970747723348418 
1.34899053314172 
-0.01444782759493436 
-0.0001900875203661039 
0.3429579148377803 
0.3980284012887164 
0.2446419467379047 
-0.0489404132259102 
-0.393052371860644 
0.009443410924518334 
0.04027421766412764 
0.2248146877696922 
0.137163444513293 
-0.01500795542010941 
0.2995701167992401 
-0.2741730745040976 
0 
0.09358047484447851 
0.3914555455586364 
0.09096685807989809 
0.2475142852435176 
0.1998255490718964 
0.3982760752293431 
-0.04111617097735741 
-0.3538211330580701 
-0.3175937828596355 
0.1685433040799594 
0.1957905152930171 
-0.03783021606497781 
1.117615573549473 
-0.231459700751117 
0.7893040302281475 
0.84891446366627 
-5.35748339138345e-20 
-0.01297821313002497 
-0.8275143837745521 
-0.01125984404465938 
0.2309552031225268 
0.1607445507032464 
0.2567923152416779 
-0.08325672206147906 
0.4173225740956816 
0.7590341645540792 
0.3756561464709757 
0.2479296833290721 
0.09064734413627797 
0.1385986558784363 
0.110563080863349 
0.2013992203833603 
-0.008271011569008065 
-0.04221987267996426 
0.5442421758345095 
